-0.0029354621656239033,0.07630126923322678,0.10012242943048477,0.19524243474006653,0.11610504239797592,0.03499231114983559,-0.06382422894239426,-0.0947728380560875,-0.006956878118216991,0.0432027168571949,-0.016968462616205215,0.13437813520431519,0.04815184697508812,-0.04964017495512962,-0.047193992882966995,-0.0009630597196519375,-0.02845483273267746,-0.26320943236351013,0.09737937897443771,-0.0897354707121849,0.032954394817352295,0.09721656888723373,-0.023514550179243088,0.02228836715221405,0.03972923383116722,0.005153369624167681,-0.05673137307167053,0.03292986378073692,-0.06319652497768402,-0.033445607870817184,-0.14295125007629395,0.015254705213010311,-0.02624235861003399,0.015452668070793152,-0.07676283270120621,0.1986950933933258,-0.1423121690750122,-0.07428290694952011,0.16431824862957,0.07077010720968246,0.07856401056051254,-0.09169288724660873,0.04127611964941025,-0.011001366190612316,-0.03536035865545273,-0.047236133366823196,0.038091957569122314,-0.25820192694664,0.10912894457578659,-0.08119731396436691,-0.12988348305225372,0.08872630447149277,-0.05145586282014847,-0.20414717495441437,0.11184492707252502,0.015405595302581787,-0.04705412685871124,0.042268555611371994,0.04246210679411888,-0.11131420731544495,0.05651991441845894,-0.1374981552362442,-0.06054467707872391,-0.1258389800786972,-0.061065226793289185,0.09255368262529373,-0.1019342914223671,-0.018308240920305252,-0.18510232865810394,-0.03331990912556648,-0.014174851588904858,-0.1182718425989151,-0.24822843074798584,0.0983482152223587,0.14860494434833527,-0.1455911546945572,0.19371342658996582,0.08108166605234146,-0.04431653767824173,0.06132074072957039,0.08649186044931412,-0.03886380419135094,-0.01784205436706543,-0.05016179755330086,-0.03440827503800392,-0.015589545480906963,0.06066390126943588,0.07029435783624649,-0.04525277018547058,0.015570547431707382,0.09441202133893967,0.06440213322639465,0.05762379989027977,0.06341611593961716,0.017470359802246094,-0.06455256044864655,0.0432877391576767,-0.13260993361473083,-0.08087291568517685,-0.09864471107721329,0.07006405293941498,-0.14194361865520477,-0.05644114315509796,0.011808079667389393,0.018211854621767998,-0.10839002579450607,-0.17672917246818542,-0.10123242437839508,0.08581043034791946,0.09444762766361237,0.009224827401340008,-0.01638965867459774,-0.1322266310453415,0.007609277032315731,-0.0028030751273036003,-0.015318059362471104,0.06418980658054352,0.08734115213155746,-0.062193650752305984,0.09539109468460083,-0.005968257784843445,0.04190996661782265,-0.07202134281396866,-0.03254346176981926,-0.037280742079019547,0.11307700723409653,0.06586442142724991,-0.08064503222703934,0.05982990935444832,-0.1336899697780609,0.13396292924880981,0.08713319152593613,-0.03618819639086723,-0.1448357105255127,-0.053164269775152206,-0.028744524344801903,0.08269725739955902,-0.11057619750499725,-0.014509010128676891,-0.09764475375413895,0.015290086157619953,-0.17176683247089386,0.04656694084405899,0.0004873403813689947,-0.05916285514831543,0.21104371547698975,-0.05763265863060951,-0.06343088299036026,0.06138591095805168,-0.04775067791342735,-0.18433888256549835,-0.06926456838846207,-0.1648421436548233,0.1176118403673172,-0.0890941247344017,-0.13247241079807281,-0.13583503663539886,-0.08042606711387634,-0.04006657376885414,0.11482349783182144,0.015452687628567219,-0.12526407837867737,-0.1661001443862915,0.14054517447948456,0.01629871502518654,0.1432429403066635,0.19524593651294708,-0.2873843312263489,-0.03132016584277153,-0.02535005286335945,0.10049159824848175,-0.24518534541130066,-0.10783712565898895,0.13482369482517242,-0.14125312864780426,0.009521257132291794,-0.02420746348798275,0.1970766931772232,-0.07473483681678772,-0.3597413897514343,0.02117181569337845,0.3897671103477478,0.08561979979276657,0.10745798051357269,-0.4530828595161438,-0.26928266882896423,-0.038161586970090866,0.21546535193920135,0.0038153016939759254,-0.019459431990981102,-0.07421381026506424,0.2043730616569519,-0.046975694596767426,0.04627660661935806,-0.3113408386707306,-0.07015621662139893,0.04845792427659035,-0.11145971715450287,0.26509878039360046,0.029446899890899658,-0.17529752850532532,-0.014759434387087822,-0.10613361746072769,-0.07974062860012054,0.014517305418848991,-0.024548007175326347,-0.17143893241882324,0.0064085181802511215,0.05356031283736229,-0.1999819129705429,-0.015727683901786804,0.2405088096857071,0.047023531049489975,-0.30575209856033325,0.15565147995948792,0.11592435836791992,0.13065795600414276,-0.07192286103963852,-0.11883703619241714,-0.15280300378799438,0.1096028983592987,-0.2122250199317932,0.21317926049232483,0.17793917655944824,0.25965768098831177,0.07689300179481506,-0.08163183182477951,0.34793785214424133,0.2278996706008911,0.08249316364526749,-0.18053072690963745,-0.21464017033576965,-0.0003423870075494051,0.08667799830436707,-0.2915554344654083,-0.09381843358278275,0.004027769435197115,0.22581081092357635,0.10422768443822861,0.15845854580402374,0.39550286531448364,0.06458529829978943,0.0019238903187215328,-0.13783244788646698,0.32509368658065796,-0.1423957794904709,0.07652807235717773,-0.02546437829732895,-0.07082554697990417,-0.12604428827762604,-0.05239219218492508,0.041248712688684464,-0.02031741477549076,-0.5103307366371155,0.030787702649831772,0.10735641419887543,-0.055875927209854126,0.34022027254104614,-0.4603486955165863,-0.03384985029697418,-0.25831320881843567,0.25712454319000244,-0.12290317565202713,-0.0061861868016421795,-0.035908862948417664,0.01042979583144188,-0.16134464740753174,0.33777135610580444,0.2544504404067993,-0.02299521118402481,-0.23019066452980042,0.28488895297050476,0.0529726967215538,0.30114200711250305,-0.07141022384166718,-0.0469515286386013,-0.12914052605628967,0.09467876702547073,0.32161614298820496,-0.016435781493782997,0.047535017132759094,-0.08836530894041061,-0.007772918790578842,0.385513037443161,0.1409449726343155,0.16163426637649536,0.065678171813488,0.030849456787109375,0.25019651651382446,-0.03241410478949547,-0.06936247646808624,0.1126672700047493,-0.253233939409256,0.03494450822472572,0.1706497073173523,0.07094086706638336,0.005022556520998478,-0.3598358631134033,-0.027626164257526398,-0.2671111226081848,0.08369241654872894,0.16781161725521088,0.12959536910057068,0.06916045397520065,-0.04804645851254463,0.10101643204689026,0.17944398522377014,0.11862047761678696,0.09268327802419662,-0.29956790804862976,0.2677837908267975,-0.21309229731559753,-0.03163458779454231,-0.18546722829341888,0.1833459436893463,0.01956416480243206,-0.13441509008407593,-0.21027399599552155,-0.15852193534374237,0.02701595239341259,0.0066784038208425045,-0.03534255921840668,0.012523045763373375,-0.011061127297580242,-0.016094589605927467,-0.3243553042411804,-0.07722198218107224,-0.14912796020507812,-0.022459108382463455,-0.148657888174057,-0.22185349464416504,0.13664822280406952,0.17949636280536652,0.034985125064849854,0.06258197128772736,0.164931058883667,-0.1476178616285324,-0.13653172552585602,0.19142471253871918,0.2828349173069,-0.003146005794405937,-0.04195133224129677,-0.024908147752285004,0.06734167039394379,-0.03734026476740837,0.10969918221235275,0.11851704120635986,0.2065441608428955,0.10725264996290207,0.049851495772600174,-0.07443076372146606,0.04475625231862068,0.14214082062244415,-0.15144266188144684,0.06878150999546051,-0.13713204860687256,0.011102200485765934,-0.26097962260246277,0.3589704930782318,-0.25505080819129944,0.04552937299013138,-0.20695000886917114,0.14922693371772766,0.16879621148109436,-0.07271096110343933,0.07169259339570999,0.0728238970041275,0.0817846804857254,0.1063702404499054,0.17691221833229065,0.03876473382115364,-0.11824613064527512,0.08400265872478485,-0.3288726508617401,0.12605516612529755,0.07753323763608932,-0.15123681724071503,0.3567081391811371,0.030429689213633537,0.06919414550065994,-0.16196797788143158,0.2101111263036728,0.12402382493019104,0.11098726093769073,0.09937920421361923,-0.11170182377099991,0.16135230660438538,0.04824575036764145,-0.467806339263916,-0.06446201354265213,-0.27804574370384216,0.31415706872940063,-0.07880197465419769,-0.16021685302257538,0.04578113555908203,0.10053344070911407,-0.19395171105861664,-0.16007615625858307,-0.049540236592292786,0.20975247025489807,-0.18383602797985077,-0.20454561710357666,-0.07925329357385635,0.16681760549545288,-0.16483096778392792,0.010044733993709087,-0.31656596064567566,0.11788742244243622,0.11127359420061111,-0.007156298495829105,0.026052266359329224,0.12671247124671936,-0.015710722655057907,0.12913116812705994,-0.26274573802948,-0.0008299677283503115,0.08088560402393341,0.28966861963272095,0.16178859770298004,0.43399935960769653,-0.284335732460022,-0.2716526687145233,0.18590287864208221,-0.2979651391506195,0.1654597967863083,-0.18145278096199036,-0.023523371666669846,0.33054161071777344,-0.013992204330861568,-0.0012032416416332126,-0.21884573996067047,0.12973393499851227,-0.12970446050167084,0.1872764676809311,-0.08469285070896149,0.09702982008457184,-0.014064104296267033,-0.15374800562858582,0.014245427213609219,0.026137931272387505,0.36357444524765015,-0.625082790851593,-0.33669424057006836,-0.011126966215670109,0.15331006050109863,0.017161397263407707,0.1730826050043106,-0.45565834641456604,-0.0757514238357544,-0.032489705830812454,-0.4559380114078522,0.42989274859428406,0.5826939940452576,0.0640333741903305,-0.44543254375457764,0.2281339317560196,0.1499207466840744,-0.06307875365018845,0.30008456110954285,-0.55881667137146,0.29502397775650024,-0.41731879115104675,0.08935891091823578,0.6331679821014404,0.37777474522590637,-0.33898085355758667,0.20210085809230804,0.13309097290039062,0.052241526544094086,0.31017863750457764,0.015525988303124905,-0.14449286460876465,-0.42246609926223755,0.2489626407623291,0.13015437126159668,-0.645413339138031,-0.24058160185813904,0.049031179398298264,-0.05777252838015556,-0.04303537681698799,0.26132211089134216,-0.13439422845840454,-0.34602639079093933,0.08902803063392639,-0.18260279297828674,-0.20538665354251862,0.19441793859004974,0.057977333664894104,0.1261054128408432,-0.21720540523529053,-0.06010265648365021,0.054519835859537125,0.6839639544487,0.5884994864463806,-0.05993429571390152,-0.4249911606311798,-0.47403332591056824,-0.3997079133987427,0.4168189764022827,-0.3974297344684601,0.42818641662597656,-0.01808777078986168,0.1777643859386444,-0.2607097327709198,0.26972439885139465,0.3802240490913391,-0.4254818558692932,0.3073787987232208,0.15092608332633972,-0.12139484286308289,-0.1629904806613922,-0.207115039229393,-0.6985971927642822,-0.201862171292305,0.1552756130695343,-0.37007009983062744,0.4678093194961548,-0.13332539796829224,-0.08027090132236481,0.019358722493052483,0.12458653002977371,-0.05153936520218849,-0.09091323614120483,0.37804168462753296,-0.19695885479450226,-0.34567752480506897,-0.2435297816991806,0.00043732381891459227,0.18986764550209045,-0.35662829875946045,-0.14493294060230255,-0.28325900435447693,-0.48922601342201233,0.3513016104698181,-0.4694128930568695,-0.5803053975105286,-0.19737479090690613,-0.8130660653114319,-0.06703180074691772,0.04650203511118889,0.415350079536438,0.44748231768608093,-0.23404331505298615,-0.023650042712688446,-0.5304698348045349,0.17306849360466003,-0.5241907238960266,-0.13779693841934204,0.23853106796741486,0.019578084349632263,0.10363151133060455,0.5989752411842346,0.7584600448608398,0.029895497485995293,-0.7435258030891418,-0.22855202853679657,0.15205103158950806,-0.18227659165859222,-0.6206672191619873,-0.03550884127616882,0.6510844230651855,-0.16222414374351501,0.537883460521698,-0.30459171533584595,-0.3538964092731476,-0.04993840306997299,-0.06031525880098343,-0.10084637999534607,0.20855773985385895,-0.250755250453949,0.32263901829719543,0.190712571144104,0.1470022052526474,-0.4641623795032501,0.1475612223148346,0.42199820280075073,-0.07276026159524918,-0.11330291628837585,0.04218154400587082,0.07038436830043793,0.37053734064102173,-0.3550366759300232,-0.27649757266044617,0.06705770641565323,0.22043479979038239,-0.4014212489128113,0.17725586891174316,0.023549815639853477,0.23136138916015625,0.04948955029249191,-0.0740099623799324,0.183280348777771,-0.24995794892311096,0.3733159899711609,-0.1040056049823761,0.4814818203449249,0.041091084480285645,0.1854810118675232,0.08710367977619171,0.017146572470664978,-0.0033269021660089493,-0.1870584636926651,0.05472705140709877,0.20476804673671722,0.08597250282764435,0.21973513066768646,0.0912855714559555,0.011737684719264507,0.23659852147102356,0.03060871921479702,0.2613483965396881,-0.06187978386878967,0.14709827303886414,0.2041371613740921,0.03674915432929993,-0.11977469176054001,0.48450613021850586,-0.04327874258160591,0.191166952252388,-0.017374534159898758,0.18158157169818878,-0.11380897462368011,0.07520224899053574,-0.1696983277797699,-0.08455555140972137,0.14233562350273132,0.039153821766376495,0.025179535150527954,0.04148584604263306,0.04764639213681221,0.24103310704231262,-0.09295402467250824,0.1158081516623497,-0.06928373128175735,0.09831643849611282,-0.048906002193689346,-0.03294120356440544,-0.23581743240356445,-0.032084621489048004,0.04654933884739876,-0.06560005247592926,0.18798679113388062,0.05300120264291763,0.1707179844379425,0.08507642149925232,-0.30234307050704956,-0.03244004026055336,-0.41743287444114685,0.029704680666327477,-0.36092498898506165,0.027585344389081,0.06357257813215256,-0.005767987109720707,-0.14820632338523865,0.1706007719039917,-0.028223341330885887,0.05635436996817589,-0.2630540132522583,-0.08837828040122986,0.1325233429670334,0.3249383866786957,0.03119504824280739,0.2833138704299927,-0.07492274791002274,-0.22222290933132172,-0.3327842354774475,-0.17416901886463165,0.05234033241868019,0.2728070616722107,-0.10639791935682297,-0.02866656519472599,0.14949007332324982,0.12243073433637619,-0.1236148253083229,-0.1901826709508896,-0.024546856060624123,-0.23690342903137207,-0.12781722843647003,0.036089226603507996,-0.02925858646631241,-0.2921133041381836,-0.11453399807214737,0.351346492767334,-0.0980309322476387,-0.022982381284236908,-0.1315481960773468,0.1275322139263153,-0.24625720083713531,-0.316081702709198,-0.1198560893535614,-0.2121911644935608,-0.02303944155573845,-0.07085765898227692,0.25090527534484863,-0.017024576663970947,0.14787311851978302,0.2465357482433319,-0.03043685294687748,0.016625382006168365,-0.08458386361598969,-0.11343920975923538,-0.008148184046149254,-0.16028809547424316,-0.08276478201150894,-0.040847860276699066,-0.007975351996719837,0.1658822000026703,0.011422738432884216,0.06511916220188141,0.14678850769996643,-0.12504208087921143,0.029852915555238724,0.07942632585763931,-0.18807241320610046,0.26091039180755615,-0.2508137822151184,-0.3715652823448181,0.0009576838347129524,0.04121604189276695,-0.010204881429672241,0.09086885303258896,0.0048310100100934505,-0.004114119336009026,0.1958763748407364,0.12650810182094574,0.017608478665351868,-0.38906532526016235,0.27274927496910095,0.05400514975190163,0.05971372872591019,-0.21200495958328247,-0.16392876207828522,0.20756961405277252,0.12376021593809128,0.15097631514072418,-0.13802915811538696,0.021361229941248894,-0.048989880830049515,0.2266489565372467,-0.06161841005086899,0.1032218486070633,-0.050541430711746216,0.007510752882808447,0.027783876284956932,0.12903285026550293,-0.06167946755886078,-0.20865140855312347,-0.13391335308551788,0.282455176115036,0.11476002633571625,0.18569298088550568,0.2578672766685486,-0.09318093210458755,0.027126003056764603,-0.28449398279190063,-0.08254136145114899,-0.050182536244392395,-0.01184751559048891,-0.12521889805793762,-0.2316317856311798,0.13608911633491516,0.09281725436449051,-0.13704384863376617,-0.17694924771785736,-0.37007758021354675,-0.17227308452129364,0.12157963961362839,-0.007772612851113081,0.002821933012455702,-0.12626509368419647,-0.049706149846315384,-0.13174055516719818,-0.37406858801841736,0.21837957203388214,-0.13168516755104065,-0.1895437389612198,0.11713648587465286,-0.07863561064004898,0.6000089645385742,-0.2981819808483124,0.055269502103328705,0.20296254754066467,0.10832396894693375,0.2537439167499542,0.24427276849746704,0.24890047311782837,-0.19939029216766357,0.1849479079246521,-0.1903734803199768,0.1917458176612854,0.04087706282734871,0.06459034979343414,0.1542072594165802,0.054444096982479095,0.05916053429245949,-0.158769890666008,0.00956757739186287,0.22500938177108765,-0.001021017087623477,-0.23450393974781036,-0.2711414396762848,0.11035560816526413,0.4404642581939697,0.05623839795589447,-0.07462029904127121,0.03489184007048607,-0.1429600864648819,0.0574030727148056,-0.12511643767356873,0.24337461590766907,0.020928898826241493,-0.0937834307551384,-0.1922627091407776,0.17998920381069183,-0.2413928061723709,-0.24826090037822723,-0.145657479763031,-0.12525886297225952,-0.018181687220931053,-0.15028323233127594,-0.3924407660961151,-0.06837061792612076,0.3669731616973877,-0.04400040954351425,-0.23657990992069244,0.11934354156255722,0.026176685467362404,0.0722002312541008,-0.055488891899585724,-0.009027482010424137,-0.32800331711769104,-0.04498733580112457,0.09709803014993668,0.07909437268972397,-0.05865877494215965,-0.04004717245697975,-0.1960519701242447,-0.20693838596343994,0.2277081161737442,0.0170318353921175,0.24167336523532867,0.11477639526128769,0.24904164671897888,0.11866583675146103,0.13916276395320892,-0.1286078691482544,0.09230735152959824,-0.02264818362891674,-0.07060252130031586,0.06066785380244255,-0.012811879627406597,-0.15191364288330078,0.10602954775094986,-0.258207231760025,0.24124716222286224,0.027254097163677216,-0.04272984713315964,0.1545262187719345,0.4018422067165375,0.2770565450191498,-0.15960121154785156,-0.09349208325147629,-0.05672815442085266,0.16009609401226044,-0.19765649735927582,-0.1504869908094406,-0.13974499702453613,-0.07045590877532959,-0.06822466850280762,0.08243804425001144,-0.14272430539131165,-0.20130281150341034,0.0053841350600123405,-0.3494434654712677,-0.04900117963552475,0.06386049091815948,0.34643083810806274,0.15833346545696259,-0.16296277940273285,-0.5360929369926453,-0.012984859757125378,-0.05193732678890228,0.12646621465682983,0.25003260374069214,0.09055504947900772,0.007912522181868553,-0.2394935041666031,-0.19607765972614288,0.0013597282813861966,0.0009020126308314502,0.20776501297950745,-0.05947643518447876,-0.07010258734226227,0.09024570137262344,-0.22537733614444733,0.08626311272382736,0.16763871908187866,0.16476240754127502,0.15261773765087128,-0.11092120409011841,-0.2276226282119751,0.007307578343898058,0.018922094255685806,-0.23583419620990753,-0.13703903555870056,-0.14857886731624603,-0.13592268526554108,-0.3224058449268341,0.0361909344792366,-0.06590196490287781,0.04456489905714989,0.017657915130257607,0.30623066425323486,0.22800369560718536,0.08008314669132233,-0.10460957139730453,0.17128418385982513,0.3309306204319,-0.1874309927225113,-0.38373124599456787,-0.33597198128700256,-0.025885850191116333,0.3978588283061981,0.7402305006980896,-0.7516880631446838,-0.21693475544452667,-0.31256964802742004,0.46543681621551514,-0.07172295451164246,-0.026772018522024155,-0.18566882610321045,-0.08909925073385239,-0.25607770681381226,0.03868803754448891,0.1014053151011467,-0.014617834240198135,0.5836760997772217,0.22059324383735657,0.023111287504434586,0.04518989846110344,-0.31387829780578613,0.17890432476997375,0.2884088456630707,-0.22340402007102966,0.1162380501627922,-0.27741897106170654,0.15689833462238312,-0.03104490600526333,0.1978921741247177,0.17501993477344513,0.29140910506248474,0.10483336448669434,-0.1422891616821289,0.1444159895181656,0.37121015787124634,0.45403799414634705,0.01826297678053379,-0.20743530988693237,-0.10722150653600693,0.001970508601516485,0.13916242122650146,-0.036195285618305206,-0.12601275742053986,0.3026066720485687,0.19316720962524414,0.3420678675174713,0.19073307514190674,-0.8807151317596436,-0.24024710059165955,0.0937637984752655,-0.3185667395591736,-0.23218730092048645,-0.0021041948348283768,-0.07724852859973907,0.08589189499616623,0.24585461616516113,-0.6511433124542236,-0.14899079501628876,0.0991070419549942,0.18636441230773926,-0.33409056067466736,-0.19069428741931915,0.21292585134506226,0.35019001364707947,0.18116001784801483,0.25318965315818787,0.5044652819633484,-0.0470147542655468,0.5064961314201355,0.18487919867038727,0.1396949589252472,-0.07598225772380829,0.04661845043301582,0.6068899631500244,-0.23264116048812866,0.20301619172096252,-0.0704854428768158,0.20056945085525513,0.08199923485517502,-0.3938095271587372,0.057178474962711334,-0.12767912447452545,-0.08861550688743591,-0.043631661683321,0.22710223495960236,0.09300547093153,-0.26712584495544434,0.38340798020362854,-0.5267678499221802,-0.5650936961174011,0.06689020991325378,0.05820417404174805,-0.3873724043369293,0.31322726607322693,0.2874597907066345,0.18832364678382874,-0.08999080955982208,-0.06877467036247253,0.3593440055847168,0.29129332304000854,-0.4057038128376007,-0.11800830811262131,-0.46519267559051514,-0.06882672756910324,0.3390170633792877,-0.01530168391764164,0.3994012773036957,-0.06499913334846497,0.20522655546665192,-0.21032612025737762,-0.20235329866409302,-0.004332940559834242,-0.5708158016204834,0.2294774204492569,0.21105314791202545,0.06878028810024261,-0.12502428889274597,0.11571741104125977,-0.11218268424272537,-0.06687889993190765,-0.2551320195198059,-0.1478320062160492,0.8717249631881714,-0.3752278983592987,-0.45765960216522217,-0.281896710395813,-0.24233466386795044,0.4506351351737976,-0.2636910378932953,0.03659326210618019,-0.009933903813362122,0.06229153648018837,0.19585473835468292,-0.12390091270208359,0.029210800305008888,0.00896397978067398,0.15656699240207672,-0.04911266267299652,-0.13407674431800842,0.0689694955945015,0.16658493876457214,0.16455553472042084,0.07024111598730087,-0.13799333572387695,0.25140580534935,-0.13388116657733917,-0.15463711321353912,-0.09071895480155945,0.25858235359191895,0.12656907737255096,-0.19177190959453583,0.06098143011331558,0.15779082477092743,-0.00010853692219825462,0.03144069015979767,0.04203223064541817,0.043958358466625214,-0.031771618872880936,0.09283903986215591,0.0045358180068433285,0.008963528089225292,-0.09380745142698288,0.16916905343532562,0.04827610403299332,0.012498828582465649,-0.07207108289003372,0.0648174062371254,0.0208458099514246,0.036948900669813156,-0.03864622488617897,-0.03352915868163109,-0.0749984160065651,-0.002694507595151663,-0.01509814616292715,-0.028955478221178055,-0.11430875957012177,-0.1572083830833435,0.03842565417289734,-0.047670040279626846,0.022234827280044556,-0.09902491420507431,0.09008829295635223,0.12428982555866241,0.037101101130247116,0.10688523203134537,0.148569256067276,0.12209991365671158,0.0861680805683136,-0.09381157904863358,0.10418388992547989,0.053726352751255035,-0.017917659133672714,0.12500785291194916,0.003540138714015484,-0.01800418645143509,0.1194978654384613,0.12621286511421204,-0.047078415751457214,0.04376642033457756,0.09939219802618027,-0.07840374112129211,0.07473793625831604,-0.041574686765670776,0.131630077958107,0.20640097558498383,0.14728805422782898,-0.14432162046432495,-0.039417773485183716,0.003806792665272951,-0.026586879044771194,0.08973751962184906,0.013985374011099339,0.028370779007673264,0.04864468052983284,0.006560969166457653,-0.10172828286886215,0.09944692254066467,0.06360921263694763,0.012092738412320614,-0.07133172452449799,-0.13978099822998047,-0.17939816415309906,0.01682712696492672,-0.11161016672849655,0.10392540693283081,0.10142001509666443,-0.2041827291250229,0.009379126131534576,0.006210746243596077,-0.04024460166692734,-0.07854238152503967,0.07711008191108704,0.1181495264172554,0.017829881981015205,0.09134234488010406,-0.0758121982216835,-0.12261436879634857,0.19758695363998413,0.0522979199886322,-0.08126917481422424,-0.01609085686504841,-0.01680964045226574,0.20099565386772156,0.026499975472688675,0.08845042437314987,0.003460977226495743,0.05520284175872803,-0.011394868604838848,-0.04583153873682022,-0.08437398821115494,0.04978190362453461,0.09681820869445801,0.15588508546352386,-0.08339698612689972,0.06735637038946152,-0.04914204776287079,-0.05247979238629341,-0.0504373237490654,-0.033687788993120193,-0.057041414082050323,-0.11761423945426941,-0.02627543732523918,0.1640864461660385,-0.2810320258140564,0.028071394190192223,0.010514398105442524,0.0810968428850174,-0.11230045557022095,0.02123958431184292,0.11182091385126114,0.11039113998413086,0.08128492534160614,0.0678768903017044,0.05126037821173668,0.026156671345233917,-0.06032724678516388,-0.06014476716518402,-0.09460341185331345,-0.05622261390089989,0.02791120484471321,-0.04411501809954643,-0.3561006486415863,0.015073005110025406,-0.19771374762058258,0.15245212614536285,0.24640563130378723,-0.053769342601299286,0.017693590372800827,-0.11562095582485199,0.354626327753067,0.2206043004989624,-0.007454963866621256,-0.09287771582603455,-0.3052181601524353,0.061881933361291885,-0.10739187896251678,0.1312180757522583,-0.1118072047829628,0.28551164269447327,0.04144861549139023,0.17998577654361725,0.20611508190631866,-0.0971551313996315,-0.12000418454408646,-0.24053966999053955,0.18875373899936676,0.41775450110435486,0.05763154476881027,-0.04779282212257385,0.0438108891248703,-0.23236161470413208,-0.15613800287246704,0.17906628549098969,-0.036596544086933136,-0.14741754531860352,0.45793333649635315,0.01689423993229866,0.40882235765457153,-0.3381895422935486,-0.1637122482061386,-0.13959889113903046,0.5862893462181091,0.23140479624271393,-0.12305999547243118,-0.08403116464614868,0.09241195023059845,-0.5424736142158508,-0.23941999673843384,0.21392922103405,-0.0014674825360998511,0.11565069854259491,-0.42392638325691223,-0.037358470261096954,-0.051976315677165985,-0.07197030633687973,0.23600128293037415,0.29241693019866943,-0.1937638521194458,-0.08773209899663925,0.11173799633979797,0.5663542747497559,-0.14195658266544342,-0.16412711143493652,-0.35092446208000183,0.361608624458313,-0.060363609343767166,-0.028510846197605133,0.05259739235043526,-0.011524898000061512,0.03260656073689461,0.03700723871588707,-0.46524205803871155,0.3912307322025299,0.3819790780544281,-0.32854801416397095,-0.054312266409397125,0.35703158378601074,-0.47162342071533203,-0.012293566949665546,0.2977646589279175,0.07767177373170853,0.2873618006706238,0.37344515323638916,0.04490675777196884,-0.24895961582660675,0.12291739881038666,0.12321803718805313,0.026749877259135246,-0.210784912109375,0.16406212747097015,-0.18287116289138794,0.10053139179944992,-0.1680823266506195,-0.04934128746390343,-0.1134934201836586,-0.06288310885429382,-0.06189152970910072,-0.12415206432342529,0.002770324470475316,0.4616145193576813,0.30988067388534546,-0.20674026012420654,0.2141549289226532,0.28960099816322327,-0.016814788803458214,0.29655876755714417,0.06742218881845474,-0.019400406628847122,0.09497736394405365,-0.024572402238845825,-0.1188681572675705,0.19146648049354553,-0.1658836156129837,-0.2567296326160431,-0.3977755904197693,-0.03218195587396622,0.1516585648059845,-0.06216118484735489,-0.1069541648030281,0.2117125689983368,0.21891403198242188,-0.06348709017038345,0.1355314999818802,0.030849453061819077,-0.12184019386768341,-0.07847949117422104,-0.4056248366832733,0.012715683318674564,0.2244584858417511,0.015977516770362854,0.5277678966522217,-0.444616436958313,0.14083348214626312,0.028566595166921616,0.09469954669475555,0.041533637791872025,0.2662033438682556,-0.3212634027004242,-0.07621405273675919,0.09405273199081421,0.07974005490541458,0.24049583077430725,0.1485070437192917,0.05680915340781212,0.13815686106681824,0.2661992907524109,0.14175504446029663,-0.05874541029334068,-0.21278609335422516,-0.0876254066824913,0.17610284686088562,-0.18124039471149445,-0.24646277725696564,-0.08449002355337143,-0.18539740145206451,-0.11399957537651062,0.03900438919663429,-0.01584787666797638,0.19057631492614746,-0.12610502541065216,0.06774385273456573,0.0004685445746872574,-0.057518359273672104,0.17734600603580475,-0.09011587500572205,0.06726285070180893,-0.0328378789126873,-0.011174412444233894,0.17636486887931824,0.021184884011745453,-0.09750755876302719,-0.0047434368170797825,-0.037193890661001205,-0.23423254489898682,0.14806008338928223,0.048037704080343246,-0.06287708878517151,0.031834665685892105,0.06086054816842079,0.09815964847803116,-0.21983648836612701,0.08322140574455261,-0.020772304385900497,-0.005664766766130924,-0.021546145901083946,0.0696314349770546,-0.03333720937371254,-0.0853634923696518,-0.09148580580949783,0.22259972989559174,-0.14630751311779022,0.017005087807774544,0.11735743284225464,-0.09008284658193588,0.11427458375692368,0.10009566694498062,0.03477005660533905,-0.3726596534252167,0.060798197984695435,-0.04260633885860443,-0.15316633880138397,-0.011345712468028069,0.000261096894973889,-0.05547994002699852,0.0785113051533699,-0.0028803814202547073,-0.15170563757419586,-0.1556604653596878,0.05028212442994118,0.04111478850245476,0.12085460871458054,0.005545869469642639,0.12514908611774445,0.1355341076850891,-0.21899785101413727,-0.19763872027397156,0.004348211921751499,-0.02800963632762432,0.002532541286200285,0.15576837956905365,0.13663528859615326,0.03994257375597954,0.12526623904705048,-0.2001258134841919,0.02834109030663967,0.12810276448726654,0.05951256677508354,0.018000487238168716,0.004226302728056908,0.022193364799022675,0.05698418617248535,0.016318703070282936,0.08166832476854324,-0.017696529626846313,0.07552442699670792,-0.021619705483317375,0.146692156791687,0.027014361694455147,0.0808304101228714,0.042123857885599136,0.0057627069763839245,0.1876317858695984,0.23053351044654846,0.12452833354473114,0.1918974369764328,-0.13203561305999756,-0.101547472178936,-0.047918617725372314,-0.08201582729816437,0.10295851528644562,-0.14511603116989136,-0.040877893567085266,-0.03427918255329132,-0.19725443422794342,-0.1560867875814438,0.2843591272830963,0.07942913472652435,0.14021113514900208,0.12598247826099396,-0.012742668390274048,-0.028494199737906456,-0.01862454228103161,0.14197145402431488,-0.13144083321094513,-0.20751473307609558,-0.0903799906373024,-0.03982902318239212,-0.03931629657745361,-0.13117119669914246,-0.06525447964668274,0.18894758820533752,0.07407578080892563,-0.14728185534477234,-0.1866695135831833,-0.13313238322734833,-0.20929904282093048,0.08416513353586197,0.05319399759173393,0.02475043199956417,-0.2251991182565689,0.16498373448848724,-0.07951385527849197,0.14251503348350525,0.17131826281547546,0.04820447787642479,-0.05196036770939827,-0.11479497700929642,0.1260080337524414,-0.04531293362379074,0.12441423535346985,-0.17655476927757263,0.18595480918884277,0.08617553114891052,-0.0781356617808342,0.10989655554294586,0.09882783889770508,-0.10170955955982208,-0.0939144417643547,0.1915806233882904,-0.049588244408369064,0.0029912623576819897,-0.1780465990304947,-0.026838107034564018,-0.08791351318359375,-0.13792292773723602,0.027745818719267845,0.16946962475776672,-0.022991666570305824,-0.08303452283143997,-0.0740666314959526,-0.030834125354886055,-0.035590361803770065,-0.18475668132305145,-0.058816343545913696,-0.12994401156902313,0.05905645340681076,7.46201621950604e-05,0.030861519277095795,0.05656251311302185,0.07961811125278473,0.07186612486839294,0.12681500613689423,-0.13629665970802307,0.07304448634386063,0.05353664979338646,-0.042225372046232224,-0.09961605817079544,0.02495100162923336,-0.08775614202022552,-0.07539288699626923,-0.13086171448230743,0.07463880628347397,-0.07666484266519547,-0.02205447480082512,0.003967911936342716,-0.030094604939222336,-0.08200551569461823,-0.04256049171090126,-0.05122685432434082,-0.06408553570508957,0.011839614249765873,0.08506568521261215,-0.11343901604413986,-0.04982415586709976,0.10834649950265884,-0.1201719418168068,0.03214515373110771,0.10963687300682068,-0.09355203062295914,-0.10348829627037048,0.09240029007196426,0.10014880448579788,0.05104638636112213,-0.08031611144542694,-0.10877411812543869,0.14099769294261932,0.23478619754314423,-0.058286190032958984,0.015222459100186825,-0.03750525787472725,0.06181379780173302,-0.1426023244857788,0.0073400577530264854,0.029865050688385963,0.04901346191763878,-0.037564486265182495,0.054491493850946426,-0.060550760477781296,0.010619322769343853,-0.1203608587384224,-0.11388088017702103,0.044978298246860504,0.08148684352636337,-0.02460848167538643,-0.061001501977443695,0.192546546459198,0.09748470783233643,-0.0035034234169870615,-0.19117200374603271,-0.07660568505525589,-0.10044420510530472,-0.025824859738349915,-0.06398880481719971,-0.07306762039661407,-0.07572715729475021,-0.012305150739848614,0.12344078719615936,0.07885250449180603,0.09811362624168396,0.07338287681341171,0.02207314968109131,0.017726197838783264,-0.06259636580944061,0.046758804470300674,-0.05423787608742714,0.08162640780210495,0.18064694106578827,0.17048755288124084,0.0613425113260746,0.20118635892868042,-0.005958067253232002,0.07052724063396454,-0.13433252274990082,-0.13387556374073029,-0.06627833843231201,0.09362248331308365,0.23883624374866486,0.07068504393100739,0.015774205327033997,-0.004483965691179037,-0.16015304625034332,-0.20268870890140533,-0.11002262681722641,-0.050490379333496094,0.14947566390037537,-0.14593605697155,-0.04322004318237305,0.023027222603559494,0.03994147107005119,-0.09119436889886856,-0.15165674686431885,-0.1406659036874771,0.06217753514647484,-0.004313692916184664,0.028425084426999092,-0.052613697946071625,0.10309568047523499,-0.056717220693826675,-0.021885449066758156,0.17548881471157074,0.019251104444265366,-0.005059971008449793,-0.007385039236396551,0.15009252727031708,0.0986812487244606,0.06674638390541077,-0.03578411042690277,0.11956863105297089,-0.10100913047790527,-0.05111300200223923,-0.07893402129411697,-0.18049994111061096,0.08519817143678665,0.06652423739433289,-0.07048768550157547,-0.09863028675317764,0.18662874400615692,0.15201281011104584,0.20426958799362183,0.09687735885381699,-0.2904013693332672,-0.0011960322735831141,0.14754094183444977,-0.3133169114589691,-0.240463525056839,-0.04982390254735947,-0.040039271116256714,-0.018276117742061615,0.07369963079690933,0.07570798695087433,-0.21767210960388184,-0.08552812784910202,0.016349593177437782,-0.21386145055294037,0.028693746775388718,-0.15522663295269012,0.21486486494541168,0.08138954639434814,0.1635095775127411,0.0844142958521843,-0.12242738902568817,-0.016649672761559486,-0.01216217502951622,0.26557254791259766,-0.01190083660185337,0.04650743305683136,-0.0014295963337644935,0.07342740893363953,0.05835844203829765,0.02159249223768711,-0.19227471947669983,-0.062032971531152725,-0.14021854102611542,-0.2062811404466629,-0.13380064070224762,-0.21548905968666077,0.04535612836480141,-0.03592779487371445,-0.007154796738177538,-0.061343539506196976,-0.015864860266447067,0.10384337604045868,0.03835887834429741,0.09234506636857986,0.019057882949709892,0.11182889342308044,-0.08815079182386398,-0.17799071967601776,0.025726130232214928,-0.03459170088171959,0.0679817870259285,0.03768650069832802,0.17628765106201172,0.17650571465492249,0.05404079705476761,0.07956963032484055,0.005489596631377935,0.10095495730638504,0.04593735933303833,0.07985120266675949,-0.2085987627506256,-0.16874325275421143,0.031379830092191696,-0.118450827896595,0.05067520588636398,-0.1183898001909256,-0.2748725414276123,-0.05054633691906929,-0.06327062100172043,0.12927842140197754,0.07909102737903595,-0.2878180742263794,0.15798941254615784,-0.06166624650359154,-0.06427629292011261,-0.00269821984693408,-0.02821512147784233,-0.09866876900196075,-0.1305657923221588,-0.13558070361614227,-0.1979934126138687,-0.1692289263010025,-0.03927302360534668,-0.24061301350593567,-0.08700848370790482,-0.10997538268566132,-0.013783799484372139,0.13478216528892517,0.10466166585683823,-0.022152729332447052,-0.06653598695993423,0.18226991593837738,-0.26486197113990784,0.02564818784594536,0.04838614538311958,0.13927938044071198,0.11239241063594818,-0.2771158814430237,0.008917966857552528,-0.1489429622888565,0.002169583225622773,-0.09789784252643585,0.2864275276660919,-0.018387051299214363,0.17472301423549652,-0.1594538390636444,-0.06708154082298279,0.2489093840122223,-0.02222670614719391,0.0038410553243011236,0.04892463982105255,0.021961672231554985,-0.13943983614444733,0.047407619655132294,0.15312205255031586,-0.0065106963738799095,-0.13597379624843597,-0.13284531235694885,0.07416747510433197,-0.08982770889997482,-0.08448430895805359,0.07871999591588974,0.024615388363599777,-0.09298092871904373,-0.10432817041873932,0.08177246898412704,0.0060386317782104015,-0.0587155856192112,-0.017664683982729912,-0.14785413444042206,-0.21692287921905518,0.006448804866522551,0.01669989712536335,0.29327577352523804,-0.003402916481718421,-0.04578240588307381,-0.1450910121202469,0.03611508384346962,0.014255457557737827,-0.012589769437909126,0.05350079759955406,-0.1447460949420929,0.16277316212654114,-0.04125659912824631,0.05799248814582825,0.01722603477537632,-0.12604711949825287,-0.049767158925533295,0.06073612719774246,0.09263894706964493,-0.1866471916437149,0.21202783286571503,-0.2648967504501343,-0.2615055739879608,-0.18515774607658386,0.0824042335152626,0.33023884892463684,-0.01735784485936165,-0.3924294710159302,-0.09504243731498718,-0.17943404614925385,-0.0923459380865097,0.11259154975414276,0.3022781312465668,-0.06737645715475082,-0.10663759708404541,0.05079318583011627,-0.036877598613500595,-0.1735086292028427,0.11897102743387222,0.11367370933294296,0.0938967913389206,0.27960023283958435,-0.1685466766357422,0.16092513501644135,0.2999544143676758,0.0939788818359375,0.05729958042502403,-0.08939959853887558,0.3204704225063324,-0.20613251626491547,0.05258360505104065,0.23386415839195251,0.016859199851751328,-0.1206633448600769,0.2802901566028595,0.29655906558036804,-0.09386972337961197,-0.3231735825538635,-0.08236374706029892,0.025246132165193558,0.006647271104156971,-0.11340611428022385,0.21912698447704315,-0.014679789543151855,0.28035128116607666,0.15202809870243073,0.2908800542354584,0.2745950520038605,0.11319045722484589,0.027023393660783768,0.20292744040489197,-0.23090732097625732,-0.2094101458787918,-0.03835756331682205,-0.08460763841867447,0.1094631776213646,0.044434305280447006,0.014308357611298561,0.03785322606563568,-0.1245933473110199,0.14961346983909607,-0.3342440128326416,-0.08045276254415512,-0.2278386652469635,-0.042578719556331635,0.0617578960955143,0.1131296306848526,-0.3680899441242218,0.23201778531074524,0.2858433127403259,0.1712205857038498,0.009450823068618774,-0.01653345860540867,-0.0767953172326088,-0.01846354827284813,-0.1946994960308075,0.021433155983686447,0.18340663611888885,0.007808095309883356,0.3414676785469055,-0.07915574312210083,-0.0048772734589874744,0.0703250989317894,0.14252625405788422,0.08410405367612839,-0.016485650092363358,-0.24284395575523376,-0.2358437478542328,0.010315733030438423,0.1481204777956009,-0.18199282884597778,-0.18610119819641113,0.2360854595899582,-0.24319025874137878,-0.2635129392147064,0.09751761704683304,0.2027001529932022,0.25704053044319153,0.08832231163978577,0.10707272589206696,0.06065334379673004,-0.05366599187254906,0.03422662243247032,-0.1962367445230484,0.10805672407150269,-0.12823128700256348,0.1745750457048416,0.15998700261116028,0.1404135674238205,-0.17513562738895416,0.019021743908524513,-0.3020452558994293,-0.11597760021686554,-0.08552660793066025,0.05785104259848595,0.0497983880341053,-0.07457052171230316,0.20306514203548431,-0.3052562177181244,-0.30389294028282166,-0.09454847127199173,-0.5645542144775391,0.07062085717916489,-0.1093674898147583,0.021367575973272324,-0.027885479852557182,-0.11543448269367218,-0.3124505579471588,0.1459084451198578,0.21856799721717834,-0.03250577673316002,-0.09053020179271698,-0.08895426988601685,0.09482455998659134,0.26607608795166016,-0.006584992166608572,-0.07168422639369965,0.007994710467755795,0.02619023621082306,0.1705908179283142,-0.208099365234375,0.13562582433223724,0.139585480093956,0.2450518012046814,0.02929849550127983,-0.058622490614652634,0.11693701148033142,0.03507014736533165,-0.09162010997533798,0.14335380494594574,0.21104004979133606,0.06789418309926987,0.12577001750469208,-0.2991519868373871,-0.27358120679855347,-0.10869401693344116,-0.07322843372821808,-0.15610459446907043,-0.09013605117797852,-0.1532011330127716,0.24007490277290344,-0.3172611892223358,-0.030634328722953796,-0.10815732181072235,-0.11385209858417511,0.022284531965851784,0.1264200359582901,-0.12506118416786194,-0.35687705874443054,-0.25318461656570435,0.028268268331885338,0.08859071135520935,-0.11849674582481384,0.02364385314285755,-0.20725460350513458,-0.11694138497114182,-0.036125123500823975,-0.08475501835346222,-0.22787144780158997,0.06639456003904343,-0.16927385330200195,0.008327456191182137,0.019149284809827805,-0.2797635793685913,0.061996687203645706,0.16064491868019104,-0.35864078998565674,-0.14036527276039124,-0.07446551322937012,-0.06001116707921028,0.14786866307258606,-0.15733712911605835,0.16233710944652557,-0.3591250479221344,-0.1965077668428421,-0.21131789684295654,0.20048947632312775,-0.006116526201367378,0.017614824697375298,-0.07433850318193436,-0.0011722637573257089,0.19525901973247528,-0.22539272904396057,-0.10183050483465195,0.03874320909380913,0.07803341001272202,0.11227446794509888,0.22835925221443176,0.009865345433354378,-0.08053508400917053,0.11784373223781586,0.05297821760177612,0.10181088000535965,0.12203887850046158,0.08104583621025085,-0.1817975789308548,0.033098410815000534,-0.14416299760341644,-0.1011970043182373,0.06968679279088974,-0.015147259458899498,-0.16414698958396912,0.10293318331241608,0.013936743140220642,-0.1901509165763855,0.21026524901390076,0.01641726680099964,0.01625664159655571,0.20743133127689362,-0.02355784736573696,-0.2823614180088043,0.1963624507188797,0.04722452536225319,-0.055424563586711884,-0.3126744031906128,0.13031965494155884,0.08320741355419159,0.11911122500896454,-0.16521047055721283,-0.1232747957110405,-0.10041623562574387,-0.08704305440187454,-0.10440065711736679,-0.07008519768714905,-0.025342091917991638,-0.13009613752365112,0.16600507497787476,0.07299520075321198,-0.0014035537606105208,-0.04547854885458946,-0.33579540252685547,-0.22627298533916473,0.0012933542020618916,-0.02092614769935608,-0.1345449686050415,-0.06815201044082642,0.11296805739402771,0.285483181476593,0.1357407569885254,0.15035103261470795,-0.0006698305369354784,0.1697312295436859,0.12996834516525269,-0.07385961711406708,0.32149702310562134,0.14786170423030853,-0.04563288390636444,-0.03539213910698891,-0.015826748684048653,-0.1358073651790619,0.06722845137119293,-0.0387805700302124,0.11706050485372543,0.04391391575336456,0.13436615467071533,0.0974397286772728,0.12591972947120667,0.25084540247917175,0.28548121452331543,0.05438202992081642,-0.14432497322559357,0.03243017569184303,-0.045891787856817245,0.016695963218808174,0.03465048968791962,0.35362863540649414,-0.1482015997171402,-0.0563642792403698,0.05876296013593674,-0.09169754385948181,0.025094257667660713,-0.17854690551757812,-0.1783708930015564,0.025008559226989746,-0.06031925976276398,-0.07760856300592422,0.047073520720005035,0.008388974703848362,-0.002220775233581662,-0.07308506965637207,0.0005389026482589543,0.23155556619167328,-0.07026292383670807,0.1437886506319046,0.15402455627918243,-0.04499730467796326,-0.025505566969513893,-0.0207457784563303,-0.14390231668949127,-0.06101211532950401,0.031515929847955704,-0.05930266156792641,-0.08743355423212051,-0.04709041118621826,0.10750497877597809,-0.06497146189212799,-0.07266703248023987,-0.07149171829223633,-0.018423471599817276,-0.0754740834236145,0.053140830248594284,-0.23931141197681427,0.20227372646331787,0.010186776518821716,-0.18023209273815155,-0.20279985666275024,0.2106073945760727,0.027787696570158005,0.08883160352706909,0.0632290467619896,-0.15351681411266327,0.014869299717247486,0.05945008248090744,0.3713442385196686,-0.27636483311653137,0.03611410781741142,-0.2043803483247757,-0.08698352426290512,0.16894645988941193,-0.01966780237853527,-0.044102177023887634,-0.03800101950764656,0.10369755327701569,-0.01906643621623516,0.028420571237802505,-0.13403227925300598,3.6562323657562956e-05,0.15916185081005096,0.17408645153045654,0.19796888530254364,0.051006656140089035,0.059841450303792953,0.09666483849287033,0.04126152768731117,0.0872201919555664,-0.1479436308145523,0.17535482347011566,0.15168696641921997,0.153283953666687,0.030305908992886543,0.0518072210252285,0.15329602360725403,0.021985292434692383,0.014371839351952076,-0.16018018126487732,0.024324771016836166,0.24343335628509521,-0.08330997079610825,-0.058059923350811005,0.04924722760915756,-0.11447228491306305,0.04149441793560982,-0.2262970209121704,0.08562992513179779,-0.14026549458503723,-0.07492174953222275,-0.0013026483356952667,-0.05325128510594368,0.09134463965892792,-0.024136904627084732,-0.1970232129096985,0.22095097601413727,0.015005214139819145,-0.3322432041168213,0.0728149339556694,0.18499596416950226,-0.06585878133773804,0.10471902042627335,-0.2669523358345032,0.1385713815689087,0.040381353348493576,-0.019587352871894836,0.05901918187737465,0.011336298659443855,0.10617462545633316,-0.024961084127426147,-0.06764596700668335,0.15907825529575348,-0.17708653211593628,-0.00524462154135108,-0.17002283036708832,0.07838078588247299,0.29510506987571716,0.16149155795574188,0.009352586232125759,-0.2812601625919342,-0.03621843829751015,-0.03403528779745102,-0.037643320858478546,-0.04705200716853142,-0.06368178129196167,-0.03951536864042282,0.13090717792510986,-0.1997934877872467,-0.07935760170221329,-0.09635148197412491,0.031931322067976,0.12451988458633423,0.1667359620332718,-0.008111725561320782,-0.10344670712947845,-0.025200000032782555,-0.08978258818387985,-0.1572694629430771,-0.0832134485244751,-0.06629703938961029,-0.12114422768354416,0.12104330956935883,0.14638866484165192,-0.01133904792368412,-0.016080230474472046,0.13909904658794403,-0.2255547195672989,-0.04409626126289368,0.029975134879350662,-0.1391107439994812,0.26804423332214355,0.038290154188871384,-0.0028065373189747334,-0.13378803431987762,0.053153473883867264,0.08821970969438553,-0.2952779233455658,0.052629269659519196,0.10494646430015564,-0.0013787129428237677,-0.1988249272108078,0.20193612575531006,-0.05822676047682762,-0.18182864785194397,-0.08790140599012375,-0.02935217320919037,-0.1776633858680725,0.03572315722703934,0.3205457031726837,-0.02383347600698471,0.12518493831157684,0.17112590372562408,0.027181187644600868,-0.035127121955156326,0.1295604556798935,-0.2907440960407257,-0.3159683048725128,-0.09539120644330978,-0.05617512762546539,0.01719936728477478,-0.15512846410274506,0.17148473858833313,0.10058827698230743,0.007230694871395826,-0.06435037404298782,-0.1739353984594345,-0.17106634378433228,-0.21741144359111786,0.05974448844790459,-0.034995075315237045,-0.15691247582435608,0.018732907250523567,0.005536839831620455,0.0048856004141271114,-0.1124449372291565,-0.017711687833070755,0.11571937054395676,-0.2153576910495758,0.03375799581408501,-0.10549990087747574,0.027354713529348373,0.026993799954652786,0.08966488391160965,-0.13754378259181976,0.010240046307444572,0.10003671050071716,0.07324212789535522,-0.14669957756996155,0.15177743136882782,-0.0513625368475914,0.04856034368276596,0.016042131930589676,0.1477508246898651,-0.025698518380522728,0.07777263969182968,-0.10759143531322479,-0.19700925052165985,0.22054557502269745,-0.017900193110108376,0.24300837516784668,0.102503702044487,0.3068217635154724,-0.11080732941627502,-0.07704582065343857,0.009838237427175045,0.024743255227804184,0.24537724256515503,0.14286181330680847,-0.1639721840620041,0.24101713299751282,-0.15343940258026123,-0.1317061185836792,0.032928481698036194,0.27270302176475525,-0.010864078998565674,0.03367794305086136,-0.037245407700538635,-0.09661080688238144,0.08687371760606766,0.016616469249129295,-0.0008470614557154477,0.07577264308929443,-0.11106044799089432,-0.003464236157014966,0.11006475985050201,-0.04873264580965042,-0.025441467761993408,-0.09510459005832672,0.05580836534500122,-0.2331099510192871,0.007885513827204704,0.05001552775502205,0.06028224900364876,-0.13032013177871704,0.08033126592636108,0.11211194843053818,0.07586871087551117,0.06825283169746399,0.07583273947238922,-0.1572035700082779,-0.0972350612282753,-0.12779885530471802,-0.176874041557312,0.09230203181505203,0.22170661389827728,-0.19861942529678345,0.09435862302780151,0.17397907376289368,0.05427035316824913,-0.09533470869064331,0.0928836390376091,-0.06570377945899963,-0.1116730347275734,0.12038357555866241,0.022706562653183937,0.004008980002254248,0.236959770321846,-0.12799973785877228,0.11776667833328247,-0.09455642104148865,0.006479782517999411,-0.0968998447060585,-0.06651247292757034,-0.06604144722223282,-0.03425072878599167,-0.18811440467834473,0.0032124468125402927,0.1184898242354393,0.17754383385181427,-0.001306317513808608,-0.147696852684021,0.09089340269565582,0.017642555758357048,0.07725311815738678,0.03529861569404602,0.08845499902963638,0.07497739791870117,-0.01992860808968544,-0.0798107236623764,-0.16035078465938568,-0.0769631490111351,0.07316634058952332,0.07422162592411041,-0.15487708151340485,0.05596383661031723,0.10756664723157883,-0.022726280614733696,0.09858015924692154,0.10622628033161163,0.010981796309351921,-0.07736492156982422,0.027187172323465347,-0.040826186537742615
