-0.005140944384038448,0.14791183173656464,-0.0694902315735817,0.06775424629449844,-0.3012312054634094,-0.0418841689825058,-0.22895754873752594,0.40052521228790283,-0.003935688640922308,-0.5319405198097229,-0.08552055060863495,0.10429508984088898,-0.17559190094470978,-0.028556067496538162,0.2623859643936157,0.35920074582099915,-0.37241241335868835,0.08473330736160278,-0.17754417657852173,0.04082080349326134,-0.031402572989463806,-0.07852266728878021,0.13509437441825867,-0.09253861010074615,-0.4441814720630646,0.5997950434684753,0.8104397654533386,0.11028643697500229,-0.5189241170883179,-0.15681959688663483,0.1198408305644989,0.22710181772708893,-0.13340307772159576,-0.45562058687210083,0.08899952471256256,0.05569707974791527,0.7795860171318054,-0.06246091052889824,0.31057628989219666,-0.37077099084854126,-0.21392737329006195,0.0971766859292984,-0.054998669773340225,-0.1994093507528305,-0.17688080668449402,0.005322262644767761,-0.4192934036254883,0.24432070553302765,0.30408424139022827,-0.2726309299468994,-0.2550489008426666,0.11032506823539734,-0.012474494986236095,-0.379088819026947,0.10950572043657303,0.13070057332515717,0.21446622908115387,0.04890529438853264,0.35437965393066406,0.2316487431526184,-0.03820224478840828,0.06954505294561386,0.1981964111328125,0.017361655831336975,0.14678673446178436,-0.055944375693798065,0.018718890845775604,0.15156076848506927,0.19378408789634705,-0.1206960380077362,0.2072034329175949,0.23241394758224487,-0.2392669916152954,-0.03815940022468567,-0.26250019669532776,-0.10330727696418762,0.3581623136997223,0.12629547715187073,-0.33679232001304626,0.3133997619152069,0.01811213791370392,0.34083884954452515,0.038595523685216904,-0.09002824127674103,-0.3579910397529602,0.2820647656917572,-0.16507844626903534,-0.6517006754875183,-0.32891610264778137,-0.0406586155295372,0.10077200084924698,0.08479654043912888,-0.3745576739311218,0.01834169030189514,-0.04361231252551079,0.24212196469306946,-0.3833657503128052,-0.07942391186952591,-0.23251934349536896,0.33336561918258667,-0.22229701280593872,-0.19961659610271454,0.021381113678216934,-0.10808346420526505,-0.32991066575050354,-0.2213151752948761,0.12389080971479416,0.455199658870697,0.11198961734771729,0.14948175847530365,-0.5008882880210876,0.4044889211654663,0.272746741771698,0.2316044420003891,-0.25254949927330017,0.288690984249115,0.08663015067577362,-0.24867387115955353,0.29298585653305054,-0.4424184262752533,0.04824335128068924,0.5219228267669678,0.14572717249393463,0.0704646036028862,0.20930153131484985,-0.01714951917529106,-0.050817105919122696,0.006550444755703211,0.037881337106227875,-0.17318791151046753,-0.1305510699748993,0.02777630090713501,-0.06476375460624695,-0.05826834216713905,-0.2032703310251236,-0.10435216873884201,0.11967673897743225,-0.04717913269996643,-0.013842974789440632,0.05681862682104111,-0.07186932116746902,0.020915845409035683,0.0038514945190399885,0.23471908271312714,-0.05523199960589409,0.017392760142683983,-0.20088431239128113,-0.03565797954797745,-0.13674335181713104,-0.26749491691589355
