0.16304370760917664,-1.1130176782608032,0.7225216627120972,-1.4093410968780518,-0.03081914596259594,0.6990660429000854,-0.1789034605026245,1.4090938568115234,-1.1287832260131836,-0.3257471024990082,0.938208818435669,1.2601476907730103,2.0977699756622314,-0.6912463307380676,-1.1581844091415405,0.36845582723617554,-0.3625888526439667,0.7950695753097534,-0.0477810874581337,-0.26444685459136963,1.146728277206421,0.2676980197429657,0.4753679633140564,-0.6464766263961792,1.8537986278533936,1.1612499952316284,0.33227136731147766,1.3839507102966309,-0.9296205639839172,0.5465604066848755,-0.8509534597396851,-1.7252658605575562,-0.018954886123538017,0.845029354095459,1.2970967292785645,-0.33328235149383545,0.266510009765625,0.35018497705459595,0.5017156004905701,-1.2034283876419067,1.428181529045105,0.3191961348056793,1.1300188302993774,0.5461878776550293,-1.5225591659545898,-0.36105021834373474,-0.20769378542900085,-0.36988967657089233,-1.4816566705703735,1.5657005310058594,0.3060343861579895,-0.5701083540916443,-0.5578029155731201,-1.6982619762420654,0.7899178266525269,0.2554333508014679,-0.08072587847709656,-1.1917840242385864,0.4224000871181488,0.5220444798469543,-0.8689429759979248,0.007422225084155798,0.21485315263271332,-0.5032144784927368,-0.8954031467437744,0.011320149526000023,0.1704024225473404,-0.13095657527446747,0.39931219816207886,-1.0999470949172974,0.4035401940345764,0.42253533005714417,-1.1076152324676514,0.43958958983421326,0.2908065617084503,0.23146873712539673,-0.4180368483066559,0.4706096053123474,-0.735245943069458,-2.1315619945526123,0.5522007942199707,1.7736738920211792,0.853482186794281,0.9587098956108093,0.19749018549919128,0.21083250641822815,0.9751131534576416,0.789162814617157,1.3691602945327759,-1.566452145576477,-0.8157066702842712,-0.27802249789237976,-0.21441498398780823,-0.3104392886161804,-0.8387758135795593,0.026854155585169792,0.06338754296302795,0.3607058823108673,0.43449926376342773,0.058517493307590485,1.2171388864517212,1.5485565662384033,-0.4677882492542267,0.6018007397651672,0.17374810576438904,-1.3233963251113892,0.23989705741405487,-1.2055540084838867,-1.0505013465881348,0.7927800416946411,0.3556702733039856,-0.3231506943702698,-1.4066482782363892,0.6222326755523682,0.059130363166332245,-1.6327320337295532,0.15239883959293365,1.0142526626586914,-0.2987405061721802,1.2126506567001343
