-0.02030714973807335,0.0037207412533462048,0.07466713339090347,-0.1015344187617302,0.05435716733336449,-0.08513551950454712,-0.05155903846025467,-0.009206297807395458,-0.049034006893634796,-0.008046835660934448,-0.07728414982557297,0.1324496865272522,0.08203708380460739,0.03217416629195213,-0.042527180165052414,0.09372641891241074,-0.1412961184978485,-0.1305544078350067,-0.060979824513196945,-0.10225530713796616,0.1607256382703781,-0.08892796188592911,0.06258783489465714,0.03087185136973858,0.09506894648075104,0.12297744303941727,0.05479886010289192,-0.13411399722099304,0.030083434656262398,-0.0169969592243433,0.07077191025018692,0.06437992304563522,0.1177576556801796,0.1090327724814415,0.009742092341184616,-0.024161415174603462,0.017533989623188972,0.0061678956262767315,-0.16189801692962646,-0.12590685486793518,0.032457735389471054,-0.002755993977189064,-0.1211199015378952,-0.11456701904535294,-0.07128085196018219,0.03972318768501282,0.017545247450470924,0.020808005705475807,0.03129258379340172,0.1643056422472,0.08643041551113129,-0.07618438452482224,-0.024522166699171066,0.07673001289367676,0.11580988019704819,-0.030909018591046333,0.013463404960930347,0.03595190867781639,0.0020911649335175753,0.04785545542836189,0.05896906554698944,0.09719880670309067,-0.04879790171980858,0.0724477469921112,0.0754595696926117,-0.1087343841791153,-0.04473737254738808,0.009680906310677528,0.13111166656017303,0.033151399344205856,-0.08228642493486404,-0.17368900775909424,0.0608988031744957,0.0880071222782135,0.09023580700159073,0.07513342797756195,0.014072645455598831,-0.12762020528316498,0.056399114429950714,-0.15579737722873688,0.02962726540863514,0.07723979651927948,-0.04920075461268425,0.040857888758182526,0.04431219398975372,0.012977163307368755,0.03721635788679123,0.04331940412521362,0.03342222794890404,0.14705604314804077,-0.009894078597426414,0.11977802217006683,0.02156117744743824,-0.0855041891336441,-0.16791819036006927,0.07795190811157227,0.08093763142824173,0.021978221833705902,0.1435362547636032,-0.1221487894654274,0.13286277651786804,-0.0031786328181624413,0.02009185217320919,-0.008090748451650143,0.15450038015842438,0.12621770799160004,0.008578055538237095,-0.07051616162061691,0.08095260709524155,0.0633050724864006,0.10895880311727524,-0.07278667390346527,0.03913997858762741,0.03958142548799515,0.025817938148975372,-0.009799799881875515,0.1356736570596695,-0.05792726203799248,-0.13186798989772797,-0.03041888028383255,-0.02629518136382103,-0.06075577437877655,0.02193474769592285,0.1052444651722908,0.1297031193971634,-0.0069054788909852505,0.07601986825466156,-0.0483398512005806,-0.2555832862854004,-0.09319047629833221,-0.08560129255056381,0.025621991604566574,0.008739488199353218,-0.040324967354536057,0.015564940869808197,0.014847577549517155,-0.058286525309085846,-0.11423356086015701,0.1676914244890213,-0.0079431077465415,-0.1388470083475113,0.01582644321024418,0.15360204875469208,-0.04989691823720932,0.01097552664577961,-0.04708273708820343,-0.09239553660154343,-0.11251968890428543,0.04266485571861267,-0.09617763757705688,-0.03923657163977623,0.08210597932338715,0.007299605291336775,-0.03882448002696037,0.014182137325406075,-0.05349176004528999,0.000877979036886245,-0.11145056784152985,0.12490223348140717,-0.105875663459301,0.07980218529701233,-0.052109602838754654,0.04599794000387192,-0.11482326686382294,-0.04498755931854248,0.05703563988208771,-0.11209800094366074,-0.059258755296468735,-0.10326080024242401,-0.07019158452749252,0.07467998564243317,0.10481244325637817,-0.09395941346883774,0.09339497238397598,-0.020463714376091957,-0.12055982649326324,-0.08391790837049484,-0.0032376167364418507,-0.034598544239997864,-0.024572066962718964,-0.036712486296892166,-0.11269884556531906,0.03979523107409477,-0.145872101187706,0.050972506403923035,-0.1220250204205513,-0.020861100405454636,0.08729756623506546,0.07442120462656021,0.014880847185850143,0.03873653709888458,-0.17590485513210297,0.053201932460069656,0.10195723921060562,0.10204655677080154,-0.022740213200449944,-0.10260014981031418,0.06348275393247604,0.006155701354146004,0.03406040370464325,-0.05527355521917343,0.10455519706010818,-0.03150924667716026,-0.01008629146963358,0.020168151706457138,-0.11857280135154724,-0.08494218438863754,0.0668414831161499,0.06982500106096268,-0.10481400042772293,-0.032397884875535965,-0.07580248266458511,-0.12433627992868423,-0.11839707940816879,-0.19202785193920135,0.0525580495595932,-0.10206065326929092,0.016316814348101616,-0.07288986444473267,-0.0408741720020771,0.049497563391923904,0.051490940153598785,0.03732309117913246,0.14168225228786469,0.004578262567520142,0.12250158935785294,0.05873889848589897,-0.10266120731830597,-0.077799953520298,-0.12143795937299728,0.059947285801172256,0.03405703231692314,0.15872792899608612,-0.06945084035396576,0.04517514631152153,0.04261593148112297,0.11901143938302994,-0.10960020124912262,0.04030042141675949,-0.09815888106822968,0.08339106291532516,0.013685510493814945,-0.055429644882678986,0.11659682542085648,-0.11294835060834885,-0.004850458819419146,0.014067449606955051,-0.10177566856145859,0.08702466636896133,-0.02298714779317379,-0.1395336091518402,-0.036364685744047165,0.026991212740540504,0.015954691916704178,-0.052615728229284286,-0.04982485994696617,0.04411353915929794,-0.11884268373250961,0.007010606117546558,0.021954670548439026,0.13436168432235718,-0.11419971287250519,-0.03150642663240433,0.09882739186286926,0.0908675342798233,-0.09040757268667221,-0.07228703796863556,-0.11694584041833878,0.10965044051408768,0.1581709086894989,-0.02702966146171093,0.012686137109994888,-0.07771681994199753,0.011486177332699299,0.09082196652889252,-0.047265004366636276,0.09528639167547226,0.028927167877554893,-0.08256027847528458,-0.10202846676111221,0.01766151376068592,-0.08932926505804062,-0.13582336902618408,-0.1785205453634262,0.05487124249339104,0.029892370104789734,-0.02806779555976391,-0.03700194135308266,0.14019930362701416,0.04607778042554855,-0.10344595462083817,0.11368758231401443,0.0007193562341853976,0.034919917583465576,-0.06595569849014282,0.1322510689496994,-0.0016608278965577483,-0.02430432289838791,0.03889893740415573,0.054811522364616394,0.10186778008937836,0.1675424873828888,-0.07193818688392639,0.11667439341545105,-0.16157712042331696,0.04144962131977081,-0.06925657391548157,-0.059697236865758896,-0.07879870384931564,0.10724742710590363,0.09267078340053558,-0.21877416968345642,0.14483287930488586,0.07599709928035736,0.011203178204596043,-0.053827524185180664,0.041267674416303635,-0.09079190343618393,0.09532056748867035,-0.020248526707291603,-0.016309382393956184,0.03749224171042442,0.08448318392038345,0.05721867084503174,0.14791981875896454,0.061902206391096115,-0.038822200149297714,-0.04664761573076248,-0.017879389226436615,-0.020205551758408546,-0.00390015821903944,-0.10290137678384781,0.11831013858318329,0.06686387956142426,-0.0026767277158796787,-0.04964092746376991,0.04624952748417854,-0.039780393242836,-0.0562763586640358,-0.07548859715461731,0.14665010571479797,0.05436629801988602,0.08703801035881042,-0.01835612952709198,0.03287898376584053,0.21704326570034027,0.015462375245988369,0.09974503517150879,-0.08955727517604828,-0.04964405670762062,-0.10106012970209122,0.0924595296382904,-0.09434723854064941,-0.14824801683425903,-0.027579810470342636,0.028301287442445755,0.043056584894657135,-0.07717371731996536,-0.031938254833221436,0.1102733388543129,-0.02202814631164074,-0.07396910339593887,-0.17040866613388062,-0.09237152338027954,0.1278824806213379,-0.07111632823944092,-0.06074846535921097,-0.04090924561023712,0.033971771597862244,0.09587638825178146,0.0949198380112648,0.020382700487971306,0.09216471016407013,-0.13214491307735443,-0.05743898078799248,-0.1766315996646881,0.05031130835413933,0.02616100199520588,-0.06750267744064331,0.10706660896539688,-0.07396727800369263,-0.04290870949625969,-0.005937810055911541,0.09345708787441254,-0.03221231326460838,0.04839951545000076,0.1697297841310501,0.04631480202078819,0.1814778596162796,-0.11815135180950165,0.026387639343738556,0.1252945065498352,-0.0638464167714119,0.10410677641630173,-0.013948163948953152,-0.019071178510785103,0.011706116609275341,0.13762934505939484,0.03550402820110321,-0.19565258920192719,0.2152402251958847,0.014949528500437737,0.08685775846242905,-0.0740058571100235,-0.11559516191482544,-0.10591647028923035,0.1614747941493988,0.13924092054367065,0.08824216574430466,0.1464441418647766,0.1083291694521904,-0.12064897269010544,0.03475738316774368,0.11387833207845688,0.15837794542312622,0.1454455554485321,0.015980036929249763,0.18417447805404663,0.08099594712257385,0.010348598472774029,-0.07660115510225296,0.044639572501182556,0.11173798888921738,0.13491983711719513,-0.016061637550592422,0.0678306445479393,0.03547154366970062,-0.09740114957094193,-0.10082925111055374,0.016318606212735176,0.0950855016708374,0.02587929554283619,-0.1814654916524887,-0.08926185220479965,-0.09361140429973602,-0.08546667546033859,-0.15168502926826477,-0.07566818594932556,0.0734129250049591,-0.014419625513255596,0.10101024061441422,0.1080809012055397,0.04854202643036842,0.03872822970151901,-0.03604075312614441,0.19836829602718353,0.1847187727689743,0.15013577044010162,0.006934323348104954,0.09752547740936279,0.12965834140777588,-0.04779724031686783,0.05267905816435814,0.03515932336449623,0.12018979340791702,-0.06861402094364166,-0.09493834525346756,0.045505620539188385,-0.04331875964999199,-0.08625559508800507,0.13362394273281097,0.023565368726849556,0.21558010578155518,-0.027522826567292213,0.01712615042924881,0.028600336983799934,-0.041949063539505005,0.1063411757349968,0.04971503093838692,0.18069270253181458,-0.10003291070461273,0.003224373795092106,0.008531506173312664,-0.05246357247233391,-0.02854396589100361,0.0018891767831519246,-0.12318549305200577,-0.09084674715995789,0.15926037728786469,-0.011423926800489426,-0.06429532915353775,-0.047984473407268524,0.11414143443107605,0.07611788064241409,0.07077346742153168,-0.031093843281269073,-0.10734047740697861,-0.04994320869445801,0.07627074420452118,-0.09157852083444595,0.07702525705099106,-0.0193167831748724,-0.0637509673833847,-0.00829625129699707,-0.03405662998557091,0.031066730618476868,0.09662720561027527,0.14436261355876923,0.053131911903619766,-0.042505260556936264,-0.10948683321475983,-0.04149458557367325,-0.007168829441070557,-0.05630473420023918,0.08790292590856552,-0.013109537772834301,-0.030770467594265938,-0.13568298518657684,0.1001456156373024,0.05270538851618767,0.1352214217185974,-0.018797438591718674,0.027628405019640923,-0.14480192959308624,-0.002912755822762847,-0.0697828084230423,0.1006203293800354,0.12456676363945007,-0.13469871878623962,0.015526403672993183,-0.12569212913513184,-0.057724811136722565,0.10122298449277878,0.032087281346321106,0.02689231000840664,-0.11225711554288864,-0.012318636290729046,0.025929532945156097,-0.008448402397334576,-0.12341456115245819,0.021215276792645454,-0.002085747430101037,-0.04451753571629524,-0.08808032423257828,-0.023202892392873764,-0.07610064744949341,-0.04257206246256828,-0.10751570016145706,-0.13610705733299255,0.019895857200026512,-0.1374020129442215,0.05975284054875374,0.030779549852013588,0.05644203722476959,-0.07794993370771408,0.03513871878385544,0.14481109380722046,-0.06428510695695877,0.10111922770738602,-0.14810608327388763,0.06254686415195465,0.04777791351079941,-0.07210797071456909,-0.0468485988676548,0.12282586097717285,0.07884113490581512,0.07755338400602341,0.07090416550636292,-0.13078145682811737,0.03634212538599968,0.07442795485258102,-0.01780383288860321,-0.12416903674602509,0.12489046901464462,-0.012118030339479446,-0.05874112248420715,-0.09502068907022476,-0.14046543836593628,-0.02137407474219799,0.12570153176784515,-0.119026780128479,-0.0841359794139862,-0.1940368413925171,-0.04325934872031212,-0.023662881925702095,-0.04681991785764694,-0.1645074337720871,-0.15261591970920563,-0.03258444741368294,0.019666526466608047,-0.1451566368341446,0.09896682947874069,-0.06280390173196793,-0.004343708977103233,0.07691697776317596,-0.06273557245731354,0.025381989777088165,-0.08468926697969437,-0.1259615421295166,-0.11215595155954361,0.01198955625295639,-0.054214730858802795,-0.023234769701957703,0.042055193334817886,-0.0049424548633396626,0.0966719388961792,0.008003276772797108,0.07244224846363068,0.09290426224470139,-0.04585561156272888,-0.053438205271959305,-0.024651087820529938,-0.01999489963054657,0.10162033140659332,-0.008932922966778278,0.06946925073862076,-0.053591664880514145,0.12936095893383026,-0.015368451364338398,-0.12164110690355301,-0.08485569804906845,0.06253800541162491,-0.0022773563396185637,0.01925307884812355,-0.018502749502658844,-0.10139051824808121,-0.015104610472917557,0.00242829998023808,0.1656893938779831,-0.06319762766361237,0.01250279601663351,0.12478981912136078,-0.05223442241549492,-0.07864737510681152,0.07288290560245514,0.019258055835962296,0.02617281675338745,0.01525227352976799,0.08694689720869064,-0.13887649774551392,-0.07399524748325348,0.04922768473625183,0.09382513910531998,-0.10913096368312836,-0.03142809495329857,-0.08346214145421982,0.14057408273220062,0.054611578583717346,-0.04465245082974434,0.045823220163583755,-0.06753295660018921,0.02539036236703396,-0.09041327983140945,0.023344453424215317,0.0681028664112091,0.11307590454816818,0.13254280388355255,0.004200201481580734,0.0543474517762661,0.09461821615695953,-0.05201832205057144,-0.02122209221124649,-0.002780045149847865,-0.15628410875797272,-0.03365255892276764,0.16585110127925873,-0.11907513439655304,-0.005818130448460579,0.02398526668548584,0.09656719863414764,-0.10967115312814713,-0.06421416997909546,0.02980264648795128,-0.16123969852924347,0.039203792810440063,-0.058368224650621414,-0.10066717118024826,-0.06536197662353516,-0.020465748384594917,-0.1354718953371048,0.051481109112501144,-0.08851242810487747,0.04105524718761444,0.05048481747508049,0.023779578506946564,-0.13825084269046783,0.009239341132342815,-0.05405818670988083,-0.08163636177778244,0.05316990613937378,0.049745045602321625,-0.12017932534217834,0.13323868811130524,0.03257843479514122,-0.05056857690215111,0.029500406235456467,-0.07400310784578323,0.00477559445425868,-0.18944908678531647,0.10306894779205322,0.031867269426584244,0.006675251759588718,-0.006095165852457285,0.020175235345959663,-0.04035882651805878,0.029735051095485687,0.12139712274074554,0.07796920835971832,-0.11947798728942871,-0.13119105994701385,-0.014852059073746204,-0.13105171918869019,-0.10291922092437744,-0.09832455962896347,0.021753722801804543,-0.07970955222845078,0.009801926091313362,-0.06326713413000107,-0.020429834723472595,-0.0014176731929183006,0.07523716241121292,0.06851764023303986,-0.07303959876298904,0.13609391450881958,0.11242508143186569,0.05944588780403137,-0.13961468636989594,-0.13755448162555695,-0.0035250938963145018,0.07874815165996552,0.07535144686698914,0.0948898047208786,-0.004231560043990612,0.12271219491958618,-0.125104159116745,0.12928709387779236,0.04291614145040512,-0.05478938668966293,0.0855550691485405,0.012761658057570457,0.05289054289460182,0.13414588570594788,-0.08757226169109344,-0.07899900525808334,0.10258888453245163,0.058252863585948944,-0.09402746707201004,-0.007512143347412348,-0.07296943664550781,0.13242299854755402,-0.045391734689474106,-0.12627603113651276,0.08144915103912354,0.11699548363685608,0.053770165890455246,0.09127575159072876,-0.05330303683876991,-0.10501693934202194,0.07210171222686768,-0.06484704464673996,-0.062381528317928314,-0.09432994574308395,0.023757196962833405,-0.06238869950175285,-0.013864928856492043,0.03910250589251518,-0.05840764567255974,0.06289958208799362,0.11112421005964279,-0.023358283564448357,-0.09114102274179459,0.0018120454624295235,0.026780517771840096,-0.08713767677545547,0.05561228469014168,0.11634944379329681,0.06439867615699768,0.08223269134759903,0.2522103488445282,0.2595987915992737,0.03545176237821579,0.10480017960071564,-0.11662717908620834,0.15488752722740173,0.08711950480937958,-0.14261581003665924,0.03322652727365494,-0.11515454947948456,0.19379445910453796,-0.16703878343105316,-0.038159940391778946,0.1483827382326126,-0.018224548548460007,0.08035732805728912,0.16432633996009827,0.03983694687485695,0.0890035480260849,0.01632445491850376,0.2308594435453415,0.03326807916164398,0.21923993527889252,-0.03376315161585808,0.030444612726569176,0.10635261982679367,0.004264053422957659,-0.013366764411330223,0.139080211520195,0.042017169296741486,-0.18509404361248016,0.061681777238845825,0.131351500749588,0.05676467344164848,-0.06793712824583054,0.07112336158752441,-0.11368308216333389,-0.20383861660957336,-0.08742540329694748,-0.0007244434091262519,0.025670910254120827,-0.04860851168632507,0.1718301624059677,-0.028662491589784622,-0.21749238669872284,-0.042732756584882736,0.09251950681209564,0.032297078520059586,-0.15455622971057892,0.1370975375175476,0.09535523504018784,0.10728363692760468,0.220450758934021,0.03627900034189224,-0.14622150361537933,-0.056467484682798386,0.17302435636520386,0.10619118064641953,-0.1809326559305191,0.04526914283633232,0.20136508345603943,-0.07887159287929535,0.14938028156757355,0.14383548498153687,0.23539361357688904,-0.1333404928445816,0.20818234980106354,0.11786185204982758,-0.07926861941814423,-0.02604357711970806,0.04192829877138138,0.11676978319883347,-0.2243001013994217,-0.07652748376131058,-0.13443011045455933,0.13529469072818756,-0.19662989675998688,-0.17959102988243103,0.2131342738866806,0.2324732095003128,0.04116319492459297,0.0869213119149208,-0.08951490372419357,-0.06923733651638031,0.25931140780448914,0.24128815531730652,0.1810677945613861,-0.06732776761054993,0.13466136157512665,-0.01077958568930626,-0.05815489962697029,0.1599022001028061,-0.08789194375276566,0.11774451285600662,0.20920778810977936,0.18339799344539642,-0.11847434192895889,-0.06990400701761246,-0.24095222353935242,-0.08160514384508133,0.1209394782781601,-0.04391079023480415,-0.13828912377357483,0.1422734409570694,-0.0088137062266469,-0.14770382642745972,-0.02097623609006405,-0.06502171605825424,0.050053905695676804,-0.14111414551734924,-0.10356520861387253,0.13945798575878143,0.015896979719400406,0.07480104267597198,0.05689076706767082,-0.1564052402973175,0.06071145832538605,0.18340952694416046,0.2413957566022873,0.04222622886300087,0.13549959659576416,-0.0702822208404541,-0.10690058767795563,-0.13882160186767578,-0.07729694992303848,-0.12968780100345612,0.1646631956100464,-0.07131849229335785,0.057584937661886215,-0.01844913698732853,0.07682137936353683,-0.04431125894188881,0.004517982713878155,0.0018380112014710903,-0.20495454967021942,0.0006536068394780159,0.1822875738143921,0.2024289220571518,-0.003976259380578995,-0.040986139327287674,0.06780284643173218,-0.03911716118454933,-0.189545139670372,-0.09051656723022461,-0.08159966766834259,0.10506920516490936,-0.1153954491019249,0.015934990718960762,0.04451829195022583,-0.1282615065574646,-0.10825589299201965,0.09191437065601349,-0.1782580018043518,0.07317262142896652,-0.056522879749536514,-0.14551277458667755,0.01580646075308323,-0.09839682281017303,0.029557013884186745,0.02552785538136959,-0.005862037651240826,0.045628298074007034,0.12260906398296356,-0.039913296699523926,0.03505316376686096,0.1373981237411499,-0.04385460168123245,0.012317300774157047,0.11819609999656677,-0.19381612539291382,-0.18412920832633972,0.2672034204006195,0.15794797241687775,0.11642443388700485,-0.1173965185880661,-0.06742194294929504,-0.10900203138589859,-0.07977484166622162,0.08942527323961258,-0.22213348746299744,-0.04096104949712753,-0.10890137404203415,-0.051166024059057236,0.11442285776138306,0.10207196325063705,-0.029136743396520615,0.058779094368219376,-0.004230845253914595,0.052041612565517426,-0.06718515604734421,0.06172962859272957,0.013011546805500984,0.0534670352935791,0.07415039092302322,0.14989714324474335,-0.12455559521913528,-0.05934987962245941,0.08564639836549759,0.10456477850675583,0.02571607008576393,-0.05443095788359642,0.07885325700044632,-0.02778168022632599,-0.013907928951084614,0.22037993371486664,0.1749415397644043,0.21206191182136536,-0.024114826694130898,0.08295298367738724,0.0006032478995621204,0.09452913701534271,0.013513155281543732,0.00519995391368866,0.10198283195495605,-0.05582888051867485,-0.11369794607162476,0.033833082765340805,0.025111345574259758,0.09477750957012177,0.039577700197696686,0.13025417923927307,0.02395264059305191,0.008015662431716919,-0.25576239824295044,-0.08370865136384964,0.017551928758621216,0.07578893005847931,-0.034119658172130585,0.0899420902132988,0.02664155140519142,0.0373004674911499,-0.01650570146739483,-0.066987045109272,-0.09596451371908188,0.02508542314171791,-0.04618210345506668,-0.033313002437353134,-0.10936009138822556,0.15215586125850677,-0.19338151812553406,0.03079076111316681,-0.03354336693882942,-0.20414243638515472,-0.058252476155757904,0.15965351462364197,-0.20378530025482178,0.1251916140317917,-0.06469262391328812,-0.15080057084560394,0.046091098338365555,0.03884673863649368,0.08607899397611618,0.0009449971839785576,0.047188322991132736,0.05355367437005043,-0.011721078306436539,0.10404764860868454,-0.09929148107767105,-0.09068766236305237,-0.03818356990814209,-0.041705746203660965,0.04520980641245842,0.04803643375635147,0.08784210681915283,-0.025088481605052948,0.07287383824586868,-0.08325675129890442,-0.07240155339241028,0.11281709372997284,0.04906703531742096,-0.005137256346642971,-0.0616203248500824,0.02107478305697441,-0.005986365489661694,0.13197597861289978,0.04611825570464134,-0.05012279376387596,-0.024244187399744987,-0.03336755931377411,0.056363724172115326,-0.03785012289881706,-0.0461108423769474,-0.009176097810268402,0.019103284925222397,-0.01766655221581459,-0.0697445422410965,0.012907791882753372,-0.023568276315927505,0.09059639275074005,-0.02883891947567463,-0.0083350520581007,0.05284692719578743,0.0702720582485199,0.08016213774681091,0.09402573853731155,-0.025547873228788376,-0.04960976168513298,0.07852527499198914,0.05768422409892082,0.07979808747768402,-0.11292742937803268,0.0038151885382831097,0.08494748920202255,0.09133082628250122,-0.03526163101196289,0.058040909469127655,0.09707852452993393,0.04731011018157005,0.013429820537567139,-0.05242194980382919,-0.03605587035417557,-0.033642083406448364,-0.10703578591346741,0.013846838846802711,0.0052173202857375145,0.003945136442780495,-0.06925620883703232,0.025581873953342438,0.032389912754297256,-0.0802430808544159,0.06936156004667282,-0.047554876655340195,-0.01700875163078308,0.05107913911342621,-0.02544761635363102,-0.04598461464047432,-0.039841506630182266,0.11265251040458679,-0.07042939960956573,-0.022926686331629753,-0.04960130900144577,0.08766768872737885,0.03555591404438019,-0.06378772854804993,0.014989261515438557,0.03211241960525513,-0.03858352079987526,0.028637880459427834,-0.017839444801211357,0.028827408328652382,0.09808499366044998,-0.06317760795354843,-0.04778241366147995,-0.0026644619647413492,-0.0261555016040802,0.0958855003118515,0.0966489240527153,0.03192168101668358,0.04078668728470802,-0.009451547637581825,0.029374143108725548,0.0511014498770237,-0.10810030996799469,-0.01086593046784401,0.05349622294306755,-0.047037940472364426,-0.024378683418035507,0.026498714461922646,0.03664267063140869,-0.06933429092168808,0.0678679496049881,0.06423203647136688,0.028209378942847252,-0.032926689833402634,-0.05862165987491608,-0.014693548902869225,-0.012941773980855942,0.06736809015274048,0.018636429682374,0.013392897322773933,0.03892230615019798,-0.07276491075754166,0.005580132361501455,0.057976800948381424,-0.009565066546201706,0.03240533545613289,-0.01301557756960392,-0.06122240424156189,-0.04264160245656967,0.017529282718896866,-0.06508233398199081,0.07953009009361267,0.0466521754860878,0.12958309054374695,-0.04578019678592682,0.0009585234220139682,-0.05467548966407776,0.03961046040058136,-0.0051195197738707066,-0.04055255651473999,-0.04014965891838074,-0.03160106763243675,-0.08576194196939468,0.08313380926847458,0.02409549430012703,0.007817198522388935,-0.07538586109876633,-0.02669292315840721,0.028202492743730545,0.03955567628145218,0.04683387652039528,0.0767458826303482,-0.019086405634880066,0.06085328757762909,0.04472609981894493,0.0577736459672451,0.01638275943696499,0.0988602265715599,-0.05672748014330864,-0.10528456419706345,0.016904179006814957,0.0687052458524704,0.06520891934633255,-0.09625880420207977,0.041108064353466034,-0.08015939593315125,0.06601531058549881,-0.04207790642976761,0.07549156993627548,0.05054261162877083,0.053912390023469925,-0.0068035791628062725,-0.08610795438289642,-0.05947988107800484,-0.055631767958402634,-0.04988734796643257,-0.047044288367033005,0.035000599920749664,-0.11389180272817612,-0.11117596179246902,-0.037352513521909714,0.0013071972643956542,-0.024383192881941795,-0.10011637210845947,-0.08946006000041962,-0.018803751096129417,-0.009020491503179073,-0.011299222707748413,-0.09453365206718445,-0.09302642196416855,0.004016891121864319,0.10558657348155975,0.05575776472687721,-0.01049505639821291,-0.05325283482670784,0.055447570979595184,-0.053526125848293304,-0.03806815296411514,-0.00851559266448021,-0.0008823342504911125,-0.05266842246055603,-0.00406078202649951,-0.027204805985093117,-0.043717775493860245,0.0115785151720047,0.04214058071374893,-0.0749068558216095,-0.03961923345923424,-0.09543873369693756,-0.04470319673418999,-0.14663590490818024,-0.12159155309200287,-0.06132126972079277,0.009843533858656883,0.005122815724462271,0.05639789626002312,0.06931707262992859,-0.023836039006710052,-0.0120787238702178,0.026751378551125526,-0.044130221009254456,0.008822665549814701,0.009902178309857845,0.06973310559988022,0.045530688017606735,-0.05664494261145592,-0.008994544856250286,0.047329582273960114,0.03622259572148323,-0.03991815447807312,0.07143235951662064,-0.05584457144141197,-0.0722138062119484,-0.07170908153057098,0.1079924926161766,0.08340056985616684,-0.02400774508714676,0.04192238673567772,0.05756593868136406,-0.05696240812540054,-0.03541715815663338,-0.021314747631549835,0.011221704073250294,-0.04773794859647751,0.06477080285549164,-0.041916392743587494,-0.04318507760763168,0.023598995059728622,0.013666190207004547,0.0004110684967599809,-0.02533012442290783,0.06154765188694,0.07240253686904907,0.025761324912309647,0.009623588062822819,0.08787371218204498,0.020565489307045937,-0.018841328099370003,-0.044553663581609726,0.04244367778301239,-0.03462408855557442,0.055702853947877884,-0.023437941446900368,0.020000379532575607,0.033276814967393875,0.04918186739087105,-0.030457662418484688,-0.056714702397584915,-0.003221871331334114,-0.07224617153406143,0.011096113361418247,-0.015416442416608334,-0.023844752460718155,0.056246303021907806,-0.07914899289608002,0.07524438202381134,0.0020084118004888296,-0.08903207629919052,0.07439357787370682,-0.04311433807015419,-0.0842970535159111,-0.02674601413309574,-0.043811384588479996,-0.07901760935783386,-0.0028926462400704622,0.048826806247234344,-0.0994797870516777,0.07982225716114044,-0.0030348843429237604,0.08031614124774933,0.10210133343935013,-0.028043705970048904,-0.08274029940366745,-0.11837724596261978,0.005034083966165781,0.04762912914156914,0.06889016926288605,0.09113441407680511,0.06004038453102112,-0.002297267084941268,0.0013275110395625234,0.07489775866270065,0.0765332281589508,0.037909507751464844,-0.08934757858514786,-0.014391981065273285,0.01316792517900467,0.03285007178783417,-0.11117491126060486,0.10258261859416962,0.0053871688432991505,0.06965471804141998,-0.027384892106056213,0.09302613139152527,0.014795267023146152,0.007370969280600548,0.08389320224523544,-0.007531564217060804,0.06422650814056396,-0.010982618667185307,0.006679174490272999,-0.08330654352903366,0.022064274176955223,0.022110123187303543,0.019045481458306313,-0.08837272971868515,-0.060237135738134384,-0.05745324119925499,0.057998187839984894,0.06983543187379837,-0.08325089514255524,0.007720903493463993,0.009357833303511143,-0.07123049348592758,-0.04631780833005905,-0.03323470801115036,0.010168813169002533,-0.041557177901268005,0.008604328148066998,0.014820530079305172,-0.12072775512933731,0.005468345247209072,-0.007731474004685879,0.0019877697341144085,-0.0429701954126358,-0.08381659537553787,-0.00936142448335886,0.06358397006988525,0.03902245685458183,-0.018378183245658875,0.0959700271487236,0.05281141400337219,-0.0757809728384018,-0.012562373653054237,-0.004717126023024321,0.009846914559602737,-0.024860039353370667,-0.024392995983362198,-0.06595707684755325,0.04305977001786232,-0.0285386573523283,-0.08971111476421356,0.061804283410310745,0.03670109808444977,-0.0165292639285326,0.0004954376490786672,0.017970602959394455,-0.024110576137900352,-0.13945506513118744,0.09714684635400772,0.081260085105896,-0.01618560589849949,-0.04893498495221138,-0.022079935297369957,0.03795262426137924,0.06180257350206375,-0.006832454819232225,-0.013062315993010998,-0.07668866962194443,-0.06293556839227676,-0.02676929347217083,-0.020285846665501595,-0.009901599958539009,0.0708385705947876,-0.00990645494312048,-0.0705568939447403,-0.07818511873483658,0.008958112448453903,0.02306930162012577,-0.06647827476263046,-0.024191230535507202,-0.03792467340826988,0.02852453850209713,-0.07538660615682602,0.03927876055240631,0.10493383556604385,-0.04342864826321602,-0.14765922725200653,0.010951853357255459,0.07300035655498505,0.052950747311115265,-0.06703387200832367,0.05644150450825691,-0.1088060662150383,0.10555008053779602,-0.04734062775969505,-0.04310766980051994,-0.032672781497240067,-0.05602068081498146,-0.03049677237868309,0.00284907897002995,-0.012890338897705078,-0.020255832001566887,0.0868382528424263,-0.02444414421916008,-0.07848788797855377,-0.1350054293870926,0.03878113999962807,-0.10028630495071411,0.034795865416526794,-0.06257899105548859,-0.0713890939950943,-0.025113670155405998,0.044105179607868195,-0.13624709844589233,0.043365344405174255,-0.1223001480102539,-0.03247816488146782,-0.054308921098709106,-0.11645541340112686,-0.11131187528371811,-0.05437008664011955,-0.09707353264093399,-0.03657405450940132,-0.07570625096559525,-0.061098236590623856,-0.06471698731184006,-0.0009227088885381818,-0.08079606294631958,0.03730745241045952,0.04668600857257843,-0.03198029473423958,-0.0141795938834548,-0.10800235718488693,0.05825930833816528,0.0021369399037212133,0.053455572575330734,0.03713346645236015,0.08867447078227997,0.027655310928821564,0.0016558970091864467,0.1161339208483696,0.027356557548046112,0.05441489815711975,0.017196251079440117,-0.054842982441186905,0.016617918387055397,-0.10690522193908691,0.05460086092352867,0.06474822014570236,0.06415165960788727,-0.09771113842725754,0.0754992887377739,0.09156148135662079,0.0021194962318986654,-0.08806274831295013,0.009004293940961361,-0.008607919327914715,-0.06939291208982468,0.013093552552163601,0.011640267446637154,-0.04269852489233017,0.0931365042924881,0.04426795244216919,-0.0005822232342325151,0.11568982899188995,0.006482582539319992,0.012442727573215961,0.017782622948288918,-0.09938085824251175,-0.02528010867536068,0.01609673723578453,-0.05061589926481247,0.06473745405673981,0.036596354097127914,0.03815818950533867,0.09342284500598907,-0.033598631620407104,0.0040634432807564735,-0.037539221346378326,-0.05577618628740311,0.043582733720541,0.05644102767109871,0.05398259684443474,-0.06505429744720459,0.07477540522813797,-0.11070001125335693,-0.0420314259827137,0.09459831565618515,-0.02072860114276409,-0.0655454620718956,-0.0003365594893693924,-0.028336361050605774,0.05200108513236046,-0.02036314085125923,-0.10265491157770157,0.0028996265027672052,0.04678981378674507,0.0032463599927723408,0.005759128835052252,-0.08932872116565704,-0.04974149540066719,-0.08975716680288315,-0.031623125076293945,-0.0421895869076252,-0.003025968559086323,-0.03631579875946045,-0.09072232246398926,0.07115324586629868,0.003993320278823376,-0.02275528386235237,0.08448232710361481,0.052281465381383896,0.023543328046798706,-0.24428986012935638,0.14915871620178223,0.18979701399803162,-0.07033661007881165,0.07008718699216843,-0.037619125097990036,0.09300288558006287,-0.06621822714805603,-0.10204336792230606,-0.12489114701747894,0.09997040778398514,0.00266823242418468,-0.1287248581647873,-0.0539737269282341,-0.16431157290935516,-0.07429029047489166,-0.03880291432142258,-0.09873119741678238,-0.1790793091058731,0.038408711552619934,-0.03666005656123161,0.1066698282957077,0.09672314673662186,-0.0058637033216655254,0.11627926677465439,0.07290679961442947,0.031102286651730537,0.11496343463659286,0.1545298844575882,-0.16524426639080048,-0.15675602853298187,0.17236706614494324,0.045522645115852356,0.0553184412419796,0.042387932538986206,-0.10415919125080109,0.06409633159637451,-0.005290280096232891,-0.051265571266412735,-0.003895596833899617,0.00502177607268095,-0.08012602478265762,-0.016594314947724342,0.0118901077657938,0.08025866001844406,0.1116129457950592,-0.020948151126503944,-0.1705460250377655,0.020290588960051537,-0.12925375998020172,0.2148195207118988,-0.007338208612054586,0.10551019757986069,-0.009766089729964733,0.05693140625953674,-0.12757761776447296,-0.028000183403491974,0.1040969043970108,-0.05210873857140541,0.19044536352157593,-0.0010476675815880299,-0.11904870718717575,-0.09088296443223953,-0.10541962087154388,0.07082106173038483,-0.03780444338917732,-0.002236118772998452,-0.0481121763586998,0.12352488934993744,0.13338248431682587,-0.16674353182315826,-0.11810597777366638,0.0910397469997406,-0.1192554160952568,-0.11219265311956406,-0.10062788426876068,-0.09551233053207397,-0.10153929144144058,0.061502911150455475,0.20837748050689697,0.0042550694197416306,0.012908739037811756,0.06529037654399872,-0.10716307908296585,0.02716134674847126,0.07406855374574661,0.04298733174800873,0.20970545709133148,0.24697530269622803,0.09271831065416336,-0.011997328139841557,0.27345168590545654,0.1275874674320221,-0.00599756371229887,0.04532037675380707,0.029314421117305756,-0.0009213223238475621,0.08189751207828522,-0.07296930253505707,0.00930094625800848,-0.13735482096672058,0.019763672724366188,-0.11115320026874542,-0.07538717985153198,0.10297940671443939,0.025127209722995758,0.04750377684831619,0.09458576887845993,0.01759652979671955,0.1347511112689972,0.007694549392908812,0.05746380239725113,0.0871131420135498,-0.013896806165575981,0.12667477130889893,-0.0041366321966052055,0.05152649059891701,-0.18864893913269043,-0.13507960736751556,0.020708445459604263,-0.033774133771657944,-0.1301390677690506,-0.08509968966245651,-0.0012922282330691814,0.20999622344970703,0.051773399114608765,0.0791139081120491,0.15678517520427704,0.12009294331073761,-0.0006201313226483762,-0.05353732407093048,-0.05169893801212311,0.017298689112067223,-0.02339944988489151,-0.031052494421601295,-0.026328913867473602,-0.13892263174057007,0.0260842964053154,0.0831332802772522,0.14699096977710724,-0.047178443521261215,0.08889706432819366,-0.11875492334365845,-0.2171468883752823,0.07942225784063339,0.15723738074302673,0.12006806582212448,0.13512955605983734,-0.043901119381189346,0.0570228137075901,0.11920841038227081,-0.11557482182979584,0.15664538741111755,-0.14686959981918335,0.0030654899310320616,-0.1194043755531311,0.08419304341077805,0.19950158894062042,-0.006288305390626192,-0.15001754462718964,0.11541870981454849,-0.1238943338394165,0.03337107598781586,-0.16375957429409027,-0.02028295211493969,0.13338269293308258,0.07875269651412964,-0.10981528460979462,-0.10903709381818771,0.0924111157655716,-0.024247238412499428,-0.06855902075767517,0.11191054433584213,-0.0754108801484108,-0.09408250451087952,-0.1031545102596283,0.10970698297023773,-0.1269329935312271,-0.15154235064983368,0.20156337320804596,0.1176900863647461,0.12465112656354904,-0.10465797781944275,-0.050554048269987106,-0.02096913382411003,0.15471278131008148,-0.14216431975364685,-0.031289879232645035,0.0854790210723877,0.23834161460399628,0.10036705434322357,-0.16870132088661194,-0.02617478184401989,0.06849639117717743,0.07343936711549759,0.16545997560024261,-0.12541180849075317,-0.15312807261943817,0.159949392080307,-0.08879433572292328,0.11456750333309174,0.1960359811782837,-0.1107107549905777,-0.20161007344722748,-0.030681496486067772,-0.1566721647977829,0.08816763013601303,0.05905560404062271,0.176067054271698,-0.027536654844880104,-0.020237024873495102,-0.03376128524541855,-0.08659806847572327,-0.07531630247831345,0.0374380499124527,-0.043405335396528244,0.07755706459283829,-0.04891785606741905,0.10672720521688461,0.12871474027633667,-0.11232295632362366,-0.18811964988708496,-0.08833454549312592,-0.0911935567855835,0.04491424560546875,-0.13349904119968414,-0.2234797179698944,-0.11897832155227661,-0.1679086834192276,-0.01446537021547556,-0.2048352062702179,-0.0713467001914978,-0.1390639990568161,-0.10831490904092789,0.1824239194393158,0.23246359825134277,-0.1082153394818306,0.01901674084365368,-0.11085686832666397,-0.10682912915945053,-0.18014821410179138,-0.15849708020687103,0.13983963429927826,-0.005744267720729113,0.04645576700568199,-0.09852218627929688,0.09155601263046265,0.07663936913013458,0.03545896336436272,0.009167236275970936,-0.14303992688655853,0.01636473461985588,0.09515558183193207,0.007128856144845486,0.08584178239107132,0.047504641115665436,0.040065184235572815,0.13821686804294586,-0.06638477742671967,0.05175911635160446,-0.022467419505119324,-0.20559075474739075,0.003162550972774625,0.10847640037536621,0.05344795435667038,0.07770028710365295,-0.17745567858219147,0.07799193263053894,-0.10722945630550385,0.01672355830669403,-0.0743640884757042,-0.07047887146472931,-0.008779022842645645,-0.029602624475955963,-0.11709412932395935,0.06317012757062912,-0.08467818796634674,0.030468013137578964,0.18078038096427917,0.22797468304634094,-0.0639878585934639,-0.06879132986068726,-0.11416104435920715,-0.021234240382909775,-0.04960459843277931,-0.1311541050672531,-0.17428195476531982,-0.05369507521390915,-0.04253365471959114,-0.06346456706523895,0.12131798267364502,0.024361977353692055,0.014431150630116463,-0.16700197756290436,0.09282415360212326,-0.10156570374965668,-0.046010822057724,-0.019476212561130524,-0.014549309387803078,-0.018726296722888947,-0.13421575725078583,-0.2632903754711151,-0.05401593819260597,-0.09808767586946487,0.08327687531709671,-0.14565014839172363,0.045588891953229904,-0.1096874549984932,0.07123894989490509,-0.08471080660820007,-0.021322334185242653,0.15153640508651733,-0.004750315099954605,-0.04317170009016991,-0.05327059328556061,-0.1693078726530075,0.11541327834129333,0.020641950890421867,0.029379012063145638,-0.05155686289072037,-0.013107556849718094,-0.02321561612188816,-0.0013236822560429573,-0.07882248610258102,0.14655181765556335,0.16890595853328705,-0.10130606591701508,-0.17317166924476624,0.028727969154715538,0.1326967030763626,-0.04265715554356575,0.08954014629125595,-0.011349772103130817,0.07939235121011734,-0.14058901369571686,-0.10706988722085953,-0.13951388001441956,-0.11186382919549942,0.00869167409837246,-0.10666912794113159,-0.08877011388540268,0.1665005087852478,-0.07756411284208298,-0.0718429833650589,-0.06877277791500092,0.04273140802979469,-0.10030626505613327,-0.24361315369606018,-0.1696958690881729,0.008848566561937332,-0.005818955134600401,-0.22582247853279114,-0.03589896112680435,0.019200660288333893,-0.2311553806066513,-0.23660016059875488,-0.0690927654504776,-0.17263802886009216,-0.0004577490908559412,-0.12285300344228745,0.05463576316833496,-0.05997750908136368,0.06980672478675842,-0.026417214423418045,-0.06346987932920456,-0.09541516751050949,0.13563336431980133,-0.10390961915254593,-0.023414790630340576,-0.16164371371269226,0.03433283790946007,-0.12595708668231964,-0.09351523965597153,0.044427014887332916,-0.17861433327198029,0.025491686537861824,0.04143097996711731,-0.19655084609985352,-0.06085960194468498,-0.17408640682697296,0.0003927659709006548,-0.20984597504138947,0.1224074438214302,0.04853373020887375,0.14049041271209717,-0.09223178774118423,0.057302046567201614,0.13009604811668396,-0.15594778954982758,0.07010562717914581,0.23567093908786774,-0.05746450275182724,-0.06384241580963135,0.06755366176366806,-0.09344244748353958,-0.19160521030426025,-0.03684496507048607,-0.055001888424158096,-0.07433981448411942,-0.17093822360038757,0.042572714388370514,-0.07129467278718948,-0.1607728898525238,-0.0357421338558197,0.05117087811231613,-0.12321930378675461,0.16551892459392548,-0.2146688550710678,-0.0003283496480435133,0.024637477472424507,-0.05400484800338745,-0.11967359483242035,-0.12385211139917374,0.0029483770485967398,-0.022028615698218346,-0.062294915318489075,0.10301616042852402,0.15036827325820923,-0.17195428907871246,-0.12060945481061935,-0.10199446231126785,0.076231949031353,0.05235714837908745,0.25384533405303955,0.011792927049100399,0.12868760526180267,0.07416532933712006,0.020110635086894035,0.07981356978416443,-0.015243364498019218,0.11416209489107132,-0.05974221229553223,0.09908196330070496,0.0278491098433733,0.061228279024362564,0.07997384667396545,-0.16862355172634125,-0.11915422230958939,0.060266364365816116,0.11375220119953156,0.13124912977218628,-0.08266966789960861,0.24157895147800446,0.02630031108856201,-0.0056322976015508175,-0.0568433552980423,0.07357806712388992,-0.13312309980392456,-0.1727108210325241,0.06968722492456436,0.025295158848166466,0.08481773734092712,-0.12241384387016296,-0.18853764235973358,0.020945092663168907,0.09347905218601227,0.031793538480997086,-0.07770108431577682,0.13243980705738068,0.0869021862745285,-0.13742808997631073,0.14305374026298523,-0.017728092148900032,0.11286067962646484,-0.1879127323627472,0.1955525130033493,0.15159253776073456,0.05530281737446785,0.08179742097854614,-0.09715224802494049,0.143317312002182,0.0736130103468895,0.08884488046169281,0.14500385522842407,-0.1754027009010315,0.08076270669698715,0.033957816660404205,0.2218850553035736,0.05264999344944954,-0.047857850790023804,0.1294710487127304,0.085150346159935,0.09111703932285309,-0.04535456374287605,0.16860327124595642,-0.0818386971950531,0.01964404620230198,0.1606326699256897,0.10456399619579315,0.07081761956214905,0.16050642728805542,-0.13350778818130493,0.09460993111133575,-0.08837075531482697,0.12937986850738525,0.06991212069988251,-0.10788645595312119,-0.17373722791671753,0.1256813257932663,-0.24373693764209747,0.06558120250701904,0.05057279020547867,-0.19171589612960815,-0.016446411609649658,-0.1274494230747223,-0.023092659190297127,0.1340949833393097,0.010247698985040188,0.062030352652072906,-0.12749458849430084,0.05879576876759529,0.17124579846858978,-0.039554085582494736,-0.091510109603405,0.07247637212276459,0.0637306198477745,-0.16619013249874115,-0.03678043931722641,-0.006784993689507246,-0.04530631750822067,-0.10688281804323196,0.06304643303155899,-0.04650426283478737,0.0417342372238636,-0.06332463771104813,0.1263681948184967,-0.04814741015434265,-0.022997399792075157,-0.14912642538547516,0.002411089837551117,0.009616975672543049,-0.06933338195085526,0.11802861094474792,0.17735442519187927,0.010369918309152126,-0.061527758836746216,0.11981967091560364,-0.14587892591953278,0.1533542424440384,0.03683644160628319,-0.17129667103290558,0.13380853831768036,0.00905470922589302,-0.23938263952732086,-0.2282302975654602,-0.0940951406955719,0.03845084086060524,-0.1445951610803604,0.1802608072757721,0.1599171757698059,0.1638840138912201,0.08511727303266525,0.044806256890296936,0.049316998571157455,0.02228647470474243,-0.15295061469078064,0.15585555136203766,-0.06725875288248062,-0.016745759174227715,0.02418515831232071,-0.0359896682202816,0.0035496666096150875,-0.11715386807918549,-0.12664636969566345,0.12129726260900497,0.07366092503070831,-0.21180614829063416,-0.03161569684743881,-0.009297424927353859,0.009567349217832088,-0.0532265231013298,-0.17563669383525848,-0.07265505939722061,-0.10032070428133011,0.03452502191066742,-0.058514926582574844,0.1440335214138031,-0.08771049976348877,-0.06710929423570633,0.05903789773583412,0.18893937766551971,-0.05488396808505058,0.13965895771980286,0.11808212101459503,0.08944258838891983,0.08279483020305634,0.00039908094913698733,0.03102271445095539,0.2037452757358551,-0.020948907360434532,0.0024566214997321367,0.1369209885597229,0.0678766518831253,0.10613664239645004,0.1947704255580902,-0.09280683100223541,0.062301915138959885,0.1501564234495163,0.06799875944852829,-0.046642426401376724,0.06972996890544891,0.06292679905891418,0.01430597435683012,0.10682135820388794,0.13385343551635742,0.05571533739566803,0.04271385818719864,0.042540617287158966,0.15795856714248657,0.16307929158210754,-0.057502251118421555,0.14948196709156036,-0.03684264048933983,0.01048437599092722,0.02289764955639839,-0.1510808914899826,0.021238038316369057,0.0009399666450917721,0.1474374234676361,-0.029178081080317497,0.17614969611167908,0.08100884407758713,-0.14207905530929565,0.07288108766078949,0.1403435915708542,-0.13157938420772552,0.051849231123924255,-0.03420807421207428,0.1131320521235466,0.10432446002960205,0.11712820827960968,0.19554977118968964,0.16265298426151276,-0.07402147352695465,0.17176172137260437,-0.06271523982286453,0.17497071623802185,-0.17234955728054047,0.010581692680716515,-0.09295112639665604,-0.20829935371875763,-0.23478829860687256,-0.06193814054131508,0.032386086881160736,0.0442701056599617,-0.19078274071216583,0.15568315982818604,0.10623128712177277,-0.08887436985969543,0.0904431864619255,-0.09107466042041779,-0.09337222576141357,-0.07600395381450653,0.15106147527694702,-0.09385322034358978,0.14922578632831573,0.08973037451505661,0.18895193934440613,0.05654199421405792,0.19042269885540009,-0.06603971868753433,0.04383157193660736,-0.051058292388916016,-0.11207253485918045,-0.11583545804023743,0.18683992326259613,0.004358167294412851,0.11038650572299957,0.02839905396103859,0.1380293369293213,-0.10295180231332779,0.02880590222775936,0.12982627749443054,0.06653879582881927,-0.041733480989933014,0.023656832054257393,-0.13907457888126373,0.07769325375556946,0.004593695513904095,-0.19892439246177673,0.03957609832286835,-0.1928005814552307,0.157211035490036,-0.07353591173887253,-0.126058891415596,-0.036644551903009415,0.0011908343294635415,0.13425855338573456,-0.01787068322300911,0.2200000286102295,0.05522792413830757,-0.07443378120660782,0.039021819829940796,0.048006005585193634,0.050445470958948135,-0.05115614831447601,0.09089203178882599,-0.15833134949207306,0.005496071185916662,-0.11493077129125595,-0.15726685523986816,-0.11249126493930817,-0.06320939213037491,0.06996311247348785,-0.10938984900712967,-0.20710256695747375,0.09398055076599121,0.18501758575439453,-0.0065850079990923405,-0.10688556730747223,0.12873925268650055,-0.03900417685508728,-0.028469186276197433,0.028024153783917427,0.21834692358970642,-0.13437122106552124,-0.08610798418521881,0.17594215273857117,-0.08563844114542007,-0.05045444145798683,0.010345419868826866,0.1576773226261139,-0.040602173656225204,0.0026092298794537783,-0.1924927830696106,0.019025329500436783,-0.14939934015274048,0.022054608911275864,0.07291191071271896,-0.0750853568315506,0.04234859719872475,0.045028697699308395,-0.043180834501981735,-0.12149224430322647,0.14859533309936523,-0.2522945702075958,-0.043063607066869736,0.16845698654651642,-0.0817079246044159,-0.08504565805196762,0.023416763171553612,-0.0010711009381338954,0.09826084226369858,-0.09352089464664459,0.024154910817742348,-0.11976611614227295,-0.009840098209679127,0.17548756301403046,0.029100051149725914,0.05649787187576294,0.05636977776885033,0.12726528942584991,-0.027939625084400177,0.1260354220867157,0.15163126587867737,-0.0358133465051651,0.14176170527935028,0.07011780142784119,-0.032655272632837296,-0.06030263006687164,0.04793611168861389,0.23878994584083557,0.10273893922567368,0.13591666519641876,-0.033217255026102066,-0.14069165289402008,-0.08310353755950928,-0.14619092643260956,0.0979880690574646,-0.03334986791014671,-0.17428158223628998,-0.027409497648477554,-0.004662444815039635,0.006721699610352516,0.011872458271682262,-0.09548351168632507,0.03483797609806061,-0.011669794097542763,0.09340716898441315,-0.018996557220816612,0.026076318696141243,-0.08606940507888794,0.08614812046289444,0.062449805438518524,0.0895719900727272,-0.05902969464659691,0.07615110278129578,0.12265469133853912,-0.11318978667259216,-0.05172223970293999,0.03920111805200577,-0.044993989169597626,0.06307274848222733,0.04392383247613907,0.16459502279758453,0.048230741173028946,0.07190616428852081,0.07347502559423447,0.10249679535627365,0.020959436893463135,-0.024066973477602005,0.04499463737010956,0.00511376466602087,-0.1418958157300949,0.07411662489175797,0.13320662081241608,0.04151421785354614,-0.01410005148500204,-0.04704124480485916,-0.09508799761533737,-0.09536876529455185,-0.1394568234682083,-0.10054495930671692,-0.04910457506775856,0.11915463209152222,0.1558210551738739,-0.0006501621683128178,0.06742362678050995,0.12822100520133972,0.12319955974817276,0.05793462321162224,0.031089065596461296,0.06663603335618973,-0.073297880589962,0.05714310705661774,-0.048260822892189026,-0.11759079247713089,-0.14455261826515198,0.010318226180970669,-0.08222097903490067,-0.09908068925142288,-0.046287667006254196,-0.01363955158740282,-0.07457690685987473,-0.098751001060009,-0.10572590678930283,-0.09845229238271713,0.10869043320417404,-0.013274402357637882,-0.12067296355962753,0.08494920283555984,0.08022062480449677,-0.030696501955389977,-0.0037448464427143335,-0.10352601855993271,-0.07134372740983963,0.07870030403137207,-0.08159606158733368,0.033370450139045715,0.10090970247983932,-0.09409056603908539,-0.011400601826608181,0.03576742857694626,0.08484301716089249,-0.04596062749624252,-0.059528838843107224,0.05754425749182701,0.0481693297624588,0.09331872314214706,0.05186242237687111,0.07615099847316742,0.0853877142071724,-0.01650743931531906,0.09609529376029968,0.02957735024392605,-0.05175439268350601,-0.01944316364824772,-0.002449832856655121,0.06055658683180809,0.031495802104473114,-0.09906592220067978,-0.18350376188755035,0.041012853384017944,-0.07198819518089294,0.014964329078793526,-0.019566304981708527,0.09853770583868027,0.07070291042327881,0.10815223306417465,0.07594165951013565,-0.06349818408489227,0.09801863133907318,0.1324402391910553,0.06741354614496231,0.03956194594502449,-0.03699708357453346,-0.06348307430744171,0.103262759745121,0.046547941863536835,-0.0850064679980278,0.09287402033805847,0.11710692197084427,0.020243775099515915,0.0108783645555377,-0.10070715844631195,-0.046563487499952316,-0.1096930131316185,-0.1588507741689682,0.013220785185694695,0.002165156416594982,-0.03993549942970276,0.0110767288133502,0.01623326726257801,0.14767524600028992,-0.04304201900959015,0.03688664361834526,-0.021324772387742996,0.06267121434211731,-0.1183503046631813,-0.15207548439502716,0.006912750657647848,-0.012215759605169296,0.02303110808134079,-0.04995492845773697,-0.059906281530857086,-0.10421127080917358,0.15313473343849182,-0.07139813899993896,0.05775674059987068,-0.12791019678115845,0.07468738406896591,-0.06681115180253983,0.07278900593519211,0.13054321706295013,0.1261923462152481,0.07919099181890488,0.08515293896198273,-0.08525221049785614,-0.0128696970641613,0.07260177284479141,-0.03730997443199158,-0.15773454308509827,-0.1522780954837799,0.1366048902273178,0.07040935754776001,-0.058899980038404465,0.0005428066360764205,0.14372432231903076,-0.15322226285934448,-0.13898810744285583,0.0734798014163971,0.065244659781456,-0.12806883454322815,-0.10300027579069138,0.07874134927988052,-0.07268385589122772,-0.06799893826246262,-0.09720926731824875,-0.07451392710208893,0.1216699555516243,-0.0024202552158385515,0.05350359529256821,0.04414353519678116,-0.034779876470565796,0.013916275463998318,0.16077809035778046,0.0926564484834671,-0.07162074744701385,-0.01175631582736969,0.10596253722906113,0.09022045880556107,0.10351777076721191,-0.05700730159878731,0.06505747884511948,-0.01985381357371807,0.13791970908641815,-0.052647318691015244,0.039408862590789795,-0.0689329132437706,-0.053865205496549606,0.10167478024959564,-0.06415583938360214,-0.0778237134218216,-0.09540917724370956,0.09851828217506409,0.013779825530946255,0.024537790566682816,0.07947033643722534,-0.036332372575998306,-0.0046884724870324135,0.10492914170026779,-0.047505635768175125,0.008465484715998173,0.04432974010705948,-0.05765293911099434,-0.08626612275838852,-0.1507498323917389,-0.02462027408182621,0.022235792130231857,-0.09635593742132187,-0.053647108376026154,-0.04741658270359039,0.05940421298146248,0.009637531824409962,-0.10928361117839813,0.12117673456668854,0.07989539206027985,-0.07886170595884323,0.13764268159866333,-0.01936037465929985,0.007344563491642475,0.06642936170101166,-0.09560580551624298,-0.0968238040804863,-0.005791374947875738,0.011682647280395031,0.0955495610833168,-0.02718653902411461,0.10233575105667114,0.10206390172243118,0.10694469511508942,0.032776761800050735,-0.015161656774580479,0.0025169935543090105,0.011153914034366608,0.10832776874303818,-0.008027002215385437,-0.06587634980678558,-0.03145712614059448,-0.0900968536734581,-0.09511273354291916,-0.0843803808093071,0.11471978574991226,-0.14932747185230255,0.040982890874147415,0.0858154296875,-0.15580882132053375,0.011102677322924137,0.12734469771385193,-0.04234079271554947,-0.06964204460382462,-0.13158926367759705,-0.12900300323963165,0.001942778006196022,-0.0063899243250489235,0.010406185872852802,0.1353653371334076,-0.1695951521396637,0.16687485575675964,0.05934106186032295,-0.20078691840171814,-0.16319894790649414,0.2138526886701584,-0.027016377076506615,0.045715562999248505,0.12196444720029831,0.0411376990377903,-0.11458004266023636,-0.03545302525162697,-0.08686350286006927,0.005063818767666817,0.04129055514931679,0.16543442010879517,-0.19000343978405,0.04415525123476982,0.01992436684668064,-0.07257843017578125,-0.19881972670555115,-0.03895891085267067,-0.12923382222652435,0.15113726258277893,-0.0529257096350193,0.17010386288166046,0.10409677028656006,-0.16762495040893555,-0.061877645552158356,-0.09539537876844406,0.021601170301437378,0.06530137360095978,-0.11421970278024673,-0.10760490596294403,-0.06412112712860107,-0.0642772689461708,0.15616430342197418,0.19566985964775085,-0.06171076372265816,0.035404205322265625,0.028713330626487732,0.14231963455677032,0.04373887553811073,0.16353444755077362,0.07990536838769913,0.17348311841487885,-0.05201604217290878,0.09395197778940201,0.1151154562830925,-0.08079162985086441,-0.10797872394323349,0.03770632669329643,-0.09506282955408096,0.017346637323498726,0.006448071449995041,0.07545964419841766,0.040716078132390976,-0.11336728185415268,-0.09540557861328125,0.14467473328113556,0.1579110473394394,0.031210068613290787,-0.07156562805175781,0.028363961726427078,-0.2031330168247223,0.12589840590953827,-0.013391418382525444,0.029849642887711525,0.08053623884916306,-0.19557875394821167,0.08746057748794556,-0.09770719707012177,-0.04250238090753555,-0.02431386522948742,-0.12606506049633026,-0.12630152702331543,-0.11785714328289032,0.00532841170206666,0.1535140872001648,0.007051761727780104,-0.13533465564250946,0.11473143845796585,-0.029134834185242653,-0.08084987103939056,-0.08266831189393997,0.11052356660366058,-0.049902282655239105,0.04354315251111984,-0.012743723578751087,0.18980351090431213,-0.15612922608852386,-0.11873260140419006,-0.21257460117340088,0.10540536791086197,0.06872382760047913,0.015972957015037537,-0.05033509060740471,-0.061991721391677856,-0.12991425395011902,0.1055283173918724,0.12544387578964233,0.1073170080780983,-0.08397208899259567,-0.1573634296655655,-0.038931623101234436,-0.0996628850698471,-0.04231035336852074,0.12664754688739777,0.02707734704017639,0.15253670513629913,-0.033292993903160095,-0.042252469807863235,-0.1316869854927063,0.17793110013008118,-0.06155306100845337,-0.06604694575071335,-0.08100037276744843,0.06292776018381119,0.12357689440250397,0.009974340908229351,0.013335118070244789,0.13622558116912842,0.13673526048660278,0.005061094183474779,-0.017869262024760246,0.170429065823555,-0.0706324502825737,0.026310788467526436,-0.011729924008250237,-0.1505986899137497,0.12616176903247833,0.0777268260717392,0.08025991916656494,-0.12599191069602966,0.1587454229593277,-0.0857575386762619,-0.06540606915950775,-0.18490062654018402,0.12902623414993286,0.11006586253643036,-0.03327364847064018,-0.13704603910446167,0.041929423809051514,-0.13174855709075928,0.13478121161460876,-0.1568242609500885,0.04788501188158989,-0.001202248502522707,0.14531701803207397,-0.12985345721244812,-0.041891805827617645,-0.11767907440662384,-0.03882339596748352,0.13724806904792786,0.15970781445503235,0.07231872528791428,-0.15154023468494415,0.013995863497257233,-0.246170774102211,-0.14153556525707245,-0.1750263124704361,-0.07717954367399216,-0.058353979140520096,-0.14078553020954132,-0.09739343076944351,-0.15027518570423126,-0.08651904761791229,0.04115966707468033,0.12549830973148346,-0.08323171734809875,-0.09904389083385468,0.06944064050912857,-0.06799150258302689,-0.07666631788015366,-0.11005795747041702,-0.080424964427948,0.04370855167508125,0.08015166968107224,-0.03177343308925629,0.03464322164654732,0.11088818311691284,-0.09223029762506485,0.12782076001167297,-0.13829123973846436,0.10872523486614227,-0.17124930024147034,-0.1599351018667221,0.016931777819991112,0.11218076944351196,-0.027658570557832718,0.01500766258686781,0.14447540044784546,0.04654660448431969,-0.13632257282733917,0.13178376853466034,0.01127603929489851,-0.16438892483711243,-0.01201835460960865,0.020898086950182915,0.0638541579246521,-0.17272113263607025,0.03378177434206009,-0.023734113201498985,-0.11208964139223099,-0.06711602956056595,0.048752494156360626,0.04734672233462334,-0.12516970932483673,-0.06381186097860336,0.07024644315242767,0.0862862765789032,-0.09299668669700623,-0.0511501245200634,0.042418401688337326,-0.13158850371837616,0.044837821274995804,0.08526282012462616,0.12440117448568344,0.08495507389307022,-0.13057613372802734,0.13116928935050964,0.000659807410556823,0.07295010983943939,0.061355266720056534,0.004798561800271273,0.031015854328870773,0.04131761193275452,-0.13654403388500214,-0.09126915037631989,0.0005052287015132606,-0.08477076143026352,0.048995740711688995,-0.037403494119644165,0.0493195466697216,0.13235434889793396,0.0405828133225441,0.07437526434659958,-0.06447498500347137,-0.02283380553126335,-0.22613349556922913,0.04726860299706459,-0.17422081530094147,0.06631971895694733,0.021860456094145775,0.00840542372316122,0.036313749849796295,0.04450954496860504,0.13578210771083832,-0.11210265010595322,-0.10540005564689636,-0.11586876213550568,-0.26350685954093933,-0.025433707982301712,-0.16674377024173737,0.04655050113797188,0.047770626842975616,0.18458440899848938,-0.12633652985095978,-0.14552505314350128,0.10939921438694,0.078068308532238,-0.15784887969493866,0.0733828917145729,0.13741427659988403,-0.22470518946647644,-0.16090090572834015,-0.042783208191394806,0.04847283288836479,0.11152046918869019,-0.06488396972417831,-0.09161271154880524,0.06986555457115173,-0.00017869772273115814,0.0648115798830986,-0.12710890173912048,-0.14073261618614197,-0.09039356559515,-0.027112219482660294,0.016805356368422508,-0.09545467048883438,0.033982571214437485,0.12603799998760223,0.08724946528673172,0.1145445704460144,-0.27357017993927,-0.18390898406505585,0.07365060597658157,0.07652256637811661,0.27220967411994934,-0.01120813749730587,0.10488203167915344,-0.2066081017255783,0.22326375544071198,-0.05958138406276703,-0.0475730299949646,0.00553060183301568,0.07986781746149063,-0.060185063630342484,-0.10794470459222794,0.1596997082233429,0.25360384583473206,-0.23700690269470215,0.08612166345119476,-0.048037197440862656,0.08825339376926422,0.12419125437736511,0.157155379652977,-0.09846580028533936,-0.09163452684879303,0.10480361431837082,0.19577555358409882,-0.03126151114702225,-0.04550561681389809,0.20004545152187347,-0.046590667217969894,-0.18469315767288208,0.04098859801888466,-0.04590149596333504,0.10584814101457596,-0.10605470091104507,-0.11307340115308762,0.017978103831410408,0.17339327931404114,-0.2099854201078415,0.0670740082859993,0.10611739754676819,0.15903452038764954,-0.027161357924342155,-0.05838709697127342,-0.016805104911327362,0.1863451451063156,0.04140681028366089,0.07668372243642807,-0.028967643156647682,0.060568034648895264,-0.022278346121311188,-0.1157212033867836,-0.17871208488941193,0.10570304840803146,0.04515911266207695,-0.04664022848010063,0.14723142981529236,0.22277036309242249,0.039216406643390656,0.0018938530702143908,-0.09917556494474411,-0.18440473079681396,0.015013022348284721,0.11216069757938385,-0.1962076872587204,0.13878510892391205,-0.07879887521266937,0.13587945699691772,0.02567586675286293,0.19453372061252594,-0.1974395215511322,0.09820058941841125,0.1019563302397728,-0.1307307779788971,0.12469998002052307,-0.0770830437541008,0.087781623005867,-0.05576933175325394,-0.22732752561569214,-0.02404741197824478,-0.07327719777822495,-0.14471639692783356,0.1109265387058258,0.05215223506093025,-0.009218567050993443,0.05807571858167648,0.1330374777317047,0.17607837915420532,-0.08313021063804626,-0.021868495270609856,-0.07953093200922012,0.19278627634048462,0.09794165939092636,-0.11556844413280487,-0.05749516934156418,-0.15910008549690247,0.06825669854879379,-0.088322713971138,-0.04443514719605446,-0.09257451444864273,0.09104427695274353,-0.1352778673171997,0.18380311131477356,0.03285371512174606,-0.13384480774402618,-0.06254926323890686,0.1608562469482422,0.05539054796099663,0.14683468639850616,-0.03478655219078064,-0.060447052121162415,0.10782741755247116,-0.06442051380872726,0.15130238234996796,-0.05338706448674202,-0.1096901074051857,0.04649445042014122,0.13659119606018066,0.04983113333582878,-0.005089905112981796,-0.045055266469717026,0.0036831393372267485,0.0013327259803190827,-0.20013825595378876,-0.16297930479049683,-0.11543148010969162,-0.1001402959227562,-0.060278233140707016,-0.01671631447970867,-0.08522513508796692,-0.16130997240543365,-0.018479062244296074,-0.05808046832680702,0.10826150327920914,0.1634582281112671,-0.12084043025970459,0.03482159972190857,-0.20103438198566437,-0.046935901045799255,0.01451366301625967,0.13091973960399628,-0.10420636832714081,-0.23252740502357483,-0.15973234176635742,-0.10421796143054962,-0.02224513702094555,-0.13292354345321655,-0.2001359462738037,0.09254735708236694,-0.0014215366682037711,-0.06773299723863602,0.11276870965957642,-0.11871883273124695,-0.15180332958698273,-0.12700358033180237,0.2141384780406952,0.07499320060014725,-0.11279299110174179,-0.006851363927125931,-0.10371880978345871,0.19416643679141998,0.20908868312835693,-0.09205619990825653,-0.11668441444635391,0.009192446246743202,0.15275409817695618,0.04516013339161873,-0.07134150713682175,0.03923344612121582,0.02995842881500721,-0.09746914356946945,-0.03982335329055786,0.13309359550476074,0.08496063947677612,0.18686331808567047,-0.2062680423259735,-0.071576789021492,-0.21997007727622986,0.12730363011360168,0.006736027542501688,0.12607933580875397,-0.08282233029603958,-0.13450060784816742,-0.02735302597284317,0.12534847855567932,-0.18938754498958588,0.01962672546505928,0.016966791823506355,0.09258578717708588,0.05142686516046524,-0.1364949494600296,-0.021158546209335327,-0.1749756932258606,-0.07503760606050491,-0.03424856439232826,0.07474935799837112,-0.11184202879667282,-0.16984666883945465,-0.17875619232654572,-0.16409102082252502,-0.04710308089852333,0.01772543229162693,-0.22919191420078278,-0.11441531032323837,0.09839516878128052,-0.015153935179114342,-0.023159371688961983,-0.21533016860485077,-0.006619863212108612,-0.13133850693702698,-0.09528690576553345,0.17563743889331818,0.06600617617368698,0.03665892034769058,-0.05426003038883209,0.13383203744888306,-0.16683153808116913,-0.11855436116456985,0.06692126393318176,-0.007194348145276308,-0.15996211767196655,-0.14253643155097961,0.017949646338820457,-0.15168499946594238,-0.09770721942186356,0.04975088685750961,-0.016611140221357346,0.013509819284081459,-0.12969492375850677,-0.07595247775316238,0.020755864679813385,-0.0112242940813303,0.12438452988862991,0.10272613167762756,-0.03722814470529556,-0.04432137683033943,-0.1888784021139145,-0.018075579777359962,0.08560730516910553,-0.017581433057785034,0.06465856730937958,-0.1524946242570877,-0.06707233190536499,-0.010316156782209873,-0.08675998449325562,-0.04291820153594017,-0.04950645565986633,-0.06401267647743225,0.04802793264389038,-0.07799046486616135,-0.00479252589866519,-0.06766494363546371,0.1791977882385254,-0.08091015368700027,-0.07596737891435623,0.010070373304188251,0.031009890139102936,0.007607961539179087,-0.07206747680902481,-0.041075535118579865,-0.10793628543615341,-0.22030623257160187,-0.01553112268447876,0.1976834088563919,-0.0028768412303179502,-0.006958249025046825,0.03757164627313614,0.2095573991537094,-0.017370473593473434,-0.019526278600096703,-0.09055553376674652,-0.05077025666832924,0.16928568482398987,-0.09865157306194305,0.057203009724617004,-0.08295003324747086,-0.18239353597164154,-0.1550014615058899,0.09545997530221939,-0.057186681777238846,0.05117597058415413,-0.06213624030351639,0.03450514003634453,-0.2197156399488449,-0.08489975333213806,0.11289983987808228,0.06911996752023697,-0.033302098512649536,0.04718999192118645,-0.017660262063145638,-0.1354312002658844,-0.07431456446647644,0.12860988080501556,-0.15280073881149292,-0.10553842037916183,-0.03716766834259033,-0.03874572739005089,-0.1193755567073822,0.17201481759548187,0.11472135782241821,-0.1799536645412445,0.1150146946310997,-0.053851835429668427,-0.14642706513404846,0.1471007764339447,-0.0711437538266182,-0.21931390464305878,-0.026591431349515915,0.05156736448407173,0.18166765570640564,-0.1815492957830429,-0.0011297055752947927,-0.1553744077682495,0.05072503164410591,0.18423038721084595,0.14771144092082977,0.03304280340671539,0.025905994698405266,-0.10529816150665283,-0.08226988464593887,0.17707642912864685,0.05116826668381691,0.06501569598913193,0.13135550916194916,-0.08601284772157669,0.008922544308006763,0.08413799107074738,-0.04856082797050476,0.016438644379377365,0.09087426215410233,0.06124937906861305,-0.1966397762298584,-0.07292411476373672,0.05380118638277054,-0.052066169679164886,0.09480883181095123,-0.12292979657649994,0.027725346386432648,0.06770674139261246,-0.12464167177677155,-0.1493065059185028,0.08548461645841599,0.020390663295984268,-0.08855563402175903,-0.049371130764484406,0.009894732385873795,-0.21329940855503082,0.08400500565767288,-0.015118060633540154,-0.05566145107150078,-0.026120565831661224,-0.08398749679327011,0.166826993227005,0.03743121773004532,-0.08214562386274338,0.023429537191987038,-0.07669133692979813,-0.15898805856704712,0.0657377764582634,-0.11661642789840698,-0.05309765413403511,0.04271382838487625,0.06423109024763107,0.1337144672870636,-0.2063087522983551,-0.08316531032323837,-0.10809692740440369,0.08453720062971115,-0.1921902447938919,0.10117725282907486,0.0445677787065506,-0.016660908237099648,-0.10024113208055496,-0.12059891223907471,0.008938293904066086,-0.0916043072938919,0.09822080284357071,0.075056292116642,-0.07394085824489594,-0.007725471165031195,-0.043002910912036896,-0.13998717069625854,0.018365606665611267,-0.08620047569274902,-0.11175929754972458,-0.09791073203086853,0.02297486923635006,-0.025401977822184563,-0.03791674226522446,-0.12891215085983276,0.10311122983694077,0.09821894019842148,-0.035302549600601196,0.054890602827072144,0.11944897472858429,-0.12971964478492737,0.11995990574359894,0.036321643739938736,0.13822153210639954,0.01618271879851818,0.07952751964330673,-0.12409104406833649,0.008833085186779499,-0.12290018796920776,-0.05940333008766174,0.09775523841381073,-0.11840081214904785,-0.11748833954334259,0.10564278811216354,-0.11355535686016083,0.07260261476039886,-0.24303965270519257,-0.18406623601913452,-0.09323228150606155,-0.1983398199081421,0.08427272737026215,-0.11411967873573303,0.16120381653308868,0.0011461290996521711,0.10008272528648376,-0.14471708238124847,-0.1258336901664734,-0.17020098865032196,0.06831365078687668,0.1128765419125557,-0.0876075029373169,-0.043255168944597244,0.16790179908275604,-0.06450270116329193,-0.0931374728679657,-0.1932087391614914,-0.01825493574142456,0.14285911619663239,-0.21272258460521698,-0.18454991281032562,0.07349113374948502,0.1579902321100235,0.11353544890880585,0.07948716729879379,-0.03339976444840431,-0.06206882745027542,0.08352746069431305,-0.06635560840368271,0.11459071189165115,-0.08875073492527008,-0.20265686511993408,0.13331490755081177,0.03025330789387226,-0.014864813536405563,-0.18277138471603394,-0.14204591512680054,0.018643589690327644,-0.16813130676746368,-0.08955497294664383,-0.008652021177113056,-0.0992872565984726,-0.1689087450504303,-0.09928909689188004,-0.05245247483253479,0.10790818929672241,0.13529087603092194,-0.00021889702475164086,-0.0796571746468544,-0.1517515331506729,-0.040604859590530396,0.11324673891067505,-0.11266707628965378,0.08297646790742874,0.05046921968460083,-0.11967917531728745,-0.041384268552064896,0.13278505206108093,-0.015535768121480942,0.06681878864765167,0.04533648490905762,0.06539056450128555,-0.07386882603168488,0.022568276152014732,-0.06281788647174835,0.062395740300416946,-0.053895387798547745,-0.11774493008852005,0.11514453589916229,0.00508646247908473,0.08719820529222488,0.14017221331596375,0.027103625237941742,-0.05442076176404953,0.027851637452840805,0.11833372712135315,-0.0799313560128212,-0.02449045516550541,0.14360031485557556,-0.032674502581357956,0.16129133105278015,-0.15121015906333923,0.005718194879591465,0.0707031860947609,-0.11304633319377899,0.1488417536020279,0.12129560112953186,-0.059253793209791183,-0.08758269995450974,0.0708642527461052,0.10769443213939667,-0.06676102429628372,-0.00936663243919611,0.02242427133023739,0.06642667204141617,0.03388490155339241,0.038803353905677795,0.056434519588947296,-0.11810251325368881,0.06592586636543274,0.1531250923871994,-0.12336188554763794,-0.06406482309103012,0.05807020142674446,0.045381732285022736,-0.06633871048688889,-0.13494737446308136,-0.05425345152616501,0.03174096345901489,0.11491861939430237,0.057126160711050034,0.12360817939043045,-0.05620509013533592,0.12749382853507996,-0.09777196496725082,0.05975743383169174,-0.051458749920129776,0.08219441771507263,-0.0796964168548584,-0.06875987350940704,-0.06194496899843216,0.07770886272192001,-0.014310694299638271,0.04773717373609543,-0.04668886959552765,-0.047268014401197433,-0.06884817034006119,-0.08170252293348312,0.13199378550052643,-0.09393244236707687,-0.041946373879909515,0.00519402464851737,0.10793117433786392,0.09805479645729065,0.03259430453181267,-0.1377909630537033,-0.03627227246761322,0.038264259696006775,0.032247144728899,-0.06074658781290054,0.10226670652627945,-0.013312353752553463,0.034468092024326324,0.025637298822402954,-0.12689805030822754,0.1014532670378685,-0.026962386444211006,0.133815199136734,-0.035867225378751755,0.07306553423404694,0.07448997348546982,-0.1536102294921875,-0.11913565546274185,0.09417290985584259,-0.033529024571180344,-0.007161421701312065,-0.023059045895934105,0.05712060630321503,0.029168304055929184,-0.13940471410751343,-0.017251141369342804,0.014955366961658001,0.023254811763763428,-0.10851441323757172,0.02407808229327202,-0.0708954706788063,-0.06972984224557877,0.02725227363407612,-0.018501421436667442,-0.06414980441331863,-0.024104369804263115,-0.09403364360332489,0.07331246137619019,-0.06601210683584213,0.11526254564523697,-0.0453697144985199,-0.1157664880156517,-0.05702478438615799,0.04156947508454323,0.08147339522838593,-0.12227058410644531,0.03842947259545326,-0.05172702297568321,-0.015646982938051224,0.04586955904960632,-0.05642182379961014,0.17421725392341614,0.022288786247372627,-0.07574349641799927,-0.047815851867198944,0.07458875328302383,0.02684812806546688,-0.10119326412677765,-0.09752961993217468,0.08036407828330994,0.07972545176744461,0.0351051427423954,0.025631079450249672,0.09344472736120224,0.032785814255476,0.10538145154714584,0.0038472891319543123,-0.041955478489398956,0.08502643555402756,0.09960193932056427,0.041663020849227905,0.023373063653707504,0.10200396925210953,-0.04686657339334488,0.016894418746232986,0.027145840227603912,0.09332040697336197,-0.06518799066543579,0.05662067234516144,-0.003458258928731084,0.12262831628322601,0.10836588591337204,0.016961462795734406,0.024863138794898987,-0.10712914913892746,0.08490748703479767,0.0020052865147590637,-0.06336352974176407,0.06989359110593796,-0.014553595334291458,0.00571473641321063,0.03601028770208359,-0.001788209076039493,-0.11098510026931763,0.040411319583654404,-0.12929238379001617,-0.2325218766927719,-0.03837263211607933,0.0956563949584961,-0.10721872001886368,0.012522490695118904,0.010534540750086308,-0.07055866718292236,-0.043846845626831055,0.05355933681130409,-0.13115686178207397,-0.0901084840297699,0.15382924675941467,0.08923423290252686,0.05068540573120117,-0.06471849977970123,0.0719342976808548,-0.01067633368074894,-0.1803526133298874,0.05630052834749222,0.07411868870258331,-0.050556011497974396,0.1010519415140152,-0.000793617102317512,0.027481794357299805,-0.017491977661848068,-0.11506770551204681,0.060158029198646545,0.11949458718299866,0.03056761808693409,0.11110305786132812,-0.030968524515628815,-0.08524105697870255,-0.027246393263339996,-0.052168384194374084,0.11660954356193542,-0.12641306221485138,0.001385436742566526,0.12279383838176727,0.1009354367852211,0.04151461645960808,0.033748265355825424,0.06628966331481934,0.19232457876205444,0.02147160843014717,0.10765476524829865,0.04208492487668991,0.02198709547519684,0.0569671168923378,-0.07271098345518112,-0.15552255511283875,0.08893673866987228,-0.03964425250887871,0.08810248225927353,0.0832827240228653,0.11274918168783188,0.03764535114169121,-0.06546695530414581,0.005442619789391756,0.140236958861351,-0.1243184432387352,0.015904178842902184,0.01937255449593067,0.022570427507162094,-0.0822872519493103,-0.10100091993808746,0.0075114076025784016,-0.09831705689430237,0.05514094606041908,-0.057329628616571426,0.02901189588010311,0.12499359995126724,0.03141644224524498,-0.08098902553319931,-0.02248036488890648,0.1163763627409935,0.008542281575500965,0.028417035937309265,-0.03999767452478409,0.033547695726156235,0.003096669679507613,-0.01879836432635784,0.10243964940309525,-0.06047005578875542,0.0022679094690829515,0.008079483173787594,-0.01840747892856598,-0.026776423677802086,-0.10619226843118668,-0.05551665648818016,-0.06423284113407135,0.09376218169927597,0.01585271582007408,-0.17585155367851257,0.030553622171282768,-0.14346790313720703,-0.05284160003066063,-0.09349540621042252,-0.1299010068178177,-0.07363876700401306,0.18711265921592712,0.07403819262981415,-0.15751023590564728,0.10481490939855576,0.19164103269577026,-0.12079393863677979,0.04029339179396629,0.12115684896707535,-0.09947256743907928,0.02905079536139965,-0.03687673434615135,0.08445300161838531,0.09581496566534042,-0.029259469360113144,-0.06497041136026382,0.1308152675628662,0.1289551556110382,-0.09820126742124557,-0.041311703622341156,0.053997039794921875,-0.08909686654806137,0.1638900339603424,0.09596636891365051,-0.009451891295611858,-0.04133596643805504,0.013465196825563908,-0.03674313426017761,-0.026239562779664993,0.1639043390750885,0.0771472305059433,0.07047850638628006,-0.08230643719434738,0.2049575299024582,0.03588004410266876,-0.054898664355278015,-0.08718457818031311,0.0777139887213707,-0.04609120264649391,-0.1591094732284546,0.00035422429209575057,-0.05562905967235565,-0.02406725287437439,-0.020417286083102226,-0.11826474964618683,0.17226149141788483,0.16566333174705505,0.14944325387477875,-0.08734623342752457,-0.021261421963572502,-0.0863187164068222,0.13574184477329254,0.14186754822731018,-0.07713435590267181,-0.013108388520777225,-0.08538409322500229,0.08195387572050095,0.08422058820724487,0.10227223485708237,0.0642540380358696,0.10161270946264267,0.06966155022382736,0.0814027413725853,-0.029768986627459526,-0.09781314432621002,-0.017894240096211433,-0.07501441240310669,-0.03769651800394058,0.11899131536483765,0.017553329467773438,0.10122153908014297,-0.1903509497642517,0.0836678072810173,0.01879108138382435,0.20143413543701172,-0.0504673533141613,0.1248084083199501,-0.005404640920460224,-0.06924447417259216,-0.122807078063488,-0.06120690330862999,0.24802282452583313,0.11493642628192902,-0.018536893650889397,-0.08253820240497589,0.09802985936403275,-0.030759619548916817,-0.03377285599708557,0.04629083350300789,0.02881482057273388,0.01796087622642517,0.1134922131896019,0.11452740430831909,0.05635673180222511,-0.10879966616630554,0.14406344294548035,0.07897573709487915,-0.12455356866121292,0.059508759528398514,-0.039114292711019516,-0.1120748221874237,0.04013209789991379,-0.057149965316057205,-0.09201035648584366,0.1442890167236328,-0.04271728917956352,0.11440367251634598,-0.15846766531467438,0.17682448029518127,-0.0017581750871613622,0.15829332172870636,0.05572739616036415,-0.04338686540722847,0.19282017648220062,-0.05768996477127075,0.12730173766613007,-0.15270933508872986,0.21353425085544586,0.011005742475390434,0.16944366693496704,-0.0821496844291687,-0.15264885127544403,-0.10750924795866013,0.022807445377111435,-0.10915657877922058,-0.013813397847115993,0.141032412648201,-0.09031648188829422,-0.010935326106846333,-0.02501833811402321,-0.039287127554416656,-0.053713418543338776,-0.13178019225597382,0.06590437144041061,0.15175692737102509,0.0071251350454986095,-0.0023250326048582792,0.03247017040848732,-0.0012261074734851718,0.15763215720653534,0.14166559278964996,0.11455956101417542,-0.021510448306798935,-0.005042102187871933,0.03084402345120907,-0.12979823350906372,0.039199136197566986,0.017569364979863167,-0.11089499294757843,0.07740388065576553,-0.11188441514968872,0.029266003519296646,-0.001674289465881884,-0.20913346111774445,0.07026207447052002,0.12860003113746643,-0.07687671482563019,-0.08187191933393478,0.07012566179037094,-0.10169801115989685,0.16831855475902557,-0.14699047803878784,-0.005945818964391947,0.11659056693315506,0.06466266512870789,-0.09287521988153458,-0.03200875595211983,0.10337076336145401,0.08949305862188339,-0.004087893292307854,-0.09209056198596954,-0.036028049886226654,-0.028527574613690376,0.0865204706788063,-0.1595534086227417,0.022594016045331955,-0.06679022312164307,0.16822299361228943,-0.10590637475252151,-0.09999917447566986,-0.09770797193050385,0.09213575720787048,0.18823637068271637,0.06337010860443115,-0.06934920698404312,0.06032031029462814,0.164290651679039,0.07634243369102478,0.1333944946527481,0.09534306079149246,0.04949934408068657,-0.018567347899079323,0.06630084663629532,0.12222596257925034,-0.015363038517534733,0.13091689348220825,-0.10883919894695282,-0.13721832633018494,-0.07312776148319244,0.08614910393953323,-0.021130800247192383,0.1111995056271553,0.09906134009361267,0.23365139961242676,0.1527383178472519,-0.03613457828760147,-0.09986815601587296,-0.03421918675303459,0.0842512845993042,-0.08627092093229294,-0.09763452410697937,-0.11684565991163254,-0.05508752539753914,0.15507622063159943,0.05645078420639038,-0.027478089556097984,0.10033079236745834,0.11179269105195999,0.124122254550457,0.0019094882300123572,0.015423077158629894,-0.0904824361205101,0.02810090035200119,0.13112281262874603,-0.0969109758734703,-0.02531449683010578,-0.2055065631866455,0.04460291191935539,-0.04742571339011192,0.143386572599411,-0.13189005851745605,0.0528898686170578,0.23700647056102753,-0.11454913765192032,-0.09608457237482071,-0.11189936101436615,-0.17528285086154938,-0.1022951602935791,-0.10179265588521957,0.1227245032787323,-0.14924107491970062,-0.13612225651741028,0.026117926463484764,-0.09602516889572144,0.06111949682235718,0.0828365683555603,0.12088645249605179,-0.0663742944598198,0.033788055181503296,0.027711046859622,0.04946914687752724,-0.12300466746091843,0.007874935865402222,-0.10626305639743805,-0.05215388163924217,-0.05534113198518753,0.06721924245357513,0.09351480007171631,-0.08817922323942184,0.001330413855612278,-0.13342979550361633,0.1236698105931282,-0.1009911522269249,0.11819315701723099,-0.08014161139726639,0.05919351056218147,0.1427459418773651,0.0430767685174942,0.14500650763511658,0.07578370720148087,-0.14876924455165863,0.11043258756399155,0.042167216539382935,0.07879045605659485,-0.105203777551651,0.007375468499958515,-0.10800554603338242,-0.13356365263462067,-0.050406478345394135,0.053768355399370193,-0.027128806337714195,0.02515656128525734,-0.04057926684617996,-0.04459207132458687,0.029742088168859482,0.017637914046645164,-0.10263584554195404,-0.16326701641082764,0.04548770189285278,-0.0313396230340004,-0.13564689457416534,0.11508311331272125,0.12329798936843872,-0.035970404744148254,-0.03457136079668999,-0.08872218430042267,-0.023829853162169456,-0.1413581222295761,-0.06476517766714096,0.09293468296527863,0.06431156396865845,0.02646353282034397,0.010042723268270493,0.10517862439155579,0.10953620821237564,0.06576881557703018,0.0925116091966629,-0.058616869151592255,-0.15528039634227753,0.07982467114925385,0.01590050756931305,-0.11260661482810974,0.08492358028888702,0.0500224344432354,0.1437954306602478,-0.07541459798812866,-0.06573343276977539,0.04142266511917114,-0.06911777704954147,0.16404889523983002,0.02621500752866268,-0.14926615357398987,-0.09045819193124771,0.13701364398002625,0.138083815574646,-0.014379824511706829,0.0076914899982512,-0.11912243068218231,0.0839080661535263,0.05637670308351517,-0.12768405675888062,0.09706323593854904,0.05945121869444847,0.17412929236888885,-0.03410755842924118,0.11611483991146088,-0.06801411509513855,0.0900638997554779,0.10943230241537094,-0.034824907779693604,-0.052538737654685974,0.020092453807592392,-0.11026527732610703,0.015951599925756454,0.0120858708396554,-0.028857380151748657,-0.09611087292432785,-0.0296398364007473,-0.13582925498485565,-0.06195485219359398,-0.021649226546287537,-0.007434440776705742,-0.004211947321891785,0.009247985668480396,0.04718361049890518,0.038029104471206665,0.09365860372781754,-0.007353894412517548,-0.05118415877223015,0.044749677181243896,0.11826713383197784,-0.008545542135834694,-0.05431778356432915,-0.023388611152768135,-0.029145263135433197,0.16053460538387299,0.09328649193048477,-0.09108273684978485,0.030372750014066696,0.08398071676492691,-0.03217363357543945,0.0037396205589175224,-0.010810185223817825,-0.04372464120388031,0.10259037464857101,-0.013937571085989475,0.03472896292805672,-0.06857611984014511,0.1040395051240921,0.06642354279756546,-0.09585568308830261,-0.018992001190781593,-0.0013720369897782803,0.126015305519104,-0.08550947159528732,0.012018464505672455,0.09889599680900574,0.10115199536085129,0.03089837171137333,-0.11425423622131348,-0.048865485936403275,-0.06435881555080414,0.004512021318078041,-0.13126805424690247,0.12547291815280914,0.011571637354791164,-0.12082470208406448,-0.13924548029899597,-0.09375050663948059,-0.1228877604007721,-0.07633567601442337,-0.07687679678201675,-0.05492902547121048,0.02515019290149212,0.11954575031995773,-0.018880723044276237,-0.10278800129890442,0.0382356122136116,-0.11413788795471191,-0.10309753566980362,0.11343168467283249,-0.006117087788879871,0.15279114246368408,0.018459798768162727,0.07985027879476547,-0.14033973217010498,0.009780097752809525,-0.17387498915195465,-0.08768239617347717,-0.15707813203334808,-0.07491656392812729,-0.15427279472351074,-0.07605031877756119,-0.05650218203663826,0.07978630065917969,-0.03739425539970398,0.15758587419986725,0.00448631402105093,0.10673940926790237,0.10690440982580185,-0.014540226198732853,-0.10851000994443893,0.11139655113220215,-0.05899714305996895,0.10932659357786179,-0.07156948000192642,0.02970099449157715,0.043533239513635635,0.08309155702590942,0.13220033049583435,0.07565812766551971,0.15806297957897186,0.12642021477222443,0.11462846398353577,-0.07922497391700745,-0.00031484250212088227,-0.16379547119140625,0.057346269488334656,0.060524143278598785,-0.1607634723186493,-0.21662555634975433,-0.11419247835874557,-0.08927846699953079,-0.09209183603525162,-0.008716543205082417,0.0178450345993042,0.03169577568769455,0.028669852763414383,-0.022756414487957954,-0.03194228187203407,0.09419824182987213,-0.019509898498654366,0.04977399483323097,0.11302324384450912,0.105293869972229,0.07349104434251785,-0.08982948958873749,0.0004957445780746639,-0.07348719239234924,-0.0532848946750164,-0.07983466982841492,-0.1170051321387291,-0.09129280596971512,0.17214509844779968,-0.044720735400915146,-0.08929691463708878,0.13884197175502777,0.16000409424304962,-0.09367614984512329,-0.05240342393517494,0.15854370594024658,0.0328708253800869,0.04379395395517349,0.10379277914762497,0.07134488970041275,-0.09642010927200317,0.01985938474535942,0.04508163779973984,0.11500175297260284,-0.1086098775267601,0.06170376390218735,0.1402948945760727,0.00917832925915718,0.019486071541905403,-0.018430281430482864,-0.08413270860910416,-0.10344333946704865,-0.1059381365776062,0.12474298477172852,0.07002153992652893,0.002209123456850648,-0.07275436073541641,-0.07273580133914948,0.049050454050302505,0.040144577622413635,0.11803484708070755,-0.03990685194730759,0.11824014782905579,0.05738271027803421,-0.13673895597457886,-0.090632364153862,-0.05241541936993599,-0.08006180077791214,0.022323573008179665,0.10227656364440918,0.09128648787736893,-0.030024100095033646,0.07698569446802139,0.16366444528102875,0.19796907901763916,0.0775587186217308,0.1120697557926178,0.08379306644201279,0.009863481856882572,0.09586222469806671,0.09696422517299652,0.08464983105659485,0.00999523140490055,-0.09448230266571045,-0.04657042399048805,0.07064714282751083,-0.21863803267478943,-0.0585058219730854,0.0977049469947815,-0.08182115852832794,0.1663859784603119,0.014071772806346416,0.057961076498031616,-0.0009130299440585077,0.140448197722435,-0.057738952338695526,0.0038016128819435835,-0.06065589562058449,0.11879609525203705,-0.14120376110076904,-0.032709430903196335,0.11402247101068497,0.1104823499917984,-0.0662141665816307,0.10154196619987488,-0.11656448245048523,0.052197035402059555,-0.03779400512576103,0.12898680567741394,0.019289530813694,-0.11830856651067734,0.0058373077772557735,-0.009323574602603912,-0.09317827969789505,-0.008427037857472897,-0.1203269213438034,-0.06390590965747833,0.04650227352976799,0.14801548421382904,0.01645643822848797,0.1210184395313263,0.09341277182102203,0.12149735540151596,0.003017026698216796,0.03540058061480522,0.02481231652200222,0.014560418203473091,-0.03458303585648537,-0.008407965302467346,0.13884471356868744,-0.0039907884784042835,0.11263870447874069,0.1987016350030899,-0.06695187836885452,0.0759069174528122,-0.032619815319776535,0.04076129198074341,-0.15272988379001617,-0.06472267955541611,-0.11605854332447052,-0.15885405242443085,0.025069648399949074,0.028255540877580643,-0.13226565718650818,0.004495791159570217,0.04929284006357193,-0.09123890846967697,0.0237100962549448,0.09957180172204971,-0.1012631356716156,0.17209838330745697,-0.07055483013391495,0.06610647588968277,0.028879711404442787,-0.09241750836372375,-0.006875766906887293,0.053999509662389755,-0.07723020017147064,-0.06943527609109879,-0.061537470668554306,-0.13127702474594116,-0.09319401532411575,-0.14209015667438507,0.10228070616722107,-0.0046897814609110355,-0.12474148720502853,0.0059463693760335445,0.07835955917835236,-0.021846171468496323,0.05279103294014931,0.07464030385017395,0.0009439971181564033,-0.05748703330755234,0.003953671082854271,-0.02984517812728882,-0.017506545409560204,-0.08369047194719315,0.06881492584943771,0.03866934776306152,-0.020238839089870453,0.1685238927602768,0.0326528400182724,0.07374576479196548,-0.10676948726177216,0.028516491875052452,0.07371337711811066,0.09781787544488907,-0.14222195744514465,0.1278820037841797,-0.057001758366823196,0.007099851034581661,0.06525248289108276,-0.1154734194278717,-0.07547449320554733,0.08862018585205078,-0.1650831401348114,0.12113098800182343,-0.09555324167013168,-0.09156639128923416,-0.0990048348903656,0.1312948763370514,0.11276290565729141,0.04605676233768463,0.12187186628580093,-0.05533875897526741,0.13034658133983612,0.07572095096111298,0.07351233065128326,0.1034570261836052,-0.001571806613355875,0.08407656103372574,0.02607549913227558,-0.0487527996301651,0.024585463106632233,-0.03671904280781746,-0.0869779959321022,-0.1100468710064888,-0.11598797887563705,-0.10063352435827255,-0.0022303301375359297,-0.03308543562889099,0.12051205337047577,-0.0713304728269577,-0.07864609360694885,-0.009556030854582787,-0.00646324222907424,0.006801747716963291,-0.07372482120990753,-0.019305236637592316,-0.004526867531239986,-0.06476221233606339,0.0734282061457634,-0.15664851665496826,-0.17863155901432037,0.1460404247045517,-0.11162948608398438,-0.03284982219338417,0.01821151189506054,-0.07565554231405258,-0.026388881728053093,0.1159602552652359,0.0012492062523961067,0.1051274985074997,-0.12942495942115784,0.07778644561767578,0.0496322400867939,0.03541458398103714,-0.01365427765995264,0.10773567855358124,0.10292879492044449,-0.05827140808105469,0.12355431169271469,-0.019058778882026672,0.14125342667102814,-0.1280851811170578,-0.03481312468647957,-0.026923248544335365,0.040038272738456726,0.01956212893128395,-0.07944650202989578,0.09444810450077057,-0.12159654498100281,0.05733015760779381,0.11187507957220078,-0.04630060866475105,0.09901100397109985,0.015932222828269005,0.18620829284191132,0.033679213374853134,-0.04873281717300415,-0.14367207884788513,-0.10157513618469238,0.08188681304454803,0.11891081184148788,0.035391323268413544,-0.11989158391952515,-0.06144686043262482,-0.09280004352331161,-0.08549174666404724,0.05233258381485939,-0.02735307067632675,-0.05947209894657135,0.0007503569358959794,-0.05180372670292854,0.09813263267278671,-0.06709986925125122,-0.1081828624010086,-0.05307528004050255,-0.07775004208087921,0.04975281283259392,-0.047487229108810425,0.06156965345144272,0.07838675379753113,0.07659886032342911,0.027641501277685165,-0.0948127880692482,0.07511038333177567,-0.03187496215105057,-0.13632716238498688,-0.006427302490919828,0.07001151889562607,0.056939952075481415,0.011757580563426018,-0.04256707429885864,0.030961811542510986,0.015374794602394104,-0.06431013345718384,0.08393783122301102,0.040759362280368805,0.16388364136219025,-0.006232349667698145,-0.1416686773300171,-0.05941956117749214,0.13569416105747223,0.025043992325663567,0.05782182142138481,0.027377791702747345,-0.04144739359617233,-0.09437654167413712,0.15330471098423004,0.036988578736782074,-0.023281751200556755,0.014763790182769299,-0.09890913963317871,-0.03556246683001518,-0.026478847488760948,-0.05674835294485092,-0.0027852035127580166,-0.2566809356212616,-0.0430351197719574,-0.023447122424840927,0.05644121393561363,0.127108633518219,0.0034293485805392265,-0.12220693379640579,0.06731188297271729,-0.01473002415150404,-0.1250987946987152,0.08321274816989899,-0.1443762630224228,-0.09519249945878983,-0.04271475598216057,-0.06902700662612915,-0.1111282929778099,0.10145316272974014,0.10481157898902893,0.013753078877925873,-0.07938868552446365,0.024109095335006714,0.0028790354263037443,-0.21155132353305817,-0.08853764832019806,0.1068931594491005,-0.12862485647201538,-0.16024352610111237,0.048067301511764526,-0.07634489983320236,-0.11569441854953766,0.04426811635494232,0.1819078028202057,-0.11262757331132889,-0.08394720405340195,0.07883357256650925,0.176180899143219,-0.09513746947050095,0.03207646682858467,-0.034643594175577164,-0.12597845494747162,0.09418975561857224,0.05689175799489021,0.02907448820769787,0.11594125628471375,-0.13975904881954193,-0.06250618398189545,0.1310608834028244,-0.05943262204527855,0.022875720635056496,-0.05740656331181526,-0.05101455748081207,0.09307310730218887,-0.0775371789932251,0.053818006068468094,-0.038992974907159805,-0.14624734222888947,0.10107503086328506,0.05838625133037567,0.07888040691614151,-0.07128360867500305,0.03388727456331253,0.13058839738368988,0.09675638377666473,0.04910384863615036,-0.10279864817857742,0.012494700029492378,-0.003912397660315037,-0.12204120308160782,0.10269691050052643,0.029060468077659607,-0.01691196858882904,-0.13335247337818146,0.06714106351137161,0.0016549983993172646,0.04313477873802185,-0.04825747758150101,0.1684952676296234,-0.095956951379776,-0.08331166207790375,-0.10367953032255173,-0.0023131726775318384,-0.0429515466094017,-0.049409475177526474,0.10895802825689316,0.01806814968585968,-0.16367153823375702,-0.10530059039592743,-0.11754000186920166,-0.17929905652999878,0.0622464194893837,-0.07842551916837692,-0.163191020488739,-0.005011231172829866,-0.020972840487957,-0.021014826372265816,0.06755932420492172,-0.09160958975553513,0.1007208451628685,-0.08832735568284988,-0.10661168396472931,-0.15058495104312897,0.05608562380075455,0.04205922409892082,-0.08251726627349854,0.08207813650369644,-0.05696847289800644,0.005705369636416435,-0.1611415296792984,0.09478802233934402,0.01855224184691906,-0.12413179129362106,-0.009492979384958744,-0.06766362488269806,-0.07536403089761734,-0.14962264895439148,-0.10036534070968628,0.10465266555547714,0.0574149526655674,0.09134896099567413,0.15005171298980713,-0.09260372072458267,-0.02955658920109272,0.05186896026134491,-0.12597517669200897,-0.10437362641096115,0.0023805939126759768,-0.08363034576177597,0.1602444350719452,0.012315057218074799,-0.04197553172707558,-0.15507061779499054,-0.11778414994478226,-0.04707561805844307,-0.08671985566616058,0.08522174507379532,0.03212903439998627,0.06987939029932022,0.033267296850681305,-0.04015354439616203,0.0012967032380402088,0.03276066109538078,-0.07815518975257874,0.06362437456846237,0.03782681003212929,0.014373824931681156,0.11603065580129623,0.10642591118812561,-0.001257034600712359,-0.08769822120666504,-0.06726637482643127,0.0973849818110466,-0.05584180727601051,-0.04018290713429451,0.02228734828531742,0.04891398549079895,0.00410806480795145,-0.12418176233768463,-0.0861021876335144,-0.10101840645074844,-0.007094418164342642,-0.009772448800504208,0.06029105558991432,-0.07375568896532059,0.11205556988716125,0.11985593289136887,-0.08998256176710129,0.18218939006328583,-0.13482454419136047,0.09194954484701157,0.04876899719238281,-0.029805248603224754,0.010779417119920254,0.11123194545507431,0.04479721561074257,-0.1559329330921173,-0.09603679180145264,-0.03024222142994404,-0.09046756476163864,0.06878414005041122,-0.06674633920192719,0.05217159166932106,-0.046147432178258896,0.12570849061012268,0.052378781139850616,0.06961270421743393,0.08433512598276138,0.09366190433502197,-0.08152119070291519,0.0893598198890686,-0.0674777552485466,0.14542603492736816,-0.1316823661327362,-0.12335356324911118,-0.14608891308307648,0.09220191091299057,0.07514919340610504,-0.032907046377658844,-0.03406568616628647,-0.03985506296157837,0.1055377945303917,-0.03442354500293732,0.07427024096250534,-0.00894453376531601,0.047816526144742966,-0.15245936810970306,0.07816427946090698,0.07459430396556854,-0.0051061781123280525,0.13410869240760803,0.08824528008699417,-0.07564185559749603,0.0033124908804893494,-0.09505224972963333,-0.04822743311524391,0.03963683173060417,-0.11717089265584946,0.08025320619344711,-0.025005154311656952,0.0005058269016444683,0.07973657548427582,0.059653397649526596,0.025072181597352028,-0.008582797832787037,0.12213177978992462,-0.09234856069087982,0.041385188698768616,-0.08274645358324051,0.09466008096933365,0.07906521111726761,-0.1106286495923996,0.18566566705703735,-0.06579992920160294,0.09369145333766937,-0.026631152257323265,0.036390215158462524,0.1921062171459198,-0.0033331511076539755,-0.1874648630619049,0.03040468692779541,0.13362407684326172,0.10151997953653336,0.19828888773918152,0.21145300567150116,-0.02491713874042034,0.1958877593278885,-0.059274498373270035,-0.11663495004177094,-0.1869157999753952,0.12911264598369598,-0.17817114293575287,-0.05541660636663437,-0.0962425023317337,0.1794341504573822,-0.010837273672223091,-0.08495911955833435,-0.043714653700590134,0.14397715032100677,0.055787671357393265,0.21008417010307312,-0.07739906013011932,0.05369964987039566,-0.20656254887580872,0.1147608757019043,0.005606340244412422,-0.18828220665454865,0.05490924045443535,-0.20363202691078186,0.11421672999858856,-0.11459597200155258,-0.11577620357275009,-0.01426753867417574,0.25556668639183044,-0.1674961894750595,0.19805657863616943,-0.042401932179927826,-0.04236609861254692,0.1560683697462082,-0.09451020509004593,0.11406558007001877,0.2529135048389435,0.13448651134967804,0.13437658548355103,-0.023706963285803795,0.08891305327415466,0.04340914636850357,-0.18810774385929108,-0.04636562615633011,-0.0022136385086923838,0.052100930362939835,-0.05178240314126015,0.018531277775764465,0.05529577657580376,0.05918198823928833,-0.13823211193084717,0.0992201641201973,-0.030364729464054108,-0.08505068719387054,-0.18866665661334991,-0.02726338803768158,0.23057354986667633,-0.059584032744169235,-0.14907370507717133,0.16717299818992615,0.10173554718494415,0.08263372629880905,0.08891937136650085,-0.16316816210746765,0.15187418460845947,0.1806914508342743,0.06089051812887192,0.0751645565032959,0.065061554312706,0.0012700591469183564,-0.13395872712135315,0.058260124176740646,0.11264526098966599,-0.18641139566898346,-0.10557051748037338,0.10917668789625168,0.15982821583747864,0.16792693734169006,0.12919923663139343,0.02311806008219719,0.021271856501698494,0.15789702534675598,0.1761234998703003,-0.11547566205263138,-0.20000119507312775,0.13621792197227478,-0.15333713591098785,-0.22296325862407684,-0.08990950882434845,0.007000692654401064,-0.19559817016124725,-0.09548108279705048,-0.007615217007696629,0.1838332861661911,0.13024921715259552,0.176993727684021,-0.2150060534477234,0.23514412343502045,-0.09556788951158524,0.017484690994024277,-0.12659743428230286,0.16717520356178284,0.10765227675437927,-0.08284631371498108,-0.15359298884868622,0.16628697514533997,-0.14909778535366058,0.04711713269352913,-0.01361947599798441,-0.011949981562793255,0.20063956081867218,-0.17274025082588196,-0.030743947252631187,0.004891262389719486,0.0222187303006649,0.18503323197364807,0.009310808032751083,-0.21975047886371613,0.2055944949388504,-0.16274401545524597,-0.19743016362190247,0.16508950293064117,-0.15437406301498413,-0.04415229707956314,0.046899888664484024,0.05403602123260498,0.10255451500415802,-0.05712459608912468,0.20094089210033417,-0.040594276040792465,0.0488574281334877,0.15861496329307556,0.004153264686465263,0.04393552243709564,-0.02629721537232399,-0.08771739900112152,0.12130162119865417,-0.20004184544086456,-0.038331206887960434,0.1455659419298172,0.05088212341070175,0.12180422246456146,-0.18968622386455536,-0.040762633085250854,0.096234530210495,-0.24203750491142273,0.03731263056397438,0.10035493224859238,-0.14016912877559662,-0.04074702039361,-0.08812527358531952,-0.07819034904241562,-0.1832081377506256,-0.1282641589641571,0.01236897986382246,-0.08177600800991058,0.04415768384933472,-0.03610213100910187,0.07248750329017639,0.043905891478061676,0.004484034609049559,-0.028418105095624924,-0.04755053669214249,0.21569398045539856,0.06545540690422058,-0.0858398899435997,-0.14289920032024384,-0.05845756456255913,-0.04728813096880913,-0.028635701164603233,-0.01970459707081318,0.032406166195869446,0.12891171872615814,-0.23444430530071259,-0.24815833568572998,-0.005637811031192541,0.14122334122657776,0.15354378521442413,0.17688561975955963,-0.1638852208852768,-0.11749641597270966,0.17355826497077942,0.08466699719429016,-0.16206976771354675,0.05212072283029556,0.02624005638062954,0.0012857127003371716,-0.04611217975616455,0.09053778648376465,-0.18853454291820526,-0.23278401792049408,-0.005618624854832888,-0.022212380543351173,-0.1662011593580246,-0.025717584416270256,0.08129999786615372,0.10906876623630524,0.0766841396689415,0.09983301907777786,-0.02403189428150654,-0.07639140635728836,-0.18170461058616638,-0.21883147954940796,0.12441771477460861,0.1136535182595253,-0.0023150292690843344,-0.08784300833940506,-0.04051099345088005,-0.19857336580753326,-0.08539807051420212,-0.10227176547050476,0.10122333467006683,0.03086201660335064,-0.0682968720793724,-0.2146691083908081,-0.1687522828578949,-0.010303866118192673,0.0008682900806888938,-0.14166861772537231,-0.1491299867630005,0.27004024386405945,-0.02138538286089897,0.09781071543693542,0.06893255561590195,-0.07824422419071198,-0.03561962768435478,-0.01039026491343975,-0.00708035146817565,