0.03689912334084511,0.24278457462787628,-0.03290971741080284,-0.12261135131120682,-0.1593196988105774,-0.01735798828303814,-0.1566072553396225,0.10129603743553162,-0.0077319941483438015,0.16302862763404846,0.057532697916030884,-0.2342468500137329,-0.056456636637449265,0.1824982613325119,0.16694483160972595,-0.04123049974441528,0.02603989467024803,0.09370772540569305,0.13078995048999786,-0.10065408051013947,0.09796036779880524,0.0531320720911026,-0.23984214663505554,-0.005560920108109713,0.14623117446899414,0.18048347532749176,0.007139766588807106,-0.16509006917476654,0.16009651124477386,-0.25980275869369507,0.12565362453460693,-0.18975962698459625,-0.00817979034036398,0.0806426927447319,0.02986503764986992,0.11072901636362076,0.2965347170829773,0.1842305213212967,0.17042185366153717,0.004565441515296698,0.03676978498697281,0.05358229577541351,-0.07729776203632355,-0.10968714207410812,-0.004980345256626606,0.04017994925379753,-0.07230538874864578,0.16794976592063904,0.21067242324352264,0.025088151916861534,0.0293809212744236,0.10886579006910324,-0.09137223660945892,-0.20514754951000214,-0.26432475447654724,-0.16839440166950226,0.22462168335914612,-0.1290966272354126,-0.16605137288570404,0.07892539352178574,-0.17563778162002563,-0.10633230954408646,-0.2352820187807083,0.008616809733211994,0.11438833177089691,0.09365925937891006,-0.01697273552417755,-0.004601521883159876,-0.13118694722652435,-0.26163870096206665,-0.20906780660152435,-0.0335342139005661,-0.2017381638288498,0.1797206848859787,-0.014208105392754078,0.13808487355709076,-0.24034899473190308,-0.10457578301429749,0.14865519106388092,-0.20482535660266876,-0.006735294125974178,0.07960298657417297,-0.2076578587293625,-0.09677337110042572,0.19441553950309753,0.13700495660305023,0.04245864972472191,0.07156704366207123,0.0706636980175972,0.09420551359653473,-0.06385724991559982,0.0810982882976532,0.18785583972930908,0.11247575283050537,-0.08239630609750748,0.09497937560081482,-0.058705851435661316,-0.20702777802944183,-0.10198880732059479,0.12072471529245377,-0.2608676552772522,-0.041773777455091476,0.1376763880252838,-0.15683552622795105,0.11331917345523834,-0.05044287443161011,0.15842342376708984,-0.2093150019645691,-0.037467580288648605,-0.18183879554271698,-0.05552474781870842,-0.0009524988709017634,0.136970654129982,-0.16481532156467438,0.03366216644644737,0.17545834183692932,0.12928718328475952,-0.10006667673587799,-0.05432016775012016,0.06849829852581024,-0.05626172944903374,0.1918087750673294,-0.038237616419792175,-0.1707732379436493,-0.02707209624350071,-0.06647031754255295,-0.029688818380236626,0.06521648168563843,0.04068359360098839,-0.024548353627324104,-0.04391844943165779,0.21854838728904724,0.12832953035831451,0.08251402527093887,0.07569459825754166,0.037265509366989136,0.1733340173959732,-0.1156417652964592,0.05914440006017685,0.06304895877838135,-0.17405056953430176,0.07831468433141708,-0.027960220351815224,-0.09624296426773071,-0.2450992912054062,0.044903289526700974,-0.07817942649126053,0.06240895017981529,0.003233951050788164,0.0510464608669281,0.07048185914754868,-0.008142314851284027,-0.09117094427347183,-0.029760761186480522,0.09478186070919037,-0.05223070830106735,0.06696270406246185,0.04690149053931236,-0.02163402922451496,0.1128307357430458,-0.0710129588842392,-0.09206206351518631,-0.006787472404539585,0.07797478884458542,-0.003180322702974081,-0.055389661341905594,-0.14973264932632446,-0.04023308679461479,-0.017109254375100136,0.013112016022205353,-0.19315630197525024,0.12853801250457764,0.15045462548732758,0.08931371569633484,-0.045057132840156555,0.23109140992164612,0.034900739789009094,-0.19920648634433746,-0.20880623161792755,0.13890798389911652,0.042081963270902634,0.03152753785252571,0.04845977947115898,-0.07164611667394638,0.2042350172996521,-0.04074200242757797,-0.03787191957235336,0.23246487975120544,-0.0632685050368309,-0.1919434666633606,0.14783038198947906,-0.05982259288430214,-0.027966583147644997,0.09996240586042404,-0.13125832378864288,0.1677211970090866,0.14616739749908447,-0.07233557105064392,0.000681084580719471,-0.037634845823049545,-0.11100323498249054,-0.03729294240474701,-0.1308211237192154,-0.229451522231102,-0.05278930440545082,-0.060467351227998734,0.1035485491156578,-0.18754912912845612,0.0805843248963356,0.24067164957523346,0.2492556869983673,0.16795815527439117,0.04636470973491669,-0.1408086121082306,-0.15440480411052704,0.13538675010204315,0.154912069439888,0.03778604045510292,0.010539645329117775,0.1693955659866333,0.05852072685956955,-0.14088600873947144,-0.02125200442969799,0.0940302386879921,-0.06591378897428513,-0.17446692287921906,0.07390429824590683,0.16819944977760315,0.06263762712478638,-0.010201250202953815,-0.09565716981887817,-0.17754046618938446,-0.09981142729520798,-0.16585050523281097,0.18179050087928772,-0.12867595255374908,-0.16116806864738464,0.18623682856559753,0.061248376965522766,0.1576387584209442,0.11492845416069031,0.17851980030536652,0.09579191356897354,-0.01589760184288025,0.053989164531230927,-0.03275826573371887,-0.04143792390823364,0.06802523136138916,0.1656448394060135,0.11885116249322891,0.041977010667324066,0.04777112975716591,-0.1178017184138298,0.04613561928272247,0.09850912541151047,-0.021552903577685356,0.016334641724824905,-0.14049600064754486,-0.1543755829334259,0.07056237757205963,-0.03283623233437538,0.07356806099414825,0.05074772238731384,-0.09136734902858734,-0.10392344743013382,-0.07626818120479584,0.21725262701511383,-0.1124780997633934,0.07639798521995544,0.06320268660783768,0.12060824781656265,0.0878830999135971,-0.16247247159481049,-0.06842844933271408,-0.17964303493499756,-0.11616237461566925,0.14719566702842712,0.08753159642219543,-0.13251522183418274,0.01608295924961567,0.045638151466846466,-0.050256792455911636,0.17019274830818176,-0.1226433739066124,-0.12595923244953156,-0.007568998262286186,0.06721542030572891,0.13968953490257263,0.018360458314418793,0.10284058749675751,-0.24300061166286469,-0.01588091254234314,0.15782923996448517,0.05693083629012108,-0.1286812126636505,0.15528132021427155,-0.11026228219270706,-0.15890154242515564,-0.12675127387046814,-0.015971960499882698,-0.06440474092960358,0.1741596758365631,0.1363980919122696,0.0827895998954773,-0.05044490471482277,0.1741834133863449,-0.14074832201004028,-0.09371424466371536,0.17165139317512512,0.15677832067012787,0.10508943349123001,0.1443282812833786,0.18155387043952942,-0.12406985461711884,0.06974373757839203,0.1797795593738556,0.06455213576555252,0.06361006945371628,0.17307738959789276,0.1317095011472702,-0.11811854690313339,0.18239326775074005,-0.11698438972234726,0.06617306172847748,0.03730645030736923,-0.12421254068613052,0.12534895539283752,-0.20959267020225525,-0.07165560126304626,0.0010587307624518871,0.10810200870037079,-0.10021992772817612,0.17054997384548187,0.1752721518278122,0.09434804320335388,-0.054340459406375885,0.06603696942329407,-0.16511739790439606,0.1502602994441986,0.14175698161125183,-0.16115151345729828,0.1402660459280014,-0.03244004398584366,0.028162013739347458,-0.05198020115494728,0.12673236429691315,0.1040952205657959,-0.15823397040367126,-0.08306046575307846,-0.21792097389698029,-0.10301951318979263,0.14914001524448395,0.05273810774087906,-0.045261941850185394,0.17405490577220917,0.1703137457370758,-0.0017625782638788223,-0.12428063154220581,-0.06315954774618149,-0.13737669587135315,-0.09527791291475296,0.03631708398461342,-0.23504745960235596,0.12205100804567337,-0.03012368641793728,0.08128561824560165,-0.10109758377075195,-0.2105749100446701,-0.07301566749811172,-0.19670718908309937,0.23069509863853455,0.25742778182029724,-0.26041772961616516,0.05752206966280937,0.2822142243385315,0.1107945591211319,0.2323918342590332,-0.118583083152771,-0.19145171344280243,-0.1405133306980133,0.08953212201595306,0.05381939187645912,0.07707200199365616,0.2315891832113266,-0.029146764427423477,0.10964009910821915,0.13023890554904938,0.19542863965034485,0.18265363574028015,-0.05059301480650902,0.14134304225444794,0.23333393037319183,0.21140408515930176,-0.277464359998703,0.16066974401474,-0.1861991137266159,-0.15499360859394073,0.09198128432035446,-0.12247355282306671,-0.1753712147474289,0.06398247927427292,-0.02659585513174534,0.10688217729330063,0.024744434282183647,-0.14738106727600098,-0.1835632026195526,-0.18162837624549866,-0.12461908906698227,0.12771102786064148,0.018182389438152313,-0.022954152897000313,0.16831980645656586,0.22174768149852753,-0.04158226400613785,0.10925489664077759,-0.10162410885095596,0.08478902280330658,-0.18398553133010864,0.03292855992913246,-0.17340178787708282,0.11195887625217438,-0.03806707635521889,-0.06952661275863647,0.10691271722316742,0.17351068556308746,0.08376471698284149,0.18985489010810852,0.03851956129074097,-0.1362052857875824,0.2994403541088104,0.16935472190380096,-0.16575855016708374,-0.06491675227880478,0.23161174356937408,-0.279856413602829,0.04739123210310936,0.18578001856803894,-0.25008508563041687,-0.12163252383470535,-0.23334337770938873,-0.21634425222873688,-0.18192973732948303,0.16115354001522064,0.17811203002929688,-0.3610834777355194,-0.29801398515701294,0.09447219222784042,-0.016720114275813103,-0.20274363458156586,0.0920855849981308,0.21197155117988586,0.22464442253112793,0.28816649317741394,0.14589808881282806,-0.2756633460521698,-0.04244009032845497,-0.1566018909215927,-0.08313848823308945,-0.15956856310367584,-0.0006853577797301114,-0.10507827997207642,-0.30668482184410095,-0.1277998983860016,0.04144059494137764,0.10444913804531097,0.07282111793756485,-0.08936292678117752,-0.2562499940395355,-0.2373683899641037,0.31076914072036743,0.11334551125764847,0.1090058982372284,-0.039647288620471954,-0.043906234204769135,-0.11334995925426483,-0.14637050032615662,-0.19225338101387024,0.03215936943888664,-0.22680111229419708,-0.018610510975122452,0.17042376101016998,0.08267657458782196,0.1023709625005722,-0.16307559609413147,-0.15206709504127502,0.1830054223537445,-0.01606098748743534,0.2844492197036743,-0.17069070041179657,-0.04706328362226486,-0.19811563193798065,0.09477323293685913,0.0176160279661417,0.0015173646388575435,0.01800413616001606,-0.1426893025636673,0.10671748965978622,-0.054626479744911194,0.307804673910141,-0.05132625624537468,-0.24697929620742798,0.09993621706962585,0.14105214178562164,-0.17661768198013306,-0.1872491091489792,0.20107245445251465,-0.08948581665754318,0.2608693242073059,0.03342903032898903,0.09222862869501114,-0.1495741754770279,-0.1044803336262703,0.09867897629737854,-0.1770520955324173,0.006101156584918499,-0.21228951215744019,0.09560191631317139,-0.12642443180084229,0.031047580763697624,-0.08974561095237732,-0.026810724288225174,0.16740083694458008,0.03274931013584137,0.024118324741721153,-0.2267688810825348,0.10860463976860046,0.06439889967441559,0.044232871383428574,-0.15937936305999756,0.15266624093055725,-0.1521156281232834,-0.08326473832130432,-0.14555016160011292,0.06471268087625504,0.013405483216047287,0.25867465138435364,-0.15151986479759216,-0.09798450767993927,-0.09207510203123093,0.12622281908988953,0.12978699803352356,0.1220739334821701,0.16442587971687317,-0.050455182790756226,-0.058184657245874405,0.10279182344675064,0.19281159341335297,-0.21382321417331696,0.010193699970841408,0.1937319040298462,-0.2410610318183899,0.028797125443816185,-0.1406366378068924,-0.030722033232450485,-0.08700059354305267,-0.2443564236164093,0.1267046332359314,-0.22547009587287903,-0.22813807427883148,-0.14341405034065247,0.013833744451403618,-0.08128155022859573,-0.007256125099956989,0.011961688287556171,-0.18667399883270264,0.2094067484140396,0.03726890683174133,-0.19491219520568848,-0.1339332014322281,-0.013667999766767025,-0.20670676231384277,0.19192497432231903,0.15788109600543976,-0.19931498169898987,-0.215342715382576,0.0640566349029541,0.12993821501731873,0.011015953496098518,0.12017568200826645,-0.020098326727747917,-0.23960720002651215,-0.0792132243514061,0.14423556625843048,0.12278621643781662,-0.047817353159189224,0.14106343686580658,-0.21074655652046204,0.20153923332691193,0.1671859472990036,0.008273418061435223,-0.17565830051898956,0.013133449479937553,-0.1498461663722992,0.11463530361652374,-0.04416516795754433,0.07699927687644958,0.15442577004432678,0.061730604618787766,0.07516280561685562,-0.14626413583755493,-0.06422731280326843,-0.1260334700345993,0.1782633364200592,0.1820848435163498,0.08678405731916428,-0.06471187621355057,-0.10443107783794403,0.1469636857509613,0.1506660282611847,0.050089601427316666,0.0960489884018898,0.20820264518260956,0.07961241155862808,0.022228367626667023,0.0970955342054367,0.09529990702867508,-0.28702595829963684,0.10158155858516693,0.17014457285404205,0.15080416202545166,0.0508890300989151,0.10269159078598022,-0.10927630215883255,-0.00014551494678016752,-0.14946343004703522,0.06833843886852264,0.11058573424816132,0.050898998975753784,-0.1725177764892578,0.04592472314834595,-0.0426865890622139,-0.045253098011016846,-0.3056285083293915,-0.17973828315734863,-0.010249233804643154,0.004144326783716679,0.015746736899018288,0.09715931862592697,-0.09283757209777832,0.18087609112262726,0.026843203231692314,-0.04119858518242836,0.1686420887708664,0.06709650158882141,-0.192050963640213,0.15514202415943146,-0.014635194092988968,0.14804144203662872,-0.28021055459976196,-0.06598712503910065,-0.1585637331008911,0.1597437560558319,-0.23082700371742249,-0.10414648056030273,-0.06578870862722397,-0.04768401011824608,-0.14308252930641174,0.08945972472429276,0.033243972808122635,0.034816544502973557,-0.2073061764240265,0.03007679432630539,-0.25420719385147095,-0.02985166758298874,0.11190138012170792,-0.17841608822345734,0.17979419231414795,0.10116010159254074,0.011347444728016853,-0.14509832859039307,-0.058526039123535156,0.06082617864012718,-0.09907220304012299,0.07197637110948563,-0.06128271296620369,-0.19737157225608826,0.16209644079208374,-0.09167607873678207,0.1172812432050705,0.022888699546456337,0.13185131549835205,0.12105900794267654,0.12968088686466217,-0.15496917068958282,-0.1301385909318924,0.06756763905286789,-0.020277738571166992,0.20851345360279083,0.01746535673737526,-0.21627376973628998,0.11032943427562714,0.147348091006279,-0.10010946542024612,-0.05354705825448036,0.12786465883255005,0.15531189739704132,-0.14669425785541534,0.16540095210075378,-0.14012418687343597,-0.25777894258499146,0.20214176177978516,0.11442167311906815,0.10984703153371811,0.12965147197246552,0.062482625246047974,-0.09822151809930801,0.1791718602180481,-0.07765820622444153,0.11783574521541595,0.06950493156909943,0.18849429488182068,-0.3000178933143616,0.05147341638803482,-0.17164330184459686,-0.054738257080316544,0.13115869462490082,0.1232667937874794,0.21111102402210236,0.012883394956588745,-0.12161600589752197,0.26460015773773193,0.10366740077733994,0.09893199801445007,0.14789101481437683,0.1677929311990738,-0.02503642812371254,-0.10973633080720901,0.333545982837677,-0.07752972841262817,-0.031503792852163315,-0.28455236554145813,0.0020522773265838623,-0.2398691326379776,-0.11922043561935425,-0.3422197699546814,-0.10297548770904541,0.12389787286520004,-0.1500009149312973,-0.08866794407367706,-0.21936963498592377,-0.0737510398030281,0.13189391791820526,-0.11572069674730301,0.25261542201042175,0.06413584202528,-0.2999761402606964,0.13017027080059052,0.09813269972801208,-0.009678617119789124,-0.16307960450649261,0.2779977321624756,0.2361338883638382,0.15199129283428192,-0.20707331597805023,-0.13424549996852875,0.27265486121177673,0.18865494430065155,0.20693247020244598,-0.32642462849617004,0.1428173929452896,-0.0665040910243988,-0.09573619067668915,0.2763824164867401,0.11484064906835556,-0.2625649869441986,0.20892933011054993,0.1766623556613922,-0.22146542370319366,-0.15835954248905182,-0.20997178554534912,0.26550471782684326,-0.22627955675125122,0.08471181243658066,0.2569701373577118,-0.022938286885619164,-0.05046192184090614,0.057999853044748306,-0.08920135349035263,-0.2550327181816101,-0.1829502135515213,-0.19559916853904724,-0.14610275626182556,0.1971186101436615,0.14585614204406738,-0.1168999969959259,0.06734262406826019,-0.1969902068376541,-0.3583010733127594,0.05706902593374252,-0.09496428817510605,-0.13226158916950226,0.004702528472989798,0.0549241304397583,0.15515123307704926,0.323996901512146,0.11408989876508713,0.23993979394435883,-0.15794114768505096,-0.20340850949287415,0.1622139811515808,0.04970921576023102,0.20532676577568054,-0.18497709929943085,-0.2309708148241043,-0.39838001132011414,-0.2900387644767761,-0.15086409449577332,-0.2844391167163849,-0.16958923637866974,-0.05603942275047302,0.053537096828222275,-0.16426154971122742,-0.18140974640846252,-0.02714959718286991,-0.02222544141113758,-0.29524385929107666,-0.35057732462882996,-0.23600409924983978,0.2792811095714569,-0.21456670761108398,0.043950848281383514,0.16137006878852844,-0.07889222353696823,-0.35757723450660706,-0.0755855143070221,-0.17572976648807526,0.010180735029280186,-0.14894524216651917,-0.26306799054145813,0.29518628120422363,0.020902330055832863,0.09597472846508026,-0.17215590178966522,0.06907379627227783,-0.060422517359256744,0.058368608355522156,-0.13467317819595337,0.08815918117761612,-0.03989000990986824,0.1089588925242424,-0.1563066691160202,0.15307137370109558,-0.05288372561335564,-0.06903640925884247,-0.2502758502960205,0.15923689305782318,-0.010151047259569168,0.019050462171435356,0.10110143572092056,0.2434534877538681,-0.2608727812767029,-0.11226032674312592,0.08362133800983429,0.020063159987330437,0.01885901764035225,0.03393710404634476,-0.04151202365756035,-0.27867183089256287,-0.019836770370602608,-0.2823355495929718,-0.008690175600349903,-0.07997199892997742,0.21802683174610138,-0.12169384211301804,0.13841480016708374,-0.20228463411331177,0.14005506038665771,-0.055971816182136536,-0.162493497133255,-0.1030215173959732,0.12319374084472656,-0.14978574216365814,0.0877060517668724,0.13334378600120544,-0.26024550199508667,-0.17880520224571228,0.13697104156017303,-0.2130575180053711,-0.03303779661655426,-0.20167045295238495,0.08484215289354324,0.231547012925148,-0.26016470789909363,-0.10216417908668518,0.1810135543346405,0.058362893760204315,0.1867780238389969,-0.2700697183609009,-0.17535161972045898,0.08123902231454849,-0.1922024041414261,0.0977722629904747,-0.2239290326833725,-0.10226675868034363,-0.2074895203113556,-0.3216201663017273,0.016804538667201996,0.2486092448234558,0.14220163226127625,-0.22741715610027313,-0.003846504259854555,0.09431017190217972,-0.1544671207666397,0.11895355582237244,-0.14210619032382965,-0.12002246826887131,-0.017244238406419754,-0.27647215127944946,-0.23768839240074158,-0.08696651458740234,-0.14822837710380554,0.09321662783622742,0.18737240135669708,0.0009456385741941631,-0.006260447204113007,-0.22079692780971527,0.23844383656978607,-0.05503547564148903,0.166178897023201,-0.12012150138616562,-0.09120013564825058,-0.05642695724964142,0.015587285161018372,-0.03941511735320091,0.2885659337043762,0.13676227629184723,-0.1002061665058136,0.1571533977985382,-0.11458440124988556,-0.18865840137004852,0.01774340309202671,-0.15532903373241425,-0.05854501947760582,0.27618923783302307,-0.06065700575709343,0.08004020899534225,0.019385460764169693,-0.07306785881519318,0.17735916376113892,0.07425323128700256,0.24525608122348785,-0.05574433133006096,-0.16806736588478088,0.3384150266647339,0.10144331306219101,-0.1108778789639473,0.0018300332594662905,-0.18614478409290314,0.019624050706624985,-0.09289993345737457,-0.18745513260364532,0.1362849622964859,-0.14847718179225922,0.07322150468826294,0.1726071834564209,0.14021582901477814,-0.13359731435775757,-0.015137926675379276,-0.021841567009687424,0.04819731414318085,0.17161975800991058,-0.094473697245121,-0.09347323328256607,0.12992313504219055,0.03247784450650215,0.11026746034622192,-0.05341951549053192,-0.05662376433610916,-0.1567639857530594,-0.13861091434955597,-0.16145636141300201,0.0657092034816742,-0.09428104013204575,-0.2301948219537735,0.07183945924043655,-0.0904686227440834,-0.1122618317604065,0.1669938862323761,0.05567660555243492,0.13565383851528168,0.018948327749967575,0.03373175486922264,0.17954868078231812,-0.020010121166706085,0.24914659559726715,0.12276854366064072,0.02409885637462139,-0.14379212260246277,-0.179748997092247,0.09295246005058289,0.023708408698439598,0.07560212165117264,0.10155294090509415,-0.15838174521923065,0.001516318996436894,0.16580753028392792,0.12129972130060196,0.1796034574508667,0.11883188784122467,-0.1668747514486313,-0.04899672791361809,0.14084957540035248,0.23977184295654297,-0.05786166712641716,-0.1866103857755661,-0.10973884165287018,0.04742937535047531,0.06364908814430237,-0.15066564083099365,-0.2324138879776001,-0.1364292949438095,0.13831427693367004,-0.037237927317619324,0.02823059633374214,-0.12463483214378357,-0.031222490593791008,0.07377804070711136,-0.03694727644324303,0.00887993909418583,-0.004393952898681164,0.17169056832790375,0.09411384165287018,-0.06954609602689743,0.12175414711236954,-0.022066252306103706,0.18394458293914795,0.11583611369132996,-0.16671302914619446,-0.07739084213972092,-0.19520090520381927,0.05420472472906113,-0.08984292298555374,-0.12375811487436295,0.16747838258743286,-0.09073173254728317,-0.05838223174214363,-0.17026151716709137,-0.0936521589756012,-0.13556721806526184,-0.01842997409403324,-0.021299179643392563,0.14574883878231049,-0.13148967921733856,0.043915458023548126,0.010818623006343842,-0.10456273704767227,0.11168894916772842,0.08103948086500168,0.054177455604076385,0.1254185438156128,-0.021657314151525497,-0.037614770233631134,-0.21139095723628998,-0.06659175455570221,-0.06308560818433762,0.18483279645442963,0.005467405077069998,0.07317863404750824,-0.04416903480887413,-0.054810378700494766,0.12763148546218872,-0.040881287306547165,-0.031783077865839005,0.0075186495669186115,0.07885008305311203,-0.02036174386739731,-0.12416579574346542,-0.11720450222492218,0.010614665225148201,-0.19650691747665405,-0.14483579993247986,-0.020890196785330772,0.023427823558449745,0.20556117594242096,-0.0819755494594574,-0.17396438121795654,0.052649106830358505,0.043296679854393005,-0.015892622992396355,0.023349149152636528,-0.17691849172115326,0.05504355952143669,-0.12024921923875809,0.1016635075211525,-0.13749784231185913,-0.12509863078594208,0.16205841302871704,-0.16611824929714203,0.17329591512680054,-0.19231776893138885,-0.09138127416372299,0.046540990471839905,0.21158014237880707,-0.05022276192903519,-0.08511627465486526,0.15836502611637115,-0.09785160422325134,-0.07895304262638092,-0.11528507620096207,-0.10879640281200409,-0.24810504913330078,-0.09522221237421036,0.09713048487901688,0.25216546654701233,-0.20958222448825836,-0.18192249536514282,-0.03904451057314873,0.04296464845538139,-0.20802100002765656,0.1317397803068161,-0.042529795318841934,-0.04857467859983444,-0.006803982891142368,-0.01943177729845047,0.08289390802383423,-0.034467704594135284,-0.07947178930044174,-0.08739326894283295,-0.02640788070857525,-0.009828055277466774,0.1377212554216385,0.1068454459309578,-0.12752531468868256,0.1437208652496338,-0.16885244846343994,-0.24595916271209717,-0.1646752953529358,-0.06380687654018402,0.046455319970846176,-0.1615406572818756,-0.05660130828619003,-0.1102340966463089,-0.04995507746934891,0.17456293106079102,0.16087745130062103,-0.1694072186946869,0.040406469255685806,-0.23648090660572052,0.009156781248748302,-0.0799320712685585,-0.1612536907196045,0.15493451058864594,0.04010940343141556,-0.06733833253383636,0.1407860815525055,0.14103195071220398,-0.08295627683401108,-0.24148650467395782,-0.08587177842855453,0.07914669066667557,0.10909193754196167,0.011104213073849678,-0.02762788161635399,0.18415293097496033,-0.21792301535606384,0.11541887372732162,0.15811194479465485,0.07147514075040817,0.021211640909314156,-0.16113492846488953,-0.18867185711860657,0.16461975872516632,0.20294089615345,-0.004997383337467909,-0.09187380224466324,-0.1860194206237793,0.12129580229520798,-0.05783066153526306,-0.022205272689461708,-0.2512003183364868,0.12689076364040375,0.03810941427946091,-0.1748933494091034,-0.15066565573215485,-0.07265845686197281,-0.1487724781036377,-0.05094418674707413,-0.11728767305612564,0.15684346854686737,0.17111149430274963,-0.08700960129499435,0.11484560370445251,0.19354356825351715,-0.010607530362904072,0.018243229016661644,-0.13765816390514374,-0.013431006111204624,-0.3104088604450226,-0.31583520770072937,-0.029035771265625954,-0.04132766276597977,-0.08735205978155136,-0.2184125930070877,0.1389620304107666,0.1914924532175064,-0.026781296357512474,0.2582426071166992,-0.1243332251906395,0.010691305622458458,-0.10481616854667664,0.1197146475315094,0.08463333547115326,-0.08030617237091064,0.1771077811717987,-6.50593065074645e-05,-0.18371953070163727,0.07314123958349228,-0.09380363672971725,0.20157963037490845,0.03659321367740631,0.016671637073159218,0.11486620455980301,0.07867506891489029,0.1765337437391281,0.06909732520580292,0.1847880780696869,-0.06650038808584213,-0.08398613333702087,0.14849476516246796,-0.023231318220496178,-0.11350532621145248,-0.047632452100515366,0.0497102215886116,0.015529733151197433,0.14199604094028473,-0.1878240406513214,0.05199268460273743,-0.1460508108139038,0.09649324417114258,-0.1701277792453766,0.22962740063667297,-0.012772169895470142,0.025669889524579048,-0.18148139119148254,0.14688460528850555,0.05848286300897598,-0.18540768325328827,0.270241916179657,-0.19608819484710693,0.3041069805622101,0.06283228099346161,-0.03167551010847092,-0.15996228158473969,-0.007409259676933289,0.14550957083702087,-0.2502337694168091,-0.19122610986232758,-0.1260114461183548,-0.03570591285824776,-0.1036493256688118,0.12209174036979675,0.02720622345805168,-0.05365128442645073,0.053278058767318726,-0.008379817940294743,0.14544200897216797,0.15529872477054596,0.024495821446180344,0.017397265881299973,0.10663072764873505,0.0033346915151923895,0.17059333622455597,-0.016003606840968132,0.21531103551387787,-0.19260460138320923,0.15276005864143372,0.1362939178943634,0.06626038253307343,-0.10964927822351456,0.16378018260002136,0.03511293604969978,-0.11394085735082626,0.13827955722808838,0.024783451110124588,0.11348170042037964,-0.10208962112665176,0.025088375434279442,-0.1527523696422577,-0.13617177307605743,-0.08039803802967072,0.1743125170469284,0.1488243192434311,0.03396748751401901,0.14373551309108734,0.1706266850233078,0.11503515392541885,-0.06872251629829407,-0.1775410771369934,-0.11161652207374573,-0.04581903666257858,0.23987549543380737,0.08649389445781708,-0.09136606007814407,-0.08998659253120422,0.2004847526550293,-0.12744729220867157,-0.16889852285385132,0.12565669417381287,0.0005841336096636951,0.1367843747138977,0.2171003669500351,-0.03613702580332756,0.15242578089237213,0.1705167442560196,0.15030932426452637,-0.2430225908756256,0.1749727874994278,-0.1946130096912384,0.1227048709988594,-0.18207795917987823,0.07551231980323792,0.13189952075481415,-0.054260220378637314,-0.0011535397497937083,0.02670741081237793,-0.09877331554889679,-0.014399160631000996,-0.18409639596939087,-0.11053357273340225,0.2740447223186493,-0.17044652998447418,0.07157173752784729,0.02765801176428795,-0.14591075479984283,-0.05398278310894966,-0.2523805797100067,0.10989441722631454,0.007794563192874193,0.047242920845746994,-0.013820575550198555,0.0004978123470209539,-0.1760338991880417,-0.24582329392433167,0.26614904403686523,0.02267572470009327,-0.05810277909040451,0.25564610958099365,0.21914002299308777,0.06398894637823105,0.2920522093772888,0.18841181695461273,0.16009469330310822,0.1044483333826065,0.06602194905281067,-0.13592307269573212,0.041196685284376144,-0.03727632761001587,-0.18070299923419952,-0.03807049244642258,-0.1059710830450058,-0.06030125170946121,0.1632324904203415,0.1373487412929535,0.04212500900030136,-0.09385794401168823,-0.07303576171398163,-0.24608325958251953,0.1606062650680542,0.17243094742298126,0.03912333399057388,-0.18407802283763885,0.06772947311401367,0.05792132392525673,0.02658565156161785,-0.09064587205648422,-0.10811945796012878,0.16415682435035706,0.1810394823551178,-0.18485943973064423,0.17394697666168213,-0.017425935715436935,-0.18749992549419403,0.0892927497625351,0.12126237899065018,-0.12821224331855774,-0.15114852786064148,-0.003629290498793125,-0.16391101479530334,-0.11187925189733505,0.03370679169893265,-0.18191349506378174,0.14142382144927979,-0.20238347351551056,0.2818790674209595,0.22647084295749664,0.05308854579925537,-0.20923282206058502,-0.161641463637352,0.04623851552605629,-0.2849540710449219,0.18795549869537354,-0.1780087798833847,-0.15222273766994476,-0.18595018982887268,-0.20294541120529175,0.18717606365680695,-0.15226662158966064,0.025601280853152275,0.26641160249710083,-0.14128723740577698,0.10401973128318787,-0.18845172226428986,-0.09941887855529785,-0.17374956607818604,0.05319499596953392,0.17536631226539612,-0.26374876499176025,-0.1863476186990738,-0.18647979199886322,0.05982254818081856,0.10603218525648117,0.11503102630376816,-0.11598963290452957,-0.11698778718709946,0.0652107447385788,-0.20025140047073364,0.20806264877319336,0.11276569962501526,-0.33102113008499146,0.02206229604780674,-0.11924853920936584,0.004373827017843723,-0.13980239629745483,0.23108655214309692,0.18240831792354584,-0.09134799242019653,-0.008338107727468014,-0.11502127349376678,-0.1160799041390419,-0.22330600023269653,0.1410212516784668,0.05013977363705635,-0.1593542993068695,-0.26991501450538635,0.01514694094657898,0.05367506295442581,-0.06843458861112595,0.22056472301483154,-0.12852874398231506,-0.1580069214105606,0.03610199689865112,-0.07743952423334122,0.030293526127934456,-0.03137977048754692,0.15367865562438965,0.02610820159316063,-0.2138601541519165,-0.20255310833454132,-0.23224110901355743,-0.06504581868648529,0.1644994616508484,-0.03497518226504326,0.016600631177425385,0.20586366951465607,0.05803680792450905,-0.013392309658229351,0.011570911854505539,0.09820767492055893,-0.044238895177841187,-0.07378911226987839,0.16529269516468048,-0.12260311096906662,0.06027740612626076,-0.11457929015159607,0.1892240196466446,-0.11853842437267303,0.15342402458190918,-0.021511275321245193,0.05481667071580887,-0.05139860883355141,0.25628262758255005,-0.03660399466753006,-0.16472575068473816,0.11516964435577393,-0.09784311056137085,-0.09760946035385132,0.1360376626253128,0.03474726900458336,0.18104907870292664,0.07000456005334854,0.1883254051208496,-0.03610702231526375,-0.05052902549505234,-0.13875478506088257,0.18990056216716766,-0.19325511157512665,-0.16500850021839142,-0.01682165265083313,-0.19982583820819855,-0.06288143247365952,-0.12650324404239655,0.20996969938278198,-0.13269948959350586,0.09049215167760849,0.03498964384198189,-0.10913971811532974,0.16335885226726532,0.0766621008515358,0.17427338659763336,-0.27008676528930664,-0.21413090825080872,0.16006037592887878,-0.1442522257566452,-0.23085734248161316,0.06584230065345764,0.1922997683286667,-0.01471635326743126,0.004561251029372215,-0.04644162952899933,0.038286495953798294,-0.08031412214040756,-0.20938535034656525,-0.2033306509256363,-0.0048917001113295555,-0.13378722965717316,0.13302206993103027,-0.10953938961029053,-0.1582542210817337,-0.080156110227108,-0.20839598774909973,-0.1432889997959137,0.1587919294834137,-0.07273740321397781,0.06155027821660042,0.08753734827041626,-0.0055876364931464195,0.21199646592140198,0.06586165726184845,0.2267206311225891,0.1390736699104309,0.07332224398851395,-0.03264959901571274,0.011397774331271648,-0.010349417105317116,-0.006495519075542688,0.04097651317715645,-0.2982192933559418,-0.034107137471437454,0.11190025508403778,-0.015203365124762058,0.11651108413934708,0.08079947531223297,0.07584168761968613,-0.010613162070512772,-0.08095543086528778,-0.19711877405643463,0.028659762814641,-0.2371535301208496,0.18242548406124115,-0.18857824802398682,-0.11283572763204575,-0.07464563846588135,0.04715970158576965,-0.2143271416425705,-0.08290938287973404,-0.2303694635629654,0.08382013440132141,-0.11749549210071564,0.010745841078460217,0.08812661468982697,-0.04632662609219551,-0.13004466891288757,-0.168150395154953,0.07593395560979843,-0.11184466630220413,-0.00967465527355671,0.2126399278640747,-0.07258187979459763,0.004001579247415066,0.1189548596739769,0.009339381940662861,-0.036814332008361816,0.030305389314889908,0.08237887173891068,0.053600285202264786,-0.2060188502073288,-0.09507700055837631,0.10281646251678467,-0.034345511347055435,0.14993934333324432,-0.22400620579719543,0.20219098031520844,-0.058718208223581314,-0.08612120151519775,0.13510487973690033,0.01816856861114502,-0.13736701011657715,0.10282321274280548,0.07823462039232254,-0.04404661804437637,-0.08264727890491486,-0.04532603174448013,0.01644320599734783,-0.01072124857455492,0.026692096143960953,-0.08810818195343018,0.01910506933927536,-0.1465691179037094,0.03291984647512436,0.1706782728433609,-0.07357857376337051,0.15056325495243073,-0.06124838441610336,0.048563361167907715,0.1630684733390808,0.17289280891418457,0.15412408113479614,-0.0957457423210144,0.07539917528629303,-0.14559867978096008,0.06041714549064636,-0.2061275839805603,0.04863298684358597,0.1278194636106491,-0.094977967441082,0.126357764005661,0.06869623064994812,-0.15159523487091064,0.16759875416755676,0.013046425767242908,-0.13452324271202087,0.11661813408136368,-0.0037572591099888086,0.06902342289686203,0.05413384363055229,0.08448128402233124,-0.015354497358202934,0.0961461216211319,-0.05186440795660019,0.16516761481761932,-0.14989538490772247,0.017563732340931892,0.0758919045329094,0.10104943066835403,0.13701730966567993,0.13957025110721588,-0.1923002004623413,0.18967729806900024,0.22103682160377502,-0.1308036893606186,-0.031025320291519165,-0.16092289984226227,0.1373811811208725,0.19150561094284058,0.0008179592550732195,0.04449174180626869,0.04160669073462486,0.08444199711084366,0.14164486527442932,0.09453589469194412,0.16934143006801605,0.07807191461324692,0.07543749362230301,0.011454076506197453,-0.004617825150489807,0.07961860299110413,0.019223002716898918,-0.09334893524646759,0.034677904099226,-0.14962983131408691,0.017802130430936813,-0.028069179505109787,0.026023097336292267,0.025749320164322853,0.03327025845646858,0.052452366799116135,-0.18974371254444122,0.12135374546051025,0.19914758205413818,0.10370831191539764,0.0775211825966835,0.2860579192638397,0.14338034391403198,0.0792926624417305,0.2435583621263504,-0.00688576977699995,-0.12300755828619003,-0.08148596435785294,-0.03848038986325264,-0.11114061623811722,-0.007537368219345808,-0.1916060596704483,-0.03955629840493202,0.220738023519516,-0.1570587307214737,0.047346096485853195,0.08053494244813919,-0.0244167260825634,-0.24433593451976776,-0.08229296654462814,0.16255871951580048,0.21506290137767792,-0.1463768035173416,0.06881966441869736,-0.2566298544406891,-0.2260974645614624,0.054620180279016495,0.02988750860095024,-0.10697800666093826,-0.18216392397880554,-0.1124969944357872,-0.2325216680765152,0.1594856083393097,-0.2259720265865326,0.09301741421222687,0.017277326434850693,0.3482988476753235,-0.2789255976676941,-0.10447172820568085,-0.2809937298297882,-0.11924023926258087,0.09716012328863144,0.06407667696475983,0.14325426518917084,-0.05849754065275192,-0.17464691400527954,-0.13112252950668335,0.05437358468770981,0.013271713629364967,-0.2427360862493515,-0.25649383664131165,-0.04845963791012764,0.13572537899017334,0.2637060284614563,0.11415542662143707,-0.12525439262390137,0.07514357566833496,0.27458176016807556,0.27957892417907715,-0.1511746644973755,-0.1695702075958252,-0.0962657555937767,-0.3735572397708893,-0.09270546585321426,-0.008899044245481491,-0.20405250787734985,-0.0168955959379673,0.1844506859779358,0.15319085121154785,0.3299487233161926,0.19541454315185547,-0.17156633734703064,-0.2031552642583847,0.08236860483884811,-0.12107634544372559,0.08733827620744705,0.09641314297914505,0.320520281791687,-0.06404756754636765,0.0376531220972538,-0.09375420957803726,-0.07349933683872223,0.030135929584503174,0.14421077072620392,-0.032508231699466705,-0.007881011813879013,0.04380464553833008,0.15522652864456177,-0.014747707173228264,0.21668098866939545,-0.1823873370885849,0.05664529651403427,0.34038159251213074,-0.306924968957901,0.09201783686876297,0.10704966634511948,-0.054522834718227386,-0.2618313133716583,-0.24993832409381866,0.07499591261148453,-0.14635509252548218,0.2583906352519989,-0.12924440205097198,0.18923525512218475,-0.1351115107536316,-0.013860023580491543,-0.14986537396907806,-0.2220357209444046,0.22241970896720886,-0.05590856820344925,-0.23589271306991577,0.11304912716150284,0.2388758361339569,-0.009339154697954655,-0.074671171605587,-0.1866505891084671,0.07539360225200653,-0.15741433203220367,0.06063765659928322,-0.06593165546655655,0.03439931944012642,0.15366773307323456,-0.16158106923103333,0.1711149960756302,0.09502940624952316,-0.14984583854675293,-0.17886711657047272,0.21684956550598145,0.04577303305268288,-0.1802314966917038,0.08014146238565445,0.19860082864761353,0.04633209481835365,-0.1353776454925537,0.07580237090587616,0.18384522199630737,0.12345795333385468,0.21173006296157837,0.07618752121925354,0.12748824059963226,-0.15851570665836334,-0.16440436244010925,0.21104368567466736,-0.049735330045223236,-0.0682247132062912,0.11547081917524338,-0.26093411445617676,0.13644447922706604,-0.03520886227488518,-0.02173708751797676,-0.09288623929023743,0.1680459976196289,0.251366525888443,0.026715414598584175,0.15341511368751526,0.08223682641983032,0.26254165172576904,-0.1457022875547409,-0.008474858477711678,-0.26415547728538513,-0.28547996282577515,0.1635347604751587,-0.20661386847496033,0.21095727384090424,-0.1402808129787445,0.010719829238951206,0.12776947021484375,0.25652584433555603,-0.13490840792655945,0.2071039229631424,-0.14655809104442596,-0.04752355441451073,0.10777208209037781,0.0019392755348235369,0.15897446870803833,0.06200580671429634,0.16047997772693634,-0.05570654198527336,0.07094203680753708,-0.13580287992954254,-0.28790393471717834,-0.24423490464687347,0.13894744217395782,0.12489031255245209,0.023770490661263466,-0.18584994971752167,0.21588347852230072,-0.020421495661139488,-0.03551217168569565,0.14755766093730927,-0.17926348745822906,-0.15500886738300323,0.13059692084789276,-0.15283682942390442,-0.07159470021724701,-0.058855630457401276,0.03199814260005951,-0.1810448318719864,-0.16360288858413696,-0.09408246725797653,0.17371852695941925,-0.006017693318426609,-0.283581405878067,0.1716524064540863,-0.19747091829776764,0.07256293296813965,-0.20731447637081146,-0.07909782230854034,-0.014914702624082565,-0.04949081316590309,-0.1234840452671051,-0.14875727891921997,-0.16968490183353424,0.167042076587677,-0.06167348474264145,-0.1868806928396225,-0.24990013241767883,0.053590912371873856,-0.2176082283258438,-0.011475292965769768,0.17389912903308868,-0.0200202614068985,0.07374391704797745,-0.02743350714445114,-0.08826112747192383,-0.20083235204219818,-0.053467754274606705,0.12390580028295517,-0.18996798992156982,0.0960967093706131,-0.038533419370651245,-0.08871400356292725,0.1409774124622345,0.2039637565612793,0.09841050207614899,-0.11722277849912643,-0.0265272818505764,0.11876910924911499,0.08112373948097229,0.10660296678543091,0.029118284583091736,-0.14457444846630096,-0.1532023400068283,0.06320365518331528,-0.060048460960388184,0.11672469973564148,0.1587250679731369,-0.23462921380996704,0.24789266288280487,0.10671015828847885,-0.0025431718677282333,-0.08379653096199036,-0.15685011446475983,0.04077668488025665,0.0635603740811348,-0.14198285341262817,0.03633900359272957,-0.263015478849411,-0.0558248907327652,0.049133360385894775,-0.030156461521983147,-0.01832392066717148,-0.010582158342003822,-0.06092027574777603,-0.18776164948940277,-0.24251200258731842,0.2136276364326477,0.22282133996486664,0.0930175632238388,0.08642285317182541,0.14359192550182343,0.1039939746260643,0.05773694068193436,0.31215453147888184,0.17028629779815674,0.0636371597647667,0.07620209455490112,-0.29237207770347595,-0.025465112179517746,-0.2564685642719269,0.04750988632440567,0.02387887053191662,-0.13070711493492126,0.03144136071205139,0.06333328038454056,-0.041250959038734436,-0.1117071807384491,0.16844001412391663,0.14310553669929504,0.1939244121313095,-0.10830878466367722,-0.06774377822875977,0.15748940408229828,-0.12353449314832687,0.1762082427740097,-0.1889323890209198,-0.05170294642448425,-0.17932100594043732,0.2013372927904129,-0.07831650227308273,-0.11184580624103546,0.027152175083756447,-0.17684687674045563,0.07909000664949417,-0.02468319982290268,0.2320810854434967,0.03589984029531479,0.11171844601631165,0.17327357828617096,-0.1283668726682663,0.11371340602636337,-0.20665335655212402,0.09675494581460953,-0.12562169134616852,0.08460021764039993,-0.2284735143184662,0.0028906017541885376,-0.17306983470916748,0.054804254323244095,0.16082978248596191,-0.15596596896648407,-0.021101873368024826,0.1854523867368698,-0.068291574716568,-0.23893669247627258,-0.16279059648513794,0.16503360867500305,0.15061251819133759,-0.1549576073884964,-0.0008393863099627197,-0.22761176526546478,-0.14529047906398773,-0.1978834569454193,0.16323421895503998,-0.09614481031894684,0.24092425405979156,0.10515523701906204,-0.10553570091724396,-0.09105611592531204,0.01137895230203867,0.10380948334932327,-0.016151204705238342,-0.26530343294143677,-0.22890262305736542,-0.02242259494960308,0.040632814168930054,0.0706249549984932,-0.03607979044318199,0.074074886739254,-0.04313028231263161,0.10680931061506271,-0.06604830175638199,-0.09845380485057831,0.16771352291107178,0.006757746450603008,0.10315200686454773,0.039454370737075806,-0.17027221620082855,0.08459974080324173,-0.05059881880879402,-0.18322058022022247,0.03243551030755043,0.20787544548511505,0.07555340230464935,0.05676909163594246,0.0010134152835235,0.049033138900995255,-0.2116088569164276,0.12408912926912308,-0.10346227139234543,-0.02205302007496357,0.0989733338356018,0.04277995973825455,0.02525152638554573,0.10062588006258011,-0.07179142534732819,-0.05213506519794464,-0.04428475722670555,0.0836232453584671,-0.16269449889659882,-0.31705358624458313,0.2767433524131775,-0.1659107208251953,-0.24560607969760895,-0.43574661016464233,0.15618985891342163,0.133661150932312,-0.1471106857061386,0.02859647385776043,0.19436518847942352,0.2238331437110901,-0.24355456233024597,-0.22668126225471497,0.005284945014864206,-0.15861758589744568,-0.011461746878921986,-0.011327139101922512,-0.09187596291303635,0.16309738159179688,-0.10294011980295181,0.06591084599494934,-0.06760159879922867,0.21543140709400177,-0.06050823628902435,-0.1642652153968811,-0.23817451298236847,0.12501941621303558,0.4109705090522766,-0.1853686273097992,0.20243217051029205,0.10052061825990677,-0.2369154542684555,-0.17374983429908752,0.04804539680480957,0.05601298436522484,-0.13873015344142914,-0.16310983896255493,0.2929306924343109,-0.1498662531375885,0.2770499587059021,0.03634653612971306,-0.01769142784178257,-0.27740100026130676,-0.1946568787097931,-0.2476261854171753,-0.042249519377946854,0.09115122258663177,0.22101880609989166,-0.1417439877986908,-0.2161911427974701,0.1594744175672531,-0.28455105423927307,0.04992061108350754,0.2650306820869446,0.026626968756318092,0.20063507556915283,-0.07975750416517258,-0.06383246928453445,-0.07569658011198044,-0.2901364862918854,-0.020850880071520805,0.11468195170164108,0.07735777646303177,0.17639878392219543,-0.15336839854717255,-0.13481397926807404,0.04776079207658768,-0.12889915704727173,-0.14953970909118652,-0.15344399213790894,-0.08128178864717484,-0.25791075825691223,0.08569315820932388,-0.08821721374988556,0.15686742961406708,-0.08750268816947937,0.09956099838018417,0.046398963779211044,-0.24168197810649872,-0.024473927915096283,-0.11358997970819473,0.09081614017486572,0.21149806678295135,-0.30774974822998047,-0.13786734640598297,-0.13988091051578522,0.03832610696554184,-0.018513452261686325,-0.1392122060060501,-0.11513492465019226,0.35403066873550415,-0.3693517744541168,-0.1682882457971573,-0.00530387694016099,0.11621508002281189,-0.2766333520412445,0.14868219196796417,-0.043671391904354095,2.176338057324756e-06,0.11536916345357895,0.10540097951889038,-0.27846062183380127,-0.12404926121234894,0.1123240739107132,0.2412462830543518,0.28257519006729126,-0.2518790364265442,-0.3701903820037842,0.012525096535682678,0.10256379842758179,0.06179336458444595,0.0965888723731041,0.19355812668800354,0.04525423049926758,0.07167549431324005,0.15257541835308075,0.19979886710643768,-0.047570861876010895,0.16960729658603668,0.13734577596187592,-0.026308495551347733,0.09389674663543701,0.08113015443086624,0.0795886367559433,0.146450936794281,0.08306107670068741,-0.173514261841774,0.18207992613315582,-0.15885955095291138,-0.12294042110443115,-0.10301628708839417,-0.04525697976350784,0.06399761140346527,0.1510401964187622,-0.03335271403193474,-0.04231945052742958,-0.067132867872715,-0.04218551144003868,-0.24150073528289795,0.010005966760218143,0.10065173357725143,0.17140893638134003,0.1054455041885376,0.2255840003490448,-0.17499515414237976,0.21227510273456573,0.03363499417901039,0.011612904258072376,-0.08000697940587997,0.2139245718717575,-0.23457582294940948,0.04130517318844795,-0.007657642476260662,0.08096912503242493,-0.054545607417821884,-0.23214906454086304,-0.16387183964252472,-0.19689017534255981,0.04510524496436119,-0.20951509475708008,-0.004101932980120182,-0.06357282400131226,-0.03753986954689026,-0.010670152492821217,0.156358003616333,0.031722865998744965,-0.24573475122451782,0.003604327794164419,0.14641821384429932,-0.17853017151355743,-0.15993595123291016,-0.03294319659471512,-0.06472931057214737,0.03623882681131363,-0.06207909807562828,-0.17379426956176758,-0.06045714393258095,0.09996218234300613,0.04872441291809082,-0.08710635453462601,0.030158087611198425,0.1123267412185669,-0.006574413739144802,0.16360437870025635,-0.14136043190956116,0.1623205691576004,-0.04427414759993553,-0.149384006857872,0.17635498940944672,-0.20507027208805084,-0.045670997351408005,-0.004805866163223982,0.18313375115394592,-0.07741275429725647,-0.06353677809238434,-0.13510960340499878,0.3050779104232788,-0.19161874055862427,0.09039103984832764,0.1401108354330063,-0.07712072879076004,0.22140754759311676,-0.06997806578874588,0.0989561602473259,0.2334263026714325,-0.15061251819133759,0.049076713621616364,-0.1121806874871254,-0.13830971717834473,-0.12749141454696655,-0.16560399532318115,-0.13933272659778595,0.21600238978862762,0.23588266968727112,-0.2031717747449875,0.04062376171350479,-0.05166610702872276,0.04087688773870468,0.07389239221811295,0.08956185728311539,0.168022021651268,0.010038590058684349,-0.0367429256439209,0.01786799728870392,0.031007368117570877,-0.17426884174346924,0.17677535116672516,-0.13100065290927887,-0.00501710269600153,-0.028480004519224167,0.1541498750448227,0.015431316569447517,-0.16610293090343475,0.007356663700193167,0.10763350129127502,0.1297444850206375,0.18554632365703583,-0.02229948528110981,0.013724996708333492,0.10687421262264252,0.11048290878534317,0.052755728363990784,-0.265354186296463,-0.035411540418863297,0.014931773766875267,0.2158287614583969,-0.042649801820516586,0.04168252646923065,-0.09511557966470718,-0.21420639753341675,0.14954392611980438,0.11587284505367279,-0.11756546050310135,0.05428416654467583,0.15465179085731506,-0.05797230079770088,0.14453594386577606,-0.18203993141651154,-0.1665329933166504,0.2023707777261734,0.04922093078494072,0.12278569489717484,-0.08820030093193054,0.0058072833344340324,-0.23796193301677704,-0.17389442026615143,0.07980803400278091,-0.2275576889514923,0.09329249709844589,-0.032553136348724365,0.06655436754226685,-0.03371168673038483,-0.024672091007232666,0.16456572711467743,0.05096761882305145,0.21917177736759186,0.2693994641304016,-0.19373716413974762,0.10825904458761215,-0.31321677565574646,-0.21985214948654175,-0.09601641446352005,0.20980007946491241,-0.1257496178150177,0.1565580666065216,-0.2577444016933441,-0.0992608293890953,0.23539280891418457,0.2645881474018097,0.014576357789337635,-0.11925018578767776,-0.011658376082777977,-0.015015383251011372,-0.22165843844413757,-0.03392494097352028,0.027721941471099854,-0.13608576357364655,0.1910596340894699,-0.023232582956552505,0.11778697371482849,0.03527790307998657,0.13556906580924988,0.021641816943883896,0.08686378598213196,0.26609668135643005,-0.19806596636772156,0.10588158667087555,-0.11414572596549988,-0.15842990577220917,-0.03656504303216934,0.13783708214759827,-0.002800866262987256,0.1561499536037445,0.08435119688510895,0.010581380687654018,-0.23875994980335236,-0.20286594331264496,-0.1461954414844513,0.045654118061065674,-0.20185580849647522,-0.07208090275526047,-0.06661379337310791,-0.09793375432491302,0.20637010037899017,-0.25588616728782654,0.15301011502742767,-0.08103717118501663,-0.07325877249240875,0.13346564769744873,-0.13697481155395508,0.18821808695793152,0.12614218890666962,-0.25437164306640625,0.2576358914375305,0.12759268283843994,0.0962074026465416,-0.19385500252246857,0.049008145928382874,0.013940750621259212,-0.22772957384586334,0.0070235393941402435,0.09130526334047318,0.14315734803676605,-0.11763273924589157,0.11680001765489578,-0.19198212027549744,-0.08483624458312988,0.013396279886364937,-0.12435519695281982,-0.22261613607406616,-0.061629459261894226,-0.20952211320400238,-0.03972494229674339,0.0053902664221823215,-0.11375528573989868,-0.10003535449504852,0.04503556340932846,-0.05546591058373451,-0.055409111082553864,-0.052787795662879944,0.185873344540596,-0.13520626723766327,0.18203841149806976,-0.22036854922771454,0.012702113017439842,-0.15219563245773315,-0.06401006132364273,-0.10092942416667938,-0.06827931851148605,0.05152764916419983,0.03908947482705116,-0.15682119131088257,-0.06039080396294594,-0.004940379410982132,0.03071022406220436,0.1545167714357376,0.14882399141788483,0.1414949744939804,0.1289074867963791,-0.13058096170425415,-0.13410043716430664,0.04842497780919075,0.02182246744632721,-0.04809360206127167,-0.26510000228881836,-0.059898730367422104,0.12508921325206757,0.08891498297452927,-0.14298340678215027,-0.11920684576034546,-0.1203671246767044,0.10662803053855896,0.17687579989433289,-0.13250494003295898,-0.09246853739023209,-0.12448741495609283,0.11767257004976273,-0.07098410278558731,-0.034318625926971436,0.05509568005800247,0.21799476444721222,-0.09340506047010422,-0.008385511115193367,-0.07123851031064987,-0.029032209888100624,-0.04212120920419693,0.10757530480623245,-0.011187750846147537,0.19124473631381989,-0.13976892828941345,0.1261926293373108,-0.26942551136016846,-0.0926598310470581,-0.16319255530834198,-0.09543202072381973,0.14817464351654053,-0.06662900000810623,0.12365175783634186,0.23243612051010132,-0.09857568144798279,0.07532492280006409,-0.09543857723474503,0.11260544508695602,-0.09079966694116592,0.011162428185343742,-0.09371884167194366,-0.01399829238653183,-0.22342397272586823,-0.18389621376991272,-0.026861287653446198,0.014146651141345501,0.2600572407245636,0.038785651326179504,0.16850270330905914,-0.011498017236590385,-0.12116978317499161,0.13961221277713776,0.03971872851252556,0.09904345124959946,-0.12606480717658997,0.09786342829465866,0.16326017677783966,0.06344965100288391,0.1317773312330246,0.1069144681096077,-0.10610289126634598,0.19653142988681793,-0.0558597594499588,-0.06764969974756241,-0.06836753338575363,-0.23656848073005676,0.07277107983827591,0.20544682443141937,-0.22924377024173737,-0.07814045995473862,-0.1562345325946808,0.12252473086118698,-0.19935327768325806,-0.06194952130317688,0.12015071511268616,0.1228736862540245,-0.10064166784286499,0.1596887856721878,-0.04516323283314705,0.1793958991765976,0.13889482617378235,-0.29519060254096985,-0.19183064997196198,-0.024532880634069443,0.13134296238422394,-0.036908864974975586,0.09205383062362671,0.04231981560587883,0.006254319567233324,-0.20593544840812683,-0.09197306632995605,0.03720255568623543,-0.14009703695774078,0.10432148724794388,0.21547697484493256,-0.12444952875375748,0.13256336748600006,-0.15672799944877625,0.11813749372959137,0.054603688418865204,0.20579221844673157,0.12551037967205048,0.13299764692783356,-0.12684693932533264,-0.16084854304790497,0.22230340540409088,0.011523847468197346,0.0754670649766922,0.009603301994502544,-0.09053812175989151,0.2609049379825592,-0.14966663718223572,0.09758205711841583,-0.01672065630555153,0.07929220050573349,-0.0691901296377182,0.007908429019153118,0.19216619431972504,0.10436797142028809,0.15289083123207092,-0.08540374785661697,-0.19334882497787476,0.053471870720386505,-0.16466593742370605,-0.05645902454853058,-0.11231750249862671,0.0609174482524395,-0.11223435401916504,-0.03374346345663071,0.15892274677753448,0.1894397735595703,0.08016367256641388,-0.023241905495524406,0.06967387348413467,-0.122940793633461,-0.17310017347335815,-0.03604989871382713,0.05524332821369171,-0.01807575486600399,0.1098308339715004,-0.10128553211688995,-0.15941642224788666,0.07821392267942429,-0.11153989285230637,-0.10141424834728241,0.06765668094158173,0.017501456663012505,-0.13063305616378784,-0.12687917053699493,-0.048266880214214325,0.01654505543410778,0.1243668794631958,0.16561469435691833,-0.08726266026496887,0.0970168486237526,0.01577235944569111,-0.1284848302602768,0.1494164615869522,0.008267375640571117,-0.10496185719966888,-0.0496109277009964,-0.023920364677906036,0.16599763929843903,-0.08086913824081421,-0.0627358928322792,0.08014857769012451,-0.07574761658906937,-0.04740579426288605,0.09419488906860352,0.07860586047172546,0.13535480201244354,0.05277358368039131,-0.11637061089277267,0.07948628067970276,-0.17929424345493317,-0.06509418040513992,0.08039747178554535,-0.004781828727573156,0.06277553737163544,0.04212005436420441,0.005871475208550692,0.12693572044372559,0.17150145769119263,-0.1901778280735016,-0.1416322886943817,0.02190054953098297,0.13544361293315887,-0.12234336137771606,0.15563912689685822,-0.26612046360969543,0.023363197222352028,0.05350235849618912,0.006903185974806547,-0.0913253054022789,-0.045752231031656265,0.30715256929397583,-0.033037252724170685,0.11861445754766464,0.1485493779182434,0.11894013732671738,-0.05962532013654709,0.07300802320241928,-0.018057595938444138,0.15861013531684875,0.05879431217908859,0.01595846377313137,0.12971127033233643,0.17232243716716766,0.0002571303048171103,0.19055193662643433,0.04225127026438713,-0.3210909962654114,0.03310799598693848,-0.039763256907463074,0.06819280982017517,-0.041875578463077545,0.13523176312446594,-0.04607471451163292,-0.0544930100440979,0.019090479239821434,0.07134848088026047,0.28269127011299133,-0.07135278731584549,0.07840289175510406,0.1700730174779892,-0.04070907086133957,0.21292318403720856,-0.09306565672159195,0.048834290355443954,0.21956002712249756,-0.24930235743522644,0.19676142930984497,0.21475405991077423,-0.3129570782184601,0.06528282910585403,-0.23947471380233765,0.07849309593439102,0.3533911108970642,-0.14165769517421722,-0.1344945877790451,-0.11565359681844711,-0.07438638061285019,0.047765303403139114,-0.10891728103160858,0.21935811638832092,-0.09263372421264648,0.3203917443752289,0.08855853229761124,-0.3134066164493561,-0.1880858689546585,0.26674187183380127,0.09445694833993912,-0.054583363234996796,0.2649264335632324,0.14392143487930298,0.12304414808750153,-0.23601318895816803,0.08453771471977234,-0.14895032346248627,-0.08146767318248749,0.11052948981523514,0.25227826833724976,0.23100733757019043,-0.06210774555802345,-0.26847293972969055,0.25452494621276855,0.09344705194234848,-0.14072084426879883,0.03488459438085556,-0.07741197943687439,-0.08848806470632553,0.2619782090187073,-0.14735285937786102,-0.2598164975643158,0.05611925944685936,-0.09540758281946182,0.008992301300168037,0.07785413414239883,-0.22766511142253876,0.09988641738891602,-0.1296967715024948,0.25411686301231384,-0.11131598055362701,-0.11386258155107498,-0.008184503763914108,0.09533260762691498,-0.14634230732917786,0.13268326222896576,0.13066299259662628,-0.023476170375943184,-0.032446686178445816,0.4125279188156128,-0.07344987988471985,-0.10399278253316879,-0.1603105068206787,-0.11320868879556656,-0.31339168548583984,0.006804546806961298,-0.00315548456273973,-0.24977627396583557,0.21377535164356232,0.21780094504356384,0.1197090893983841,-0.035576991736888885,-0.04411419481039047,-0.08351952582597733,0.08495298773050308,-0.004991212394088507,0.09033281356096268,0.01601925864815712,0.19252556562423706,-0.05333670228719711,0.0989353284239769,0.06611063331365585,0.16120721399784088,-0.027346868067979813,-0.108127661049366,0.027600685134530067,0.13813872635364532,-0.07406334578990936,-0.1514521986246109,0.17597390711307526,-0.37200045585632324,0.24840719997882843,0.11920304596424103,-0.008043928071856499,0.1751488745212555,0.14839878678321838,-0.04612403362989426,-0.059191878885030746,0.18434996902942657,0.2695808410644531,0.20478057861328125,-0.05820779874920845,-0.021613264456391335,0.05475176125764847,-0.07976780086755753,-0.18162040412425995,0.1890551894903183,-0.12817920744419098,0.1246814951300621,-0.1480734795331955,0.1294311136007309,-0.010946902446448803,-0.050207238644361496,0.2643855810165405,0.0050230128690600395,0.03393096849322319,-0.13056506216526031,0.1701706051826477,0.08426042646169662,0.07089930027723312,-0.30182650685310364,0.07832988351583481,-0.012085196562111378,0.08869605511426926,-0.0726875364780426,-0.07804255932569504,-0.11357744038105011,-0.0642281323671341,-0.2194421887397766,-0.07459051162004471,-0.2004939168691635,-0.10982309281826019,0.13197335600852966,0.04405614361166954,-0.037832096219062805,-0.04682081937789917,0.011279677972197533,0.12489344924688339,0.005593756679445505,-0.18762719631195068,-0.1231914684176445,0.20667855441570282,0.12946553528308868,-0.008749068714678288,0.10387852787971497,0.1291208565235138,-0.2629847228527069,-0.058207105845212936,0.16672764718532562,0.12901242077350616,0.039763424545526505,0.3061864376068115,0.28778311610221863,0.06550785899162292,0.04944035783410072,0.07678800821304321,-0.15542469918727875,0.11592201143503189,0.10122903436422348,-0.28502413630485535,-0.14014674723148346,-0.006989120505750179,-0.079661525785923,0.14380010962486267,0.07925309985876083,0.18486525118350983,-0.21389660239219666,-0.15679705142974854,-0.2052813172340393,-0.04217049852013588,-0.1156540960073471,0.1831694394350052,0.12375294417142868,0.197833850979805,-0.04403303936123848,0.19944028556346893,-0.14909400045871735,0.2593657672405243,0.0051839277148246765,-0.09932944923639297,-0.03605443239212036,-0.04768684133887291,0.05319463461637497,0.16430670022964478,0.13411171734333038,-0.17580661177635193,-0.048617180436849594,0.10920319706201553,-0.09624079614877701,0.07066679745912552,-0.012329841032624245,0.08364357799291611,0.11350782960653305,0.11125625669956207,-0.07210757583379745,0.23939065635204315,0.0033969790674746037,-0.23792465031147003,0.14253449440002441,0.12761500477790833,-0.027527960017323494,-0.11936541646718979,0.002139565534889698,-0.039104871451854706,-0.17502395808696747,-0.0682474821805954,-0.0694214254617691,0.021321889013051987,0.14385443925857544,-0.0850750282406807,-0.26575636863708496,0.0014035707572475076,-0.21272750198841095,0.2234896719455719,0.2194109410047531,0.05420546978712082,-0.21533086895942688,0.15590016543865204,0.052062224596738815,-0.1254531741142273,-0.2098427414894104,0.13721545040607452,0.16142289340496063,0.14433807134628296,-0.17753878235816956,0.06500136852264404,0.06489726155996323,0.13297991454601288,-0.18435917794704437,0.07948968559503555,0.02499752677977085,-0.22395208477973938,-0.15904870629310608,-0.2395303100347519,0.03584617003798485,-0.05076409876346588,0.23099470138549805,0.10479580610990524,-0.03886072337627411,-0.10240014642477036,0.05972791090607643,0.05469154939055443,0.10009082406759262,-0.1140892282128334,-0.09093037247657776,-0.17641480267047882,0.21980682015419006,-0.016111401841044426,-0.014104822650551796,0.043720126152038574,-0.06879899650812149,0.22289197146892548,0.1004166379570961,-0.14204764366149902,0.17885136604309082,-0.10043942183256149,0.204148069024086,0.1161271184682846,0.10638292878866196,-0.03598732501268387,0.12769430875778198,-0.20252779126167297,-0.051104266196489334,-0.03939124569296837,0.10163449496030807,-0.19501353800296783,0.13272057473659515,0.2156868726015091,-0.065228670835495,0.036340754479169846,0.11658474802970886,-0.12424596399068832,0.04789586737751961,-0.06080900877714157,-0.061730753630399704,0.2134382128715515,-0.16287042200565338,-0.21704617142677307,0.20072975754737854,-0.07014808058738708,0.12892022728919983,0.1978694200515747,0.028494644910097122,-0.1452387571334839,-0.006704956293106079,0.19835497438907623,-0.11441085487604141,0.17646069824695587,0.21395915746688843,0.09907544404268265,-0.042665690183639526,-0.2083417922258377,-0.12393804639577866,0.005683042109012604,-0.08873016387224197,0.03199043497443199,-0.2369823008775711,-0.021720636636018753,0.22847197949886322,0.21452602744102478,0.047327205538749695,0.08979301899671555,0.12744204699993134,0.16298456490039825,-0.18047727644443512,0.06484825909137726,-0.216400608420372,0.16477841138839722,0.055556390434503555,0.22641581296920776,-0.11466756463050842,0.09663031995296478,-0.10392976552248001,-0.01713487133383751,-0.21916881203651428,0.12769901752471924,0.1509757936000824,-0.07499931007623672,0.09923367202281952,0.07827592641115189,0.05662991479039192,-0.13633950054645538,-0.12276402860879898,0.15659886598587036,0.10930923372507095,-0.05475056543946266,0.07906065881252289,0.17669793963432312,-0.06119460612535477,-0.026775438338518143,-0.004778746515512466,-0.22641190886497498,0.040033549070358276,-0.33221107721328735,0.18044237792491913,0.1595028191804886,-0.22996343672275543,-0.12725867331027985,-0.25093379616737366,0.19498063623905182,0.24777880311012268,0.08863748610019684,-0.21041473746299744,0.03606975078582764,0.21828310191631317,0.18318088352680206,-0.08335484564304352,-0.12802474200725555,-0.07721007615327835,-0.001413177466019988,0.07298284769058228,0.03883182629942894,0.2608887255191803,-0.08476444333791733,-0.14641521871089935,-0.16194546222686768,0.28323620557785034,-0.0239877849817276,0.13738630712032318,0.0038064606487751007,-0.012501191347837448,0.2711232602596283,-0.07878410816192627,-0.11504203081130981,-0.2692248225212097,-0.05343128740787506,-0.14024154841899872,0.04262244328856468,0.01981508918106556,0.028462858870625496,-0.24970194697380066,0.21321457624435425,-0.10648217052221298,0.2776324450969696,0.20366375148296356,-0.13784882426261902,-0.22642993927001953,0.262264221906662,-0.3010519742965698,-0.04824227839708328,0.13705481588840485,-0.20270998775959015,0.16596044600009918,-0.007734539918601513,-0.005913717206567526,0.16049908101558685,-0.15256981551647186,-0.19654496014118195,-0.21556369960308075,-0.1449907124042511,-0.210734024643898,0.19890326261520386,0.12160845845937729,0.08429232239723206,-0.0955892950296402,-0.044680628925561905,-0.21980197727680206,-0.1308843493461609,0.20532958209514618,-0.09477417916059494,-0.033625777810811996,-0.24436628818511963,-0.27249521017074585,0.11442110687494278,0.1438567042350769,0.25337857007980347,0.22333623468875885,0.13270118832588196,-0.2209824174642563,0.18511539697647095,-0.046362847089767456,-0.20511622726917267,-0.23590151965618134,0.11447259783744812,-0.286796510219574,-0.2743701636791229,0.006964300759136677,-0.10539187490940094,0.001260339398868382,0.053998030722141266,0.14963313937187195,0.10191227495670319,-0.15706978738307953,-0.1265554279088974,-0.07488363236188889,-0.054929427802562714,0.0663272887468338,0.14381293952465057,-0.2211640179157257,0.0024502361193299294,0.21596860885620117,-0.18392899632453918,-0.1115904301404953,-0.07028760761022568,0.07525854557752609,-0.31524819135665894,0.19599409401416779,-0.03873317316174507,-0.14825539290905,0.2089291661977768,0.07775899767875671,0.19114650785923004,0.017304562032222748,0.11800282448530197,0.09910071641206741,0.16893647611141205,-0.14137567579746246,-0.005598187912255526,-0.07239020615816116,0.11392281949520111,-0.21513785421848297,-0.11421786993741989,-0.17097243666648865,-0.20877204835414886,-0.39697951078414917,0.20197440683841705,-0.1173713281750679,0.37853506207466125,-0.2609899044036865,-0.28333091735839844,-0.2366776168346405,0.1291389912366867,0.04775574058294296,0.09339475631713867,-0.18647518754005432,-0.09710012376308441,-0.30012980103492737,-0.4484059512615204,0.15133167803287506,0.11243688315153122,-0.341350793838501,-0.04021302983164787,0.053159456700086594,-0.17193850874900818,-0.03774616867303848,0.03581061586737633,0.015294527634978294,0.06640423089265823,0.23301440477371216,0.10306256264448166,-0.31908413767814636,0.11244997382164001,0.1655421257019043,-0.014812136068940163,0.16946423053741455,-0.2908038794994354,0.30959179997444153,0.07844951748847961,0.09332424402236938,0.3075123727321625,0.3221360445022583,-0.1724410355091095,0.3084011971950531,-0.15452620387077332,0.3970491588115692,-0.02575262449681759,0.23170875012874603,0.019578605890274048,0.23928527534008026,-0.11086565256118774,-0.08407638221979141,-0.26370105147361755,0.05930594354867935,-0.27034199237823486,-0.15335239470005035,0.2522791624069214,0.04183689504861832,-0.028211146593093872,0.26477736234664917,0.23559921979904175,-0.18679378926753998,0.12534594535827637,-0.25967344641685486,-0.18352843821048737,-0.09600017964839935,-0.025545634329319,0.08914276212453842,0.015917308628559113,-0.23144647479057312,0.12667995691299438,-0.07487799972295761,0.023136526346206665,-0.24492615461349487,0.2222011238336563,0.262696236371994,0.16660889983177185,0.22632238268852234,0.09311162680387497,0.11736948043107986,-0.23419296741485596,0.07493330538272858,0.30746009945869446,0.12634631991386414,0.15896165370941162,0.03054092451930046,-0.016527121886610985,-0.40089890360832214,-0.10187231749296188,-0.12014169245958328,0.06215802952647209,-0.003865539561957121,-0.2909490168094635,0.08006076514720917,-0.28641942143440247,0.23233480751514435,0.051887501031160355,-0.1297183334827423,0.21958480775356293,0.13710257411003113,0.10486753284931183,0.3670331537723541,0.2759987711906433,0.04446742683649063,-0.21020548045635223,0.2509337067604065,0.3031006455421448,0.06312328577041626,0.31596097350120544,0.10727022588253021,-0.1298985630273819,-0.31251704692840576,-0.08094919472932816,-0.22911982238292694,0.2549050450325012,0.1909041702747345,-0.1625879853963852,-0.2199801653623581,0.06203347072005272,-0.2343943864107132,-0.31463244557380676,0.11812418699264526,0.1361769288778305,0.16206735372543335,0.25497132539749146,-0.10790026932954788,-0.11532150208950043,-0.25632745027542114,-0.1106749027967453,-0.0882447361946106,0.107294462621212,-0.17893484234809875,0.11256058514118195,-0.13517454266548157,0.17285260558128357,-0.036179687827825546,-0.11110363900661469,-0.007664165459573269,0.22214439511299133,0.050187379121780396,-0.11517201364040375,0.2073751986026764,0.16151124238967896,0.2413386106491089,-0.22587351500988007,-0.01224497426301241,0.16540974378585815,0.0008584482711739838,0.14081481099128723,-0.0905127301812172,-0.0807424932718277,0.0037424887996166945,0.15168440341949463,-0.20221705734729767,0.23587609827518463,0.10206537693738937,-0.10603158175945282,-0.042732227593660355,-0.0738300010561943,-0.0012258191127330065,0.2327658087015152,-0.04439651966094971,0.2137569636106491,0.13684886693954468,0.1257501244544983,0.0624992810189724,0.024961041286587715,0.150666743516922,-0.24808047711849213,0.04542957991361618,-0.13669322431087494,0.1466795951128006,0.29393428564071655,0.14988473057746887,0.18402761220932007,0.10315100103616714,-0.20912325382232666,-0.14244355261325836,0.04650874435901642,-0.13167938590049744,-0.10699673742055893,0.08599293231964111,0.07282160222530365,-0.10172383487224579,-0.1933525651693344,-0.04415876790881157,-0.06883940100669861,-0.039214618504047394,0.22477614879608154,0.06209263950586319,0.2481195330619812,0.1344558745622635,0.07553175091743469,-0.24017678201198578,-0.2205575704574585,0.09765565395355225,-0.20295733213424683,0.10931247472763062,-0.12300610542297363,0.18280689418315887,-0.07956287264823914,0.13998757302761078,0.06569083034992218,-0.20810304582118988,0.10756487399339676,-0.16026216745376587,0.23081623017787933,0.07835903763771057,-0.019634103402495384,-0.1853785365819931,0.05693883076310158,-0.23174028098583221,0.17892047762870789,0.021618662402033806,0.09541621059179306,-0.03748023882508278,-0.11052202433347702,-0.1571105271577835,-0.23932981491088867,0.11563509702682495,-0.19677063822746277,0.14061179757118225,-0.22680670022964478,0.042846933007240295,-0.007676892448216677,0.19414687156677246,-0.07811354845762253,-0.05005907639861107,-0.09041181206703186,-0.05427435040473938,-0.1456572264432907,0.03294451907277107,0.27570098638534546,0.045466527342796326,-0.13789163529872894,0.14063109457492828,0.05654884874820709,0.2911590039730072,-0.020998070016503334,-0.005261674989014864,0.15568536520004272,0.011657912284135818,-0.10914340615272522,0.21700811386108398,0.1416519582271576,0.18572917580604553,0.2770879566669464,-0.2841901481151581,0.293794721364975,-0.1284482330083847,0.10555778443813324,-0.053279150277376175,-0.05225352197885513,-0.0813964307308197,0.19277529418468475,0.05682316794991493,0.3324865698814392,0.17752820253372192,0.22783775627613068,-0.16644316911697388,-0.06520742923021317,0.08690959960222244,-0.13510701060295105,-0.06316683441400528,-0.3608337938785553,0.1368769258260727,-0.21961385011672974,-0.12951989471912384,-0.08342857658863068,-0.12939907610416412,0.0014232211979106069,0.16612638533115387,0.15093408524990082,-0.017890749499201775,0.2501154839992523,-0.38991421461105347,-0.1772604137659073,-0.18803270161151886,0.07163142412900925,0.2818065881729126,0.27315351366996765,0.15907612442970276,-0.1493818610906601,-0.22797748446464539,0.1232520043849945,0.12130515277385712,-0.2612725496292114,-0.2761199474334717,0.3406778573989868,0.09917151927947998,-0.32420915365219116,0.09329638630151749,0.15174265205860138,-0.216109037399292,-0.10555471479892731,0.08062349259853363,0.29701608419418335,-0.23377792537212372,-0.1509937196969986,0.32155945897102356,0.10515743494033813,0.30982133746147156,-0.17234624922275543,0.003846630919724703,-0.24622809886932373,0.17929063737392426,-0.11159466207027435,-0.01329470332711935,0.219246968626976,-0.308993399143219,-0.11497503519058228,-0.035028282552957535,0.14209087193012238,0.24789509177207947,0.3546038568019867,-0.1673155426979065,0.11515684425830841,0.2589167654514313,-0.2578551769256592,-0.2868993878364563,-0.3238784074783325,0.25377294421195984,0.1366971880197525,-0.33493176102638245,-0.031260550022125244,0.29845139384269714,0.26597416400909424,0.13868868350982666,0.2532431483268738,-0.10112208127975464,-0.2309918850660324,0.11042201519012451,-0.37114155292510986,-0.45395034551620483,-0.24430696666240692,0.07350228726863861,0.12405005842447281,0.10480227321386337,-0.09348510950803757,-0.10360563546419144,-0.1346547156572342,-0.21017460525035858,0.017524678260087967,-0.2032337784767151,0.037561871111392975,-0.17970190942287445,0.29607510566711426,0.07458828389644623,0.22507399320602417,-0.20237721502780914,0.13887421786785126,0.23768074810504913,-0.12641336023807526,0.20926004648208618,-0.16240587830543518,0.11706411093473434,-0.38660261034965515,0.15499715507030487,0.3274722397327423,-0.1126636266708374,-0.12218419462442398,0.11454817652702332,0.17945684492588043,0.05983283743262291,-0.1717175990343094,-0.05470162630081177,0.22318169474601746,-0.21646130084991455,-0.05751882493495941,-0.19146522879600525,0.2680354416370392,0.2760277986526489,0.19291096925735474,-0.15351630747318268,-0.05502912774682045,0.12853200733661652,0.15604670345783234,-0.05504247918725014,-0.03128724545240402,0.15679879486560822,0.17069633305072784,0.1390928328037262,-0.21106548607349396,-0.2577303349971771,-0.2366148829460144,-0.13565760850906372,0.07879305630922318,-0.06285295635461807,-0.09614070504903793,-0.14696133136749268,0.11871244013309479,-0.06514092534780502,-0.05157610401511192,0.05637593939900398,0.2218659371137619,0.09221123158931732,0.09417256712913513,-0.1120063066482544,0.03843776136636734,-0.1777428537607193,0.04892119765281677,0.14358966052532196,0.0428338460624218,0.11143932491540909,0.12893718481063843,0.19150756299495697,-0.24142640829086304,0.00437877606600523,0.02154688909649849,0.14305724203586578,0.13536781072616577,0.015290983952581882,0.08351954072713852,0.214256152510643,-0.007241029292345047,-0.10951155424118042,-0.11687273532152176,0.13450168073177338,-0.008566256612539291,-0.03003680519759655,-0.1161540299654007,0.27177688479423523,-0.24610385298728943,-0.04205363243818283,-0.1362917721271515,0.0779532641172409,0.2348012775182724,0.01216151937842369,0.20963037014007568,0.16614899039268494,-0.03962527960538864,-0.08227415382862091,0.10810033977031708,-0.043557729572057724,-0.20431052148342133,-0.18925544619560242,-0.16005738079547882,-0.08157365769147873,0.25178956985473633,-0.12944966554641724,-0.02180824801325798,0.1557343453168869,0.14920315146446228,-0.02188481204211712,0.14974752068519592,0.17363685369491577,0.023768456652760506,-0.19524821639060974,0.11411330103874207,-0.02232644334435463,0.18970730900764465,-0.2319425642490387,0.029360387474298477,-0.18860942125320435,0.2352912873029709,0.09960474818944931,-0.12320481985807419,0.23484554886817932,0.045421890914440155,0.015694383531808853,0.14152875542640686,0.0011265237117186189,-0.03292527422308922,-0.20806539058685303,-0.1389787346124649,0.10371151566505432,0.16040118038654327,-0.11468987911939621,0.06504341959953308,0.08082375675439835,-0.1191968023777008,0.05405532568693161,-0.08015870302915573,-0.09487443417310715,0.16219106316566467,-0.08527518808841705,0.2414311319589615,-0.05158311873674393,0.07747858017683029,0.049440737813711166,0.27975359559059143,-0.14853405952453613,-0.04822907596826553,0.0697469487786293,-0.07465445250272751,0.2965143024921417,-0.025969764217734337,0.13842980563640594,0.19391098618507385,-0.03933294489979744,0.25512832403182983,0.27889397740364075,0.02646595425903797,-0.05016850307583809,0.21675175428390503,-0.008742929436266422,0.06043870747089386,-0.013945571146905422,-0.06619559973478317,-0.23056595027446747,0.26337629556655884,-0.17844559252262115,-0.09206388145685196,0.20276716351509094,-0.24137821793556213,0.2663114070892334,0.10508515685796738,0.1683850884437561,-0.1979033201932907,-0.08738501369953156,0.1727706640958786,0.08191236853599548,0.08328266441822052,0.18432331085205078,0.20024578273296356,0.24031981825828552,0.11954240500926971,-0.0015062761958688498,0.3093411326408386,-0.30968213081359863,-0.1396801769733429,0.2485271841287613,0.05734187364578247,0.07408225536346436,0.11456938087940216,0.19170232117176056,0.14259862899780273,0.17347875237464905,0.25505331158638,0.07279877364635468,0.05284528061747551,0.08795782178640366,0.15136562287807465,0.23644062876701355,-0.19382524490356445,0.3085935413837433,0.2579258978366852,-0.03202435374259949,-0.14299537241458893,0.0409466028213501,-0.04697669669985771,-0.20910143852233887,0.014258889481425285,0.09098058938980103,-0.13478635251522064,-0.08249461650848389,-0.018649403005838394,-0.17679020762443542,-0.01664065755903721,0.023116271942853928,-0.05253348499536514,-0.05340218544006348,0.01324040349572897,-0.3048696517944336,-0.14887848496437073,-0.06688810884952545,-0.2869771122932434,-0.07631839066743851,-0.14035697281360626,-0.2670489251613617,0.25004681944847107,0.013166354969143867,0.11859628558158875,0.1142825111746788,0.026931092143058777,0.03430192172527313,-0.12784714996814728,-0.3455955684185028,-0.11243000626564026,-0.045528799295425415,0.11066582798957825,0.14488370716571808,-0.11483124643564224,-0.062297552824020386,-0.002189663704484701,0.22994357347488403,0.002017260529100895,0.013558808714151382,-0.25964269042015076,0.2121305912733078,0.14641165733337402,0.08456262201070786,-0.15181398391723633,0.14397761225700378,0.018601344898343086,-0.16541516780853271,-0.3217652440071106,0.024069426581263542,0.1516171246767044,-0.22152581810951233,-0.2614530026912689,0.04484635964035988,0.024492746219038963,0.0901397317647934,0.2324284464120865,0.2642152011394501,0.04387073591351509,0.16960446536540985,-0.07959848642349243,-0.2430676966905594,0.06467802822589874,0.30882275104522705,0.08806226402521133,0.10653648525476456,0.18598978221416473,0.15242473781108856,-0.09342555701732635,-0.039314497262239456,0.1666962206363678,0.16229000687599182,0.007152745965868235,0.1886453777551651,-0.06472235918045044,-0.12736813724040985,0.06936497986316681,0.09086725115776062,-0.11686530709266663,0.012836809270083904,0.17610351741313934,0.10924073308706284,-0.09680637717247009,0.03997061029076576,-0.09907237440347672,0.20887383818626404,0.15259170532226562,-0.027601607143878937,-0.006174991838634014,0.08406789600849152,0.05852217227220535,-0.050661757588386536,-0.13290731608867645,-0.1794586181640625,-0.21036513149738312,0.017096906900405884,-0.2584892511367798,-0.055920910090208054,-0.3280656635761261,0.0272243432700634,-0.04759596288204193,0.152773916721344,-0.23306629061698914,0.00718133058398962,-0.025116287171840668,0.10300006717443466,0.18740786612033844,0.05276300758123398,0.17626942694187164,0.011962980963289738,0.1533747911453247,0.19215728342533112,0.2258317768573761,-0.061246342957019806,-0.20220744609832764,-0.1612928956747055,-0.11211805790662766,-0.08641868084669113,0.1968764066696167,-0.011517060920596123,-0.20943698287010193,-0.11176449060440063,0.07783667743206024,0.08073055744171143,0.1502935141324997,0.020484263077378273,-0.10635340958833694,0.12195172905921936,-0.12830013036727905,0.0850306823849678,-0.07135887444019318,0.263705849647522,0.033167798072099686,-0.1181885153055191,0.12443917989730835,0.19760121405124664,-0.006195817608386278,0.18117134273052216,-0.16770750284194946,-0.13879577815532684,-0.16208970546722412,-0.06670746207237244,-0.06175581365823746,-0.17467927932739258,-0.08645017445087433,0.12791967391967773,-0.12731972336769104,0.027956243604421616,0.06256169825792313,-0.06161029636859894,0.07515137642621994,0.10340581834316254,-0.06261520832777023,-0.12305618822574615,-0.13489888608455658,-0.0908319354057312,-0.12074575573205948,-0.009172303602099419,0.08327299356460571,0.1099821925163269,-0.031006574630737305,-0.12980172038078308,-0.12912344932556152,-0.0618850439786911,-0.23173393309116364,-0.22884172201156616,-0.16539938747882843,0.1865551769733429,-0.14602608978748322,-0.15125440061092377,-0.13792632520198822,0.058498308062553406,-0.12786893546581268,-0.06553511321544647,-0.005537974648177624,0.1041317731142044,-0.04459455609321594,0.06156391650438309,-0.13401111960411072,-0.043434083461761475,-0.0022097849287092686,0.1803933084011078,0.1506139189004898,0.1777118742465973,-0.14870688319206238,0.18848726153373718,0.09713573008775711,-0.005933562759310007,0.11900217086076736,-0.08637407422065735,0.19204726815223694,0.18402205407619476,-0.021985365077853203,0.05201740190386772,0.03967519849538803,0.10202325135469437,-0.08660796284675598,-0.09025344997644424,0.2716033160686493,0.11046402901411057,-0.09943175315856934,-0.019498728215694427,-0.07812392711639404,0.20744557678699493,-0.14415712654590607,-0.10965757817029953,0.038495466113090515,0.049109041690826416,-0.12987898290157318,0.1324268877506256,0.22116823494434357,0.21206533908843994,0.1923326849937439,0.1503748893737793,-0.22578921914100647,-0.12261754274368286,-0.07832455635070801,0.03764968365430832,-0.05919506400823593,-0.165909543633461,0.24334914982318878,-0.10785114765167236,-0.0215164702385664,-0.1350557655096054,0.15933553874492645,-0.28053727746009827,0.1320600062608719,-0.0022034510038793087,-0.1297847330570221,0.021449781954288483,0.08775237202644348,0.11098799854516983,-0.0292747151106596,0.16874216496944427,0.048689547926187515,0.0790867879986763,-0.01184423640370369,0.18107205629348755,-0.025889519602060318,-0.09989230334758759,-0.010501398704946041,-0.05353603512048721,-0.09107766300439835,-0.1641375869512558,-0.1656527817249298,0.07848779857158661,-0.03727364167571068,-0.030936971306800842,-0.12116196751594543,0.09904100745916367,-0.03129906579852104,0.0006760004907846451,-0.023950304836034775,0.0071316189132630825,-0.15054422616958618,0.03418853133916855,0.041635069996118546,-0.10665243119001389,-0.10420122742652893,0.2084067314863205,-0.028759926557540894,-0.03916006535291672,-0.029947802424430847,-0.011288782581686974,0.1778959482908249,0.12410575896501541,0.026405464857816696,0.03807055577635765,-0.16703034937381744,0.18606175482273102,-0.21957728266716003,-0.13448727130889893,-0.04966534301638603,-0.0018828316824510694,0.03892798349261284,-0.07887699455022812,0.04877646639943123,-0.032633423805236816,-0.21319471299648285,-0.004942560568451881,-0.2324877679347992,-0.07210974395275116,-0.1540147364139557,0.26957130432128906,-0.06235371530056,0.025296753272414207,0.07090050727128983,0.021341906860470772,0.12584589421749115,0.13061091303825378,0.0004408035892993212,-0.03514598309993744,0.06588470190763474,0.1202503964304924,-0.22368638217449188,0.036939725279808044,0.2286185920238495,-0.09182711690664291,0.15207020938396454,-0.22461864352226257,-0.1977727711200714,-0.20638860762119293,-0.07026872783899307,-0.09042903780937195,0.09673517942428589,-0.024013862013816833,-0.048615917563438416,0.2110261470079422,-0.2901071608066559,-0.01868615858256817,0.05000772699713707,0.19772210717201233,-0.16395072638988495,-0.04172948747873306,0.15721334517002106,-0.18907254934310913,-0.19349144399166107,0.20387448370456696,0.03414085879921913,-0.21670512855052948,0.18101735413074493,0.03456427529454231,-0.28559190034866333,0.2281147688627243,-0.31811726093292236,0.08850885927677155,0.07610420882701874,0.182821124792099,-0.006155357230454683,-0.2714356780052185,0.30238601565361023,-0.2388201802968979,-0.1259516477584839,0.21495920419692993,-0.019265180453658104,-0.059030931442976,-0.1714024692773819,-0.03175520896911621,-0.1397472470998764,0.14072947204113007,-0.14669041335582733,0.26138827204704285,-0.05565297231078148,-0.16812658309936523,-0.1981019377708435,-0.08199503272771835,-0.03191321715712547,0.08637964725494385,0.22502294182777405,-0.11036024987697601,0.28277742862701416,0.0520898811519146,0.20728503167629242,0.26391372084617615,-0.14527444541454315,-0.050156429409980774,-0.1998540312051773,0.11575043201446533,0.014157732017338276,-0.06456948816776276,0.003367227502167225,0.26951977610588074,-0.13314320147037506,-0.2797608971595764,-0.1701842099428177,-0.23311127722263336,-0.1988438218832016,0.17543452978134155,0.06583904474973679,0.0694076418876648,-0.019098563119769096,-0.04610506817698479,0.2133183479309082,-0.14243784546852112,-0.009892440401017666,0.12842009961605072,-0.12326203286647797,0.20404087007045746,0.26942339539527893,0.19143293797969818,0.2860109210014343,-0.3056402802467346,0.2984495759010315,0.17085154354572296,-0.21996527910232544,0.2538626790046692,-0.17793245613574982,-0.1589781641960144,-0.08247911185026169,0.13385897874832153,-0.11930359154939651,-0.12465530633926392,0.06995746493339539,0.11689476668834686,0.2192276567220688,-0.22079156339168549,0.1549827605485916,0.15287449955940247,-0.05528920516371727,0.20962324738502502,0.021878549829125404,-0.16932451725006104,-0.09302855283021927,-0.09131284058094025,0.19896724820137024,-0.24980546534061432,-0.21569468080997467,0.08901110291481018,-0.0035591379273682833,0.00024137778382282704,-0.16108481585979462,-0.04087185114622116,-0.0108210863545537,0.17135198414325714,-0.15449076890945435,-0.2280421108007431,-0.19092383980751038,0.13422110676765442,0.11915071308612823,0.11725008487701416,0.05364837124943733,-0.11621646583080292,-0.09757590293884277,0.07284018397331238,0.16132675111293793,-0.23784436285495758,-0.04084309935569763,-0.1436764895915985,-0.03456808254122734,0.260259211063385,0.003838357049971819,0.06430584192276001,-0.19585518538951874,0.0875222384929657,-0.22368091344833374,0.21996507048606873,-0.16824330389499664,-0.2085150182247162,-0.02481222338974476,0.08708253502845764,0.014210956171154976,0.10802106559276581,0.04273023083806038,0.12608158588409424,0.12971089780330658,0.027709901332855225,0.06396713107824326,0.03057653084397316,0.020861541852355003,-0.06999851018190384,-0.35109883546829224,-0.024569686502218246,-0.09004969894886017,-0.0899660661816597,0.1976868063211441,-0.006130671128630638,-0.016332676634192467,-0.045426905155181885,-0.2199702262878418,0.05363103374838829,-0.18278929591178894,0.07553886622190475,0.05745389312505722,-0.12963992357254028,-0.23827888071537018,0.02002035453915596,-0.08581800758838654,0.184500053524971,0.19074144959449768,-0.08212978392839432,0.17985780537128448,-0.14689235389232635,0.12842842936515808,0.1358906328678131,0.15375465154647827,-0.2665846645832062,0.17927683889865875,-0.03355472534894943,-0.08621709793806076,0.21510916948318481,0.09889108687639236,0.04563676565885544,0.14512906968593597,-0.1650150865316391,-0.2592966556549072,0.06609655916690826,-0.04615236073732376,-0.09447398781776428,-0.016889138147234917,0.1986379474401474,0.10732610523700714,0.044385332614183426,0.10575008392333984,0.04209904000163078,-0.15913301706314087,-0.2547978460788727,0.20322687923908234,-0.012839820235967636,0.19328291714191437,-0.05556003749370575,-0.170683816075325,0.014641880057752132,0.15014733374118805,0.05782095342874527,0.051027074456214905,0.07394260913133621,-0.018985366448760033,-0.0727449581027031,-0.026669887825846672,0.13200847804546356,-0.025714216753840446,-0.05302419513463974,0.20778343081474304,0.04818591848015785,-0.06601137667894363,-0.11987661570310593,0.15329964458942413,0.13288165628910065,0.11064766347408295,-0.0911312997341156,0.009685547091066837,-0.051828134804964066,-0.006780616473406553,0.09118761867284775,-0.01063320692628622,0.13850218057632446,-0.06536353379487991,-0.20771650969982147,0.0613948293030262,0.21724435687065125,-0.20469510555267334,-0.2146931290626526,-0.03467722609639168,0.18907269835472107,0.054810065776109695,-0.04377085715532303,0.1775662899017334,0.2119835764169693,-0.05950101464986801,-0.045956723392009735,0.13668766617774963,0.09553242474794388,-0.07038219273090363,0.10773666948080063,0.1447758972644806,0.14532116055488586,0.20501112937927246,0.1027330681681633,-0.0028862671460956335,0.01799106039106846,-0.14137990772724152,-0.05555038899183273,-0.1512306034564972,-0.2625841200351715,0.011833306401968002,0.0854351818561554,-0.2727808654308319,-0.16035056114196777,0.18012988567352295,0.2572620213031769,-0.017748979851603508,0.12926308810710907,-0.010051778517663479,-0.04968653991818428,0.17264078557491302,-0.18653686344623566,0.07936538010835648,0.3005838394165039,0.00705758947879076,0.24119366705417633,0.0906798392534256,0.019210897386074066,0.18558837473392487,-0.05593864992260933,0.05218738690018654,0.02010607346892357,-0.12438517063856125,-0.10771359503269196,0.12312716245651245,0.20008216798305511,0.055190254002809525,0.13423781096935272,-0.07204078882932663,-0.08461183309555054,-0.015585009939968586,0.05173051729798317,0.008556453511118889,0.1150858923792839,0.14175857603549957,-0.16390562057495117,0.22905898094177246,0.11819656193256378,0.11992529034614563,-0.04658188298344612,-0.061131276190280914,-0.023639505729079247,0.18474696576595306,0.20708805322647095,0.035237908363342285,0.20207971334457397,-0.019957756623625755,0.1960921734571457,-0.03251556307077408,0.06780654191970825,0.097548708319664,0.18755801022052765,0.2711135447025299,-0.09465843439102173,-0.09391539543867111,-0.15092499554157257,0.10260773450136185,0.24685680866241455,0.08713166415691376,0.04660216346383095,0.04309730604290962,0.03953980281949043,-0.13996215164661407,0.2156742960214615,-0.09637401252985,0.16356299817562103,0.05102641507983208,-0.06895779073238373,0.026891129091382027,-0.10986769199371338,0.16702987253665924,-0.08488810062408447,0.11619671434164047,-0.030704878270626068,0.0838361382484436,-0.036542609333992004,0.04240124672651291,0.05402202904224396,0.22889208793640137,-0.11328677088022232,0.12884555757045746,0.25676441192626953,-0.015359648503363132,0.012682001106441021,-0.01710164174437523,-0.22482621669769287,0.18684524297714233,-0.093635194003582,0.0615898072719574,-0.01609054207801819,-0.07042928785085678,0.13922874629497528,-0.05606717988848686,0.05317742004990578,-0.15541617572307587,0.1415112316608429,0.08609659224748611,0.08391690999269485,0.21346808969974518,0.022585462778806686,0.0792202278971672,0.056016791611909866,0.02968180552124977,-0.058586474508047104,-0.14227792620658875,0.16506902873516083,-0.0669655129313469,0.17480115592479706,0.14111900329589844,0.11448825895786285,0.1776685267686844,-0.07907538115978241,-0.07260430604219437,-0.0855383351445198,-0.2267022579908371,-0.11467061191797256,0.16694214940071106,0.04203887656331062,0.012842913158237934,0.06190337613224983,0.003610787680372596,0.096477210521698,-0.1081264466047287,0.03939005732536316,0.003151217708364129,0.015980413183569908,0.06967595964670181,-0.22468894720077515,0.2120068073272705,0.017827101051807404,0.1387367695569992,0.21009327471256256,-0.21616774797439575,0.11167469620704651,-0.06905311346054077,0.17048297822475433,-0.21388505399227142,0.11472311615943909,0.2104717642068863,0.11881526559591293,0.23857250809669495,-0.23841635882854462,-0.18394924700260162,-0.11762774735689163,0.15670131146907806,-0.03995530679821968,-0.18486568331718445,-0.1327221691608429,-0.14369161427021027,0.14263635873794556,-0.25966987013816833,0.21039384603500366,-0.09725436568260193,0.17461591958999634,0.03050532564520836,-0.09983749687671661,-0.19412079453468323,-0.06559570133686066,0.05271707475185394,0.17889158427715302,0.11250568926334381,-0.22635683417320251,0.10765392333269119,0.020795460790395737,0.008454577066004276,-0.16715408861637115,-0.022262681275606155,-0.040105532854795456,0.22109869122505188,0.03974424675107002,-0.02658655121922493,-0.01387053169310093,-0.09690432250499725,0.19846713542938232,0.1986808180809021,0.11141008138656616,-0.014803305268287659,0.10741686820983887,-0.22959953546524048,0.24256399273872375,-0.17441926896572113,0.10852807760238647,-0.03335348144173622,0.23198506236076355,0.28900936245918274,-0.17930161952972412,-0.19836676120758057,0.07397273182868958,-0.2269810289144516,0.15111976861953735,-0.011583751067519188,0.057383693754673004,0.22501245141029358,0.12963129580020905,-0.2578221261501312,0.21132461726665497,-0.028169799596071243,-0.150521919131279,0.011434944346547127,0.006200239062309265,-0.04395047947764397,-0.10370057076215744,-0.016629451885819435,-0.1534550040960312,-0.18117734789848328,0.028667928650975227,-0.020835619419813156,0.14712227880954742,-0.22142839431762695,0.22968511283397675,-0.1888457089662552,-0.11512560397386551,-0.13742931187152863,0.2083766907453537,0.13821452856063843,-0.16392607986927032,-0.023176120594143867,0.11345861852169037,-0.1893342137336731,-0.02766272984445095,0.027555759996175766,-0.24109897017478943,0.061552152037620544,0.09555579721927643,0.03498627245426178,-0.24183723330497742,-0.16775710880756378,-0.1828833371400833,-0.0939798429608345,0.12116843461990356,-0.15732111036777496,-0.16996458172798157,0.09359671175479889,0.14498752355575562,-0.22243307530879974,0.037058502435684204,-0.16635291278362274,-0.09299788624048233,-0.16102299094200134,0.2692461609840393,-0.06986545026302338,0.07075352966785431,-0.04703167453408241,-0.21048112213611603,0.1723024547100067,0.17462220788002014,0.02293786033987999,0.03693472966551781,0.09547251462936401,0.0005050324834883213,-0.15382958948612213,0.2371010184288025,0.02140456810593605,0.001429051044397056,-0.16966791450977325,0.10720012336969376,-0.088578000664711,0.20632117986679077,0.07159815728664398,0.11682494729757309,-0.21169805526733398,0.11126042902469635,-0.11884824186563492,0.15546637773513794,-0.04278312250971794,-0.13404913246631622,-0.010790321044623852,0.08467289805412292,0.18307235836982727,-0.08318854868412018,0.22666341066360474,0.07662179321050644,0.04069557785987854,-0.13267576694488525,-0.1800743192434311,0.21298110485076904,-0.054673247039318085,0.19634246826171875,-0.20944145321846008,-0.10664583742618561,-0.11859411746263504,0.23488382995128632,-0.15468406677246094,-0.2710631787776947,0.04685346037149429,-0.0491313599050045,-0.20534585416316986,0.07224715501070023,-0.15243181586265564,-0.09029075503349304,0.053670480847358704,0.16768798232078552,0.0887860655784607,-0.03826845809817314,0.16687867045402527,-0.14966194331645966,-0.08409187942743301,-0.05810067802667618,-0.05619162693619728,0.016697468236088753,-0.1044664978981018,-0.15042899549007416,-0.2461416870355606,0.09345605969429016,0.05160537734627724,0.11094238609075546,0.13313814997673035,0.006451273337006569,-0.07758115977048874,0.0626680925488472,-0.034537602216005325,0.05090554058551788,0.0274606104940176,-0.26805579662323,-0.11816295981407166,0.07841718196868896,0.20121276378631592,-0.036742351949214935,-0.17462609708309174,0.13356317579746246,0.12093772739171982,-0.09672979265451431,-0.07710446417331696,-0.18923711776733398,0.164094477891922,0.14545437693595886,0.01877960003912449,0.035756953060626984,-0.19983623921871185,-0.05949796363711357,-0.16344667971134186,0.04361293837428093,0.18742641806602478,0.025604117661714554,-0.13976244628429413,-0.00412916112691164,0.04146895930171013,-0.08300362527370453,-0.08760422468185425,0.1533985733985901,0.08411704748868942,-0.15090808272361755,0.20449313521385193,0.0878479927778244,-0.07006607949733734,0.09504434466362,0.10501027852296829,0.04108497500419617,-0.197596937417984,-0.11648453772068024,0.16325227916240692,-0.16521459817886353,-0.1023014709353447,0.10202307254076004,-0.11636728048324585,-0.22467344999313354,-0.07908451557159424,0.23047272861003876,-0.1914098709821701,-0.10730621963739395,0.05001484602689743,-0.20528316497802734,0.07441511005163193,0.0850953459739685,-0.0810147374868393,-0.1432565599679947,0.13096830248832703,-0.300730437040329,-0.22676506638526917,-0.11543025076389313,-0.14200516045093536,-0.14078162610530853,0.21809004247188568,0.13152764737606049,0.1486404985189438,0.13855181634426117,-0.02584320306777954,-0.013422684744000435,-0.13043925166130066,0.11360051482915878,-0.14528100192546844,-0.19816172122955322,-0.05776829272508621,-0.01036021113395691,-0.043916817754507065,0.10040479898452759,0.08899631351232529,-0.28171953558921814,-0.11953077465295792,0.05231346935033798,-0.1943621188402176,0.09135795384645462,-0.09346775710582733,-0.08769264817237854,-0.07441394776105881,-0.1357550472021103,0.06303531676530838,0.057233698666095734,0.007776844315230846,-0.08426343649625778,0.1892472505569458,0.08784493058919907,-0.0011893929913640022,0.0013700071722269058,-0.24236977100372314,-0.18151123821735382,-0.22558915615081787,0.07645286619663239,-0.02278849482536316,-0.22988569736480713,-0.0577327199280262,-0.06673303246498108,-0.16857033967971802,0.20087416470050812,-0.08051599562168121,-0.12266457825899124,-0.16880805790424347,0.05080769583582878,-0.20005545020103455,0.12574197351932526,-0.06128832325339317,-0.10169310867786407,0.21516640484333038,0.07987494766712189,-0.03314841911196709,0.04518354311585426,-0.11707115173339844,0.05888871103525162,0.08275694400072098,-0.15704764425754547,0.10348321497440338,-0.19849984347820282,-0.0006629637209698558,-0.1770060956478119,-0.20820210874080658,0.11142882704734802,0.33100929856300354,-0.05566614121198654,-0.08897477388381958,-0.01904439553618431,0.20915770530700684,-0.16787219047546387,0.16741450130939484,-0.12901878356933594,-0.18637090921401978,-0.04730117693543434,0.1751730889081955,-0.18465644121170044,-0.3805675804615021,0.048163216561079025,-0.17291022837162018,0.12671779096126556,-0.036220982670784,0.1851378232240677,0.04380549117922783,-0.06306497007608414,-0.09899571537971497,-0.21191802620887756,-0.1417844295501709,0.202444925904274,0.10690595954656601,-0.18846110999584198,0.06928358972072601,-0.2395026832818985,0.10762269049882889,0.1637631505727768,0.21851538121700287,0.1369558870792389,0.02190103381872177,0.25943151116371155,0.17022910714149475,-0.1796661615371704,0.1285434514284134,0.13165263831615448,0.029508812353014946,0.20214740931987762,0.16521096229553223,-0.016875866800546646,0.05914806202054024,-0.1455668956041336,0.17078828811645508,-0.13222317397594452,0.19110505282878876,0.12209197878837585,-0.040461644530296326,-0.13941846787929535,-0.14147356152534485,-0.11041885614395142,0.039117857813835144,0.1333407759666443,-0.027572505176067352,0.08989381045103073,0.20532935857772827,-0.02800825797021389,-0.07295376062393188,0.1695094108581543,0.057492028921842575,-0.018183162435889244,-0.08959446102380753,-0.16101662814617157,0.06285973638296127,0.004634283483028412,0.07601576298475266,0.014089705422520638,-0.13094501197338104,-0.10296793282032013,-0.003460304345935583,0.10842417180538177,-0.07003412395715714,-0.04079805687069893,0.12451758235692978,0.014747829176485538,-0.0648973286151886,-0.11761152744293213,0.013383246026933193,-0.03530463948845863,0.1714782416820526,0.07806584984064102,-0.047274041920900345,0.07383380085229874,-0.06046578288078308,-0.12606392800807953,0.109992116689682,-0.048903536051511765,-0.1686800718307495,0.05207344889640808,-0.14329028129577637,0.06844604015350342,-0.0889759212732315,0.053220510482788086,0.056107714772224426,0.07158685475587845,0.1962132602930069,0.17370986938476562,0.18085071444511414,0.16110536456108093,-0.015050387009978294,-0.05530240759253502,0.02687477320432663,0.02567194774746895,-0.0706373080611229,-0.14781667292118073,0.15733592212200165,-0.10509201139211655,0.03521186113357544,-0.14906302094459534,0.00556795671582222,0.12556712329387665,0.03932812064886093,0.11087650805711746,-0.110780268907547,0.048082608729600906,-0.21306397020816803,-0.1474967896938324,0.05238591507077217,0.05448401719331741,-0.16337791085243225,0.20960086584091187,0.15034295618534088,0.18849922716617584,-0.08778524398803711,-0.12132278829813004,0.16405998170375824,-0.028497686609625816,0.04203454405069351,0.17550203204154968,0.00014023625408299267,-0.14273770153522491,-0.13483597338199615,-0.18135808408260345,-0.19318100810050964,0.125492662191391,-0.0035132269840687513,0.10837908834218979,-0.19457319378852844,-0.01895689219236374,-0.12470649182796478,0.12832391262054443,-0.04256652668118477,0.06769201159477234,0.06187974661588669,-0.005718827247619629,-0.03104528784751892,-0.15816383063793182,-0.0570860430598259,0.19912512600421906,0.10633696615695953,0.13554233312606812,-0.09514551609754562,-0.049700260162353516,0.21083499491214752,-0.048177700489759445,-0.19543620944023132,0.09345652163028717,-0.10768013447523117,-0.1839495748281479,0.1393083781003952,-0.13105373084545135,-0.03458232805132866,-0.11204458028078079,-0.06518784910440445,0.006122959777712822,0.013143745250999928,0.09064898639917374,-0.06657865643501282,-0.1745726317167282,-0.18130020797252655,0.11132287234067917,-0.12955015897750854,0.08474410325288773,-0.11702489852905273,-0.28296253085136414,0.08765599131584167,-0.019684042781591415,0.32165032625198364,0.1564910113811493,-0.014914772473275661,0.22229067981243134,0.10169903934001923,0.00457837013527751,-0.29336196184158325,-0.21040783822536469,-0.13676521182060242,-0.06819283962249756,-0.12201608717441559,-0.23896640539169312,0.10586025565862656,0.1646726280450821,-0.05149921402335167,-0.0006111182738095522,-0.19858472049236298,0.15583215653896332,0.23607148230075836,-0.25432151556015015,-0.23596671223640442,0.19518694281578064,0.025881541892886162,-0.1074993684887886,-0.15309947729110718,-0.05362292379140854,-0.0914984941482544,0.09694930911064148,-0.17541857063770294,-0.13789156079292297,0.2055681198835373,-0.17159877717494965,-0.17127396166324615,0.26016926765441895,0.2504867911338806,-0.02653544209897518,0.11445260047912598,0.25101250410079956,-0.15405391156673431,0.09175148606300354,0.04861178621649742,0.13437384366989136,-0.046842310577631,-0.14801475405693054,0.1878300905227661,-0.22509737312793732,-0.14579366147518158,0.02564767561852932,-0.07408582419157028,-0.24640999734401703,-0.006930749863386154,0.20681633055210114,-0.03884182497859001,-0.17038163542747498,-0.17856305837631226,-0.08045291900634766,-0.2579137086868286,0.042672351002693176,0.015430734492838383,-0.11731334775686264,-0.02110123075544834,-0.32249659299850464,0.15652477741241455,0.09004372358322144,0.1574091911315918,-0.047870807349681854,0.17831753194332123,0.11564876139163971,-0.19749167561531067,-0.07993649691343307,