0.14492642879486084,-0.22917163372039795,-0.7619369626045227,0.34193605184555054,0.34181663393974304,-0.3460767865180969,1.3397637605667114,0.9850161671638489,0.24079856276512146,1.2605736255645752,-0.9382921457290649,0.7338515520095825,0.5474082827568054,-1.0853484869003296,0.6091857552528381,0.20539936423301697,0.3251180052757263,1.2285749912261963,-0.16329291462898254,0.13596828281879425,0.4522678554058075,-0.49151962995529175,-0.707468569278717,-0.42736825346946716,-0.6773401498794556,0.6560990810394287,-0.3471965193748474,-0.5513985753059387,-0.15387046337127686,-0.7126893997192383,-1.1428033113479614,0.2713874578475952,0.05819503962993622,0.174846351146698,-0.4864219129085541,-1.9052484035491943,0.38010385632514954,0.1603134721517563,1.2935082912445068,-0.5153525471687317,0.9314033389091492,1.0351979732513428,-0.7419532537460327,0.7550238966941833,0.019285518676042557,-0.22798225283622742,1.020281195640564,-1.0944769382476807,-0.031062081456184387,0.17391394078731537,-0.2272164225578308,-0.5689329504966736,-0.2730105519294739,-1.7868990898132324,-0.4302579164505005,0.8145428895950317,0.6028087735176086,-0.25838398933410645,-0.8864222168922424,-0.524168848991394,-0.6303958892822266,-1.6868172883987427,-0.47506868839263916,0.687031090259552,-0.13436353206634521,0.7039944529533386,-0.7600606083869934,0.5853272676467896,-0.6624979972839355,-1.166925311088562,1.1164358854293823,0.31386035680770874,-0.41972172260284424,0.5062620639801025,-0.0700724869966507,-0.31043893098831177,-0.16538392007350922,0.33243048191070557,0.8689314723014832,0.21087047457695007,1.1799248456954956,-0.6422510743141174,-0.6893470287322998,0.5132046937942505
