-0.059712305665016174,-0.04363969340920448,0.09886912256479263,-0.07404975593090057,-0.07855019718408585,0.03558870777487755,0.0834261104464531,-0.048396337777376175,0.03295902535319328,-0.08370298892259598,0.007155921775847673,0.02923724800348282,-0.11362989991903305,-0.012438888661563396,0.057567935436964035,0.11045195907354355,0.1199202835559845,0.11629766970872879,0.11042183637619019,-0.05195397511124611,0.11685710400342941,-0.0316566601395607,0.00622895872220397,-0.08775027841329575,-0.04952554404735565,-0.04564529284834862,0.0434783473610878,-0.0755474790930748,0.0412413515150547,-0.04828890785574913,-0.07545299828052521,-0.008609804324805737,0.07551588118076324,0.08027694374322891,-0.03500410169363022,0.07640890032052994,-0.030229194089770317,-0.09082712233066559,-0.04638434946537018,-0.058905765414237976,-0.06881566345691681,0.043301500380039215,-0.07696115970611572,0.005933817476034164,0.03267662972211838,0.11437391489744186,-0.06462810933589935,-0.07468560338020325,-0.09277056157588959,0.07164368778467178,-0.008322847075760365,0.03614980727434158,0.07514501363039017,0.07829791307449341,-0.034403298050165176,0.013282686471939087,0.0730225145816803,-0.06267935037612915,-0.054349396377801895,0.08218462765216827,0.020128149539232254,-0.006423324812203646,-0.06618525087833405,0.017517995089292526,0.05223443731665611,-0.022073935717344284,0.07459317892789841,-0.030003393068909645,-0.02510075643658638,0.05222135782241821,-0.07261072099208832,-0.09500787407159805,0.005837805103510618,-0.09005122631788254,0.0077737364917993546,0.07112658768892288,-0.005370031110942364,-0.05153738334774971,-0.07996825128793716,-0.08216087520122528,-0.050798434764146805,-0.014895319938659668,0.09347571432590485,-0.024153977632522583,-0.11228035390377045,0.09707631915807724,-0.04491089656949043,0.005724109243601561,0.016723545268177986,0.03505736216902733,0.08022531121969223,0.08297542482614517,-0.08985928446054459,-0.0697823166847229,-0.040366433560848236,-0.07600266486406326,0.020763853564858437,-0.09250286221504211,-0.03366983309388161,-0.08802101761102676,-0.020760774612426758,-0.025332052260637283,0.036881256848573685,0.056615058332681656,0.024681102484464645,-0.0328693687915802,-0.06280241906642914,0.026821434497833252,-0.021415088325738907,0.051981303840875626,0.01144804060459137,0.033217623829841614,-0.1246148943901062,0.061267003417015076,-0.019307751208543777,0.08789297193288803,0.0027507145423442125,0.10466364771127701,0.043804775923490524,0.13337205350399017,0.004863991402089596,0.02509801648557186,-0.08223554491996765,0.06502092629671097,0.050698187202215195,0.0056244684383273125,0.05864696577191353,0.050476379692554474,0.046521950513124466,0.09597290307283401,-0.05375552922487259,0.08619241416454315,0.0038749692030251026,-0.11183851212263107,0.09117905050516129,-0.03059687465429306,0.0902799442410469,-0.028070118278265,-0.08321116864681244,0.11524384468793869,-0.041783399879932404,-0.09060605615377426,0.12552666664123535,-0.08319029211997986,0.03287898376584053,-0.06275183707475662,0.02722294256091118,-0.008538823574781418,-0.10818440467119217,-0.04012206941843033,0.05160248652100563,0.032789893448352814,-0.06583389639854431,-0.0760452076792717,-0.04810768738389015,-0.03651561215519905,0.04206704720854759,-0.11240186542272568,0.021614491939544678,0.01896357722580433,-0.12664498388767242,0.004663233645260334,0.02211064286530018,0.07410872727632523,-0.09671495109796524,0.10478908568620682,0.008211374282836914,-0.0818341001868248,-0.035009533166885376,-0.05190365016460419,-0.010890808887779713,0.06722229719161987,0.01126965694129467,-0.09804348647594452,0.0664651095867157,0.1021009236574173,0.08022677898406982,-0.02588699199259281,-0.08042807132005692,-0.09442809224128723,-0.040622860193252563,-0.06029152497649193,0.062267620116472244,0.030354613438248634,-0.060562532395124435,-0.08661316335201263,-0.06588877737522125,0.04726368188858032,-0.088020920753479,-0.013770624995231628,0.03124665841460228,0.09292444586753845,0.09918320178985596,0.06453420221805573,0.01081081572920084,-0.12131960690021515,0.006336386781185865,-0.07337638735771179,0.012031801976263523,-0.06516823172569275,0.1185590997338295,0.0011546859750524163,-0.07510579377412796,0.08465094119310379,0.06938106566667557,0.09693039208650589,-0.036138150840997696,0.08595160394906998,0.06064002960920334,-0.03461410850286484,-0.07943115383386612,0.02262299507856369,0.09040392935276031,0.08223025500774384,0.036267563700675964,0.04034535959362984,-0.07978951930999756,-0.08379735052585602,0.03503642603754997,-0.02297946810722351,-0.003690024372190237,-0.07585155218839645,-0.034879107028245926,-0.043297283351421356,-0.02783684805035591,-0.08674267679452896,-0.025295788422226906,0.09076189249753952,-0.03481496870517731,0.07286611944437027,0.0834985300898552,-0.061480481177568436,0.005647375714033842,-0.0373062789440155,0.03468713164329529,0.001713208737783134,-0.015522952191531658,-0.1255946308374405,0.04369920864701271,-0.09424843639135361,-0.1027701199054718,0.11172956228256226,-0.003945109434425831,-0.042597606778144836,-0.019770484417676926,-0.08523961156606674,-0.04655960202217102,0.06755267828702927,-0.0008750245906412601,-0.05131341516971588,-0.0455002523958683,0.08878403156995773,-0.07054533809423447,-0.01910877600312233,0.10293884575366974,-0.04504099115729332,0.018801182508468628,0.038737427443265915,0.05061228573322296,0.060348477214574814,0.045728083699941635,0.004669151734560728,-0.0795702412724495,-0.006884542293846607,-0.034995365887880325,-0.025558054447174072,-0.09809687733650208,-0.09834619611501694,0.074094757437706,-0.07569817453622818,0.03925814479589462,-0.08113789558410645,0.03878340870141983,-0.04106515645980835,-0.09865539520978928,-0.11041224747896194,0.08988100290298462,0.03342817723751068,0.05761830508708954,0.060110852122306824,0.010667611844837666,0.1039084643125534,0.09202209860086441,0.1231752336025238,0.03761793300509453,-0.04013781622052193,-0.08782297372817993,0.06773541122674942,-0.11197859048843384,-0.12981797754764557,0.006232620682567358,-0.03174866363406181,-0.03240305185317993,0.024521440267562866,-0.08558688312768936,-0.09642453491687775,0.03815589100122452,-0.07425329089164734,0.033046942204236984,-0.08815682679414749,-0.10511159896850586,0.007520096842199564,-0.0539277084171772,-0.01749725081026554,0.06413371115922928,0.018064823001623154,0.09131713211536407,0.07255345582962036,-0.01683235540986061,0.06177547574043274,0.06058591231703758,0.07843641191720963,-0.07944022864103317,-0.09860598295927048,0.05820279195904732,-0.0030488467309623957,-0.016444750130176544,-0.028511710464954376,0.07830344885587692,0.07377882301807404,0.05998997390270233,-0.014907794073224068,0.1342475265264511,0.09140677005052567,-0.016419678926467896,0.007245681248605251,-0.07142917066812515,0.01045821700245142,-0.08848907053470612,-0.08739928901195526,0.02377360127866268,0.036599114537239075,-0.04856347665190697,0.03352653607726097,0.06603129953145981,-0.0515466034412384,-0.08165581524372101,0.10123281925916672,-0.05136333033442497,0.07938624918460846,-0.027591245248913765,-0.10085928440093994,0.0947188138961792,-0.0026172653306275606,-0.07109572738409042,0.0635247454047203,-0.050626952201128006,0.05673934519290924,0.04264695942401886,-0.057966116815805435,0.056378088891506195,0.022646496072411537,0.03529258817434311,-0.01077892817556858,0.012546992860734463,-0.03211885690689087,0.048577480018138885,0.10119371116161346,0.07646164298057556,0.12275873124599457,-0.03845324367284775,-0.09329623728990555,0.017450669780373573,0.040609210729599,-0.07746843248605728,-0.08448848873376846,-0.07776468992233276,0.04035582020878792,-0.049260213971138,0.06328343600034714,0.06324387341737747,0.07721580564975739,0.0651078075170517,0.08757822960615158,-0.09619531035423279,-0.011348851956427097,-0.0216126199811697,0.07955970615148544,-0.04527070373296738,-0.12420602887868881,0.05493609607219696,-0.04253014177083969,-0.003356993431225419,0.05494195222854614,-0.09841597080230713,-0.02520308829843998,0.10264596343040466,0.03286076709628105,-0.03432566300034523,0.0006883436581119895,0.09407984465360641,-0.03423812612891197,0.07261557132005692,-0.07851136475801468,0.08595531433820724,-0.05246976763010025,-0.06463433057069778,0.09202645719051361,-0.10563240945339203,0.12389320880174637,0.00824680645018816,-0.06740587204694748,-0.009190167300403118,0.04773202911019325,0.046108443289995193,0.06967176496982574,0.08211066573858261,-0.1032889187335968,0.006570280529558659,0.013025833293795586,-0.05192606523633003,-0.03022502362728119,-0.10241959989070892,-0.03738078847527504,-0.1136428490281105,-0.03777226060628891,0.06687486171722412,-0.0517096109688282,-0.09948896616697311,-0.018539804965257645,0.03775576874613762,-0.050199609249830246,-0.09404728561639786,0.06811638921499252,-0.0527343675494194,-0.05036083236336708,0.024613501504063606,0.10332471877336502,-0.007846007123589516,0.08223665505647659,0.05344834178686142,-0.0416458323597908,0.05436945706605911,-0.0894836038351059,-0.032594673335552216,-0.03281255438923836,-0.06715293973684311,0.036922525614500046,0.08760286867618561,-0.08665142208337784,-0.07147721201181412,0.008963843807578087,-0.030141642317175865,-0.03566870838403702,0.0792413130402565,0.03150273486971855,0.09155712276697159,0.05482645705342293,-0.05389774963259697,0.061624959111213684,-0.051970306783914566,-0.0542183443903923,0.07186144590377808,-0.09889210015535355,0.05798061192035675,-0.09049183130264282,-0.04370296373963356,-0.041794683784246445,-0.038593705743551254,-0.05590427666902542,0.07217174768447876,0.07825028151273727,0.07740109413862228,0.028519872575998306,0.12870624661445618,-0.015972277149558067,-0.11056363582611084,0.046529293060302734,-0.12911102175712585,-0.09300532191991806,0.03360864520072937,0.059651389718055725,-0.04184362664818764,-0.07162643224000931,-0.0862690731883049,-0.06597563624382019,-0.032028619199991226,0.01782233454287052,0.08542656898498535,0.009038754738867283,-0.1032281219959259,0.0023997484240680933,0.10841555148363113,0.06041121482849121,0.10562752932310104,-0.0781884714961052,0.009366738609969616,0.09402365982532501,-0.09664716571569443,-0.017442146316170692,-0.022815566509962082,-0.09511608630418777,0.04918256402015686,0.03894033282995224,0.058183103799819946,0.08399652689695358,-0.07198425382375717,0.05248032137751579,-0.10509359836578369,0.10963624715805054,0.07436223328113556,-0.02074822038412094,-0.005545855034142733,-0.09996502846479416,0.05755511298775673,-0.0015876219840720296,-0.043756261467933655,0.004223077557981014,0.10058367252349854,0.0843031033873558,-0.06334783881902695,0.008046730421483517,0.032875582575798035,0.04448619857430458,0.09270131587982178,0.07983101904392242,0.046649981290102005,-0.014660747721791267,-0.01007371861487627,-0.05770976096391678,-0.028194531798362732,0.05993097648024559,0.11909327656030655,-0.028902454301714897,-0.10513324290513992,0.08030852675437927,-0.034194402396678925,0.020630376413464546,0.022036267444491386,-0.07304414361715317,0.016065683215856552,-0.010492180474102497,0.09352918714284897,0.007488988805562258,0.07792292535305023,0.03646991774439812,-0.01897575519979,-0.06096716225147247,-0.0550232008099556,0.004311738070100546,-0.09556572139263153,-0.08037605881690979,0.03370547667145729,0.08368097245693207,0.06518625468015671,-0.025158222764730453,-0.003357827430590987,-0.02007521502673626,-0.04885399714112282,-0.06842736154794693,0.07015375047922134,-0.005757251754403114,-0.09933178126811981,0.012881171889603138,0.06484829634428024,0.09329473972320557,-0.04764899984002113,0.018285656347870827,-0.05042159929871559,0.08742590993642807,-0.05812898278236389,-0.06481301784515381,-0.04878024384379387,-0.07658439874649048,-0.00859810784459114,0.09365878254175186,-0.06646759808063507,0.03227991610765457,-0.051864661276340485,0.028656121343374252,-0.010599012486636639,0.05443651229143143,0.07671595364809036,-0.10311509668827057,-0.012277618981897831,-0.004688231740146875,-0.11317633092403412,-0.0900585949420929,-0.044455386698246,0.009272105991840363,-0.01640445552766323,0.049312230199575424,0.020320648327469826,-0.03411738947033882,0.017062976956367493,-0.018925847485661507,0.09228954464197159,-0.006209719460457563,0.07537923753261566,-0.06305719166994095,0.04963194951415062,-0.05546417087316513,-0.05961332470178604,-0.020559854805469513,-0.03441314771771431,0.04417766258120537,-0.07594781368970871,0.06129611283540726,-0.05801669880747795,0.0011165699688717723,0.009964770637452602,-0.07201771438121796,0.01207747869193554,-0.07037663459777832,0.09033950418233871,-0.024251000955700874,-0.03321947902441025,-0.01913297362625599,0.03873657435178757,0.08613484352827072,-0.023327156901359558,0.004221135750412941,-0.04608858376741409,0.006143689621239901,0.0027148297522217035,0.014739715494215488,-0.05778620392084122,-0.06421724706888199,-0.0743713229894638,-0.0729837417602539,-0.038844067603349686,-0.07484178245067596,-0.10031075775623322,0.08576759696006775,0.01932878978550434,0.046611033380031586,0.07314255088567734,-0.07555536925792694,0.054943062365055084,-0.0204202551394701,-0.04717281460762024,-0.07623044401407242,0.036377400159835815,0.10114186257123947,-0.011950005777180195,-0.01445932686328888,0.09631448239088058,0.07527533918619156,0.08297742903232574,-0.10708949714899063,0.10826463997364044,-0.005652451887726784,-0.048671822994947433,0.03475309535861015,0.11665750294923782,0.06311776489019394,-0.12927938997745514,-0.01917840726673603,-0.006657097022980452,-0.03057580627501011,-0.05727254971861839,0.08164432644844055,0.10629922151565552,0.019454991444945335,-0.09482670575380325,0.05156559497117996,0.05117880180478096,0.02271142043173313,-0.029095862060785294,0.0808320865035057,-0.03095034696161747,-0.064182348549366,0.040763720870018005,-0.0683109313249588,-0.02479998767375946,-0.07773508876562119,0.04586079716682434,0.05178237333893776,-0.0011123885633423924,-0.05568210408091545,0.08348851650953293,0.05049556493759155,0.02962055802345276,-0.07648242264986038,-0.0481429398059845,0.10142724961042404,-0.11367043107748032,0.10603677481412888,-0.058240797370672226,-0.07356082648038864,0.031416408717632294,0.032831691205501556,-0.045348118990659714,0.07252763956785202,0.02949693240225315,-0.0727744847536087,-0.005284670274704695,0.008011515252292156,-0.014944312162697315,-0.0643300861120224,0.0001286710030399263,0.06514347344636917,-0.02961064502596855,0.07538782805204391,-0.06021023169159889,0.09036335349082947,-0.10624819248914719,-0.1138644590973854,0.034531623125076294,-0.08883016556501389,0.036840714514255524,-0.02751150168478489,0.04712517932057381,0.055786747485399246,0.017678456380963326,0.07572150230407715,-0.04714850336313248,0.06140909343957901,0.0775379091501236,0.05708130821585655,0.06391364336013794,-0.05833335220813751,-0.00430820370092988,0.026905011385679245,0.02387874200940132,-0.054989129304885864,0.03209054842591286,0.003155945334583521,-0.013169500045478344,0.05442577600479126,-0.08875483274459839,0.05857226252555847,0.0647798478603363,-0.02675659768283367,-0.11944784224033356,0.04539097845554352,-0.07128226011991501,0.032801803201436996,-0.020663850009441376,0.11448505520820618,0.01443086564540863,0.06956908106803894,-0.05213409289717674,-0.06629077345132828,0.018057851120829582,0.009597309865057468,-0.03774627670645714,-0.09170662611722946,-0.014666160568594933,-0.03883436322212219,-0.02870912291109562,-0.008054441772401333,0.11365429311990738,-0.027322599664330482,-0.03295145556330681,-0.009768152609467506,0.03810860589146614,0.12781603634357452,0.07856060564517975,0.030506838113069534,0.0768214538693428,0.03467051684856415,0.03915662690997124,0.019754601642489433,0.029837200418114662,-0.01784660667181015,0.05793776735663414,-0.06181194260716438,-0.03588249534368515,0.007011665031313896,-0.041533224284648895,0.08479844778776169,0.07296330481767654,0.025985993444919586,-0.041570767760276794,-0.046947378665208817,-0.04740162566304207,0.01483587734401226,0.022928303107619286,0.03046664223074913,-0.04502026364207268,-0.03770534694194794,-0.07462692260742188,0.08527405560016632,0.04729992523789406,0.10650035738945007,-0.10359840840101242,0.07390084862709045,-0.007402701769024134,-0.0398397222161293,0.07393496483564377,0.004187965765595436,-0.048709794878959656,-0.06425853073596954,-0.0036844490095973015,-0.09810931980609894,-0.07255819439888,0.04556255787611008,-0.019477512687444687,-0.10983961075544357,0.09019656479358673,-0.04109439253807068,-0.09132009744644165,0.06753158569335938,-0.007457926869392395,0.04135981574654579,-0.10251087695360184,0.08633516728878021,-0.048593565821647644,0.04652881249785423,0.11693443357944489,-0.058888647705316544,-0.059827741235494614,-0.10404101014137268,0.04238801822066307,0.032463591545820236,0.06053731217980385,-0.019070804119110107,0.03799651935696602,-0.07206934690475464,0.1122506707906723,0.11764408648014069,-0.07986762374639511,-0.01774493418633938,-0.06815283745527267,-0.11533427238464355,0.03786167874932289,-0.050606004893779755,0.11660714447498322,0.08708307892084122,0.0342746376991272,0.06598848104476929,-0.11016960442066193,0.09238763153553009,-0.006124933250248432,-0.024088941514492035,-0.02823265828192234,-0.056783996522426605,-0.10500860959291458,0.04179420694708824,0.05199267342686653,0.0072755757719278336,0.051667653024196625,-0.0795477107167244,-0.0502411313354969,-0.023013468831777573,0.01002957858145237,0.06158757582306862,0.03838592395186424,0.05557283014059067,0.0022931441199034452,-0.061305347830057144,0.04772138595581055,0.018815934658050537,0.03444395214319229,-0.1070595532655716,0.001566717866808176,0.06481514126062393,-0.033239129930734634,-0.005144089460372925,-0.07537105679512024,0.09655942022800446,-0.011600487865507603,0.0028786086477339268,-0.08505591005086899,-0.009684105403721333,0.10306024551391602,-0.040034614503383636,0.10042238235473633,0.014915039762854576,0.006399170961230993,-0.06892503798007965,0.012586645781993866,0.07463792711496353,-0.09903856366872787,0.02471166104078293,0.10295681655406952,-0.03535287454724312,0.0831160694360733,0.018988467752933502,0.021343648433685303,-0.08556877821683884,-0.08557109534740448,-0.07869665324687958,0.07174757868051529,0.02597440779209137,0.06961262226104736,-0.062314391136169434,-0.09096623212099075,-0.11271622776985168,0.0421881228685379,0.042574651539325714,0.07241325825452805,0.0641775131225586,0.0650320053100586,-0.02839604578912258,0.127388134598732,0.03681535646319389,0.06000232324004173,-0.06504804641008377,-0.03211548179388046,-0.04946362227201462,-0.09680276364088058,-0.03657332807779312,-0.01726320944726467,0.03406092897057533,0.026122476905584335,0.08361827582120895,-0.09046540409326553,-0.09869876503944397,-0.11883459240198135,0.029599739238619804,-0.10177893936634064,-0.08592825382947922,-0.07112310826778412,0.029469536617398262,-0.07406048476696014,0.10472948849201202,-0.11022559553384781,-0.07588214427232742,-0.0028827497735619545,0.00725243566557765,-0.029342932626605034,-0.051983464509248734,0.07889243960380554,-0.010664382949471474,0.017035020515322685,-0.01877857744693756,-0.04125217720866203,-0.00677635008469224,0.05384938046336174,0.08707543462514877,0.02446998469531536,0.10488635301589966,0.09444177895784378,0.05621204525232315,-0.0993393212556839,0.0030136723071336746,-0.12231932580471039,-0.12815381586551666,0.02992861159145832,-0.039661530405282974,-0.08194276690483093,-0.07885177433490753,0.034529153257608414,-0.01556792389601469,-0.10211275517940521,0.07515741884708405,-0.022267255932092667,-0.07446353882551193,-0.12115366756916046,0.11432017385959625,0.04062987118959427,-0.012765888124704361,-0.03561961650848389,-0.013886122032999992,-0.03420914337038994,-0.047330453991889954,0.08728709816932678,0.06862327456474304,0.10726511478424072,-0.015984369441866875,0.02180543728172779,0.10010362416505814,0.09823569655418396,-0.08906843513250351,0.0009943473851308227,0.023545481264591217,0.0186291690915823,-0.04353009909391403,0.03389280289411545,0.030054660513997078,0.028322339057922363,-0.035186536610126495,0.006727589759975672,0.08026175200939178,-0.046552322804927826,-0.07321318238973618,0.042690031230449677,0.03585017845034599,0.013757586479187012,0.10807915776968002,-0.024053039029240608,0.06549728661775589,0.0067058103159070015,-0.06653855741024017,-0.03232553228735924,0.09067468345165253,-0.0703611746430397,0.004849742166697979,-0.054252609610557556,0.04517378285527229,0.07364966720342636,0.026600973680615425,0.09474659711122513,-0.10445243120193481,-0.13067716360092163,-0.013400381430983543,-0.04049159213900566,0.07478409260511398,0.0362967811524868,0.04184113070368767,-0.01622840389609337,-0.09684621542692184,0.0396147258579731,0.11906828731298447,-0.0366763174533844,-0.05947422981262207,-0.12351031601428986,0.055582139641046524,0.06371474266052246,-0.07548896223306656,-0.035210926085710526,0.056081950664520264,0.07167507708072662,0.022789493203163147,-0.06193816289305687,0.10750392079353333,0.0320909284055233,-0.043338604271411896,-0.042832955718040466,0.06820949912071228,0.030226485803723335,-0.10027915239334106,-0.07387501746416092,0.009550031274557114,0.023169713094830513,-0.028315065428614616,-0.009302845224738121,-0.12994243204593658,-0.016447531059384346,0.047808632254600525,-0.03332461044192314,-0.0263848714530468,-0.02868691459298134,-0.09246967732906342,-0.028659634292125702,-0.03769131749868393,-0.021191278472542763,0.014739553444087505,-0.04564681649208069,-0.04241734743118286,0.07238979637622833,0.10129552334547043,-0.021480798721313477,0.08024246990680695,0.027564967051148415,-0.09831742942333221,-0.1052677109837532,-0.06680455058813095,0.08376578241586685,0.10134720802307129,-0.024224387481808662,-0.06200729310512543,-0.007527215871959925,-0.07407894730567932,-0.0048780785873532295,-0.024016402661800385,0.07811424881219864,0.09192299842834473,0.05999516323208809,-0.07872684299945831,-0.005457758437842131,0.012754346244037151,0.06929374486207962,-0.06439296156167984,-0.0316193625330925,0.041781868785619736,-0.007977656088769436,-0.12392053008079529,-0.007354287896305323,0.04645207151770592,0.05021524429321289,-0.059661079198122025,0.06955540180206299,-0.07575298100709915,0.025433195754885674,-0.06913936883211136,0.0383184440433979,-0.06975559890270233,0.09464915841817856,0.107354074716568,0.0732639953494072,0.04374663159251213,0.1226029247045517,0.02685263194143772,-0.03414786234498024,-0.02317001298069954,0.034141167998313904,0.03986036404967308,0.007547151762992144,0.01933344453573227,0.08325223624706268,0.11310609430074692,-0.05411189794540405,0.04858340695500374,0.009099524468183517,-0.07420622557401657,-0.08089663833379745,-0.07993631064891815,0.07641997933387756,0.06394781917333603,-0.05738526210188866,-0.09637057036161423,0.08343089371919632,-0.02823852188885212,-0.0473703071475029,0.06509161740541458,-0.07370453327894211,-0.09379084408283234,0.043857935816049576,0.07411520183086395,-0.08185552060604095,0.04243428260087967,-0.06430176645517349,-0.020365791395306587,0.008519411087036133,-0.0449780598282814,0.08396738767623901,0.10213670879602432,0.10426396876573563,-0.0604541152715683,0.02694965898990631,0.056828081607818604,0.07001962512731552,0.026690518483519554,0.053540416061878204,0.08288337290287018,-0.08270853757858276,0.07748095691204071,-0.06667978316545486,-0.07258950173854828,0.020873097702860832,0.06570328772068024,-0.03696165233850479,-0.03823094815015793,-0.0675717294216156,-0.016040632501244545,-0.11702398955821991,0.06590739637613297,0.007840764708817005,0.046717774122953415,-0.07310418784618378,0.0640946626663208,-0.010106573812663555,-0.09913212060928345,0.05933482572436333,-0.005261060316115618,0.10614483058452606,0.01977592147886753,0.04051686450839043,-0.09028998762369156,-0.10539126396179199,0.04229570925235748,0.06883343309164047,-0.04810389503836632,-0.0637522041797638,-0.003971449565142393,0.06624697148799896,-0.0031024962663650513,-0.02060892805457115,-0.002610552590340376,-0.05833473056554794,0.10234677791595459,0.041073087602853775,0.0260025542229414,-0.0021144882775843143,-0.018294932320713997,0.10253487527370453,0.030252661556005478,0.04908277466893196,-0.0906539037823677,0.06791310012340546,0.018914906308054924,-0.10320495069026947,0.023864636197686195,0.029688013717532158,-0.0797634869813919,0.029639694839715958,0.045923784375190735,0.008466348052024841,-0.0649845153093338,-0.07816755771636963,0.09995049238204956,0.01563306339085102,0.04513954371213913,-0.001991285476833582,-0.057302966713905334,0.09216351807117462,-0.015789169818162918,-0.08194740861654282,0.06782230734825134,0.09004005044698715,0.13481682538986206,-0.05055750906467438,0.10034371167421341,-0.10357087105512619,-0.04645729809999466,0.0023149377666413784,0.07577195018529892,0.042094118893146515,-0.058012329041957855,-0.06742788106203079,0.05379072204232216,0.01346244290471077,0.05897008627653122,0.01938113011419773,-0.005662116687744856,-0.03474176302552223,-0.03333188593387604,0.03282713145017624,0.032802607864141464,-0.013056532479822636,0.08261168748140335,-0.0020644112955778837,-0.04044952988624573,0.036451876163482666,0.030978213995695114,-0.09199244529008865,0.08543656021356583,-0.09736426919698715,0.034303441643714905,-0.1015862226486206,-0.030913230031728745,0.07865171879529953,-0.03939937427639961,0.003804899984970689,0.07373032718896866,0.060025207698345184,0.030489830300211906,0.1161976233124733,0.06141310930252075,0.10188882052898407,0.09885554760694504,-0.08869363367557526,0.05141008272767067,0.012578833848237991,0.0043883658945560455,0.07463439553976059,-0.06604766845703125,0.08110622316598892,-0.09719330072402954,-0.0812167152762413,-0.004486449062824249,0.06893397122621536,0.04286269471049309,-0.09386926144361496,-0.014137162826955318,-0.0031274764332920313,0.041523709893226624,-0.061461176723241806,-0.06311174482107162,-0.01837923191487789,0.012901636771857738,-0.05906813591718674,0.0030332922469824553,-0.04235836863517761,0.06783889979124069,-0.006251852959394455,-0.03156698867678642,-0.11818209290504456,0.07287649065256119,-0.07555633783340454,0.07209838181734085,0.05879829451441765,-0.12018687278032303,0.0967913269996643,-0.011324848979711533,-0.06374692171812057,0.01688246615231037,-0.10252033919095993,0.039641719311475754,0.059119366109371185,-0.0031132667791098356,-0.05859128385782242,0.07937636226415634,0.020040238276124,-0.02882448025047779,-0.08381331712007523,-0.01645578257739544,0.08992471545934677,-0.0761137306690216,0.06874053925275803,0.08165322989225388,0.08385291695594788,0.10636930912733078,0.0018374873325228691,-0.09631571918725967,-0.08507761359214783,-0.10463413596153259,0.027728145942091942,0.06671801954507828,-0.025761831551790237,-0.11033162474632263,-0.026967143639922142,-0.09885052591562271,0.043413955718278885,-0.08872046321630478,-0.03846415877342224,0.10444793850183487,-0.002327509457245469,-0.04918908327817917,0.06141086667776108,0.06813213974237442,-0.03618815168738365,-0.03899230808019638,0.027739955112338066,-0.12396810203790665,0.0515148863196373,0.10955888777971268,0.0949825644493103,-0.09483401477336884,0.07890145480632782,-0.09010816365480423,0.031301919370889664,0.05317191034555435,-0.019170107319951057,0.09738390892744064,0.09947340935468674,0.01655017025768757,-0.12015843391418457,0.09131630510091782,0.05847065523266792,0.03361481428146362,0.04681730642914772,-0.05553841218352318,0.08454667776823044,0.05491403490304947,0.07432572543621063,-0.0886504128575325,0.018858976662158966,-0.030072221532464027,0.0717569962143898,0.021424246951937675,-0.06410427391529083,0.05685056746006012,-0.0899176076054573,0.07877074182033539,0.07927166670560837,-0.03992583230137825,0.019341126084327698,0.06870099157094955,-0.08398620039224625,0.06815779209136963,0.00022174605692271143,-0.058408938348293304,0.008094201795756817,0.09804296493530273,-0.026744389906525612,-0.12104575335979462,-0.05388812720775604,0.04860988259315491,0.045725177973508835,-0.012108943425118923
