0.015576820820569992,0.041618749499320984,-0.023303145542740822,-0.057707689702510834,-0.05994996801018715,-0.06165264919400215,0.04671025648713112,0.018633943051099777,-0.043253667652606964,0.04312264919281006,-0.020602868869900703,-0.013415597379207611,-0.038832150399684906,-0.02071363478899002,0.043687064200639725,-0.02110741101205349,-0.047865867614746094,0.048936158418655396,-0.05511578172445297,0.04128631576895714,-0.020637894049286842,-0.05596063658595085,0.02708357386291027,0.01978832297027111,0.04630400985479355,-6.888027564855292e-05,0.06159622594714165,0.011668303050100803,0.040595684200525284,-0.048376504331827164,-0.01599799282848835,-0.0521579384803772,-0.059389203786849976,0.009617116302251816,0.014869362115859985,0.028446972370147705,-0.01580643281340599,-0.061979759484529495,0.026168588548898697,0.05142843350768089,0.027264421805739403,-0.007534197997301817,-0.02007283642888069,-0.018382465466856956,0.01726437732577324,0.06023607775568962,0.007043385878205299,-0.05731198564171791,-0.05003456398844719,-0.031013796105980873,0.022036956623196602,0.007248022593557835,0.02408589981496334,0.05316745117306709,-0.04628118872642517,0.04247325286269188,-0.06108822673559189,0.04549087956547737,0.05980052053928375,-0.047250859439373016,0.05904066190123558,-0.01966601423919201,0.0486704520881176,0.02992350608110428,-0.004142576362937689,0.007887301966547966,-0.04522428289055824,0.0008432301110588014,0.028392307460308075,0.028151877224445343,-0.01851707324385643,-0.01661106012761593,-0.0029174985829740763,-0.03730510175228119,-0.05869171395897865,-0.058105483651161194,-0.02519260346889496,-0.016854671761393547,0.04841102287173271,0.01119614765048027,0.056590594351291656,0.046448998153209686,0.030368316918611526,-0.057358067482709885,-0.051930010318756104,-0.060055915266275406,0.011613989248871803,0.02336624450981617,0.0455896221101284,-0.02476312406361103,0.022104131057858467,-0.05623350292444229,-0.023162763565778732,0.01603240706026554,-0.018502820283174515,0.009194149635732174,-0.04024408012628555,0.024009792134165764,0.024010492488741875,-0.035691410303115845,-0.059603601694107056,0.04045165330171585,0.00037342868745326996,0.039017170667648315,-0.061834219843149185,0.004543862771242857,0.03719281405210495,-0.02116224728524685,-0.006901430897414684,0.009543989785015583,-0.014767409302294254,0.03739941865205765,-0.06202182546257973,0.021688301116228104,0.059915635734796524,0.029957784339785576,0.019143113866448402,0.006477725692093372,0.018354123458266258,-0.01780570298433304,-0.015532750636339188,0.04719356819987297,0.02423819713294506,0.04879383742809296,-0.04187295585870743,-0.012560974806547165,0.06150881573557854,0.05270761623978615,-0.0024196458980441093,0.05168992653489113,-0.018474917858839035,-0.020844854414463043,0.05011621490120888,0.01578863337635994,0.031407274305820465,0.02110467664897442,-0.022602727636694908,-0.007712347898632288,0.032064300030469894,-0.007011132780462503,-0.038789667189121246,-0.019579557701945305,-0.03254586458206177,-0.03285816311836243,0.04231385514140129,0.06094382703304291,0.05768613517284393,0.05098162963986397,0.02763446792960167,0.018432144075632095,-0.05602853372693062,-0.03166549280285835,-0.02142941579222679,0.021593492478132248,0.0048978752456605434,-0.04854767397046089,-0.020146269351243973,-0.0031441068276762962,-0.025530418381094933,-0.05631951987743378,0.014664665795862675,-0.05231908708810806,0.04923783242702484,-0.05753081664443016,0.0034119391348212957,0.014880940318107605,-0.024852829053997993,0.049068450927734375,-0.02120414935052395,0.024922722950577736,0.01685470901429653,-0.0011359843192622066,-0.006523494608700275,-0.05701613798737526,0.056955281645059586,0.05882139131426811,0.04841872677206993,-0.06016738340258598,-0.047182243317365646,-0.052704546600580215,0.015876198187470436,0.005154874641448259,-0.03469972684979439,-0.021347424015402794,0.04999617859721184,-0.05637937784194946,-0.003454489167779684,0.05152290686964989,0.008791380561888218,-0.00502102542668581,-0.02225632220506668,0.04530608281493187,-0.04803759232163429,0.007108235731720924,-0.039587896317243576,-0.04550352320075035,-0.04199707508087158,-0.006918962113559246,0.013918397016823292,0.049606624990701675,0.017603674903512,-0.049113526940345764,0.015946628525853157,-0.029347212985157967,0.06132245808839798,0.047394439578056335,-0.02306343987584114,0.047186512500047684,-0.04050622880458832,0.010094793513417244,-0.022840192541480064,-0.039559993892908096,0.019230596721172333,0.010240213014185429,0.010308288969099522,-0.04864891991019249,-0.04684952273964882,-0.0002724812657106668,0.004609278403222561,0.012952255085110664,-0.060772672295570374,-0.043281376361846924,-0.02936258353292942,-0.046689387410879135,0.013088198378682137,0.016596322879195213,0.00042737805051729083,0.05400126799941063,-0.013679130002856255,0.040780503302812576,0.0364859364926815,0.01309669204056263,0.01628672331571579,-0.05724623426795006,0.00956797320395708,-0.029301511123776436,0.028936009854078293,0.05102447792887688,-0.019130336120724678,0.02117026410996914,0.018007904291152954,0.03834718465805054,0.04982692375779152,-0.009641502052545547,0.02350572682917118,-0.029737301170825958,0.03839024901390076,-0.02465025708079338,-0.008496234193444252,-0.009573710151016712,-0.028767673298716545,0.03826901689171791,-0.05584639683365822,-0.015831613913178444,0.033117104321718216,0.017081361263990402,0.020446354523301125,0.038520604372024536,-0.016335733234882355,0.02660498023033142,-0.029743850231170654,-0.022262543439865112,-0.002884053159505129,0.034887026995420456,0.012596528977155685,0.025123387575149536,-0.024316152557730675,0.0293614212423563,0.05025585740804672,0.0544130764901638,-0.007422067224979401,-0.06003450229763985,-0.02002311870455742,-0.05354956537485123,-0.04263795539736748,0.024468418210744858,0.017485367134213448,-0.016946401447057724,0.058666180819272995,0.062437258660793304,0.009751889854669571,-0.0018603261560201645,0.025765536352992058,0.0004536337801255286,0.056760773062705994,-0.006226568017154932,-0.03926650062203407,-0.026901736855506897,0.011966235935688019,0.0009890446672216058,-0.0370040237903595,-0.004530421923846006,-0.05093710124492645,-0.02908289059996605,-0.019694937393069267,0.0348220057785511,-0.01083344779908657,0.0443437397480011,-0.022519832476973534,0.03279124200344086,-0.023868195712566376,-0.03253999352455139,-0.054233696311712265,0.008358622901141644,0.03467075154185295,-0.0030520702712237835,0.0012780512915924191,0.051846764981746674,0.03333437815308571,0.0013266809983178973,-0.014647752977907658,-0.0174721647053957,0.00414976617321372,0.04898471385240555,0.03066224977374077,-0.029095184057950974,-0.0023823410738259554,-0.039468441158533096,0.021053938195109367,-0.024553436785936356,-0.029125746339559555,0.0022770946379750967,0.009352048859000206,0.011160824447870255,0.0314750000834465,-0.061234183609485626,-0.008716017939150333,-0.010945429094135761,0.02657470293343067,-0.04605812579393387,-0.058586765080690384,-0.05849774554371834,0.03466485068202019,-0.0030975856352597475,0.036932483315467834,-0.058662716299295425,0.05878569558262825,0.04719698056578636,-0.035038430243730545,-0.05657109618186951,-0.061222322285175323,0.02698020450770855,-0.037263624370098114,-0.0486401803791523,0.04973256215453148,0.04746253043413162,0.033487845212221146,-0.04211040958762169,-0.023023094981908798,-0.027786405757069588,-0.014308045618236065,-0.03186812624335289,-0.01879042573273182,0.05844712629914284,0.031146705150604248,-0.025214150547981262,0.030958013609051704,-0.026872485876083374,0.026984868571162224,-0.03126832842826843,-0.05002002790570259,0.05682384967803955,0.02321441099047661,0.04354409500956535,-0.00469598826020956,0.034462980926036835,-0.04245254024863243,-0.016371354460716248,0.01933882385492325,0.0027295213658362627,-0.037445083260536194,-0.017697758972644806,0.03392680734395981,-0.04463043063879013,-0.05767153203487396,-0.031924303621053696,-0.037856098264455795,0.04745755344629288,0.05773136764764786,-0.02347867377102375,-0.006476406939327717,0.019635295495390892,-0.03037938103079796,0.048610154539346695,0.01322354469448328,-0.04753875732421875,-0.02768777683377266,0.056475237011909485,0.037986915558576584,-0.008088123984634876,-0.03563205152750015,0.006555919535458088,0.025890249758958817,-0.04437466710805893,0.0355849489569664,-0.035882771015167236,0.022357076406478882,0.036056771874427795,-0.042908623814582825,-0.009059085510671139,-0.01557241752743721,0.01791968196630478,-0.055775102227926254,-0.021655235439538956,0.04656067118048668,-0.04564054682850838,0.043671172112226486,0.017407679930329323,0.00976220890879631,0.024518441408872604,-0.005311902146786451,-0.029719777405261993,-0.0368838906288147,0.047937147319316864,-0.05378536134958267,0.04495712369680405,-0.055138081312179565,-0.02080310881137848,0.013900582678616047,0.005715393926948309,-0.061572927981615067,0.01988128386437893,-0.008652509190142155,0.05148075893521309,-0.03958557918667793,-0.058238573372364044,0.04548073932528496,-0.05684583634138107,-0.009860563091933727,-0.024462733417749405,-0.0448441281914711,-0.04865625128149986,-0.05404425039887428,0.0019502840004861355,0.04939313232898712,-0.011721991933882236,0.01605195738375187,0.004783420357853174,0.00745769590139389,-0.02410471998155117,0.021585147827863693,-0.027110634371638298,0.059931766241788864,-0.02889953926205635,0.04314545542001724,-0.04610951989889145,-0.027334196493029594,-0.06058451905846596,0.03349028155207634,-0.04161931574344635,-0.06106182932853699,0.030951092019677162,0.041503697633743286,0.042190369218587875,-0.03930803760886192,-0.024155383929610252,0.06046075001358986,0.057951487600803375,0.03898061066865921,-0.04203423857688904,-0.016912205144762993,0.05011763051152229,-0.00029326084768399596,0.03159584105014801,-0.018984394147992134,0.05390966683626175,-0.012721557170152664,-0.033859431743621826,-0.005616443231701851,0.01725681498646736,-0.0025459995958954096,-0.054266128689050674,-0.05559844896197319,-0.013692153617739677,-0.045516904443502426,0.002953477203845978,0.03958343341946602,-0.018490012735128403,-0.017729222774505615,0.012802097015082836,-0.025919336825609207,0.01396759320050478,0.060649722814559937,-0.023937635123729706,-0.01829838566482067,-0.014681548811495304,0.059666574001312256,-0.037859585136175156,-0.03821296617388725,0.039863765239715576,0.05682019144296646,0.05551351234316826,0.05399252846837044,-0.0502617210149765,-0.014328892342746258,-0.026857957243919373,0.009807753376662731,-0.03318498656153679,0.0023149955086410046,-0.02215980738401413,-0.02850145660340786,-0.01611684449017048,0.037194445729255676,0.021767782047390938,-0.018825145438313484,0.04459027200937271,0.003639895934611559,-0.011034366674721241,-0.030431408435106277,-0.030653957277536392,-0.0035611435305327177,-0.05654258280992508,0.060093704611063004,0.04788309335708618,-0.034132473170757294,0.0349896140396595,-0.001223848550580442,-0.031159915030002594,0.016118327155709267,0.034581348299980164,0.040477454662323,-0.04860951378941536,-0.0146251255646348,-0.016030000522732735,0.012559261173009872,0.011355112306773663,-0.02329065091907978,0.03671297803521156,0.06043407693505287,-0.0019170024897903204,0.03894517570734024,0.00033917854307219386,-0.039613302797079086,0.05892137065529823,-0.033213283866643906,0.019101904705166817,0.05303358659148216,0.03898605704307556,-0.010553157888352871,0.061406079679727554,-0.05637691169977188,-0.04000566154718399,0.05764766409993172,-0.049493882805109024,-0.0018686559051275253,-0.005579384043812752,0.020189914852380753,0.009341945871710777,-0.05654934048652649,0.0024101389572024345,-0.05698904022574425,-0.04572892561554909,-0.05396633222699165,0.05495787411928177,0.045573461800813675,-0.0288599394261837,-0.05203188955783844,-0.01587809808552265,-0.050404369831085205,0.04659773036837578,0.018836328759789467,-0.006177320145070553,-0.021693844348192215,-0.013931659050285816,-0.03687627613544464,0.0007309504435397685,-0.025666257366538048,-0.05019518360495567,0.03267422318458557,-0.038273196667432785,-0.02274894528090954,-0.02156590297818184,0.051030661910772324,0.025933388620615005,-0.03720048815011978,-0.03548947721719742,0.0156579427421093,-0.05259087309241295,-0.014164764434099197,0.00659162225201726,-0.005218837410211563,0.02634243853390217,0.05905459448695183,-0.0485379658639431,-0.04830443486571312,0.037698809057474136,-0.022406138479709625,0.006128906272351742,-0.044343553483486176,-0.017140131443738937,-0.030158041045069695,0.028726784512400627,-0.03023338131606579,-0.0077766310423612595,0.054327238351106644,0.06162431463599205,0.0621575191617012,-0.014005464501678944,-0.03190450742840767,0.05812147259712219,-0.04612395912408829,0.00651745218783617,-0.031204693019390106,-0.029049675911664963,0.04963184520602226,0.03871744126081467,-0.005300130229443312,0.020798467099666595,0.06189519539475441,0.039242830127477646,0.05660732090473175,0.04183409363031387,-0.03520502522587776,-0.028478657826781273,0.02991228550672531,-0.02249685674905777,-0.027669627219438553,-0.01257127895951271,0.007829984650015831,-0.00153139210306108,-0.05456109717488289,-0.018771853297948837,-0.03290791064500809,-0.033460382372140884,0.03146211802959442,-0.03159252554178238,-0.024801166728138924,0.0310016218572855,-0.039158206433057785,0.023796185851097107,-0.01321087870746851,0.00714705279096961,-0.057198476046323776,0.06061004474759102,-0.04651659354567528,0.041685543954372406,0.020657755434513092,0.03261131793260574,-0.027859823778271675,-0.022601095959544182,0.018154172226786613,-0.027293963357806206,0.039076630026102066,0.05087155103683472,-0.0367814339697361,-0.05006198212504387,-0.042556192725896835,0.05283862724900246,-0.03238256275653839,0.0038346382789313793,-0.04461449384689331,0.04393282160162926,0.026627518236637115,-0.014993368647992611,-0.05038684606552124,0.05781403183937073,-0.013022312894463539,0.03640260174870491,-0.02825460582971573,0.013366512954235077,-0.042500440031290054,0.04543963447213173,-0.061845529824495316,-0.05545656755566597,-0.04405607655644417,0.0005248237284831703,-0.02250007539987564,-0.014013846404850483,0.019371122121810913,0.05183159559965134,0.030702786520123482,0.017492586746811867,-0.00881038699299097,0.032344985753297806,0.03773307427763939,-0.029935963451862335,-0.001614182605408132,0.0025625398848205805,-0.0018065033946186304,-0.0199357308447361,-0.021379737183451653,-0.0022612919565290213,0.005913853645324707,-0.03396759182214737,0.02853701077401638,0.06004738435149193,-0.05409106984734535,0.005449848715215921,-0.06124059855937958,0.04780451953411102,0.02648368664085865,0.018839271739125252,-0.018171360716223717,0.009360237047076225,-0.036431338638067245,-0.010862937197089195,0.009818385355174541,0.04886019229888916,-0.06166158244013786,0.06170089915394783,-0.046704668551683426,-0.031952690333127975,0.034338995814323425,-0.02837030589580536,-0.03709352761507034,0.029281901195645332,-0.020704135298728943,0.048945650458335876,0.03460237756371498,-0.01597006805241108,0.04370519891381264,-0.04898203909397125,0.027211716398596764,-0.009625095874071121,0.05829952657222748,0.04420997574925423,0.02211371250450611,0.008226368576288223,0.010009245947003365,0.018508438020944595,-0.01937498152256012,-0.024668339639902115,0.04416206106543541,-0.0535380020737648,0.039681676775217056,-0.012294536456465721,0.0007543302490375936,-0.05256040021777153,-0.06081081181764603,0.05068209022283554,0.018047770485281944,-0.004047969356179237,-0.003860029624775052,-0.025074774399399757,-0.04855715110898018,0.010927860625088215,-0.007110456004738808,0.05737808719277382,0.035821057856082916,0.053744152188301086,0.008553924039006233,-0.0020816519390791655,-0.01599871553480625,0.019067028537392616,0.02689339965581894,-0.031210795044898987,-0.015442212112247944,0.04131036996841431,0.058559250086545944,-0.03754464536905289,-0.013738302513957024,0.011542754247784615,-0.027443889528512955,0.056189119815826416,-0.026592472568154335,0.05548115447163582,-0.035657867789268494,0.05935119837522507,0.006673220545053482,-0.009044057689607143,-0.010340936481952667,0.014166805893182755,0.008104521781206131,0.05954420566558838,-0.05680512636899948,-0.02832379937171936,0.04371679946780205,-0.053439341485500336,0.05376601219177246,0.011065487749874592,0.01004515029489994,0.00860557146370411,0.00353792030364275,0.05305132642388344,-0.0014014621265232563,0.054020460695028305,-0.03725242614746094,-0.03989126533269882,0.05219586193561554,-0.05893372371792793,0.04732785373926163,0.011546226218342781,-0.04673950746655464,0.023425409570336342,-0.020611854270100594,0.014511244371533394,0.044052738696336746,-0.0008638681611046195,-0.008322800509631634,-0.051772601902484894,-0.05322958528995514,0.0029953941702842712,-0.022624431177973747,0.019009077921509743,-0.05907369777560234,-0.04919315129518509,-0.023251445963978767,0.041328758001327515,0.05826310068368912,-0.05860282853245735,0.05385958403348923,0.021974237635731697,0.022517500445246696,-0.04831370338797569,-0.02840595692396164,-0.022375360131263733,-0.02373749017715454,-0.014131162315607071,0.0312182679772377,0.031079068779945374,0.05882800742983818,-0.003811303060501814,-0.044859930872917175,0.03505777195096016,0.04061194136738777,0.030044829472899437,0.056794606149196625,-0.06195203587412834,0.051043551415205,-0.06047317758202553,-0.0025625175330787897,0.05970007926225662,-0.0035854026209563017,-0.0463719442486763,-0.042486947029829025,0.014156367629766464,-0.001425169757567346,-1.454346056561917e-05,0.006153888069093227,0.01469454262405634,0.05929967761039734,-0.0008564324816688895,-0.015395288355648518,-0.03835505247116089,-0.026583032682538033,-0.04001069813966751,0.023062165826559067,-0.014509344473481178,0.02326439507305622,0.002675348427146673,0.017547795549035072,-0.012922811321914196,-0.04557554051280022,-0.0294897872954607,0.02938799001276493,-0.04116244986653328,0.0376473106443882,-0.05430581048130989,-0.0615212507545948,0.022975366562604904,0.009168527089059353,-0.002850846154615283,-0.05317729339003563,-0.029741384088993073,0.004158408846706152,0.02676662802696228,-0.0339290127158165,-0.022966179996728897,0.04988251253962517,-0.043853212147951126,0.03702128678560257,-0.011329579167068005,0.008823269046843052,0.035023968666791916,0.0244264118373394,-0.0017468469450250268,-0.061240531504154205,0.05225297808647156,0.0036987029016017914,0.023481616750359535,0.04366539046168327,-0.019727354869246483,-0.008266132324934006,0.026606060564517975,-0.04706208035349846,-0.03750303387641907,-0.043368563055992126,0.052906472235918045,-0.05808786302804947,-0.056142065674066544,0.02307697758078575,0.04700029268860817,-0.010051758959889412,0.06131977587938309,-0.004641055129468441,-0.02146949991583824,-0.0004596687213052064,0.03797910735011101,0.0013704827288165689,0.0444984957575798,0.04369441792368889,0.03435268998146057,-0.03999341279268265,-0.03904987871646881,0.04284811019897461,-0.05455014482140541,0.0012258825590834022,0.029643885791301727,0.05836952477693558,0.061755891889333725,-0.037139832973480225,0.05561454966664314,-0.020074430853128433,-0.015545416623353958,-0.03949132189154625,-0.03859618306159973,-0.00011019353405572474,-0.0479314848780632,-0.021242773160338402,0.058354735374450684,0.04745522886514664,-0.041657403111457825,-0.05812304466962814,-0.03014826588332653,0.050715766847133636,-0.03397810459136963,-0.02879497967660427,-0.062230147421360016,-0.045453350991010666,0.016789695248007774,-0.012308163568377495,0.02290356531739235,-0.03256193548440933,-0.0009993041167035699,0.038515783846378326,-0.05735263600945473,-0.04890403151512146,-0.018962474539875984,0.038973741233348846,0.06190652772784233,0.027130862697958946,0.025055015459656715,0.04351775348186493,0.0005416619242168963,0.05892935022711754,-0.03733247518539429,-0.012993717566132545,0.0016875554574653506,0.059813208878040314,-0.03415127843618393,0.006637197453528643,0.012068643234670162,0.023870736360549927,0.031049007549881935,0.05488616228103638,0.04251615330576897,-0.018835367634892464,0.02479025162756443,0.020181264728307724,0.05490374565124512,-0.048182565718889236,0.048731137067079544,0.04601652920246124,-0.05979844927787781,-0.04520006105303764,-0.024152053520083427,0.03970051929354668,-0.029557960107922554,0.035020988434553146,-0.03683267533779144,0.053908571600914,0.014207828789949417,0.021954672411084175,-0.039540793746709824,-0.04618129879236221,-0.006922620348632336,0.00544902915135026,-0.010121146216988564,-0.057225171476602554,-0.04784393310546875,0.037052445113658905,-0.03555633872747421,-0.001843718928284943,0.03317994996905327,-0.0028032371774315834,-0.01944439858198166,-0.02744096890091896,-0.01373228244483471,0.0621606707572937,0.01743323542177677,-0.021875405684113503,0.033502351492643356,-0.029389912262558937,0.03651579096913338,-0.01646866649389267,0.006056844722479582,0.0006032034289091825,0.06205267086625099,-0.04657752439379692,0.037239767611026764,-0.0026574002113193274,-0.055690351873636246,-0.05700927600264549,0.054895251989364624,0.028201110661029816,-0.0025728216860443354,-0.007773039862513542,0.005882695782929659,0.02841821312904358,-0.012673471122980118,0.02507123537361622,0.01956753246486187,-0.024120619520545006,-0.0019719055853784084,0.0616169311106205,0.06057363376021385,-0.005442904774099588,0.003932642750442028,0.052665624767541885,0.03187154605984688,0.057349223643541336,0.030362825840711594,-0.030072344467043877,-0.050048891454935074,-0.0036840999964624643,-0.057763680815696716,0.03817048296332359,-0.009382074698805809,0.01866685226559639,-0.06192852184176445,0.05873718485236168,-0.01716085895895958,-0.010852081701159477,-0.032507434487342834,-0.01386899221688509,0.05383884161710739,-0.05672289431095123,0.026091430336236954,0.05305541679263115,0.03895600885152817,-0.045746926218271255,0.022414758801460266,0.04966895654797554,0.05385804921388626,-0.059077125042676926,0.04200872778892517,-0.05760772153735161,0.021794723346829414,-0.00649311114102602,-0.03366146609187126,0.03901276737451553,0.015689771622419357,-0.020119626075029373,-0.02850685827434063,0.04916366934776306,-0.02628851868212223,-0.05926419794559479,0.05401068553328514,0.030215589329600334,0.055399589240550995,0.017920173704624176,0.029880963265895844,-0.053858764469623566,-0.026413800194859505,0.027200674638152122,0.053186770528554916,0.031945500522851944,0.06040677800774574,-0.012179120443761349,-0.05239658057689667,0.03681947663426399,0.06176053360104561,-0.054447997361421585,0.027106260880827904,0.05245465040206909,0.03902842104434967,-0.02810000628232956,0.03376979008316994,-0.05074010044336319,-0.018892833963036537,-0.044881150126457214,-0.010168933309614658,-0.04621228575706482,-0.041833266615867615,0.04540726915001869,-0.005000126548111439,0.05074003338813782,-0.05505809932947159,-0.031007224693894386,0.024336351081728935,0.0019736639223992825,-0.018810542300343513,0.05279849097132683,-0.0555267296731472,0.009177117608487606,-0.009556335397064686,0.022937510162591934,0.010622530244290829,0.048531752079725266,-0.052823495119810104,0.02354137785732746,-0.01722688600420952,-0.01597018726170063,0.035546623170375824,0.010208853520452976,-0.030907699838280678,0.007388681638985872,0.011485876515507698,-0.02300979569554329,0.005506629589945078,0.03749588131904602,0.034104183316230774,0.02828221023082733,-0.007107408717274666,-0.005941532552242279,0.0034656499046832323,-0.028411366045475006,-0.015553686767816544,0.016919536516070366,-0.013998259790241718,-0.05661989748477936,0.056163426488637924,-0.010575040243566036,0.04020038992166519,0.0483013354241848,-0.015164671465754509,0.01505193766206503,-0.045341040939092636,-0.04875107854604721,-0.015621382743120193,-0.028198756277561188,0.04595348238945007,-0.023513900116086006,-0.05629630386829376,0.013530499301850796,0.007023649290204048,-0.002264853334054351,-0.04634557664394379,0.012290773913264275,0.003924611024558544,-0.0559876449406147,0.00795253086835146,0.04881001263856888,-0.05971618741750717,0.03809460625052452,-0.007560908328741789,0.024880627170205116,-0.015276728197932243,-0.03852961212396622,0.03262212872505188,-0.03871539235115051,0.022908050566911697,0.04125082865357399,-0.01923219859600067,-0.001250067027285695,-0.027956122532486916,0.019666342064738274,-0.028314068913459778,0.0478481650352478,0.03272128850221634,-0.028673460707068443,0.04270302876830101,-0.052023425698280334,-0.02762788161635399,-0.03302697837352753,-0.01065181102603674,0.05523177236318588,0.014723368920385838,0.001539610093459487,0.02891423925757408,0.059425242245197296,0.0014954358339309692,-0.027388278394937515,0.003070003818720579,0.03817067667841911,-0.05554277077317238,-0.04289843887090683,0.05412909761071205,-0.06142347678542137,-0.028280973434448242,-0.02557169459760189,0.0345136821269989,0.015695620328187943,-0.014434071257710457,0.00952525157481432,-0.03918413445353508,-0.008688055910170078,-0.04607965052127838,-0.028475573286414146,-0.045676182955503464,0.01607426442205906,0.020220551639795303,-0.018585164099931717,0.05736413225531578,0.0010122605599462986,0.028185687959194183,0.041286300867795944,-0.004988369531929493,-0.046000175178050995,0.045940421521663666,0.015366156585514545,0.001996030332520604,0.033163782209157944,-0.031664762645959854,-0.04984309896826744,0.03727363049983978,-0.04692406579852104,0.021006830036640167,-0.02039533294737339,-0.05474383383989334,-0.026723094284534454,0.040962036699056625,-0.027517925947904587,0.03829663619399071,0.021691706031560898,0.03552105277776718,0.049086377024650574,0.02391383796930313,0.02130928449332714,-0.025728678330779076,0.049901191145181656,0.029178384691476822,0.011787899769842625,-0.04817729815840721,-0.05190977454185486,-0.059215247631073,-0.02183501608669758,0.020028550177812576,0.02964796870946884,0.04198475927114487,-0.002038058824837208,-0.017155978828668594,-0.02821541577577591,0.04984604939818382,0.045572225004434586,0.01919163018465042,0.021198546513915062,-0.03808353468775749,0.01441899873316288,-0.019145013764500618,-0.019228100776672363,0.026125561445951462,0.049656305462121964,0.012472582049667835,-0.01753581501543522,0.0017636180855333805,-0.019556326791644096,0.01716914400458336,-0.05694633349776268,-0.04866095259785652,-0.029658503830432892,0.007372111547738314,-0.05405275151133537,-0.024700049310922623,0.01727576181292534,0.04558464512228966,0.05353719741106033,0.05656033009290695,0.04809989407658577,-0.01047506183385849,0.014932505786418915,0.030140435323119164,-0.0010742566082626581,0.00389647763222456,-0.006648395676165819,0.030448947101831436,0.011914707720279694,-0.03410710394382477,0.014270502142608166,-0.03942348435521126,-0.003909650258719921,-0.006976375821977854,-0.027833351865410805,0.03458744287490845,-0.011150900274515152,0.06150287017226219,-0.014281178824603558,0.01481638103723526,-0.025159135460853577,0.012288739904761314,-0.021116865798830986,0.010114016011357307,0.04447922855615616,-0.017107393592596054,0.061911169439554214,0.0033673997968435287,0.01999732479453087,0.020853787660598755,-0.03761327639222145,0.049889858812093735,0.012177570722997189,0.023057762533426285,0.044766172766685486,-0.004211352672427893,-0.047731176018714905,0.05393392592668533,0.04339738190174103,-0.024599503725767136,0.005420240573585033,-0.05541042238473892,0.0022793894167989492,0.010049978271126747,0.015272220596671104,0.020170267671346664,0.05603344365954399,-0.029508354142308235,-0.03152237832546234,0.006372017320245504,0.02847626619040966,0.013643465004861355,0.04103701189160347,0.03951571509242058,0.024024730548262596,-0.04989083483815193,0.05799318850040436,0.043466657400131226,-0.026099752634763718,-0.041046809405088425,-0.015051095746457577,0.0023548335302621126,0.04251210018992424,0.029420526698231697,-0.02723117731511593,-0.05184333026409149,0.05632550269365311,0.011876501142978668,0.05544370785355568,0.02986815571784973,-0.0030471901409327984,0.015596847981214523,-0.03469167277216911,0.029238061979413033,-0.004015828017145395,0.03421158343553543,-0.00564067205414176,-0.042569857090711594,0.057150956243276596,-0.037814911454916,0.005325894337147474,-0.05214407294988632,0.035190243273973465,-0.03430140018463135,-0.05978521704673767,0.005032789893448353,-0.03885570913553238,0.053762227296829224,0.046874526888132095,-0.021604645997285843,-0.02969689667224884,-0.04075675085186958,0.04841338470578194,-0.038128022104501724,0.024082360789179802,0.05192462354898453,-0.04054553806781769,-0.033146996051073074,-0.05417434498667717,0.035265784710645676,-0.044870615005493164,-0.038880012929439545,-0.024304134771227837,-0.001431159907951951,-0.013174095191061497,0.05843575671315193,-0.05647697299718857,0.05682481825351715,-0.015387547202408314,0.032110925763845444,0.04808579012751579,-0.04554998502135277,0.0166414063423872,0.055797357112169266,-0.0533272847533226,0.0281776562333107,-0.050470396876335144,0.02778160758316517,-0.013323277235031128,0.0454670675098896,0.005608396604657173,0.007659352384507656,0.02004517987370491,-0.04969169571995735,-0.058645252138376236,0.057582173496484756,0.037453241646289825,-0.01816668175160885,-0.017936013638973236,-0.05003629997372627,-0.03765341266989708,-0.019954878836870193,-0.05873488262295723,-0.05089206248521805,0.011412116698920727,-0.05393633246421814,0.04947485774755478,-0.010604477487504482,0.009281998500227928,-0.0077619836665689945,0.013576983474195004,-0.03490550443530083,-0.04594457149505615,-0.016469426453113556,-0.029102493077516556,0.03607810288667679,-0.029570305719971657,0.020001236349344254,-0.006822157185524702,-0.02952280081808567,-0.0005265001091174781,0.033019110560417175,-0.0003170280542690307,-0.05165417864918709,0.034013085067272186,0.014115262776613235,0.04987064376473427,0.007843537256121635,0.018715117126703262,-0.002164710545912385,0.008659088052809238,-0.010682775638997555,-0.05198513716459274,0.027501773089170456,0.014382253400981426,-0.058842312544584274,-0.04389965906739235,0.023473801091313362,0.024838799610733986,0.061706941574811935,0.0001658490946283564,0.052841637283563614,-0.005116057116538286,0.04501929506659508,-0.04256938770413399,-0.020813539624214172,-0.018518846482038498,-0.06031088903546333,-0.01309959776699543,-0.0530681274831295,0.02275325171649456,-0.06059454753994942,0.005780615843832493,0.0317571796476841,-0.04363439604640007,-0.000809106626547873,-0.014374750666320324,0.00463156308978796,0.053847648203372955,-0.023298392072319984,-0.051908016204833984,-0.02369736135005951,-0.046848196536302567,-0.036247190088033676,0.06004757806658745,0.05152137205004692,-0.03945678099989891,0.049534644931554794,0.03381073847413063,-0.02206929214298725,-0.023003239184617996,0.021782996132969856,0.02568919025361538,0.05451953783631325,0.043716926127672195,0.004846593365073204,0.009615566581487656,-0.032645776867866516,0.006785701494663954,-0.05535583943128586,-0.029475117102265358,-0.0581049770116806,0.04921507090330124,-0.05734102055430412,0.05792509764432907,0.011344815604388714,0.013728884980082512,-0.05786413699388504,-0.04605742543935776,-0.023265870288014412,0.019044438377022743,0.057801179587841034,-0.028327487409114838,0.014252263121306896,0.0554349459707737,0.010902737267315388,0.012431521899998188,-0.029681213200092316,0.026165347546339035,0.03619282320141792,-0.043395787477493286,0.033462394028902054,0.021304292604327202,-0.01079760305583477,0.0021832252386957407,-0.029383281245827675,0.022304117679595947,0.04276653006672859,-0.020694904029369354,0.031327344477176666,-0.03611070290207863,4.6141212806105614e-05,-0.04570959135890007,-0.026628419756889343,-0.03780682757496834,0.013086268678307533,0.05989227443933487,0.00712559511885047,0.026255326345562935,-0.011876501142978668,0.05275287106633186,0.06048891320824623,0.0020085175056010485,0.002547541866078973,0.015368198044598103,0.05036050081253052,0.03152375668287277,0.03822401538491249,0.001130746561102569,0.021616365760564804,0.05597291514277458,0.015084034763276577,-0.031545139849185944,0.04542633518576622,-0.019638126716017723,-0.04252805933356285,-0.02997591905295849,-0.0033848488237708807,-0.06093382090330124,-0.017038125544786453,0.051118459552526474,0.041788384318351746,0.033049777150154114,0.005077120382338762,0.048617590218782425,-0.018961841240525246,-0.01805308274924755,-0.0017905667191371322,0.03758681192994118,0.05063831806182861,0.001937104039825499,0.004085788503289223,0.05858577415347099,-0.011221569031476974,0.04167647659778595,-0.03578140586614609,-0.04450137913227081,0.05050498992204666,-0.062147416174411774,0.0031486963853240013,0.05383004993200302,-0.016904516145586967,-0.04510354623198509,-0.013044172897934914,-0.03532347455620766,-0.03551999479532242,0.023264409974217415,-0.05805998295545578,-0.05482238531112671,0.03275483846664429,0.05849101021885872,-0.020919397473335266,0.052437834441661835,-0.014795571565628052,-0.023899853229522705,-0.05725422874093056,-0.019099706783890724,-0.004206785466521978,-0.0034738678950816393,-0.04169674962759018,0.05079646408557892,0.028510285541415215,-0.008199598640203476,-0.058520738035440445,0.04144873470067978,-0.033854492008686066,-0.03761638328433037,-0.06202470883727074,-0.05430035665631294,0.005244974046945572,0.014994836412370205,-0.04155424237251282,0.017846867442131042,-0.04994124546647072,0.03137492388486862,0.05952868610620499,0.056287460029125214,0.030462075024843216,0.006772975903004408,0.03900355100631714,-0.008270446211099625,-0.057506125420331955,-0.048033859580755234,0.056132201105356216,0.05320984870195389,0.029627814888954163,-0.026583949103951454,0.04391275718808174,0.028588218614459038,-0.03916743025183678,0.03138698637485504,0.023687489330768585,-0.0090751638635993,-0.024477627128362656,0.05321694165468216,0.06218285858631134,0.04059373959898949,-0.04999683424830437,-0.012676414102315903,-0.0570184551179409,0.03422527760267258,-0.0472504198551178,0.0037964913062751293,0.030390825122594833,0.003058000933378935,0.029630668461322784,0.04608116298913956,-0.03600424528121948,0.014866292476654053,-0.05093379318714142,0.019818900153040886,-0.019358910620212555,0.041366174817085266,-0.061364807188510895,-0.05996562913060188,0.04528691992163658,0.0482298918068409,-0.049671631306409836,0.04511614516377449,-0.043647993355989456,-0.05180353671312332,-0.04635820537805557,0.01693476364016533,0.001988907577469945,0.03145461529493332,0.027346398681402206,-0.043895822018384933,-0.05961170047521591,-0.011857450008392334,0.022689146921038628,0.017921961843967438,-0.06129541993141174,0.01323136780411005,-0.005725041963160038,-0.013823522254824638,-0.02933587320148945,0.018560077995061874,0.05818972736597061,-0.02098441869020462,-0.04869448021054268,0.016307324171066284,-0.042676594108343124,0.03276202827692032,-0.05712480470538139,0.004131810739636421,0.0614122711122036,0.017133381217718124,0.025137662887573242,-0.05670487880706787,0.019086772575974464,-0.047504790127277374,-0.029019612818956375,-0.02141578122973442,0.0386204868555069,0.029016200453042984,0.041882604360580444,0.024385925382375717,-0.013563781045377254,-0.03595690429210663,0.050537556409835815,0.01202791091054678,-0.007846331223845482,-0.026825405657291412,-0.028660347685217857,0.0394107960164547,0.02665790170431137,0.014487558975815773,-0.04022097587585449,-0.03665110841393471,0.04051189124584198,0.034004658460617065,-0.05300094559788704,0.03733299672603607,-0.05510213226079941,0.0036934802774339914,0.008136700838804245,-0.05385361611843109,0.028695454820990562,0.018919864669442177,0.00756335211917758,-0.05642087757587433,0.052377745509147644,0.012486976571381092,0.05869002267718315,-0.0015432757791131735,-0.0050922599621117115,0.01819664053618908,0.05640526860952377,-0.05833994597196579,0.002299185609444976,-0.03608199954032898,-0.03547137975692749,0.010470077395439148,-0.015183134004473686,-0.03387587517499924,-0.06094856560230255,-0.028578748926520348,-0.05111602321267128,-0.01863182708621025,-0.05436171963810921,0.04522961750626564,0.04557385668158531,-0.03487169370055199,0.016714779660105705,-0.002380932914093137,-0.03841544687747955,0.04338653385639191,0.0012919986620545387,-0.008918695151805878,-0.04689403250813484,0.021793590858578682,0.011515164747834206,0.05471038073301315,0.01306968368589878,0.029801681637763977,-0.023243028670549393,-0.004260689951479435,0.023778140544891357,-0.02053687907755375,0.03285554051399231,0.02602348104119301,-0.0384373739361763,-0.01258254423737526,0.0015156118897721171,-0.0003642570518422872,-0.05886896327137947,0.022713785991072655,0.036188755184412,0.0035791739355772734,0.012055463157594204,0.014149237424135208,0.0001856749877333641,-0.015210060402750969,-0.05387687683105469,-0.026246728375554085,-0.011480631306767464,0.0518471822142601,0.0469355471432209,0.03665182366967201,-0.02426762692630291,0.012886698357760906,-0.03445727378129959,-0.021703284233808517,-0.05693274363875389,-0.04126780107617378,0.009531279094517231,0.023991577327251434,-0.0005405369447544217,-0.052960354834795,0.010366171598434448,-0.005909755825996399,0.04019737243652344,0.027363520115613937,-0.011439572088420391,-0.05058525502681732,-0.05437907949090004,-0.03369970992207527,0.021355679258704185,0.024553511291742325,0.05863345041871071,-0.05158873274922371,-0.028088048100471497,0.04086276516318321,-0.05211859196424484,0.04470546543598175,-0.0031364404130727053,-0.023189660161733627,-0.037942368537187576,0.004595487844198942,-0.03338976576924324,-0.05423063412308693,-0.042212050408124924,-0.003003164893016219,0.05327233672142029,-0.060642510652542114,0.03886430710554123,0.0015714908950030804,-0.053516387939453125,0.006731335073709488,0.02692417800426483,-0.01017856691032648,-0.04716913029551506,-0.011968456208705902,-0.05780450999736786,0.00717253377661109,-0.015304824337363243,-0.0608985498547554,-0.003559139324352145,-0.034703578799963,-0.03656718507409096,0.021136535331606865,-0.0583023726940155,0.018569935113191605,0.05913097783923149,0.018008381128311157,0.06085137277841568,0.005623349919915199,0.05206014961004257,-0.030447129160165787,0.03730059415102005,-0.01647915691137314,0.042945899069309235,0.024323856458067894,0.015040180645883083,0.026977231726050377,0.019870808348059654,0.026033271104097366,0.012096880935132504,0.024211233481764793,-0.010389775037765503,0.0010950659634545445,-0.05890907719731331,0.018370812758803368,-0.04232945665717125,0.017531724646687508,-0.03667531535029411,-0.024510901421308517,-0.011291581206023693,-0.040712010115385056,-0.00558348186314106,-0.05115792527794838,-0.023967713117599487,-0.047839947044849396,-0.0455019511282444,0.004890752490609884,0.0018636640161275864,-0.0547955259680748,-0.02116219513118267,-0.0314856693148613,0.044887468218803406,-0.004076587036252022,-0.03673307225108147,-0.017959825694561005,0.005998142063617706,0.02260398678481579,-0.04251739755272865,-0.0360289141535759,-0.05463992431759834,0.026594409719109535,0.04519600048661232,0.028898898512125015,0.05486369878053665,0.04586359113454819,0.028894279152154922,0.023906424641609192,0.03199354186654091,0.04669157788157463,-0.05377126485109329,0.037891093641519547,-0.007062280550599098,0.020986482501029968,-0.032998353242874146,-0.03415802866220474,-0.018940480425953865,0.02482897974550724,-0.014045987278223038,0.024558868259191513,-0.039330970495939255,0.03137984126806259,-0.037963639944791794,-0.02113235555589199,0.03717631846666336,-0.019174136221408844,0.00792007613927126,-0.04247499629855156,0.02971784770488739,0.00296638160943985,-0.013630456291139126,0.024856986477971077,-0.06033416464924812,-0.00944789219647646,-0.0565507709980011,-0.05356426537036896,0.03104364313185215,-0.049234941601753235,-0.055518727749586105,0.02288852259516716,-0.04782745987176895,-0.024798201397061348,0.0033747681882232428,0.04326997697353363,0.015891367569565773,-0.007084185257554054,0.023830950260162354,0.04875985532999039,-0.05588390305638313,0.025464236736297607,-0.04261540248990059,-0.01940755546092987,-0.04188834875822067,0.06184075400233269,-0.05463595315814018,0.04685067757964134,-0.02577648125588894,0.03380737081170082,0.013783520087599754,-0.009045778773725033,-0.055160731077194214,-0.00884237140417099,0.030241606757044792,-0.034443728625774384,0.014745124615728855,0.0567309632897377,0.03848321735858917,-0.01557934656739235,0.05914780870079994,-0.04619946330785751,-0.05169513449072838,0.02973363548517227,0.004246854223310947,-0.023427726700901985,0.011358465068042278,0.04807157441973686,-0.04270387813448906,-0.00973573699593544,0.04754424840211868,0.049398861825466156,0.023638345301151276,0.02408640645444393,-0.04793251305818558,0.041172321885824203,-0.009415765292942524,0.04966341331601143,-0.05678762495517731,0.006568093318492174,-0.024759428575634956,0.04223104193806648,0.013346187770366669,-0.03884945064783096,0.03851178288459778,-0.0489921048283577,0.03067275509238243,0.020090322941541672,0.0311739519238472,-0.04304920881986618,-0.007417537271976471,0.011247444897890091,-0.031557999551296234,-0.013146170414984226,0.04317940026521683,0.008298586122691631,-0.043024495244026184,-0.004649876616895199,0.056233592331409454,0.004833376035094261,0.05635649710893631,0.026874929666519165,-0.025204040110111237,0.05363159626722336,0.002821394009515643,0.0008147914195433259,0.05973770469427109,0.035147834569215775,-0.050612933933734894,-0.061291441321372986,0.0550350695848465,-0.02281886897981167,-0.038746848702430725,-0.042040903121232986,0.0341101735830307,0.024881096556782722,-0.020969383418560028,-0.044533804059028625,-0.033302415162324905,0.03587965667247772,0.059638164937496185,0.01199011504650116,-0.00584873603656888,-0.06072021275758743,0.04888390749692917,0.026755139231681824,-0.009787875227630138,-0.06001276895403862,0.0530322827398777,-0.05559440329670906,-0.05126972869038582,-0.0006491956301033497,-0.060205016285181046,0.03377396985888481,0.023070987313985825,-0.042086828500032425,0.028860170394182205,0.05237686634063721,0.004549249541014433,-0.016341805458068848,0.02236974984407425,0.0018657725304365158,0.029452497139573097,0.032145824283361435,-0.04328339546918869,0.05193433165550232,-0.04768013209104538,-0.030785659328103065,-0.06039075180888176,0.04600968211889267,0.010558648966252804,-0.006517496891319752,0.016097063198685646,-0.03810713067650795,0.008753807283937931,-0.040413692593574524,0.05991481617093086,-0.043747562915086746,-0.003217636374756694,0.019887497648596764,0.03627699986100197,0.012257946655154228,0.03091144748032093,0.028788363561034203,-0.04351574182510376,-0.004734149668365717,-0.050220344215631485,0.019106993451714516,0.015461650677025318,0.061167843639850616,-0.05279894545674324,-0.011655681766569614,-0.008046743459999561,0.024421554058790207,-0.05863801762461662,-0.05965673178434372,-0.05567023530602455,0.053341343998909,-0.03964386507868767,0.008791030384600163,-0.036780860275030136,0.027464699000120163,0.03926459327340126,-0.011979848146438599,0.003125696675851941,0.03123805671930313,-0.02430838905274868,-0.0047013224102556705,-0.02785288728773594,-0.042405758053064346,0.053998809307813644,0.04530896618962288,0.03335307165980339,0.054473597556352615,-0.005138691980391741,-0.014889277517795563,0.048968710005283356,0.0333753265440464,-0.04550032690167427,-0.00914489384740591,-0.0014427828136831522,-0.05665608495473862,0.04396384581923485,-0.027974935248494148,-0.03466295078396797,-0.05927056074142456,-0.05621953308582306,-0.0436834879219532,-0.03662249818444252,0.03191852197051048,0.029288331046700478,-0.015695292502641678,0.04314468801021576,-0.06191440299153328,0.03574787825345993,-0.03874378651380539,0.005495185498148203,0.05615149810910225,-0.06005203351378441,-0.041913583874702454,-0.02686256170272827,-0.01500475313514471,-0.007097328081727028,-0.02516987919807434,-0.010021360591053963,-0.00949366856366396,0.004323028959333897,-0.04522049054503441,-0.035392746329307556,0.05214330554008484,-0.0113756088539958,-0.01990417018532753,0.013295368291437626,0.032046716660261154,0.017964959144592285,0.018880562856793404,-0.013167248107492924,0.020173650234937668,0.021449800580739975,-0.0428021177649498,-0.03431682288646698,0.055657219141721725,-0.012829775922000408,0.049370743334293365,-0.025865618139505386,0.03349341079592705,0.03391718864440918,-0.04043395817279816,-0.051590073853731155,-0.003506277920678258,0.034370794892311096,0.022915590554475784,-0.011961452662944794,0.06006069853901863,0.052616942673921585,-0.026269035413861275,-0.06141116842627525,0.03330620005726814,0.054872602224349976,0.0446518212556839,-0.02945804037153721,0.028077954426407814,0.005822368431836367,-0.018527809530496597,0.022205866873264313,-0.05690040439367294,-0.03142377734184265,0.02128894440829754,0.05799223482608795,0.03956079110503197,-0.010707629844546318,0.035887666046619415,0.033042147755622864,-0.020280728116631508,0.038578249514102936,0.00874584261327982,0.015688244253396988,0.04493004083633423,0.02346029318869114,0.014957159757614136,0.007247478701174259,0.0021069615613669157,-0.0021981860045343637,-0.034266695380210876,-0.031684186309576035,0.029980679973959923,0.049846868962049484,0.02370663732290268,-0.05303841456770897,-0.018532786518335342,-0.05304183438420296,-0.028718186542391777,0.021880635991692543,0.06206103041768074,0.046529363840818405,-0.03153805434703827,0.05169979855418205,-0.007165053393691778,0.001983021618798375,0.01058798935264349,-0.020766936242580414,0.05715791508555412,-0.017215866595506668,-0.050905175507068634,0.01798902451992035,0.060089629143476486,-0.018185948953032494,0.056890130043029785,0.05935616046190262,-0.04597417265176773,0.032621271908283234,0.03203262761235237,0.017875708639621735,-0.041957348585128784,0.0003430826182011515,0.0076933265663683414,0.02659880556166172,-0.03738828003406525,0.0619206540286541,0.021547872573137283,-0.05810028314590454,-0.02485806681215763,-0.05904858186841011,-0.01105585414916277,-0.019673189148306847,-0.012667033821344376,0.004879934713244438,-0.0027475592214614153,-0.03304758667945862,-0.030346009880304337,0.016447648406028748,-0.009186669252812862,-0.00803240854293108,0.012456660158932209,0.02125374786555767,0.019481636583805084,0.01972983591258526,0.005086224991828203,0.05394827947020531,0.00018095879931934178,-0.03571712225675583,0.01877826824784279,-0.0335223563015461,-0.05929895490407944,0.016401126980781555,-0.02310119941830635,-0.012149295769631863,0.052832793444395065,0.04807800427079201,0.017210636287927628,0.010623625479638577,-0.006507803685963154,0.03796740248799324,0.06203238293528557,-0.01783052086830139,0.02886735275387764,-0.010333657264709473,-0.01890566386282444,-0.012174605391919613,-0.004520602058619261,-0.034217946231365204,0.010838186368346214,0.009172632358968258,0.03848525881767273,0.022663285955786705,-0.04211508855223656,-0.015896247699856758,-0.045733530074357986,-0.03748258948326111,0.05346504598855972,0.033931441605091095,-0.027763986960053444,-0.029052574187517166,-0.04709497466683388,0.03420395404100418,-0.006031512748450041,0.036850109696388245,0.00784306786954403,0.05425826087594032,-0.00514080049470067,-0.046490587294101715,0.02325262315571308,-0.02944623865187168,-0.020955994725227356,0.02078516036272049,0.04648806154727936,0.04920855164527893,-0.01748400367796421,-0.04313656687736511,0.020881228148937225,0.005421522073447704,0.03929748758673668,-0.016375407576560974,0.0497879721224308,0.012480144388973713,-0.004653147421777248,0.055710259824991226,0.02925439365208149,-0.020848892629146576,-0.016781961545348167,0.03601273149251938,-0.009480823762714863,0.0580730140209198,-0.006658490747213364,-0.02671448141336441,0.02466311678290367,0.024516243487596512,0.017163004726171494,-0.014851979911327362,-0.05526777356863022,0.038347817957401276,-0.013421379029750824,-0.06000862643122673,0.028497954830527306,0.008153993636369705,-0.03470573201775551,-0.043306320905685425,0.0038155349902808666,0.057315390557050705,-0.055661555379629135,0.042052771896123886,-0.05729709938168526,-0.0023380625061690807,0.04277438297867775,-0.01303972490131855,-0.02814842015504837,-0.0002852515026461333,0.02617289498448372,-0.05689948797225952,-0.04117315635085106,-0.002979859709739685,0.007707199547439814,0.011215005069971085,0.0530371330678463,-0.013247073628008366,-0.012134886346757412,-0.041273925453424454,-0.03836129605770111,0.0234783086925745,0.044497743248939514,-0.018391145393252373,-0.0618971548974514,0.014372008852660656,0.060706354677677155,0.057939887046813965,0.03552010655403137,-0.02122773788869381,0.012235468253493309,0.05669037252664566,0.005022798664867878,-0.061008550226688385,0.023111704736948013,0.005071346182376146,-0.04145689308643341,-0.013550817035138607,-0.028082164004445076,-0.025519704446196556,-0.01867709681391716,0.015315374359488487,0.00810815766453743,0.018224431201815605,-0.05065853148698807,-0.018384499475359917,-0.01653098315000534,0.057117071002721786,0.054210636764764786,-0.053824491798877716,0.05365200340747833,0.03650719299912453,0.05526231229305267,-0.04381423816084862,0.058288201689720154,-0.01799604296684265,-0.0056906952522695065,0.04639233648777008,0.0002551364013925195,0.05798037350177765,-0.018143197521567345,0.037732403725385666,-0.037924472242593765,-0.055836427956819534,0.05671659857034683,0.04136509448289871,0.001246259780600667,-0.053742460906505585,-0.022745555266737938,-0.020339997485280037,-0.002188954735174775,-0.042451318353414536,0.025661667808890343,0.0281231626868248,-0.05828745663166046,-0.0095798559486866,0.06041907146573067,-0.05906998738646507,-0.053655870258808136,0.036024004220962524,0.03996122628450394,-0.016688881441950798,-0.018866190686821938,-0.061731789261102676,0.05263827368617058,0.027246465906500816,-0.021974394097924232,-0.007269763387739658,0.003971094731241465,-0.03202209994196892,-0.04684007540345192,0.015365672297775745,0.019862568005919456,-0.010721666738390923,-0.04614011198282242,-0.059282347559928894,0.02834315598011017,-0.027911612764000893,0.015839094296097755,-0.026854611933231354,-0.03260057419538498,-0.02900400385260582,0.03461119905114174,0.03257919102907181,0.044451914727687836,0.013712739571928978,-0.042380016297101974,-0.026465395465493202,0.008858226239681244,-0.0236998051404953,-0.02966371178627014,-0.0313420444726944,-0.027889924123883247,-0.05926854908466339,-0.04201702028512955,-0.03338698670268059,0.012979576364159584,0.04202385991811752,-0.023927614092826843,0.04154464602470398,-0.011504063382744789,-0.05563242360949516,-0.031123362481594086,-0.06163492426276207,-0.02254614792764187,-0.05029789358377457,-0.028286859393119812,-0.05771715193986893,-0.024646464735269547,-0.027292421087622643,-0.04841121658682823,0.02525247633457184,-0.0453001968562603,-0.04353712126612663,-0.029671460390090942,0.0008576692780479789,-0.04119422659277916,0.060604434460401535,-0.05530020594596863,0.04381675645709038,0.04263092204928398,0.0043245041742920876,-0.007316805887967348,0.015886971727013588,-0.03946149721741676,0.05865253880620003,-0.023491280153393745,-0.01630459725856781,0.03287570923566818,0.03145614266395569,0.04264966771006584,0.019370757043361664,-0.027309102937579155,-0.05839361995458603,-0.05659735947847366,-0.04657034948468208,0.02204090543091297,0.04727039486169815,-0.03898479789495468,0.045130405575037,-0.030307626351714134,-0.02467029169201851,-0.003395883133634925,0.031104132533073425,0.046016253530979156,-0.021547731012105942,0.05665387213230133,-0.05816250294446945,-0.02366974949836731,0.006318246945738792,0.046984124928712845,-0.03860146552324295,0.061474379152059555,0.029900729656219482,-0.0268494114279747,0.0616152249276638,0.03102564997971058,0.00905562099069357,0.023588070645928383,-0.02981630712747574,0.022340871393680573,0.058444712311029434,-0.04422904923558235,-0.033616941422224045,-0.011328714899718761,-0.026163477450609207,0.037406906485557556,-0.020298311486840248,0.05727783218026161,-0.06189071759581566,-0.05434396490454674,-0.020734354853630066,0.030612055212259293,-0.042565327137708664,0.008877016603946686,0.008461195044219494,-0.024238107725977898,0.051553938537836075,0.0301517304033041,-0.060932621359825134,-0.005148184020072222,-0.010538703761994839,-0.012880283407866955,-0.03144374489784241,0.002609783783555031,-0.007368192542344332,-0.028062695637345314,-0.03595802187919617,0.023162659257650375,-0.06100034713745117,-0.011706673540174961,0.05047837644815445,0.0434487983584404,0.014310005120933056,-0.02552826516330242,-0.05145269259810448,-0.005946680903434753,0.03205353394150734,0.02981957048177719,-0.007333338726311922,0.03538050502538681,-0.02818112075328827,-0.002383063780143857,0.0235940832644701,-0.019262410700321198,-0.04761587828397751,-0.0010954533936455846,-0.05764957144856453,0.008871376514434814,0.03812849149107933,0.045247603207826614,-0.042110878974199295,0.06242004781961441,0.008942186832427979,-0.02695896476507187,0.024486545473337173,0.020022768527269363,-0.03494587168097496,0.002516756299883127,-0.0032757059670984745,-0.03924925997853279,0.04627557843923569,-0.05591830983757973,-0.01758829690515995,-0.03980153426527977,0.04957814887166023,-0.0018343162955716252,0.047923073172569275,-0.0036356789059937,-0.05810427665710449,0.02730557881295681,0.0379672609269619,-0.017570415511727333,-0.05287375673651695,-0.006429587956517935,-0.02539076656103134,-0.031288474798202515,-0.05383024364709854,-0.010152922011911869,0.010862356051802635,-0.0505511611700058,-0.05238277465105057,0.050706133246421814,0.0057204971089959145,0.05650927126407623,0.06180744245648384,0.04916295409202576,0.031124353408813477,-0.02571880631148815,-0.04001656174659729,0.033379655331373215,-0.057996079325675964,0.05594230815768242,-0.02384374290704727,-0.017003055661916733,-0.047723278403282166,-0.019892370328307152,0.016509853303432465,0.0043999929912388325,-0.013894115574657917,-0.04564562067389488,-0.030042951926589012,-0.008878171443939209,-0.05021015182137489,-0.0377461276948452,-0.011025344021618366,0.0015176086453720927,-0.0007591209723614156,0.03723365068435669,-0.04432607442140579,0.036987558007240295,0.052730146795511246,0.04631514102220535,-0.013896708376705647,-0.01548111904412508,-0.02631334401667118,0.0206802636384964,-0.02846422605216503,0.033078812062740326,-0.01995229348540306,0.055566925555467606,0.0007042327779345214,-0.0275307334959507,0.04729676991701126,0.014120612293481827,-0.041556328535079956,-0.0056344433687627316,0.051771074533462524,0.04301750659942627,-0.04106663540005684,-0.03559456765651703,0.019821425899863243,0.04008781909942627,-0.0214744471013546,0.018830152228474617,0.029785148799419403,0.008654654957354069,0.02241860330104828,0.01918388158082962,-0.02241608500480652,0.031195275485515594,0.05732710286974907,-0.016872389242053032,0.020301776006817818,0.04783867299556732,0.046857383102178574,-0.061139337718486786,-0.0044787004590034485,-0.002901353407651186,0.031064294278621674,-0.047509342432022095,0.014190856367349625,-0.060268621891736984,-0.023942410945892334,0.05696703866124153,-0.015163486823439598,0.02991557866334915,-0.002244163304567337,0.0617293082177639,0.01545949000865221,-0.024517986923456192,0.05277971550822258,-0.028455041348934174,0.04547411575913429,0.03776263818144798,-0.054725706577301025,-0.024355513975024223,0.003254322800785303,0.054110269993543625,-0.05008130893111229,-0.031858112663030624,0.003080486785620451,-0.027878882363438606,0.0042951637879014015,-0.024655278772115707,0.022486843168735504,-0.050504498183727264,0.007123240735381842,0.00705682672560215,-0.01993289217352867,-0.03869205713272095,-0.01382683776319027,-0.012029535137116909,-0.03571651875972748,-0.013411246240139008,-0.041888028383255005,0.04072166606783867,0.0178377628326416,-0.05135010555386543,0.048347357660532,0.04004500061273575,-0.02339361049234867,-0.003108008997514844,0.05537823587656021,0.008307802490890026,0.025692230090498924,-0.06104276329278946,-0.03153975307941437,-0.060486312955617905,0.03153590112924576,0.04116044566035271,0.006283825263381004,-0.052381373941898346,-0.0131117794662714,-0.045110803097486496,-0.060933567583560944,-0.02420482598245144,-0.00996277667582035,-0.02191673405468464,0.0331895612180233,-0.05575006082653999,-0.0435328371822834,-0.028402209281921387,0.042476002126932144,0.059077393263578415,0.045697007328271866,0.059524595737457275,-0.011341172270476818,0.05685807019472122,0.007278927601873875,-0.04320446401834488,-0.008722865022718906,0.05205141752958298,-0.03293734788894653,0.036323968321084976,-0.0561041496694088,-0.04048319160938263,0.009236318990588188,-0.003635701257735491,0.008860103785991669,0.010147974826395512,0.05779898911714554,0.022543227300047874,-0.015676159411668777,0.0036369231529533863,0.0045625860802829266,0.025314562022686005,0.03041696920990944,-0.04033416509628296,-0.03753798454999924,-0.004440508782863617,-0.024277469143271446,-0.0051395040936768055,-0.04561373218894005,-0.016264840960502625,-0.04744001477956772,-0.03331516310572624,-0.03269990533590317,-0.008718044497072697,0.05072879046201706,-0.022094184532761574,-0.06163152679800987,0.02723666839301586,0.027899453416466713,-0.020201530307531357,0.04532862827181816,-0.028832633048295975,-0.03891365975141525,0.021492954343557358,0.05782570689916611,-0.015530039556324482,0.04887484759092331,0.027119016274809837,0.025793826207518578,0.018291419371962547,0.042285773903131485,0.05328474938869476,-0.006254485342651606,0.04836766794323921,0.033913202583789825,0.0035602122079581022,-0.04237452521920204,0.010659283958375454,-0.026960432529449463,0.057188551872968674,0.047296375036239624,-0.06187904253602028,0.009075029753148556,-0.03897099941968918,-0.05106284096837044,-0.031090527772903442,0.008239034563302994,-0.003622372169047594,-0.014180686324834824,-0.017092596739530563,-0.03148932009935379,-0.03007124923169613,-0.027362462133169174,0.04093160852789879,-0.053462132811546326,-0.030127091333270073,-0.04951963946223259,-0.02741897478699684,0.0391349159181118,0.013847483322024345,-0.017998799681663513,-0.04039298743009567,0.007279784418642521,-0.046100959181785583,-0.011492015793919563,0.0395163856446743,0.013801267370581627,0.06249655783176422,0.03912552073597908,-0.049353159964084625,-0.0477951318025589,-0.04244435951113701,0.03238818049430847,0.02811221033334732,0.051959022879600525,-0.03331485763192177,-0.051441144198179245,-0.0014868676662445068,0.057383086532354355,-0.04691329970955849,0.0352228544652462,0.0619848407804966,0.02407575212419033,-0.040653157979249954,-0.022796621546149254,0.0623040646314621,0.0199812613427639,0.020991086959838867,0.017805621027946472,-0.03477133437991142,0.012558165937662125,-0.05318055674433708,-0.007942845113575459,0.05788271129131317,0.060685016214847565,-0.04040282219648361,-0.026805080473423004,0.0440223403275013,0.02513635903596878,-0.019302159547805786,-0.008828395046293736,-0.053056519478559494,-0.05986657738685608,-0.03415748476982117,0.010914881713688374,-0.044893890619277954,-0.05458682402968407,-0.034132763743400574,-0.034264303743839264,-0.031315311789512634,0.04859393462538719,-0.03533606603741646,-0.003674727166071534,0.06220713257789612,0.0021895805839449167,0.04873208329081535,-0.014741645194590092,0.012490418739616871,-0.031196996569633484,0.04177892953157425,0.017486633732914925,0.05815340578556061,-0.006162754260003567,0.005103100556880236,-0.0038124206475913525,0.04434564709663391,0.015239683911204338,-0.004540122579783201,0.017879202961921692,0.003030352061614394,-0.028690507635474205,0.044920846819877625,0.04692873731255531,0.05261291190981865,-0.00614865031093359,0.051689598709344864,-0.061772484332323074,0.05604324862360954,-0.050597742199897766,0.0075880056247115135,0.02656952477991581,-0.03283451497554779,-0.052756261080503464,0.029914945363998413,0.04244883731007576,-0.05282377824187279,0.03023981861770153,-0.05674657225608826,-0.003492166521027684,-0.00040089883259497583,-0.003395987441763282,0.01734158582985401,0.0064522153697907925,-0.03724421560764313,-0.06063174083828926,-0.052482862025499344,0.013215192593634129,0.02450912818312645,-0.059803977608680725,0.05460615083575249,-0.015824908390641212,-0.008573466911911964,-0.014327364973723888,0.05842738226056099,-0.03959055617451668,0.0499151237308979,-0.009733151644468307,-0.005033721216022968,-0.00047430902486667037,-0.0334545336663723,-0.01840013824403286,0.033281464129686356,-0.012184208258986473,0.056266218423843384,0.03183361515402794,0.056384965777397156,-0.01868881657719612,0.04359469190239906,0.028817107900977135,-0.02952314354479313,0.011143151670694351,0.04381220415234566,0.05949591100215912,0.040657516568899155,-0.023213323205709457,-0.02607419714331627,0.04990353062748909,0.012831154279410839,-0.0026221368461847305,0.05743968114256859,0.0427524633705616,-0.039281170815229416,0.03327285125851631,-0.03944088891148567,0.013713223859667778,-0.048656608909368515,0.0404287651181221,-0.04351334273815155,0.05231166630983353,0.007907954044640064,-0.05387652665376663,-0.051620613783597946,-0.06104739010334015,-0.009919869713485241,0.026793919503688812,-0.037275560200214386,0.006364820525050163,0.01142739038914442,0.0568486750125885,0.021600309759378433,-0.008509146049618721,0.059059929102659225,-0.041682563722133636,0.019739395007491112,0.02101150155067444,0.02676347643136978,0.033021435141563416,0.025357641279697418,-0.021244538947939873,-0.05507880449295044,0.005615921691060066,-0.016696838662028313,-0.049558285623788834,0.011296483688056469,0.04149738699197769,0.007333279121667147,-0.0065419794991612434,-0.006390837486833334,-0.034087128937244415,-0.007587081752717495,-0.0361747108399868,-0.03562573343515396,0.0014150444185361266,0.05131207033991814,0.009134038351476192,0.013674823567271233,0.05260587856173515,-0.020074252039194107,0.03025408647954464,0.0214238278567791,-0.03069438971579075,0.022589972242712975,-0.018283722922205925,0.006069376599043608,0.007962715812027454,0.06169578805565834,-0.02923874743282795,0.03645309433341026,-0.021536078304052353,0.0085716862231493,0.06220318377017975,0.04588073492050171,0.02725893072783947,-0.02610338106751442,0.0002534525701776147,0.02450067177414894,-0.05796920508146286,0.005614170804619789,-0.048254210501909256,-0.031123362481594086,-0.011052054353058338,0.004908253904432058,-0.0062300399877130985,0.047022249549627304,-0.03594183176755905,0.042210500687360764,0.0008166540646925569,0.01809207908809185,-0.01423229556530714,0.041535429656505585,-0.029606893658638,0.031886834651231766,0.04235824570059776,0.05212334543466568,-0.01589302159845829,0.03714459389448166,-0.006402050610631704,0.043425269424915314,-0.006193532142788172,-0.032232169061899185,0.009808900766074657,-0.00017750174447428435,0.057235170155763626,-0.04197894036769867,-0.033202845603227615,-0.028184674680233,0.0362359918653965,0.03164560720324516,0.05371605604887009,-0.003066882025450468,0.0037012584507465363,0.026747584342956543,0.053955111652612686,-0.02694108337163925,0.041004400700330734,-0.006609779316931963,0.04915466904640198,0.03552445024251938,-0.04642340540885925,-0.020385587587952614,0.03408476710319519,-0.005317020695656538,-0.05083269625902176,-0.029058191925287247,0.05380591005086899,0.05184521526098251,-0.0613727867603302,0.015257803723216057,0.042494963854551315,0.02411881648004055,-0.00852118618786335,0.060292381793260574,-0.025858554989099503,-0.015928419306874275,-0.06000888720154762,0.0442187674343586,0.03771873936057091,0.023280689492821693,-0.061164915561676025,-0.052469704300165176,0.01070854626595974,0.0019630021415650845,-0.038409680128097534,0.016232043504714966,-0.043108634650707245,0.019644437357783318,0.05885471776127815,0.014812640845775604,-0.054648179560899734,-0.021707657724618912,-0.062480829656124115,0.04055928811430931,-0.04329696297645569,0.04331132024526596,0.05093885958194733,0.04142268747091293,0.024429526180028915,-0.020037617534399033,0.049642425030469894,-0.022152215242385864,-0.021140558645129204,0.0008597628911957145,0.0527183823287487,-0.0032837598118931055,-0.009954551234841347,0.013897989876568317,-0.028383299708366394,-0.02861332707107067,0.04539042338728905,-0.010776547715067863,0.03639574721455574,-0.03967035189270973,-0.05836188793182373,0.035021331161260605,0.0466754250228405,-0.05737660452723503,0.03385191783308983,0.007233829237520695,0.052983757108449936,0.009770284406840801,-0.045664478093385696,0.041163187474012375,-0.03908129408955574,0.05117246136069298,-0.05928587168455124,-0.028804806992411613,0.04350253939628601,0.03683377057313919,0.04044066369533539,-0.0026190970093011856,-0.05121058598160744,0.02826496958732605,0.019813871011137962,-0.01695842668414116,0.04431803524494171,-0.0026441754307597876,0.02235063910484314,0.059089552611112595,-0.05049643665552139,-0.05234608054161072,0.0019953076262027025,0.009211411699652672,0.008887238800525665,0.030582521110773087,0.0008133087540045381,-0.04531140998005867,0.007223927415907383,0.001197294914163649,-0.003817151766270399,-0.05102527514100075,0.04160325229167938,0.0432305708527565,0.044647835195064545,0.008952870965003967,-0.044321902096271515,-0.003247989807277918,0.009100056253373623,-0.0437416173517704,-0.017973214387893677,-0.013587689958512783,-0.020569199696183205,0.05561468377709389,-0.021799998357892036,-0.043070897459983826,0.001989682437852025,0.03965497389435768,0.036490414291620255,-0.04837435856461525,0.0051238504238426685,-0.0495106540620327,0.03271215409040451,0.048700038343667984,-0.05464019253849983,0.04579934477806091,0.03523953631520271,0.057700276374816895,-0.03159070760011673,0.028882410377264023,-0.0015220640925690532,-0.00935460440814495,-0.05513504892587662,0.04573698714375496,0.04835331812500954,0.023339109495282173,-0.0159678403288126,0.05733482912182808,0.036615896970033646,-0.006586488801985979,-0.000945846491958946,-0.022784514352679253,-0.04891982674598694,0.05850737914443016,-0.03810197487473488,0.04270300641655922,-0.06025552377104759,-0.019615819677710533,0.011453540995717049,-0.011629813350737095,-0.0161044392734766,-0.012491677887737751,-0.026136275380849838,0.00021789113816339523,0.006303315982222557,-0.05066544562578201,-0.0377865768969059,-0.05289846286177635,0.02062741108238697,0.05885106697678566,-0.0059418752789497375,-0.030587706714868546,-0.0325973704457283,0.05232136696577072,0.013286658562719822,0.018037855625152588,-0.0407978855073452,-0.03803805634379387,0.009131326340138912,-0.006566573400050402,0.022928986698389053,0.0036623592022806406,0.04828749969601631,0.01586892642080784,-0.00634116493165493,0.025900866836309433,0.04050057381391525,0.049498993903398514,-0.0575992576777935,0.006340382620692253,-0.006203843746334314,0.03190920874476433,-0.005842261482030153,0.011439296416938305,0.025908153504133224,-0.0077431113459169865,0.01552832592278719,-0.0050976392813026905,0.019876254722476006,-0.038119520992040634,-0.03378371521830559,0.0013530633877962828,0.034913841634988785,-0.047279201447963715,0.05320831388235092,0.008227478712797165,0.04439239203929901,0.018098359927535057,0.05808988958597183,-0.04324477165937424,-0.011832214891910553,0.02423815242946148,-0.006588463205844164,-0.05259763076901436,-0.059056174010038376,-0.023389333859086037,-0.06012040749192238,0.026876725256443024,-0.02590842917561531,0.03995256870985031,-0.03577785938978195,-0.005908198654651642,-0.003355352208018303,-0.045661453157663345,0.03284614533185959,-0.044843047857284546,0.043782006949186325,-0.021249918267130852,0.04697323963046074,-0.001693493570201099,-0.059459537267684937,0.018615003675222397,-0.039666835218667984,-0.0010041395435109735,0.031227022409439087,-0.048263389617204666,-0.059668563306331635,-0.05085858702659607,-0.008756228722631931,0.00834027212113142,-0.01677771471440792,-0.02012449875473976,-0.017863117158412933,-0.03895155340433121,0.008108984678983688,-0.05982259660959244,0.04697439447045326,0.024001671001315117,0.06101731210947037,0.057084862142801285,-0.0024756069760769606,0.033104367554187775,-0.015971945598721504,-0.02781403250992298,-0.014694088138639927,0.03490264341235161,0.007839588448405266,0.04000713676214218,0.056093405932188034,0.04086069390177727,-0.03692813217639923,0.024073829874396324,0.02671525627374649,-0.003836038988083601,0.007753951940685511,-0.02442915365099907,-0.03869733214378357,0.044039998203516006,0.00522482767701149,0.012795309536159039,0.006445286329835653,0.0045762802474200726,-0.023348042741417885,0.03861859440803528,0.0006786774611100554,0.055267415940761566,-0.06116223335266113,0.005773493088781834,0.014369706623256207,-0.0610862672328949,0.05480070412158966,0.002825417323037982,0.045521195977926254,0.029094766825437546,-0.061303019523620605,0.00607871962711215,0.03686481714248657,0.030466537922620773,0.034869927912950516,-0.04248354211449623,-0.009028702042996883,0.032443322241306305,-0.03926948085427284,-0.04203430563211441,-0.04032478481531143,0.00643340265378356,0.027860017493367195,0.012796307913959026,-0.0407697819173336,-0.05025824159383774,0.039668161422014236,-0.025677477940917015,0.022671213373541832,-0.008911781013011932,0.034565091133117676,-0.0011003707768395543,0.041093286126852036,0.0028661866672337055,-0.03927912190556526,-0.05361504852771759,-0.03290335834026337,-0.054199282079935074,0.03147806227207184,-0.013122239150106907,0.03704556077718735,-0.03963014855980873,0.0352831669151783,-0.03600136190652847,-0.052953120321035385,-0.04528997465968132,0.03203586861491203,0.006482419557869434,-0.0007254668744280934,0.0156995989382267,-0.031206369400024414,0.042226094752550125,0.05236923694610596,0.0030691842548549175,0.02376774698495865,-0.027580689638853073,0.05076098442077637,-0.05058973282575607,-0.010905210860073566,-0.05706445500254631,-0.05553887411952019,0.020868420600891113,-0.05800730735063553,0.022781675681471825,-0.05790766328573227,-0.03705582767724991,0.018981488421559334,-0.059320054948329926,0.015676502138376236,-0.03233645483851433,0.03296457976102829,-0.010217473842203617,0.046487510204315186,-0.004103289917111397,-0.03593054413795471,0.045341428369283676,-0.05191487818956375,0.017164651304483414,0.011890113353729248,-0.010933992452919483,-0.03040916845202446,0.00879541877657175,-0.029746614396572113,-0.05040716379880905,-0.042271729558706284,-0.032579511404037476,-0.04766207933425903,-0.0025693795178085566,-0.00964226946234703,-0.0062617645598948,-0.061800625175237656,-0.042064834386110306,-0.029552849009633064,0.01886376179754734,-0.032961033284664154,-0.05345631390810013,-0.03674977645277977,-0.05994739755988121,-0.03518185392022133,-0.013947268016636372,0.03058246150612831,0.013367794454097748,-0.04380474612116814,-0.026247890666127205,-0.013539186678826809,-0.01817960850894451,0.03570666164159775,-0.04103661701083183,-0.06216108798980713,0.027431856840848923,0.0054643102921545506,-0.00024159876920748502,0.02437242493033409,0.024619538336992264,0.009025639854371548,-0.03741300106048584,0.032475896179676056,0.020253349095582962,-0.05219731479883194,-0.009772303514182568,-0.0444067046046257,-0.05104997381567955,-0.02676679939031601,0.0054540508426725864,-0.013975110836327076,0.05394634231925011,0.0003787409223150462,-0.024128040298819542,-0.049008809030056,-0.0533159077167511,0.03848516196012497,-0.038491711020469666,0.03743436932563782,0.024592209607362747,0.04456007480621338,-0.06012583151459694,-0.043670278042554855,0.048596952110528946,0.008149679750204086,0.0005114574450999498,-0.01703733578324318,0.029599010944366455,0.009782965295016766,-0.01675155572593212,-0.007468514144420624,-0.019072959199547768,0.04625508189201355,-0.0320686511695385,0.0347515307366848,-0.0544622577726841,-0.05973849445581436,-0.01041807234287262,0.0596911758184433,-0.009245594963431358,0.01952040195465088,-0.04204060509800911,0.008765541948378086,0.05867374315857887,-0.015039130114018917,-0.005405503325164318,-0.03881389647722244,-0.006213648710399866,0.03847271949052811,0.0012926096096634865,-0.011243168264627457,0.030642326921224594,0.004669844172894955,-0.017378265038132668,0.041748568415641785,0.012526136822998524,-0.05723235383629799,-0.028248950839042664,0.01771111786365509,-0.03555659204721451,0.029561975970864296,-0.011234674602746964,-0.022800346836447716,0.04226389899849892,-0.0546254999935627,-0.03659488633275032,0.013805469498038292,-0.0525624118745327,-0.03719010949134827,-0.026062529534101486,-0.02255856804549694,0.02093186229467392,-0.002424555830657482,-0.058931004256010056,0.007765105459839106,-0.04623790085315704,-0.005581120029091835,0.011313322000205517,0.03637080267071724,0.06139655038714409,-0.047745220363140106,-0.0023758814204484224,-0.023370245471596718,-0.0191759392619133,-0.0569075345993042,-0.006308292970061302,0.05974951386451721,-0.055103614926338196,-0.01892946846783161,-0.035217639058828354,-0.013060497120022774,-0.03619543835520744,-0.046490512788295746,-0.019687069579958916,-0.013064930215477943,-0.0028821532614529133,0.008887887001037598,-0.025467120110988617,0.01930546760559082,0.05930778384208679,0.005381192080676556,0.03028351627290249,-0.0037980484776198864,-0.03163141384720802,-0.00939673651009798,0.005504051689058542,-0.049165986478328705,0.0427299328148365,-0.025384344160556793,-0.017259318381547928,0.02892780676484108,-0.024606849998235703,0.014611140824854374,-0.017518291249871254,-0.036815863102674484,-0.028799770399928093,0.04158744215965271,0.016299590468406677,-0.04983852431178093,-0.026578160002827644,0.027530182152986526,0.03142616152763367,0.05619281530380249,0.04007985442876816,-0.015053502283990383,-0.00392023753374815,-0.06015516445040703,-0.010186807252466679,0.04854833707213402,0.012371120043098927,0.05899142101407051,0.05325744301080704,0.05879833921790123,0.04054899513721466,-0.0045683677308261395,0.05470050126314163,0.03496037796139717,0.0619528703391552,0.005067435093224049,0.02042085863649845,-0.013726947829127312,0.013121270574629307,0.038353778421878815,-0.060880646109580994,0.03603494167327881,-0.05026564747095108,0.015876704826951027,0.0009666632977314293,0.03914215788245201,0.03325905278325081,0.0034955714363604784,0.027385462075471878,0.013349644839763641,-0.043514132499694824,0.0004244425508659333,0.05436963215470314,0.03464725986123085,0.03882880508899689,0.006788711529225111,0.03725157678127289,0.02304099127650261,-0.03913978114724159,-0.009890626184642315,0.055755313485860825,0.05365082621574402,0.043103449046611786,-0.006378745194524527,0.04837485030293465,-0.0012721653329208493,0.026634909212589264,-0.026907846331596375,0.0029511230532079935,0.014655486680567265,0.037576477974653244,0.005564684048295021,0.006823341827839613,-0.03865474462509155,-0.057035353034734726,0.049703147262334824,-0.05669233202934265,-0.013170258142054081,-0.003284683683887124,0.018945487216114998,0.021478991955518723,-0.011039075441658497,0.019923795014619827,-0.04560518637299538,0.02436872199177742,0.00293306284584105,-0.02832575887441635,-0.03412409871816635,-0.01336265355348587,0.0398266538977623,-0.017158042639493942,-0.0020873218309134245,0.005062033422291279,0.005431908182799816,0.02436344139277935,-0.007541544269770384,-0.01685181073844433,0.02922406978905201,-0.00199320656247437,-0.04305576533079147,-0.013710839673876762,-0.053950097411870956,0.016905469819903374,-0.05952563136816025,-0.04978526011109352,0.04082958772778511,-0.03394485265016556,-0.040655042976140976,-0.03891170769929886,-0.03880741447210312,0.016613831743597984,0.01740131713449955,0.038642264902591705,0.04285114258527756,0.05396152660250664,0.029330508783459663,-0.056226395070552826,0.02027803845703602,0.011412146501243114,-0.04960941895842552,-0.053875893354415894,0.05819197744131088,0.0027719521895051003,0.011520395055413246,-0.015731696039438248,0.04511882737278938,-0.045179616659879684,-0.042990297079086304,0.06041204556822777,0.03519047424197197,0.04774133861064911,-0.030690882354974747,-0.043067753314971924,-0.06202099099755287,0.04952872917056084,0.01314509753137827,0.054810233414173126,-0.02961190789937973,0.01677793078124523,-0.011655495502054691,-0.017437094822525978,-0.06142440065741539,0.024346156045794487,-0.03010444901883602,-0.04029314965009689,-0.032788246870040894,-0.0313800647854805,0.03986944258213043,-0.028325244784355164,0.03609916940331459,-0.03209609165787697,-0.005475687328726053,-0.033806320279836655,-0.04254340007901192,0.04707862064242363,0.004006447736173868,-0.015893297269940376,0.029256412759423256,-0.04564717784523964,0.0564257949590683,0.042483825236558914,0.0025177770294249058,-0.00590580003336072,-0.0506586953997612,-0.030179424211382866,0.03155895322561264,-0.056504786014556885,-0.05824752151966095,-0.05421170964837074,0.05377045273780823,0.019224390387535095,0.035533078014850616,-0.04924922436475754,-0.03994441777467728,-0.03918955847620964,-0.04674920067191124,0.03516722097992897,0.03243549168109894,0.044199083000421524,0.015001579187810421,-0.011829525232315063,0.03917424753308296,-0.03353722766041756,0.00868184957653284,-0.00833516102284193,-0.024489853531122208,-0.05544966086745262,-0.0007482357323169708,0.004425771534442902,0.007323429454118013,-0.010444112122058868,-0.023067031055688858,0.004805414006114006,0.04681253805756569,-0.009574432857334614,0.03445442020893097,0.03392285108566284,0.010285385884344578,0.03159135580062866,0.04055887088179588,-0.053162332624197006,0.012072182260453701,-0.03791890665888786,-0.049714695662260056,-0.020100299268960953,-0.03564700484275818,-0.05155186727643013,0.052392974495887756,0.013242670334875584,-0.04126797989010811,0.037303730845451355,-0.03883128613233566,-0.04844473674893379,-0.019076639786362648,0.01255140919238329,0.03964550420641899,0.009044981561601162,-0.05600856617093086,0.054725781083106995,0.049172282218933105,-0.047983989119529724,0.007076116278767586,0.039981864392757416,-0.03296680748462677,0.024744870141148567,-0.03086681105196476,0.019413478672504425,-0.057328227907419205,-0.004610813222825527,-0.04404735192656517,0.059493571519851685,0.035234179347753525,-0.04556809738278389,-0.022498711943626404,-0.033186670392751694,0.00653106439858675,-0.038733333349227905,0.05183093249797821,0.03442307561635971,0.008861541748046875,0.06075955927371979,-0.04878714680671692,-0.02063807286322117,-0.015518498606979847,0.02816867083311081,0.001483038067817688,-0.008951425552368164,0.01844024285674095,0.03793006017804146,0.026764854788780212,0.0002542423317208886,0.02512253075838089,0.007862573489546776,0.053978923708200455,-0.03859984874725342,0.062024664133787155,-0.060443487018346786,-0.0184114258736372,-0.043152034282684326,-0.030464518815279007,0.06078917533159256,0.03163393214344978,0.03773549571633339,0.027940088883042336,0.010721420869231224,0.0407651849091053,-0.002793380059301853,0.04442288726568222,0.026449592784047127,-0.05474068969488144,-0.03700853884220123,-0.024228280410170555,0.060496602207422256,0.0037352927029132843,0.01167252752929926,0.003776240861043334,-0.020906776189804077,0.05510164797306061,0.02476796694099903,0.012816074304282665,-0.051035452634096146,0.052019938826560974,-0.03592897206544876,-0.05944041162729263,-0.04874957352876663,0.004730796907097101,0.016073519363999367,0.0257647093385458,-0.009891125373542309,0.05169714614748955,-0.05989856645464897,-0.053435422480106354,0.021599408239126205,-0.03018142096698284,0.04925540089607239,-0.006307242438197136,0.020113859325647354,0.023929953575134277,0.043335139751434326,-0.03925778344273567,0.04977903887629509,0.0290527381002903,-0.036465924233198166,-0.017527135089039803,-0.03382638469338417,0.013389267027378082,-0.005932845175266266,0.03667827323079109,0.02928563393652439,0.030884752050042152,-0.01121119037270546,0.022145763039588928,-0.05662977695465088,-0.058864060789346695,-0.048584844917058945,0.054704099893569946,-0.05891779437661171,0.0011119190603494644,0.04468722641468048,-0.01655769906938076,-0.021620940417051315,-0.04166097193956375,0.024338452145457268,0.044032175093889236,-0.03433571010828018,-0.05177333950996399,-0.03656293824315071,-0.02911689504981041,-0.02904953435063362,0.04536549374461174,-0.018059758469462395,-0.010812340304255486,0.02117718569934368,0.01170183066278696,-0.0305449478328228,0.032169539481401443,0.04705843701958656,-0.032062578946352005,0.018240420147776604,-0.0483846552670002,0.0022184737026691437,-0.0008164603495970368,-0.02350417710840702,-0.06148598715662956,0.044854842126369476,0.054943740367889404,0.06208505108952522,0.02609730139374733,0.005900674033910036,-0.04957575723528862,-0.008780100382864475,0.05061667412519455,0.049885090440511703,-0.01050487905740738,-0.035176847130060196,0.04047616571187973,0.015094815753400326,0.0015606206143274903,-0.05186580866575241,0.03786786273121834,0.042261648923158646,-0.022926706820726395,0.011273610405623913,0.0012111603282392025,-0.04424219951033592,0.02440497651696205,0.03835628926753998,0.021807560697197914,-0.03233960643410683,0.04157835245132446,-0.055950578302145004,-0.04943075031042099,0.006154126487672329,0.033045560121536255,-0.05137183889746666,-0.009149550460278988,-0.014440471306443214,0.061203427612781525,0.030246032401919365,0.004154571797698736,0.04159509390592575,0.05542314052581787,0.04081815108656883,0.03433588147163391,-0.061425384134054184,0.023543471470475197,0.009831036441028118,-0.03553701937198639,-0.022409632802009583,-0.005566151812672615,0.02271469496190548,0.0015955263515934348,0.03253753483295441,0.017844296991825104,0.018715377897024155,0.04659268632531166,0.014627591706812382,-0.040623199194669724,0.0158188808709383,0.05928601324558258,0.02951388992369175,-0.008479433134198189,-0.04083288088440895,-0.0010187425650656223,-0.05858997628092766,0.014690660871565342,0.031182430684566498,0.0007645002333447337,0.018650133162736893,0.012606974691152573,-0.022095980122685432,-0.0353100411593914,-0.019720783457159996,0.024196913465857506,0.02297002449631691,0.03089502640068531,0.05242697149515152,-0.03111358731985092,-0.0071512325666844845,-0.018649209290742874,-0.028214052319526672,0.04445885121822357,0.0540008507668972,0.0489356592297554,0.04337633401155472,-0.02302919700741768,-0.05670331418514252,-0.056447237730026245,0.06144097074866295,0.028982896357774734,-0.01366379763931036,-0.022987786680459976,0.058725591748952866,0.00489391153678298,0.02693997323513031,0.010977123863995075,0.030783915892243385,-0.029832273721694946,0.0023103239946067333,-0.050196077674627304,0.06195871904492378,-0.018556106835603714,-0.04457930475473404,-0.011543342843651772,-0.036155398935079575,0.011042443104088306,-0.022534510120749474,0.03151475638151169,0.04477673023939133,0.022305481135845184,-0.05482520908117294,-0.03524143621325493,0.0391123928129673,-0.03144029527902603,0.04092376306653023,-0.018536020070314407,0.043920423835515976,0.05044368654489517,0.007762438151985407,-0.0160053838044405,-0.05059488117694855,-0.03360004350543022,-0.04934747517108917,-0.041289206594228745,0.001355984015390277,-0.047168511897325516,-0.01661933772265911,0.008662440814077854,0.05620737373828888,0.0346611924469471,0.05092286318540573,0.04467339813709259,0.0554337240755558,0.06135093420743942,3.049507358809933e-05,0.002435627393424511,0.03413206338882446,0.0013074884191155434,0.055350467562675476,0.03404059261083603,0.036039531230926514,0.043600019067525864,0.06139857694506645,0.03570324182510376,-0.0014377015177160501,0.035472214221954346,-0.049430280923843384,0.051947154104709625,0.04442853480577469,-0.012199519202113152,0.04263981059193611,-0.05432170256972313,-0.049229592084884644,-0.0279304850846529,0.05173766613006592,-0.06173693761229515,0.033773574978113174,0.04883141815662384,0.044160258024930954,0.021844515576958656,0.020705945789813995,-0.005792216397821903,0.030792558565735817,0.04856359586119652,-0.019072944298386574,0.007977348752319813,-0.05871972814202309,-0.05921299755573273,0.059139568358659744,0.017130929976701736,0.004994307644665241,-0.0388198122382164,0.0328182578086853,0.001411483041010797,0.05449487641453743,0.04304051399230957,-0.03199274465441704,0.03761034086346626,-0.0008433120674453676,-0.05647007375955582,-0.0022934486623853445,0.028976406902074814,0.05985391139984131,0.011015434749424458,-0.040600117295980453,-0.05436703935265541,-0.00948422122746706,0.003201476065441966,-0.06080663949251175,0.03638330474495888,-0.03495186194777489,-0.03130932152271271,0.01426455657929182,0.013839399442076683,0.010060178115963936,-0.058625418692827225,0.018612507730722427,0.03641359135508537,0.01282681804150343,-0.05526147037744522,0.05707557126879692,-0.004498787224292755,-0.02829255908727646,-0.009564255364239216,-0.00896260142326355,0.0546843595802784,-0.05323036015033722,0.04511973634362221,-0.045172009617090225,0.05678790807723999,0.04576782137155533,0.025145649909973145,-0.02520846575498581,-0.0046891337260603905,0.04439859837293625,0.028313003480434418,0.026398489251732826,0.05147122964262962,-0.04639483988285065,-0.04465270787477493,-0.029709383845329285,-0.031389020383358,-0.0371362566947937,0.03657844290137291,0.010386139154434204,-0.02929643727838993,0.024762878194451332,-0.008295412175357342,-0.04810046777129173,-0.0604923777282238,0.052662935107946396,-0.014241638593375683,0.015493695624172688,0.015018804930150509,0.030796030536293983,0.032865189015865326,-0.008964508771896362,0.01639706641435623,0.0619802363216877,-0.03282250463962555,-0.018897028639912605,-0.015000632964074612,-0.032237838953733444,0.05301875248551369,0.019212841987609863,0.007555774878710508,-0.010674445889890194,-0.02901415154337883,-0.062337711453437805,-0.017604971304535866,0.009003646671772003,0.026309022679924965,-0.010777486488223076,0.018668804317712784,0.0041144732385873795,0.03212608024477959,-0.03173026069998741,-0.013813978061079979,0.04358510300517082,-0.026965521275997162,0.016727780923247337,-0.0065986779518425465,0.0008813918102532625,0.014698349870741367,-0.01807633601129055,0.053879015147686005,0.023292990401387215,0.028044799342751503,-0.035630129277706146,0.05714220926165581,-0.004258477129042149,-0.02846631221473217,0.0542689748108387,-0.035454146564006805,0.0481145940721035,0.035129617899656296,0.04905160516500473,-0.012794177047908306,0.05946744233369827,0.040136560797691345,-0.00796132255345583,-0.0534571036696434,0.012897173874080181,-0.03938644751906395,-0.007262432016432285,-0.056621283292770386,-0.049401044845581055,0.014858074486255646,0.03771790489554405,-0.03350629284977913,0.04906409978866577,-0.026191961020231247,-0.05017559602856636,-0.03649621084332466,-0.02779463119804859,-0.05665069818496704,0.05648040026426315,-0.06049206480383873,0.0624714270234108,0.057975634932518005,-0.04150836169719696,0.04721691086888313,-0.035863861441612244,0.054575804620981216,0.0030408871825784445,0.05069005489349365,-0.03666355088353157,-0.0024142516776919365,0.005217615514993668,0.03377603366971016,-0.04867326840758324,0.03501073643565178,-0.05551103129982948,-0.006684016436338425,-0.04862290248274803,-0.02737313136458397,0.02239496260881424,0.02200348861515522,0.0016290091443806887,0.017627323046326637,0.03472364321351051,0.029444539919495583,-0.006907920353114605,-0.06104061007499695,0.034126922488212585,-0.026056330651044846,0.00928918831050396,-0.06146013364195824,0.04502971097826958,-0.002468528924509883,-0.027573350816965103,0.00611195620149374,0.009609442204236984,-0.03571377694606781,0.01813354901969433,0.03380616381764412,0.0545746348798275,0.017190013080835342,0.03849099576473236,-0.05533197522163391,0.003240822348743677,0.020280377939343452,-0.031255677342414856,-0.038708411157131195,-0.01560678705573082,0.024255720898509026,0.005102452356368303,0.0242763664573431,-0.01735740341246128,0.006863023154437542,0.044213470071554184,-0.041487231850624084,-0.04885700345039368,0.024848559871315956,0.05548951402306557,-0.04022969305515289,0.004509195685386658,0.053073037415742874,0.001660882611759007,0.056189462542533875,-0.0007518641068600118,-0.05314478650689125,0.037301450967788696,-0.007439456880092621,-0.025233209133148193,-0.02461821958422661,0.0318295992910862,-0.006822455208748579,0.051389988511800766,-0.05041810870170593,-0.017343873158097267,0.01747649349272251,0.036331985145807266,-0.05470108240842819,-0.028716033324599266,0.0017908498411998153,-0.05652619153261185,0.04307600110769272,0.038963064551353455,0.05218399316072464,0.06227017194032669,0.06111498922109604,-0.044564493000507355,0.03937419876456261,0.044993191957473755,0.027921678498387337,-0.048515211790800095,0.028749605640769005,-0.0005464302957989275,-0.030600901693105698,0.02661871165037155,-0.01102843601256609,0.05024181306362152,-0.03645568713545799,0.047449223697185516,0.02130184881389141,-0.01823076419532299,0.03133343905210495,0.03635710850358009,-0.024381879717111588,-0.002327855210751295,0.004374966491013765,0.05703923478722572,-0.05754329636693001,0.0438215471804142,0.03517764434218407,-0.017315486446022987,0.017069119960069656,-0.03902626037597656,-0.026697859168052673,0.05875508859753609,0.004051597788929939,0.00746183842420578,0.054343339055776596,0.04528011754155159,0.05528620630502701,-0.056282706558704376,-0.04151478409767151,0.05741875246167183,0.008200224488973618,0.014681258238852024,0.030055923387408257,-0.05352221429347992,0.04220506176352501,-0.04504785314202309,-0.04528272524476051,0.0024827520828694105,0.05149175599217415,-0.01600252278149128,-0.002200309420004487,0.023697897791862488,-0.05946410447359085,0.05186839401721954,-0.03467525914311409,-0.04411209747195244,0.016075337305665016,-0.04757790267467499,0.007057549431920052,-0.007557741831988096,-0.015029623173177242,-0.004120679572224617,0.0473821759223938,-0.030476022511720657,0.011535393074154854,-0.06125957518815994,0.012942278757691383,0.0006745796417817473,-0.059115733951330185,0.04710536077618599,-0.039854496717453,-0.02033846266567707,-0.010304340161383152,-0.029040437191724777,-0.03854622691869736,-0.008241567760705948,0.05961482971906662,-0.01179406139999628,-0.04896929860115051,0.05749307945370674,-0.06055896356701851,-0.005640694405883551,-0.015192894265055656,0.060160424560308456,0.031743209809064865,0.043272338807582855,0.054971374571323395,0.031873758882284164,-0.04946522414684296,-0.005090971011668444,-0.04552289471030235,0.025210954248905182,0.026935584843158722,0.05686742067337036,-0.05692804977297783,-0.011373582296073437,-0.006651375442743301,-0.018932411447167397,-0.0355454683303833,-0.009164734743535519,0.056584008038043976,0.03796258196234703,-0.026934422552585602,-0.01530272327363491,-0.05907956138253212,0.06160062178969383,-0.018095998093485832,-0.06141461059451103,0.05748460069298744,-0.02221018075942993,0.032717861235141754,-0.04358731582760811,-0.03435788303613663,0.041474394500255585,-0.02378002554178238,0.05435388907790184,0.045860931277275085,-0.03381480649113655,-0.03491205349564552,0.00631449930369854,-0.022824032232165337,-0.01405784860253334,0.036552298814058304,0.023669607937335968,0.055863771587610245,0.0617847703397274,0.057954542338848114,0.028047511354088783,-0.05957508087158203,0.05422402545809746,-0.03549904376268387,0.04983222112059593,0.035808950662612915,-0.026800595223903656,0.011912927031517029,-0.0041420250199735165,-0.050549037754535675,0.05793875455856323,0.044666215777397156,0.05450986698269844,0.03301064670085907,0.01665372960269451,0.04220687970519066,0.015294110402464867,0.025894206017255783,-0.05323748290538788,-0.05810008943080902,0.04989755526185036,-0.021754052489995956,-0.0266958549618721,0.022460147738456726,0.02816706895828247,-0.037426747381687164,0.007036404684185982,-0.006657246500253677,0.053789108991622925,-0.04734288901090622,0.03553837537765503,-0.008829371072351933,-0.03354470059275627,0.005189333111047745,0.0303792767226696,0.050744570791721344,-0.0031047456432133913,-0.018197661265730858,-0.017203930765390396,0.049140654504299164,-0.0011881903046742082,0.010587370954453945,0.01475424412637949,-0.03575311601161957,-0.06116216629743576,0.03358818218111992,-0.054022740572690964,0.022755971178412437,-0.04512832686305046,-0.028368398547172546,0.008472608402371407,-0.043882619589567184,-0.022927213460206985,0.053300246596336365,-0.04552888497710228,0.036291200667619705,0.05894625559449196,0.023437904193997383,0.022700956091284752,-0.031337812542915344,-0.000834259670227766,0.026049982756376266,-0.0523139089345932,0.029382238164544106,-0.03536059707403183,-0.03655173256993294,0.01263868436217308,0.03897341340780258,-0.029816433787345886,0.0191631019115448,0.04465140402317047,0.01855390891432762,0.025038035586476326,-0.023801252245903015,-0.0006388244801200926,-0.015539463609457016,0.012754569761455059,0.017253857105970383,-0.012038073502480984,-0.02369043231010437,0.017341898754239082,-0.06026896461844444,0.04662792757153511,0.01447250135242939,0.017010819166898727,-0.06170906499028206,0.02516718953847885,-0.05010855570435524,0.05890138819813728,-0.01823241077363491,-0.0563492476940155,0.016808776184916496,-0.019936900585889816,-0.01803542673587799,-0.022077159956097603,0.059359341859817505,-0.0054547437466681,0.020214449614286423,0.062086161226034164,0.014305132441222668,0.056056197732686996,0.016029009595513344,0.05326094478368759,-0.036013536155223846,-0.016269296407699585,0.0069619291462004185,-0.04164866358041763,-0.00789632461965084,0.03204475715756416,0.0601879246532917,-0.037195928394794464,0.06164068356156349,-0.039849817752838135,0.022639764472842216,-0.0010026792297139764,-0.03810330852866173,0.03567604720592499,-0.05036167800426483,0.002144936937838793,0.04666519537568092,0.03739476948976517,-0.019405022263526917,-0.027099108323454857,0.034605737775564194,0.0011556313838809729,-0.04395819827914238,-0.058961477130651474,-0.04056767001748085,0.05637410283088684,-0.00040592794539406896,0.01727874204516411,-0.01462791208177805,0.005192305892705917,-0.012103407643735409,0.008075726218521595,-0.04706057533621788,0.0482279397547245,0.010463938117027283,0.055794816464185715,-0.025482334196567535,0.053861431777477264,0.05830179154872894,0.044366687536239624,-0.04168730974197388,0.05583618953824043,-0.03485484793782234,0.0596306174993515,-0.05937434732913971,-0.04378127679228783,-0.01967853121459484,-0.0036384654231369495,-0.008387538604438305,-0.04049695283174515,-0.046674761921167374,0.053029779344797134,-0.002655470510944724,0.01369096152484417,-0.052359096705913544,-0.011063155718147755,-0.02234835922718048,0.04802936688065529,0.020316923037171364,-0.008168522268533707,-0.012390975840389729,0.05566106364130974,0.04122775420546532,0.017361732199788094,0.040085598826408386,-0.0186854787170887,0.02861235849559307,-0.02464282140135765,0.01645480841398239,0.03372740373015404,-0.02541690319776535,0.018113059923052788,0.001574158202856779,-0.051873497664928436,0.024020982906222343,-0.017205040901899338,-0.0383853018283844,0.016753999516367912,-0.008592942729592323,-0.007827451452612877,-0.004894380923360586,0.0362093485891819,0.038407981395721436,0.04534382000565529,-0.01693129912018776,-0.027919376268982887,0.053772151470184326,0.021411549299955368,0.004145787563174963,0.026174593716859818,0.040862876921892166,0.01797853410243988,-0.026463786140084267,0.023030105978250504,0.029456065967679024,0.006503862328827381,0.054316092282533646,-0.006725255399942398,0.015441854484379292,0.018442247062921524,-0.0544804148375988,-0.055478353053331375,0.03973495587706566,-0.04624461382627487,0.05068562924861908,0.04136873036623001,-0.03154376149177551,-0.02275369130074978,-0.026497947052121162,0.04753025621175766,0.041174743324518204,-0.0059336647391319275,-0.034876737743616104,-0.008999735116958618,0.029816120862960815,-0.017838746309280396,-0.039931148290634155,0.04692653939127922,-0.025837359949946404,0.032944805920124054,0.03951002284884453,0.0034964878577739,0.05046117305755615,0.013389632105827332,0.04835299775004387,-0.003986189607530832,0.038972631096839905,-0.03257937729358673,-0.001537166303023696,-0.04883786290884018,0.03362998738884926,0.020074952393770218,0.020198997110128403,0.02810080349445343,0.02292025461792946,-0.041006963700056076,0.02111819200217724,-0.041479550302028656,-0.05865590646862984,0.054928623139858246,-0.046349868178367615,0.0032908155117183924,-0.0030982710886746645,0.01358355488628149,0.049004778265953064,0.04667850211262703,-0.01341913640499115,-0.05584874376654625,-0.012260360643267632,-0.04420227184891701,0.00494644558057189,0.010015280917286873,-0.01273362711071968,-0.04880984127521515,-0.003046348225325346,-0.01731068082153797,0.045307014137506485,-0.058726053684949875,-0.04120754823088646,0.03242999315261841,0.05367923527956009,0.042010098695755005,0.005878128577023745,0.03677575662732124,0.0544937439262867,-0.05366605520248413,0.0004302688757888973,-0.01922515779733658,-0.020497212186455727,0.02099069207906723,0.007746479008346796,-0.056981880217790604,0.05907254293560982,-0.010939833708107471,0.04029807448387146,-0.024737145751714706,0.05463789030909538,-0.04930875450372696,-0.01499634888023138,-0.014195527881383896,0.0458211824297905,-0.020588288083672523,-0.010003985837101936,0.017148595303297043,-0.014291751198470592,0.0410541333258152,0.02852684073150158,-0.044867053627967834,0.059984032064676285,0.013921928592026234,0.05354069173336029,-0.015179095789790154,-0.04677470400929451,0.042861953377723694,-0.05851661041378975,-0.011953912675380707,-0.040389567613601685,-0.019096748903393745,0.024632234126329422,0.01478757057338953,0.015469935722649097,-0.031097009778022766,-0.03518961742520332,0.055097758769989014,-0.003566880477592349,-0.00871110800653696,-0.04489053040742874,-0.007910837419331074,-0.0007102304953150451,-0.009257985278964043,-0.008922286331653595,0.05130798742175102,0.01907769776880741,-0.004395060706883669,-0.019773757085204124,0.02178134210407734,0.010847514495253563,-0.043012768030166626,0.050299569964408875,0.020012181252241135,-0.048287440091371536,0.04997390881180763,-0.028311260044574738,-0.06216432899236679,0.04008222371339798,-0.006743531208485365,0.018062477931380272,-0.062314510345458984,0.04281441122293472,0.054040659219026566,0.01331096887588501,0.008252713829278946,0.0022961830254644156,-0.006252846214920282,-0.027036456391215324,0.013105982914566994,-0.027211202308535576,-0.050996873527765274,-0.028553655371069908,0.05632021278142929,0.04726804792881012,0.025636916980147362,-0.02139870449900627,0.0197006743401289,0.004875456914305687,-0.03226238861680031,-0.03125759959220886,-0.02669665217399597,0.042680297046899796,-0.02068634331226349,-0.06207055225968361,-0.022721407935023308,-0.005463267210870981,-0.04200883209705353,-0.053639620542526245,0.011596256867051125,-0.007500677835196257,-0.005031784065067768,0.04598676413297653,-0.04635050892829895,-0.05302007123827934,-0.0284012109041214,0.033645231276750565,-0.04065456613898277,0.03661729022860527,0.043404847383499146,0.04425423964858055,-0.003032818203791976,-0.052201047539711,0.0073580970056355,-0.028155602514743805,-0.012412299402058125,0.03881818801164627,0.038183022290468216,0.003852020250633359,-0.02094968408346176,-0.060606639832258224,0.017166446894407272,-0.017789296805858612,0.013486846350133419,0.01528196595609188,-0.05012849345803261,0.0579996332526207,0.030245883390307426,-0.05594383552670479,0.02377961575984955,-0.055641334503889084,0.057411979883909225,0.018968472257256508,-0.033234190195798874,0.041445039212703705,-0.04141373187303543,0.0486777164041996,0.059038396924734116,-0.04056643322110176,0.011574307456612587,-0.039851583540439606,-0.009137085638940334,0.029828540980815887,-0.053646452724933624,-0.060094188898801804,0.03344808146357536,0.04048600047826767,0.01200601365417242,0.046697746962308884,0.0029403420630842447,-0.05584472790360451,0.05777778476476669,0.05054089426994324,-0.0230388380587101,-0.060179855674505234,-0.03124774992465973,-0.04267200455069542,0.020942464470863342,-0.04663174971938133,-0.06074756383895874,0.03127320110797882,0.032538458704948425,0.013936233706772327,-0.011610301211476326,-0.054363857954740524,0.02703285776078701,0.016247354447841644,-0.04243125393986702,-0.04848317429423332,0.056939613074064255,0.027419645339250565,-0.0008896991494111717,-0.011336336843669415,-0.05089293420314789,-0.04108544811606407,0.038634128868579865,-0.02185043878853321,-0.053659506142139435,0.010034458711743355,-0.04765734076499939,-0.04105660691857338,-0.05810373276472092,-0.03991977125406265,-0.028137311339378357,-0.049709614366292953,0.059882424771785736,0.05087507516145706,-0.051054734736680984,0.0552673414349556,-0.011209744960069656,-0.050347425043582916,0.011128891259431839,-0.005085405427962542,0.0216837115585804,-0.060168374329805374,0.012306725606322289,-0.007543883752077818,0.04294683784246445,0.026402005925774574,-0.022531313821673393,-0.003360709175467491,0.010507442057132721,0.042588602751493454,-0.009860190562903881,-0.022772839292883873,