0.07915443181991577,-0.011006449349224567,0.047828465700149536,0.003732166485860944,-0.022230427712202072,0.026383252814412117,0.05551313981413841,-0.07952756434679031,0.054287541657686234,-0.012665570713579655,-0.027875883504748344,-0.013423444703221321,-0.08539287745952606,0.003068596124649048,0.0019270697375759482,-0.08471354097127914,0.014953596517443657,0.0504235103726387,0.04971427097916603,-0.011740647256374359,0.039651721715927124,0.0011363738449290395,-0.06325230002403259,0.0036887868773192167,0.03751879557967186,0.015179597772657871,-0.06835680454969406,0.0815373882651329,-0.008983832783997059,-0.057809796184301376,-0.006671255920082331,-0.030693484470248222,-0.07513183355331421,0.06682534515857697,0.040762174874544144,0.0866161584854126,-0.04809654876589775,-0.07726411521434784,-0.03043634630739689,-0.056213926523923874,-0.006525986362248659,-0.054881948977708817,-0.0642659142613411,-0.0007982297101989388,0.02442692220211029,0.08513889461755753,-0.06078016757965088,0.01586216688156128,-0.08819303661584854,0.00953173078596592,0.038760706782341,-0.02555617317557335,-0.003390134312212467,-0.07134942710399628,-0.06719276309013367,0.02906751073896885,0.02216246724128723,0.028769344091415405,0.04991597682237625,0.04741626977920532,-0.04898155853152275,0.009564964100718498,-0.03823179379105568,0.036882780492305756,0.038678109645843506,0.07152494788169861,-0.06161943078041077,-0.0726093128323555,0.028115034103393555,0.07551309466362,0.0005699307657778263,0.06480523198843002,0.02875366434454918,-0.002311164513230324,-0.014388701878488064,-0.05581463873386383,-0.0847368910908699,0.03647664189338684,0.06484324485063553,-0.07424087077379227,0.04478137195110321,-0.03441482037305832,-0.07728715240955353,0.03199752792716026,0.025528524070978165,0.040186334401369095,0.06249050050973892,-0.041299231350421906,-0.08693985641002655,-0.018517374992370605,0.03411116078495979,-0.06936465948820114,-0.019800031557679176,0.03945367410778999,-0.03608667850494385,-0.07683774083852768,0.021912746131420135,-0.028589671477675438,0.053450778126716614,0.03669777512550354,-0.04028132185339928,-0.0033243747893720865,-0.0073563531041145325,0.08631203323602676,0.023520207032561302,0.03637173771858215,-0.05365878343582153,-0.07344858348369598,0.02773687243461609,-0.01209830492734909,0.056391388177871704,-0.06823723018169403,0.0316450335085392,-0.06654398143291473,0.036521509289741516,0.08496449142694473,0.05480395630002022,-0.052707772701978683,0.00016604804841335863,0.05751648545265198,0.06098348647356033,0.0021952816750854254,-0.07603606581687927,-0.03166109323501587,-0.083412766456604,0.007868668995797634,0.009366272948682308,0.08555331826210022,0.005470734555274248,0.0024044038727879524,0.002029539318755269,0.03174725919961929,-0.05076710134744644,-0.07126060128211975,-0.04487687721848488,0.06349842250347137,0.060514263808727264,-0.00973384641110897,-0.06600020080804825,0.047015830874443054,-0.06829517334699631,-0.0008526096353307366,-0.03898632898926735,0.020715881139039993,-0.044360674917697906,0.08335857093334198,-0.026517469435930252,-0.06991297751665115,0.06335986405611038,0.0436723418533802,0.038905829191207886,0.010062222369015217,0.03524596616625786,-0.046718452125787735,-0.016568684950470924,-0.08341768383979797,0.048957619816064835,-0.042566850781440735,-0.0001126374481827952,-0.05343099310994148,-0.059420447796583176,-0.061728041619062424,-0.002042267704382539,0.0799420028924942,-0.05573130398988724,0.0341709665954113,-0.08056635409593582,-0.0033743083477020264,-0.012824179604649544,-0.06278225034475327,0.05435585230588913,-0.026071028783917427,-0.04977359250187874,0.036746371537446976,0.062473323196172714,-0.04741975665092468,0.07096187025308609,-0.06259653717279434,0.018554896116256714,-0.021145200356841087,-0.011328408494591713,-0.07018455117940903,-0.047729987651109695,-0.060429319739341736,0.06968846172094345,-0.057158004492521286,0.042388349771499634,0.05134645104408264,-0.035120051354169846,-0.031054850667715073,-0.02074221335351467,-0.007300097495317459,0.05927612632513046,0.02272592857480049,-0.011776534840464592,0.0037335995584726334,0.028457151725888252,0.06777125597000122,0.05590509623289108,-0.030720975250005722,0.08733910322189331,-0.07413553446531296,-0.07735492289066315,-0.00031774508533999324,-0.04325176030397415,-0.07988426834344864,-0.07382886856794357,-0.05258667469024658,-0.027667541056871414,0.06316722929477692,0.021889038383960724,0.009790818206965923,-0.05060596391558647,-0.0075052473694086075,-0.03830953687429428,-0.01110535766929388,-0.025264285504817963,-0.04652050882577896,-0.04509475454688072,-0.03829622641205788,0.02297031693160534,0.03904549404978752,0.08346988260746002,-0.0004790621460415423,0.030958883464336395,0.05774196237325668,-0.02631014958024025,-0.026984361931681633,-0.00806088000535965,-0.08679710328578949,0.04216529801487923,-0.026556381955742836,0.0492512471973896,-0.08756636828184128,-0.06138677895069122,-0.014345386065542698,0.05114937201142311,-0.021275728940963745,0.06376525014638901,-0.02871761843562126,0.01086116861552,0.02857706882059574,-0.0562225766479969,0.0809359923005104,0.02867147885262966,-0.07925539463758469,0.033921848982572556,0.0868111401796341,-0.07668350636959076,-0.08454690128564835,-0.04130392149090767,-0.0555499792098999,0.0789439007639885,-0.07645732909440994,0.03271074965596199,-0.024987032637000084,0.029174501076340675,0.04461667314171791,0.05812723562121391,-0.005712320562452078,-0.06507702171802521,-0.08296392112970352,0.0008300927001982927,-0.06726114451885223,0.043795421719551086,-0.04358888044953346,0.039575573056936264,-0.03289228677749634,-0.057753805071115494,0.06442689150571823,-0.04555649682879448,0.011522727087140083,-0.0863635241985321,0.06106302887201309,0.08391158282756805,-0.07647524774074554,0.06324702501296997,-0.016417039558291435,0.08013144880533218,0.07239378243684769,-0.02134370058774948,-0.018495047464966774,0.002649856498464942,-0.006216259673237801,-0.0647558942437172,0.027812009677290916,-0.02184654399752617,-0.07578960061073303,-0.07409268617630005,0.049724988639354706,0.04376961663365364,0.08818700164556503,0.015447788871824741,0.03327729552984238,0.0407184474170208,0.07819259166717529,-0.026633678004145622,0.00275611924007535,0.016316920518875122,0.05449360981583595,-0.04859597980976105,-0.07691682875156403,-0.054783180356025696,0.041069045662879944,-0.07326561212539673,-0.08515243977308273,-0.0003084411728195846,-0.047519318759441376,0.0704028457403183,0.08205877244472504,0.003784028347581625,-0.038516003638505936,0.0020754793658852577,0.025397026911377907,-0.06472226232290268,-0.054026369005441666,0.0666109248995781,-0.04217224195599556,-0.049154993146657944,0.07482600957155228,0.027147701010107994,-0.025104116648435593,-0.06777962297201157,0.020572224631905556,-0.049475498497486115,-0.080064557492733,-0.03784666955471039,0.012604836374521255,0.008510987274348736,-0.013758627697825432,0.06252987682819366,0.07365518808364868,0.0701160877943039,-0.014416392892599106,-0.08479677885770798,-0.005803673528134823,-0.026387004181742668,-0.03755122795701027,-0.04822373762726784,0.02439073845744133,-0.08250456303358078,-0.021698346361517906,-0.07530499249696732,-0.04461761191487312,-0.07579895853996277,0.0645177960395813,-0.058441828936338425,-0.03712859004735947,-0.026776419952511787,0.03731580823659897,-0.059960685670375824,0.016580579802393913,0.019761350005865097,0.08064238727092743,0.06019100919365883,-0.03695320710539818,0.0009789554169401526,0.01867484673857689,-0.010251367464661598,-0.06222129613161087,-0.06783168762922287,0.04379262775182724,0.0692833662033081,-0.01285347156226635,-0.01995723880827427,-0.06724212318658829,0.06420224905014038,0.06849797070026398,0.04791545495390892,-0.01415768451988697,0.050055019557476044,0.03555895760655403,-0.01128749456256628,0.03302258253097534,0.08661340177059174,-0.0830640196800232,-0.050991080701351166,-0.06313596665859222,0.07285251468420029,-0.08781725913286209,0.05590127035975456,-0.04711134731769562,-0.06288690865039825,-0.06198934093117714,0.07093032449483871,0.03683805093169212,0.03819086030125618,-0.04655161499977112,-0.019560594111680984,0.00030366802820935845,-0.08765754848718643,-0.01407583523541689,-0.023818669840693474,-0.02812228351831436,-0.018061062321066856,0.027063734829425812,-0.007246697321534157,-0.026700608432292938,0.02265707030892372,-0.002140332944691181,-0.05140066146850586,-0.05180104821920395,-0.03605968505144119,-0.06500958651304245,-0.043043456971645355,0.0028451229445636272,-0.04233887046575546,-0.045223284512758255,-0.051664333790540695,-0.02380894310772419,0.07805809378623962,0.018722334876656532,0.017825651913881302,0.04167994484305382,-0.06639789044857025,-0.08331013470888138,0.07110872864723206,0.04691021144390106,-0.045812275260686874,-0.027087030932307243,-0.031375303864479065,0.026523958891630173,-0.03890948370099068,-0.0011237718863412738,-0.051309265196323395,0.07511375099420547,0.08128108084201813,0.028550075367093086,0.06392700970172882,0.010100755840539932,0.03272851184010506,0.05763799697160721,0.031366053968667984,-0.07238677144050598,0.03882380202412605,-0.014202950522303581,-0.0369848795235157,0.06757858395576477,-0.005739252083003521,-0.06741317361593246,0.06566072255373001,0.08520416170358658,-0.04522388428449631,0.03819107264280319,-0.08821564167737961,0.07200919836759567,0.015202347189188004,-0.010698692873120308,0.06855403631925583,-0.03658106178045273,-0.029534339904785156,-0.07653506845235825,0.00398256117478013,-0.07768483459949493,0.07063957303762436,-0.06562702357769012,0.05734141916036606,-0.03704708069562912,-0.00450303265824914,0.029541147872805595,-0.012756522744894028,0.08174573630094528,0.01991710439324379,-0.022368470206856728,-0.008583394810557365,0.03176175802946091,0.007431795820593834,0.024314379319548607,0.004538172390311956,-0.006662521045655012,-0.06584512442350388,0.012942053377628326,0.044057101011276245,-0.007992833852767944,-0.07499483972787857,0.0445328950881958,-0.00319751282222569,0.06337123364210129,-0.07891646027565002,-0.07680229097604752,0.0426107682287693,-0.011916441842913628,-0.03005903773009777,0.08490703999996185,0.0846799910068512,-0.004577621817588806,0.034573595970869064,-0.0393238291144371,0.044209375977516174,0.0060907043516635895,0.057938702404499054,0.05118802189826965,-0.005625792779028416,-0.07281795889139175,-0.08103779703378677,0.057230908423662186,-0.029457254335284233,-0.033751342445611954,-0.08044705539941788,0.014782005921006203,-0.04754681885242462,-0.04542522877454758,-0.021111493930220604,0.015453826636075974,-0.07281669974327087,-0.08526449650526047,0.053891509771347046,-0.04207434505224228,0.02543623372912407,-0.032039739191532135,0.004120328463613987,-0.07551545649766922,-0.04456907883286476,0.08509853482246399,0.030888518318533897,0.060800548642873764,0.07343453913927078,-0.05754495784640312,0.079274982213974,-0.042902592569589615,0.02188323251903057,0.0827292650938034,0.053819745779037476,0.020501237362623215,-0.039615001529455185,0.042849551886320114,0.0456787645816803,-0.026898054406046867,-0.079474076628685,0.007262892555445433,0.009375439956784248,-0.006679948884993792,-0.04158802330493927,-0.049987416714429855,-0.038381773978471756,-0.01254985574632883,0.04018845409154892,0.08643452078104019,-0.08329647779464722,-0.03934968635439873,-0.07663813978433609,0.07707594335079193,0.003924609161913395,0.053901370614767075,-0.05247359350323677,-0.0064600370824337006,-0.01496814750134945,0.02378951385617256,0.08633041381835938,-0.02095891162753105,0.0005854829214513302,0.024829739704728127,0.042407095432281494,0.07548206299543381,0.013519844971597195,0.014930077828466892,7.746590563328937e-05,-0.06913571059703827,0.057446595281362534,-0.06141391023993492,0.06046971678733826,0.06258782744407654,0.04992548003792763,0.06368090212345123,0.08398307114839554,0.07440659403800964,0.0035674883984029293,0.05048610642552376,-0.0013194176135584712,0.08359012007713318,0.01621079444885254,-0.06935262680053711,-0.0625925064086914,-0.06651904433965683,0.013670161366462708,-0.0010515849571675062,0.04641079157590866,0.07501991093158722,0.06203414499759674,0.025378093123435974,0.06434228271245956,-0.053533438593149185,0.05632270872592926,0.019692808389663696,0.02316627837717533,0.08503711223602295,0.04912208765745163,-0.0731462836265564,-0.03225720673799515,0.0697770044207573,0.07102035731077194,0.0010504574747756124,0.026026079431176186,-0.06550181657075882,0.07878267019987106,-0.07854430377483368,0.08411943167448044,-0.031145645305514336,-0.05156703665852547,-0.03817007318139076,-0.027224397286772728,0.03237779811024666,-0.0441611185669899,-0.027661997824907303,-0.05019740015268326,-0.013043111190199852,0.08827049285173416,-0.01076335646212101,-0.052542462944984436,-0.03314921259880066,0.08032950758934021,-0.072916679084301,-0.011584082618355751,0.028349213302135468,0.018196754157543182,-0.038197338581085205,-0.007013835944235325,-0.07313399761915207,0.044410038739442825,-0.02384283021092415,-0.05391227826476097,0.013047251850366592,0.02858838625252247,-0.04732339829206467,-0.07213753461837769,0.06852327287197113,-0.03659401088953018,-0.01571050100028515,-0.006923462729901075,-0.06159830465912819,0.0761486068367958,0.08593429625034332,-0.07755348831415176,0.0713067427277565,-0.055468738079071045,0.032698165625333786,0.03377912938594818,-0.0016268156468868256,-0.010910333134233952,-0.08646223694086075,0.07394373416900635,-0.009277616627514362,-0.06521270424127579,0.0632309690117836,-0.08059743046760559,-0.05523093789815903,0.022061968222260475,0.017067229375243187,0.029592523351311684,0.06813714653253555,-0.08677574247121811,0.06780068576335907,0.02309555560350418,0.06502833962440491,0.01710927113890648,0.03504279628396034,-0.043554406613111496,0.08560372143983841,0.05479172244668007,-0.03387610986828804,0.08247066289186478,-0.047385942190885544,0.0829424113035202,0.020749788731336594,-0.0704241693019867,-0.08328300714492798,-0.06069626659154892,0.028823144733905792,0.013174577616155148,0.043898142874240875,-0.0588858388364315,-0.07728730142116547,0.06596628576517105,-0.013214943930506706,0.055035270750522614,-0.022507786750793457,0.005994209088385105,-0.021248701959848404,-0.07318393141031265,0.07801184803247452,0.05215402692556381,-0.05509744584560394,-0.0371231846511364,0.06482554972171783,0.015281266532838345,0.07275053858757019,0.030556337907910347,0.02946718968451023,-0.03679395467042923,0.08575427532196045,-0.008033599704504013,-0.008811472915112972,0.04597778618335724,0.03512239083647728,0.08815101534128189,0.049024224281311035,0.01562909409403801,-0.054131411015987396,-0.008643191307783127,0.05838591232895851,0.06872126460075378,0.07457710057497025,0.08164672553539276,-0.053171008825302124,0.04659431055188179,0.016269979998469353,-0.017111167311668396,0.07009508460760117,0.009954558685421944,0.05298270657658577,-0.024598712101578712,0.01559351198375225,-0.012142011895775795,0.026138558983802795,-0.021843235939741135,0.05160130187869072,0.007892260327935219,0.03774053230881691,-0.013232403434813023,0.08748827129602432,0.028827685862779617,-0.00765600660815835,0.014182350598275661,0.018054665997624397,-0.06749589741230011,0.005105216056108475,0.026324352249503136,0.01299278810620308,-0.06698042154312134,-0.035672206431627274,0.03117254562675953,-0.043485190719366074,0.019304879009723663,-0.07711496949195862,-0.043712910264730453,-0.06886819005012512,0.05657810717821121,0.05743547901511192,0.07650436460971832,-0.013639604672789574,0.01601671800017357,0.03848693147301674,0.07794663310050964,0.03955624997615814,0.04210317134857178,0.05087666213512421,0.04798603057861328,0.07507910579442978,0.023807775229215622,0.023283256217837334,-0.0340212844312191,-0.0399322509765625,0.08134831488132477,-0.04764082655310631,-0.05173936486244202,0.01781691610813141,0.031967371702194214,-0.07584427297115326,0.019010251387953758,-0.03059966489672661,-0.07661356776952744,0.018862757831811905,0.016765089705586433,-0.01408072467893362,0.07131236046552658,0.04201750084757805,0.022852083668112755,0.02134155109524727,0.009125055745244026,-0.04878736659884453,0.03818888962268829,0.0063447230495512486,0.022235170006752014,-0.07194636762142181,-0.06963606178760529,0.06845484673976898,0.05676203593611717,-0.011734472587704659,0.04941738024353981,-0.009991152212023735,-0.08254210650920868,-0.05079648643732071,-0.08685655891895294,-0.0680377185344696,0.0608748197555542,-0.06275630742311478,-0.04089905694127083,0.05711446702480316,-0.006858524866402149,0.009105594828724861,-0.051147498190402985,-0.06135537847876549,0.03084433823823929,-0.008759990334510803,0.008924121037125587,-0.07741425186395645,-0.0854920968413353,0.06635438650846481,-0.002319446299225092,0.01996179111301899,0.02612011879682541,0.04289825260639191,-0.03572302684187889,-0.018227078020572662,-0.009687674231827259,0.04077325016260147,-0.052642982453107834,0.004876938182860613,-0.08345424383878708,0.05635497346520424,-0.06846649944782257,0.015117052011191845,-0.020355990156531334,0.006854257546365261,-0.011562260799109936,0.001504094572737813,0.02155112661421299,0.04383450374007225,0.03452770784497261,0.08638004958629608,0.05351126194000244,-0.05196467041969299,0.04914209619164467,0.08329253643751144,-0.009827833622694016,-0.02875613048672676,-0.06566736847162247,0.048396941274404526,-0.06851648539304733,0.04026129096746445,-0.054895635694265366,0.0030893534421920776,-0.05175396800041199,-0.08706758171319962,-0.06527229398488998,-0.0771544799208641,-0.035850636661052704,-0.07743307203054428,0.07994694262742996,-0.05716176703572273,0.08439026772975922,0.08401598781347275,0.007381219416856766,-0.014374340884387493,0.045387107878923416,-0.05270136520266533,0.07637310028076172,-0.0470392107963562,0.013861971907317638,0.04330270364880562,-0.061609599739313126,-0.08114433288574219,-0.06609033793210983,0.043044060468673706,-0.07813598960638046,0.018785493448376656,0.04577901214361191,0.008468271233141422,0.0143660269677639,-0.046879664063453674,0.06884953379631042,-0.035255808383226395,-0.0013293959200382233,0.03912648931145668,-0.059234172105789185,-0.0720847025513649,-0.011221450753509998,0.0377705842256546,0.08746052533388138,0.07833507657051086,-0.018220482394099236,-0.03079219162464142,-0.046198636293411255,-0.04103052616119385,0.023794878274202347,0.016545524820685387,0.0710647702217102,-0.014382664114236832,0.07189469039440155,-0.0030742965172976255,0.08258530497550964,-0.08656943589448929,0.032033879309892654,0.014450015500187874,0.04615875333547592,0.03820248320698738,-0.05865127965807915,-0.014825564809143543,-0.03594360128045082,0.022117337211966515,0.03717648983001709,0.021936476230621338,0.00448081037029624,-0.055294495075941086,0.036921482533216476,0.003843687241896987,-0.07968664169311523,0.08547359704971313,-0.08802501112222672,-0.0755077451467514,-0.06309918314218521,0.0376371368765831,0.08471839874982834,0.03351101279258728,0.04953485354781151,0.07709075510501862,0.030230816453695297,0.06620371341705322,-0.01622040383517742,0.03445154055953026,0.05581426993012428,0.03569319471716881,-0.020566828548908234,0.05864396691322327,-0.01402135007083416,0.015467018820345402,0.03651871532201767,0.07930784672498703,-0.027767397463321686,-0.058574751019477844,-0.033111605793237686,0.054603211581707,0.07743314653635025,-0.02863948978483677,-0.009945191442966461,0.044843465089797974,0.01204072218388319,-0.06235019117593765,-0.025566404685378075,-0.0038393670693039894,-0.06549583375453949,0.057394206523895264,0.05610528215765953,0.012114794924855232,-0.025278594344854355,-0.0415656752884388,0.03231646493077278,-0.04290270805358887,-0.023378845304250717,-0.0038976666983217,0.08269142359495163,0.0461445078253746,-0.003367796540260315,-0.08719909191131592,0.015880636870861053,0.01613013632595539,0.05567151680588722,0.08472767472267151,-0.05523224174976349,-0.055351316928863525,0.018361832946538925,0.049644678831100464,0.06906711310148239,0.023855779320001602,0.04837455973029137,0.05930482968688011,0.06374673545360565,-0.0129866236820817,-0.08268614113330841,-0.0006790068000555038,-0.0007435968145728111,-0.08373789489269257,-0.06360942125320435,-0.08318471908569336,-0.07834542542695999,0.0674680769443512,-0.07045987993478775,0.010991940274834633,0.04909246787428856,0.03679533675312996,0.07195395231246948,0.018085571005940437,-0.08715759217739105,0.05960274487733841,-0.017647244036197662,0.022266115993261337,0.07052405923604965,0.04154807701706886,-0.04713119566440582,0.017807601019740105,-0.07904016226530075,0.02936125360429287,0.011567729525268078,-0.005087124649435282,-0.01752748340368271,0.03347199410200119,-0.05101818963885307,0.012487932108342648,0.0513051375746727,-0.07747609168291092,0.07825575768947601,0.002082602120935917,0.019717780873179436,0.05925619229674339,-0.001391267403960228,0.02855079062283039,-0.000787724566180259,-0.0019240457331761718,-0.07234198600053787,0.06892585009336472,0.031673070043325424,0.0384071059525013,0.06033821776509285,0.0342339463531971,-0.012963780201971531,0.00605092803016305,0.020434360951185226,0.07754502445459366,0.03486007824540138,0.04928173869848251,0.06628367304801941,0.07430512458086014,-0.01810929924249649,-0.042177774012088776,0.0835154727101326,-0.00016805001359898597,-0.04160553589463234,-0.04972264915704727,0.03313832730054855,0.06667719781398773,-0.05449638143181801,-0.07536002993583679,0.08681094646453857,0.05820224806666374,0.04812148958444595,0.07057175785303116,0.08474420011043549,0.0644257590174675,0.05010373890399933,-0.021464219316840172,0.051329467445611954,-0.08161788433790207,0.02615167573094368,0.008304604329168797,-0.014130014926195145,0.06800863146781921,-0.000905820052139461,-0.02517225779592991,-0.02469354309141636,0.002630985341966152,-0.01945718750357628,0.0018976301653310657,0.023176688700914383,0.0607607401907444,-0.046971481293439865,-0.010357609018683434,-0.009232393465936184,0.06357008218765259,-0.04118805006146431,-0.047114718705415726,0.058960068970918655,0.023971134796738625,-0.04195757582783699,0.016816571354866028,-0.011307894252240658,0.04938673973083496,0.04490949958562851,-0.010294567793607712,-0.07314866036176682,0.006137171294540167,-0.07152184844017029,0.042059995234012604,0.03153182566165924,-0.07450023293495178,0.043809402734041214,0.0607575997710228,-0.022479578852653503,0.03936142474412918,-0.03116779401898384,-0.05222349613904953,0.0038334664423018694,0.0011921236291527748,0.047313135117292404,0.023611338809132576,0.08247832208871841,0.0018980411114171147,-0.07470366358757019,0.024838728830218315,0.016785046085715294,0.086882084608078,0.06143077835440636,0.028482818976044655,-0.06079259142279625,-0.024697894230484962,-0.06943941861391068,0.05520779639482498,0.04444508254528046,-0.06493573635816574,-0.04609920084476471,0.0756448432803154,0.026738276705145836,0.08432622998952866,0.02703736163675785,0.056246716529130936,-0.06028060242533684,0.02979610301554203,-0.054436035454273224,0.06541463732719421,0.07966737449169159,-0.015250899828970432,-0.04742627963423729,-0.01793723553419113,-0.075896255671978,0.04556619003415108,0.0824602022767067,-0.0035555711947381496,0.02508300170302391,-0.07560847699642181,0.038280557841062546,0.02514680102467537,0.05038902163505554,0.06152012199163437,-0.0024889083579182625,-0.07316090911626816,-0.00578432809561491,-0.0370117723941803,-0.025775747373700142,0.06930088251829147,0.0874641165137291,0.05780329555273056,-0.07891914248466492,-0.05826261267066002,0.08116231858730316,0.06272705644369125,-0.04617544263601303,0.08575451374053955,-0.009178445674479008,-0.0044838134199380875,0.017239483073353767,0.029052982106804848,0.003596643451601267,-0.040216680616140366,0.06023852899670601,-0.01493646390736103,-0.07375907897949219,-0.04285387322306633,-0.06699918210506439,0.031290095299482346,-0.07522042840719223,0.0030708194244652987,0.07156877964735031,0.04334106668829918,0.06963451951742172,-0.0705944299697876,0.05145967751741409,-0.0721573531627655,0.0021969571243971586,0.08090487867593765,-0.08524682372808456,0.01159445010125637,0.048372622579336166,0.0006989316898398101,0.025313997641205788,-0.06008971855044365,0.07144328951835632,-0.03204845264554024,-0.023848308250308037,0.08771286904811859,-0.08775394409894943,-0.0033507798798382282,0.08436544984579086,0.021176420152187347,-0.013242191635072231,0.005935382563620806,-0.06708737462759018,0.05638836324214935,0.03819229453802109,-0.074799083173275,0.03556572273373604,0.03411393240094185,0.03556564822793007,0.008948239497840405,-0.07090988755226135,-0.008266018703579903,-0.022567540407180786,0.08538372069597244,-0.08330360054969788,-0.07398910820484161,0.08501732349395752,0.010858134366571903,0.06305771321058273,0.05699656158685684,-0.0691336989402771,0.06807421147823334,0.07240110635757446,-0.0829135999083519,0.07548326253890991,0.0806826800107956,0.03295842558145523,0.06975255161523819,-0.08377549052238464,0.00606698589399457,0.04281296953558922,-0.0796368196606636,0.08105058968067169,-0.08710937201976776,-0.06819213181734085,-0.06439763307571411,0.010269690304994583,0.03610958531498909,-0.040828071534633636,0.05848999321460724,-0.023846864700317383,0.009306402876973152,0.00605583842843771,0.01364514697343111,-0.026849964633584023,0.06421983987092972,0.08037945628166199,0.014580006711184978,0.006895867176353931,-0.020891770720481873,0.008793644607067108,-0.019568318501114845,0.019100887700915337,-0.038436438888311386,0.08795933425426483,-0.05345601588487625,-0.035238925367593765,-0.08531931787729263,0.03280412405729294,0.055839620530605316,-0.027727147564291954,-0.0333070307970047,0.08700775355100632,0.01758567802608013,0.04315227270126343,0.0394253209233284,-0.07839087396860123,-0.05430837348103523,-0.0073353745974600315,0.021256225183606148,-0.027678698301315308,0.014937917701900005,0.002284106332808733,0.006503184791654348,-0.05428294837474823,0.03423163667321205,-0.07887733727693558,0.036428216844797134,0.05366189405322075,0.05931222811341286,-0.03804078698158264,0.019117241725325584,-0.06739891320466995,0.007875296287238598,-0.08546405285596848,0.014052454382181168,-0.021178189665079117,0.08514291048049927,-0.03891957923769951,0.0621827207505703,-0.0800749734044075,-0.011429814621806145,-0.08061451464891434,-0.046181999146938324,0.04363315552473068,0.021430861204862595,0.015734367072582245,0.04232810065150261,0.07078200578689575,0.07488421350717545,-0.012892826460301876,0.08450934290885925,0.04814954847097397,0.012913351878523827,-0.04157474637031555,0.07799328863620758,-0.010130448266863823,-0.034087684005498886,-0.0459490641951561,-0.06651920825242996,0.055538028478622437,-0.06852373480796814,0.0798550620675087,-0.05439978092908859,-0.08354789763689041,0.07153473049402237,-0.04016959294676781,-0.05252305418252945,0.07216931134462357,0.0171512383967638,0.018578678369522095,-0.028571927919983864,0.012305931188166142,-0.0325578935444355,0.042662765830755234,-0.037089910358190536,0.03789404034614563,0.04955924674868584,-0.07367255538702011,-0.05070101469755173,0.06726130098104477,-0.07279840856790543,0.04477967694401741,-0.0560770221054554,0.0015938462456688285,0.005505221430212259,-0.047018613666296005,0.06556500494480133,-0.07567943632602692,-0.08495540171861649,-0.0132024260237813,-0.07436513900756836,0.08359290659427643,-0.002222624607384205,-0.06537796556949615,0.029919635504484177,-0.019240794703364372,-0.07664395123720169,0.0771670937538147,0.00512557290494442,0.018336839973926544,0.08069118112325668,-0.05200543627142906,-0.0006231938023120165,0.08112644404172897,0.007467757444828749,0.06682760268449783,-0.08485724031925201,-0.0814744085073471,0.06781579554080963,-0.011694359593093395,0.0026335036382079124,-0.08246714621782303,0.06852072477340698,-0.06722113490104675,0.048167482018470764,-0.011563325300812721,-0.02361740730702877,-0.017839506268501282,-0.05303269252181053,-0.06204844266176224,0.07746761292219162,-0.056259993463754654,-0.0599738247692585,0.054361920803785324,-0.006866248324513435,-0.06157425791025162,-0.012388739734888077,-0.033839453011751175,0.07037629187107086,-0.02900134027004242,0.06088012084364891,0.05952508747577667,-0.001458175596781075,0.07677330821752548,-0.012116449885070324,-0.018933281302452087,-0.0023535010404884815,-0.07244997471570969,-0.04686740040779114,-0.06972864270210266,0.02409626916050911,9.987749217543751e-05,0.04950609803199768,0.0880073830485344,0.052863337099552155,-0.04606160521507263,0.007900616154074669,0.05183668062090874,-0.04673602804541588,0.011416864581406116,-0.050471145659685135,0.03888726234436035,0.055357396602630615,0.0039400034584105015,-0.05251460522413254,-0.030395284295082092,0.05026421323418617,-0.033683422952890396,-0.011266673915088177,-0.08675969392061234,-0.0700526162981987,-0.04451113939285278,0.07362011075019836,-0.05126481130719185,-0.06075957044959068,0.023863481357693672,0.012732562609016895,0.0797966867685318,0.06937853991985321,-0.033452678471803665,0.07447338849306107,0.04024222120642662,-0.060894954949617386,0.07671592384576797,-0.03809180483222008,-0.0711270272731781,-0.02146914042532444,0.06081710010766983,0.009430315345525742,0.022757580503821373,0.07276078313589096,-0.04225993901491165,-0.038904204964637756,0.048709552735090256,0.07213685661554337,-0.07125783711671829,-0.028262769803404808,0.027201291173696518,-0.0215796809643507,0.06203464791178703,0.08174259960651398,0.06764503568410873,0.07726622372865677,-0.07215540111064911,0.03607703745365143,-0.009666811674833298,-0.02807382494211197,-0.06401454657316208,0.04366118460893631,0.06574699282646179,-0.05805080384016037,-0.07199299335479736,0.0057495045475661755,0.00731247803196311,-0.010495197027921677,0.030632751062512398,-0.05967949330806732,0.0042380657978355885,0.07085420191287994,-0.03222792595624924,0.03564726561307907,0.001879264716990292,-0.012391805648803711,0.003275463357567787,-0.05042025446891785,-0.0022626430727541447,-0.05357237532734871,0.07705672085285187,0.023433731868863106,0.07329987734556198,0.0022001180332154036,0.06481143832206726,0.04921535775065422,0.03148572891950607,0.06731100380420685,0.03176039829850197,-0.05231134966015816,0.051655810326337814,0.06517525017261505,0.05933442711830139,0.012354705482721329,-0.008491178043186665,0.03996417671442032,0.01888703554868698,-0.06172382831573486,0.0389401875436306,-0.08133170753717422,0.01516694389283657,-0.06049728021025658,0.0156452264636755,-0.07466854900121689,0.03854871913790703,0.027731962502002716,-0.04605846479535103,0.018294472247362137,-0.08635693043470383,-0.023119041696190834,0.08386053144931793,-0.049913354218006134,-0.07656358182430267,-0.049981094896793365,0.011791802942752838,-0.08421595394611359,-0.02385038509964943,-0.07086032629013062,-0.08012986928224564,-0.04644898697733879,0.05268922820687294,0.08041440695524216,0.05011117085814476,-0.0328991562128067,-0.0883195549249649,-0.0012877968838438392,0.0016257092356681824,-0.060473550111055374,-0.020646139979362488,0.004629841540008783,0.04825210198760033,0.029054541140794754,0.03870222717523575,0.06756941229104996,0.021192045882344246,-0.015787461772561073,0.03645849972963333,-0.024791840463876724,-0.08562234044075012,-0.044091060757637024,0.008435660041868687,0.07197610288858414,0.030903616920113564,0.02957412786781788,-0.023073691874742508,-0.0830422192811966,0.006473376415669918,-0.04697718098759651,0.0036097406409680843,-0.05229774862527847,-0.08602998405694962,-0.0424700491130352,0.011528047733008862,0.03693198785185814,0.021473566070199013,0.06421048194169998,0.0635969266295433,-0.030574429780244827,-0.05476529896259308,0.021105803549289703,0.025945009663701057,0.0003930720267817378,-0.04366559907793999,0.027550719678401947,-0.004373894538730383,-0.010957485064864159,0.06411873549222946,0.0847216546535492,-0.07275231182575226,0.08832574635744095,0.014665312133729458,0.0031157478224486113,0.07801245898008347,-0.08509284257888794,-0.011084157042205334,0.08822228759527206,0.02564847469329834,-0.030345866456627846,0.01361772045493126,-0.048283640295267105,-0.01442701369524002,-0.02746586874127388,0.08633971214294434,0.06809855997562408,0.07524143904447556,-0.05353941395878792,-0.0015431541251018643,0.06669735163450241,-0.04297565668821335,-0.07823983579874039,-0.07715988904237747,0.011416085064411163,-0.06968595832586288,-0.014509368687868118,0.0475509911775589,-0.024812323972582817,-0.05376870557665825,-0.01657136157155037,-0.02841617353260517,-0.06883194297552109,-0.053245365619659424,-0.011003182269632816,-0.08273492753505707,-0.037591490894556046,0.08554215729236603,-0.007977575995028019,0.05419835075736046,0.08131318539381027,-0.05632524937391281,-0.040453407913446426,0.07657383382320404,0.06007689610123634,0.009555533528327942,-0.005977518856525421,0.07945795357227325,-0.048719290643930435,0.062429774552583694,0.027417894452810287,0.08781222254037857,-0.055921461433172226,-0.07899462431669235,0.012889759615063667,-0.0626969039440155,-0.012300631031394005,-0.008987846784293652,0.05516234412789345,0.08086764067411423,0.07722078263759613,0.07349912822246552,-0.0765659436583519,0.0500628687441349,0.00776310171931982,0.069101981818676,-0.06051861494779587,0.06395130604505539,0.05172687768936157,0.005055936053395271,0.014907983131706715,0.020858854055404663,-0.02615777775645256,0.027914701029658318,-0.05302426591515541,0.04054474085569382,-0.052199430763721466,0.07047632336616516,-0.04995394125580788,-0.024361267685890198,-0.07273496687412262,-0.0057322559878230095,0.005857189651578665,0.008678878657519817,-0.05449942499399185,0.052708446979522705,0.05437716841697693,-0.0024225690867751837,0.007159126922488213,0.053378138691186905,0.0690901055932045,-0.016531342640519142,0.02305849827826023,-0.007883346639573574,-0.028286688029766083,0.058236975222826004,-0.02686266228556633,0.008289041928946972,0.017584877088665962,0.027106018736958504,0.018185162916779518,-0.04915488883852959,0.06841468811035156,0.010707005858421326,0.05163140594959259,0.06038732826709747,0.06021302193403244,-0.03629890829324722,0.007983824238181114,-0.07141683250665665,0.08006115257740021,0.02092280238866806,-0.01740957796573639,-0.06925272196531296,-0.08140500634908676,-0.026512980461120605,0.04348678141832352,0.05332469940185547,-0.08603563904762268,-0.021911270916461945,0.04616086184978485,-0.0743463933467865,0.037367627024650574,-0.06444217264652252,-0.02787458710372448,0.08063838630914688,0.03907597437500954,0.04584052413702011,-0.04212671145796776,-0.07594996690750122,-0.06058177351951599,-0.0037417549174278975,-0.01251758262515068,-0.08455224335193634,0.06053253635764122,-0.06431882083415985,-0.04975322633981705,0.035114772617816925,0.0877380445599556,0.07813789695501328,-0.07960195094347,0.06473685055971146,-0.05390208959579468,-0.04945055767893791,0.00024115372798405588,0.021149372681975365,-0.018847722560167313,0.04268364980816841,-0.04253152385354042,0.013536482118070126,0.0011883724946528673,0.004896178375929594,0.05167176201939583,0.052456650882959366,-0.040732063353061676,0.019517341628670692,0.08602779358625412,-0.07167133688926697,0.06795140355825424,0.05517210811376572,0.010737341828644276,0.015613984316587448,-0.04312025010585785,-0.07129248976707458,0.08493609726428986,0.03866351768374443,0.056801676750183105,-0.05939316749572754,0.02924545481801033,0.06140689179301262,-0.0872313529253006,-0.015151781029999256,-0.062369294464588165,0.07688679546117783,0.04391863942146301,-0.02626173198223114,-0.0863046795129776,0.05447833985090256,0.08681580424308777,0.07033809274435043,0.08808378130197525,0.03275759518146515,-0.05694900080561638,-0.006013775710016489,-0.002918732352554798,0.03662589564919472,-0.0028306981548666954,-0.041732363402843475,0.03602089732885361,0.032218556851148605,-0.07903367280960083,-0.0257819015532732,-0.024058779701590538,-0.03783350810408592,-0.037812042981386185,-0.08540947735309601,-0.05877681449055672,0.08811435848474503,0.03692536801099777,0.08490724116563797,0.07980402559041977,-0.0006082633044570684,-0.003069828962907195,-0.020114898681640625,0.017484355717897415,0.03231636807322502,-0.02287178859114647,0.0057922834530472755,0.055850811302661896,-0.019108379259705544,-0.07805780321359634,-0.03182119503617287,-0.08436738699674606,-0.04096118360757828,-0.0111668286845088,0.028888776898384094,-0.08698738366365433,0.07921001315116882,-0.08532562106847763,-0.00046312008635140955,-0.002431082772091031,-0.06709832698106766,-0.05209587514400482,0.05644964426755905,0.06970460712909698,0.07026619464159012,0.047801755368709564,-0.058564215898513794,0.06746414303779602,-0.050655949860811234,0.06635021418333054,-0.05404774844646454,-0.023571593686938286,-0.06527730077505112,0.013888850808143616,0.005857210606336594,-0.022014131769537926,-0.014453113079071045,-0.07572804391384125,-0.027528181672096252,0.059794437140226364,-0.0560782253742218,0.08827919512987137,-0.053585756570100784,-0.07509773969650269,-0.019669059664011,-0.024200478568673134,-0.08657637983560562,-0.07461731880903244,-0.04488062858581543,0.066569983959198,0.07639222592115402,-0.040751904249191284,-0.0800529345870018,-0.06596533954143524,0.07538498938083649,-0.0022921247873455286,0.04403301328420639,0.010455621406435966,-0.038210902363061905,-0.01467930432409048,-0.011001823469996452,-0.06447183340787888,0.04863739758729935,0.0845058411359787,0.049491167068481445,-0.07194064557552338,-0.051592905074357986,-0.03032720647752285,0.0766034945845604,0.012734269723296165,0.004520755261182785,-0.026619665324687958,0.001604562159627676,0.07196997851133347,0.01013762317597866,-0.04230038821697235,0.004608894698321819,0.06630297750234604,-0.02540532872080803,0.006959645543247461,-0.035740673542022705,0.07742371410131454,-0.04869108274579048,0.08045394718647003,0.04944830387830734,0.06016506627202034,-0.03308252617716789,0.05885571241378784,-0.04101703688502312,0.01461636833846569,-0.05830758064985275,0.020326118916273117,0.047078944742679596,-0.003504963358864188,-0.03877314180135727,-0.06940261274576187,0.07321938872337341,0.04966529831290245,0.07227683067321777,0.07612258195877075,0.08243545889854431,0.022508513182401657,0.03071555867791176,-0.08053809404373169,0.009027285501360893,-0.03128404542803764,-0.08675305545330048,0.05716234818100929,-0.06467472016811371,-0.047516725957393646,-0.05255834013223648,-0.04112210124731064,0.05626850575208664,0.060014232993125916,0.015622909180819988,-0.008886483497917652,0.04751858860254288,-0.029595937579870224,-0.07442162185907364,0.014129256829619408,-0.07596970349550247,0.04706528037786484,0.07955058664083481,0.06859974563121796,0.05365576222538948,0.024571159854531288,0.038264721632003784,0.03731142356991768,-0.025568585842847824,-0.05050940439105034,-0.05385488271713257,-0.030283933505415916,-0.08038881421089172,-0.006289468612521887,0.0676952376961708,0.078233502805233,0.047376397997140884,-0.01690659672021866,0.07489774376153946,0.07027119398117065,-0.07959264516830444,0.08555109053850174,-0.03459635749459267,-0.010055479593575,-0.045423269271850586,0.029759636148810387,0.04699566215276718,-0.07888804376125336,-0.025870800018310547,0.06933315843343735,-0.07372675091028214,0.03600982576608658,-0.048607032746076584,-0.019839702174067497,0.075333371758461,-0.06194385513663292,-0.03450675308704376,-0.03622768074274063,0.06120254471898079,-0.0399952195584774,-0.02982652373611927,0.01452082209289074,0.07517199963331223,-0.0656266137957573,0.03228498995304108,-0.06106087937951088,-0.07183149456977844,0.05081560090184212,0.0456061027944088,0.030236855149269104,-0.07219793647527695,0.02404707297682762,-0.07675784081220627,0.01158869732171297,-0.0862446203827858,-0.04673950374126434,0.0315290242433548,-0.061817530542612076,-0.05026267468929291,0.08745376020669937,-0.043276574462652206,-0.0657023936510086,0.07874090224504471,0.04581599310040474,0.07366444915533066,-0.03832950070500374,-0.06394410133361816,0.025793354958295822,-0.037508606910705566,-0.07750564068555832,0.08347158879041672,0.015830250456929207,-0.01386426854878664,-0.05623190104961395,-0.06188853830099106,0.04587457701563835,0.002131608547642827,-0.034188490360975266,0.05159597098827362,-0.07785762846469879,0.03241431713104248,0.07917139679193497,0.06408113986253738,0.04642482474446297,-0.05004672706127167,0.027474191039800644,-0.03068016655743122,0.011370460502803326,-0.00481700524687767,-0.04605139419436455,0.050311703234910965,0.011606862768530846,0.07852816581726074,0.08288959413766861,-0.0635809451341629,-0.08742599934339523,0.08674449473619461,0.08080289512872696,0.07060867547988892,0.022910647094249725,0.05742747336626053,0.048253074288368225,-0.049860332161188126,-0.021383076906204224,-0.07779992371797562,-0.05642569437623024,-0.047833047807216644,-0.05820190906524658,-0.0521942675113678,0.05927470326423645,0.020549632608890533,-0.024781271815299988,0.011902997270226479,-0.01228440459817648,-0.08359111845493317,-0.05933210998773575,-0.07321228086948395,0.037416644394397736,-0.055850621312856674,0.0695350170135498,-0.06107822060585022,0.060599781572818756,0.08052750676870346,0.07717163860797882,0.00994475930929184,0.04174984619021416,0.0691201463341713,0.07621060311794281,0.04134706035256386,0.04296674206852913,0.05348026007413864,0.04648919403553009,-0.06595722585916519,-0.06441131979227066,-0.00939150806516409,0.054082583636045456,-0.016313474625349045,0.02027902938425541,-0.023693999275565147,-0.05548853799700737,-0.04460279643535614,0.0013694459339603782,0.01436869241297245,-0.07780921459197998,-0.036038294434547424,-0.07428250461816788,0.05242500826716423,0.08053625375032425,-0.012886229902505875,0.012451495975255966,-0.0019834202248603106,-0.03773006796836853,0.014060715213418007,0.0041971937753260136,-0.08046995103359222,-0.014174764975905418,0.0817946121096611,0.05133099481463432,0.03967594727873802,0.03347156196832657,-0.01742030307650566,-0.014569754712283611,0.005100579932332039,0.00195315876044333,-0.02529149129986763,0.08052569627761841,0.04506947845220566,0.07472332566976547,0.0688798800110817,0.04321308806538582,0.0036865321453660727,-0.04632866755127907,-0.0026797386817634106,-0.08105972409248352,-0.007630718406289816,0.0644630566239357,0.01231338083744049,0.0469113290309906,0.0059744524769485,0.051897015422582626,-0.07189607620239258,0.020625118166208267,0.062639981508255,-0.0026611413341015577,0.023477407172322273,0.03740868717432022,0.0016312937950715423,0.07695730030536652,0.029959769919514656,-0.050057802349328995,-0.02847238816320896,-0.02032194472849369,-0.045522745698690414,-0.07261821627616882,-0.08167945593595505,-0.04484385624527931,-0.045566968619823456,-0.01697085052728653,0.040245961397886276,0.0345255509018898,0.08522401005029678,0.08518742769956589,-0.06136756017804146,0.05638359859585762,0.0850188210606575,0.081511490046978,-0.0486234687268734,-0.01422774326056242,-0.02281542681157589,-0.06861954927444458,-0.039692606776952744,0.004450359381735325,0.0007366215577349067,0.056653983891010284,0.026153435930609703,-0.007495290134102106,0.08588268607854843,-0.00365727161988616,0.03947628661990166,-0.03431548923254013,-0.039947330951690674,0.02788589335978031,0.026839176192879677,-0.0090457359328866,-0.013451850973069668,-0.0662917047739029,0.024019382894039154,-0.041313815861940384,0.05629314109683037,-0.0658484622836113,-0.07126540690660477,0.020189877599477768,-0.013666958548128605,-0.07677900791168213,0.04003579542040825,-0.038487277925014496,-0.037060145288705826,0.00488281762227416,-0.06489240378141403,0.021585550159215927,-0.03692392632365227,-0.03051001951098442,0.08423139899969101,0.03068799525499344,-0.016323789954185486,-0.07591434568166733,-0.07333563268184662,0.012093795463442802,0.06392817944288254,0.009166191332042217,0.030455544590950012,-0.007243715692311525,0.023310810327529907,-0.07136587798595428,0.0703510195016861,0.010152606293559074,-0.041396867483854294,-0.059786662459373474,0.02540747821331024,-0.0799962729215622,0.030164308845996857,-0.005376536399126053,-0.02791099064052105,-0.018786387518048286,0.004866359289735556,-0.04139740392565727,-0.049227505922317505,0.06160788983106613,0.07327620685100555,-0.08740672469139099,0.014173110015690327,0.0836174488067627,-0.06274060904979706,-0.008748147636651993,0.042836349457502365,-0.04346981644630432,-0.010702823288738728,0.08096610754728317,-0.03609932214021683,0.028518127277493477,0.04284362867474556,-0.08327633142471313,0.02582835778594017,-0.05865051969885826,-0.07146810740232468,-0.021798286586999893,0.0004913268494419754,0.013402128592133522,0.05830930173397064,0.047696303576231,-0.013095563277602196,0.01551760546863079,-0.08539161086082458,-0.018632277846336365,-0.0725482851266861,0.022888898849487305,0.08413475751876831,0.0651419460773468,-0.02679939940571785,0.06351619213819504,0.0873480960726738,0.07196242362260818,-0.014867805875837803,-0.019355950877070427,-0.08369038254022598,0.04668150097131729,-0.011849228292703629,-0.07943067699670792,-0.010766148567199707,-0.07459023594856262,0.044396743178367615,0.057628702372312546,-0.015653086826205254,0.0748150572180748,0.08792390674352646,0.08329321444034576,0.05567515268921852,-0.02067447267472744,-0.03076522797346115,0.06388942897319794,0.02818804420530796,-0.032935433089733124,0.07436233758926392,0.08026715368032455,0.007546308916062117,-0.08388306200504303,0.015109592117369175,0.08662641048431396,0.06589879095554352,0.035323578864336014,0.07708055526018143,-0.06777182221412659,-0.06194109469652176,-0.026469221338629723,0.04614480212330818,-0.049468979239463806,-0.02553819678723812,0.0522356741130352,-0.08699995279312134,0.04758079722523689,-0.08729634433984756,0.07614506781101227,0.03467445448040962,0.0858202576637268,-0.019527561962604523,0.026271574199199677,0.04956809803843498,-0.06723897159099579,-0.004875684157013893,0.06070219725370407,-0.03484504297375679,0.038389794528484344,-0.07610131800174713,-0.07809997349977493,0.06294326484203339,-0.047960858792066574,-0.07416582107543945,0.015582332387566566,-0.06380055099725723,-0.05427968129515648,0.034386392682790756,-0.0005291536799632013,-0.003878848161548376,0.08375025540590286,-0.08262094110250473,-0.019546812400221825,0.06695189327001572,-0.05756194144487381,0.07134093344211578,0.004639545921236277,-0.06311327964067459,-0.08689046651124954,-0.01998320035636425,0.04925791546702385,0.07055801898241043,-0.03397798910737038,-0.07419124245643616,-0.07332554459571838,-0.04668275639414787,-0.03149384260177612,-0.0006775948568247259,0.019223619252443314,0.08127016574144363,-0.04109490290284157,-0.028292493894696236,-0.044753462076187134,0.05886637419462204,-0.05351131409406662,0.010020076297223568,0.01941744238138199,0.06251552700996399,0.07484979182481766,-0.0552394799888134,0.03224216029047966,0.007206963375210762,-0.015093976631760597,-0.07609043270349503,0.029810013249516487,-0.026306482031941414,-0.048564378172159195,0.07969387620687485,-0.011968450620770454,-0.07619566470384598,0.0716024860739708,0.05605513975024223,-0.03357599303126335,0.07069747895002365,-0.013151070103049278,0.07815100252628326,-0.004415219649672508,0.042668718844652176,0.0014855499612167478,0.06816919893026352,-0.046967729926109314,-0.06240363419055939,-0.05087316408753395,-0.046115923672914505,-0.0683104619383812,-0.022913724184036255,0.03518979251384735,0.08257854729890823,-0.001697211409918964,0.01781749539077282,0.03714289888739586,-0.020484421402215958,-0.013285835273563862,-0.018082577735185623,0.03982693701982498,-0.05266404524445534,-0.008012347854673862,0.00850245263427496,0.07949050515890121,-0.01689799875020981,-0.0378761924803257,-0.0010406689252704382,0.0406574010848999,-0.009064385667443275,0.046154171228408813,-0.039176199585199356,-0.03869255632162094,-0.05485732480883598,-0.03895159065723419,0.030088413506746292,-0.004929316230118275,-0.05986279994249344,0.07579183578491211,-0.027237631380558014,0.06479120999574661,-0.06937865167856216,0.07254588603973389,-0.006317601539194584,-0.06618191301822662,-0.0031786414328962564,0.00012017120025120676,-0.0632205456495285,0.06787809729576111,-0.06348156929016113,0.08221092820167542,-0.05819576606154442,0.042815517634153366,0.006068198010325432,0.08418724685907364,0.08458416908979416,-0.06067487597465515,0.07043608278036118,-0.010559449903666973,0.0334506556391716,0.04981132596731186,-0.012356138788163662,0.043488770723342896,0.038012705743312836,0.0020005316473543644,-0.030094260349869728,0.04601328447461128,0.07673599570989609,-0.08395081758499146,-0.005509362090379,0.059811823070049286,-0.005790018010884523,-0.08461064845323563,-0.05125313624739647,-0.02901175059378147,0.06708822399377823,-0.010362392291426659,-0.07257061451673508,0.058634284883737564,-0.06270210444927216,0.013642281293869019,0.0260641910135746,-0.042532987892627716,-0.07436653971672058,0.04649398848414421,-0.0793125182390213,-0.01424446515738964,0.08132824301719666,0.07526013255119324,0.0472223274409771,0.03917357698082924,0.04392368346452713,-0.06968530267477036,0.03376860171556473,0.0377020426094532,-0.004638639744371176,-0.06046266481280327,-0.04339537397027016,-0.055817123502492905,-0.011325701139867306,-0.0019192304462194443,-0.01946890354156494,0.023475773632526398,-0.02773812599480152,-0.02317800559103489,0.02307252213358879,0.003538786433637142,0.05872005224227905,-0.05051518976688385,0.045850373804569244,0.043222296983003616,-0.05714556202292442,0.017251906916499138,0.05739310011267662,0.009172745048999786,0.030049575492739677,-0.05596018210053444,-0.060471631586551666,-0.06822829693555832,0.0032531465403735638,0.07562978565692902,0.04588604345917702,-0.08114755898714066,0.07515600323677063,0.03368571028113365,0.08180410414934158,0.03126753494143486,0.06071709841489792,-0.05810178816318512,-0.0474139079451561,-0.0532451868057251,-0.014516660012304783,-0.05936899781227112,-0.06025082617998123,0.05403849482536316,0.06592436134815216,-0.0715857595205307,-0.03507024422287941,0.0805567130446434,-0.04977548122406006,-0.004960283637046814,0.056512728333473206,-0.07351746410131454,-0.018026039004325867,-0.05263128876686096,0.0678631067276001,-0.06181415915489197,0.07210636883974075,0.07389211654663086,0.002924127271398902,-0.014008358120918274,0.04118998721241951,-0.07380073517560959,-0.029116032645106316,0.08461996167898178,-0.08782312273979187,0.010865310207009315,-0.06590812653303146,-0.06557954847812653,0.027537569403648376,0.02853504940867424,-0.04837872460484505,-0.008649344556033611,0.013511004857718945,-0.01847168803215027,-0.07343878597021103,-0.08228720724582672,0.041049081832170486,0.04817723110318184,0.01634647510945797,-0.036182425916194916,-0.07568585872650146,0.07618851959705353,-0.0394088514149189,0.07450934499502182,-0.034851957112550735,-0.07676494121551514,-0.004745576996356249,0.007882493548095226,-0.026316039264202118,-0.05916760861873627,-0.014948486350476742,-0.00800931267440319,0.016060562804341316,-0.02623065933585167,-0.04844190180301666,0.028720779344439507,0.015332221984863281,0.0804213359951973,0.06352023035287857,-0.02408168651163578,0.06851281970739365,-0.08393173664808273,0.006728744134306908,0.05713280290365219,-0.07784026861190796,-0.04704849421977997,-0.07656214386224747,0.07426221668720245,0.08077985048294067,-0.05826888978481293,-0.053038593381643295,-0.08153906464576721,-0.04816528037190437,-0.04244323447346687,0.06704297661781311,0.07257875055074692,-0.03867657110095024,-0.07275178283452988,0.032206904143095016,-0.04763786494731903,-0.024005696177482605,-0.043208811432123184,-0.08795782923698425,-0.02799585461616516,-0.01601705513894558,-0.03782074898481369,0.026352370157837868,0.021225109696388245,-0.04560115188360214,-0.01589525118470192,-0.060935892164707184,0.020010849460959435,0.027378791943192482,0.02358880080282688,-0.041610464453697205,0.04312519356608391,0.06374375522136688,0.059096697717905045,0.008586103096604347,0.018287286162376404,0.04165099933743477,0.012127312831580639,0.08032070100307465,-0.07883143424987793,-0.03526557236909866,-0.04590566083788872,0.06149251386523247,0.01281033456325531,-0.08778097480535507,-0.010235256515443325,-0.02341361716389656,0.03376106917858124,0.016807984560728073,-0.02636457048356533,-0.03460327908396721,-0.0008170061046257615,-0.07742947340011597,0.04852183163166046,0.054189056158065796,-0.05179915949702263,-0.038027141243219376,0.027931759133934975,0.07479339838027954,0.08190175890922546,-0.010922903195023537,0.06028146669268608,0.0273640938103199,-0.0844595655798912,-0.0781186893582344,-0.04729096591472626,0.0848880261182785,-0.06201672554016113,0.001869634143076837,-0.00020895354100503027,0.012628154829144478,0.019222376868128777,0.06702228635549545,0.00898879487067461,0.009510362520813942,-0.0014446148416027427,-0.021633092314004898,0.007797166705131531,-0.04878949746489525,0.013879409991204739,-0.08357208967208862,-0.008276260457932949,-0.06365317106246948,-0.007772152777761221,0.06288886815309525,-0.018265506252646446,0.08138212561607361,-0.008411815389990807,0.03742365166544914,-0.012738273479044437,0.004299442283809185,-0.07229939103126526,-0.012930494733154774,0.05142287537455559,-0.03423798084259033,0.05287865921854973,-0.04126181825995445,-0.004917040932923555,0.08043330907821655,0.08782083541154861,0.009263751097023487,-0.07679779082536697,0.08550232648849487,0.037243347615003586,0.010832056403160095,0.006708197761327028,-0.05378715321421623,-0.011980177834630013,-0.04969782382249832,-0.001690720790065825,-0.02010161243379116,0.04107934236526489,0.07148546725511551,0.013177833519876003,0.013727059587836266,0.08685383945703506,0.050290241837501526,-0.07316133379936218,0.0361778549849987,-0.016563447192311287,-0.08625197410583496,0.08603640645742416,0.004550120793282986,0.07293040305376053,0.042393092066049576,0.06326629966497421,-0.009566101245582104,-0.061527810990810394,-0.08008324354887009,0.07824607938528061,0.0853021889925003,0.07988434284925461,0.07231835275888443,0.007741501554846764,-0.0038710404187440872,0.035920873284339905,-0.003657060908153653,-0.07963176816701889,-0.05013209581375122,-0.03267139196395874,0.06888327747583389,-0.08197848498821259,-0.04973560944199562,-0.03649456426501274,-0.07281220704317093,-0.012911971658468246,-0.01789265312254429,0.02808048576116562,0.03457970917224884,-0.039819613099098206,0.028822479769587517,0.008920169435441494,0.03373333439230919,-0.08329693228006363,0.047800783067941666,0.03756361082196236,0.019308630377054214,0.028306275606155396,0.08837153762578964,0.06629524379968643,0.03392075374722481,-0.07040247321128845,-0.042852312326431274,0.07097655534744263,0.030142350122332573,-0.006620311178267002,0.05095263198018074,0.009419704787433147,0.038160715252161026,0.006651762872934341,0.0029093127232044935,0.08297229558229446,-0.0487096905708313,0.06411542743444443,-6.705563282594085e-05,0.03590124472975731,0.01191583089530468,-0.07549694180488586,-0.04869040846824646,0.05793462321162224,-0.04625110700726509,0.025557195767760277,0.06094960868358612,-0.02107725851237774,-0.052902113646268845,-0.022210408002138138,-0.04538002610206604,-0.013819782994687557,-0.08683155477046967,-0.01413408201187849,-0.07218503206968307,0.002277110004797578,0.036639899015426636,0.06741931289434433,-0.05715598165988922,0.028805315494537354,0.05235050618648529,-0.026485973969101906,-0.05623555928468704,-0.06357621401548386,0.08551808446645737,-0.0507894903421402,-0.0018326608696952462,0.06258643418550491,-0.05183396488428116,0.0016806898638606071,0.06030450016260147,-0.055257879197597504,-0.043759819120168686,0.0046899328008294106,-0.0458168163895607,-0.01257986482232809,0.030962496995925903,0.05307083576917648,-0.029646703973412514,0.044557247310876846,-0.06460589170455933,-0.0010389303788542747,0.010964607819914818,0.06636235117912292,0.052462972700595856,0.06777608394622803,-0.015973053872585297,0.014166861772537231,-0.022892756387591362,-0.010575392283499241,0.044257909059524536,-0.026876328513026237,-0.059217218309640884,-0.040433548390865326,-0.0301690511405468,-0.06612694263458252,0.012695694342255592,0.02446834184229374,-0.05090128630399704,0.061953578144311905,-0.06670156866312027,-0.0006332458578981459,-0.02900874800980091,0.0027829669415950775,-0.008960514329373837,0.03814875707030296,-0.043466318398714066,-0.04246728867292404,0.009531657211482525,0.030046645551919937,-0.019844695925712585,-0.04353562742471695,-0.038591887801885605,-0.03354398161172867,0.0007600130047649145,0.0032802154310047626,-0.05448460951447487,-0.04038861766457558,0.06864967197179794,-0.08146413415670395,0.08480056375265121,0.015899593010544777,-0.05814141780138016,-0.011835857294499874,0.07069769501686096,-0.021440565586090088,-0.05330473929643631,-0.06473173946142197,-0.005420495755970478,0.06657712906599045,-0.08333426713943481,-0.0094209685921669,-0.03051464445888996,0.08556141704320908,-0.07619601488113403,0.04552117735147476,0.003937084693461657,-0.012344906106591225,-0.06745163351297379,0.053297292441129684,0.012864935211837292,-0.05251077935099602,-0.031009584665298462,-0.03709312528371811,0.028315074741840363,0.003379428992047906,0.07943848520517349,0.06509687006473541,-0.029750216752290726,-0.08570952713489532,-0.08669596910476685,-0.08634129166603088,0.02454320527613163,0.08058080822229385,-0.03802238777279854,0.04908851906657219,0.01444241777062416,-0.08010313659906387,0.06843989342451096,0.07840599119663239,0.011845276691019535,-0.018583420664072037,-0.07390838861465454,0.03466806933283806,-0.05744444578886032,-0.0866648331284523,-0.0839400589466095,-0.06490913778543472,0.034171853214502335,0.07243790477514267,0.08523929119110107,0.033081017434597015,-0.010197893716394901,-0.05638948827981949,-0.0018441036809235811,-0.07416913658380508,0.052014753222465515,-0.01948361285030842,0.07676872611045837,-0.05538000911474228,-0.08411269634962082,0.027269599959254265,-0.029525035992264748,0.00919721182435751,0.08132199198007584,0.02199835702776909,-0.03435041755437851,-0.07102606445550919,-0.07590896636247635,0.02703728713095188,-0.00393682112917304,0.020799385383725166,-0.059028323739767075,0.046174854040145874,0.08138812333345413,-0.029204772785305977,-0.04152259975671768,-0.04332533851265907,0.032116763293743134,0.08597925305366516,-0.01458919420838356,-0.052632637321949005,0.04595176875591278,-0.06979246437549591,-0.00971940066665411,-0.011729889549314976,-0.03177424520254135,-0.016384419053792953,0.04634593799710274,-0.0474080927670002,-0.03749006241559982,-0.0865943655371666,0.0507955402135849,-0.06740555912256241,-0.08456847071647644,-0.07702244818210602,0.03628319874405861,-0.06134767830371857,-0.035183683037757874,-0.0678863525390625,0.03940848261117935,0.015601382590830326,-0.02959451638162136,-0.04520966857671738,-0.0068460809998214245,0.03168996050953865,0.038782939314842224,-0.004424586426466703,0.02642449364066124,-0.05738444998860359,0.01099863089621067,0.05635694041848183,0.07216373085975647,0.009210119023919106,0.05414042994379997,-0.0704001784324646,0.016707632690668106,0.0750197172164917,-0.08619634062051773,0.06887856125831604,-0.04050235077738762,-0.028953440487384796,-0.029266877099871635,0.0008597219130024314,-0.022084420546889305,-0.07851720601320267,0.06181425228714943,-0.04126228019595146,-0.07266700267791748,0.05215175077319145,-0.016105005517601967,0.009210877120494843,-0.06073246896266937,0.06824801862239838,0.06060654670000076,0.0523587241768837,0.012365168891847134,0.06562486290931702,0.0783638060092926,-0.08513186126947403,-0.0041486299596726894,0.04925486072897911,-0.08252975344657898,-0.0484880730509758,-0.0016742413863539696,0.019373947754502296,-0.03630524128675461,-0.01593678817152977,-0.053935691714286804,-0.045384347438812256,-0.08086130768060684,-0.009829203598201275,-0.06994907557964325,0.06297776848077774,-0.03215634822845459,-0.029353709891438484,-0.08697441220283508,0.05190027132630348,-0.05383824557065964,0.08597294241189957,-0.03867291659116745,0.02794359251856804,-0.04424618184566498,0.008589811623096466,0.01115985307842493,-0.026047036051750183,0.027685610577464104,0.029242578893899918,0.01158446166664362,0.08224629610776901,-0.014823857694864273,0.08212520182132721,0.05649791285395622,0.036963194608688354,0.026896178722381592,0.033724844455718994,-0.030636975541710854,-0.07937706261873245,0.07576347887516022,0.05666263401508331,0.06964272260665894,0.015796154737472534,0.037923458963632584,0.058471355587244034,-0.07864207774400711,0.08104242384433746,0.0015628366963937879,-0.05944601073861122,-0.039382729679346085,-0.08114305138587952,0.07467169314622879,-0.04766533523797989,0.04169274866580963,0.07682662457227707,-0.004040734376758337,0.05982585996389389,0.048183225095272064,-0.08024787157773972,-0.056414976716041565,0.041256874799728394,0.021439963951706886,-0.006007990799844265,-0.020214365795254707,0.026624396443367004,-0.03141813725233078,0.018551114946603775,-0.07215341925621033,0.08616706728935242,-0.07877466082572937,-0.08417262136936188,-0.057343337684869766,0.06602184474468231,0.01275267731398344,-2.5467232262599282e-05,0.016745764762163162,0.004995760507881641,-0.008295089937746525,-0.01882072724401951,-0.07871269434690475,0.029729407280683517,-0.060922835022211075,-0.05976123735308647,-0.01153985969722271,-0.0160781592130661,-0.016079559922218323,0.03430933505296707,0.013483977876603603,0.05058611184358597,-0.05685211345553398,0.040711600333452225,-0.0511179082095623,-0.08672789484262466,0.030310917645692825,0.05422539636492729,-0.05612599849700928,-0.08290185779333115,-0.010742767713963985,0.06939730048179626,0.03178814426064491,0.03784381225705147,0.07024920731782913,0.02084329165518284,0.01756008341908455,0.04476531594991684,0.015316322445869446,-0.05291702225804329,0.029463861137628555,0.07655337452888489,0.022847943007946014,0.02385370433330536,0.036390747874975204,-0.0771651342511177,0.03890100494027138,-0.01974857971072197,0.07385970652103424,0.05760308727622032,0.009397756308317184,0.08197495341300964,0.04037214815616608,0.053992610424757004,0.03524669259786606,-0.009775160811841488,-0.07606041431427002,-0.08706001192331314,0.06614440679550171,0.022537710145115852,0.020674051716923714,-0.015061460435390472,-0.028244487941265106,-0.0069769155234098434,0.05979005619883537,0.07112665474414825,-0.03216453641653061,-0.02292507141828537,0.018190832808613777,-0.009003725834190845,0.06503721326589584,0.07502089440822601,-0.028841383755207062,-0.08819715678691864,0.020974021404981613,0.016366759315133095,0.07650499790906906,0.015328608453273773,0.030854884535074234,-0.04898250848054886,0.05417682230472565,-0.054509520530700684,-0.0022057974711060524,-0.015431510284543037,0.021713275462388992,-0.059296514838933945,0.01366323884576559,-0.05584181100130081,-0.00889408029615879,-0.06767519563436508,0.04802383482456207,0.06891404837369919,-0.08258945494890213,-0.0411846861243248,0.017371077090501785,-0.029386626556515694,0.022253988310694695,0.050962965935468674,0.0711643323302269,0.01206845510751009,-0.021021287888288498,-0.0675429254770279,0.03701087459921837,-0.025739775970578194,-0.04156482219696045,0.007428592536598444,-0.031062869355082512,0.015658069401979446,-0.006199443247169256,0.07882118970155716,0.006844574119895697,0.07368700951337814,-0.08734289556741714,0.00021376881340984255,0.03589828312397003,0.026739276945590973,-0.0615529827773571,0.006329329218715429,-0.04492052271962166,0.0075314100831747055,0.011547372676432133,0.05454646050930023,-0.00352390855550766,-0.0864785686135292,-0.02756008692085743,-0.06345687061548233,0.08780035376548767,-0.01751844212412834,0.026881659403443336,0.034748971462249756,0.00015782940317876637,0.07279130816459656,0.02824077010154724,0.017204249277710915,-0.031862542033195496,-0.039934221655130386,-0.04246211796998978,0.08436336368322372,0.08589840680360794,0.021656841039657593,0.06711940467357635,-0.020510457456111908,0.009381835348904133,0.06693806499242783,-0.008650935254991055,0.06339292973279953,-0.05924807861447334,0.05775390937924385,0.003654763801023364,-0.0017179582500830293,0.07009106129407883,0.003537827404215932,-0.03077501803636551,0.049300167709589005,0.02220293879508972,-0.0038695968687534332,-0.05935928225517273,0.05528853088617325,-0.025979885831475258,0.04988182708621025,-0.00390563253313303,0.08758872747421265,0.06659620255231857,0.01064592506736517,0.08750056475400925,-0.008742130361497402,0.07416068762540817,-0.01775241084396839,0.02900855801999569,-0.01969386264681816,0.07996799796819687,0.02703731879591942,0.04217580333352089,-0.025155598297715187,0.05312562733888626,-0.014478917233645916,-0.058630671352148056,0.06138203665614128,-0.04333479702472687,-0.035878777503967285,0.017971215769648552,-0.05694493278861046,0.030530333518981934,0.07764916121959686,0.010547732934355736,-0.03231879323720932,-0.07487426698207855,0.06905227154493332,-0.0008620084263384342,-0.05586417019367218,0.010364257730543613,-0.04658649116754532,0.04197126254439354,0.02446187287569046,-0.06290852278470993,0.04881865158677101,-0.03109867312014103,-0.01660776510834694,-0.06629300862550735,-0.018704308196902275,0.06557075679302216,-0.05826537311077118,0.06318122148513794,-0.06727579236030579,-0.08828265964984894,0.07475699484348297,-0.07217340171337128,-0.04081157222390175,-0.03932122886180878,0.03251320496201515,-0.005138111766427755,0.012204420752823353,0.0881727784872055,-0.05101374536752701,-0.043922390788793564,0.08366305381059647,-0.08112890273332596,-0.03722582384943962,-0.0011725464137271047,0.0679645985364914,-0.07234739512205124,0.039093468338251114,-0.05774344503879547,-0.06712973117828369,0.0692724660038948,0.057035304605960846,0.027977710589766502,0.06826429069042206,0.04693927988409996,-0.004814571235328913,0.05209807679057121,-0.050270926207304,0.06780450791120529,-0.08506754040718079,-0.012538171373307705,0.03218841180205345,0.077998585999012,-0.004761108197271824,-0.04194307699799538,-0.05089019984006882,0.002702276688069105,0.020647456869482994,-0.01240767352283001,0.014215625822544098,0.0142399026080966,0.06957970559597015,0.010229176841676235,-0.06770845502614975,0.012465973384678364,0.006650688126683235,-0.06504707783460617,-0.005485644098371267,0.08428435027599335,0.0016932074213400483,0.0648389533162117,0.0458364263176918,-0.04468432068824768,0.029147569090127945,-0.027358530089259148,0.04920010268688202,-0.07080462574958801,-0.023153381422162056,-0.06400291621685028,0.0676986575126648,0.06845914572477341,0.06412005424499512,0.0775405690073967,0.06101798266172409,-0.03118228167295456,-0.009245448745787144,0.059660233557224274,0.07248134911060333,-0.028706207871437073,0.02614460699260235,0.06500676274299622,0.022290509194135666,-0.0842612087726593,0.07054527848958969,-0.05716810002923012,-0.028616972267627716,0.023511609062552452,0.049361638724803925,0.04337906464934349,-0.050584036856889725,-0.0865812674164772,-0.08124858886003494,-0.04714978486299515,-0.06528189778327942,0.0822283923625946,-0.027834095060825348,-0.019366730004549026,-0.04139941558241844,0.006319951266050339,-0.02682744897902012,0.07427386939525604,-0.05756349116563797,-0.04518621414899826,-0.03866079822182655,0.0565427765250206,-0.06608974188566208,-0.06731107831001282,-0.06256402283906937,-0.0072629451751708984,-0.07070615142583847,0.06137184798717499,0.02832411415874958,0.06805291026830673,-0.06429687887430191,0.08424730598926544,0.08836108446121216,0.07891297340393066,-0.013815789483487606,-0.08062921464443207,-0.00726880319416523,0.062318507581949234,-0.030307872220873833,0.006186272017657757,0.019308829680085182,0.03461379557847977,0.014151858165860176,-0.026261236518621445,0.08837234228849411,0.03204173967242241,-0.0025142491795122623,0.018604515120387077,-0.06299979239702225,-0.03366976976394653,0.0845649242401123,0.024921568110585213,-0.04743075743317604,0.03245260939002037,-0.049379490315914154,-0.017514975741505623,0.020321883261203766,-0.06450194865465164,0.03937111049890518,-0.04989280551671982,0.007764882408082485,0.014498294331133366,-0.05990021675825119,-0.08707942068576813,0.07177775353193283,-0.04729443043470383,-0.07125832885503769,0.01720593497157097,0.05928932875394821,0.08348575979471207,0.028818750753998756,-0.05025587975978851,0.04601874202489853,0.03665139526128769,0.05263428017497063,0.07865601032972336,0.03856459632515907,0.05803088843822479,0.028915265575051308,0.005740432068705559,-0.011507322080433369,0.0832100659608841,-0.03656727820634842,0.06839227676391602,0.004635763354599476,-0.05025382712483406,-0.08160876482725143,0.07399613410234451,-0.011899256147444248,-0.010319792665541172,0.06457626074552536,-0.071498341858387,0.08791399747133255,0.03835893049836159,0.04044800251722336,0.01492355577647686,0.08250408619642258,0.01814054138958454,-0.02465141750872135,0.08285678178071976,-0.03125222399830818,0.042713817209005356,0.017298763617873192,0.0642421618103981,0.007243441417813301,-0.0016939660999923944,-0.00673786923289299,0.042521387338638306,-0.014307189732789993,-0.014617105945944786,-0.05224784463644028,-0.07899083197116852,0.04482818767428398,0.06353212893009186,-0.0010998324723914266,0.02543039619922638,0.005303000565618277,-0.010660676285624504,-0.08643815666437149,-0.08701401203870773,0.07798822224140167,-0.021608572453260422,-0.055775295943021774,-0.04828716814517975,0.007358481176197529,0.017227018252015114,-0.017219780012965202,-0.03368281200528145,0.030875779688358307,0.0009535197750665247,-0.01568276807665825,-0.08791124075651169,-0.0019654445350170135,-0.012506581842899323,0.042505379766225815,-0.04775099828839302,0.04346967861056328,-0.08520267903804779,0.0068535408936440945,-0.05164838954806328,0.00188396405428648,-0.06372144818305969,-0.05971485376358032,0.02003859169781208,0.007938506081700325,0.058042604476213455,-0.05908188223838806,0.08503570407629013,-0.0036247975658625364,0.07643532007932663,0.04876342788338661,0.07568533718585968,0.0606803223490715,-0.022181453183293343,-0.08179276436567307,-0.05691028758883476,0.04367336630821228,-0.01576365903019905,0.014607992023229599,-0.031000450253486633,-0.01851152814924717,-0.005414025858044624,0.06801163405179977,-0.06364833563566208,-0.08811328560113907,0.012799101881682873,-0.05954476073384285,-0.0272273700684309,-0.062456656247377396,0.06862413883209229,0.006683235988020897,0.06422745436429977,0.06202174350619316,0.052593354135751724,-0.06251987814903259,-0.046361807733774185,0.08753597736358643,-0.009865080937743187,-0.03832092508673668,0.032997798174619675,-0.009428334422409534,-0.05202425643801689,0.014110269024968147,0.06296436488628387,0.061908408999443054,-0.061281315982341766,-0.060666751116514206,-0.0024139713495969772,0.05070517584681511,-0.005788279697299004,-0.03862500563263893,0.03656935691833496,-0.0034360007848590612,0.056116875261068344,-0.0721171647310257,-0.03269403800368309,-0.008009281009435654,-0.03848695382475853,0.012292401865124702,-0.05688324198126793,-0.002110766712576151,0.0387854166328907,0.051293790340423584,0.006276403088122606,0.08215007185935974,0.014888974837958813,-0.07701606303453445,0.08072315156459808,0.009701171889901161,-0.0492524579167366,0.022978177294135094,0.07745826989412308,0.018103504553437233,0.04456033557653427,-0.04043698310852051,0.08565030992031097,0.04876285791397095,0.04380498826503754,-0.06881644576787949,0.03980492800474167,-0.0379888080060482,0.06641165167093277,0.08571834117174149,-0.05102457478642464,-0.026558224111795425,0.05223703384399414,0.0057851397432386875,-0.06087677180767059,0.0631188377737999,-0.0039016706869006157,-0.046893730759620667,0.06151909753680229,-0.011698668822646141,-0.047250229865312576,0.05004057288169861,-0.011080143041908741,0.031856052577495575,0.00891962181776762,0.006680022459477186,-0.07715599983930588,0.04447013884782791,-0.0506235808134079,-0.034211207181215286,0.05818140506744385,-0.02467961423099041,-0.06885559111833572,0.00837473664432764,0.07915032655000687,0.07121752202510834,0.04546600580215454,-0.023160673677921295,0.018885822966694832,-0.07161693274974823,-0.03542877733707428,0.016717294231057167,-0.06621453166007996,-0.06319989264011383,-0.07374528795480728,-0.07470202445983887,0.0796704888343811,0.057629965245723724,-0.001400961191393435,-0.041331421583890915,0.03019292652606964,-0.06604450941085815,-0.05424753576517105,-0.0805589035153389,0.08765725791454315,-0.0183238685131073,-0.0652351826429367,0.06594040989875793,-0.06449374556541443,-0.011779285036027431,0.027832355350255966,0.04906931892037392,0.07279803603887558,0.01389314979314804,0.034140169620513916,0.08396465331315994,-0.04430318623781204,0.04451514407992363,0.011120392940938473,0.03966102749109268,0.016018152236938477,0.08325386047363281,-0.047316115349531174,0.060223452746868134,0.03639167547225952,0.019650304690003395,0.07979894429445267,-0.05023709312081337,-0.0680168867111206,0.019217487424612045,-0.08018951863050461,0.04240331053733826,0.07282931357622147,0.003789791837334633,0.02698877640068531,0.035962238907814026,-0.052428603172302246,0.07143194228410721,0.009064659476280212,-0.05304400995373726,-0.03720744699239731,0.02632739767432213,-0.03825971856713295,0.05543297901749611,-0.03465285524725914,0.07909583300352097,-0.062052465975284576,0.0609874352812767,0.07881961017847061,-0.049391068518161774,0.035528380423784256,-0.08288638293743134,-0.026499662548303604,-0.07284969836473465,0.04610871523618698,-0.07152710855007172,0.06598187237977982,0.04406895488500595,0.03078286722302437,-0.06286950409412384,-0.009788183495402336,-0.0496024452149868,-0.041167207062244415,-0.02529165893793106,0.005302631761878729,-0.04450834542512894,-0.035846222192049026,-0.016819501295685768,-0.0018418172840029001,0.04120500385761261,-0.00032696471316739917,-0.027105290442705154,0.011929981410503387,-0.021783534437417984,-0.06820041686296463,-0.012869845144450665,0.07741396874189377,0.028054311871528625,-0.03016340360045433,-0.020671753212809563,0.02737310342490673,-0.07707909494638443,-0.08607985079288483,0.028984535485506058,-0.07307642698287964,0.07553353905677795,-0.0042992946691811085,-0.07267358899116516,0.07246555387973785,-0.008107936941087246,0.04489194601774216,-0.054687220603227615,0.06179102882742882,0.027938533574342728,-0.07534746825695038,-0.00408198544755578,0.04057154431939125,0.06616627424955368,-0.0024247923865914345,-0.06696651875972748,0.00760717922821641,-0.024837389588356018,0.00951244868338108,0.020564427599310875,-0.0055565559305250645,0.030934279784560204,0.061055537313222885,-0.02213387005031109,0.05253855511546135,-0.007212020922452211,-0.0159089807420969,0.05271854251623154,0.03072262927889824,-0.006237638648599386,-0.038330767303705215,0.0069849020801484585,-0.028141628950834274,0.07921228557825089,-0.03400307521224022,0.07738106697797775,0.06882702559232712,0.08812656253576279,0.04689287766814232,0.0775224044919014,-0.08287636935710907,-0.07717907428741455,-0.02822711318731308,0.020809680223464966,0.015760129317641258,-0.07654521614313126,-0.07478534430265427,-0.041060470044612885,0.03703198954463005,-0.06638817489147186,0.049842167645692825,0.00035508719156496227,-0.0288824662566185,-0.08815716207027435,-0.08282818645238876,-0.013871381059288979,-0.07174909859895706,-0.07744108140468597,-0.039464011788368225,-0.08150061219930649,0.03712727501988411,0.027102066203951836,-0.029784798622131348,-0.02134927548468113,-0.08386173099279404,0.0008311885176226497,0.033227235078811646,-0.01894102431833744,-0.08044999092817307,0.004933931399136782,0.08000002056360245,-0.06045852601528168,0.0655258521437645,-0.06181781366467476,0.05540051311254501,-0.028052983805537224,0.014214277267456055,0.03445133939385414,0.057533133774995804,0.01611933670938015,-0.03770802542567253,0.052931804209947586,0.0276920385658741,-0.003573694499209523,-0.06250268965959549,0.027450041845440865,0.026751764118671417,0.08580892533063889,-0.00962175615131855,0.013590451329946518,0.030689900740981102,-0.0006546459044329822,0.0882888063788414,-0.037781551480293274,-0.025488296523690224,-0.019467797130346298,0.05795756354928017,-0.00718220230191946,-0.038168005645275116,0.009591389447450638,-0.054681647568941116,0.017452092841267586,0.08223766833543777,0.06697056442499161,-0.039989572018384933,-0.0768200233578682,0.04827346280217171,-0.0269435103982687,-0.04734107851982117,0.05562148988246918,-0.025175228714942932,-0.0340186282992363,-0.06454484909772873,0.06937798857688904,-0.05106182396411896,0.048494499176740646,-0.08318900316953659,-0.008868234232068062,-0.04239005595445633,0.0217947568744421,0.06863207370042801,0.008477775380015373,-0.07926297187805176,-0.016252046450972557,0.05786892771720886,0.009444729425013065,0.07744090259075165,-0.028148014098405838,0.08566682040691376,0.06744600087404251,0.008559645153582096,-0.020328141748905182,0.04996369779109955,0.07164066284894943,-0.06821554899215698,-0.010805092751979828,-0.06543860584497452,-0.04686334356665611,0.0778057873249054,-0.08517289906740189,-0.006465463433414698,0.016198277473449707,-0.02242116443812847,-0.08256649971008301,0.07122202217578888,0.042567506432533264,0.05801411345601082,-0.06425827741622925,-0.04240414500236511,0.06553588062524796,0.05964179337024689,0.04802468791604042,0.06655514240264893,-0.05173823609948158,0.08177042752504349,0.02329220250248909,-0.019593194127082825,0.02113942615687847,0.03331268951296806,0.015237802639603615,0.014287381432950497,-0.012803474441170692,0.01766887493431568,-0.08218974620103836,0.04768568277359009,0.05331778526306152,0.04723430052399635,0.08101105690002441,-0.08129468560218811,-0.07261516153812408,-0.06582877039909363,-0.08243411034345627,0.08740108460187912,-0.03973071649670601,0.07214704900979996,0.06494365632534027,-0.06269720941781998,0.01674441620707512,0.008759832009673119,0.02430630847811699,-0.04821253940463066,0.009102791547775269,-0.040142882615327835,-0.05726570263504982,-0.08152332156896591,0.040207184851169586,-0.05583469942212105,-0.013392803259193897,-0.0480467863380909,0.02601683884859085,0.06945216655731201,-0.0075109791941940784,0.05917460471391678,0.044541820883750916,-0.019507121294736862,0.061197519302368164,0.07263803482055664,0.06089526042342186,-0.08324305713176727,0.06404976546764374,-0.04985888674855232,0.07788746803998947,-0.06453347206115723,-0.04932457208633423,0.04526122659444809,0.07075822353363037,0.041164543479681015,0.038593996316194534,0.08135635405778885,0.023921791464090347,0.010558354668319225,0.05722679942846298,0.005961513612419367,-0.08162734657526016,0.05105696618556976,-0.073757603764534,-0.0468580424785614,0.001101539470255375,0.08570947498083115,-0.07087406516075134,0.06315522640943527,0.022185973823070526,0.03596857190132141,0.041863515973091125,0.05676005408167839,0.04031740128993988,0.07866774499416351,0.08832081407308578,-0.02965727262198925,-0.0691034346818924,-0.018562735989689827,-0.04975064471364021,0.06007111072540283,-0.05262794718146324,-0.02921201102435589,-0.029296979308128357,0.06452609598636627,0.047807727009058,0.06333483755588531,-0.04987890645861626,-0.028120534494519234,-0.028236638754606247,-0.04282636195421219,-0.029199199751019478,0.06691145896911621,-0.04421672224998474,-0.06187278404831886,-0.007969653233885765,-0.07621487975120544,-0.020257260650396347,-0.03134047985076904,-0.04158933833241463,-0.051728397607803345,0.0417499840259552,-0.07058865576982498,0.03350841999053955,-0.0722426250576973,0.043783705681562424,0.0017922314582392573,0.017697429284453392,0.07467300444841385,-0.06723489612340927,0.07114206999540329,-7.385181379504502e-05,0.043787792325019836,0.07037676125764847,0.06790678203105927,0.05835855007171631,-0.06392347067594528,-0.031308986246585846,0.07392103970050812,-0.06868597120046616,0.027119304984807968,-0.06824294477701187,-0.05215896666049957,-0.025563253089785576,-0.009591042064130306,0.013682120479643345,-0.03713839128613472,-0.024747997522354126,0.0649707019329071,0.03838860243558884,-0.07033836096525192,-0.005664494354277849,-0.0073960344307124615,-0.003240070538595319,-0.004973148927092552,-0.07316619157791138,-0.01927562989294529,0.045999154448509216,0.07283980399370193,-0.008459082804620266,-0.07501015812158585,-0.07056792080402374,0.006113021168857813,0.0654199868440628,-0.03687708079814911,0.010892504826188087,0.029406825080513954,-0.0633406862616539,-0.006457961164414883,0.054291874170303345,-0.015491632744669914,-0.05888713151216507,0.03902977332472801,-0.05378284305334091,0.08074889332056046,-0.016228802502155304,-0.04041706770658493,-0.012694819830358028,-0.0037590458523482084,0.023198679089546204,-0.06643502414226532,-0.046026866883039474,-0.01436982024461031,-0.01597944088280201,-0.04873446375131607,-0.07471678406000137,0.014212770387530327,0.04181158170104027,0.06789691001176834,-0.0839833915233612,0.0621020533144474,-0.028029413893818855,0.06671815365552902,-0.05029435083270073,0.028438184410333633,-0.004105777479708195,-0.03250565007328987,-0.0019887094385921955,-0.07179544866085052,0.020762907341122627,0.04456553980708122,-0.032796286046504974,0.07206147164106369,-0.05749683454632759,0.06450096517801285,-0.0019121392397210002,0.057162199169397354,-0.0826837420463562,0.04636815935373306,-0.0803278237581253,-0.040609899908304214,0.07011711597442627,-0.05009213089942932,0.003946683369576931,0.003190737683326006,-0.05824463441967964,-0.07644165307283401,0.026164215058088303,-0.05089830234646797,0.024322818964719772,-0.05497518926858902,-0.008526865392923355,0.053687769919633865,0.00029486988205462694,0.06478718668222427,0.03736097738146782,-0.08738494664430618,-0.059327028691768646,0.044822245836257935,-0.06948142498731613,0.03938887268304825,-0.055615704506635666,0.02907002903521061,-0.06831564754247665,0.022425558418035507,0.0630657747387886,0.024219760671257973,-0.001492767594754696,-0.08456926047801971,-0.038107745349407196,-0.07644018530845642,-0.0484757125377655,0.013837031088769436,0.0061466749757528305,-0.011994908563792706,-0.021853066980838776,0.08685605227947235,-0.0052294544875621796,-0.05798615887761116,0.012741676531732082,-0.03693430498242378,-0.08677428215742111,-0.06910453736782074,0.08047617971897125,0.005027834326028824,0.0001538676006020978,-0.08823287487030029,-0.05141771212220192,0.028061624616384506,0.04240592569112778,0.025587845593690872,-0.0528259202837944,-0.02522442489862442,-0.06567326933145523,-0.08566224575042725,0.05712929368019104,0.008136501535773277,-0.05125996470451355,-0.06879746168851852,-0.02388819120824337,0.017030760645866394,-0.06990205496549606,-0.08173346519470215,0.03080172836780548,0.03399427607655525,-0.07747302949428558,-0.08090632408857346,0.059138327836990356,-0.0019142150413244963,-0.08453213423490524,0.006831287406384945,-0.048540618270635605,0.05304430425167084,0.04046635702252388,-0.003723863745108247,-0.08613886684179306,-0.029674477875232697,-0.014777169562876225,0.01933569833636284,0.06924593448638916,0.0755346342921257,0.08190008252859116,-0.08578798919916153,0.045991502702236176,0.06458857655525208,-0.056477051228284836,0.08600980788469315,0.07435012608766556,0.04132473096251488,-0.04486270621418953,0.05634809285402298,-0.0588369145989418,0.01754807122051716,0.040374889969825745,-0.07680383324623108,-0.05042313039302826,-0.0014266286743804812,0.06228037551045418,0.04274040088057518,-0.04025472700595856,-0.01753559708595276,-0.037767790257930756,0.015941813588142395,-0.06408561021089554,0.04022666811943054,-0.030469052493572235,0.03492992743849754,0.05008936673402786,0.008106376975774765,-0.01773611083626747,0.04036581516265869,0.017538536339998245,-0.06612486392259598,0.030867772176861763,-0.045709434896707535,-0.005941398907452822,0.0864109918475151,0.08537008613348007,-0.07203485071659088,0.005417692940682173,0.03618607297539711,0.07719473540782928,0.0023282235488295555,-0.03816639259457588,0.06307370960712433,0.02273351512849331,-0.022925566881895065,-0.0014622954186052084,-0.013877787627279758,-0.07564812153577805,0.007158389315009117,0.0016525357495993376,0.060864925384521484,0.07822858542203903,-0.02924540266394615,0.002822089707478881,-0.072871133685112,-0.033969696611166,0.06540033966302872,0.04447118192911148,-0.047819506376981735,0.06720246374607086,-0.011504930444061756,0.04567015543580055,-0.036994826048612595,-0.017557112500071526,-0.08600306510925293,-0.006880820728838444,0.07016752660274506,0.04932106286287308,0.026220502331852913,0.04462449252605438,0.00022374707623384893,0.01199018768966198,0.040627431124448776,0.084779754281044,-0.0646846815943718,-0.08770588040351868,0.015653476119041443,-0.02391941100358963,0.03447526693344116,0.08245402574539185,0.027464846149086952,-0.029166946187615395,-0.031340986490249634,0.06562153249979019,0.022074874490499496,-0.002126614097505808,-0.0007164015551097691,-0.07837086915969849,0.0027018447872251272,-0.003404021728783846,-0.07654201239347458,0.048526596277952194,0.04981955513358116,-0.010589195415377617,0.050034135580062866,-0.028410494327545166,0.009567703120410442,-0.021618392318487167,-0.06098700687289238,0.04702956974506378,0.07664804905653,0.06361452490091324,0.004073229618370533,0.012898694723844528,-0.08418825268745422,-0.042528700083494186,-0.07051002234220505,0.07513605058193207,-0.03245193511247635,0.03706200048327446,0.002792924176901579,-0.0627143606543541,-0.0678371712565422,-0.05192679166793823,-0.05058212950825691,-0.024623241275548935,-0.036464884877204895,0.05441799759864807,0.05528552830219269,0.04857897385954857,-0.0016468459507450461,0.03139258548617363,-0.04236113280057907,-0.053163666278123856,0.05304315686225891,0.06934501975774765,-0.04193240404129028,-0.07546186447143555,0.038700658828020096,0.06046758592128754,-0.021460553631186485,0.0726507157087326,0.08034232258796692,-0.07278630882501602,-0.0566406324505806,-0.007289750501513481,-0.041163813322782516,-0.07465831190347672,0.009265847504138947,-0.0019329492934048176,0.061054766178131104,0.02416807785630226,-0.05749192461371422,-0.028541656211018562,0.0403713583946228,0.0017822848167270422
