0.05436769500374794,-0.056094031780958176,-0.08512112498283386,0.00010745338659035042,-0.07937804609537125,0.04788404703140259,-0.004728886764496565,-0.027346139773726463,0.05127822607755661,0.019472738727927208,0.04073221981525421,0.07406438887119293,0.08673717826604843,-0.0863352045416832,0.024707820266485214,-0.04466729238629341,-0.06559700518846512,-0.04143655672669411,-0.06651658564805984,0.013267796486616135,-0.00018147379159927368,0.06850118935108185,-0.019435923546552658,0.07336984574794769,0.06728938966989517,0.028271831572055817,-0.08651158213615417,0.04165019094944,-0.0618046335875988,0.04744982719421387,-0.07523926347494125,-0.06306170672178268,-0.04306183382868767,0.06332840025424957,-0.06078226491808891,0.07690548151731491,-0.005928670521825552,-0.06553848832845688,0.04791192710399628,0.03430614247918129,0.08205925673246384,-0.0402713343501091,0.016738757491111755,0.054384004324674606,0.02750236727297306,0.017847493290901184,0.04689319431781769,-0.05275062471628189,-0.06274229288101196,0.05980026721954346,0.07447341829538345,0.00981102790683508,-0.018026933073997498,-0.01062104757875204,0.08387993276119232,0.05447375774383545,0.04301416501402855,-0.03445333242416382,0.025043319910764694,-0.05677596479654312,0.035365030169487,0.034710563719272614,0.04297512769699097,-0.0738396942615509,0.04733482003211975,0.034913308918476105,-0.017041170969605446,-0.08339239656925201,0.024871360510587692,-0.03291679173707962,0.023663736879825592,-0.08090875297784805,-0.07347388565540314,-0.08191893994808197,0.019123436883091927,-0.06131710857152939,0.04982540383934975,-0.05573080852627754,0.08024613559246063,0.08503059297800064,-0.04040108248591423,-0.016070319339632988,-0.06986646354198456,0.08045951277017593,0.04401674494147301,-0.0349588617682457,-0.0037274989299476147,0.036626022309064865,0.06949980556964874,0.03243144974112511,-0.015407939441502094,-0.046284034848213196,-0.02082427218556404,-0.023887652903795242,-0.06898927688598633,-0.014716499485075474,0.06666422635316849,0.05207673832774162,-0.0009380097035318613,0.014043550938367844,0.03952108696103096,0.0476665161550045,-0.0022699027322232723,0.03514149412512779,-0.04464371129870415,-0.08453244715929031,0.08243978023529053,-0.06593857705593109,0.01571003720164299,0.0789869949221611,-0.032821498811244965,-0.04680511727929115,0.029226774349808693,-0.06250573694705963,-0.057831428945064545,0.031022662296891212,0.06032124161720276,-0.07478655874729156,0.00455075316131115,-0.01886243186891079,0.021560294553637505,0.027790598571300507,0.02239046059548855,0.02338513545691967,0.07731224596500397,0.018743492662906647,-0.04938537999987602,-0.017826536670327187,-0.08249902725219727,-0.05260573700070381,-0.041400741785764694,-0.03244338929653168,-0.053573016077280045,0.0030529701616615057,0.0512554869055748,-0.07607779651880264,0.048977091908454895,-0.079792819917202,-0.02173352800309658,0.07960738986730576,-0.02507822774350643,-0.020688634365797043,0.06368545442819595,0.0594327449798584,0.06576921790838242,-0.05082573741674423,-0.037646617740392685,0.08370967954397202,0.07458160817623138,-0.08502655476331711,0.06377913802862167,0.05504725128412247,0.011844191700220108,-0.027992576360702515,-0.040001142770051956,0.051674891263246536,0.013419292867183685,-0.034769389778375626,-0.03652824088931084,0.035107459872961044,-0.014526122249662876,-0.02433282881975174,-0.05668028071522713,-0.020260727033019066,-0.07943230122327805,0.04748120531439781,0.02211335487663746,0.043283507227897644,-0.03620457276701927,-0.031057728454470634,0.05390369892120361,0.015387624502182007,-0.03412550315260887,0.05877416953444481,-0.08558117598295212,-0.039107322692871094,-0.06320199370384216,-0.061436913907527924,0.029464123770594597,0.0827881395816803,-0.051809970289468765,-0.06525509059429169,-0.06825582683086395,0.07631323486566544,-0.05332527682185173,0.020409736782312393,-0.02414802648127079,0.08032484352588654,-0.060216475278139114,0.053430475294589996,0.062215499579906464,0.021772723644971848,-0.015160021372139454,-0.055978041142225266,0.01909128949046135,0.07437988370656967,0.031326331198215485,-0.0187947116792202,-0.04478057101368904,0.015734344720840454,-0.0728849545121193,-0.02216225676238537,-0.07802039384841919,0.04646998643875122,0.012170597910881042,-0.05878722295165062,0.07305536419153214,-0.02908536046743393,-0.0057687656953930855,-0.008839363232254982,-0.038274478167295456,-0.00585070950910449,-0.03291148319840431,-0.007124271243810654,0.008296027779579163,0.0028585782274603844,-0.014659369364380836,-0.06502500176429749,-0.07791231572628021,0.08590848743915558,-0.05547241494059563,0.06386541575193405,0.043453674763441086,0.02159927971661091,0.011605819687247276,-0.00991573091596365,-0.011022907681763172,-0.06506188958883286,0.08244971930980682,-0.07444258779287338,0.0809096023440361,0.08416786789894104,0.0015927820932120085,0.045727793127298355,-0.03574192896485329,0.03342122957110405,-0.026778241619467735,0.030002381652593613,0.04460768774151802,-0.004247180186212063,0.06033874303102493,0.018724791705608368,0.0819334015250206,0.06282117962837219,-0.0615457259118557,0.05191213637590408,-0.05819815769791603,0.03868032246828079,0.031595733016729355,0.04961560666561127,-0.040022753179073334,0.06139989569783211,0.07854992151260376,-0.045778390020132065,0.009162935428321362,-0.07454632967710495,0.05336025729775429,0.00786802638322115,0.08803867548704147,-0.017756856977939606,-0.05578700080513954,0.046344053000211716,0.042420148849487305,0.05704187974333763,-0.0852418839931488,0.019233640283346176,0.08409374952316284,-0.03014606051146984,-0.03242882713675499,0.013812069781124592,-0.012554112821817398,0.05465148016810417,0.031471945345401764,0.002649203408509493,0.025420870631933212,0.07373083382844925,0.0641063004732132,-0.05539541319012642,-0.038166772574186325,-0.020515231415629387,-0.030655203387141228,0.04946909472346306,0.052466198801994324,0.08109855651855469,-0.050656624138355255,0.03397823125123978,0.031071657314896584,0.04320091754198074,-0.03299454227089882,-0.07736385613679886,0.025454968214035034,0.00393007742241025,0.07614957541227341,-0.043403297662734985,-0.08685189485549927,-0.020764140412211418,0.05914444848895073,-0.032173290848731995,-0.07707859575748444,-0.06188098341226578,-0.014217965304851532,0.047104161232709885,0.015507005155086517,-0.06529156863689423,0.007062779273837805,-0.006496883928775787,0.06832434982061386,-0.05879073217511177,0.019505897536873817,0.03213345259428024,0.001655370113439858,-0.0255943164229393,0.05531227961182594,-0.06230168044567108,0.07068287581205368,-0.07948717474937439,0.05538742616772652,0.00014082316192798316,0.07889045774936676,0.060556210577487946,0.058126434683799744,0.0059526944532990456,0.050948720425367355,0.06482799351215363,0.022525519132614136,-0.010706005617976189,0.02190050296485424,-0.08296038955450058,0.018164774402976036,-0.031014738604426384,0.0496063232421875,0.00636843079701066,-0.02491518296301365,-0.015328471548855305,0.05849432572722435,0.038294825702905655,0.0629291832447052,-0.0263360682874918,0.0802936926484108,-0.0882738009095192,-0.0770082026720047,0.0010002501076087356,0.07088696956634521,0.06805785745382309,0.08403623849153519,0.005991574842482805,0.0834343209862709,0.009858337230980396,-0.07245167344808578,-0.06474462151527405,0.02487790398299694,0.07473206520080566,-0.01854066178202629,0.005157046020030975,0.06079289689660072,0.048696424812078476,0.018535446375608444,-0.009045946411788464,0.044324785470962524,0.04832365736365318,0.01170294638723135,-0.07138370722532272,-0.04700729623436928,-0.033678241074085236,-0.027832934632897377,-0.005236745811998844,-0.03540172055363655,-0.05741827189922333,0.049370259046554565,0.056357383728027344,0.07073527574539185,0.058088745921850204,-0.02236942946910858,0.006942618638277054,0.004170114640146494,0.035943031311035156,-0.06871593743562698,-0.030691156163811684,-0.019339069724082947,-0.069234699010849,0.0691981241106987,-0.04843495786190033,0.03147800639271736,-0.05171823874115944,0.0016969796270132065,-0.017920080572366714,-0.0811900720000267,0.07788179814815521,-0.04109781235456467,0.018535446375608444,-0.011566117405891418,0.023951979354023933,0.01949491910636425,-0.07021947205066681,0.006685038097202778,0.02219674363732338,0.04260638356208801,0.05723793804645538,-0.001149376155808568,0.056746285408735275,-0.027672987431287766,0.02562691643834114,-0.005263930652290583,0.07563859969377518,-0.03651857003569603,-0.07337789237499237,-0.08047524094581604,0.048040274530649185,-0.01831517554819584,0.07970177382230759,-0.08087410032749176,-0.052241165190935135,0.04304613545536995,-0.01651168055832386,-0.03726872056722641,-0.06419967114925385,-0.05221741646528244,0.03399420529603958,-0.0702335312962532,0.08698111772537231,-0.032687537372112274,-0.08789902925491333,0.010033098980784416,0.08623817563056946,0.01700100488960743,0.018596390262246132,0.024523692205548286,0.05600540712475777,0.05230605974793434,0.08556544780731201,-0.06858880072832108,-0.019743185490369797,-0.048336923122406006,-0.019699878990650177,0.08648023009300232,0.00236756750382483,0.03577888011932373,0.04393629729747772,0.0560905747115612,0.05217716470360756,0.03152163699269295,-0.08592519164085388,-0.07860193401575089,0.050981733947992325,0.07690279185771942,0.058995820581912994,0.06822492182254791,0.03650669381022453,-0.0351126454770565,0.020187580958008766,-0.051698438823223114,-0.027113141492009163,-0.008318280801177025,-0.07985567301511765,0.07024852931499481,0.07759042829275131,0.032957930117845535,0.060752857476472855,-0.03802531957626343,-0.06779086589813232,-0.08612238615751266,0.08672536909580231,-0.03784092515707016,-0.0814547911286354,-0.07855966687202454,-0.058719146996736526,-0.02159491740167141,-0.031120041385293007,0.07583121955394745,0.02202029526233673,-0.02987341210246086,0.07808758318424225,-0.08079629391431808,-0.0016809111693874002,-0.013860411942005157,0.06637795269489288,-0.0473572202026844,0.0244462788105011,-0.020953569561243057,0.08716606348752975,-0.088190458714962,-0.021396184340119362,-0.07587790489196777,0.05936616286635399,-0.008041007444262505,0.000510545854922384,0.004931602627038956,-0.0843886211514473,-0.07247698307037354,0.016719412058591843,0.023169565945863724,0.06760998070240021,0.008053272031247616,-0.051862265914678574,-0.05218613147735596,-0.047274380922317505,-0.04952859506011009,-0.048317842185497284,-0.04217195510864258,0.03252335265278816,0.05793429911136627,0.07049596309661865,-0.08769012987613678,0.052375078201293945,-0.008471337147057056,-0.03639709949493408,0.009996168315410614,-0.0017873529577627778,0.05228160694241524,-0.06360594928264618,-0.03946569561958313,0.08082390576601028,-0.005566502921283245,0.0015557982260361314,0.0732564777135849,0.013992954045534134,-0.07885271310806274,-0.007952404208481312,-0.04436368867754936,0.0011093893554061651,0.025953037664294243,-0.04651293531060219,0.001350901322439313,0.08772962540388107,0.03673768788576126,-0.019968144595623016,-0.05868975818157196,-0.01807677187025547,0.0014914294006302953,0.06632566452026367,0.06367917358875275,-0.05489916726946831,-0.015054727904498577,0.012874524109065533,0.06264623254537582,0.06165089085698128,0.08433673530817032,-0.01867212913930416,-0.07971684634685516,-0.051144588738679886,0.062185946851968765,-0.03203533589839935,-0.023681344464421272,-0.017175262793898582,0.06215012073516846,-0.05368562042713165,0.07837256789207458,0.0038022883236408234,0.046334970742464066,0.060476481914520264,-0.07234261184930801,-0.000610381190199405,-0.061483968049287796,0.03037303127348423,-0.005843596998602152,0.04299081861972809,-0.07119880616664886,0.006799740716814995,0.0010108499554917216,-0.03873807564377785,0.01124953106045723,0.08751259744167328,0.007871977053582668,0.07158482819795609,0.07908172905445099,0.0175674706697464,0.026344751939177513,-0.04223882406949997,0.016529688611626625,0.05039558559656143,-0.01488469634205103,0.0325825996696949,0.02940911240875721,0.0755629763007164,0.022919392213225365,0.022294986993074417,-0.017300743609666824,-0.012363240122795105,-0.01105312630534172,-0.0069966926239430904,-0.0363333635032177,0.018055835738778114,0.0599975548684597,0.07829204946756363,0.06463145464658737,0.07122675329446793,-0.02286929078400135,-0.061605796217918396,-0.05759105458855629,-0.07809814810752869,-0.009326749481260777,0.0683043822646141,0.06322009116411209,-0.06736229360103607,-0.04227356240153313,0.0497342087328434,0.08641449362039566,-0.06929490715265274,-0.07243526726961136,-0.03949044644832611,-0.05960464105010033,0.07881703227758408,0.01759636215865612,-0.0694316029548645,0.041627757251262665,-0.06147483363747597,-0.07231453061103821,-0.0020714965648949146,-0.07337646186351776,0.06855382770299911,-0.08378304541110992,-0.023646805435419083,0.07211360335350037,0.023057224228978157,-0.020016402006149292,0.06113174930214882,-0.0114608658477664,0.056657303124666214,0.0713539570569992,-0.008697234094142914,0.005963094066828489,0.047283872961997986,0.025029443204402924,0.06578709930181503,-0.05990905687212944,0.08581845462322235,0.07008881866931915,-0.020967993885278702,0.08680140227079391,0.07089675962924957,0.03079904057085514,0.08828974515199661,0.02605786733329296,0.08588505536317825,-0.07259305566549301,-0.05804552510380745,-0.01826208084821701,0.004308134783059359,0.025378260761499405,-0.0838489830493927,0.013611629605293274,-0.030639968812465668,0.057544101029634476,-0.007306303363293409,0.0671495571732521,-0.06741959601640701,0.0130492327734828,0.0025340477004647255,0.05134997144341469,-0.08365967869758606,-0.024959184229373932,-0.04946131631731987,-0.06212994456291199,-0.03819836303591728,0.0741870254278183,-0.07915598154067993,0.03598424047231674,0.08131982386112213,0.07154353708028793,0.041088275611400604,-0.08678328990936279,0.057019416242837906,0.07336385548114777,-0.05507482588291168,0.06237412989139557,-0.031143706291913986,-0.07843673974275589,-0.05958590656518936,-0.03677963465452194,-0.0677143782377243,-0.06421060860157013,0.008258011192083359,-0.07469520717859268,-0.08646783977746964,-0.04964952543377876,-0.062000248581171036,-0.06566126644611359,0.07132352143526077,0.05878385156393051,0.040306273847818375,-0.05974748730659485,-0.07038776576519012,-0.07469570636749268,-0.0666622668504715,0.06595781445503235,-0.016227547079324722,-0.017357926815748215,-0.08622436970472336,-0.08794531971216202,0.04124267026782036,-0.030300622805953026,0.08025241643190384,-0.005968183279037476,0.01474546454846859,0.026610497385263443,0.04754502698779106,-0.07105561345815659,0.022642867639660835,-0.08041614294052124,-0.0030453309882432222,-0.05627302825450897,-0.06497857719659805,-0.022788843140006065,0.0035171860363334417,0.030846551060676575,0.04686473309993744,-0.07776308059692383,0.035198960453271866,-0.08535978943109512,0.04604639112949371,0.06679832935333252,-0.010532149113714695,-0.04925142601132393,-0.04550764709711075,0.0007161276298575103,0.04491664469242096,-0.020540719851851463,0.05924132466316223,-0.05047975480556488,0.04885324463248253,0.026931867003440857,-0.004301380831748247,-0.01093569491058588,-0.0008101994171738625,0.02531377598643303,-0.06413485109806061,-0.0024725659750401974,-0.06732123345136642,-0.002877576043829322,0.04483393207192421,0.08555012196302414,0.027064144611358643,0.02416479028761387,-0.04198071360588074,-0.07085533440113068,-0.03898385167121887,0.05923020839691162,-0.01693296991288662,0.046755142509937286,0.008791379630565643,-0.036129795014858246,0.056306660175323486,-0.047472164034843445,-0.025037430226802826,0.033599141985177994,-0.08679558336734772,-0.03162284195423126,-0.0801728218793869,-0.002861170331016183,-0.05328129604458809,-0.055826954543590546,-0.039733752608299255,-0.0513908751308918,0.04759189486503601,0.035048432648181915,0.01122260931879282,0.07861791551113129,-0.08381003886461258,0.043164294213056564,-0.07909318804740906,0.044578973203897476,0.05606461316347122,-0.05915075168013573,0.052697353065013885,-0.06111499294638634,-0.06592662632465363,0.06316274404525757,-0.04991511255502701,-0.06312289088964462,-0.0844179019331932,-0.03618355467915535,0.028224468231201172,-0.01757058873772621,-0.004251689650118351,0.012112793512642384,0.03636181354522705,-0.006506229750812054,-0.07978487759828568,0.043791513890028,-0.0668705552816391,-0.08441247791051865,-0.05665290728211403,-0.08664628118276596,-0.001753013813868165,-0.04847884178161621,-0.08365370333194733,-0.050394754856824875,-0.04310005158185959,0.01895919069647789,0.08049637079238892,-0.042129430919885635,0.07987252622842789,0.07039280980825424,0.05122176930308342,-0.033482540398836136,-0.0372898131608963,0.012468376196920872,-0.06379221379756927,0.060853831470012665,-0.034461770206689835,-0.010928340256214142,-0.0029913620091974735,0.06668537110090256,-0.029659094288945198,-0.08521397411823273,-0.008706885389983654,-0.04037089645862579,-0.015942098572850227,-0.08462873101234436,0.043640583753585815,0.04537205025553703,-0.017467234283685684,0.03393545001745224,-0.03791144862771034,-0.07562537491321564,0.023696117103099823,-0.001989352283999324,-0.08504649996757507,-0.014947685413062572,-0.03823879361152649,0.04034516587853432,0.0677691400051117,0.037068404257297516,-0.023935163393616676,-0.05217446759343147,0.04889458045363426,-0.06876012682914734,-0.07602783292531967,0.018031127750873566,0.013041161932051182,-0.06968516856431961,0.02379409782588482,-0.08133144676685333,0.05285273864865303,-0.056757841259241104,-0.031813304871320724,-0.06504783034324646,-0.07102275639772415,-0.06630244851112366,0.08003699034452438,-0.04995638504624367,-0.054490458220243454,-0.0642232820391655,-0.060028355568647385,-0.011033960618078709,0.033549774438142776,-0.04687469080090523,-0.011377204209566116,-0.07650705426931381,-0.04760619252920151,-0.08133801072835922,-0.05911170318722725,0.08675005286931992,0.025153376162052155,0.035761695355176926,-0.06881583482027054,-0.0241316519677639,0.006174207665026188,0.043951090425252914,-0.02741430141031742,-0.05190255865454674,0.0693313404917717,-0.04217742383480072,0.006833605468273163,-0.08590217679738998,-0.0396559052169323,-0.08821424841880798,0.007987512275576591,0.011313931085169315,0.07446690648794174,0.047674987465143204,-0.0016276690876111388,-0.02633357234299183,0.05464215576648712,-0.036808937788009644,0.029317736625671387,0.06452856212854385,0.08124352991580963,0.052462827414274216,0.073159359395504,0.05783689767122269,-0.08745086193084717,0.07206909358501434,-0.033175334334373474,0.03241737559437752,-0.07986374944448471,0.06661303341388702,0.07475076615810394,-0.005468500778079033,-0.03442271053791046,0.052275579422712326,-0.03269307687878609,0.007592301350086927,-0.020072899758815765,-0.05392805114388466,-0.021644745022058487,-0.0801851823925972,-0.010495766066014767,0.05818082392215729,-0.02434578910470009,0.05631786212325096,0.019983410835266113,0.017139246687293053,0.012819753959774971,-0.03195899724960327,0.04095006734132767,-0.0026893483009189367,-0.057183388620615005,-0.07051248848438263,0.075320303440094,-0.009643936529755592,-0.05014975368976593,-0.06618950515985489,-0.05239638313651085,-0.02832668647170067,-0.04719320684671402,0.0694442093372345,0.0022820094600319862,-0.021609995514154434,0.056115083396434784,-0.07830685377120972,0.06448974460363388,-0.07041732966899872,-0.08796263486146927,-0.03368894383311272,0.04690796509385109,-0.041663527488708496,-0.02974141761660576,0.036273885518312454,-0.060480136424303055,0.014372243545949459,-0.05399703606963158,0.03522646054625511,0.059158697724342346,0.03003016673028469,-0.06389947980642319,-0.037687595933675766,0.036126758903265,0.013271758332848549,-0.06309638917446136,0.08078503608703613,-0.06602990627288818,-0.0834103524684906,-0.018883073702454567,-0.025385340675711632,-0.08263183385133743,-0.06349339336156845,0.08432212471961975,-0.017723234370350838,0.04143355414271355,0.029390450567007065,-0.013972659595310688,0.048406392335891724,0.05464102700352669,0.03352630138397217,-0.06837484240531921,-0.07860594987869263,-0.015264766290783882,-0.07464932650327682,0.07370983064174652,-0.023798765614628792,-0.06285332143306732,-0.0644233301281929,-0.05690114200115204,-0.024607300758361816,-0.0008975803502835333,0.07697917520999908,-0.07663378119468689,-0.05717920511960983,0.0389886274933815,0.02540982887148857,-0.022032327950000763,0.08046029508113861,-0.08215939998626709,0.03784775361418724,-0.05513233318924904,0.08171742409467697,0.05674955993890762,0.014114052057266235,0.05366840586066246,0.04354693368077278,0.07152985036373138,-0.07269719988107681,0.059799328446388245,-0.05182163417339325,0.07440879195928574,0.06799706816673279,0.07200569659471512,-0.07058068364858627,0.013838706538081169,0.06269308924674988,-0.04610631242394447,-0.022309212014079094,0.00916785653680563,-0.06421514600515366,0.06905446201562881,0.06175712123513222,0.08367440849542618,-0.08442921191453934,0.05683404579758644,0.07263248413801193,0.005541404243558645,-0.0278388150036335,-0.044699206948280334,-0.06480087339878082,0.03671737387776375,-0.03730601817369461,-0.058078326284885406,-0.0667148232460022,0.07620970159769058,-0.00792868621647358,0.02208556979894638,0.06851877272129059,-0.0650150403380394,0.038137953728437424,0.06255872547626495,-0.05520365759730339,0.07389998435974121,-0.01668919250369072,0.04593220353126526,0.057105448096990585,0.02660340629518032,0.0714733749628067,0.0028537525795400143,0.0226130373775959,-0.05552515387535095,-0.0019960536155849695,0.0589769072830677,0.03884980455040932,-0.019950799643993378,0.07700655609369278,-0.007616335991770029,-0.008906534872949123,-0.048074591904878616,-0.05798179656267166,-0.06477929651737213,0.024074817076325417,-0.07759963721036911,-0.04229223355650902,0.039851803332567215,0.056891120970249176,-0.08055699616670609,0.017207304015755653,-0.03266081586480141,-0.027287818491458893,-0.041490886360406876,0.04318397492170334,0.07182574272155762,-0.05113270506262779,0.07090329378843307,-0.08787450939416885,0.0020730243995785713,-0.03153979405760765,0.0565640814602375,0.024655558168888092,-0.05273023620247841,0.04568476974964142,-0.08296827226877213,-0.02216770313680172,-0.043231528252363205,0.036303725093603134,0.03189806267619133,0.0673205778002739,0.03641883656382561,0.029582694172859192,-0.03417094796895981,-0.04833833500742912,0.028439491987228394,0.06856033205986023,0.07689607888460159,0.044082000851631165,-0.035953495651483536,0.018976207822561264,-0.022681599482893944,0.029805397614836693,0.05285778269171715,-0.031913530081510544,0.03509140387177467,-0.07939780503511429,-0.0499730221927166,-0.08639464527368546,0.04345483332872391,0.025613661855459213,0.009594055823981762,0.031839024275541306,0.031045526266098022,-0.03464145213365555,-0.0742427334189415,-0.07248741388320923,-0.06544020771980286,0.019596155732870102,-0.023856064304709435,0.061006445437669754,-0.039591189473867416,0.060833483934402466,-0.009634938091039658,0.06123550236225128,-0.07225597649812698,-0.08103381842374802,0.08287666738033295,-0.08748571574687958,-0.05173191428184509,0.08772309869527817,-0.021833710372447968,0.06258699297904968,-0.0473075695335865,-0.06587985157966614,-0.04608103632926941,0.0427459217607975,-0.04851943999528885,-0.07491378486156464,0.03737182170152664,-0.08640681952238083,0.013313420116901398,0.07773840427398682,-0.058016978204250336,0.0008888454176485538,-0.011561870574951172,0.04097399488091469,0.010771659202873707,-0.002844891045242548,0.03123178333044052,-0.08582159131765366,0.06863841414451599,0.037682369351387024,0.07549332827329636,-0.053400035947561264,-0.014365521259605885,-0.062219854444265366,-0.004460211377590895,-0.0378592275083065,-0.02831108123064041,0.04140830785036087,-0.07670967280864716,0.017751682549715042,0.021369390189647675,-0.011660831980407238,0.039021626114845276,0.012639418244361877,0.009818751364946365,0.07927493005990982,-0.06484973430633545,0.054228294640779495,-0.03579114377498627,0.007677248679101467,-0.04692601412534714,-0.04690235108137131,-0.008382049389183521,-0.050391118973493576,0.033748477697372437,0.027473749592900276,-0.015520988032221794,0.033110424876213074,0.04799089953303337,-0.04229212924838066,-0.031038962304592133,0.05970839783549309,-0.07800407707691193,-0.07477747648954391,-0.04854707792401314,0.018152562901377678,0.06937559694051743,-0.03140770271420479,-0.034747906029224396,-0.03242267295718193,0.045279160141944885,0.0023375905584543943,0.060458630323410034,-0.021774210035800934,-0.02162356674671173,-0.07275442779064178,0.07147245854139328,-0.014858070760965347,-0.07686206698417664,-0.03152823448181152,0.04186968877911568,0.054520383477211,-0.03961726650595665,-0.05906345322728157,-0.01565082184970379,-0.04989156126976013,0.0866847038269043,-0.02806735597550869,-0.07686398923397064,-0.053150832653045654,-0.08054239302873611,0.04075314477086067,0.0025710526388138533,-0.017888912931084633,-0.08280958235263824,0.08587988466024399,0.0765281617641449,0.05290928855538368,-0.052101701498031616,-0.07751060277223587,-0.08610083907842636,0.033819492906332016,0.001586238737218082,-0.02277693711221218,0.0027350985910743475,-0.08406950533390045,-0.03570714592933655,0.04986482113599777,0.0012859846465289593,-0.0280564296990633,0.06645309180021286,0.0819305032491684,-0.04187587648630142,-0.06743115186691284,-0.028090262785553932,-0.011340736411511898,-0.020219886675477028,0.015324214473366737,-0.0388917401432991,0.08752847462892532,0.0770692527294159,0.05093565583229065,0.0034188153222203255,-0.07506083697080612,0.08203999698162079,0.017497211694717407,-0.04206221550703049,0.08297310769557953,0.07738769054412842,-0.03430001065135002,-0.05150372162461281,0.07267484068870544,0.026993844658136368,0.014069491997361183,-0.07228334993124008,0.026852695271372795,0.08305713534355164,-0.0399186909198761,-0.02114412561058998,0.020742908120155334,-0.06829977035522461,0.08346055448055267,-0.08395449072122574,-0.02005951851606369,-0.08556954562664032,0.05860687792301178,-0.06116979569196701,0.01632922701537609,0.07221072167158127,-0.055965323001146317,0.046633411198854446,0.052288495004177094,-0.02398509718477726,-0.06528501212596893,0.006575993727892637,-0.04249068349599838,-0.056797388941049576,-0.08800046145915985,-0.07873599231243134,0.024867113679647446,-0.07591041177511215,0.04053493216633797,0.07186036556959152,-0.06464201211929321,0.025579310953617096,-0.027767060324549675,-0.029547469690442085,0.052471086382865906,-0.003459708299487829,-0.031032513827085495,-0.07186269015073776,0.07043436914682388,0.06274918466806412,-0.07258336246013641,-0.08682049065828323,-0.053403038531541824,-0.061161018908023834,-0.006706606596708298,0.07905667275190353,0.05853287875652313,0.062088944017887115,0.01049453392624855,-0.02736036293208599,0.05661849305033684,0.04599470645189285,0.02656698040664196,-0.054115258157253265,-0.01770210824906826,-0.06007472425699234,-0.04376222938299179,-0.05750058591365814,0.04055554047226906,0.025758014991879463,0.0882534310221672,-0.015679122880101204,-0.03273120895028114,0.036709513515233994,0.015796417370438576,-0.03580407425761223,-0.06671029329299927,0.0712343379855156,0.05759907141327858,0.07842609286308289,-0.019217824563384056,0.07898075133562088,0.017301850020885468,0.07873549312353134,-0.0527714341878891,0.03323229402303696,0.07908030599355698,0.043818749487400055,0.04691232740879059,-1.6542637695238227e-06,-0.004712723661214113,0.030194833874702454,0.08070143312215805,-0.04184778407216072,-0.07651523500680923,0.08363357931375504,-0.030784057453274727,0.08104807138442993,0.05819672718644142,-0.0845787525177002,-0.07390765100717545,-0.08012136071920395,0.0563521683216095,0.02832791768014431,-0.04362516850233078,-0.08838110417127609,0.06860718876123428,-0.030372492969036102,-0.024015801027417183,0.0534946545958519,-0.028850676491856575,-0.08431977033615112,0.08170632272958755,0.07999895513057709,0.0318324938416481,0.05103069916367531,-0.06496037542819977,0.012998140417039394,-0.061472631990909576,0.05257529392838478,-0.060568466782569885,0.014618265442550182,0.06224571168422699,-0.07537852972745895,0.024803631007671356,-0.0601242259144783,0.03596015274524689,0.08504901081323624,-0.07747496664524078,-0.06592220067977905,0.02961508370935917,-0.07501769810914993,0.0036226690281182528,0.06544734537601471,0.027912434190511703,0.06798838824033737,-0.07307393103837967,-0.044298455119132996,0.03541155904531479,-0.08080017566680908,-6.708724686177447e-05,0.012960809282958508,0.08361276984214783,0.07536084949970245,-0.06617573648691177,-0.07530752569437027,-0.06340151280164719,-0.08611339330673218,0.0017260293243452907,-0.05087202414870262,-0.018428225070238113,0.010510359890758991,0.04027676209807396,0.08577882498502731,0.08088582754135132,0.06493346393108368,0.016950998455286026,0.0042093112133443356,0.07495564967393875,0.08623330295085907,0.031230129301548004,-0.03266025707125664,-0.046230498701334,0.029364045709371567,-0.08723275363445282,-0.05904977768659592,-0.0450851246714592,-0.06461691111326218,0.017548134550452232,-0.07492941617965698,-0.07384940981864929,0.04894442856311798,-0.07350903004407883,-0.06026599928736687,0.06763902306556702,0.02708849497139454,-0.04902248457074165,-0.013324546627700329,-0.044961318373680115,0.06180686503648758,-0.07305809110403061,-0.05995185673236847,0.018686089664697647,-0.035105038434267044,-0.032723329961299896,-0.057337962090969086,-0.050382573157548904,-0.0690000057220459,-0.05499943345785141,-0.0655040517449379,-0.05989076569676399,-0.08622350543737411,-0.029940856620669365,0.05654074624180794,0.015090879052877426,-0.08201086521148682,-0.08070366829633713,-0.03581826761364937,0.05727279186248779,-0.05793789029121399,0.08541494607925415,-0.03446437418460846,0.05524168536067009,-0.01594848372042179,-0.05963669344782829,-0.04847673699259758,0.07841438800096512,0.037511348724365234,-0.016008341684937477,-0.06838486343622208,0.014866278506815434,0.06086227297782898,0.020487109199166298,0.009395775385200977,0.05359293147921562,0.002399219898506999,-0.07051720470190048,0.02675505168735981,0.05447111278772354,0.03249822184443474,-0.027064481750130653,0.031076841056346893,-0.06799769401550293,-0.02881282940506935,0.045553240925073624,0.06732963025569916,0.044732093811035156,0.07665099948644638,-0.010290605947375298,0.02937919832766056,-0.009608501568436623,0.024423982948064804,0.006623250897973776,0.01657683029770851,-0.0031388127245008945,0.03842445835471153,-0.0027306205593049526,-0.024105720221996307,-0.07414443045854568,0.050740599632263184,-0.07408078759908676,-0.0048796250484883785,-0.014952847734093666,-0.07642306387424469,0.06686904281377792,0.016737956553697586,-0.027726871892809868,-0.02314717508852482,-0.02613084577023983,0.05263202637434006,-0.025517303496599197,0.02252691052854061,-0.04489811882376671,0.0022652349434792995,0.06721222400665283,-0.05602005124092102,0.02623377926647663,-0.07977180182933807,-0.010551095008850098,-0.07495211064815521,0.0308634415268898,0.01597565785050392,0.044400427490472794,-0.03809889778494835,0.040789488703012466,-0.013723139651119709,-0.014080598019063473,0.08085725456476212,0.017621081322431564,-0.007070839870721102,0.013040182180702686,-0.08701962977647781,-0.029903536662459373,0.07347587496042252,0.00961738359183073,-0.009330669417977333,0.04140690714120865,-0.05705629661679268,-0.011108054779469967,-0.026375139132142067,-0.05432848632335663,0.057332735508680344,-0.0802539810538292,-0.06137777119874954,-0.06689005345106125,0.044958241283893585,0.05785588547587395,-0.03991750255227089,0.008037382736802101,-0.0830891877412796,0.01339860912412405,-0.029150666669011116,-0.06043943390250206,-0.0659429281949997,0.06863975524902344,0.02135688252747059,-0.0008493116474710405,-0.035764824599027634,-0.00359523156657815,0.002330552088096738,0.06437800079584122,0.06783691793680191,-0.08142542093992233,0.07669241726398468,-0.08140422403812408,0.04715368151664734,-0.05120731517672539,-0.047222696244716644,-0.016747228801250458,-0.040940627455711365,-0.04788117855787277,0.07712546736001968,0.013443158939480782,-0.026745367795228958,-0.05408313125371933,-0.07292959094047546,-0.06416403502225876,0.08218304812908173,-0.026069268584251404,0.04551966115832329,-0.08600225299596786,0.009310354478657246,-0.06131378933787346,-0.03865169361233711,-0.06422040611505508,-0.05833921208977699,0.041673023253679276,0.03220530226826668,-0.016283972188830376,-0.0735999047756195,0.04529160261154175,0.009706228971481323,0.0004188553721178323,-0.03751073777675629,-0.07437353581190109,-0.04945682734251022,-0.0787835568189621,-0.07756954431533813,0.03460461646318436,-0.06911976635456085,-0.05391603708267212,0.004540321882814169,-0.05623491480946541,0.05630877986550331,-0.08416326344013214,0.04179181158542633,-0.032612841576337814,0.05932483822107315,-0.033245887607336044,0.0426761694252491,0.061254605650901794,0.06288115680217743,-0.025756318122148514,0.06946403533220291,-0.043955232948064804,0.06856801360845566,-0.06572835892438889,0.009046926163136959,0.0076604424975812435,-0.002754401881247759,0.08640109747648239,0.008968564681708813,0.08012952655553818,-0.038744132965803146,0.004019186832010746,-0.008186161518096924,0.07138282805681229,0.00823152158409357,0.06570303440093994,-0.0740891546010971,-0.02730942890048027,0.06695648282766342,0.06500832736492157,0.044174689799547195,0.0013535143807530403,0.0646393671631813,-0.029258910566568375,0.06364134699106216,-0.059873420745134354,-0.009269924834370613,0.04670682176947594,-0.048959072679281235,-0.07889091223478317,0.07180412113666534,-0.05076351761817932,-0.01205070037394762,-0.0042786006815731525,0.032090768218040466,-0.024342913180589676,0.04711116850376129,-0.04826965555548668,0.07705248892307281,-0.05555111542344093,-0.05072459578514099,0.06458157300949097,-0.03290494903922081,-0.0651877149939537,-0.0366787351667881,0.037636227905750275,0.029394138604402542,-0.023753879591822624,-0.0728960931301117,-0.01205791812390089,0.04844008758664131,0.056069765239953995,-0.03784527629613876,-0.08006077259778976,0.07926872372627258,-0.0032752209808677435,0.08195410668849945,0.016393544152379036,0.02913670614361763,-0.059777118265628815,0.05116124823689461,0.04474862664937973,-0.02351994253695011,-0.015295818448066711,-0.027467690408229828,0.015425504185259342,-0.025201454758644104,-0.045061975717544556,-0.03909308835864067,0.03557765111327171,-0.022740237414836884,0.07289884239435196,0.016180522739887238,0.033068764954805374,0.07687117159366608,0.050544366240501404,0.0695507600903511,-0.036673616617918015,-0.05497567355632782,-0.06004030257463455,0.031263697892427444,-0.04441864788532257,-0.020919250324368477,0.06511884182691574,0.08482244610786438,-0.08795679360628128,-0.02025747112929821,0.056716497987508774,0.06429620832204819,-0.0002694342692848295,0.05173038691282272,0.06295806914567947,0.03703216090798378,-0.008434290066361427,-0.024817876517772675,-0.05320229381322861,0.027642568573355675,0.02274623140692711,0.028224332258105278,-0.0030722205992788076,0.03661901503801346,0.07112453132867813,0.019426925107836723,-0.066580630838871,0.07093197852373123,-0.08024192601442337,-0.053506266325712204,0.05207832157611847,-0.018011203035712242,0.045208562165498734,-0.009191574528813362,0.05232047662138939,-0.05355534702539444,-0.08190064877271652,-0.03614013269543648,-0.06776254624128342,0.009495126083493233,0.029086824506521225,0.03071785531938076,0.08838651329278946,-0.06144580617547035,0.07042104750871658,0.02676980197429657,0.021298972889780998,0.044276654720306396,-0.046348098665475845,-0.04276663810014725,-0.002500783186405897,0.02377483621239662,-0.06670686602592468,0.0033122680615633726,-0.024594372138381004,-0.054534681141376495,0.03501776233315468,0.06483018398284912,-0.06885109096765518,-0.07512562721967697,-0.05382012203335762,0.06415121257305145,0.03822741284966469,-0.05599259212613106,-0.05667479336261749,-0.035779353231191635,0.0459635928273201,0.04907004535198212,-0.0787186399102211,-0.05734001845121384,0.055411651730537415,-0.044621627777814865,-0.07195515185594559,-0.05913877114653587,-0.02628726325929165,-0.012852765619754791,0.06957774609327316,-0.05965592339634895,-0.020878715440630913,-0.027567483484745026,-0.08112730830907822,-0.08395851403474808,0.02099928818643093,-0.0400942862033844,0.02890775352716446,0.03836939483880997,0.07263331860303879,0.04850668087601662,-0.0416727177798748,0.030060427263379097,-0.027982525527477264,0.036744728684425354,0.0047913906164467335,0.05958963558077812,0.005357538815587759,0.08017648756504059,-0.08641541749238968,0.06818705797195435,0.02927779220044613,0.05982663854956627,-0.05883624032139778,0.06464514881372452,-0.041010841727256775,0.047745633870363235,0.0397849902510643,-0.035187382251024246,-0.01558580994606018,-0.05990777164697647,0.027002284303307533,0.06861948221921921,-0.014273598790168762,0.005317035596817732,-0.05672696977853775,-0.043235741555690765,-0.0018693074816837907,-0.06895296275615692,-0.08480539917945862,0.0341256707906723,-0.009554659016430378,-0.01834074780344963,-0.02109416015446186,0.055119700729846954,0.0823143869638443,0.04704272001981735,0.01598590984940529,0.06976525485515594,0.07455834001302719,-0.07902181148529053,-0.03011983446776867,-0.08618833124637604,0.0846577063202858,0.06288918852806091,-0.015896884724497795,-0.06376391649246216,-0.05363712087273598,-0.07431723177433014,0.006612039636820555,0.017499972134828568,-0.058674439787864685,0.02243056334555149,0.027843555435538292,0.06259432435035706,-0.06316123157739639,0.012842313386499882,0.06976605951786041,0.06944193691015244,0.056531671434640884,-0.06402403116226196,0.05349009111523628,0.08005879819393158,0.07994765788316727,0.04144931584596634,-0.030161475762724876,0.046359479427337646,0.03659111261367798,-0.009655253030359745,0.0038199585396796465,-0.03064662776887417,-0.023023642599582672,0.055563684552907944,0.06586918979883194,-0.08326100558042526,-0.060665328055620193,0.043528325855731964,-0.02805696614086628,0.00829483661800623,0.05961538851261139,0.02985166385769844,-0.07944048941135406,0.07935643196105957,-0.03434329479932785,-0.0669880211353302,0.020366959273815155,0.053673725575208664,0.08569152653217316,0.024112718179821968,0.02400835044682026,-0.007263113744556904,0.0635797530412674,0.019292909651994705,-0.01571626402437687,-0.08076733350753784,0.06760288029909134,0.02037479728460312,0.07674209028482437,0.02452310174703598,-0.051338158547878265,0.08490767329931259,0.025919446721673012,-0.04527409002184868,-0.019806163385510445,-0.03832066059112549,0.07072542607784271,0.015591414645314217,0.07423753291368484,0.06261995434761047,-0.04458760470151901,0.044501159340143204,-0.024380633607506752,0.08265475183725357,0.007674719672650099,-0.04833473265171051,-0.08127036690711975,0.01316717080771923,0.04679669812321663,-0.07717219740152359,-0.048637766391038895,0.054749343544244766,-0.01436811313033104,-0.08630599826574326,-0.057608891278505325,0.002631512237712741,-0.01565057784318924,0.03544728085398674,0.00013266774476505816,0.084710031747818,-0.04441838338971138,-0.062482405453920364,-0.06831608712673187,0.05944868549704552,-0.03660764545202255,-0.0716601237654686,-0.0422256737947464,-0.007578108459711075,0.029369177296757698,-0.013988749124109745,-0.05598771572113037,0.08418375253677368,-0.03163304179906845,-0.011200977489352226,0.06978257745504379,-0.04126887768507004,0.0118754543364048,-0.036032140254974365,0.007316998206079006,0.02543521113693714,0.06154117360711098,0.022004785016179085,0.0342341773211956,-0.03466864675283432,-0.026609770953655243,0.06667464971542358,0.052208997309207916,0.07577771693468094,-0.0758974552154541,-0.08533976972103119,-0.06267029047012329,-0.05000010132789612,0.030459389090538025,0.006340276915580034,-0.03176549822092056,0.06501375883817673,0.014634576626121998,-0.055430829524993896,-0.01543642021715641,0.0555296428501606,-0.009032891131937504,0.008747325278818607,0.03873801231384277,0.004880520515143871,0.06679927557706833,-0.06285057961940765,0.06241361424326897,-0.08626346290111542,-0.07125174254179001,-0.009003093466162682,0.022287538275122643,-0.044442322105169296,-0.0094420425593853,0.06246275454759598,0.07219573110342026,0.0238984115421772,0.08082037419080734,-0.053979840129613876,0.04399574548006058,0.08320219814777374,-0.05158926919102669,0.0678132027387619,0.07275600731372833,-0.03386500105261803,-0.03005381114780903,-0.03155489265918732,0.008059625513851643,0.05967779830098152,0.006413570139557123,0.08372225612401962,0.06361786276102066,0.0015007017645984888,-0.07852859795093536,-0.08162512630224228,0.037780601531267166,0.007389743812382221,-0.049038879573345184,-0.005079127382487059,-0.059458717703819275,0.006037873215973377,-0.0744142010807991,0.007049713749438524,-0.019004425033926964,0.08080009371042252,-0.08448788523674011,0.06845191866159439,-0.04843156412243843,-0.060284871608018875,0.03064054809510708,-0.03705863654613495,0.07227917015552521,0.044918499886989594,0.024942893534898758,-0.05667910352349281,-0.05314391851425171,-0.013973534107208252,0.018375393003225327,0.026806386187672615,0.0242963507771492,0.052083514630794525,-0.0591573566198349,0.038499344140291214,0.043464548885822296,-0.021263958886265755,0.06610506772994995,-0.03226638212800026,0.0002429660380585119,0.01826510578393936,0.03822292387485504,0.04126683250069618,0.02294471301138401,0.0228388924151659,0.013824661262333393,-0.07911466807126999,-0.017283199355006218,0.030035044997930527,0.03796745091676712,-0.05234258994460106,0.009654452092945576,-0.058924898505210876,0.07750703394412994,0.08724407106637955,-0.07100743055343628,-0.006454094313085079,-0.06678355485200882,0.06198720261454582,-0.024280546233057976,-0.011397519148886204,0.05901679769158363,0.08064637333154678,-0.01866624876856804,0.030627544969320297,-0.023708002641797066,0.045997656881809235,0.07919792830944061,0.005101138260215521,-0.02207755111157894,0.03323323279619217,-0.07400485873222351,-0.08739016205072403,0.0403636135160923,0.08431332558393478,-0.03958560526371002,-0.0019191567553207278,-0.008637901395559311,0.003499874146655202,0.012922244146466255,-0.06818284094333649,-0.0406273677945137,0.004279274959117174,-0.08122014999389648,0.04274071753025055,-0.0483723059296608,0.029999515041708946,0.04870021715760231,0.02278735674917698,0.022730058059096336,-0.012546663172543049,0.05394434928894043,0.007139876019209623,0.02966725081205368,0.005696778651326895,-0.03518436849117279,-0.06173248961567879,0.06879100948572159,-0.05081728845834732,-0.07754354178905487,0.039747197180986404,-0.013918616808950901,0.045917559415102005,-0.02707044593989849,-0.03370073437690735,-0.05881284922361374,0.06552513688802719,-0.07985524088144302,0.04611296206712723,0.0251303743571043,0.04407515004277229,-0.052436187863349915,-0.02796071395277977,-0.053775154054164886,0.020318172872066498,0.01216179970651865,-0.020099906250834465,0.08803626149892807,0.043544184416532516,0.05939294770359993,-0.06360432505607605,-0.07346063107252121,0.041321758180856705,0.06358114629983902,0.073032446205616,-0.020712867379188538,-0.04266909882426262,0.02094721607863903,0.010740618221461773,0.007938832975924015,-0.08632559329271317,0.0026615839451551437,-0.027740633115172386,0.08281974494457245,-0.04855269566178322,0.004805804695934057,-0.05749695003032684,0.028758669272065163,0.05986589938402176,0.0064735556952655315,-0.0540226586163044,-0.04620880261063576,-0.028356725350022316,-0.005314875394105911,0.003845752449706197,-0.06561005860567093,-0.053791485726833344,-0.01323049608618021,-0.04251924529671669,0.028359485790133476,0.0016854945570230484,-0.04641181230545044,0.00810985453426838,-0.07213293015956879,-0.06944677233695984,0.043533921241760254,-0.05376047641038895,0.05831405147910118,-0.059591785073280334,0.08044644445180893,-0.0037123996298760176,-0.019304467365145683,0.04018442705273628,-0.08275230973958969,-0.08476388454437256,-0.07811331003904343,-0.035189297050237656,-0.06631260365247726,0.04999085143208504,-0.0512634739279747,0.07487324625253677,0.07489804923534393,-0.008722953498363495,0.03976631909608841,-0.048411376774311066,-0.08507203310728073,-0.08545971661806107,0.0019495761953294277,-0.022411365061998367,-0.08317305147647858,0.08792664110660553,0.019600624218583107,-0.026116883382201195,-0.0077527547255158424,0.022998260334134102,0.05656357854604721,-0.059545066207647324,0.03096153773367405,0.05384068191051483,-0.062456369400024414,0.045661263167858124,-0.042897555977106094,-0.07987820357084274,-0.04874724522233009,-0.012879971414804459,0.04798522964119911,-0.06269009411334991,-0.03967050835490227,0.029418036341667175,-0.056585893034935,0.0060107409954071045,-0.0010227143066003919,-0.05320524424314499,-0.02245083637535572,-0.030078139156103134,-0.032931163907051086,-0.03345278650522232,-0.05245906487107277,-0.05954115837812424,-0.05849872902035713,0.03403634950518608,0.05406136065721512,-0.07498490810394287,0.0410175658762455,0.014808020554482937,0.05531206727027893,0.05181225761771202,0.005823946092277765,-0.0036939289420843124,0.03515179827809334,0.05061810091137886,-0.05244014039635658,-0.04840094596147537,-0.05344133824110031,0.07513336092233658,-0.040706753730773926,0.06802692264318466,-0.004261857829988003,0.016508139669895172,-0.05207228288054466,0.018474776297807693,-0.04043334722518921,-0.06780572235584259,0.06875637918710709,0.04128076136112213,-0.05719904601573944,-0.008978953585028648,-0.02123275026679039,-0.00884751882404089,-0.08529891073703766,0.05310899019241333,-0.021877901628613472,-0.0800657868385315,-0.05323158577084541,-0.08124972134828568,-0.048854149878025055,-0.051566269248723984,-0.00011384917161194608,-0.05635460466146469,-0.04953785613179207,0.037341684103012085,0.035736795514822006,-0.06840650737285614,0.07602456957101822,-0.03043094091117382,0.06400667130947113,0.007921932265162468,-0.08482541143894196,-0.027435574680566788,0.0636570081114769,-0.033350758254528046,0.040397416800260544,-0.02181486040353775,-0.07167795300483704,0.05621800571680069,-0.02737347222864628,0.05852608382701874,0.05145115405321121,-0.0794510617852211,-0.055474989116191864,0.04668750613927841,0.025154249742627144,-0.04487216845154762,0.0764983743429184,0.05473962053656578,-0.03559402376413345,0.043095994740724564,0.06279898434877396,0.05629704147577286,0.0678466260433197,0.033223073929548264,0.04931269586086273,-0.032219599932432175,0.02443382330238819,0.07200432568788528,0.05096030235290527,-0.057352736592292786,-0.062186356633901596,0.03371231630444527,-0.07675834745168686,-0.019752204418182373,-0.04043791815638542,-0.0342119038105011,0.028853975236415863,0.05851056054234505,0.04949061945080757,0.05590048059821129,0.0687803328037262,0.05004240572452545,0.07528970390558243,-0.05664420500397682,-0.03967726230621338,-0.04193519800901413,-0.04994260147213936,-0.002593990880995989,-0.0013607426080852747,-0.06989427655935287,0.02799738198518753,0.08336146175861359,0.0170535109937191,-0.03187572583556175,0.042811039835214615,-0.0302521213889122,0.08203034847974777,0.030713357031345367,0.004843136295676231,-0.07409613579511642,-0.0015485173789784312,0.029872527346014977,0.01720386929810047,0.022305596619844437,0.035097893327474594,0.03344672545790672,0.07755395025014877,0.0009928637882694602,0.0051834615878760815,-0.04919949173927307,-0.013437763787806034,0.0251872930675745,-0.06830573827028275,0.0419105626642704,0.048055678606033325,-0.07235094159841537,-0.05365392938256264,0.03587447851896286,0.019340218976140022,0.030619768425822258,-0.08474904298782349,0.020300861448049545,-0.010012521408498287,-0.004335298668593168,0.019426029175519943,-0.04857708513736725,0.049420930445194244,0.01914987340569496,0.023385336622595787,-0.07208742201328278,-0.007266464177519083,0.03799286484718323,0.051066648215055466,0.046223144978284836,-0.011385992169380188,-0.06485705822706223,0.0033874581567943096,0.07973671704530716,0.07322622090578079,-0.06293950974941254,-0.03079109638929367,-0.06626894325017929,-0.012074935249984264,0.026101427152752876,0.08437196165323257,0.03611549735069275,-0.067494235932827,0.07626501470804214,0.05931829661130905,-0.03577987104654312,0.06671777367591858,-0.05861413851380348,-0.017375512048602104,-0.0875851958990097,-0.05181311070919037,0.05671218782663345,0.06565738469362259,-0.04156996309757233,0.03096446767449379,0.02755647338926792,0.03335195034742355,0.009521109983325005,-0.010229735635221004,-0.036907635629177094,0.03860422596335411,-0.0024186705704778433,0.011344361118972301,-0.0011326017556712031,-0.07067468762397766,0.020090539008378983,-0.05818844214081764,-0.0018815933726727962,-0.014414612203836441,0.05932299420237541,-0.02543666586279869,-0.03644866868853569,-0.01206593681126833,0.06976738572120667,-0.030874652788043022,-0.036272745579481125,-0.06665590405464172,0.02291058376431465,0.016393426805734634,-0.07376222312450409,-0.08237022161483765,0.06963550299406052,0.0465133972465992,-0.07828348129987717,0.07607164978981018,-0.013333471491932869,-0.027714671567082405,-0.04123812913894653,0.0386904813349247,-0.062047913670539856,0.06235915794968605,0.06357448548078537,0.07500288635492325,0.020715102553367615,-0.05895746499300003,0.08468560129404068,0.06051906943321228,0.00663847615942359,0.04629635065793991,-0.045004963874816895,0.00839045736938715,-0.029266275465488434,0.022191042080521584,-0.08063609898090363,-0.0026313646230846643,-0.051255952566862106,0.07412637770175934,-0.0495276041328907,-0.0352717787027359,0.02739378623664379,-0.07564990222454071,-0.08447062969207764,0.05484132096171379,0.04699448496103287,-0.05315742641687393,0.07726769894361496,0.033220842480659485,-0.07490057498216629,-0.0626666322350502,0.08409509807825089,-0.0288216695189476,0.036889493465423584,-0.07011337578296661,-0.0474516935646534,0.0027087884955108166,0.08315359055995941,-0.07750342786312103,-0.08633031696081161,0.003071799175813794,-0.07633428275585175,0.041368238627910614,-0.029695024713873863,-0.02796071395277977,0.058782968670129776,0.056942444294691086,-0.07248397916555405,-0.028941871598362923,0.025623608380556107,0.04125310108065605,0.08505504578351974,0.029803257435560226,-0.07413168251514435,-0.054285433143377304,-0.014044235460460186,0.0401667058467865,-0.03690291568636894,-0.014275232329964638,0.023584775626659393,-0.03435420244932175,0.06160082295536995,0.05470355227589607,-0.07627485692501068,0.019104016944766045,0.05477764829993248,-0.046830762177705765,0.01493898220360279,0.018119657412171364,-0.03819804638624191,0.08066581934690475,0.08829157799482346,-0.05378382280468941,-0.08193546533584595,0.07420891523361206,0.08496013283729553,0.07452131807804108,0.0664408802986145,0.018544433638453484,-0.049387916922569275,0.050570789724588394,0.0071999141946434975,0.07625339180231094,0.03450166434049606,-0.04855477064847946,0.061720654368400574,-0.04768482595682144,0.00745764235034585,-0.08359859138727188,-0.006836229469627142,0.009057346731424332,-0.05472337082028389,0.07386411726474762,0.006848578341305256,0.05766395851969719,-0.06497479230165482,-0.015182390809059143,0.059220124036073685,0.05477840453386307,0.0005770851857960224,-0.003823003498837352,-0.08484577387571335,0.005467531271278858,-0.0237274207174778,0.0365804098546505,0.04715650528669357,-0.035839106887578964,-0.07134853303432465,0.0785852000117302,-0.028235848993062973,0.035096995532512665,-0.03885115310549736,-0.029384244233369827,-0.07518825680017471,0.05171491950750351,-0.007170696277171373,-0.08653374016284943,-0.0550653412938118,0.08233505487442017,0.07135377079248428,0.037380196154117584,-0.013130070641636848,0.005218327511101961,-0.026278117671608925,0.03378067910671234,0.0869036465883255,0.012034652754664421,-0.03663676977157593,0.05735170096158981,-0.016529688611626625,0.06753935664892197,-0.0724632665514946,0.0011934512294828892,0.055601585656404495,0.018451331183314323,-0.08224761486053467,-0.005336581263691187,0.03804796189069748,0.01821316033601761,0.07387225329875946,-0.08367208391427994,0.05771459639072418,0.03227950260043144,0.024963926523923874,-6.661309453193098e-05,0.08285059779882431,-0.07762555778026581,-0.006622692104429007,-0.05319860577583313,0.07228246331214905,-0.02930888719856739,-0.04341273754835129,0.07285995036363602,0.08261873573064804,0.0726730227470398,0.07665100693702698,0.06910315901041031,-0.018114862963557243,-0.07146225869655609,0.07710911333560944,-0.0393134206533432,-0.08021868765354156,-0.053204506635665894,-0.06851286441087723,0.04774996638298035,0.04905669763684273,-0.0037590458523482084,-0.08678650110960007,0.06378168612718582,-0.04235702380537987,0.0866018682718277,-0.07048448175191879,0.06997204571962357,-0.034613318741321564,-0.08223327249288559,-0.028105931356549263,0.0302518792450428,0.06669554114341736,-0.08288084715604782,-0.05407411977648735,-0.08032549917697906,0.06689075380563736,0.05473439395427704,0.01267529558390379,0.08550722151994705,0.07183699309825897,0.015630200505256653,0.022457072511315346,-0.07782632857561111,-0.07475218921899796,0.02242666482925415,-0.026350567117333412,-0.06125137209892273,-0.038195908069610596,-0.05952323600649834,0.016021091490983963,-0.028019782155752182,-0.029409417882561684,-0.07479200512170792,-0.03895755484700203,0.006736909970641136,0.07626910507678986,0.0265129916369915,-0.011222620494663715,0.07709453999996185,-0.07272901386022568,-0.060539498925209045,0.02324339561164379,-0.008897568099200726,-0.006576868239790201,-0.030981799587607384,-0.03728439658880234,0.043828874826431274,-0.022412197664380074,0.03301515430212021,-0.07594472169876099,0.04556312412023544,-0.02770557813346386,0.011198448948562145,0.0733446404337883,-0.06200316548347473,-0.05576525256037712,-0.07819997519254684,0.07330159842967987,-0.018766093999147415,0.06288156658411026,0.08684173226356506,0.0697789192199707,-0.033098265528678894,0.06879086047410965,-0.005201194901019335,-0.08172082901000977,0.08209974318742752,-0.0273569505661726,-0.07315711677074432,-0.010650202631950378,-0.04946094751358032,-0.04509025812149048,0.015639040619134903,-0.010406699031591415,-0.04173893854022026,0.014996059238910675,0.07130696624517441,-0.026893366128206253,-0.08701378107070923,0.011087940074503422,-0.054803408682346344,0.029945967718958855,0.08716406673192978,0.06362044811248779,0.015333508141338825,-0.013596667908132076,-0.06406955420970917,-0.06565965712070465,-0.02085825428366661,-0.05571713298559189,-0.06676029413938522,-0.03275561332702637,0.08626040816307068,-0.01778181828558445,0.03971302509307861,0.04314621165394783,-0.008978721685707569,0.08386331051588058,-0.02835533581674099,0.038541678339242935,0.03843022137880325,0.002709578722715378,-0.05424445867538452,-0.06860443949699402,0.03671097755432129,-0.041588474065065384,0.0027064282912760973,0.03786434978246689,-0.018729206174612045,-0.08593396842479706,0.003632341744378209,0.03174659609794617,0.0376383475959301,-0.06258806586265564,0.03152967616915703,-0.02737540937960148,-0.04017798975110054,-0.00344210141338408,0.0758843868970871,0.006865816190838814,0.0638466402888298,-0.005228938069194555,-0.06240285560488701,0.011845308355987072,-0.011743239127099514,0.003374392632395029,-0.07193944603204727,0.03582281991839409,-0.0019440233008936048,-0.08343935012817383,-0.016814442351460457,-0.014953765086829662,0.016380803659558296,0.07392797619104385,0.05368619039654732,-0.06578134745359421,-0.0384521484375,-0.08544567227363586,0.0463152676820755,0.014033636078238487,-0.008664517663419247,0.06223352998495102,-0.07281508296728134,0.08137010782957077,-0.08737630397081375,-0.07726693898439407,-0.025410892441868782,-0.013416753150522709,0.04791915416717529,-0.02359112910926342,-0.056063611060380936,-0.04332214593887329,0.08554192632436752,0.033492088317871094,0.06237276270985603,-0.08217908442020416,-0.03354371711611748,-0.01744537055492401,0.05427739396691322,-0.01984567567706108,-0.07323184609413147,-0.03977562487125397,0.07938741147518158,0.007896602153778076,0.07673872262239456,-0.049841977655887604,0.05888393148779869,0.06930232793092728,-0.01213805004954338,-0.05903182178735733,-0.07970307022333145,-0.0786919966340065,0.08400683104991913,0.0016828287625685334,-0.0028706113807857037,-0.04844440892338753,-0.014047849923372269,-0.05834659934043884,0.043706588447093964,-0.050253331661224365,0.07296020537614822,0.05310830473899841,-0.05685245245695114,-0.007074832916259766,0.05911172181367874,-0.026279812678694725,-0.07743813842535019,-0.08051704615354538,-0.06659235805273056,-0.017703194171190262,-0.020890548825263977,0.009018340148031712,-0.07617636024951935,0.08040546625852585,0.02809527888894081,-0.07198228687047958,0.01928468979895115,0.08261743932962418,-0.03213232383131981,-0.040113598108291626,0.08021670579910278,-0.07828304916620255,0.054634664207696915,0.05082704499363899,0.08572567999362946,0.025694014504551888,0.07574222981929779,0.07281729578971863,-0.021294020116329193,-0.04572994261980057,0.033585380762815475,-0.04223029688000679,0.05928390473127365,-0.046901170164346695,-0.03411990776658058,0.06452624499797821,-0.04280694201588631,0.01592639833688736,-0.007492951117455959,0.06884931772947311,-0.02528257668018341,0.07506538182497025,0.08301423490047455,0.06863018870353699,-0.06564802676439285,-0.04303022474050522,-0.08087766915559769,-0.03977518156170845,0.03483530879020691,-0.08728999644517899,-0.07791464030742645,-0.08336900174617767,-0.05235952511429787,-0.04287761077284813,-0.05201779678463936,0.03717055916786194,0.0376298651099205,-0.029477262869477272,0.013432685285806656,-0.07774211466312408,0.015249435789883137,-0.009207811206579208,0.066358782351017,-0.027574827894568443,-0.047070641070604324,-0.04252471402287483,-0.040232621133327484,-0.031364019960165024,-0.07791390269994736,0.006300795823335648,0.016496002674102783,0.0008619030122645199,-0.008356497623026371,-0.04009455814957619,0.04090701416134834,-0.013286856934428215,0.021766064688563347,0.010481130331754684,0.07866449654102325,0.05176341161131859,0.030476965010166168,0.035365186631679535,-0.00044254190288484097,-0.08561120927333832,0.06404420733451843,0.06626026332378387,-0.05500112101435661,-0.08492164313793182,0.04996652156114578,0.02949717827141285,-0.043558988720178604,0.0060199289582669735,-0.05663447827100754,0.04527301713824272,-0.04943563789129257,0.008541048504412174,0.006647790782153606,0.02180100418627262,0.04491933062672615,0.08000849932432175,-0.059767961502075195,-0.07625486701726913,-0.03585724160075188,-0.039225343614816666,0.056525371968746185,0.01179709192365408,-0.06193552911281586,0.00917856115847826,-0.0009415289969183505,0.02463558129966259,0.07512621581554413,0.0724562406539917,0.061906956136226654,0.07264246046543121,0.029962847009301186,0.021171657368540764,0.08258266001939774,0.01747914031147957,0.044546615332365036,-0.06841882318258286,0.061834681779146194,0.05480668693780899,0.003164796158671379,0.02889472059905529,-0.013372531160712242,-0.04894992709159851,0.06147490814328194,-0.058147940784692764,0.06651417165994644,-0.024946056306362152,0.08688629418611526,-0.029852908104658127,-0.059259846806526184,-0.07663019746541977,0.04772661626338959,0.05676328018307686,0.07027062773704529,-0.0029204394668340683,0.04081931710243225,0.007888004183769226,-0.014009644277393818,-0.019053883850574493,0.031215177848935127,0.035524893552064896,-0.03685775399208069,0.07246957719326019,0.04228576272726059,-0.08278264850378036,-0.06655275821685791,-0.025146527215838432,0.07336992025375366,0.006462133955210447,-0.0629485696554184,0.04403321444988251,-0.08098475635051727,-0.001959775807335973,-0.06089717894792557,-0.06640259921550751,0.01928090862929821,0.0033858248498290777,0.05998379364609718,-0.023417821153998375,0.06865425407886505,-0.021943029016256332,0.06234045699238777,-0.06526964902877808,0.048212263733148575,0.07247194647789001,-0.03297792747616768,0.0724378302693367,-0.019055716693401337,-0.04612293839454651,-0.07684522867202759,0.04446803405880928,-0.08805887401103973,-0.0704285278916359,-0.07791009545326233,-0.023628082126379013,-0.04566897451877594,0.03272641450166702,-0.01418372057378292,-0.02105197124183178,-0.0394369438290596,-0.056053485721349716,0.009854059666395187,-0.0580669566988945,-0.029061727225780487,0.02905214950442314,0.026677142828702927,0.003256128402426839,0.0284403245896101,0.07696223258972168,0.04588312283158302,0.07860035449266434,-0.0736759752035141,0.013057146221399307,0.02352447435259819,-0.02623653970658779,-0.07143501192331314,-0.07390496879816055,-0.021825259551405907,0.027901772409677505,-0.011258603073656559,0.04624529182910919,0.047411706298589706,-0.04030366241931915,-0.048348430544137955,-0.07378080487251282,0.010884475894272327,0.07092318683862686,-0.04498141258955002,0.02763737365603447,0.045157596468925476,-0.0004009640251751989,-0.0011116863461211324,0.018949581310153008,-0.022165827453136444,0.027398960664868355,0.02705792896449566,-0.011934417299926281,0.04778022691607475,-0.015169862657785416,0.013175220228731632,-0.08359633386135101,0.05189575254917145,0.02712177112698555,-0.01763753965497017,0.03702003136277199,0.032592590898275375,-0.06309546530246735,0.0562700554728508,0.08247657865285873,0.06202635541558266,-0.052861157804727554,0.02521192841231823,-0.05748831108212471,-0.041863009333610535,-0.08064236491918564,-0.07718446105718613,0.06866050511598587,0.08603205531835556,-0.048111334443092346,-0.0004081184742972255,-0.038524169474840164,-0.018185343593358994,-0.06590700894594193,0.04707304388284683,-0.08643247932195663,0.04136018827557564,0.07516428083181381,0.03881333768367767,-0.020352449268102646,0.06471982598304749,0.03450032323598862,0.030695781111717224,0.0036916108801960945,-1.441422227799194e-05,-0.04774786904454231,0.03027002327144146,-0.05407943204045296,-0.0028128279373049736,0.08018332719802856,-0.03295877203345299,-0.0781456008553505,-0.01720435358583927,-0.08282136917114258,0.06894126534461975,-0.0022994372993707657,0.019549962133169174,-0.019920550286769867,0.08596312254667282,0.062145672738552094,0.07717925310134888,-0.06727045774459839,0.08167867362499237,0.0046367645263671875,0.05505956709384918,0.040364351123571396,0.02889883890748024,-0.0030109602957963943,-0.03631357476115227,-0.06468307971954346,0.0072221048176288605,-0.08705511689186096,-0.046214617788791656,-0.04609300568699837,-0.04569714143872261,0.01879911683499813,0.07658988237380981,-0.07161105424165726,0.01979902945458889,0.05434850603342056,-0.07990016788244247,-0.04219578951597214,0.07522737979888916,-0.021536480635404587,-0.01960008591413498,0.04198405519127846,0.028209127485752106,0.014181571081280708,-0.03381693363189697,-0.07495836168527603,-0.030214590951800346,-0.041037965565919876,0.027791569009423256,-0.021628487855196,0.00933871977031231,0.030856244266033173,-0.054857105016708374,-0.07255621999502182,0.08791237324476242,0.010497420094907284,-0.07131195068359375,-0.02212703227996826,-0.08047887682914734,-0.03804829716682434,-0.0663304328918457,0.02898985520005226,-0.027511565014719963,0.03930916264653206,0.052228741347789764,0.03141733631491661,-0.00033821791294030845,-0.07189872115850449,0.039677537977695465,0.041844602674245834,0.028536934405565262,-0.009356568567454815,0.0022237941157072783,0.07374000549316406,0.013343112543225288,-0.035521723330020905,0.007258319295942783,-0.07343418151140213,0.03146175667643547,-0.02099432423710823,-0.06523758918046951,-0.04287373274564743,-0.022855307906866074,-0.05317959561944008,-0.061923351138830185,-0.003993656020611525,0.06607513129711151,0.05480515956878662,-0.04787410795688629,-0.015306618064641953,0.0017197704873979092,-0.07574310898780823,-0.038615647703409195,-0.014728226698935032,0.027155224233865738,-0.07374104112386703,0.005734615959227085,-0.04257120192050934,-0.026349451392889023,-0.06019148230552673,0.003425980219617486,0.04433256387710571,-0.028480153530836105,-0.07853855192661285,-0.007735453546047211,-0.08081958442926407,-0.043822795152664185,0.08582309633493423,-0.024194229394197464,0.07461868971586227,0.07888863980770111,0.0024336432106792927,-0.005000649951398373,0.011336764320731163,-0.058716606348752975,0.05428123101592064,-0.02106338180601597,-0.022348280996084213,0.06467479467391968,-0.01890556886792183,-0.07010424137115479,-0.06667925417423248,-0.07389560341835022,0.037285756319761276,-0.05603649839758873,0.017394540831446648,-0.07218597084283829,0.08242020756006241,0.08105573058128357,-0.04080880060791969,-0.06349673122167587,0.0015897158300504088,-0.06119951978325844,-0.07535679638385773,-0.05580693483352661,0.005768828559666872,0.032382603734731674,-0.08119907230138779,0.02320958487689495,0.021212181076407433,-0.06557120382785797,-0.012078369967639446,0.03791525214910507,0.08415565639734268,-0.04275823011994362,-0.04585271328687668,0.025382274761795998,0.07310780882835388,-0.06370239704847336,0.0784064307808876,-0.02215086668729782,0.0280566718429327,-0.05963675677776337,0.06085141748189926,0.013886427506804466,-0.037254493683576584,0.038893986493349075,0.01913418434560299,-0.07060066610574722,0.05117902159690857,-0.054598912596702576,0.06492191553115845,-0.08230007439851761,0.01901831291615963,0.0345822349190712,-0.0519423671066761,0.06502693891525269,-0.008043041452765465,-0.026441847905516624,-0.006722243037074804,-0.03255993500351906,-0.08120772242546082,0.04764909669756889,0.03952953964471817,-0.04463638737797737,-0.01862499676644802,-0.0019759812857955694,-0.06886826455593109,-0.03884495794773102,0.0852530226111412,-0.04641801118850708,0.06477338075637817,0.05651271715760231,0.008507773280143738,-0.07517194002866745,-0.004767788574099541,-0.03711231052875519,0.07742540538311005,0.004970967769622803,-0.013827716931700706,-0.04082043468952179,-0.0030858973041176796,0.0005738504114560783,-0.04675033688545227,-0.04862576723098755,0.057541847229003906,0.07765389233827591,-0.04330664500594139,0.05239807814359665,-0.0782887265086174,0.06542110443115234,0.062071021646261215,-0.08621498942375183,0.08627085387706757,-0.0342676006257534,0.06766343116760254,0.013971838168799877,0.0002741020289249718,0.07868174463510513,0.04035244509577751,-0.034969765692949295,-0.0440807119011879,0.02117997035384178,-0.007176733575761318,0.0013363184407353401,-0.08468718081712723,-0.07006936520338058,0.03913139924407005,0.0664052739739418,0.05735309422016144,-0.013813134282827377,0.07591134309768677,-0.004006110597401857,-0.06036162003874779,0.02569788135588169,-0.004326215945184231,-0.07948305457830429,-0.0352400541305542,-0.034213874489068985,0.01916385628283024,-0.007808641530573368,0.04641759768128395,0.008347193710505962,-0.05155730992555618,0.014530199579894543,-0.017189644277095795,0.052576325833797455,-0.03141101449728012,0.010021393187344074,0.021261610090732574,-0.059310466051101685,0.009622768498957157,-0.06878688186407089,-0.051436666399240494,0.024424446746706963,-0.033921606838703156,-0.026974571868777275,-0.03991585597395897,0.06011417508125305,-0.009538895450532436,-0.0808987021446228,-0.021278679370880127,0.08706298470497131,0.07122910022735596,-0.07432175427675247,0.07385602593421936,-0.06298094242811203,0.04263561591506004,-0.041158124804496765,0.06451436877250671,-0.00892464816570282,0.016960060223937035,-0.08271631598472595,0.0433526486158371,-0.03763642907142639,-0.08051855862140656,-0.02052750624716282,-0.020652081817388535,0.02188824862241745,0.02581918053328991,0.05246137082576752,0.08422676473855972,0.017764590680599213,0.0032955147325992584,-0.0771261677145958,-0.051341742277145386,-0.027568453922867775,-0.07070118188858032,-0.007721765898168087,-0.059768158942461014,-0.019224146381020546,-0.08831500262022018,-0.009981542825698853,-0.043075744062662125,-0.056631993502378464,0.002608900424093008,-0.009199898689985275,-0.013482249341905117,-0.0008258147863671184,0.07256301492452621,-0.015196288004517555,0.04634758085012436,0.02259388193488121,-0.0770893469452858,0.0737372413277626,0.00779488030821085,0.000385064136935398,0.05180421844124794,-0.06387126445770264,-0.06029308959841728,-0.016678908839821815,-0.0709877535700798,-0.03553617745637894,-0.053985655307769775,-0.05175499990582466,0.0007379070157185197,-0.023039743304252625,-0.0014236468123272061,-0.06072446331381798,0.012412277981638908,-0.06154969707131386,0.0678153708577156,0.07434418052434921,0.044955652207136154,-0.04404830187559128,-0.020496854558587074,0.026346879079937935,-0.050753507763147354,-0.06987766921520233,0.019949473440647125,-0.040314365178346634,-0.06689626723527908,0.05166012793779373,0.0085694445297122,0.015772752463817596,-0.045802708715200424,0.05420131981372833,-0.021042615175247192,-0.017727596685290337,-0.032566994428634644,-0.04227421432733536,-0.0038077780045568943,0.06885692477226257,0.0858992263674736,-0.03177109360694885,-0.07915180176496506,-0.006024997215718031,0.004313434939831495,0.03500869870185852,-0.03883673995733261,0.08786284923553467,-0.0195833221077919,-0.01981417089700699,-0.0145412627607584,0.05223725736141205,0.05072253197431564,0.06165468320250511,0.054619334638118744,0.04242875799536705,-0.05838846042752266,-0.07665479928255081,0.05587027221918106,-0.08071170002222061,-0.057782601565122604,-0.04655253142118454,0.06854420155286789,0.08330851048231125,-0.051622387021780014,-0.03172961249947548,0.08443484455347061,0.035340867936611176,0.0553685761988163,0.023388613015413284,0.003112534061074257,-0.07953009009361267,0.004075494594871998,-0.0653572678565979,-0.08619704842567444,0.031844936311244965,-0.08572930842638016,-0.05629507079720497,-0.06763844192028046,-0.0053001767955720425,0.0047074235044419765,-0.06732151657342911,-0.013119439594447613,0.08347292989492416,0.044399142265319824,0.016695747151970863,-0.035838477313518524,-0.03435923904180527,0.07478678971529007,-0.07617764919996262,0.08554291725158691,-0.00477308826521039,-0.04676423594355583,-0.026677321642637253,0.051812320947647095,0.020344452932476997,-0.08530750870704651,-0.07856578379869461,-0.06393512338399887,0.011260710656642914,-0.0194704532623291,0.03395465016365051,-0.035540297627449036,0.06030729413032532,-0.003552505047991872,-0.07642968744039536,-0.013510003685951233,-0.0345955453813076,-0.05883112922310829,0.08501207083463669,0.07714442908763885,-0.051748596131801605,0.04950375854969025,0.04236750677227974,0.08471791446208954,0.003292553825303912,0.0017318666214123368,-0.06595878303050995,0.06930241733789444,0.029020708054304123,0.08249632269144058,-0.045913249254226685,-0.003623743774369359,0.07242748141288757,-0.05005466192960739,-0.06555309891700745,-0.07463216036558151,0.07158365100622177,0.04180319234728813,0.05221784859895706,-0.0395672507584095,-0.06334493309259415,-0.009776551276445389,0.02249119058251381,-0.017478087916970253,0.0716291144490242,-0.0073571959510445595,-0.05694273114204407,0.005495158489793539,-0.08628074824810028,0.03921721875667572,-0.041878171265125275,0.064957395195961,-0.07266270369291306,0.07506731897592545,-0.05582141503691673,0.03769562393426895,-0.057904817163944244,0.004140085075050592,0.028549926355481148,0.031908199191093445,0.00855337642133236,-0.03179867938160896,-0.011114808730781078,-0.06969904154539108,-0.04191624000668526,-0.05043031647801399,-0.08388492465019226,0.023126250132918358,0.035263918340206146,-0.07852304726839066,-0.03527529910206795,-0.0221093837171793,0.06705231219530106,0.022890353575348854,0.057075146585702896,0.047977812588214874,0.051838893443346024,0.07050737738609314,-0.06239882856607437,-0.012425428256392479,0.07413985580205917,-0.06670596450567245,-0.04368662089109421,0.003017556155100465,0.050487592816352844,0.03326921537518501,0.04066136106848717,-0.03890305757522583,0.06680075079202652,-0.0814833790063858,-0.088371142745018,-0.018667185679078102,0.08524654060602188,-0.07574966549873352,-0.055205944925546646,0.031407978385686874,0.0466589629650116,-0.0004622560809366405,0.02975574880838394,0.08211401849985123,0.022168979048728943,-0.04981634020805359,-0.05002440884709358,-0.08764078468084335,-0.040576763451099396,-0.0851208046078682,-0.028965337201952934,0.05377045273780823,-0.014266392216086388,0.038515686988830566,0.03370532765984535,0.07554315775632858,-0.06720197200775146,-0.06393787264823914,0.0705256462097168,-0.015241775661706924,0.05056177079677582,0.025650298222899437,-0.08525905013084412,0.06420989334583282,-0.022529924288392067,0.052559491246938705,-0.06795335561037064,-0.05158274620771408,0.05686300992965698,0.07750887423753738,-0.03154582902789116,0.06135275587439537,-0.07192792743444443,-0.027005214244127274,-0.06343799084424973,0.07513754814863205,-0.04638954997062683,0.08793012797832489,-0.01785276271402836,0.050419166684150696,0.009868863970041275,0.047829486429691315,0.04807540401816368,-0.0748835876584053,-0.06760554760694504,0.059311289340257645,-0.026629969477653503,0.08088130503892899,-0.06211254745721817,0.0662037655711174,-0.07936181128025055,-0.062492627650499344,0.015829164534807205,0.05895733833312988,0.04136820510029793,0.028692740947008133,0.015806300565600395,0.024959564208984375,-0.08468746393918991,0.004570793826133013,0.04669937118887901,-0.018749888986349106,0.08287616819143295,0.08217011392116547,-0.053386736661195755,-0.04375261068344116,-0.041431427001953125,-0.07957503944635391,0.02988286316394806,0.00710652768611908,0.06094341352581978,-0.051704708486795425,-0.05256658047437668,-0.01710548810660839,-0.06094367802143097,-0.056636419147253036,-0.029581893235445023,-0.029744895175099373,-0.07360232621431351,0.032876089215278625,0.053842220455408096,0.08256957679986954,-0.01222521997988224,0.0404118113219738,0.07528403401374817,-0.04691499471664429,-0.08364491909742355,0.009397619403898716,-0.010701179504394531,0.004945279099047184,0.01798859052360058,-0.05884002521634102,0.028807612136006355,0.08455412834882736,-0.05041154846549034,-0.0729915201663971,0.011469390243291855,0.031692489981651306,0.05031874403357506,0.0346449613571167,0.04219011217355728,-0.048549965023994446,0.011334267444908619,-0.061499129980802536,-0.02597956918179989,0.06179913133382797,0.041156332939863205,-0.05214172974228859,-0.07849937677383423,-0.047563064843416214,-0.0549037829041481,-0.05064426362514496,0.01953439973294735,-0.0005371826700866222,0.054494958370923996,0.0371452271938324,-0.08090067654848099,-0.039369337260723114,0.07511476427316666,0.00844228733330965,0.014127559959888458,0.017517104744911194,0.06913291662931442,0.007881976664066315,-0.0007842685445211828,-0.03047148697078228,0.040302712470293045,0.0495939739048481,0.03222176060080528,0.010505449958145618,-0.04226457327604294,0.073152557015419,0.019952423870563507,0.048460181802511215,0.0743418037891388,-0.06840036064386368,0.015069468878209591,0.00013348960783332586,0.00674913264811039,0.02396782673895359,-0.062143683433532715,0.07461690902709961,0.0418483205139637,0.011297620832920074,-0.07202450931072235,0.07900033891201019,0.010733021423220634,-0.06459573656320572,-0.03242793306708336,0.0382070429623127,-0.06386358290910721,0.08825026452541351,0.04080206900835037,0.006691655144095421,0.03749168664216995,-0.026815995573997498,-0.017837105318903923,0.04434647038578987,0.000430561660323292,-0.00954617653042078,0.013556523248553276,0.02102060243487358,-0.007138390559703112,-0.05884084478020668,-0.03810036927461624,0.023440906777977943,0.07273901998996735,0.05887454003095627,0.052450161427259445,0.043951429426670074,-0.02719491720199585,0.02439018152654171,0.02965635620057583,0.03596169129014015,-0.08156991004943848,0.06500392407178879,0.04889772832393646,-0.05824064090847969,0.05658574774861336,-0.04303153231739998,-0.00970187783241272,0.03180554881691933,0.049212343990802765,0.024868199601769447,-0.06453777849674225,-0.034715842455625534,-0.0014254169072955847,0.055559925734996796,-0.00584762217476964,-0.033869776874780655,0.028788447380065918,0.05077676102519035,0.0689806267619133,0.037417370826005936,-0.03694107010960579,-0.028113558888435364,0.030740298330783844,0.05097284913063049,-0.003971044439822435,0.08441581577062607,-0.04999154433608055,-0.040898438543081284,-0.03735218197107315,-0.03742992877960205,-0.031202280893921852,-0.06541206687688828,0.03368493169546127,0.010579322464764118,0.01384788379073143,-0.03712916001677513,-0.03764190897345543,-0.07585330307483673,0.0523114874958992,-0.0714251771569252,-0.042731013149023056,-0.06892022490501404,0.024955853819847107,-0.010839516296982765,0.08780487626791,-0.024140754714608192,0.0022696394007653,0.0632505863904953,0.034302372485399246,0.04691489040851593,-0.03459516540169716,-0.016606522724032402,0.048702094703912735,0.019065389409661293,0.018762249499559402,-0.06321851909160614,-0.039156801998615265,-0.05446827784180641,0.012934498488903046,0.08328479528427124,0.0005646729259751737,0.007117833476513624,-0.06835958361625671,-0.07976523786783218,-0.03066527657210827,0.022809704765677452,-0.017842384055256844,-0.03224629908800125,-0.022464491426944733,-0.0656062662601471,0.04282405227422714,0.01718812808394432,0.04523153230547905,-0.03590024262666702,0.028882265090942383,0.07844468206167221,-0.05012792348861694,0.014013194479048252,-0.04189661145210266,0.015026404522359371,-0.005980648100376129,0.08038037270307541,0.060419950634241104,-0.005973620340228081,0.06114890053868294,0.0005122633301652968,-0.04964309558272362,-0.03060583956539631,0.030687477439641953,-0.030559973791241646,0.028836557641625404,0.07029815763235092,0.005296804942190647,0.06578081846237183,-0.060120467096567154,0.0019925131928175688,0.0045484560541808605,-0.020521406084299088,-0.04384724050760269,0.024227546527981758,0.0719846785068512,0.06864041090011597,-0.00958179123699665,0.048037271946668625,0.08401402086019516,0.017797864973545074,-0.016298165544867516,-0.07180207222700119,0.025052929297089577,-0.005271527450531721,-0.05696384608745575,-0.06406482309103012,0.06704157590866089,-0.0018824783619493246,-0.008671577088534832,0.022268475964665413,-0.04091471806168556,-0.019691670313477516,-0.004328681621700525,0.007435483857989311,-0.028204534202814102,-0.0567670613527298,0.00033153765252791345,-0.05792412906885147,-0.04814295470714569,-0.033603619784116745,-0.0604405403137207,-0.07746407389640808,-0.04230786859989166,-0.017039623111486435,0.07779937982559204,-0.08000119030475616,0.019410835579037666,0.07551518082618713,-0.03958604857325554,0.05808871239423752,0.013519002124667168,-0.03877647966146469,-0.0648939236998558,-0.031874366104602814,0.042996421456336975,0.07523003965616226,-0.08514247834682465,0.00030093902023509145,-0.038936879485845566,-0.08728087693452835,0.06822310388088226,0.051490962505340576,0.0551745742559433,0.08596869558095932,0.04135814309120178,0.08509468287229538,0.022256284952163696,-0.05779482424259186,0.01958192139863968,-0.0017596414545550942,-0.011942045763134956,0.04000629484653473,-0.037404537200927734,0.02404690533876419,0.07559242844581604,0.035525038838386536,0.053010810166597366,0.040410153567790985,-0.08555914461612701,-0.018572166562080383,-0.04309000074863434,-0.053360745310783386,-0.0054804179817438126,-0.06686850637197495,0.06950977444648743,0.0709187388420105,-0.04832686111330986,-0.045396897941827774,-0.03108946420252323,-0.034778010100126266,0.03445497527718544,-0.0030493137892335653,-0.0418856106698513,-0.08806359767913818,-0.0054157329723238945,-0.07557297497987747,-0.025674479082226753,0.04264461249113083,0.05444592982530594,-0.059835035353899,-0.053888801485300064,-0.06968589127063751,0.08433088660240173,0.0008551595383323729,-0.04002687335014343,0.00701112812384963,0.07816071063280106,-0.0818960890173912,-0.013137510046362877,-0.011892902664840221,0.005181607324630022,-0.04068368673324585,-0.04925530403852463,0.07592330873012543,0.05121477320790291,0.08332975208759308,0.02678261511027813,-0.07246153801679611,-0.07845089584589005,-0.023389024659991264,-0.004310537129640579,-0.05275243893265724,-0.002492964966222644,0.03375572711229324,-1.9240036635892466e-05,0.003266486106440425,-0.059687595814466476,-0.001135604688897729,-0.06719014793634415,-0.07401882857084274,0.06576935201883316,-0.08213864266872406,-0.0345764197409153,-0.04092946648597717,-0.04142935946583748,0.020072447136044502,0.08547121286392212,-0.04123913124203682,0.020797140896320343,-0.04208746179938316,0.05675528198480606,0.03211470693349838,0.022320423275232315,0.038345105946063995,0.03114994429051876,0.0726136565208435,-0.07822352647781372,0.06167985871434212,-0.029376331716775894,0.03289087489247322,-0.05388105660676956,0.01035138126462698,0.050300195813179016,-0.0026137155946344137,0.07593666017055511,-0.06357323378324509,0.030669301748275757,0.07100804150104523,0.008358131162822247,0.03171887621283531,0.01745023764669895,0.047849517315626144,-0.012364199385046959,-0.08295837044715881,-0.02789493277668953,-0.04286744445562363,-0.08388638496398926,0.04552949219942093,-0.050690025091171265,0.05388573557138443,-0.042987436056137085,-0.07270661741495132,0.037672948092222214,-0.004178428091108799,-0.027799302712082863,-0.04042560234665871,-0.05480731651186943,-0.06315651535987854,0.05847509577870369,-0.0802302360534668,-0.04642949253320694,0.057833850383758545,-0.041525814682245255,-0.03045506961643696,0.040070418268442154,-0.036909207701683044,-0.07335899025201797,-0.016300030052661896,0.03923521563410759,-0.041340187191963196,-0.021608687937259674,0.02951999008655548,-0.009423034265637398,0.079119972884655,0.04657755792140961,-0.057360436767339706,0.06892873346805573,-0.004318260587751865,0.03419624641537666,0.06673775613307953,0.017806580290198326,0.01984819397330284,0.053020112216472626,-0.026187922805547714,0.0624416284263134,-0.07878008484840393,-0.009942831471562386,-0.05325496569275856,-0.07041960954666138,-0.04379856213927269,0.009180626831948757,-0.05524275824427605,0.0046626427210867405,-0.041952792555093765,0.07338542491197586,0.003085381118580699,0.015111509710550308,0.03320254758000374,-0.0735134407877922,0.039192795753479004,-0.012257009744644165,-0.08505751937627792,-0.061300408095121384,0.0009239853243343532,-0.030471907928586006,-0.07741148769855499,-0.04477899149060249,-0.02088286727666855,-0.08592181652784348,-0.0469042994081974,-0.03796151652932167,-0.008309556171298027,-0.05543016269803047,0.04911740869283676,0.05441157892346382,0.00482182065024972,-0.034639883786439896,0.04956386983394623,-0.024527769535779953,0.054841574281454086,0.029590480029582977,-0.03224964067339897,-0.03580666705965996,0.044247403740882874,-0.06693847477436066,-0.0057204230688512325,0.032709136605262756,0.012150810100138187,-0.07315828651189804,-0.004532861988991499,-0.013504366390407085,-0.059395402669906616,0.04540863633155823,-0.08509261906147003,0.033658262342214584,0.020311862230300903,0.07727192342281342,-0.013754560612142086,-0.002664323430508375,0.07417190819978714,-0.026499999687075615,0.008326878771185875,0.07319223880767822,-0.019269337877631187,-0.020278945565223694,0.03337845951318741,0.012808100320398808,-0.022795945405960083,-0.03300725296139717,-0.038151126354932785,0.011885042302310467,0.05466105788946152,-0.028022943064570427,0.020836684852838516,0.05783699080348015,0.03888615593314171,-0.021511539816856384,0.04755515232682228,-0.03592890128493309,-0.012227285653352737,0.0033982056193053722,-0.05542340129613876,0.03693028911948204,0.026191063225269318,0.08173250406980515,0.03406422957777977,0.08034060895442963,0.013905130326747894,-0.07536821812391281,-0.052107054740190506,-0.02588283270597458,0.07246237248182297,0.0009511173702776432,0.08685991168022156,-0.0483892597258091,0.08689913153648376,0.07482347637414932,-0.0533076710999012,0.06148959696292877,0.004611813463270664,-0.01786014810204506,-0.026184920221567154,-0.0864662304520607,-0.07953258603811264,0.006861485540866852,-0.05809552222490311,-0.03253687173128128,-0.041544727981090546,-0.08599650114774704,-0.023315446451306343,0.037842441350221634,0.009540149942040443,-0.01774895377457142,-0.05748080834746361,0.050370972603559494,-0.013060085475444794,0.06262265890836716,0.07345379889011383,-0.012425248511135578,0.011276052333414555,-0.0008738200413063169,-0.0421295166015625,-0.05939237028360367,-0.030601151287555695,0.05288316681981087,0.006145157851278782,-0.04848514497280121,-0.06383656710386276,-0.016972482204437256,-0.003489590482786298,-0.03237615525722504,0.013400716707110405,-0.04213220253586769,-0.06597191095352173,0.013933779671788216,-0.024108534678816795,0.06705623865127563,-0.002713698660954833,0.03026791661977768,0.044838957488536835,-0.018086962401866913,-0.0600462444126606,-0.01690313033759594,0.03294014185667038,0.07014330476522446,0.006309867836534977,-0.08709597587585449,-0.04128202423453331,0.011461456306278706,-0.07353609055280685,-0.008922667242586613,0.07311829924583435,0.07871034741401672,-0.005861657205969095,-0.037251029163599014,0.040405403822660446,0.08230868726968765,0.07373961806297302,-0.03588169813156128,0.025928087532520294,0.032150037586688995,0.0005106617463752627,0.05039496347308159,0.02811140939593315,0.015570552088320255,-0.03493678569793701,0.06332650035619736,-0.014391873963177204,-0.08185058832168579,-0.03221209719777107,0.043019529432058334,0.0828450471162796,-0.07455925643444061,0.001991775818169117,0.053703609853982925,0.05353473499417305,-0.03348985314369202,0.010787991806864738,0.08459130674600601,0.02304871939122677,-0.07682862132787704,0.04690641909837723,-0.04171290248632431,0.020649785175919533,0.0643555074930191,-0.010069314390420914,-0.04646606743335724,0.06343124061822891,-0.010403212159872055,-0.06484392285346985,0.049469199031591415,0.031568072736263275,-0.02067704312503338,-0.04388775676488876,-0.029679041355848312,0.006467096507549286,-0.05275128036737442,0.0803193673491478,0.0004388962115626782,0.06400171667337418,-0.023113353177905083,0.044253408908843994,0.02300095744431019,-0.05549214035272598,0.036868419498205185,0.004021820612251759,-0.030239710584282875,0.01290577556937933,0.021239493042230606,-0.05000631883740425,0.06429211795330048,0.07641858607530594,-0.03206295147538185,-0.046332210302352905
