0.07593408972024918,-0.705268144607544,1.7041436433792114,0.5981901288032532,-1.314352035522461,1.3833560943603516,0.8293250799179077,0.978254497051239,0.5109670758247375,1.2846136093139648,-0.18402878940105438,0.7153272032737732,-0.2802852988243103,0.33489346504211426,1.117161512374878,-0.6168854832649231,0.803902268409729,-1.1824839115142822,-0.1096959114074707,-1.2664496898651123,0.7764975428581238,-0.7084006667137146,0.8486911654472351,0.7915973663330078,-0.8375225067138672,1.5044564008712769,-0.08919838070869446,-0.34976962208747864,-0.08017954230308533,-0.13998360931873322,0.9823453426361084,1.0015878677368164,1.0429091453552246,0.04148770868778229,0.04003031551837921,0.16581009328365326,0.8238503336906433,0.7745778560638428,0.998090386390686,0.846882700920105,1.0633459091186523,0.47996023297309875,-0.47912195324897766,-0.5087471008300781,0.09177028387784958,-0.8086248636245728,-0.047081902623176575,-0.29337942600250244,0.6211906671524048,0.6643544435501099,-0.3095804750919342,0.9371711611747742,0.9623717665672302,0.2642756402492523,1.3567867279052734,0.8408193588256836,0.6425158977508545,-1.1572157144546509,1.9207191467285156,0.119974784553051,1.5232517719268799,-1.9720509052276611,1.682176947593689,1.2676650285720825,-0.19542910158634186,0.6781500577926636,0.6589356064796448,-0.7768136262893677,-0.2932845652103424,0.7627876400947571,0.6157341599464417,-0.5928049683570862,0.568781852722168,0.7096025943756104,-0.8068671822547913,0.990071177482605,-0.5310166478157043,-0.6075214743614197,0.8503905534744263,0.1193857491016388,-0.5610801577568054,0.3848268985748291,-0.21027632057666779,-1.51845383644104,0.5289655327796936,-0.39458537101745605,0.6409405469894409,0.4458385109901428,-1.1074539422988892,-0.6088423728942871,-0.6516885757446289,0.2574478089809418,0.8817251324653625,0.06871163845062256,1.2157232761383057,0.8619298934936523,0.1971290409564972,0.5950819253921509,0.8393736481666565,1.3503339290618896,-0.44539934396743774,-0.6938483715057373,-1.0697870254516602,0.5035708546638489,-0.1040613055229187,-0.4047193229198456,1.676890254020691,0.16242113709449768,-0.3224864602088928,-1.8481377363204956,0.3174048960208893,0.10979583859443665,0.1023918017745018,-1.3610388040542603,0.6258063316345215,-0.7331010699272156,0.5415131449699402,0.36755695939064026,-0.5600903034210205,0.4014512300491333,0.6738860011100769,-0.15481363236904144,0.9954026341438293,0.9631468653678894,1.3979504108428955,0.1767043024301529,-0.5247964262962341,0.5635484457015991
