-0.07040617614984512,0.03479129076004028,0.002941087819635868,-0.06193506717681885,0.01798209734261036,-0.002848361385986209,-0.038020700216293335,0.05606420338153839,0.03323976695537567,-0.07650952786207199,-0.09657218307256699,-0.08474976569414139,-0.08978424221277237,-0.061540860682725906,-0.005175272934138775,-0.04417608678340912,0.00981580838561058,-0.0796927809715271,-0.05861706659197807,0.07716075330972672,0.05278850719332695,-0.009282324463129044,-0.09327243268489838,-0.04992692545056343,-0.08861758559942245,0.03925550356507301,-0.06324306130409241,0.09530720859766006,0.1086481437087059,0.026922114193439484,0.04561436176300049,-0.05946531146764755,-0.06734701246023178,0.04269682615995407,0.0684640109539032,-0.016735361889004707,0.04282333701848984,0.06261371076107025,0.04401743412017822,0.04583543539047241,-0.05459251627326012,0.015518485568463802,0.05095090717077255,0.0042340694926679134,-0.08479049056768417,-0.03865028917789459,0.029142118990421295,-0.011357437819242477,-0.0671621710062027,-0.035826120525598526,0.09168988466262817,-0.017195209860801697,0.05550722777843475,0.007471088785678148,0.004743674304336309,0.03964333236217499,-0.007649620063602924,-0.09519050270318985,0.02471666783094406,0.07600845396518707,0.045554958283901215,0.008852976374328136,-0.02414894662797451,0.012419038452208042,0.03377769887447357,0.038236748427152634,0.040437858551740646,0.0611158050596714,-0.04009319841861725,-0.0038037130143493414,0.02207670360803604,-0.031175503507256508,0.05231713876128197,0.0349728986620903,0.01342408824712038,0.041214942932128906,0.002289379248395562,-0.051970720291137695,-0.06411272287368774,0.0035197315737605095,-0.09160619974136353,-0.05335593596100807,0.030237281695008278,0.004503288306295872,-0.017419660463929176,-0.01508998405188322,0.01879182457923889,-0.046460092067718506,-0.031770672649145126,-0.05216631293296814,-0.017018422484397888,0.05610194057226181,-0.03550787270069122,0.01321519073098898,0.014897141605615616,-0.020550696179270744,0.08119098097085953,-0.050274692475795746,-0.045585110783576965,0.06631804257631302,0.0817742645740509,-0.010446355678141117,0.06387272477149963,0.1001741886138916,-0.03862238675355911,0.04076099395751953,-0.0016538636991754174,-0.004468520171940327,0.00915729720145464,0.004346824716776609,0.022912798449397087,-0.03285476192831993,0.06723931431770325,0.06786464899778366,-0.04738868772983551,0.060444749891757965,-0.024920791387557983,-0.010242704302072525,-0.015835942700505257,0.018470866605639458,0.031139498576521873,0.05178903415799141,0.0660686269402504,-0.02963748574256897,0.00778090488165617,-0.02504151687026024,-0.05748944729566574,-0.08802957832813263,0.07132567465305328,-0.04487374424934387,0.012899655848741531,-0.09847187995910645,0.03817889839410782,0.02983301877975464,0.05035553127527237,-0.06877560168504715,-0.020319512113928795,0.08812640607357025,-0.002501706825569272,-0.026364421471953392,-0.0039284913800656796,0.01270911656320095,0.03486040234565735,0.04006889835000038,-0.00032878678757697344,-0.07781046628952026,-0.013115467503666878,-0.10985946655273438,-0.06245914846658707,0.04807456582784653,-0.021041911095380783,0.007164620328694582,-0.018041759729385376,0.07063696533441544,0.05157919228076935,-0.058374255895614624,0.010690978728234768,-0.011320885270833969,0.03176264464855194,0.052067454904317856,0.05647379159927368,0.026670152321457863,-0.07051068544387817,0.013471818529069424,-0.012749419547617435,0.0057495408691465855,-0.06457602232694626,-0.04413226991891861,0.031102748587727547,0.05349999666213989,-0.053867317736148834,-0.0046836454421281815,-0.03548595681786537,-0.02078908495604992,0.01868138462305069,-0.0001822194899432361,-0.02021278440952301,-0.019490676000714302,0.03911146521568298,-0.036153726279735565,0.03325113281607628,-0.016880465671420097,-0.0009549296810291708,-0.030654478818178177,-0.013746143318712711,0.041070565581321716,-0.050467513501644135,-0.0209495909512043,0.04758353903889656,0.05691277235746384,-0.02070668525993824,-0.04797179996967316,0.03674617037177086,0.0028617882635444403,0.06552554666996002,-0.04766174778342247,0.030889034271240234,-0.017008721828460693,-0.00797627680003643,-0.006446860730648041,-0.053314123302698135,-0.06078106537461281,0.012766808271408081,-0.0011025918647646904,-0.03273532912135124,0.042327605187892914,0.04029785469174385,-0.053080614656209946,-0.05531621351838112,0.027475938200950623,0.018024589866399765,0.019927337765693665,-0.024045022204518318,0.0018194904550909996,0.029611248522996902,0.07793568074703217,-0.07838738709688187,0.010083870030939579,0.02274494618177414,-0.011083795689046383,-0.09828170388936996,0.048631444573402405,0.03213300183415413,-0.02724694460630417,0.026243148371577263,0.023836297914385796,-0.0046570138074457645,0.011010558344423771,0.07315047830343246,-0.01007909793406725,0.08605790883302689,-0.08932415395975113,-0.08347612619400024,-0.01676650159060955,0.04109513759613037,0.002834679326042533,-0.049361612647771835,-0.07075192034244537,0.0482371561229229,0.024569541215896606,0.06274291127920151,0.05481114983558655,-0.05334198847413063,-0.03475933149456978,0.1229194775223732,0.029817499220371246,0.06722716242074966,-0.02560560405254364,-0.05437525361776352,-0.03295915201306343,-0.053503092378377914,-0.01172184944152832,-0.12468907237052917,0.021460194140672684,0.013207772746682167,-0.0063640046864748,0.08064008504152298,0.08459591120481491,0.08607564866542816,0.05614723265171051,0.06686270982027054,0.10882958769798279,-0.016088495030999184,0.02689662203192711,-0.02613505721092224,-0.0501856692135334,-0.05575857684016228,0.02650628238916397,0.01936112344264984,0.005764400120824575,0.000860246189404279,-0.032076139003038406,-0.026594825088977814,-0.06099753454327583,0.0016609815647825599,-0.11300095170736313,-0.10377098619937897,-0.03833157196640968,-0.05343036726117134,0.08752409368753433,-0.03488564118742943,-0.03840608522295952,-0.009322433732450008,0.01682167872786522,-0.05428028479218483,0.010096290148794651,0.072431281208992,0.011484749615192413,-0.02478930540382862,0.06505857408046722,-0.06577607244253159,-0.017560793086886406,-0.010973784141242504,0.024466589093208313,-0.10403428226709366,0.09611590206623077,0.059309493750333786,0.006720973178744316,-0.0413229838013649,0.00963288452476263,0.041005440056324005,0.009662185795605183,0.04924442246556282,-0.07782591879367828,0.13322265446186066,0.04028518497943878,-0.008815696462988853,0.0028251155745238066,0.01653197780251503,0.044394079595804214,-0.014207064174115658,-0.033123333007097244,-0.005334931891411543,0.012768976390361786,0.05082118138670921,0.04310746490955353,-0.06184297055006027,0.015639349818229675,-0.07406412065029144,0.020758267492055893,-0.08741369098424911,0.020542357116937637,-0.13725584745407104,-0.04094258323311806,-0.08033636212348938,0.06565000116825104,0.08165870606899261,-0.02425331436097622,0.028993811458349228,-0.04428320378065109,0.009989047423005104,-0.07343874126672745,-0.013329021632671356,0.03620951995253563,0.06145143136382103,0.06973689794540405,0.07417922466993332,0.041059307754039764,-0.02781001850962639,0.04476853087544441,0.09292276203632355,0.13779154419898987,-0.0016580187948420644,0.07318218797445297,-0.02149844355881214,-0.042389873415231705,-0.005689565557986498,0.08499708026647568,-0.05546446144580841,-0.030547406524419785,-0.031304892152547836,0.054323963820934296,0.012344717048108578,-0.022699184715747833,0.05759909376502037,-0.05374264717102051,-0.01192769780755043,0.025490161031484604,0.09645016491413116,0.08042062073945999,-0.03088914044201374,0.07073435187339783,-0.014619223773479462,0.08068907260894775,0.08480771631002426,0.03679092228412628,0.028651855885982513,-0.003096319269388914,-0.06838664412498474,-0.042726147919893265,-0.035094887018203735,-0.07644760608673096,-0.007318353280425072,0.022578038275241852,0.06582127511501312,0.0909467339515686,-0.021533837541937828,0.02373877353966236,-0.0018636065069586039,-0.04778014123439789,0.07374344766139984,-0.035459939390420914,0.03572569042444229,-0.03557593375444412,-0.03915546089410782,0.01611481048166752,0.0034538721665740013,-0.04689180850982666,-0.03501533344388008,-0.08046283572912216,0.007864934392273426,0.05461883172392845,0.051944538950920105,-0.12225648015737534,0.09143314510583878,-0.06815246492624283,0.10630767047405243,0.06618671119213104,0.05649029091000557,-0.003718161955475807,-0.030212964862585068,0.051840465515851974,-0.042017124593257904,0.04070613905787468,-0.04046241194009781,-0.021316124126315117,0.013425908051431179,0.04593128710985184,0.0061382027342915535,-0.04613979533314705,0.00674193911254406,-0.03391515836119652,0.0365305170416832,0.013673817738890648,-0.018003566190600395,0.09719207882881165,-0.060983676463365555,-0.05475582182407379,0.084879569709301,-0.09742959588766098,-0.018906189128756523,-0.026743119582533836,0.09082328528165817,0.044445399194955826,0.041244786232709885,-0.051742248237133026,0.013768315315246582,-0.015332451090216637,0.00991378165781498,0.047635093331336975,0.07958557456731796,-0.023623071610927582,0.11072515696287155,0.05668441578745842,0.03764210268855095,-0.002738355193287134,0.01405268907546997,-0.0680222138762474,0.013518380001187325,-0.0012445510365068913,0.006948203779757023,-0.020728852599859238,-0.06087838113307953,0.01886915974318981,-0.06866283714771271,-0.01529022678732872,0.02381071075797081,0.04850098863244057,0.0017567654140293598,0.014886592514812946,0.10145831108093262,-0.03253888338804245,-0.030009306967258453,-0.03360162675380707,0.0034337788820266724,0.047942761331796646,-0.02013295702636242,0.08711244910955429,0.039845578372478485,-0.038366470485925674,0.051825281232595444,-0.020520558580756187,-0.009517929516732693,-0.012053987011313438,0.03348955512046814,0.1044820100069046,0.016101086512207985,-0.05206885561347008,0.07642769068479538,0.03579604625701904,0.0948755070567131,0.09382575750350952,0.018813787028193474,0.048892270773649216,-0.030337819829583168,0.0929371789097786,0.08314383029937744,0.001144219422712922,-0.03976454585790634,0.06712435185909271,-0.017369871959090233,-0.07169187068939209,0.014910513535141945,0.004450274631381035,-0.04824981838464737,-0.04013362526893616,-0.06910573691129684,-0.018780626356601715,0.06460181623697281,0.03697360306978226,0.061405621469020844,-0.021913539618253708,0.006496323738247156,0.0016111648874357343,-0.03553405776619911,0.048449039459228516,-0.02995746023952961,0.0970325917005539,0.03589426353573799,0.045102234929800034,-0.04366669803857803,0.0007050198619253933,-0.059918779879808426,0.05555242300033569,-0.10799634456634521,-0.0539848618209362,0.021992910653352737,0.022015344351530075,0.08220963180065155,-0.03606157377362251,-0.002873476594686508,-0.010742583312094212,0.020790139213204384,-0.06774414330720901,-0.03254945948719978,-0.04187358543276787,0.0038281348533928394,0.03804820403456688,-0.01162625104188919,-0.0037027569487690926,0.04748845845460892,0.0494108609855175,-0.037384774535894394,0.016190817579627037,-0.08833488821983337,0.06301269680261612,0.028997408226132393,-0.018056320026516914,-0.0618518702685833,0.002984316786751151,-0.052199505269527435,0.021398263052105904,-0.014176473021507263,-0.05044528841972351,0.027257433161139488,0.03290775790810585,0.016864953562617302,-0.028541209176182747,0.02771666832268238,-0.0663784071803093,-0.004533742088824511,0.008124133571982384,-0.034155406057834625,-0.011056634597480297,-0.027839288115501404,-0.07791051268577576,-0.08134298771619797,-0.12773878872394562,0.03838885575532913,0.031387291848659515,-0.0019070047419518232,0.026332596316933632,0.05504884198307991,0.017478466033935547,-0.0681370422244072,0.02981320396065712,0.03812281787395477,-0.06764469295740128,-0.01648416928946972,-0.06946514546871185,0.029858196154236794,-0.10732641816139221,0.02024226263165474,-0.06663192063570023,-0.0831763967871666,-0.003956749103963375,-0.00044704953324981034,0.04314655438065529,-0.01769750565290451,0.016254721209406853,-0.04098643735051155,-0.007720571011304855,0.005253579933196306,-0.07197047024965286,-0.07673939317464828,-0.028882650658488274,0.006485172547399998,-0.046686090528964996,-0.02547312341630459,0.06410853564739227,-0.005124360788613558,-0.07862509787082672,-0.10176127403974533,-0.002586211310699582,-0.013149441219866276,-0.04942859336733818,0.01671242155134678,0.0264300350099802,-0.10032110661268234,0.026694366708397865,0.004474489018321037,0.015543261542916298,0.01114413607865572,0.06719296425580978,-0.022505290806293488,0.023165395483374596,-0.06798931956291199,-0.05416601151227951,-0.10105270892381668,0.00030334098846651614,0.004751407541334629,0.02431623823940754,-0.0637146458029747,-0.05389377474784851,-0.09571544826030731,-0.050989020615816116,0.007528206333518028,0.014148537069559097,0.06539382040500641,-0.010643492452800274,0.042483121156692505,-0.09189050644636154,-0.07524062693119049,-0.04338427260518074,0.031158283352851868,-0.05763556435704231,0.00038369547110050917,0.030499249696731567,-0.047708623111248016,-0.014081922359764576,-0.09928927570581436,-0.08784610778093338,-0.011401038616895676,-0.03430090472102165,-0.059725258499383926,-0.04956082999706268,-0.07134698331356049,0.055162373930215836,-0.1205206885933876,0.007118663284927607,-0.01706576533615589,0.010269098915159702,-0.04483003914356232,0.01725435070693493,0.013043118640780449,-0.04668322950601578,-0.06040627881884575,-0.05845161899924278,-0.05972915142774582,0.026240618899464607,-0.029466908425092697,-0.03590521961450577,-0.007710592821240425,0.03323669359087944,0.024570588022470474,-0.016962332651019096,-0.0052231489680707455,0.005036457441747189,-0.002163751982152462,-0.01833733357489109,-0.031883347779512405,0.0017151153879240155,-0.029421741142868996,0.021490992978215218,-0.04043276980519295,-0.06884820759296417,0.024077454581856728,-0.08430321514606476,-0.049186017364263535,-0.07338900119066238,0.00108235829975456,-0.05449467897415161,-0.026546286419034004,-0.05350903421640396,0.017438549548387527,0.031183697283267975,-0.0813085064291954,0.04935399442911148,0.017375346273183823,-0.07883968204259872,-0.11092226952314377,-0.024370472878217697,0.03586045280098915,-0.001193078001961112,-0.0971655324101448,0.015059283003211021,0.0187442097812891,-0.041433949023485184,-0.007254801690578461,-0.003458618652075529,0.03900846093893051,-0.023074986413121223,0.012229423969984055,-0.028608402237296104,0.01137865986675024,-0.004500512033700943,-0.006387044209986925,-0.030614404007792473,-0.04157814756035805,-0.07845229655504227,-0.09106206893920898,-0.049728356301784515,0.009962497279047966,-0.12771371006965637,-0.05596122890710831,-0.042095329612493515,-0.052526094019412994,-0.012217994779348373,-0.08052173256874084,-0.07149015367031097,0.02651124820113182,0.027330126613378525,-0.057825200259685516,-0.08334983885288239,0.0021001165732741356,-0.0119572589173913,-0.02020624466240406,-0.01794605702161789,0.04613172635436058,-0.00551672512665391,0.06746342033147812,-0.04817814752459526,0.05283296853303909,0.011868472211062908,0.03396099805831909,0.05833963304758072,-0.018220359459519386,-0.042535651475191116,-0.002461423398926854,0.07028336077928543,-0.02658344805240631,-0.0701291561126709,0.03203972801566124,-0.04027888551354408,-0.05187050253152847,-0.009122202172875404,-0.012691207230091095,-0.0008684172644279897,-0.04813056439161301,-0.035969078540802,-0.0023915746714919806,-0.049438443034887314,0.0058085378259420395,0.03246088698506355,-0.013223045505583286,-0.054379504173994064,-0.040307920426130295,-0.05376946181058884,-0.04590775817632675,-0.0004737196722999215,-0.05942521616816521,-0.011150265112519264,-0.022202491760253906,-0.003230680711567402,0.020828746259212494,0.0422942116856575,-0.016950400546193123,-0.07769013196229935,-0.05021924898028374,-0.06975686550140381,0.018073933199048042,0.02042982168495655,-0.025494134053587914,-0.008541889488697052,0.06259050965309143,0.04768174886703491,-0.05779651179909706,0.0058641270734369755,-0.06468938291072845,0.03120923414826393,-0.016484463587403297,0.00032157020177692175,0.08896836638450623,-0.08108548820018768,-0.009605851955711842,-0.06826643645763397,0.0368189737200737,-0.006240431219339371,-0.0038305032067000866,0.0477016419172287,-0.012239850126206875,-0.10368962585926056,0.05595480278134346,-0.056159019470214844,0.01563856564462185,0.06760864704847336,-0.09005781263113022,-0.01565350592136383,0.031543392688035965,0.07427312433719635,0.022071102634072304,0.03192339465022087,-0.03732357546687126,0.057069242000579834,0.066872239112854,-0.01341472938656807,0.051943339407444,-0.0796472504734993,-0.10277380049228668,0.0036604306660592556,0.04737592115998268,-0.007788136601448059,-0.06061726063489914,-0.041512344032526016,-0.019809210672974586,-0.0852031409740448,-4.6489312808262184e-05,0.048312943428754807,0.0032998581882566214,-0.022810179740190506,0.009373679757118225,0.05149901658296585,0.06002280116081238,0.012467368505895138,-0.07881000638008118,-0.036899954080581665,-0.023839345201849937,0.06283670663833618,-0.00011538541002664715,-0.10807832330465317,0.061798322945833206,-0.04765870049595833,0.005642870906740427,-0.06309064477682114,-0.05414639413356781,-0.061838481575250626,-0.08446244895458221,0.0449523851275444,-0.04955040290951729,-0.019971946254372597,0.013722932897508144,0.002998660784214735,-0.020542941987514496,-0.06576235592365265,0.006614527199417353,-0.059764355421066284,0.028590090572834015,0.02330293133854866,0.017568130046129227,0.0013452658895403147,0.0407988578081131,-0.002372440416365862,0.05316901579499245,0.06642498821020126,0.01292690634727478,0.0038203068543225527,-0.10470108687877655,0.0017473774496465921,0.1438588798046112,-0.0014909852761775255,0.025197193026542664,0.03207063674926758,0.058942656964063644,-0.10069911181926727,0.0006932147080078721,0.07690669596195221,-0.05896901339292526,0.03007608652114868,-0.032524820417165756,-0.011518311686813831,-0.0737224742770195,-0.03674861788749695,-0.054789427667856216,-0.09003470093011856,-0.02259186841547489,0.024873821064829826,-0.1089092344045639,-0.11677797883749008,-0.07222259044647217,0.10483291000127792,-0.029865549877285957,-0.007327748462557793,-0.04677794128656387,-0.02551252394914627,0.0034255594946444035,0.010435801930725574,0.08639907836914062,0.07950606197118759,-0.09384281933307648,-0.09326998144388199,-0.047662410885095596,0.058127742260694504,0.053417861461639404,-0.06715618073940277,-0.04884714260697365,0.04563450440764427,0.0300996582955122,0.005152801517397165,0.0019229926401749253,-0.10776147991418839,0.027427028864622116,-0.033797573298215866,0.049442194402217865,-0.10313820838928223,-0.02796049788594246,0.03626137599349022,-0.055619336664676666,-0.005424996837973595,0.04294094443321228,0.08354620635509491,-0.026148812845349312,-0.03397287428379059,0.010127561166882515,-0.029518263414502144,0.08193742483854294,-0.08259399980306625,-0.05160440877079964,-0.06836961209774017,-0.014960749074816704,0.003149587195366621,-0.07239015400409698,0.014842797070741653,0.01936849020421505,0.04137367382645607,-0.04561955854296684,0.0065451571717858315,-0.015956202521920204,-0.055379364639520645,0.04066065698862076,0.04576553404331207,-0.06770715862512589,0.057244185358285904,0.002856228733435273,-0.0804462805390358,-0.02979600988328457,-0.043234895914793015,-0.043927475810050964,-0.04145292565226555,-0.009923904202878475,-0.060705214738845825,0.0022072235587984324,0.02698551118373871,-0.033370666205883026,0.00642956281080842,-0.12832948565483093,0.0030491084326058626,0.04070155322551727,-0.03361734747886658,0.006376528646796942,0.023676635697484016,0.019363343715667725,0.08022855222225189,0.0659015104174614,0.05983417108654976,0.0010014766594395041,-0.0060306875966489315,0.05859013646841049,0.08616656810045242,0.046716514974832535,-0.09027790278196335,-0.053370971232652664,0.0052190436981618404,-0.017886321991682053,0.09180688858032227,-0.04348716139793396,0.025214936584234238,0.1078653633594513,-0.12901625037193298,-0.10218017548322678,0.0031648471485823393,0.04251706227660179,0.023173054680228233,-0.03163697198033333,-0.0018063599709421396,0.117001973092556,-0.018097974359989166,-0.08414963632822037,0.021902499720454216,0.021999750286340714,-0.051065292209386826,-0.04189908504486084,-0.004638106562197208,0.057387832552194595,0.1000695675611496,-0.0424676388502121,0.014533966779708862,-0.00010298884444637224,0.003799197031185031,-0.05466518551111221,-0.05673045665025711,-0.10020378232002258,0.03337346017360687,-0.037571463733911514,0.0354888029396534,0.005777847487479448,-0.0999550074338913,-0.03209727257490158,-0.008009131997823715,-0.015806082636117935,-0.08574209362268448,0.011913721449673176,0.01866677589714527,0.0262103620916605,0.0836944505572319,0.04895510524511337,-0.00102092360612005,0.048620279878377914,0.05296541377902031,-0.09783628582954407,-0.08852313458919525,0.02008652128279209,-0.03819843754172325,-0.08073344081640244,0.07181455194950104,0.05678505823016167,0.046763934195041656,-0.029936108738183975,0.049332354217767715,-0.049770403653383255,0.011323259212076664,-0.08356872200965881,0.011044642888009548,0.007269884459674358,0.0726863443851471,0.006501759868115187,-0.03513917326927185,-0.03452382609248161,0.04964609071612358,-0.02440766990184784,-0.014519029296934605,-0.12874171137809753,0.04141584038734436,0.01113526988774538,0.025178486481308937,-0.012416010722517967,-0.08368845283985138,0.04744853079319,0.06234036758542061,-0.0528804287314415,-0.025958070531487465,0.03883933275938034,0.02982378751039505,-0.059689972549676895,0.027330154553055763,-0.05295310541987419,0.0244824830442667,-0.021593792364001274,0.02686953730881214,-0.028778962790966034,0.03428563103079796,-0.052020829170942307,0.08039625734090805,-0.025618823245167732,-0.017337145283818245,0.02868521586060524,0.06285393983125687,0.002461404073983431,0.0027572133112698793,0.06971576064825058,0.0019162907265126705,-0.06446957588195801,-0.01947341300547123,0.07500113546848297,0.009978965856134892,0.01043406780809164,0.10167986154556274,-0.07317168265581131,0.026880742982029915,-0.07015947997570038,0.04042631760239601,-0.030213380232453346,-0.0004935835022479296,0.0022377080749720335,0.02745858021080494,0.07898781448602676,0.030205605551600456,0.05151602625846863,-0.03249947726726532,0.0643957257270813,0.04763394221663475,-0.07787013053894043,0.0151036586612463,0.08774910122156143,-0.036851610988378525,-0.017389468848705292,0.034085605293512344,0.03552082180976868,0.03690535947680473,0.05137062817811966,0.009432894177734852,-0.028839336708188057,-0.003168100258335471,0.07165481150150299,0.03966062143445015,0.06096147745847702,0.015949537977576256,0.009239479899406433,0.006573888938874006,0.014947175048291683,-0.031139621511101723,-0.032628633081912994,-0.033456023782491684,-0.04557539522647858,0.021366223692893982,-0.00708582391962409,0.09471792727708817,-0.04351288825273514,0.01111528743058443,0.053470712155103683,0.009566220454871655,0.017313692718744278,0.006250908598303795,0.10182473808526993,0.07318171113729477,-0.015842927619814873,-0.035271286964416504,-0.04986464977264404,-0.011863213032484055,0.03765873983502388,0.052136361598968506,0.08660325407981873,-0.04426763579249382,-0.014633004553616047,0.059894829988479614,0.11061815917491913,-0.025235477834939957,-0.018534915521740913,0.06828802824020386,-0.04613662511110306,0.018565412610769272,0.07170305401086807,-0.07291147857904434,-0.06656385958194733,-0.0028289491310715675,0.008002645336091518,0.04077426716685295,0.002304285066202283,0.002698763506487012,0.009288759902119637,-0.09552362561225891,0.008918744511902332,0.12037581205368042,0.05236554145812988,0.04349251464009285,0.07950039952993393,-0.001165127265267074,0.09506616741418839,0.010802780278027058,-0.017883658409118652,0.022399257868528366,0.030341861769557,0.003310422645881772,0.002829920267686248,0.027581369504332542,0.010987643152475357,0.031049015000462532,0.0576586052775383,-0.051060013473033905,0.0575370192527771,0.07074383646249771,0.06409674137830734,0.06572844833135605,-0.03211592510342598,-0.044878456741571426,-0.05405336990952492,-0.0003487130452413112,-0.06766296923160553,-0.004084150772541761,-0.0015867103356868029,0.03234321251511574,-0.03294071927666664,-0.032689761370420456,0.01685754582285881,-0.03984345123171806,0.05176249518990517,-0.057610053569078445,0.025646818801760674,0.06219565123319626,0.013568161986768246,-0.014915244653820992,0.02650025114417076,0.058745916932821274,0.07489287853240967,0.07514996081590652,-0.031985651701688766,0.03944491967558861,0.05680233612656593,-0.007774452678859234,0.08354666829109192,-0.0390128567814827,0.022344151511788368,0.012308696284890175,0.019566049799323082,0.05219421535730362,0.07884607464075089,0.045178841799497604,-0.021201735362410545,0.011069084517657757,-0.017232803627848625,0.048661138862371445,0.014101031236350536,0.06527148932218552,0.007432227022945881,0.09451090544462204,-0.046133577823638916,0.015107949264347553,0.012845128774642944,0.01499022077769041,0.03421751782298088,0.0354769304394722,-0.037106502801179886,0.006727326661348343,0.011347999796271324,0.006006447598338127,-0.015617371536791325,-0.07400991022586823,-0.01098519004881382,0.012800331227481365,0.05214527249336243,0.04344499856233597,-0.0778811126947403,-0.017437854781746864,0.09010101854801178,0.04205506294965744,0.021377071738243103,0.021580949425697327,-0.05947539582848549,0.039384257048368454,-0.020116155967116356,-0.03844486549496651,0.002877729944884777,0.057244908064603806,-0.0073350900784134865,0.024690639227628708,0.07603269815444946,-0.007106594275683165,-0.01981169357895851,0.0006612074794247746,-0.03127903863787651,0.09042047709226608,-0.01608864776790142,-0.0005934145883657038,-0.004375372547656298,0.09425212442874908,-0.009849229827523232,0.04263534024357796,0.019731486216187477,-0.04635784775018692,0.006275704130530357,0.09241576492786407,0.08842849731445312,-0.08845227211713791,0.04932491108775139,0.03996320068836212,0.09030543267726898,-0.03911636024713516,-0.07382103055715561,-0.03361158072948456,-0.04370161518454552,0.055186398327350616,-0.04088829457759857,0.06234079226851463,0.001189061556942761,0.05233414098620415,-0.019084399566054344,-0.06855973601341248,-0.03786541521549225,0.09674835950136185,-0.043479256331920624,0.003967755474150181,0.0586097314953804,0.015751833096146584,-0.029537323862314224,-0.02181563340127468,-0.015569780021905899,-0.057588402181863785,0.026756925508379936,-0.04488055035471916,0.05363638699054718,-0.0346800796687603,-0.09850885719060898,0.0568542517721653,0.05091075599193573,0.03165901452302933,0.06470039486885071,0.024721980094909668,-0.05237734317779541,-0.016687115654349327,0.036108534783124924,0.028662189841270447,0.06270737200975418,0.021419497206807137,0.055114295333623886,0.12468373030424118,0.07705917209386826,0.033232592046260834,0.0016477399040013552,0.07503756880760193,0.023317784070968628,0.04495938494801521,-0.046690039336681366,-0.018984919413924217,0.020812438800930977,-0.09014550596475601,-0.021513065323233604,-0.03399110212922096,0.05416980758309364,0.010653404518961906,-0.016953811049461365,-0.03854982182383537,0.051468368619680405,-0.01889822445809841,-0.006761757656931877,0.054649945348501205,-0.007985716685652733,-0.08557549864053726,-0.049166999757289886,0.030634503811597824,-0.005949370097368956,0.006763312499970198,-0.019399018958210945,-0.09376583248376846,0.015694137662649155,-0.05384914577007294,-0.01933358423411846,0.029792284592986107,-0.032366059720516205,0.06638308614492416,0.07849717885255814,-0.01890520192682743,0.03773407265543938,0.02745087631046772,0.0053394995629787445,-0.006866554729640484,-0.008691774681210518,-0.015646634623408318,0.034184571355581284,0.07988380640745163,-0.05232922360301018,-0.02737882360816002,-0.09098169952630997,0.026285553351044655,-0.08129549771547318,0.03946696221828461,-0.06682179868221283,-0.06995589286088943,0.03540300950407982,0.0072092036716639996,0.005216243676841259,0.026667525991797447,-0.08983105421066284,-0.0530829057097435,-0.0018708237912505865,-0.06015468016266823,-0.029518552124500275,0.07050332427024841,-0.0761236697435379,0.02849685586988926,-0.05040973424911499,0.07506117969751358,-0.12099643796682358,-0.040648773312568665,-0.04093756899237633,0.06544939428567886,-0.021954018622636795,0.010137666016817093,0.0381731241941452,-0.04581436887383461,-0.0869976133108139,-0.05239060893654823,-0.02531777136027813,0.02717621810734272,-0.025731928646564484,-0.09467470645904541,-0.0035217723343521357,-0.05430244281888008,-0.01817181706428528,-0.03701883181929588,0.045957401394844055,-0.0631929412484169,0.0013142043026164174,0.040423039346933365,0.04650624096393585,-0.08593922853469849,0.034557830542325974,-0.03914443030953407,-0.08759374171495438,0.038662705570459366,-0.019289422780275345,-0.07952246069908142,0.04501853138208389,0.034054432064294815,-0.10286080092191696,-0.06384003907442093,-0.008711446076631546,0.04781172052025795,-0.06964074075222015,-0.04007019102573395,-0.049570467323064804,0.0702459067106247,0.0635439082980156,-0.049395814538002014,-0.035496558994054794,-0.03715347871184349,-0.061139289289712906,-0.013824054971337318,0.01282378751784563,0.057519979774951935,-0.09711150079965591,0.011135638691484928,0.0779372900724411,0.026861587539315224,0.03164418786764145,0.045122548937797546,-0.0008715134463272989,-0.05005821958184242,0.06157437711954117,-0.07682564109563828,-0.08810105174779892,-0.053379639983177185,0.00042794138425961137,-0.020320706069469452,-0.02250606380403042,-0.046287260949611664,-0.04064580425620079,-0.05362674593925476,0.009969843551516533,-0.015615356154739857,-0.05305352434515953,0.013563203625380993,0.049188606441020966,-0.0827551782131195,0.04391040652990341,-0.06737197190523148,0.041084807366132736,-0.002492450410500169,0.039152029901742935,-0.038780756294727325,0.0629151314496994,-0.013420005328953266,0.016185183078050613,0.03614528849720955,-0.018595706671476364,0.10096688568592072,0.005777023732662201,-0.04130906984210014,-0.014391982927918434,-0.030877653509378433,0.03871000185608864,0.08498811721801758,-0.11865697056055069,-0.03577957674860954,-0.05505843460559845,0.06343774497509003,-0.014941209927201271,0.0483744814991951,-0.05591559782624245,-0.07935485988855362,-0.12420379370450974,0.0339021198451519,-0.06636376678943634,-0.0686328262090683,-0.018849140033125877,0.027811776846647263,0.023395204916596413,-0.035068776458501816,0.043177299201488495,0.018568847328424454,0.039900775998830795,0.0159095898270607,-0.03278298303484917,0.05021825060248375,-0.0452256053686142,-0.035311922430992126,-0.112090565264225,-0.05748865753412247,-0.08725723624229431,0.05524459108710289,-0.04177118092775345,-0.04041651263833046,-0.000790633843280375,0.03298776596784592,0.030289122834801674,0.036289915442466736,-0.06488364934921265,-0.008441351354122162,-0.002990296110510826,-0.07129219174385071,-0.046948038041591644,0.004684159066528082,-0.055837150663137436,0.044769853353500366,0.0593160018324852,-0.09263616055250168,0.02199486643075943,0.03247882425785065,0.015371481887996197,-0.03778726980090141,0.04816657677292824,-0.02857016958296299,0.013654512353241444,-0.0748508870601654,-0.04160076007246971,-0.08304493129253387,0.010356630198657513,-0.09308803081512451,0.0418391078710556,0.014962282031774521,-0.08996263146400452,0.007979041896760464,-0.11238054186105728,-0.04401275888085365,-0.06186270713806152,-0.007995281368494034,0.03677453100681305,-0.011540954001247883,0.009464498609304428,-0.0925326943397522,-0.08350120484828949,0.013641580939292908,0.049189284443855286,0.0274282768368721,0.060946185141801834,-0.0030534807592630386,0.019915223121643066,-0.07412964850664139,-0.02430565282702446,-0.01687062345445156,-0.00150731997564435,-0.040893007069826126,0.023342425003647804,0.022472545504570007,-0.03181535005569458,0.011903800070285797,-0.11841320246458054,0.005851748865097761,0.019706804305315018,-0.06142141669988632,-0.09446366876363754,0.03472552448511124,0.0205097496509552,0.013409210368990898,-0.04970763623714447,-0.07128477096557617,0.024544237181544304,0.045730508863925934,-0.10782652348279953,0.023965664207935333,-0.07192739844322205,-0.0754990354180336,-0.09417760372161865,-0.04529522359371185,0.03839563578367233,-0.08549407124519348,0.039818279445171356,-0.06341715902090073,-0.0009914017282426357,-0.04399816319346428,0.0021386549342423677,-0.06836728006601334,0.03419620171189308,0.06720279157161713,-0.02003328688442707,0.06048271432518959,0.01338525116443634,-0.055452197790145874,0.02289399318397045,-0.0002589903597254306,-0.0035993815399706364,-0.030656907707452774,0.061757203191518784,-0.0380585752427578,-0.07236576825380325,-0.03505033999681473,0.032670509070158005,0.031924352049827576,-0.024430125951766968,0.023569634184241295,-0.03374757617712021,-0.04633280262351036,0.06650763750076294,0.011630795896053314,-0.08045129477977753,-0.031110713258385658,-0.02428387477993965,-0.021696139127016068,-0.046145934611558914,-0.06692688912153244,-0.013442886993288994,-0.011355254799127579,0.0295127984136343,-0.05301884934306145,0.07374198734760284,-0.063519187271595,-0.020899586379528046,-0.04187742993235588,-0.056272923946380615,0.028656648471951485,0.016589784994721413,-0.0863383412361145,-0.02974455989897251,-0.024295223876833916,-0.005992535967379808,-0.0517343245446682,0.020210018381476402,0.023802028968930244,-0.043554384261369705,0.00587978633120656,-0.0033384275157004595,-0.015392597764730453,-0.01582111045718193,-0.0031397517304867506,-0.018709292635321617,-0.05197744071483612,-0.03232317790389061,-0.0638875737786293,0.0014197016134858131,-0.02765810675919056,0.001439677202142775,-0.008003121241927147,-0.06542298942804337,0.026268666610121727,0.047631166875362396,-0.04056679829955101,-0.00037381742731668055,0.03124956414103508,0.007952808402478695,-0.01651628315448761,-0.04544146731495857,0.009539168328046799,-0.09331174194812775,0.0636056438088417,-0.005464950110763311,0.049682773649692535,0.012454869225621223,-0.0307889636605978,-0.015429514460265636,-0.05087849870324135,-0.06108640134334564,-0.028932763263583183,0.03972355276346207,0.04645783081650734,-0.00437306659296155,-0.03269920125603676,-0.011879543773829937,0.018158240243792534,0.006389127112925053,-0.05342378467321396,0.08020661771297455,-0.08334572613239288,-0.050300706177949905,-0.023953448981046677,-0.03439891338348389,0.060183871537446976,-0.01596703939139843,-0.09938216209411621,-0.031117750331759453,-0.06896450370550156,0.019688233733177185,0.010807345621287823,-0.02539139613509178,-0.008099586702883244,-0.009148022159934044,-0.09626076370477676,-0.07252427190542221,-0.07734575867652893,0.0038489399012178183,0.038111597299575806,0.020496802404522896,0.038900092244148254,-0.03734297305345535,-0.035368602722883224,0.0068975486792624,-0.03319371119141579,0.04095211252570152,0.015259499661624432,0.058030664920806885,-0.0396573431789875,0.007959059439599514,0.007727738004177809,0.00705763278529048,0.040000785142183304,-0.01605677418410778,0.0028662863187491894,0.03352233022451401,-0.006499714683741331,-0.023964157328009605,0.010868169367313385,-0.04818594828248024,0.00750531442463398,-0.019693482667207718,0.000635657284874469,0.004485730547457933,0.0040137385949492455,-0.0047619217075407505,-0.03358381241559982,0.017041025683283806,-0.09277628362178802,0.001582706579938531,-0.048403434455394745,0.02719615213572979,-0.019667601212859154,-0.04637312889099121,0.03245590999722481,-0.02638697437942028,0.04470592364668846,0.03629148378968239,-0.004474564455449581,-0.050087202340364456,0.01297117117792368,0.065404511988163,-0.04286912456154823,-0.03575703874230385,-0.03687823936343193,0.00742888730019331,-0.03387364372611046,-0.004224416334182024,-0.033352866768836975,-0.02137564867734909,-0.04581044614315033,-0.07385341823101044,0.05776077136397362,-0.013537832535803318,0.018334900960326195,-0.05190709978342056,0.044136159121990204,0.028275271877646446,-0.036453429609537125,-0.061043787747621536,-0.033661507070064545,-0.0024619498290121555,0.034749098122119904,-0.02945476956665516,0.0023022317327558994,-0.04957159236073494,-0.018023870885372162,-0.0021114435512572527,0.026023272424936295,-0.02110946550965309,0.014205028302967548,-0.05313633382320404,0.017967522144317627,0.015722140669822693,-0.08366645872592926,0.074517622590065,0.019852381199598312,-0.0075294808484613895,-0.08545814454555511,-0.018487147986888885,0.011808228679001331,0.04949088394641876,-0.028956875205039978,-0.03709178790450096,-0.02577284537255764,0.056414924561977386,0.057643719017505646,0.06034930422902107,0.01959184743463993,-0.03807620704174042,-0.024577772244811058,0.013013429939746857,-0.0817171037197113,-0.054813943803310394,-0.03525303304195404,-0.054796002805233,-0.018580658361315727,0.04240516945719719,8.461160177830607e-05,-0.01142789889127016,-0.019309476017951965,0.019700922071933746,0.0398339182138443,0.025102045387029648,0.03600135073065758,4.308515417505987e-05,0.02251468412578106,-0.08299718052148819,0.02985789068043232,0.021269436925649643,0.014023075811564922,0.017831573262810707,0.02932269498705864,-0.025512993335723877,0.0522623285651207,-0.03600757569074631,0.03403257206082344,0.004642846528440714,0.0376163125038147,-0.03995070606470108,-0.040693871676921844,0.03664236515760422,-0.05786001309752464,-0.02827252633869648,0.0019502182258293033,0.03488697484135628,-0.07177019119262695,-0.062475163489580154,-0.01151222549378872,0.01170665118843317,0.012481240555644035,-0.04728512093424797,0.05444967746734619,0.025116369128227234,0.03926314413547516,0.060728296637535095,-0.04464844614267349,0.04051385447382927,-0.06674890220165253,0.028461255133152008,-0.03019028902053833,0.024207772687077522,-0.061925824731588364,0.04203254356980324,-0.08709777891635895,-0.01617536135017872,-0.022735247388482094,-0.056480538100004196,-0.06485872715711594,-0.028532924130558968,-0.04607691988348961,-0.11669778823852539,-0.0072480919770896435,-0.05720697343349457,0.0465722382068634,-0.04317055270075798,-0.06099538132548332,0.04325847700238228,0.038664720952510834,-0.022546255961060524,-0.058343492448329926,-0.0507269911468029,-0.01953471451997757,0.11018744856119156,-0.010959806852042675,-0.059347521513700485,-0.07584267854690552,0.0076231383718550205,0.008883552625775337,0.042804837226867676,-0.05811140686273575,-0.07665303349494934,-0.01067381538450718,-0.036867883056402206,-0.032331522554159164,0.09024807065725327,0.044239457696676254,0.0005903151468373835,0.0599672868847847,-0.10332559049129486,0.07348597049713135,0.05323992297053337,-0.04338042065501213,0.035898663103580475,-0.011487851850688457,0.007551467511802912,-0.022099392488598824,0.07317007333040237,0.06424553692340851,-0.020530348643660545,-0.02917695976793766,0.03755592927336693,0.05696241185069084,-0.030326174572110176,-0.03142380341887474,0.048080913722515106,0.023145990446209908,0.01391516998410225,-0.06012913957238197,-0.07626909762620926,0.042465828359127045,-0.01844296231865883,-0.032471247017383575,0.04568718373775482,-0.027607275173068047,0.10268650949001312,-0.06454913318157196,0.00927005335688591,0.013190229423344135,-0.006272659637033939,-0.07064975798130035,-0.006222796626389027,-0.0554109551012516,0.05412021279335022,0.030281998217105865,-0.0522429421544075,0.06115759536623955,0.03895314782857895,-0.009076597169041634,-0.03633447736501694,-0.13568344712257385,-0.006227538455277681,-0.08648855984210968,0.01623392477631569,-0.08984798938035965,-0.05090968683362007,-0.0810350701212883,0.009839639998972416,0.025696825236082077,0.02897810935974121,-0.08709380775690079,-0.07776043564081192,0.05081683397293091,0.004832129459828138,-0.0663292407989502,0.06149689108133316,0.027822161093354225,-0.03946191444993019,-0.030618805438280106,0.016917428001761436,0.07109391689300537,-0.07971686869859695,0.013746930286288261,-0.033630337566137314,-0.04932701215147972,0.014195090159773827,0.029423706233501434,-0.023196028545498848,-0.1026957556605339,0.04878823831677437,0.004071823786944151,0.06800256669521332,-0.00018481352890376002,-0.10681632161140442,-0.02289637178182602,-0.06416087597608566,-0.04039737582206726,-0.039352960884571075,-0.02173224464058876,0.07219716161489487,0.05905300751328468,0.043827373534440994,-0.057625774294137955,-0.01692299172282219,-0.02812386117875576,-0.05286267399787903,-0.04332084208726883,-0.04895815625786781,-0.03847993165254593,0.019136931747198105,0.07215399295091629,0.05645184591412544,0.027051519602537155,-0.00753870140761137,0.012357166036963463,-0.07473958283662796,-0.06831187754869461,-0.0492822490632534,0.07335489988327026,0.023360420018434525,-0.01167019922286272,-0.020484643056988716,-0.04269913211464882,-0.0480247363448143,-0.09274445474147797,-0.02910996414721012,-0.05152227357029915,-0.0024443557485938072,0.06819690018892288,0.03974749892950058,-0.014444869942963123,0.02505694143474102,0.01733379065990448,0.04858776554465294,0.030097922310233116,0.023612286895513535,-0.0692070871591568,-0.015961993485689163,-0.07883556932210922,0.06171228364109993,-0.04353291168808937,0.01633802242577076,0.03754713386297226,-0.05795297399163246,0.0816606879234314,-0.055132292211055756,0.04483441263437271,-0.07710203528404236,-0.032532721757888794,0.014418588019907475,-0.011719409376382828,-0.020061763003468513,-0.07227231562137604,-0.05628911033272743,-0.03737102448940277,-0.04291342571377754,0.011516849510371685,-0.003828370478004217,0.05556344613432884,0.059218890964984894,-0.0202578604221344,0.03631316497921944,-0.10350223630666733,-0.05213756859302521,-0.03186569735407829,-0.04663093760609627,-0.08222606033086777,0.055544815957546234,0.012644038535654545,0.004200704861432314,-0.019435977563261986,0.013909149914979935,-0.04179573804140091,0.0365317203104496,0.02054073102772236,-0.0020606995094567537,-0.017394844442605972,0.011412850581109524,-0.01805088482797146,0.06004904583096504,0.0025880958419293165,-0.0746723860502243,-0.08667156100273132,-0.05088195577263832,-0.05068042501807213,-0.08179903030395508,-0.042758602648973465,-0.041668638586997986,0.06272486597299576,0.08183582127094269,-0.03246826305985451,-0.0011311733396723866,-0.057835936546325684,-0.04338180273771286,-0.0011570440838113427,-0.06444884836673737,0.04405074194073677,-0.0722334161400795,-0.07636765390634537,-0.009881294332444668,-0.0009950189851224422,0.021065648645162582,0.016934432089328766,0.09002696722745895,0.03785862401127815,-0.0722135677933693,0.01962200365960598,0.013759534806013107,0.0010176773648709059,0.054796699434518814,-0.00034098292235285044,0.05084318295121193,-0.009333822876214981,-0.007953593507409096,-0.026553494855761528,-0.08702033758163452,0.027209138497710228,-0.040954213589429855,-0.02544652670621872,-0.076910100877285,0.006584631744772196,-0.01354348473250866,0.027908744290471077,0.02583306096494198,0.06444905698299408,-0.06496724486351013,0.023136353120207787,0.048745885491371155,-0.05139834061264992,0.03330647200345993,0.012213370762765408,-0.06399128586053848,0.12036175280809402,-0.006319940090179443,-0.06023130938410759,-0.03465573489665985,-0.02536899782717228,-0.0355529710650444,-0.045415617525577545,0.026070505380630493,0.06931178271770477,-0.07560213655233383,-0.0808040052652359,0.057263318449258804,0.014520249329507351,-0.05079151317477226,-0.06101926788687706,0.06512292474508286,-0.03706831485033035,-0.0041766054928302765,-0.013808254152536392,-0.04438526928424835,0.058786023408174515,-0.0013859877362847328,-0.02157803811132908,0.0742805078625679,-0.05918514356017113,0.006062671076506376,-0.05227108299732208,-0.06560850143432617,0.03456619754433632,-0.03640597313642502,-0.014966156333684921,0.013635583221912384,0.00346557074226439,0.03354864940047264,0.030805766582489014,-0.0413329191505909,0.00133835943415761,-0.011171667836606503,-0.06898920238018036,0.04581293836236,0.0108712213113904,-0.15811985731124878,0.0318814292550087,0.03609809651970863,-0.01604793220758438,-0.017677506431937218,-0.038298625499010086,0.0476495735347271,-0.027723172679543495,-0.05011514201760292,-0.052891723811626434,-0.006745937280356884,0.01534909475594759,-0.06782997399568558,0.03798099234700203,-0.026972364634275436,0.046839114278554916,-0.10152757912874222,-0.04107534885406494,0.022881051525473595,-0.07579706609249115,0.005752687342464924,0.07714646309614182,0.073680579662323,0.01207292266190052,0.021461503580212593,0.026357119902968407,0.020997200161218643,-0.01997239701449871,-0.018698586151003838,-0.023922115564346313,-0.12242542207241058,-0.00836873147636652,-0.07746203243732452,0.04027663171291351,-0.0416652075946331,-0.1159626841545105,-0.0615873858332634,-0.045975517481565475,-0.05195755884051323,-0.027563873678445816,-6.153123831609264e-05,0.02089701220393181,0.05483788996934891,-0.012157676741480827,-0.01581241562962532,0.011073487810790539,-0.03456670418381691,0.006351929157972336,-0.04794387146830559,0.059049904346466064,0.041991133242845535,-0.02903721295297146,0.013728894293308258,0.026232806965708733,0.02509109303355217,0.043117985129356384,0.008845498785376549,-0.005403405521064997,0.02094360440969467,-0.020779253914952278,0.04618661105632782,-0.033160410821437836,-0.05515888333320618,-0.0430699847638607,0.0052659339271485806,-0.10205879807472229,-0.013515515252947807,0.033288050442934036,-0.03942035138607025,0.03462131321430206,0.03827931359410286,-0.004121189005672932,-0.06853280961513519,0.009021409787237644,-0.034453168511390686,-0.012298357672989368,-0.053011149168014526,0.05583746358752251,-0.027884313836693764,0.026972083374857903,-0.024914532899856567,-0.061859454959630966,0.03701958805322647,0.02217116951942444,0.02143457904458046,-0.07534992694854736,-0.08793323487043381,-0.041832610964775085,-0.058095477521419525,-0.04456038773059845,0.04652898386120796,-0.01779727265238762,-0.057131245732307434,-0.0018391901394352317,-0.09791511297225952,0.04426632076501846,0.04032513126730919,0.000853995094075799,-0.004813412204384804,-0.048973847180604935,0.045848298817873,-0.05530654266476631,0.0471617765724659,-0.050811249762773514,0.031995948404073715,-0.07280207425355911,0.076255202293396,0.08273957669734955,0.05270955339074135,0.02673961967229843,-0.09234710782766342,0.01680469512939453,-0.04743622988462448,0.06286753714084625,0.02116171270608902,-0.04833061248064041,-0.009572338312864304,-0.006537471432238817,0.07453546673059464,-0.06381180882453918,-0.05705913156270981,0.07071080058813095,0.02333233878016472,-0.0323680154979229,0.017032122239470482,-0.024210775271058083,0.006789671257138252,-0.07024349272251129,0.02278602309525013,-0.017688676714897156,-0.04897657409310341,0.041717760264873505,-0.03204213082790375,-0.000888377777300775,-0.04074714705348015,0.027011370286345482,-0.04045362025499344,0.03182870149612427,-0.01827082596719265,0.0013784747570753098,-0.06555364280939102,0.03643209487199783,0.013535273261368275,-0.04083457589149475,-0.07295049726963043,0.010056743398308754,0.03900109604001045,-0.053740039467811584,-0.08392715454101562,-0.04225825145840645,-0.02856498211622238,0.06526253372430801,-0.004748716950416565,0.06455598771572113,0.041541121900081635,0.07183340936899185,0.05171862989664078,-0.013758973218500614,-0.07880816608667374,0.02542009949684143,0.01534674409776926,0.0007960724178701639,-0.06696853786706924,0.03560187667608261,0.09353253990411758,-0.04220645874738693,0.08899293094873428,0.07249758392572403,0.001845112070441246,0.04792027920484543,-0.027188731357455254,-0.013836580328643322,0.018912168219685555,-0.040635958313941956,0.0933007150888443,0.0418894924223423,-0.019970202818512917,0.05477431043982506,0.04060903936624527,0.003817423013970256,-0.08223918825387955,0.004804669879376888,0.000771840161178261,0.016622766852378845,0.019136616960167885,0.001733780954964459,0.03105391189455986,0.021153539419174194,-0.03239818289875984,-0.09445269405841827,0.05923591926693916,-0.0591500848531723,0.021620189771056175,0.048557184636592865,0.047423429787158966,-0.05424582585692406,0.005057993344962597,0.028877967968583107,0.03109944611787796,-0.05008729547262192,0.05535222217440605,0.017398245632648468,0.01745053566992283,-0.0356849804520607,-0.05609219893813133,-0.06512708961963654,-0.05400310456752777,0.059537846595048904,-0.060282401740550995,0.06310322135686874,0.01839149184525013,0.06102442741394043,-0.07282255589962006,-0.0018089141231030226,-0.06691563874483109,-0.05413760989904404,0.05381987988948822,-0.005811135284602642,0.016896793618798256,-0.007791401818394661,-0.009695859625935555,-0.0468345507979393,-0.030233360826969147,-0.08840884268283844,0.011839899234473705,0.03338762745261192,0.032806530594825745,0.08435170352458954,0.02704467996954918,-0.005936759058386087,-0.0035172849893569946,-0.04475259408354759,-0.02179630659520626,0.07367852330207825,0.054099008440971375,-0.1276935189962387,-0.02857128344476223,-0.03736519813537598,0.0471518337726593,-0.06917378306388855,0.004782361444085836,0.047874342650175095,-0.08677366375923157,0.021156195551156998,0.0576065257191658,-0.1092323437333107,-0.07300715893507004,0.0677221342921257,-0.061930764466524124,0.047335702925920486,-0.10989905148744583,-0.02410113252699375,0.027200965210795403,0.04811592772603035,0.023996906355023384,0.003889763029292226,-0.10313001275062561,-0.06791190803050995,-0.07465384900569916,0.008251408115029335,0.01658635027706623,-0.056545987725257874,0.024692634120583534,-0.031609781086444855,0.014121402986347675,-0.034180283546447754,-0.02833813801407814,0.011131564155220985,-0.05771695449948311,0.10305991768836975,0.03246362879872322,-0.008402119390666485,-0.06661316752433777,0.0702943429350853,-0.07575725764036179,-0.08648256212472916,-0.06650292128324509,0.03811328113079071,-0.06554630398750305,-0.09359443187713623,0.09084621071815491,0.05184430256485939,-0.043417781591415405,0.0014211599482223392,0.005955073516815901,0.026932239532470703,-0.024265000596642494,-0.14233455061912537,0.06398678570985794,-0.050801098346710205,-0.12254652380943298,-0.0767127275466919,0.04947542026638985,0.025292888283729553,0.02603999152779579,-0.015961991623044014,0.04047901928424835,-0.07064227014780045,-0.0820314884185791,-0.04284137114882469,-0.06717170029878616,-0.06187620386481285,-0.05035420134663582,0.022408626973628998,0.011137406341731548,-0.060130905359983444,-0.08418037742376328,-0.024854477494955063,-0.06851061433553696,-0.06912340223789215,-0.08861515671014786,-0.07691829651594162,0.015757275745272636,-0.05004248395562172,0.06134273484349251,-0.01086612418293953,0.0016229574102908373,-0.04608478397130966,0.044147249311208725,0.017379295080900192,-0.042525552213191986,-0.05877130478620529,0.0869816392660141,0.007958153262734413,0.03650955483317375,-0.004897795617580414,0.05553869530558586,0.019380416721105576,-0.07662129402160645,-0.001567013212479651,0.019636396318674088,-0.04628388211131096,0.05253192409873009,0.00024698744527995586,0.04750760272145271,0.06981115788221359,0.054274607449769974,-0.06602878123521805,-0.049220290035009384,-0.005526391323655844,0.00825844518840313,-0.05175404250621796,-0.05455755442380905,0.06646673381328583,-0.03130670636892319,-0.036830831319093704,0.017872478812932968,-0.01951892487704754,-0.0052004423923790455,-0.06264455616474152,-0.0568203404545784,0.03488216549158096,-0.0044825817458331585,0.01305565144866705,-0.0441235788166523,0.06874185055494308,-0.05078493803739548,-0.019110482186079025,-0.012358724139630795,-0.0118262292817235,-0.06302963942289352,-0.0764690712094307,0.05650817230343819,-0.013291428796947002,0.03307999670505524,0.010824393481016159,-0.08201919496059418,-0.05697459354996681,0.03693525120615959,0.062097758054733276,-0.04801574721932411,-0.014588164165616035,0.03431800380349159,-0.09724172949790955,-0.04622458666563034,-0.04074132442474365,-0.08800309151411057,0.02553188055753708,0.03574191778898239,0.011693217791616917,-0.07152823358774185,-0.01484207808971405,-0.04980291426181793,0.1288660615682602,-0.022222798317670822,0.06245890259742737,0.04217497259378433,-0.10432988405227661,-0.0017769151600077748,-0.083826944231987,0.061365898698568344,-0.054163794964551926,-0.0035247360356152058,0.016814811155200005,0.05865522846579552,-0.09140501171350479,0.007360619958490133,0.05694567784667015,0.0834248811006546,-0.04215060546994209,0.05462706461548805,0.016109483316540718,0.041884761303663254,0.05656036362051964,0.08391479402780533,-0.018401404842734337,-0.10756637156009674,-0.0381566546857357,-0.09266363829374313,-0.04949420318007469,-0.11709263175725937,-0.005838918965309858,-0.03626473993062973,-0.008982588537037373,-0.040221717208623886,0.018693149089813232,-0.06945180147886276,0.0778379887342453,0.03578139841556549,-0.0727834478020668,-0.012081075459718704,-0.025071876123547554,-0.04996481165289879,0.04982252046465874,-0.06720756739377975,-0.07098399847745895,0.03325037285685539,-0.08548973500728607,0.016264257952570915,-0.03523559495806694,-0.01743028126657009,-0.048397310078144073,0.006897279992699623,-0.06473460048437119,-0.055974867194890976,0.06512336432933807,-0.04543242231011391,-0.09303487837314606,0.014440055936574936,0.06657404452562332,0.09331981837749481,-0.04766004532575607,-0.013980256393551826,0.00864015705883503,0.04731668531894684,-0.03528547286987305,0.0088657196611166,0.009211940690875053,-0.06116139143705368,-0.03981809318065643,0.0028190435841679573,0.00018510414520278573,0.07278354465961456,-0.08963305503129959,-0.06821484118700027,-0.043529361486434937,0.0582524798810482,0.011323975399136543,-0.11356926709413528,-0.05003363639116287,0.016382712870836258,0.06270671635866165,0.03791993111371994,-0.05541260913014412,-0.02508818358182907,-0.03055107779800892,-0.015389636158943176,-0.16387242078781128,-0.08349296450614929,0.0714380219578743,-0.04212779924273491,-0.06443792581558228,-0.004928262904286385,-0.015423418954014778,0.07824443280696869,0.03884444385766983,-0.03753923624753952,-0.013973980210721493,0.051199279725551605,-0.04770176112651825,0.1249152421951294,0.01901172660291195,-0.06499078869819641,0.032191820442676544,0.014404810033738613,-0.01514623686671257,0.03651557117700577,-0.08696180582046509,-0.042466238141059875,-0.008489194326102734,0.02961951494216919,0.06408359110355377,-0.05896018445491791,-0.0050194151699543,0.05952559411525726,-0.001403536181896925,0.015816038474440575,0.009179797023534775,0.01698780059814453,0.024367889389395714,0.015531481243669987,-0.04529159516096115,0.0016909594414755702,-0.0314607135951519,-0.042868711054325104,-0.03985927999019623,-0.06993744522333145,-0.012117188423871994,0.048965662717819214,-0.012411331757903099,-0.0341501384973526,0.028407057747244835,0.02285321056842804,-0.07097022235393524,-0.016637543216347694,-0.030781008303165436,-0.005356313660740852,0.032763849943876266,0.023078685626387596,-0.026753481477499008,-0.07799919694662094,0.004377695731818676,0.0541246123611927,-0.020382719114422798,0.05354757606983185,-0.0005676529835909605,0.07948875427246094,0.05526065453886986,0.07715801149606705,0.016895990818738937,-0.07930335402488708,-0.0077876141294837,-0.05247547850012779,-0.03585248440504074,0.06836769729852676,0.002148460363969207,0.020063962787389755,0.0060891564935445786,-0.049730751663446426,-0.054576899856328964,-0.04930037260055542,-0.09662365168333054,-0.02885637804865837,-0.047891952097415924,-0.09407186508178711,-0.021934859454631805,0.010837303474545479,0.03455221280455589,-0.05591050907969475,-0.06050745025277138,-0.05159639194607735,-0.0523618645966053,0.07133742421865463,-0.03399234265089035,0.06014346331357956,0.06867820024490356,-0.007155340630561113,0.008724451996386051,0.02747958153486252,-0.039666227996349335,-0.026688160374760628,-0.010547209531068802,0.011967318132519722,0.07082179188728333,-0.08531922101974487,-0.07113030552864075,0.042601268738508224,0.03297055512666702,-0.052885960787534714,0.07386262714862823,0.06128278002142906,0.05383918061852455,-0.038041453808546066,-0.009624035097658634,-0.06494516134262085,-0.030411118641495705,-0.006765979807823896,-0.0005448300507850945,-0.04141949489712715,0.08847566694021225,0.08148441463708878,-0.03255338594317436,-0.06384932994842529,-0.029198456555604935,-0.04882162809371948,-0.05528578907251358,-0.03597429022192955,-0.04968841373920441,-0.07108764350414276,-0.016354016959667206,0.04159785062074661,-0.01253447588533163,0.06530092656612396,0.0774870440363884,-0.014736263081431389,-0.060313113033771515,0.10049464553594589,-0.0016329498030245304,0.0783001184463501,0.07485323399305344,0.015805227681994438,-0.07242996990680695,0.027091335505247116,-0.020726468414068222,0.008503121323883533,-0.052803050726652145,0.015470539219677448,-0.04115398973226547,0.017847158014774323,0.027607902884483337,-0.025007737800478935,0.01712069660425186,0.024357745423913002,0.009447859600186348,-0.04296493902802467,-0.07973204553127289,-0.03133095055818558,-0.05108333006501198,-0.042706478387117386,0.031472042202949524,0.01667429320514202,-0.025534823536872864,-0.04811836779117584,0.00622334610670805,-0.09630642831325531,0.05346206948161125,0.06512085348367691,0.04621215537190437,0.07850585132837296,-0.05373682454228401,0.09047619253396988,-0.009656689129769802,0.060711171478033066,-0.016514766961336136,-0.048332445323467255,-0.029528040438890457,0.037028610706329346,0.043684013187885284,-0.0282989963889122,0.03319266811013222,-0.05840896815061569,0.04246824234724045,-0.011212237179279327,-0.04639535769820213,-0.04923994466662407,0.03404165431857109,-0.018098145723342896,0.07104578614234924,-0.08339428901672363,0.012257134541869164,0.02653081901371479,0.018141988664865494,-0.014272368513047695,-0.05859306827187538,-0.029930148273706436,-0.021452181041240692,0.03411770984530449,-0.056406594812870026,0.022760923951864243,-0.0042980629950761795,-0.0760176032781601,0.031189577654004097,-0.032759007066488266,0.037374213337898254,0.07642724364995956,0.008307148702442646,0.024428237229585648,-0.03013869747519493,0.04903087019920349,-0.07245440036058426,-0.0739993155002594,0.04166838526725769,-0.0007770969532430172,0.020488010719418526,0.059659965336322784,0.09721922129392624,0.008890054188668728,-0.0012752005131915212,-0.04086438566446304,0.04868640378117561,-0.010978448204696178,0.00014902339898981154,0.02862897329032421,-0.07632352411746979,-0.0020675337873399258,-0.05394865944981575,-0.023732192814350128,0.04513295367360115,-0.010577619075775146,0.07060164958238602,0.04819640889763832,0.016301728785037994,-0.03130696713924408,0.019515180960297585,0.03486155718564987,0.06265641748905182,0.05109933763742447,0.019232915714383125,-0.011187349446117878,-0.005875822622328997,0.11196095496416092,-0.010058977641165257,0.03982207924127579,0.0077112470753490925,0.015158197842538357,0.0448274165391922,-0.02874508872628212,0.03861315920948982,-0.06604772806167603,0.05357901379466057,0.0703505203127861,-0.049508821219205856,0.04370167851448059,0.04688139259815216,0.07973786443471909,0.02431708760559559,0.00716081028804183,0.009198812767863274,-0.037523508071899414,0.07654827833175659,0.060988347977399826,0.020823244005441666,-0.03741288557648659,0.02239542454481125,-0.0008483888232149184,0.0750429779291153,-0.06765884160995483,0.01968085952103138,0.0481310673058033,0.004189442843198776,0.08278241753578186,0.0751490667462349,-0.05806666985154152,-0.0070522017776966095,-0.0949278399348259,-0.02911202982068062,0.031484466046094894,0.02404632791876793,0.03131924942135811,-0.052175894379615784,-0.060992080718278885,-0.014092018827795982,-0.01711038500070572,0.040179576724767685,0.004114292562007904,-0.004907286260277033,-0.07987406849861145,-0.04403173178434372,-0.032898493111133575,-0.05899081751704216,-0.05677380785346031,-0.019071271643042564,0.02938181720674038,-0.03653859347105026,0.027689170092344284,-0.03598548099398613,0.060654327273368835,0.011619575321674347,-0.007890269160270691,0.026927180588245392,0.010399932973086834,0.02793838083744049,-0.08036179095506668,-0.0025080908089876175,0.08398786932229996,0.07068474590778351,-0.04464677348732948,0.04797517508268356,0.026695651933550835,-0.03504708409309387,-0.0005273735150694847,0.024476464837789536,-0.06359993666410446,-0.028334185481071472,-0.056801699101924896,-0.0308522991836071,0.018818683922290802,0.017744073644280434,-0.06284118443727493,-0.06149297207593918,-0.01653238572180271,0.05925022065639496,-0.03260578587651253,-0.0726761668920517,-0.02104966901242733,0.019672444090247154,-0.0379672534763813,0.08441288024187088,0.033367007970809937,0.0026406627148389816,-0.008066247217357159,0.029834842309355736,-0.02248021401464939,0.09843510389328003,-0.04365722835063934,-0.04638529568910599,-0.02465127222239971,0.039047785103321075,-0.010977260768413544,0.01928682066500187,-0.06696625798940659,-0.04574722424149513,-0.0398838110268116,-0.02444353885948658,0.018297217786312103,0.017232093960046768,0.06473875045776367,-0.03576778620481491,-0.002282500034198165,0.04023178666830063,-0.06133851408958435,-0.011971771717071533,-0.03989792242646217,-0.0260921660810709,-0.03981444984674454,0.052667368203401566,-0.04082568734884262,-0.01720924861729145,-0.0697876513004303,-0.04133538901805878,-0.04000066593289375,0.03545418754220009,-0.05623739957809448,-0.048280540853738785,0.09467907249927521,-0.014844238758087158,-0.03173968195915222,-0.07340468466281891,0.0528334341943264,-0.029802704229950905,-0.026208804920315742,0.00011207313218619674,-0.0079831313341856,0.04648151621222496,-0.11536732316017151,0.03825056552886963,-0.030597159639000893,-0.05268086865544319,0.00653815595433116,0.05023590847849846,0.046629175543785095,0.01813722960650921,-0.03490582853555679,-7.546138931502355e-06,0.03012561984360218,0.03182891383767128,0.04779171943664551,-0.032562822103500366,0.053132832050323486,-0.0209792610257864,-0.049896664917469025,-0.04720377177000046,-0.06522559374570847,-0.011865193955600262,-0.014154988341033459,-0.018220040947198868,-0.10673263669013977,0.011286393739283085,-0.06613881886005402,0.0581691600382328,-0.0029053064063191414,-0.018239490687847137,-0.02711714431643486,0.0030425316654145718,0.02315334603190422,-0.029604783281683922,-0.028243502601981163,0.07242056727409363,-0.02379218116402626,-0.07730979472398758,0.0458940714597702,-0.0497310645878315,0.06335102766752243,0.029386619105935097,-0.0650283619761467,-0.022415077313780785,0.08713272213935852,-0.03876795992255211,-0.03250908851623535,-0.0704871192574501,0.07105202972888947,0.07720652222633362,-0.011297534219920635,-0.01890060305595398,-0.03919743001461029,-0.07492003589868546,-0.050586339086294174,0.033751826733350754,0.048772670328617096,-0.05718115344643593,-0.008802421391010284,0.05324986204504967,-0.06652739644050598,0.001196042401716113,-0.007752569857984781,-0.024215880781412125,-0.009401470422744751,-0.026312684640288353,0.029922813177108765,-0.012025491334497929,0.04953785985708237,0.09221185743808746,-0.042052011936903,0.05672014504671097,-0.018014298751950264,-0.03500375151634216,0.05167759209871292,0.09382108598947525,0.045635297894477844,0.05233144387602806,-0.018646014854311943,0.02824682928621769,0.010108018293976784,-0.10900787264108658,0.008220667950809002,-0.035112619400024414,0.01978709176182747,0.006295467726886272,-0.011172718368470669,0.08262912184000015,-0.0008851171005517244,0.0375196598470211,0.05982394888997078,0.05875112861394882,0.03644192963838577,-0.04553212970495224,-0.006493513472378254,-0.04693236202001572,0.023761285468935966,0.035637762397527695,0.004497490357607603,0.012109285220503807,0.029117289930582047,0.07941730320453644,0.0488554947078228,0.044468898326158524,0.06476356834173203,-0.02067478932440281,-0.05932577699422836,0.04467743635177612,-0.025383226573467255,-0.007912993431091309,-0.027797339484095573,0.03905661031603813,-0.07382345199584961,0.04101662337779999,-0.096807099878788,-0.04110817611217499,-0.04249192401766777,0.037088681012392044,-0.021922454237937927,-0.04715834558010101,-0.013872446492314339,0.017908742651343346,-0.07658350467681885,-0.03481064736843109,-0.0494968555867672,-0.036805976182222366,0.006655463017523289,-0.048385001718997955,-0.011132990010082722,-0.09631364792585373,-0.01113951951265335,-0.006989950314164162,0.06382444500923157,0.009071306325495243,-0.06065461039543152,0.0714743509888649,-0.08596005290746689,0.05908919870853424,0.00026304408675059676,0.01584884524345398,-0.08427219092845917,-0.03596043959259987,-0.04789430648088455,-0.02159006893634796,-0.012622709386050701,-0.054168812930583954,-0.05740932375192642,-0.003678953740745783,-0.05953431874513626,-0.07279308885335922,-0.019558114930987358,-0.02694721519947052,0.06527316570281982,-0.06575071066617966,-0.04831104725599289,-0.038826581090688705,-0.051962342113256454,0.047406841069459915,-0.023527931421995163,0.05322778597474098,-0.017111824825406075,-0.031000925227999687,0.016437362879514694,-0.031494271010160446,0.07933853566646576,0.010575460270047188,-0.04252555966377258,0.054160453379154205,0.06376778334379196,0.07389957457780838,0.05862359702587128,0.06275659799575806,-0.011590088717639446,-0.02065625786781311,0.04814291000366211,0.0645778700709343,-0.045900292694568634,0.025161461904644966,0.027720628306269646,0.10023698210716248,-0.06360037624835968,0.020939374342560768,-0.05377515032887459,0.0470934621989727,-0.04479541629552841,-0.03025420755147934,-0.006834069732576609,-0.018166223540902138,0.08756287395954132,-0.029211506247520447,-0.03538893535733223,0.07776729762554169,0.06190817430615425,0.06406991928815842,0.03296642377972603,0.00658921105787158,-0.04966261610388756,0.06651007384061813,0.008312919177114964,0.06141101196408272,-0.04201763868331909,-0.04780109226703644,-0.0012776957591995597,0.012122048996388912,0.07044980674982071,-0.11270361393690109,-0.03262091800570488,0.017801450565457344,-0.047751568257808685,-0.06683956831693649,-0.021231528371572495,0.03837759420275688,-0.04114755988121033,0.04558921605348587,-0.05301670357584953,0.029846813529729843,0.029176998883485794,-0.05814599245786667,-0.0010918850312009454,-0.03134240210056305,-0.06317922472953796,-0.0902988389134407,-0.015612735413014889,0.002404899336397648,0.003966199234127998,0.04020443558692932,0.06578744947910309,0.06531663239002228,0.0190646480768919,-0.10338908433914185,0.061163533478975296,0.001008056802675128,-0.005051377695053816,0.0472077913582325,0.036658287048339844,0.01990124210715294,-0.004511842504143715,-0.0006525748176500201,0.0635174959897995,0.029933268204331398,0.008085484616458416,0.04663049802184105,0.007382367271929979,0.030599363148212433,0.0017123299185186625,-0.00604338338598609,0.007042615208774805,-0.0245374608784914,0.04346328601241112,0.027965441346168518,0.006387024652212858,0.06419520080089569,0.025844736024737358,-0.017775598913431168,-0.019705044105648994,-0.04478645697236061,-0.056900639086961746,-0.0557355061173439,-0.01925811357796192,0.044289179146289825,0.08995947241783142,0.038860440254211426,0.03938864544034004,-0.0014509158208966255,-0.015127846039831638,-0.06756794452667236,-0.0384858064353466,-0.012328660115599632,0.01405171025544405,-0.04921486973762512,0.05996767431497574,-0.04540690779685974,-0.004946581553667784,-0.033176492899656296,-0.03588894009590149,-0.09298625588417053,-0.01636357791721821,0.040438853204250336,-0.01939660683274269,-0.040512945502996445,0.07487116754055023,-0.047545138746500015,0.052784740924835205,-0.05747206136584282,-0.035963110625743866,0.059450943022966385,-0.006521229632198811,0.0022300975397229195,-0.002108438406139612,-0.005125266499817371,-0.008587938733398914,-0.06652315706014633,0.026289893314242363,-0.001264477032236755,0.015970131382346153,-0.02525291033089161,0.020508337765932083,0.03786088526248932,-0.026526516303420067,0.044982220977544785,0.019941434264183044,0.06252337992191315,0.008085676468908787,0.028243882581591606,-0.014178203418850899,-0.0173435490578413,0.09907861053943634,0.006717812269926071,0.05331135168671608,0.056222155690193176,0.06920281052589417,0.04494660720229149,0.06556691974401474,-0.034910254180431366,-0.062308259308338165,-0.029528964310884476,0.06802905350923538,0.046484142541885376,0.06549041718244553,-0.11272618174552917,-0.02984577976167202,-0.03179508075118065,0.03772632032632828,0.046235375106334686,-0.020311521366238594,0.026977065950632095,-0.0006035447586327791,-0.05845444276928902,0.013839293271303177,-0.03166124224662781,0.005436224862933159,-0.0450737290084362,0.07631928473711014,-0.08937805891036987,0.06485775858163834,-0.013053854927420616,0.05231483280658722,-0.06035647913813591,-0.07242358475923538,0.040022291243076324,-0.05283580720424652,-0.026455223560333252,-0.040204182267189026,0.040133919566869736,0.10066724568605423,-0.01466990727931261,0.03485533222556114,-0.035689931362867355,0.017620500177145004,-0.04986809194087982,0.04404207319021225,0.010186239145696163,0.08634468168020248,-0.04236169531941414,0.00579687999561429,0.005832258611917496,0.02846953272819519,-0.014767457731068134,0.05390273779630661,-0.04748682677745819,0.03466346114873886,-0.022358154878020287,0.011349746957421303,-0.07177454978227615,0.008627884089946747,-0.058257050812244415,0.009070923551917076,0.04102647304534912,-0.08225587010383606,-0.037049323320388794,0.06625618785619736,-0.049474507570266724,0.04233001172542572,-0.0024027738254517317,-0.021272659301757812,0.038105178624391556,0.021334024146199226,-0.08699417114257812,-0.09735337644815445,0.05059656873345375,-0.0381668321788311,0.05963141843676567,0.028582828119397163,0.05919061228632927,0.053158361464738846,0.0248890183866024,0.08166270703077316,0.0042171236127614975,-0.04304628446698189,-0.05292182043194771,-0.028502004221081734,-0.031518321484327316,0.039715781807899475,-0.0386129729449749,0.03796293959021568,0.03496769070625305,-0.0391777865588665,-0.005517081823199987,-0.020868686959147453,-0.06610105186700821,0.03711424395442009,-0.018677491694688797,-0.12089486420154572,0.04180923476815224,0.07374925166368484,0.007322574499994516,0.017514610663056374,-0.028045477345585823,-0.042801424860954285,-0.06964288651943207,0.07904434949159622,-0.002859346102923155,-0.02045799046754837,-0.049189213663339615,0.0387435182929039,-0.08173058927059174,0.05971594899892807,0.06942752003669739,-0.08982651680707932,-0.014892404899001122,-0.06462536752223969,0.04990125820040703,0.05008327588438988,-0.022594382986426353,-0.01937963254749775,0.0042665754444897175,0.034510090947151184,0.03365163505077362,-0.014433269388973713,0.03966465964913368,-0.08276279270648956,0.011282110586762428,-0.009511611424386501,-0.02858426235616207,-0.06232341006398201,-0.05263310298323631,0.01349168922752142,-0.08277767896652222,-0.006378951482474804,-0.09770534187555313,-0.04825696721673012,-0.09190183132886887,-0.031289517879486084,-0.026735208928585052,0.044914375990629196,0.05848389491438866,0.003169524949043989,-0.10148169100284576,-0.02248574234545231,-0.026668142527341843,-0.013026653788983822,-0.0388927198946476,0.018610719591379166,0.01346321776509285,0.053165502846241,0.026023881509900093,0.013708079233765602,0.03147722780704498,-0.008489991538226604,-0.02094605378806591,-0.03110968880355358,0.024044986814260483,0.0365278385579586,-0.050874438136816025,0.07657250016927719,-0.05226540565490723,0.042522091418504715,-0.04946281388401985,0.06377028673887253,0.03611062839627266,-0.03768793120980263,0.0032919191289693117,0.0023410175926983356,-0.03183605521917343,0.03764522448182106,0.03085915744304657,0.07005730271339417,-0.05027660354971886,-0.07836691290140152,-0.001023841556161642,-0.009260875172913074,0.028049221262335777,0.013253213837742805,0.0379335917532444,0.05657506734132767,0.019006188958883286,0.04962433502078056,0.024869799613952637,-0.01862090453505516,0.027631396427750587,-0.028777241706848145,-0.026829324662685394,-0.019924761727452278,0.01999565400183201,-0.051092300564050674,-0.08002939820289612,0.07582013309001923,0.03326757997274399,0.008980680257081985,-0.0006543783820234239,0.05147584527730942,-0.0460112988948822,-0.032033056020736694,0.017566749826073647,-0.050406601279973984,0.053004227578639984,-0.021680332720279694,-0.06001555174589157,-0.051001377403736115,-0.014825467020273209,-0.029223408550024033,0.0187759380787611,-0.07257053256034851,0.0019353893585503101,0.05077657848596573,0.034758344292640686,-0.01075552124530077,0.024547137320041656,-0.08115188032388687,-0.07799778878688812,-0.04486208036541939,-0.028626644983887672,-0.07264106720685959,-0.08106378465890884,0.055609334260225296,0.07942622154951096,0.008831926621496677,-0.053638868033885956,-0.07748335599899292,0.032067690044641495,-0.019052159041166306,0.05002231150865555,-0.01912759244441986,0.057109806686639786,-0.038893986493349075,0.006105279084295034,0.008265935815870762,0.022202160209417343,0.003977789077907801,0.0353667289018631,0.008277321234345436,0.06585181504487991,0.06430219113826752,-0.06726232916116714,0.0693696066737175,0.06817635148763657,-0.03950022533535957,-0.033617082983255386,0.09375333786010742,0.02873668447136879,-0.06840933859348297,0.04155841842293739,0.028127361088991165,-0.05420931056141853,-0.05905802175402641,-0.028493834659457207,-0.06380169838666916,0.01772773452103138,0.03772331774234772,-0.04579513892531395,0.04769563302397728,-0.04780641570687294,0.07046238332986832,-0.007811699062585831,-0.018219375982880592,0.027447493746876717,-0.0595778226852417,-0.026954906061291695,0.045931048691272736,-0.039179883897304535,-0.040754638612270355,-0.03731296584010124,-0.07235518097877502,-0.017438072711229324,-0.018082279711961746,0.0205658208578825,0.027229206636548042,-0.006945640314370394,-0.06756728887557983,-0.048615001142024994,-0.04788346588611603,0.04376775771379471,-0.051249828189611435,0.08358005434274673,-0.0456828847527504,-0.03465264290571213,-0.006938856560736895,0.00582104129716754,0.019977858290076256,-0.010999021120369434,-0.043747372925281525,-0.040944911539554596,-0.041299473494291306,-0.04049045220017433,9.854244854068384e-05,0.058736350387334824,0.004181284457445145,0.004972085822373629,-0.0392165333032608,-0.048849768936634064,0.03791224956512451,-0.04903411120176315,0.014409899711608887,-0.06374819576740265,0.00043827647459693253,-0.012572438456118107,0.03334478661417961,-0.02397557534277439,0.05111399292945862,0.0027063556481152773,0.013031682930886745,0.04635972902178764,-0.05014406144618988,0.06522171944379807,0.011491616256535053,0.004891399759799242,-0.015531237237155437,0.030686601996421814,-0.02499932236969471,0.03181547299027443,0.04884961247444153,-0.05586045980453491,0.019422683864831924,-0.025189729407429695,-0.08815944194793701,0.016488103196024895,-0.02594343200325966,0.016200585290789604,-0.027436908334493637,-0.04917415976524353,0.055334437638521194,-0.023442428559064865,0.04617307707667351,-0.05031110718846321,0.027099739760160446,-0.04707736149430275,0.06869661062955856,0.06033680960536003,0.027464600279927254,-0.011957314796745777,0.016094308346509933,0.04828361049294472,-0.05922190472483635,-0.0018896952969953418,-0.003687466261908412,-0.04502999410033226,-0.0009371607447974384,0.03928893804550171,-0.06505406647920609,0.01658727042376995,0.04948693886399269,-0.004734421614557505,-0.001046015415340662,0.039701610803604126,-0.05093373358249664,0.0011630329536274076,0.07071354985237122,-0.03250597417354584,0.01722666621208191,0.0607929565012455,-0.022852659225463867,0.03471407666802406,0.02344074659049511,0.04429038241505623,0.028355605900287628,0.03263351693749428,-0.03691782429814339,-0.013504098169505596,-0.053918931633234024,-0.0685773640871048,-0.01388446893543005,-0.06727007776498795,0.0026835536118596792,-0.03906068205833435,0.007535166572779417,-0.05274100974202156,0.05106431245803833,-0.013181867077946663,-0.04118460789322853,0.043260376900434494,-0.05472150444984436,-0.06174236908555031,-0.10509375482797623,0.004413563758134842,0.027413317933678627,0.015947146341204643,0.036786001175642014,-0.09934574365615845,0.009881502017378807,0.07691173255443573,0.0362740233540535,-0.05803801119327545,-0.11213314533233643,-0.053103744983673096,-0.01746474578976631,-0.0456891693174839,0.0374487079679966,-0.003472068114206195,-0.07461961358785629,0.027458880096673965,0.020430510863661766,0.06347586959600449,-0.038163211196660995,-0.09768455475568771,0.0035049719735980034,-0.07194384932518005,-0.02191440388560295,0.027699096128344536,0.053648773580789566,-0.02632874809205532,-0.005136988591402769,0.025695012882351875,0.0259200818836689,-0.007832386530935764,-0.015757640823721886,-0.07492998987436295,0.07858261466026306,0.018756641075015068,0.026878561824560165,-0.031072577461600304,-0.04300031065940857,-0.07786121219396591,-0.033926013857126236,-0.048360131680965424,-0.05417853593826294,-0.08518407493829727,-0.07549665123224258,0.002948583336547017,-0.015539317391812801,-0.09009236097335815,-0.07982099056243896,-0.04719669371843338,0.005684182979166508,-0.059407975524663925,-0.0537194162607193,0.03183519095182419,-0.026576470583677292,0.0556148961186409,-0.09742178022861481,-0.03413546457886696,0.051097262650728226,-0.03597189486026764,0.009474901482462883,0.04216954857110977,-0.06322729587554932,-0.05519194155931473,0.0008732657297514379,-0.03294140845537186,0.032412152737379074,-0.06296227127313614,-0.020114948973059654,-0.0659111738204956,0.0808822512626648,-0.018413782119750977,0.04842742905020714,-0.05226920545101166,-0.051304906606674194,0.03963083773851395,-0.013235955499112606,-0.004676592070609331,-0.08205054700374603,0.029136430472135544,-0.042261455208063126,-0.0032779942266643047,-0.011846550740301609,0.03311019763350487,0.005793057847768068,-0.03488010913133621,0.003696441650390625,0.009296498261392117,0.035477496683597565,0.0280291847884655,-0.056154605001211166,0.02555759623646736,-0.04796333983540535,-0.018338536843657494,0.043464288115501404,0.023496851325035095,-0.015687867999076843,-0.03507345914840698,-0.07243867218494415,-0.02416447550058365,0.02894459292292595,0.02311023510992527,0.026515604928135872,-0.027749018743634224,-0.09408711642026901,-0.06516391038894653,-0.03808693587779999,-0.05448359623551369,0.02427711896598339,0.018115775659680367,-0.055944234132766724,-0.05727837607264519,0.04187972471117973,0.0622745081782341,-0.006874800659716129,0.03395837917923927,-0.018249282613396645,0.020362060517072678,0.013196351937949657,-0.04980577155947685,-0.05938541889190674,0.05896306782960892,0.018506798893213272,-0.011125031858682632,-0.001858256058767438,-0.04049453139305115,-0.020431870594620705,0.05530136823654175,-0.011533856391906738,0.04377046599984169,-0.06568259745836258,0.06569594144821167,-0.027731314301490784,0.04881330579519272,0.013403206132352352,-0.08560451865196228,-0.01882329396903515,0.03938714787364006,0.01186545193195343,-0.07766145467758179,0.04761753976345062,-0.09622494876384735,0.011832654476165771,-0.02630775049328804,-0.014268393628299236,0.06426534801721573,-0.04113887622952461,-0.021273497492074966,0.07698483765125275,0.007032615598291159,-0.08469490706920624,0.03801736608147621,0.03914736956357956,-0.05876297131180763,0.048089154064655304,-0.043788760900497437,-0.04032665491104126,0.036183323711156845,-0.06606722623109818,-0.0911722406744957,-0.007667037658393383,0.09218820184469223,0.040710050612688065,-0.05161304399371147,-0.02549019455909729,-0.09334243088960648,-0.015788672491908073,0.0011211787350475788,0.01362964790314436,0.04326948896050453,0.017139878123998642,-0.011897643096745014,-0.060516517609357834,-0.02409512922167778,-0.059266168624162674,-0.06314942985773087,-0.01114368624985218,0.046908069401979446,-0.08055350184440613,-0.04171765223145485,-0.061662644147872925,-0.00990641675889492,-0.023658476769924164,-0.07321396470069885,-0.051012489944696426,0.010177121497690678,0.04331723228096962,0.030684558674693108,-0.0983228012919426,-0.1082037016749382,0.01020781695842743,-0.07100564241409302,-0.031830720603466034,-0.022699953988194466,0.03608790785074234,-0.00989858340471983,0.016445737332105637,0.03696119040250778,0.022104084491729736,-0.028844598680734634,0.03627938777208328,-0.024829063564538956,0.01774461567401886,-0.04575303569436073,-0.000759278831537813,-0.044790416955947876,0.0649341568350792,0.008174181915819645,-0.02729477360844612,0.0534965842962265,0.0258466899394989,0.02664302848279476,0.020085284486413002,0.05361863598227501,-0.06825954467058182,-0.05271952599287033,-0.10738442093133926,-0.05074892193078995,-0.03409759700298309,0.03690021485090256,0.032667528837919235,0.05522749572992325,-0.0941944420337677,-0.05308195576071739,-0.015672868117690086,0.035103511065244675,0.03619784861803055,0.07927858829498291,0.041043803095817566,-0.011285753920674324,0.022408433258533478,0.005097282584756613,0.020687703043222427,0.01369468029588461,0.0608648955821991,0.025384144857525826,0.0795288011431694,-0.01006210595369339,0.014385927468538284,0.016403816640377045,-0.09929544478654861,-0.1288435310125351,-0.036490194499492645,0.010358908213675022,0.01497693732380867,-0.023237168788909912,-0.060427069664001465,-0.017812326550483704,-0.05596594139933586,0.015003124251961708,-0.04356390982866287,-0.02165045216679573,0.059052012860774994,0.013054695911705494,-0.03224293887615204,-0.005525058135390282,0.05347278341650963,-0.04420694708824158,-0.010862664319574833,-0.034922871738672256,-0.04038292169570923,0.009291526861488819,0.06123104691505432,-0.06011087819933891,-0.04491604119539261,-0.10219183564186096,-0.04505928233265877,-0.055668916553258896,0.03401225805282593,-0.0571461021900177,0.03484722599387169,0.002495282096788287,-0.016810543835163116,-0.011982089839875698,-0.006189839914441109,0.023611100390553474,-0.034069713205099106,-0.08751008659601212,0.06827528774738312,0.07396627962589264,0.004395182244479656,0.024056311696767807,0.031966447830200195,-0.01299105305224657,0.04649887606501579,-0.02480805106461048,0.027243269607424736,-0.011833295226097107,0.001563339726999402,0.06166823208332062,0.0017322908388450742,0.04598671942949295,0.0037542975042015314,-0.017205100506544113,0.025637345388531685,-0.024834297597408295,-0.009042601101100445,0.09483759850263596,-0.07053837925195694,-0.07009297609329224,-0.11186030507087708,0.04976323992013931,0.0822819173336029,0.011305034160614014,0.06975293904542923,-0.006561306305229664,-0.03388980031013489,-0.06536003202199936,0.058887746185064316,0.06192442402243614,-0.07192520797252655,0.05046148598194122,0.014547199942171574,0.0501188226044178,0.033380478620529175,0.022403020411729813,0.046315260231494904,-0.027672244235873222,0.03402934595942497,-0.07119646668434143,-0.009451235644519329,-0.03538205474615097,0.06617344170808792,-0.048464663326740265,-0.034857265651226044,0.07103089988231659,0.03068133257329464,0.02737243101000786,0.0841619074344635,-0.019010113552212715,0.08480396121740341,-0.00808141939342022,-0.011047763749957085,0.04747602343559265,0.07643565535545349,0.07045891135931015,-0.02320842817425728,0.02201947756111622,-0.008949709124863148,-0.02760080248117447,0.0007580678793601692,-0.017899753525853157,0.051378339529037476,-0.01847408339381218,0.006481904070824385,0.09768916666507721,0.10093352198600769,-0.044455818831920624,-0.04379768297076225,0.07578148692846298,0.041740477085113525,-0.02295691706240177,0.023871921002864838,-0.007255540695041418,-0.04294818267226219,-0.02222016081213951,-0.02235107496380806,0.09190857410430908,0.024410223588347435,-0.06651616096496582,0.013558896258473396,-0.08353325724601746,-0.027305949479341507,-0.039419230073690414,-0.0320100411772728,-0.03218100965023041,0.05490197241306305,-0.03333344683051109,0.04247097671031952,-0.03276385739445686,-0.06328682601451874,-0.013965344987809658,-0.006791419815272093,-0.03692629560828209,2.519283225410618e-05,0.04491389915347099,0.029063349589705467,0.1105191633105278,-0.035007234662771225,-0.05278857797384262,0.0009998084278777242,-0.04403581842780113,0.03822171688079834,0.0453372448682785,-0.05634211748838425,0.0254017636179924,0.016781853511929512,0.08780298382043839,0.021404344588518143,-0.0016400277381762862,-0.003304854966700077,-0.031423427164554596,-0.06758834421634674,0.05632395297288895,-0.018247226253151894,0.03932641074061394,0.06304818391799927,-0.017350250855088234,0.04258374124765396,-0.0046144998632371426,0.08111100643873215,-0.024278203025460243,-0.06306102871894836,-0.0471247062087059,0.12156439572572708,-0.052388910204172134,-0.014197777956724167,-0.01856713928282261,-0.08761995285749435,-0.008067536167800426,0.042085468769073486,0.0044935704208910465,-0.006214657798409462,0.06217455118894577,-0.012193017639219761,-0.05854197219014168,0.03241609409451485,0.07536487281322479,-0.030512241646647453,-0.07032903283834457,-0.06400741636753082,0.0171236302703619,0.05718321353197098,-0.04835888743400574,0.08735457807779312,0.048966605216264725,0.032513316720724106,-0.08645449578762054,-0.0661330297589302,-0.004853260237723589,0.014689379371702671,-0.01672004535794258,0.019703220576047897,-0.058505065739154816,-0.0018744530389085412,0.010600319132208824,0.04861566796898842,-0.050101883709430695,-0.024794764816761017,0.02454981952905655,0.058993007987737656,-0.013720418326556683,0.031612053513526917,0.069732666015625,-0.022498369216918945,0.05205147713422775,-0.007190407253801823,0.05651167780160904,0.020896567031741142,0.011695477180182934,0.042498525232076645,0.05677476152777672,0.01408630795776844,-0.014100690372288227,-0.012226911261677742,-0.0016595073975622654,-0.07346340268850327,0.04304730147123337,-0.05251734331250191,-0.045143868774175644,-0.06668149679899216,0.010610593482851982,0.012655696831643581,0.038549672812223434,0.09575481712818146,0.0564807690680027,-0.038178447633981705,0.0630296990275383,0.010920107364654541,0.0019348778296262026,0.04180904105305672,0.06299082934856415,-0.008215997368097305,0.08903363347053528,0.0255037322640419,0.05255355313420296,0.061167772859334946,-0.037298399955034256,0.057269737124443054,-0.010574864223599434,-0.03904693201184273,0.077321358025074,0.01981896162033081,0.09190373867750168,-0.03346724435687065,0.0808962732553482,0.01559605821967125,0.07701507955789566,0.04716077819466591,0.012035069055855274,0.034778475761413574,-0.002330554649233818,-0.0033810485620051622,0.07270865142345428,0.04891747981309891,0.07317566871643066,0.022997833788394928,0.032292015850543976,0.06162139028310776,-0.004744479898363352,0.03612980619072914,0.03874896466732025,0.0393386073410511,-0.005028755869716406,-0.03410497307777405,-0.02506888471543789,0.02067660540342331,0.04765878617763519,-0.07129152119159698,-0.1059299185872078,-0.098627969622612,-0.015028690919280052,-0.07136692851781845,-0.05387749522924423,-0.012813887558877468,0.043059103190898895,-0.023568350821733475,0.029431182891130447,0.056095823645591736,-0.07860542833805084,-0.10191652923822403,-0.05005469545722008,0.03663884848356247,0.01817665621638298,-0.05855106934905052,-0.04932761564850807,-0.050034936517477036,-0.04000316560268402,0.017406271770596504,0.01582554168999195,-0.0680697038769722,-0.019121307879686356,-0.0426291823387146,0.05585910752415657,-0.053291983902454376,-0.041016533970832825,0.0075541152618825436,-0.05260559916496277,0.022046273574233055,-0.085397869348526,0.007392073981463909,-0.015593033283948898,0.07172971963882446,0.06799861788749695,0.0672115683555603,-0.02751934714615345,0.02250257320702076,0.040055423974990845,0.08451534807682037,0.034734319895505905,-0.0010965859983116388,0.012686599977314472,-0.08083043247461319,-0.03790901601314545,0.038513388484716415,0.018056649714708328,-0.024185091257095337,-0.062266234308481216,0.03166385367512703,-0.07608535140752792,-0.06302699446678162,0.06029491499066353,-0.0581916943192482,-0.034679561853408813,0.005037904251366854,-0.012760763056576252,-0.020625432953238487,-0.04072662815451622,-0.08077047020196915,-0.010645297355949879,0.030435843393206596,0.024086913093924522,0.015028394758701324,-0.028534695506095886,-0.09748247265815735,0.025500839576125145,-0.05884510651230812,-0.10035485029220581,0.054448146373033524,-0.023524096235632896,-0.04164063557982445,-0.012463404797017574,0.005861976649612188,-0.026391487568616867,0.04238581284880638,0.03601350262761116,0.05260905250906944,0.04611150547862053,-0.0014965174486860633,-0.08125105500221252,-0.06109242141246796,0.04136093333363533,-0.034929219633340836,-0.02494196407496929,-0.001363751944154501,0.01994394138455391,-0.028134997934103012,0.02186877466738224,-0.006510614883154631,-0.10073644667863846,-0.014695050194859505,-0.0012159337056800723,0.06521355360746384,-0.022487612441182137,-0.021804286167025566,-0.09045294672250748,-0.0775022953748703,0.07355700433254242,0.05012195184826851,-0.07382096350193024,0.021644335240125656,0.01600434072315693,-0.023538796231150627,-0.009746864438056946,0.025773050263524055,-0.0220145545899868,-0.017349841073155403,0.013037147931754589,0.07490251958370209,0.012619641609489918,-0.01798158697783947,-0.06174873560667038,0.004007874988019466,-0.038659486919641495,-0.0101724062114954,-0.028609462082386017,-0.07035588473081589,-0.009889477863907814,-0.023903237655758858,-0.02511555515229702,0.05252332612872124,-0.04181165620684624,-0.023611901327967644,-0.03188909962773323,0.0048739295452833176,-0.02122194878757,-0.006158624775707722,-0.0191864725202322,0.12158170342445374,-0.01263988297432661,-0.0008173711248673499,-0.025626182556152344,0.017499644309282303,0.026861051097512245,-0.03378322720527649,-0.033521778881549835,-0.060825809836387634,0.03162611275911331,0.06557948887348175,0.06521594524383545,0.07054471969604492,0.06638272106647491,0.05986815690994263,0.007963608019053936,-0.0007729822536930442,0.07713381201028824,0.03050095960497856,-0.006650941912084818,0.01342798862606287,-0.04215751588344574,0.04612668231129646,-0.03802179545164108,0.005335931200534105,-0.061628084629774094,0.01651391200721264,-0.09361310303211212,0.030601050704717636,-0.0078285438939929,0.013381309807300568,-0.01710953377187252,-0.11255589872598648,0.04804593697190285,-0.021979698911309242,0.052331410348415375,-0.07234375178813934,0.006014998536556959,-0.07237467169761658,-0.05622965842485428,0.03531232848763466,-0.03516434505581856,-0.08197206258773804,0.02908393181860447,0.017466388642787933,0.07242832332849503,-0.04821218177676201,-0.014607277698814869,-0.02868346869945526,0.00614244444295764,0.022285664454102516,0.023989565670490265,0.0015358884120360017,-0.0859406515955925,-0.1146211102604866,0.047622401267290115,-0.006764077581465244,-0.04730997234582901,-0.012034948915243149,-0.01848353073000908,-0.013131543062627316,0.0029089958406984806,-0.048872146755456924,-0.08157003670930862,0.01451600156724453,-0.07618996500968933,-0.048397015780210495,0.05925624072551727,-0.03528851643204689,-0.023887155577540398,0.052664779126644135,0.05413046106696129,0.0001658787950873375,0.012187322601675987,-0.03986699506640434,-0.01983649656176567,-0.025775078684091568,-0.06365308165550232,-0.016050340607762337,-0.016934601590037346,0.05181614309549332,0.06717942655086517,0.05639870837330818,0.0038378797471523285,0.0121071832254529,-0.05278993397951126,0.039414145052433014,-0.04229100048542023,0.015946468338370323,0.04215199872851372,0.05290871113538742,-0.07859832793474197,-0.08130010962486267,-0.023534303531050682,0.03593451902270317,-0.05656839534640312,0.07268531620502472,-0.059728458523750305,-0.03124626725912094,0.04513681307435036,0.0015578634338453412,0.034140534698963165,-0.09869708120822906,0.03949049115180969,0.0066272602416574955,-0.03888604789972305,-0.056807518005371094,0.01869434118270874,0.06655623763799667,0.039929721504449844,0.024538548663258553,0.02235427312552929,-0.015873370692133904,-0.10289368778467178,-0.01773442141711712,0.007022562436759472,-0.003921895287930965,-0.06298399716615677,0.049885354936122894,-0.040072619915008545,0.0817728340625763,-0.029267027974128723,0.04769972711801529,0.06931602209806442,0.01863817498087883,0.0758386179804802,0.007969614118337631,0.024427594617009163,0.04921923205256462,-0.018021928146481514,0.04637329280376434,0.013404014520347118,-0.02883976884186268,0.056261345744132996,0.08531513810157776,-0.022395184263586998,0.049064796417951584,0.026847191154956818,-0.055293817073106766,0.06070927157998085,0.009347241371870041,-0.004941568709909916,-0.005403031595051289,-0.008101451210677624,0.03107198141515255,0.06367669254541397,-0.04366076737642288,0.008934365585446358,0.013018081896007061,0.08633635938167572,-0.050282616168260574,-0.02078135684132576,0.003083469346165657,0.03217783942818642,0.02686169371008873,-0.010127679444849491,0.016306035220623016,-0.037289638072252274,-0.0011152762454003096,0.002145352540537715,0.025940150022506714,0.038185760378837585,0.06459620594978333,0.014215732924640179,-0.015837784856557846,0.06572822481393814,0.026493286713957787,0.08469200134277344,0.05740992724895477,0.0026801249478012323,-0.060452722012996674,0.004506559576839209,-0.02002418227493763,-0.022759422659873962,-0.011686483398079872,0.05553480610251427,0.05316338688135147,-0.008481199853122234,-0.00918523594737053,0.024981431663036346,0.04842282086610794,0.02198038436472416,-0.004359845072031021,0.08383842557668686,-0.040205590426921844,-0.0024529509246349335,-0.02544810250401497,0.07026350498199463,-0.009442499838769436,0.04179597273468971,0.05095156654715538,-0.029291972517967224,0.050958238542079926,-0.0001877158647403121,0.01220776792615652,0.0448634959757328,0.013078960590064526,-0.03071548230946064,-0.0028698446694761515,-0.01117977686226368,0.05148553475737572,0.09413035213947296,0.03652530908584595,0.034360483288764954,0.05177731066942215,0.025210145860910416,0.06424883008003235,0.04505681246519089,0.04671090468764305,-0.05368418246507645,-0.024159232154488564,0.07135578244924545,0.03812487795948982,0.0784696713089943,-0.040837667882442474,0.03351534903049469,0.030303647741675377,-0.018087545409798622,0.010818700306117535,0.05112725496292114,-0.03844030573964119,0.026490673422813416,-0.0017764868680387735,0.052081186324357986,0.02530716359615326,0.059439271688461304,-0.018499698489904404,0.006669872906059027,-0.04449433460831642,-0.035427384078502655,0.04991135001182556,0.04365474730730057,-0.02458728477358818,0.01331520639359951,-0.05249596759676933,-0.03759894520044327,0.058082785457372665,-0.054798003286123276,-0.014176285825669765,-0.015845300629734993,-0.007877557538449764,0.02227553352713585,-0.03652156516909599,0.016743766143918037,-0.05000806972384453,0.04651043936610222,-0.04043920338153839,0.008431212045252323,-0.03970877081155777,-0.0019883501809090376,0.03645215928554535,-0.05672995746135712,0.02370576746761799,-0.04514629393815994,0.07811830937862396,0.018934033811092377,0.07901815325021744,0.029820462688803673,0.0003207488916814327,0.01310923881828785,0.013495235703885555,0.04555094242095947,0.07269357144832611,-0.018993109464645386,0.05689558386802673,0.033079467713832855,0.037089817225933075,-0.0035147981252521276,-0.05973717197775841,-0.004736106842756271,-0.01179801020771265,0.007236287463456392,-0.044772304594516754,0.04150625690817833,0.050263188779354095,0.010331086814403534,-0.06138455867767334,0.07978863269090652,0.0548534020781517,-0.050614163279533386,0.0014291232218965888,0.012580198235809803,0.06618338078260422,0.03442027047276497,0.0032155902590602636,0.09127494692802429,-0.010749394074082375,0.07477513700723648,0.029246101155877113,-0.012805115431547165,0.03841607645153999,-0.06536193937063217,-0.006971572991460562,0.06119854003190994,-0.017761804163455963,-0.022128332406282425,-0.03529061749577522,-0.030991652980446815,0.030422329902648926,0.0656372457742691,0.011986120603978634,-0.017007064074277878,-0.0057578980922698975,-0.008742004632949829,0.003723920788615942,0.02885989286005497,-0.0029957848601043224,0.11217055469751358,-0.017216740176081657,-0.028741255402565002,0.06421959400177002,-0.06101745739579201,-0.029189905151724815,0.027738599106669426,0.007964210584759712,0.017918692901730537,0.028558233752846718,0.005508397705852985,0.055331673473119736,-0.02868935838341713,-0.031582802534103394,-0.0028773092199116945,0.04377635568380356,0.0013539413921535015,0.030125608667731285,0.01612585410475731,-0.0029750741086900234,0.050944581627845764,-0.020219886675477028,-0.06578384339809418,0.04644444212317467,0.00990730058401823,0.0170972291380167,-0.03958131745457649,-0.045863378793001175,-0.020327407866716385,0.006540376227349043,-0.012853757478296757,0.026554754003882408,0.09586165100336075,-0.03580847010016441,-0.027956480160355568,0.045415692031383514,-0.020670002326369286,0.0500156469643116,-0.01445906050503254,0.07795486599206924,0.009139136411249638,0.007084420882165432,0.04577264562249184,0.11148529499769211,-0.029240034520626068,0.016572382301092148,-0.016392508521676064,0.08568372577428818,-0.047488998621702194,0.018668312579393387,0.003887553932145238,-0.021404603496193886,0.0071367123164236546,-0.026434889063239098,-0.026568911969661713,-0.03444879874587059,0.06895452737808228,-0.05793170630931854,-0.05967031046748161,-0.0541921891272068,0.047714948654174805,0.039211176335811615,0.04500191658735275,-0.01183803379535675,0.03887511417269707,-0.0078111630864441395,0.010928686708211899,-0.03419708460569382,0.043983910232782364,-0.012854241766035557,-0.06367865204811096,-0.02648119255900383,-0.04139597341418266,-0.010949929244816303,-0.0915130004286766,0.04600022733211517,0.08707083016633987,0.021427344530820847,-0.015720229595899582,0.07452165335416794,-0.05895507335662842,-0.028075851500034332,0.08037684112787247,-0.000256671424722299,0.015393298119306564,0.11175721883773804,-0.07792676240205765,0.03244847431778908,0.11342421174049377,0.014347372576594353,0.09911224246025085,-0.029036255553364754,0.019411608576774597,-0.024924876168370247,-0.022359518334269524,-0.09246517717838287,0.08630704879760742,0.03976907581090927,0.0290879737585783,0.10673441737890244,0.06351634114980698,-0.15527673065662384,0.021253889426589012,-0.04031391441822052,-0.060688264667987823,0.07468504458665848,-0.01621272601187229,-0.0604267343878746,-0.08191476762294769,-0.09280557930469513,0.057738784700632095,0.012785461731255054,0.04224328324198723,-0.06557247787714005,-0.030030369758605957,0.07583419978618622,0.010610622353851795,-0.07143563777208328,0.04209420084953308,0.06113029271364212,-0.03107661008834839,-0.027086041867733,-0.05646980181336403,0.1007961556315422,0.044983670115470886,0.05136941000819206,0.04907047376036644,0.07086238265037537,-0.05026561766862869,0.09912567585706711,-0.012021106667816639,-0.05961786210536957,-0.08624932914972305,0.005058600101619959,0.06442432105541229,-0.020908914506435394,-0.02412506192922592,-0.04877025634050369,0.016705816611647606,-0.077338807284832,0.01782148703932762,-0.010990830138325691,0.06114742532372475,0.05118925869464874,0.06000407040119171,-0.05546458438038826,-0.08310669660568237,0.04831044003367424,-0.050398919731378555,-0.0474957600235939,-0.008835204876959324,-0.032846976071596146,-0.10091644525527954,-0.058109182864427567,0.06971411406993866,-0.07897680252790451,-0.025704296305775642,0.04076691344380379,-0.07818509638309479,-0.004061838611960411,0.07286394387483597,-7.888380787335336e-05,-0.03437689691781998,-0.06051766872406006,-0.02352294884622097,-0.046763550490140915,-0.0029835698660463095,-0.04293985664844513,-0.050978414714336395,-0.04030139744281769,-0.062273140996694565,0.083610899746418,-0.09362710267305374,-0.0373840406537056,-0.06536586582660675,0.010365474969148636,-0.11158955842256546,-0.027278108522295952,-0.06491769105195999,0.03415515646338463,-0.0633404478430748,0.032942384481430054,-0.07020378112792969,-0.039184700697660446,0.08710474520921707,0.09688195586204529,-0.07447662949562073,0.08867071568965912,0.03281500190496445,0.017094792798161507,0.011389832012355328,0.006834786850959063,0.08683542162179947,-0.01318077091127634,-0.040135931223630905,-0.04798738658428192,0.02224871888756752,0.1094566062092781,-0.047225531190633774,0.029804425314068794,0.008802982047200203,-0.09303461015224457,-0.04161663353443146,0.04797617346048355,0.01682792790234089,-0.08417007327079773,-0.07802034169435501,-0.012049947865307331,-0.04926183819770813,0.010365921072661877,0.045157432556152344,-0.10670602321624756,0.014186861924827099,0.04264089837670326,0.07871927320957184,-0.09079466015100479,0.14498008787631989,0.0070723192766308784,0.09310382604598999,0.06313291192054749,0.031140081584453583,-0.0852389931678772,0.00457340944558382,-0.052828483283519745,0.020067773759365082,0.08366459608078003,-0.06079922989010811,0.08994357287883759,0.06891947239637375,0.06846319884061813,-0.1045243963599205,-0.022957881912589073,0.022294431924819946,0.0029051026795059443,0.04034419730305672,