0.05322837457060814,0.03264416754245758,-0.103648342192173,-0.016014039516448975,0.05282563716173172,-0.03111785091459751,-0.03253477066755295,-0.025835491716861725,-0.07992129772901535,-0.09727160632610321,-0.046703822910785675,-0.04637163132429123,0.040090411901474,-0.020345626398921013,-0.01538938656449318,0.02933552674949169,-0.00517942663282156,0.05006149038672447,-0.016876887530088425,0.0030138979200273752,-0.011793036945164204,0.03912960737943649,-0.12261764705181122,-0.06630421429872513,-0.02859649434685707,-0.021829644218087196,0.05465247854590416,-0.006798277609050274,0.06728874891996384,-0.008317403495311737,0.005590076558291912,-0.029388342052698135,-0.04872019588947296,-0.005599370691925287,-0.050166621804237366,-0.06478383392095566,-0.05511656776070595,0.02684006094932556,0.036069415509700775,-0.07885616272687912,0.015603788197040558,-0.05333421751856804,-0.006649259943515062,-0.05864625424146652,0.016366135329008102,0.040226344019174576,0.016488773748278618,0.0016069019911810756,0.004825376905500889,-0.01927061937749386,-0.0045308941043913364,-0.1043732613325119,-0.06847818940877914,-0.07262591272592545,0.01138968113809824,-0.1063503846526146,-0.09616629779338837,0.08228432387113571,-0.06886191666126251,0.006002976093441248,-0.037034276872873306,0.0659046620130539,-0.08169496804475784,-0.018666313961148262,-0.08080312609672546,0.04312903434038162,-0.024993598461151123,-0.0660981610417366,-0.018902089446783066,-0.034007005393505096,-0.058202050626277924,0.06766317039728165,0.0456935279071331,-0.009479602798819542,0.010173159651458263,-0.11855962127447128,-0.016138222068548203,0.02716660127043724,-0.08407329022884369,-0.08144526183605194,0.02916480228304863,0.04091312736272812,-0.04607755318284035,0.03999130427837372,0.04339947551488876,-0.06239806488156319,-0.02211165800690651,-0.06302804499864578,0.013034478761255741,0.07829373329877853,-0.039327919483184814,-0.043585941195487976,-0.0785728245973587,-0.0247616209089756,-0.10270558297634125,0.018723897635936737,-0.021213585510849953,-0.08997999131679535,-0.011571071110665798,-0.06287861615419388,0.05019015446305275,0.015286296606063843,0.029129477217793465,0.03903410583734512,-0.043184809386730194,-0.00928514450788498,-0.09035104513168335,-0.12341615557670593,0.028024999424815178,0.02168712206184864,-0.06915133446455002,-0.07774586975574493,0.03292788937687874,0.06092078983783722,-0.01904349774122238,0.08397042006254196,0.06776271760463715,0.041658636182546616,-0.08790640532970428,-0.033901188522577286,0.02817196398973465,0.04041053727269173,-0.06944384425878525,-0.028035743162035942,-0.05221337825059891,-0.04249799624085426,-0.045144665986299515,-0.007742291782051325,-0.06428593397140503,0.043331511318683624,-0.0675339326262474,0.024761632084846497,0.0480356328189373,-0.03741767257452011,-0.10995827615261078,-0.00027022717404179275,-0.02070007100701332,-0.06666131317615509,-0.039951715618371964,0.04547522962093353,0.08807231485843658,-0.008732186630368233,-0.02406066656112671,0.009684259071946144,-0.05941149592399597,0.034494705498218536,0.01457577757537365,0.07133741676807404,-0.13602785766124725,-0.09170150756835938,-0.004064431879669428,-0.03138965368270874,0.045182567089796066,-0.0886818990111351,-0.06413307040929794,-0.11625555902719498,-0.005227915942668915,-0.009925385005772114,-0.025937363505363464,-0.06126118823885918,-0.007194174453616142,0.10112691670656204,-0.0897875726222992,0.03000292368233204,-0.09085505455732346,0.08134239166975021,-0.04331362247467041,-0.0034622137900441885,-0.013492622412741184,0.06749045103788376,-0.08005483448505402,0.025962311774492264,0.06414873898029327,-0.07013051211833954,0.020145462825894356,0.08310618251562119,0.009447645395994186,0.030881693586707115,-0.06003207340836525,0.0436931736767292,-0.04506119340658188,0.02182380110025406,0.007386866491287947,-0.06280209124088287,-0.07200279831886292,0.08979110419750214,0.04077809676527977,0.10036364197731018,-0.07209927588701248,0.09020665287971497,0.004553326405584812,-0.10207097977399826,0.062105875462293625,-0.06579753756523132,-0.07005911320447922,0.05340266600251198,0.014710376039147377,-0.05340142548084259,-0.02065914496779442,0.022771712392568588,0.019937019795179367,-0.0699218288064003,-0.04527626931667328,0.04196935519576073,0.06532710790634155,-0.07452589273452759,0.0029466107953339815,-0.05871507152915001,-0.10641010105609894,0.04591132700443268,0.052650805562734604,0.01624668762087822,0.027295779436826706,-0.11962779611349106,0.011325054802000523,0.06795449554920197,0.10373280942440033,-0.009221416898071766,-0.04596046730875969,-0.009919100441038609,0.020059922710061073,0.06620714068412781,-0.08574778586626053,-0.0092518525198102,-0.08112341910600662,-0.12436190247535706,-0.019881414249539375,0.040442194789648056,-0.030309025198221207,0.03176376223564148,-0.03893980383872986,-0.08064631372690201,0.05904936417937279,-0.08058656007051468,-0.003883867524564266,0.027105819433927536,0.03236886113882065,0.021850833669304848,-0.08041144162416458,-0.06076165661215782,-0.04302172362804413,0.05174630507826805,-0.044208113104104996,-0.06500564515590668,0.05349183827638626,-0.06681347638368607,-0.012251870706677437,-0.09995390474796295,0.03063243441283703,0.05113552510738373,0.008382828906178474,-0.016028625890612602,-0.016575472429394722,-0.08275117725133896,-0.051610514521598816,-0.088386170566082,-0.06271381676197052,0.03244566544890404,0.06636359542608261,-0.06434403359889984,-0.09820222109556198,0.027006471529603004,0.05021429806947708,0.08809734880924225,0.07929851859807968,-0.0590827614068985,0.08510725945234299,-0.0527118444442749,0.008435136638581753,0.0591106116771698,0.08284647762775421,0.050581563264131546,0.09043268114328384,0.004074396099895239,-0.05738544091582298,-0.06376371532678604,0.02889120578765869,-0.04413760080933571,-0.06400373578071594,-0.08018212020397186,-0.04524856433272362,-0.006279174238443375,-0.0664248913526535,-0.07330449670553207,-0.0656735822558403,-0.03948390856385231,0.08258874714374542,0.03608556091785431,0.026674816384911537,-0.08947198837995529,0.023771580308675766,-0.045126039534807205,0.030792348086833954,0.029102228581905365,0.10938134044408798,0.03287011757493019,0.0834924727678299,-0.04130922630429268,-0.06329107284545898,0.08144641667604446,0.057231929153203964,0.011426525190472603,-0.026380663737654686,-0.06346927583217621,0.1093740165233612,-0.004314723424613476,-0.06763775646686554,0.05902830883860588,-0.003907966427505016,-0.08527907729148865,0.05891505628824234,-0.033225759863853455,0.0011242191540077329,-0.07068198919296265,0.06491647660732269,0.05262718349695206,-0.08287744969129562,-0.08321689069271088,0.08175929635763168,0.10216398537158966,-0.0944199487566948,-0.04497852548956871,0.0828646793961525,-0.052330899983644485,-0.03400604799389839,0.09191005676984787,0.06861419975757599,-0.10060679912567139,0.0029087173752486706,0.06057843193411827,-0.10861504822969437,0.03051546774804592,-0.03325532376766205,-0.053099192678928375,-0.04335764795541763,0.07208878546953201,0.018517790362238884,0.000528659438714385,0.01128771435469389,-0.08747491985559464,0.06262754648923874,-0.03376969322562218,0.07642196863889694,0.04056838899850845,0.016139041632413864,0.024680960923433304,0.013849754817783833,0.012833964079618454,-0.05379268899559975,0.06594831496477127,0.05434814840555191,0.11707209050655365,-0.0402299202978611,0.04171605035662651,-0.045464444905519485,0.08918546885251999,-0.014498664997518063,-0.004239946138113737,0.011931530199944973,-0.06321080029010773,-0.011218015104532242,-0.00035438069608062506,0.017492754384875298,0.07204161584377289,-0.0459621287882328,-0.06961227208375931,0.033739909529685974,-0.02650975063443184,0.01677839644253254,0.032937634736299515,0.007848626933991909,-0.04237545654177666,0.018383454531431198,0.039948929101228714,-0.05152726173400879,0.09172387421131134,0.11996400356292725,-0.04868767783045769,0.02905033901333809,0.024830441921949387,0.07938665896654129,0.0533149316906929,-0.058215659111738205,-0.02679157629609108,-0.09363080561161041,0.05843636393547058,-0.0022847808431833982,-0.024345338344573975,0.04225703328847885,-0.11248602718114853,0.03878161683678627,0.11339615285396576,0.02726413868367672,0.014248625375330448,0.07796567678451538,-0.08825838565826416,-0.023737328127026558,0.03092290088534355,-0.059580497443675995,-0.011924074962735176,0.04740435630083084,-0.0560406893491745,0.05474155768752098,-0.028411749750375748,0.05922646075487137,0.02424195595085621,-0.02487705461680889,0.0050949170254170895,0.025606371462345123,-0.042352546006441116,0.08108608424663544,-0.015652529895305634,0.06089324504137039,0.07843511551618576,-0.017169304192066193,-0.0297426488250494,0.08995182812213898,-0.10362144559621811,4.956737029715441e-05,-0.030993111431598663,0.014992115087807178,0.08381698280572891,0.07841215282678604,0.01539420522749424,-0.06643181294202805,-0.08104685693979263,0.005826127249747515,0.034243859350681305,-0.02446102909743786,0.05192934721708298,-0.05288302153348923,-0.060668572783470154,0.06844516098499298,0.08900316804647446,0.01134558580815792,0.03671972081065178,0.0267198346555233,-0.049555450677871704,-0.0569344237446785,-0.06863467395305634,0.04916112869977951,-0.00487444968894124,0.013203899376094341,-0.06133870407938957,-0.004222680814564228,0.0004270808713044971,0.0014337255852296948,-0.020299216732382774,-0.050181806087493896,-0.05533992126584053,0.08251673728227615,0.026712948456406593,0.08282944560050964,0.0739123672246933,-0.055259231477975845,-0.05341719463467598,-0.002494591288268566,-0.03444502875208855,-0.0021157909650355577,-0.05680590867996216,-0.016476277261972427,0.04910942539572716,-0.09515552222728729,-0.023380085825920105,-0.033028412610292435,-0.07394567877054214,0.01301977876573801,-0.04420355334877968,-0.006567745003849268,0.03649134188890457,-0.005187541246414185,-0.0018740895902737975,-0.0023671758826822042,0.015229819342494011,0.07854028791189194,-0.0029713762924075127,-0.01228116825222969,-0.0002680476463865489,-0.011501891538500786,0.056509729474782944,-0.05770115554332733,0.05343368276953697,-0.05486084148287773,0.01034341286867857,0.07732674479484558,0.018818126991391182,0.040156878530979156,-0.011734864674508572,0.020390119403600693,0.06593119353055954,-0.0024389338213950396,-0.017850495874881744,-0.07055966556072235,-0.03766843304038048,0.08429133892059326,0.053278546780347824,0.06980417668819427,0.08327143639326096,0.06453234702348709,0.06654489785432816,-0.06550352275371552,0.08781619369983673,-0.020266391336917877,0.05148940160870552,-0.019433923065662384,-0.003250298323109746,0.09175340086221695,-0.03793460503220558,0.018906081095337868,0.04868406057357788,0.0709930807352066,-0.05400789529085159,0.02249782159924507,0.04852259159088135,0.0643775686621666,0.007865285500884056,0.015190542675554752,-0.0159612987190485,-0.002460746094584465,-0.05676528438925743,0.06275736540555954,0.05779378488659859,0.055797453969717026,0.017683105543255806,0.03428874537348747,-0.05870221555233002,-0.03828871622681618,-0.040666475892066956,0.07088245451450348,-0.022939667105674744,0.06313777714967728,0.07462750375270844,-0.0047790007665753365,-0.06679068505764008,0.07235512137413025,0.040480539202690125,-0.02304961532354355,0.05790504813194275,0.04842327907681465,0.02347150631248951,0.05685499310493469,0.09121569246053696,0.025489814579486847,-0.0192581694573164,0.06753183156251907,0.0832449272274971,-0.0345243401825428,0.0456547811627388,0.04725397378206253,0.09567276388406754,-0.009770968928933144,0.06687606871128082,0.010025731287896633,0.02364422380924225,-0.06207602098584175,-0.057929690927267075,0.06690062582492828,0.06096753478050232,0.048604488372802734,0.080708809196949,0.02532523311674595,0.03953327611088753,0.05229303613305092,0.07865148782730103,-0.04156355932354927,0.06456876546144485,0.03037627413868904,0.06115244701504707,0.056093815714120865,0.07370375841856003,0.07031651586294174,0.04173693433403969,-0.04210597276687622,-0.009437598288059235,0.023376470431685448,0.008709266781806946,0.09474442899227142,0.012621372938156128,-0.041533153504133224,0.0788797065615654,0.0015446314355358481,0.0500827431678772,0.07843877375125885,-0.05526942014694214,0.08002873510122299,-0.06449565291404724,-0.04093686118721962,0.07002123445272446,0.03237321600317955,0.07689011096954346,0.07287846505641937,-0.043942082673311234,-0.03575263172388077,0.03931984305381775,0.09924150258302689,-0.066551573574543,0.06952706724405289,-0.005218964535742998,-0.03146236389875412,0.055511269718408585,-0.019562803208827972,0.018702903762459755,0.0046286508440971375,0.10557591915130615,-0.06355317682027817,0.027023673057556152,-0.0010818002047017217,0.059054311364889145,-0.0761154368519783,-0.0018351974431425333,0.04847724735736847,0.047631919384002686,0.01759062148630619,0.0032462519593536854,-0.06132246553897858,0.09247065335512161,-0.03737002983689308,0.025906207039952278,0.08077430725097656,0.028033370152115822,0.025763429701328278,-0.05006910860538483,-0.038577400147914886,-0.0056969234719872475,0.06930165737867355,0.0018022198928520083,0.07641980051994324,0.05322308838367462,-0.05436764657497406,0.014975816942751408,-0.05449286848306656,0.03306207433342934,-0.027233276516199112,-0.023359395563602448,0.04315650835633278,-0.01467841025441885,0.006266980431973934,0.05449618399143219,-0.0016798059223219752,0.09177842736244202,0.010975301265716553,0.06866271048784256,0.012334130704402924,-0.09620629251003265,0.061383701860904694,0.04513249173760414,0.012053336948156357,0.005266604479402304,0.01512913964688778,0.02086104080080986,0.021494857966899872,0.05987359583377838,-0.02848176471889019,-0.012160835787653923,0.0990210548043251,0.08193662762641907,0.08410332351922989,0.0159273874014616,0.019197463989257812,0.0010387992952018976,0.033259060233831406,-0.04261542856693268,-0.01876823417842388,0.07107634097337723,0.0031926475930958986,-0.007279395591467619,0.035967644304037094,-0.0034620582591742277,0.07441835105419159,0.07783082872629166,0.10888294130563736,0.05485999584197998,-0.0610540471971035,-0.017204953357577324,-0.016743440181016922,0.07213658094406128,0.0914607048034668,-0.011547519825398922,0.05365100875496864,0.0912473201751709,0.022664695978164673,-0.03093947470188141,-0.03156840428709984,0.01924069970846176,0.10532590746879578,0.08741790801286697,0.08646437525749207,-0.033174388110637665,0.009739924222230911,-0.025640951469540596,-0.033338990062475204,-0.029595330357551575,-0.03651757165789604,0.07233315706253052,0.025737427175045013,0.05268029123544693,0.0705459713935852,0.06527554243803024,-0.023236390203237534,0.07508515566587448,0.008450246416032314,0.09207212179899216,0.008862326852977276,0.089500792324543,0.011064711958169937,-0.04469042271375656,0.044858723878860474,0.05786420404911041,-0.03150487318634987,-0.05385769531130791,-0.016546009108424187,0.04991523548960686,0.11699017882347107,0.04487311467528343,-0.0418894998729229,0.024666814133524895,0.02559833601117134,-0.03343956544995308,0.06763635575771332,-0.0008042288245633245,0.028605623170733452,0.011454273946583271,0.04119677469134331,-0.03416229039430618,0.06714528799057007,-0.01781471259891987,-0.05577345937490463,-0.04980718344449997,0.030726144090294838,0.09855294227600098,0.0458388589322567,0.12434668093919754,0.033711496740579605,0.09612855315208435,-0.001627112040296197,0.07520724087953568,-0.033656202256679535,0.041215308010578156,-0.019715556874871254,0.07456459850072861,0.06208289414644241,-0.011109692975878716,0.04592612758278847,0.05876925215125084,-0.017450500279664993,-0.037789471447467804,-0.04365716874599457,-0.03391209989786148,-0.024269940331578255,0.044750671833753586,-0.05957760661840439,-0.02451709844172001,0.04812180623412132,0.09719619154930115,0.05640376731753349,0.019483257085084915,0.061367470771074295,0.05466191843152046,-0.009037772193551064,0.058867380023002625,0.05806979537010193,0.04784325882792473,-0.009649191051721573,-0.057048000395298004,-0.028571413829922676,0.0520782433450222,-0.033493753522634506,0.076005719602108,-0.03990849107503891,0.06043684855103493,-0.023812999948859215,-0.11907006055116653,-0.05492158979177475,0.006533775944262743,-0.09821930527687073,-0.0609501414000988,0.001109872478991747,-0.06001422554254532,-0.008281026966869831,0.029733041301369667,-0.0903950184583664,0.049888838082551956,-0.05484986677765846,0.040999770164489746,-0.07269826531410217,0.029247276484966278,-0.04040083289146423,0.05886818841099739,-0.05025796219706535,-0.04023861140012741,0.020243754610419273,-0.05913006514310837,0.04479818046092987,-0.07236392796039581,-0.01135606411844492,0.01418073195964098,-0.009751150384545326,-0.11936929821968079,-0.021743997931480408,-0.041442569345235825,-0.08738807588815689,-0.04533502459526062,0.019488831982016563,0.0639580637216568,0.04171707108616829,-0.03750787675380707,-0.05164705216884613,-0.0403381809592247,-0.07561016827821732,-0.046188097447156906,-0.034117087721824646,0.05770351365208626,0.0013569614384323359,0.06863704323768616,-0.022683823481202126,-0.02814864180982113,-0.0947873443365097,0.026116227731108665,0.026082050055265427,0.01079264935106039,-0.10361211001873016,0.0493142232298851,0.025863412767648697,0.054507385939359665,-0.06374412029981613,-0.051152873784303665,-0.0283048078417778,-0.04439423978328705,-0.09443992376327515,0.0418950654566288,-0.111394964158535,-0.018973147496581078,0.019955724477767944,-0.08542966842651367,-0.07077261805534363,0.04507153108716011,-0.08186628669500351,0.023597532883286476,0.053887102752923965,-0.07031424343585968,-0.04696095362305641,-0.08928152173757553,-0.0017111959168687463,-0.002903436776250601,0.0033697367180138826,-0.014524249359965324,-0.05590780824422836,0.03952408954501152,0.05752168595790863,0.017168480902910233,0.020279614254832268,0.016099223867058754,-0.057776276022195816,0.03574313595890999,-0.03950449451804161,-0.06431940943002701,-0.006751084700226784,0.018946196883916855,0.039655912667512894,0.0396270677447319,-0.08134159445762634,0.043191976845264435,-0.028939537703990936,-0.05360101908445358,-0.09646300971508026,0.0530945360660553,-0.07404312491416931,-0.10705053806304932,0.03186291828751564,0.04840810224413872,0.004130230750888586,-0.07862627506256104,0.055359434336423874,0.07460565119981766,-0.11094887554645538,0.06791584938764572,0.05497262626886368,0.050311390310525894,0.011986399069428444,0.02356969378888607,-0.0013614462222903967,-0.007145458832383156,-0.008673401549458504,-0.06459449231624603,-0.09233769029378891,-0.09360392391681671,0.028488637879490852,0.020122656598687172,-0.06947201490402222,-0.06793072074651718,0.0009310711757279932,-0.07141389697790146,-0.08940344303846359,0.08115317672491074,0.022169146686792374,0.031067412346601486,-0.0512685552239418,0.08335154503583908,0.04731905832886696,-0.029278522357344627,-0.07390185445547104,0.017357463017106056,0.02699822373688221,-0.03670717775821686,0.10169141739606857,0.03762587904930115,0.04655930772423744,-0.009305644780397415,0.022272298112511635,-0.08204717934131622,-0.016094662249088287,-0.060128066688776016,0.036748338490724564,0.03755251318216324,0.07426802068948746,-0.04229966551065445,0.08396223187446594,-0.029543083161115646,0.0782608911395073,-0.04834857955574989,0.01956457644701004,-0.10800224542617798,-0.00569993257522583,-0.05116843804717064,0.018298283219337463,-0.05882810428738594,0.04259710758924484,0.07868731021881104,0.025279585272073746,0.020571593195199966,0.085236556828022,0.0031716227531433105,-0.0195736326277256,-0.06303807348012924,0.006372138857841492,-0.03470344468951225,-0.026537949219346046,0.04408237338066101,0.03736725449562073,0.028941212221980095,-0.050488896667957306,0.028813693672418594,-0.06756307929754257,-0.04906228557229042,-0.046664535999298096,-0.046476516872644424,-0.012324673123657703,0.026986204087734222,0.07607454806566238,0.023007545620203018,-0.0017582719447091222,0.03702504187822342,-0.027011821046471596,-0.083336740732193,-0.06657136976718903,0.004357474390417337,-0.04355819523334503,0.025264699012041092,-0.060002028942108154,0.008788920007646084,0.042138610035181046,-0.05993761867284775,-0.0058273072354495525,-0.07990257441997528,0.020409291610121727,0.002165448386222124,-0.057057030498981476,-0.06415585428476334,-0.020568661391735077,0.04273398220539093,0.05249646306037903,0.04991680011153221,-0.042853452265262604,-0.04472259804606438,-0.07321523129940033,0.04636655002832413,0.06898242980241776,0.0014760737540200353,-0.02364216558635235,0.0006439124117605388,-0.03187129646539688,-0.018067792057991028,0.004081824328750372,-0.08291658014059067,-0.0016919051995500922,-0.09980480372905731,-0.03549643233418465,-0.08105386048555374,-0.03194093704223633,0.013909310102462769,0.036027610301971436,-0.04600659757852554,-0.018527770414948463,-0.08214674144983292,-0.014856082387268543,-0.07571118324995041,-0.08372824639081955,0.009470406919717789,-0.05182591453194618,0.046079691499471664,-0.05388803407549858,-0.024573547765612602,-0.056727297604084015,0.022112872451543808,0.04766898974776268,-0.03229174390435219,0.006796885281801224,-0.07883423566818237,-0.05406041070818901,0.025599079206585884,-0.06153662130236626,-0.08931240439414978,-0.04300113767385483,-0.0903872475028038,-0.050528835505247116,0.0367395356297493,-0.01223322656005621,-0.027979668229818344,-0.0723133385181427,-0.08560102432966232,-0.04902749881148338,0.06975175440311432,0.0686085894703865,-0.07230854034423828,0.03837859630584717,0.007057761773467064,0.008106816560029984,-0.005901803728193045,0.051253899931907654,-0.00665704533457756,-0.0946120023727417,0.01446156483143568,-0.04532625898718834,-0.0517597459256649,0.024983614683151245,-0.03504493832588196,-0.04388243332505226,-0.030080048367381096,-0.03366310894489288,0.11432918161153793,-0.02553427778184414,0.046289343386888504,-0.0344068817794323,0.07291279733181,-0.03201597183942795,0.01842903532087803,-0.025922685861587524,-0.13915738463401794,-0.055470582097768784,0.026821797713637352,-0.09666373580694199,0.07389254868030548,-0.035171788185834885,-0.03742386773228645,-0.08052290230989456,-0.034500785171985626,-0.06766385585069656,-0.052034892141819,-0.06152234971523285,-0.02616177313029766,-0.04997806251049042,-0.05441581457853317,-0.04868781939148903,-0.06334618479013443,-0.038934338837862015,0.04064240679144859,0.047166720032691956,0.07519479840993881,0.0037829468492418528,-0.017446525394916534,-0.007532048039138317,0.04773934558033943,0.01019292138516903,-0.09047286212444305,-0.00029626351897604764,-0.04256579279899597,-0.0687374398112297,-0.06174730882048607,-0.015964368358254433,-0.038714926689863205,-0.10715528577566147,0.0569918230175972,-0.02063382975757122,-0.0323968231678009,-0.08590534329414368,0.038813792169094086,-0.026195816695690155,-0.06251079589128494,-0.049411095678806305,-0.034272994846105576,0.014139784500002861,0.06427702307701111,0.03391672670841217,-0.006921287626028061,0.02514861896634102,0.00602588290348649,-0.08359640091657639,-0.057286880910396576,-0.023385891690850258,-0.04352317377924919,0.007822853513062,-0.03861742466688156,0.051895152777433395,0.01794125884771347,0.0594404898583889,-0.018696613609790802,0.013182795606553555,0.0480320118367672,-0.0442110113799572,0.07750173658132553,0.030707979574799538,0.009910820052027702,0.06370752304792404,0.044539924710989,-0.019186586141586304,-0.02067638747394085,-0.06622864305973053,-0.04411209374666214,-0.03325900435447693,0.03758685290813446,-0.0407218337059021,0.07375558465719223,-0.08836503326892853,-0.019333073869347572,-0.005389700643718243,0.04775218293070793,0.09959948807954788,-0.08631625771522522,-0.05926791951060295,0.09750036150217056,-0.018445463851094246,-0.007407213561236858,-0.001176404650323093,0.05990389361977577,-0.04515709728002548,0.00841659028083086,-0.02582251839339733,0.09332465380430222,-0.003377155866473913,0.04303803667426109,-0.05793197825551033,-0.04417051002383232,0.10665707290172577,-0.008395668119192123,0.05202616751194,-0.03564058989286423,0.03489304706454277,0.05921084061264992,0.021989725530147552,0.033190153539180756,-0.020291948691010475,-0.05572661757469177,0.008880573324859142,-0.0025657962542027235,0.03314489871263504,0.07343033701181412,-0.05161205306649208,0.0746016725897789,0.01855107769370079,-0.02904355339705944,-0.0539102777838707,0.02734648808836937,0.014799528755247593,0.06119504198431969,-0.003021027659997344,0.032274987548589706,0.044937796890735626,0.07202478498220444,0.014531188644468784,-0.06288869678974152,-0.042707659304142,-0.014990140683948994,-0.014079689048230648,0.03256194666028023,-0.03482774272561073,0.05514160916209221,-0.08724814653396606,0.05936247110366821,0.03974469378590584,0.05120730400085449,0.07224717736244202,0.03571338206529617,0.02127736620604992,0.05251152440905571,0.07031907886266708,-0.025473935529589653,-0.08709552884101868,-0.012524986639618874,0.024737823754549026,0.08666197210550308,0.08074687421321869,-0.011965503916144371,0.03451348468661308,-0.051151059567928314,-0.020076341927051544,-0.08899582922458649,0.10542252659797668,0.011433670297265053,0.12217490375041962,0.008596139959990978,0.05330861732363701,0.09421821683645248,0.01600869558751583,0.003102096263319254,-0.01503378339111805,0.04185647889971733,0.09510518610477448,0.04702218249440193,0.0038696620613336563,0.009060472249984741,0.03927694633603096,-0.015704890713095665,0.05804656818509102,0.025253180414438248,-0.05989162623882294,-0.02575862966477871,-0.025690415874123573,0.07983793318271637,-0.003638641443103552,-0.0020460691303014755,-0.06487012654542923,0.07092729955911636,0.11686474829912186,-0.040585264563560486,0.08672958612442017,-0.017101041972637177,-0.06656907498836517,0.06580197066068649,-0.0671704038977623,-0.03821947053074837,0.06919867545366287,-0.017113054171204567,0.061809469014406204,0.018872205168008804,0.018912766128778458,-0.07175865769386292,0.09315275400876999,0.033011142164468765,-0.007643525488674641,0.02534356527030468,-0.04145859554409981,0.0792924091219902,-0.05650199577212334,0.09289789199829102,-0.07149965316057205,-0.04430513083934784,-0.04192815348505974,0.06958676129579544,-0.08016916364431381,0.07145427167415619,0.041404955089092255,0.02963387221097946,-0.011514502577483654,-0.006049997638911009,-0.027432570233941078,0.007326178252696991,0.0726449117064476,0.05553073808550835,0.007004075217992067,-0.020412500947713852,0.07316059619188309,-0.04232918471097946,-0.025678882375359535,-0.03564691171050072,0.06738398224115372,-0.057549383491277695,0.07275345176458359,0.013784654438495636,-0.00418713828548789,-0.023147067055106163,0.00031000591116026044,0.020848862826824188,0.01996050775051117,0.009701850824058056,0.024920880794525146,0.007594072725623846,0.014305581338703632,0.07780315726995468,-0.03671318665146828,0.11878456920385361,0.029377389699220657,0.043233148753643036,-0.09281100332736969,0.04376671463251114,0.061550553888082504,-0.018104519695043564,-0.029964188113808632,-0.07733236998319626,0.06384462863206863,-0.07262038439512253,0.0361383818089962,0.030635613948106766,0.08826456218957901,0.0260310061275959,-0.021181702613830566,-0.043885987251996994,0.03416846692562103,0.047639504075050354,-0.034739818423986435,-0.06857084482908249,0.006555524189025164,-0.10883326828479767,-0.06496886909008026,-0.01048768125474453,0.08310676366090775,0.00043336983071640134,-0.0044803740456700325,-0.07348506897687912,0.002106968779116869,-0.020722590386867523,0.07660400867462158,-0.017629152163863182,-0.11410580575466156,-0.06614816188812256,0.061885181814432144,-0.06230080872774124,0.081444151699543,0.07053592801094055,0.026671359315514565,0.08921928703784943,-0.049975089728832245,-0.09420929104089737,0.01962890289723873,-0.05029401183128357,0.03656386584043503,0.06733042001724243,-0.05389546975493431,0.009024074301123619,0.022612445056438446,0.021585889160633087,0.11101290583610535,-0.10898659378290176,0.018335795029997826,-0.06027851998806,-0.09026934206485748,-0.08409983664751053,0.06788105517625809,0.06962644308805466,-0.09188464283943176,0.055727194994688034,-0.0729241594672203,-0.009310679510235786,-0.053746163845062256,-0.060294754803180695,0.057039178907871246,-0.1220964640378952,-0.08031774312257767,0.0009987842058762908,0.09601718932390213,-0.09006307274103165,-0.1161591038107872,-0.06854062527418137,-0.08951684832572937,-0.09542802721261978,-0.02719758450984955,-0.09203877300024033,0.10302527993917465,0.005226025823503733,-0.10207559168338776,0.04417400807142258,-0.07060112804174423,0.041351232677698135,-0.0267473291605711,0.028345497325062752,-0.09592358022928238,-0.07559565454721451,-0.09754998236894608,0.018171390518546104,-0.09025820344686508,-0.02997037209570408,-0.003292180597782135,0.07030043005943298,-0.033416371792554855,-0.11864490061998367,-0.060051437467336655,-0.09928254783153534,-0.01755138486623764,-0.03141271322965622,-0.099100761115551,0.038986239582300186,-0.08535250276327133,0.08596225082874298,0.03949534893035889,0.0529274083673954,-0.05920169875025749,-0.0460619181394577,0.03808899223804474,0.006086413748562336,0.008781863376498222,0.020970791578292847,-0.05403617024421692,-0.04096292331814766,-0.06418320536613464,-0.021520428359508514,0.0699988603591919,-0.05563688278198242,-0.05940758064389229,0.047382012009620667,0.002915672492235899,-0.04974383860826492,-0.03258292004466057,-0.08487004041671753,-0.10881342738866806,0.00032459950307384133,-0.0002795043110381812,0.01561669073998928,-0.01853029988706112,0.03696524351835251,-0.03762340545654297,0.04503173381090164,-0.02998504228889942,0.07819708436727524,0.043456386774778366,0.013720766641199589,-0.09405185282230377,0.03227628022432327,0.1189013123512268,-0.05050402134656906,-0.10697261989116669,0.07649558037519455,-0.0673145204782486,-0.04470173642039299,-0.026749061420559883,0.002647613175213337,0.025991439819335938,0.0536823570728302,0.09382738918066025,0.0013128876453265548,0.02002800442278385,0.015431523323059082,0.026859773322939873,0.05109017342329025,0.00342454737983644,0.032233111560344696,-0.010952345095574856,-0.002463293494656682,0.07856674492359161,-0.06999307870864868,-0.021176133304834366,0.02561209723353386,-0.05116363987326622,-0.008886999450623989,0.03309226408600807,0.028241459280252457,0.014920488931238651,0.054410070180892944,-0.03645284101366997,0.042502179741859436,-0.04183967038989067,0.04316709563136101,0.07214699685573578,0.07308510690927505,0.03683178126811981,0.019644642248749733,0.026416946202516556,0.02759193442761898,9.541985491523519e-05,-0.008121378719806671,0.003878472838550806,-0.0796436071395874,0.026752231642603874,0.08481624722480774,0.09851778298616409,0.005350757855921984,0.010166089981794357,0.03814251348376274,0.090238057076931,0.040529146790504456,0.033221978694200516,0.07806044816970825,0.08144199103116989,-0.08530823141336441,-0.014892792329192162,-0.0516006201505661,0.01419136393815279,-0.06923916935920715,-0.011369858868420124,-0.06733231246471405,-0.01575356349349022,0.052768342196941376,0.03323860466480255,0.007266771513968706,-0.0052316621877253056,0.05227908119559288,0.00044577030348591506,-0.0427086167037487,0.06516341865062714,0.07772886753082275,-0.10840725153684616,0.052857186645269394,-0.06447293609380722,-0.026657313108444214,-0.006207187194377184,0.016824625432491302,-0.07521003484725952,-0.11289793998003006,0.07451936602592468,-0.09519121050834656,0.010459243319928646,0.022579697892069817,0.07667442411184311,0.015163132920861244,-0.04332970455288887,-0.026106011122465134,-0.0013421605108305812,-0.045413561165332794,0.011062994599342346,0.0009247044799849391,-0.06060423702001572,0.058179691433906555,0.018721362575888634,0.003982464782893658,0.007760259322822094,-0.03140047565102577,-0.000841984641738236,0.018960434943437576,-0.03790983930230141,0.04584803804755211,0.034686699509620667,-0.05054372921586037,-0.06950411945581436,0.08405241370201111,0.042323727160692215,-0.09304258227348328,0.02432064525783062,-0.08045459538698196,0.0018315970664843917,-0.07658648490905762,-0.04368126019835472,-0.0632600486278534,0.11270301043987274,0.07992012798786163,0.08352139592170715,0.053922105580568314,0.09782900661230087,-0.08159064501523972,0.062056295573711395,0.02372458390891552,-0.0031255315989255905,-0.03609452024102211,0.08171570301055908,0.041368864476680756,-0.11183151602745056,0.06823758035898209,0.035420045256614685,0.03823036700487137,-0.11507980525493622,0.08736127614974976,-0.101563960313797,-0.07562799006700516,0.07659456878900528,-0.033893097192049026,-0.007052555214613676,0.05959682539105415,-0.03868340700864792,0.04594748839735985,-0.0028033098205924034,-0.052814945578575134,0.04937900975346565,-0.06806720793247223,0.04812298342585564,0.045126158744096756,-0.031134648248553276,-0.0157836452126503,0.06495487689971924,-0.08507999032735825,0.0358956903219223,-0.01876809075474739,-0.08859623223543167,0.017485063523054123,0.00487174279987812,0.10344521701335907,0.057344209402799606,0.06766333431005478,0.023060385137796402,0.028298212215304375,-0.07655506581068039,0.007176907267421484,0.10064545273780823,0.05077563598752022,-0.0351799912750721,-0.02795480750501156,-0.049328405410051346,-0.044035088270902634,-0.0641385093331337,-0.012998083606362343,0.06210452690720558,-0.050594717264175415,-0.05351843312382698,0.07539492845535278,0.061976466327905655,-0.04261075332760811,-0.07993485778570175,0.055058110505342484,0.055048368871212006,-0.02945275977253914,0.04568665474653244,-0.011457322165369987,0.06438855826854706,-0.017087744548916817,0.008077125065028667,-0.0008733709109947085,0.03906389698386192,-0.05086006596684456,0.020237620919942856,-0.10585560649633408,-0.10641851276159286,0.057027678936719894,-0.06256748735904694,-0.05845752730965614,0.030076058581471443,-0.001008415943942964,0.04213578626513481,-0.10268734395503998,0.07959350943565369,0.013921813108026981,-0.10859034210443497,0.07180889695882797,-0.09431180357933044,-0.0033707746770232916,-0.09498146176338196,0.007238131947815418,-0.10526534914970398,-0.05175233259797096,-0.051986247301101685,-0.04743950814008713,-0.10720962285995483,0.00921118538826704,0.015237930230796337,-0.09807248413562775,-0.022112945094704628,0.02786789834499359,-0.03773195669054985,-0.014338379725813866,-0.06948129087686539,0.00528565002605319,0.03731009364128113,0.09205861389636993,0.03570141643285751,0.03360312432050705,-0.007349079474806786,0.0036162741016596556,0.05826861783862114,-0.11305737495422363,0.0689961388707161,0.08253414183855057,-0.08152583241462708,-0.08558785915374756,-0.0986735001206398,0.036217138171195984,0.10100046545267105,-0.03312696889042854,0.03116415999829769,-0.02690105512738228,0.03759760037064552,-0.10525976866483688,0.009107161313295364,-0.0952117070555687,0.09217632561922073,0.07687303423881531,0.04520994424819946,-0.0002189933875342831,0.014392663724720478,-0.017529534175992012,-0.02719907835125923,-0.0078123933635652065,0.0637354701757431,-0.03241200000047684,0.027366096153855324,-0.014182333834469318,0.012785857543349266,-0.04614860936999321,0.09030096232891083,0.015736686065793037,0.04707236588001251,0.007999141700565815,-0.026695329695940018,-0.040473077446222305,0.07234208285808563,0.046067580580711365,0.03221757709980011,0.03786264359951019,0.09009324014186859,0.04551186412572861,0.012536889873445034,0.03677285835146904,0.024391846731305122,0.011300811544060707,0.013092591427266598,-0.054973650723695755,-0.032364968210458755,-0.003704336704686284,0.07796359807252884,0.05295243859291077,0.04270925000309944,0.08101923763751984,-0.03854113072156906,-0.03512278571724892,0.022857854142785072,-0.0015042450977489352,-0.026769082993268967,0.06224251165986061,0.02358184941112995,0.012548001483082771,0.04027026519179344,-0.05367283523082733,0.09729121625423431,0.04343666136264801,0.045025795698165894,-0.04696589335799217,0.053487956523895264,-0.030194798484444618,0.06486375629901886,-0.04942421615123749,0.023852741345763206,0.031771522015333176,0.03665933758020401,0.03713488206267357,0.02166212722659111,0.03959602117538452,-0.027869997546076775,0.04554014652967453,-0.0520329475402832,0.030401812866330147,-0.008043087087571621,0.06949413567781448,0.061116475611925125,-0.0357905849814415,0.03763017803430557,-0.05986371636390686,0.06567759066820145,0.06816518306732178,0.052975140511989594,-0.06473125517368317,0.021277349442243576,-0.01891324482858181,0.10392358899116516,0.08630743622779846,0.05469479411840439,0.08501765131950378,0.0443124920129776,-0.06405633687973022,0.040068939328193665,0.09256070107221603,0.03202463686466217,-0.0392245389521122,-0.05358966067433357,0.031904738396406174,0.046228714287281036,0.05748458951711655,-0.06400743126869202,-0.07466018944978714,0.08691582083702087,0.012713341973721981,0.010557674802839756,0.054493408650159836,-0.004240432754158974,0.059150420129299164,0.020576247945427895,0.011890965513885021,0.004714976996183395,0.04806771129369736,-0.03388276696205139,0.072161003947258,0.02221514843404293,0.02056165039539337,0.031776368618011475,-0.040326669812202454,0.0669892430305481,-0.013162401504814625,0.03578449413180351,0.02472761459648609,0.029438070952892303,0.0973254144191742,-0.06411948055028915,-0.002701452001929283,0.03908688575029373,0.03238353133201599,0.07697009295225143,-0.04121469333767891,0.03247995302081108,-0.005319036077708006,0.039027247577905655,-0.007988895289599895,0.007307954132556915,-0.013129404745995998,-0.012802159413695335,-0.03220509737730026,0.05169493332505226,-0.02146303839981556,0.0888928472995758,-0.06119893118739128,-0.04155951365828514,-0.04261567071080208,-0.007099932990968227,-0.06171262636780739,0.007248674985021353,-0.09286989271640778,-0.029521653428673744,0.04305974766612053,-0.009492411278188229,0.02373378910124302,-0.07454753667116165,-0.003921366762369871,-0.02463572658598423,-0.03993816301226616,-0.08086713403463364,-0.017074372619390488,-0.03393404185771942,-0.0717480257153511,0.09067577123641968,-0.053808558732271194,0.009438618086278439,-0.03543258085846901,0.014668970368802547,0.05571113899350166,0.04985509812831879,-0.01844792626798153,0.042237039655447006,0.05855106562376022,-0.021006541326642036,0.04701441898941994,-0.0004145904094912112,-0.018497411161661148,-0.0025859526358544827,-0.05005522444844246,-0.022097593173384666,-0.038558900356292725,0.07555349916219711,0.011099564842879772,0.04359802231192589,0.033545516431331635,0.0008131682989187539,0.044200897216796875,-0.002424958162009716,-0.04539431631565094,-0.020076921209692955,0.07159195840358734,-0.022502105683088303,0.022806324064731598,0.023692427203059196,-0.032426755875349045,-0.05253145843744278,-0.022728100419044495,0.07165319472551346,0.05584317445755005,-0.09234443306922913,-0.00017518475942779332,0.09227186441421509,0.025868672877550125,-0.045840390026569366,-0.1140555813908577,0.055562492460012436,0.02175162360072136,-0.008503689430654049,-0.009276174940168858,0.008824873715639114,0.0014705416979268193,-0.011791379190981388,0.015852754935622215,0.04051337018609047,-0.01876184344291687,-0.052482970058918,-0.014232233166694641,0.028033943846821785,-0.07391796261072159,-0.011967572383582592,-0.02664528414607048,-0.043041955679655075,0.008379741571843624,0.02202797494828701,-0.09024760127067566,-0.05467597767710686,-0.04901638627052307,0.06176561862230301,-0.02179337851703167,0.015493818558752537,0.04622383788228035,-0.014124324545264244,-0.03431463986635208,-0.10042530298233032,0.02619851939380169,0.1034054234623909,0.06211207062005997,0.06676886230707169,0.036878619343042374,-0.03360292688012123,-0.014117575250566006,-0.07679562270641327,0.033687084913253784,0.02251696027815342,-0.06348156929016113,0.003216906450688839,-0.08223789185285568,-0.06760822236537933,-0.029581379145383835,0.022708887234330177,0.0009207473485730588,-0.09932220727205276,0.03421265631914139,-0.05618806928396225,0.01079484447836876,0.06055141240358353,0.06811270117759705,0.06966588646173477,0.04206857085227966,0.014091039076447487,-0.05649062618613243,-0.09767725318670273,0.040205974131822586,0.06541943550109863,-0.025009403005242348,-0.029707686975598335,0.05771350488066673,0.06878572702407837,-0.06190948560833931,-0.027520515024662018,0.0033305964898318052,0.05264321714639664,-0.07136789709329605,-0.04701969772577286,0.07231562584638596,-0.08820578455924988,0.09856292605400085,0.01179600227624178,-0.06847570836544037,-0.03835504874587059,0.03425141051411629,-0.025098351761698723,0.04489840567111969,0.048427026718854904,-0.07900487631559372,-0.05509939044713974,0.05483951047062874,0.06820418685674667,0.027525952085852623,0.06276252120733261,-0.002221929607912898,0.006558334920555353,0.04131721332669258,0.02001434564590454,0.07761214673519135,-0.002064351923763752,-0.05325666069984436,-0.06746087968349457,-0.10424742102622986,-0.03315535560250282,0.05072465538978577,-0.03576890006661415,-0.007907885126769543,-0.0902484804391861,0.06575515866279602,0.020234862342476845,0.028124326840043068,-0.05270382761955261,-0.027779050171375275,-0.08159816265106201,0.04946095123887062,-0.016683517023921013,-0.09941241145133972,-0.09865068644285202,-0.07377786189317703,0.014782381244003773,-0.06261228024959564,-0.02238795906305313,-0.08856978267431259,-0.014289106242358685,-0.07012595236301422,-0.10890477150678635,0.07332758605480194,0.05697282403707504,-0.0018041088478639722,-0.08929283916950226,-0.028840171173214912,-0.0252199899405241,-0.07120904326438904,-0.09827057272195816,-0.04249460995197296,0.023707732558250427,-0.03763696178793907,0.0032223486341536045,0.06155441328883171,-0.08446817100048065,-0.08937998116016388,-0.04866335168480873,-0.03634834289550781,0.09997058659791946,-0.0318748913705349,0.052093032747507095,-0.046041861176490784,-0.023471029475331306,-0.05236383154988289,-0.08105330914258957,0.034844834357500076,0.060769882053136826,0.06441071629524231,-0.07125508040189743,-0.026127193123102188,-0.056104980409145355,0.0653541162610054,-0.007727883290499449,-0.1088513657450676,-0.06716189533472061,-0.05528213083744049,-0.08679874986410141,0.015540674328804016,0.008970475755631924,-0.02915550023317337,0.07158411294221878,0.01062008086591959,-0.03859175369143486,0.04274876415729523,-0.038073379546403885,-0.06799206137657166,-0.09743405878543854,0.04358108341693878,-0.07270298898220062,-0.03666466102004051,-0.07358772307634354,0.023713771253824234,0.08082525432109833,-0.03335403650999069,-0.07045277953147888,-0.007226278074085712,0.08194092661142349,-0.06762246787548065,0.05707918480038643,-0.08533422648906708,0.05381429195404053,0.03206736221909523,0.04360209405422211,-0.0656076967716217,0.021991916000843048,0.05357778072357178,0.014256163500249386,0.008158933371305466,-0.0720171332359314,-0.028127700090408325,-0.0572471022605896,0.0029315301217138767,-0.1160142570734024,-0.05405091866850853,-0.012149093672633171,-0.08231156319379807,-0.053032632917165756,0.056535106152296066,0.013416098430752754,0.03603086248040199
