0.15070608258247375,0.06929224729537964,0.01995103433728218,0.21363000571727753,-0.09901387244462967,0.12547491490840912,-0.013712659478187561,0.026716474443674088,0.1940324306488037,0.003392172744497657,-0.0654248520731926,-0.021646400913596153,-0.0410679429769516,-0.21574054658412933,0.13561999797821045,0.1076449602842331,-0.03865998610854149,-0.0009289487497881055,0.017739728093147278,0.08181890845298767,-0.1637592911720276,0.08445420861244202,-0.014821672812104225,7.193728379206732e-05,-0.02308645471930504,0.0839340016245842,-0.010844850912690163,-0.06421469897031784,-0.07277136296033859,0.23180581629276276,-0.12698951363563538,0.046669937670230865,0.12516650557518005,-0.09654615074396133,0.10787329822778702,0.1011129692196846,0.0567198283970356,-0.3612355589866638,0.030585354194045067,-0.08347121626138687,-0.11169454455375671,0.020466066896915436,0.017722005024552345,-0.0411042720079422,0.07866398245096207,0.028235284611582756,-0.12400670349597931,-0.1390271633863449,0.058264199644327164,0.03226683661341667,0.13894148170948029,0.029445165768265724,0.14318162202835083,0.14171388745307922,-0.21119514107704163,-0.19621452689170837,0.010260696522891521,-0.019534094259142876,-0.0016448380192741752,0.14337290823459625,0.11981979757547379,0.04144705459475517,0.12931784987449646,-0.19136126339435577,0.03404548391699791,0.14395348727703094,0.06973715871572495,0.024857331067323685,0.007653321139514446,0.026265360414981842,0.03971124440431595,-0.023023255169391632,0.05579357221722603,-0.022685719653964043,0.06753743439912796,-0.0035805748775601387,0.155217245221138,0.06181737780570984,0.10759090632200241,0.036381594836711884,0.04208313673734665,0.2111387401819229,0.24497824907302856,0.12095395475625992,0.17996536195278168,-0.10122806578874588,-0.08991967141628265,-0.04264134168624878,-0.07330860197544098,0.08941507339477539,-0.11872103810310364,-0.01056470163166523,-0.028564320877194405,-0.19648951292037964,-0.16900543868541718,0.2893737554550171,0.08588245511054993,0.14037784934043884,0.1274697184562683,-0.030636366456747055,0.03162180259823799,0.030622372403740883,0.16815327107906342,-0.11517465114593506,-0.2028263360261917,-0.06294741481542587,-0.019016221165657043,-0.03781468793749809,-0.1445707529783249,-0.09658573567867279,0.1991610825061798,0.08278093487024307,-0.13583733141422272,-0.17482520639896393,-0.150968998670578,-0.16307680308818817,0.11954158544540405,0.07324939966201782,0.04438875615596771,-0.20635218918323517,0.1893097162246704,-0.048875968903303146,0.14018219709396362,0.16698965430259705,0.04748108983039856,-0.025226391851902008,-0.08253055810928345,0.13033127784729004,-0.06291253119707108,0.09073691070079803,-0.13008445501327515,0.2269960194826126,0.12361869215965271,-0.07080363482236862,0.08581850677728653,0.1608792543411255,-0.040679752826690674,-0.048801254481077194,0.21293029189109802,-0.03608384355902672,0.02568766660988331,-0.18044692277908325,0.0030360736418515444,-0.07812435925006866,-0.14300693571567535,0.048184800893068314,0.2262747436761856,0.010582279413938522,-0.06475282460451126,-0.043559055775403976,-0.08244072645902634,-0.03589090704917908,-0.20149116218090057,-0.019558893516659737,-0.09762491285800934,0.11349434405565262,0.009180763736367226,0.03824007511138916,0.10347788780927658,0.14884375035762787,0.1059374213218689,0.1523342728614807,-0.2252013385295868,0.04613388702273369,0.07811984419822693,-0.0494907908141613,-0.14513570070266724,-0.011578553356230259,-0.1551418900489807,-0.09033851325511932,-0.20203138887882233,0.08876863121986389,-0.11304666846990585,-0.085544154047966,0.023560481145977974,-0.03342423215508461,-0.10810928791761398,-0.05656056851148605,-0.08909760415554047,-0.04919056221842766,0.04634273052215576,0.15389706194400787,-0.12719795107841492,-0.06809702515602112,0.17544575035572052,-0.13663657009601593,0.07761655002832413,0.16270668804645538,-0.09417508542537689,-0.07438238710165024,0.13563843071460724,0.1567724645137787,0.09915215522050858,-0.06486682593822479,-0.07891840487718582,0.21802079677581787,0.3380362093448639,-0.06517539918422699,0.030089782550930977,-0.015169772319495678,0.062197837978601456,-0.1797163188457489,0.016562318429350853,0.052427198737859726,0.07309648394584656,-0.06235583871603012,0.07676475495100021,-0.06678395718336105,0.026272742077708244,-0.1505902260541916,-0.18439608812332153,0.06115037947893143,0.12849052250385284,0.0003484622575342655,-0.06745244562625885,0.2156323492527008,0.127434641122818,0.02202870510518551,-0.21423952281475067,-0.07506416738033295,-0.19038701057434082,-0.04116574674844742,-0.05080075189471245,-0.059919729828834534,-0.07298070192337036,-0.054423559457063675,0.16054309904575348,0.13611245155334473,0.1608027219772339,0.12983845174312592,0.023250458762049675,0.027682669460773468,-0.0774257481098175,0.06851731985807419,-0.03437138348817825,0.11960311233997345,0.22295770049095154,0.18568365275859833,0.0627884641289711,0.27706170082092285,-0.0005867991130799055,0.12051509320735931,-0.1548326015472412,-0.1589217334985733,-0.052415698766708374,0.14063453674316406,0.35503125190734863,0.09705305099487305,-0.0011142086004838347,-0.01343927625566721,-0.15030482411384583,-0.19850945472717285,-0.11123523861169815,-0.03644777461886406,0.23335017263889313,-0.156168594956398,-0.019487658515572548,0.04964025318622589,0.0775655210018158,-0.10027924180030823,-0.1604134887456894,-0.14424444735050201,0.12096070498228073,0.049837056547403336,0.07339978963136673,-0.03759077191352844,0.18174034357070923,-0.022859137505292892,-0.0023390373680740595,0.2396966516971588,0.04620331898331642,0.023131107911467552,-0.0009488110663369298,0.1936706155538559,0.13181143999099731,0.08671484142541885,-0.04230523854494095,0.19084160029888153,-0.09809187799692154,-0.04583728685975075,-0.09849005192518234,-0.2166184037923813,0.13860371708869934,0.12586693465709686,-0.06097950041294098,-0.12702174484729767,0.2454531043767929,0.19371798634529114,0.2660404443740845,0.13487447798252106,-0.26502594351768494,0.06253854930400848,0.1941457986831665,-0.36422818899154663,-0.3029330372810364,-0.009451420977711678,0.010378919541835785,0.019603442400693893,0.08104759454727173,0.059862732887268066,-0.3428290784358978,-0.1342112421989441,0.02537533827126026,-0.319770872592926,0.04492836445569992,-0.2235388308763504,0.336103618144989,0.15020671486854553,0.23614418506622314,0.10978216677904129,-0.21740469336509705,0.004485628101974726,0.014102496206760406,0.3820974826812744,-0.0295509472489357,-0.04321187362074852,-0.02949708327651024,0.12525872886180878,0.07712943106889725,-0.03674491494894028,-0.2834036946296692,-0.08770550042390823,-0.17747700214385986,-0.2982633113861084,-0.21226125955581665,-0.2950749695301056,0.0820595920085907,-0.014440372586250305,0.032929904758930206,-0.04859901964664459,-0.0019878544844686985,0.19070589542388916,0.11034604907035828,0.18217484652996063,0.06799246370792389,0.15827977657318115,-0.09206613153219223,-0.20002566277980804,0.0917406678199768,-0.026212630793452263,0.07590385526418686,0.03205770626664162,0.23290704190731049,0.23168127238750458,0.05354752019047737,0.09511152654886246,0.0011214056285098195,0.14154867827892303,0.057277027517557144,0.1027698740363121,-0.28115981817245483,-0.2362232655286789,0.0603325180709362,-0.13368193805217743,0.1223168596625328,-0.15327239036560059,-0.3862283229827881,-0.0587163008749485,-0.059927042573690414,0.2142578810453415,0.124272421002388,-0.40148937702178955,0.24917341768741608,-0.06907577812671661,-0.1067613959312439,-0.017527993768453598,-0.030576668679714203,-0.10787849128246307,-0.15507671236991882,-0.2021663635969162,-0.3234732151031494,-0.2730298340320587,-0.047184091061353683,-0.3272259533405304,-0.11189476400613785,-0.20679408311843872,-0.0514400377869606,0.21638762950897217,0.18842722475528717,0.00930545199662447,-0.14456824958324432,0.23467202484607697,-0.3701898157596588,0.060947634279727936,0.08858457207679749,0.17928944528102875,0.14806126058101654,-0.40043941140174866,0.01479338202625513,-0.2158624678850174,0.010085184127092361,-0.1442880481481552,0.4218326210975647,-0.0159078910946846,0.263227254152298,-0.23906970024108887,-0.10162220150232315,0.36403369903564453,-0.03696933388710022,0.010292625986039639,0.073553666472435,0.036836862564086914,-0.18473878502845764,0.12464763224124908,0.2990095913410187,0.005483514163643122,-0.17694556713104248,-0.1705079972743988,0.14480678737163544,-0.10195479542016983,-0.13277296721935272,0.11590784043073654,0.04537396878004074,-0.13658510148525238,-0.1740202009677887,0.1226864606142044,-0.010799654759466648,-0.122676782310009,-0.07275869697332382,-0.2335018813610077,-0.2775128483772278,0.04793712496757507,0.024942820891737938,0.41197875142097473,0.018146194517612457,-0.05606839060783386,-0.253423273563385,-0.02876400202512741,-0.06202853098511696,-0.050059616565704346,0.05018508434295654,-0.23990975320339203,0.17655670642852783,-0.11227517575025558,0.05962292104959488,0.004043827764689922,-0.2004128396511078,-0.09381243586540222,0.07248063385486603,0.1383984535932541,-0.12497236579656601,0.22559428215026855,-0.17231965065002441,-0.16940049827098846,-0.10292288661003113,0.06537534296512604,0.30533933639526367,0.021342268213629723,-0.3182300627231598,-0.054202694445848465,-0.12542514503002167,-0.07023893296718597,0.04111521318554878,0.17377692461013794,-0.05621584504842758,-0.0645575001835823,0.024524293839931488,-0.04034118354320526,-0.0971885472536087,0.0868738666176796,0.10608363896608353,0.06074889376759529,0.17988117039203644,-0.06317324191331863,0.14659835398197174,0.2382027506828308,0.11485332250595093,0.0413983054459095,-0.049142803996801376,0.23143784701824188,-0.13969284296035767,0.04793241247534752,0.1521340161561966,0.010376754216849804,-0.049143530428409576,0.12777382135391235,0.16467389464378357,-0.060625169426202774,-0.21055170893669128,-0.052059754729270935,-0.02913493849337101,-0.023800591006875038,-0.07955742627382278,0.12483333051204681,-0.018506014719605446,0.1380557417869568,0.07304762303829193,0.1717677265405655,0.1573588103055954,0.05660780146718025,-0.0038615241646766663,0.1508374959230423,-0.09536707401275635,-0.1057291105389595,-0.026512790471315384,-0.07089745253324509,0.08752486854791641,0.06745755672454834,0.0203058160841465,0.006980151869356632,-0.10465271025896072,0.0752047747373581,-0.2112508863210678,-0.04834963008761406,-0.14030741155147552,-0.06285753846168518,0.022040337324142456,0.07376024127006531,-0.2172623872756958,0.15151162445545197,0.14663486182689667,0.0978616327047348,0.019552499055862427,0.013485714793205261,-0.022065503522753716,-0.023049231618642807,-0.11589894443750381,0.03267645463347435,0.13596467673778534,0.005022748373448849,0.194803386926651,-0.04147113859653473,0.011696640402078629,0.04164223000407219,0.06492038071155548,0.03584643453359604,-0.01906341128051281,-0.15801450610160828,-0.15786811709403992,-0.01142937783151865,0.0664176270365715,-0.13115040957927704,-0.1322493851184845,0.14636854827404022,-0.14165110886096954,-0.19640658795833588,0.044633179903030396,0.1336120367050171,0.1839057356119156,0.05824457108974457,0.03127020224928856,0.05061079561710358,0.004465447273105383,0.046419356018304825,-0.09739486873149872,0.0339791364967823,-0.07086649537086487,0.12988905608654022,0.10229506343603134,0.08585426211357117,-0.12165996432304382,0.015332799404859543,-0.18777266144752502,-0.08957876265048981,-0.03838910534977913,0.030550919473171234,0.03626110404729843,-0.0433724969625473,0.11784721910953522,-0.15749239921569824,-0.18066832423210144,-0.049572426825761795,-0.33650681376457214,0.07716947793960571,0.002269066870212555,0.035961929708719254,0.007273570168763399,-0.03791170194745064,-0.14304082095623016,0.1321258544921875,0.15237626433372498,-0.004308796022087336,-0.038159146904945374,-0.03291483595967293,0.050173480063676834,0.21209309995174408,0.0072388057596981525,-0.061815645545721054,-0.018628638237714767,-0.00046099003520794213,0.12727226316928864,-0.1355872005224228,0.06066659092903137,0.05356612056493759,0.1105225533246994,0.017443621531128883,-0.060674455016851425,0.03275584802031517,-0.01570485532283783,-0.09224294126033783,0.060029394924640656,0.11491121351718903,0.004858580883592367,0.05866628140211105,-0.23599275946617126,-0.2146657556295395,-0.10541854798793793,-0.08891864866018295,-0.12898361682891846,-0.04418986663222313,-0.13316504657268524,0.1566779762506485,-0.23744036257266998,-0.057199545204639435,-0.0839894488453865,-0.0981835126876831,-0.026585737243294716,0.05160802602767944,-0.08111760020256042,-0.20032356679439545,-0.20190167427062988,0.005466981790959835,0.006830351427197456,-0.06833789497613907,0.07459291815757751,-0.20520161092281342,-0.11752030998468399,-0.03204222023487091,-0.006684768479317427,-0.13822101056575775,0.00394859816879034,-0.1542668640613556,-0.002386345062404871,0.0356275700032711,-0.1947677880525589,0.01989457942545414,0.12187068164348602,-0.26109758019447327,-0.07086402177810669,-0.013692772947251797,-0.07076367735862732,0.10432838648557663,-0.11376651376485825,0.1543024480342865,-0.21224696934223175,-0.15862610936164856,-0.17558957636356354,0.13744257390499115,0.02225395105779171,0.06485316157341003,-0.0640939474105835,0.011319136247038841,0.1605522185564041,-0.15641340613365173,-0.06755498796701431,0.016382554545998573,0.05366353318095207,0.07843200862407684,0.16402241587638855,-0.0014732214622199535,-0.07480405271053314,0.07775404304265976,0.041687220335006714,0.09190315008163452,0.11376141011714935,0.050207220017910004,-0.1415547877550125,0.03138066083192825,-0.08897505700588226,-0.058218613266944885,0.05120355263352394,-0.018246285617351532,-0.1210419312119484,0.08017614483833313,0.005096759647130966,-0.16019105911254883,0.11669333279132843,-0.016235632821917534,-8.185178739950061e-05,0.15416644513607025,-0.008855685591697693,-0.22188833355903625,0.1522655189037323,0.04980297386646271,-0.020854756236076355,-0.2385103553533554,0.09672906994819641,0.08511722087860107,0.11596844345331192,-0.08589935302734375,-0.056848153471946716,-0.037827279418706894,-0.013140742667019367,-0.0427943654358387,-0.0014183984603732824,0.03223311901092529,-0.060051243752241135,0.1538575291633606,0.07275613397359848,0.030254444107413292,-0.05063386633992195,-0.25206610560417175,-0.17182877659797668,-0.012622810900211334,-0.030833154916763306,-0.10808832198381424,-0.05697760730981827,0.07889658212661743,0.21274645626544952,0.10477101802825928,0.08185277134180069,-0.06533117592334747,0.06741858273744583,0.053965359926223755,-0.07419022917747498,0.2516380250453949,0.0697941854596138,-0.05769999325275421,-0.03129928186535835,0.003088322700932622,-0.09542261809110641,0.024217259138822556,-0.052305374294519424,0.09094515442848206,0.05979388579726219,0.08781946450471878,0.031824011355638504,0.03732438385486603,0.16070684790611267,0.2301647812128067,0.033211369067430496,-0.1452282816171646,-0.017822302877902985,-0.04465557634830475,0.022482803091406822,0.08672188222408295,0.3083823025226593,-0.09324241429567337,-0.06815428286790848,0.02367153763771057,-0.0005413398030214012,0.062269169837236404,-0.15964874625205994,-0.1736622303724289,0.01125832088291645,0.031301166862249374,-0.013885542750358582,-0.008952531963586807,-0.0578472837805748,-0.020778104662895203,-0.015619558282196522,0.024303318932652473,0.1705779880285263,-0.107572540640831,0.12192691117525101,0.17025034129619598,-0.02280653454363346,-0.030703794211149216,-0.02878941223025322,-0.10840101540088654,-0.05513094365596771,0.005016220733523369,-0.07864464819431305,-0.10891462117433548,-0.07122749835252762,0.08653781563043594,-0.0649193525314331,-0.0802847370505333,-0.07489743828773499,-0.018405135720968246,-0.09223193675279617,0.02262660674750805,-0.2218199372291565,0.23683325946331024,0.07647768408060074,-0.18956094980239868,-0.1869278997182846,0.20732906460762024,0.0339922271668911,0.0369398333132267,0.029630711302161217,-0.12585747241973877,0.045529820024967194,0.0706876590847969,0.27326685190200806,-0.2711387872695923,0.03070499561727047,-0.19118019938468933,-0.07824745029211044,0.14627398550510406,-0.037278108298778534,-0.05287032201886177,-0.0415358729660511,0.11560782790184021,0.00991752278059721,0.0010223122080788016,-0.14023905992507935,0.0009909436339512467,0.1776793748140335,0.21836857497692108,0.1689816117286682,0.019805707037448883,0.020949942991137505,0.09018991142511368,0.06358517706394196,0.09749123454093933,-0.12743830680847168,0.169001966714859,0.15611933171749115,0.15825550258159637,0.042671963572502136,0.05798284709453583,0.1585259735584259,0.039262354373931885,0.027701077982783318,-0.1473950445652008,0.01958048902451992,0.23196692764759064,-0.06014246866106987,-0.03471147641539574,0.04188661277294159,-0.11079633980989456,0.042300693690776825,-0.2010611891746521,0.09236015379428864,-0.13028603792190552,-0.06039299815893173,0.013011286966502666,-0.04030168429017067,0.07978374511003494,0.008148979395627975,-0.15561209619045258,0.24025923013687134,0.04836209863424301,-0.28835299611091614,0.06113389506936073,0.16181348264217377,-0.059620220214128494,0.11613002419471741,-0.24514959752559662,0.10717722028493881,0.014809551648795605,-0.027129853144288063,0.06892522424459457,0.032102230936288834,0.06809526681900024,-0.05667019262909889,-0.0815085768699646,0.15820544958114624,-0.1106083020567894,0.006351784337311983,-0.1778905689716339,0.034540656954050064,0.24420101940631866,0.19183926284313202,0.04301230236887932,-0.2343456745147705,0.0047960346564650536,0.011778348125517368,0.015170350670814514,-0.0011158437700942159,-0.009027574211359024,0.029710769653320312,0.17849045991897583,-0.08579046279191971,-0.03213732689619064,-0.026811646297574043,0.09344800561666489,0.13078586757183075,0.19843916594982147,0.009030326269567013,-0.06598398089408875,-0.007147691212594509,-0.10143997520208359,-0.1179504469037056,-0.06249532476067543,-0.046198345720767975,-0.12089540809392929,0.0686074048280716,0.12879282236099243,-0.03727811947464943,-0.04466009885072708,0.0906996950507164,-0.2543131709098816,-0.051223788410425186,0.05461041256785393,-0.1399046927690506,0.2096242904663086,-0.02253098599612713,-0.05339914932847023,-0.12509262561798096,0.010373421013355255,0.02690497599542141,-0.33842313289642334,-0.007875863462686539,0.08573722839355469,-0.046821653842926025,-0.25576251745224,0.09683462977409363,-0.10216333717107773,-0.18382921814918518,-0.09999779611825943,-0.04870540276169777,-0.18465249240398407,0.0033715299796313047,0.2887756824493408,-0.03842476010322571,0.10556164383888245,0.13946156203746796,0.01609611324965954,-0.0399833582341671,0.2549622654914856,-0.5234085917472839,-0.6036719083786011,-0.26797711849212646,-0.031298935413360596,0.030633194372057915,-0.3237086236476898,0.2455160766839981,0.08560313284397125,0.04368670657277107,-0.09820359945297241,-0.3196859657764435,-0.35582444071769714,-0.4868446886539459,0.059724703431129456,-0.09964487701654434,-0.2569875717163086,0.047061800956726074,0.0056482767686247826,-0.013141950592398643,-0.21229210495948792,-0.050237249583005905,0.16534776985645294,-0.3687724173069,0.04589586704969406,-0.23055189847946167,-0.01240671705454588,-0.003944204188883305,0.1743898093700409,-0.24471953511238098,0.03200701251626015,0.12746019661426544,0.08768962323665619,-0.2541433274745941,0.26981139183044434,-0.06007443368434906,0.07808643579483032,0.028340470045804977,0.2961934804916382,-0.026072151958942413,0.1627657562494278,-0.18912369012832642,-0.3729378879070282,0.3858746886253357,-0.037354182451963425,0.42452120780944824,0.1454618275165558,0.5223510265350342,-0.23769478499889374,-0.16764426231384277,-0.030563635751605034,-0.017453309148550034,0.40576982498168945,0.22459158301353455,-0.3329617977142334,0.40268775820732117,-0.32252249121665955,-0.2659609615802765,0.05236043408513069,0.46540582180023193,-0.05037746578454971,0.03234785422682762,-0.07665113359689713,-0.17209188640117645,0.17816630005836487,0.029472021386027336,-0.03522754833102226,0.07473739236593246,-0.2594943642616272,0.0015546290669590235,0.21167798340320587,-0.08473819494247437,-0.05599379539489746,-0.17034751176834106,0.11291444301605225,-0.41524168848991394,0.03387678414583206,0.10968555510044098,0.13738541305065155,-0.21351738274097443,0.1667942851781845,0.22336216270923615,0.1570219248533249,0.1513943374156952,0.19250155985355377,-0.24952076375484467,-0.15389028191566467,-0.22059515118598938,-0.31096869707107544,0.12982837855815887,0.3538278639316559,-0.4183114469051361,0.1201799064874649,0.27971118688583374,0.1041417047381401,-0.19994968175888062,0.09797413647174835,-0.1808752566576004,-0.22809115052223206,0.27201658487319946,0.03905972093343735,-0.05812747776508331,0.38522398471832275,-0.23802146315574646,0.2088484764099121,-0.20892487466335297,-0.0516863614320755,-0.17546069622039795,-0.08606685698032379,-0.18989776074886322,-0.14046350121498108,-0.4099646508693695,0.025546681135892868,0.22930024564266205,0.2917223572731018,-0.048558492213487625,-0.3226897418498993,0.12703293561935425,-0.012982593849301338,0.11298522353172302,0.014098870567977428,0.0954291895031929,0.10466479510068893,-0.025150153785943985,-0.183545783162117,-0.28449583053588867,-0.1242549940943718,0.1565779447555542,0.18269042670726776,-0.2676333785057068,0.1458885818719864,0.2119782418012619,-0.048333074897527695,0.17094583809375763,0.15675878524780273,0.0021820534020662308,-0.1550634652376175,0.015452715568244457,-0.10771821439266205,-0.41223421692848206,-0.38314810395240784,-0.23401153087615967,0.03802582994103432,0.11080245673656464,-0.24283114075660706,-0.150417760014534,0.006391117814928293,-0.15167026221752167,-0.2082190364599228,0.2529911398887634,-0.06477245688438416,-0.37504804134368896,0.012013591825962067,0.12855102121829987,-0.16206160187721252,-0.0887361541390419,0.016540396958589554,-0.1685517281293869,-0.09697902947664261,-0.33981192111968994,-0.15964221954345703,-0.34978151321411133,0.3526654541492462,-0.05074874684214592,-0.07224605232477188,-0.027162950485944748,0.03611399233341217,-0.35708510875701904,0.11856687813997269,0.17032715678215027,-0.1761411875486374,-0.36652621626853943,-0.2553294003009796,0.2498529553413391,0.11357641220092773,0.08230925351381302,-0.20068277418613434,-0.037342432886362076,-0.017453165724873543,-0.08673800528049469,0.20996740460395813,0.13390159606933594,0.18399843573570251,0.18628200888633728,-0.08575772494077682,0.033076416701078415,-0.09056207537651062,-0.23092328011989594,-0.20469756424427032,0.35276558995246887,0.06827463954687119,0.09735904633998871,0.182381272315979,0.23514193296432495,-0.15292930603027344,0.10206396132707596,-0.2419506460428238,0.0371035672724247,-0.20425614714622498,-0.1415153592824936,-0.12527374923229218,0.009613875299692154,-0.1927574723958969,-0.330506831407547,0.0883748009800911,0.19418522715568542,0.23676039278507233,-0.26751986145973206,0.2572469413280487,0.08821572363376617,0.05321790650486946,-0.11252324283123016,-0.12576133012771606,-0.08027934283018112,0.03456651791930199,0.24841029942035675,0.08442727476358414,-0.13426300883293152,-0.01807490549981594,0.27930259704589844,0.27161088585853577,-0.14543351531028748,0.06253672391176224,0.2787940204143524,-0.13896586000919342,0.09866374731063843,-0.026288824155926704,-0.17277848720550537,-0.0011291422415524721,0.008416797965765,-0.16990302503108978,-0.2165677845478058,0.09860607981681824,0.17418569326400757,-0.18625426292419434,0.0041994256898760796,0.10889830440282822,-0.3741254508495331,-0.045520633459091187,0.1943456083536148,0.08754384517669678,0.12843193113803864,-0.22233979403972626,-0.25853872299194336,-0.09534239768981934,-0.1555263251066208,0.06882577389478683,-0.36458373069763184,-0.1852147877216339,-0.19019851088523865,-0.007914640940725803,-0.16003729403018951,-0.07681017369031906,-0.1170659214258194,0.19175180792808533,0.24621759355068207,-0.08238966017961502,0.023374464362859726,-0.11085387319326401,0.0825265422463417,0.21840478479862213,-0.13329073786735535,-0.018336044624447823,-0.3729246258735657,0.06698682904243469,0.006226693280041218,0.19672152400016785,-0.04288105666637421,0.0808834359049797,0.09114095568656921,-0.17793753743171692,0.3407866060733795,-0.20817367732524872,0.16019991040229797,-0.2182362824678421,0.06931322067975998,0.187583789229393,0.05585082620382309,-0.1508469134569168,0.12351802736520767,-0.06681590527296066,-0.020291371271014214,0.09458553791046143,-0.1748441457748413,-0.10323777794837952,-0.12377572059631348,-0.10322115570306778,-0.2199041098356247,-0.0006570604746229947,0.10259044170379639,0.21065954864025116,-0.1441972553730011,0.07245709002017975,-0.10758345574140549,0.05384071543812752,-0.046106185764074326,0.031215151771903038,0.0027833881322294474,0.28770530223846436,0.1947048157453537,0.02374011091887951,0.05835209786891937,0.09504605084657669,0.16653476655483246,0.020764511078596115,-0.05729205161333084,0.07615137100219727,0.32041406631469727,0.14265446364879608,-0.2656705379486084,-0.08591131120920181,0.11395157128572464,-0.2649531662464142,0.04365028068423271,0.037644434720277786,-0.06909733265638351,-0.05781753361225128,-0.017719442024827003,0.14402490854263306,-0.09991636127233505,-0.05601496994495392,0.18804018199443817,0.11938799172639847,-0.054934609681367874,0.2396601140499115,-0.17273984849452972,-0.09129798412322998,-0.13887450098991394,-0.05578938499093056,-0.26457294821739197,0.0427178330719471,-0.08288177847862244,0.24301256239414215,-0.13370133936405182,-0.18939565122127533,-0.02159520424902439,0.3125625550746918,-0.11775898933410645,-0.0700458437204361,0.27511289715766907,-0.3016776144504547,0.28738468885421753,-0.01766280084848404,-0.098802350461483,0.29195737838745117,0.20038443803787231,-0.2472202479839325,0.1447315812110901,-0.03203997015953064,-0.17032890021800995,-0.0692601427435875,-0.030008506029844284,-0.06885403394699097,-0.0008090636692941189,0.32975974678993225,0.3017428517341614,-0.1942405104637146,0.19431525468826294,0.11093601584434509,-0.026086224243044853,-0.13934560120105743,-0.0982118770480156,-0.3676935136318207,0.14867660403251648,-0.06094600260257721,0.07641942799091339,0.0035833236761391163,0.04894806817173958,-0.00271554640494287,0.011223260313272476,0.31589898467063904,-0.11104998737573624,0.3957378566265106,-0.24781237542629242,-0.11001677066087723,-0.055408068001270294,-0.0005363173549994826,-0.345567524433136,0.31224676966667175,0.17384634912014008,-0.2288450002670288,0.12714271247386932,-0.36309146881103516,-0.013026149943470955,-0.12388952821493149,-0.19569852948188782,-0.07949720323085785,-0.28126999735832214,-0.027749912813305855,-0.005952347535640001,0.2233019322156906,-0.04341297969222069,-0.1738479733467102,0.15147775411605835,0.11961577087640762,0.09142155200242996,0.0918927937746048,0.036145687103271484,0.08975385129451752,0.018859785050153732,0.05561162158846855,-0.14493076503276825,-0.32483065128326416,-0.299414724111557,0.06712128221988678,0.20564955472946167,0.22115306556224823,-0.4417188763618469,-0.005896382965147495,0.06412046402692795,0.2059786021709442,0.01039565447717905,0.030476629734039307,0.33309265971183777,0.04286846145987511,-0.20660507678985596,-0.14683714509010315,-0.03510997071862221,-0.0915280282497406,0.061095695942640305,0.2509070336818695,0.1106373742222786,0.16663601994514465,-0.10000202804803848,-0.15833231806755066,0.14834842085838318,0.016958847641944885,-0.42356884479522705,-0.3292490541934967,0.08814171701669693,0.025502149015665054,0.07314451038837433,0.2622312307357788,-0.2393394112586975,0.09938061237335205,-0.14726248383522034,0.1168995201587677,-0.1539074182510376,-0.4994025230407715,-0.21541167795658112,-0.10263069719076157,-0.06970711797475815,-0.3829909563064575,0.07268856465816498,0.1478065401315689,-0.14243842661380768,-0.2247752994298935,-0.18111874163150787,0.10103246569633484,0.24868550896644592,0.0351671427488327,-0.052299004048109055,-0.10561742633581161,0.037824761122465134,-0.07355033606290817,0.019768111407756805,0.20647114515304565,-0.020258810371160507,0.04180543124675751,-0.12192786484956741,-0.1737692505121231,-0.14788559079170227,0.1585986316204071,0.2739027142524719,-0.01012462005019188,-0.10934492945671082,-0.02497219853103161,0.01707913726568222,0.04468928650021553,0.19600075483322144,0.07404901087284088,-0.053124088793992996,-0.21307586133480072,0.026386264711618423,0.13918156921863556,-0.14483176171779633,0.0654284730553627,-0.1244899332523346,-0.10440090298652649,-0.08890895545482635,0.034921418875455856,0.19436585903167725,-0.1529519259929657,-0.03624771162867546,-0.03455986827611923,-0.010104597546160221,-0.07021486759185791,0.20798251032829285,0.12526029348373413,0.008076501078903675,-0.06402386724948883,-0.0863804966211319,0.016640152782201767,0.026560576632618904,-0.01774941384792328,0.17907758057117462,-0.0055082328617572784,0.0013374206610023975,0.12675699591636658,0.03617342561483383,0.0887591764330864,0.0435275062918663,0.1388603150844574,-0.06994851678609848,-0.050698358565568924,0.09619011729955673,0.2368270307779312,-0.04885726049542427,-0.17770233750343323,-0.24292539060115814,0.13960568606853485,0.08635985106229782,-0.02528567425906658,-0.150069922208786,-0.08788783848285675,-0.18661253154277802,-0.14479227364063263,0.13800011575222015,-0.09663864970207214,0.1121143028140068,-0.011124277487397194,-0.05517283082008362,-0.06731195002794266,0.08806810528039932,0.17926767468452454,-0.17400218546390533,-0.19764338433742523,-0.31436458230018616,0.07496938109397888,-0.1531268209218979,0.3104230463504791,0.09570974111557007,-0.01122458465397358,0.1891884207725525,-0.018544519320130348,0.1928940713405609,-0.02301011234521866,-0.11892219632863998,0.011662686243653297,0.00025303373695351183,0.07716158032417297,0.07103557884693146,0.08553756773471832,-0.03639862313866615,-0.04233894124627113,0.334307461977005,0.3139150142669678,-0.4095417261123657,-0.09039022028446198,-0.18882781267166138,0.043124642223119736,0.029032476246356964,0.0076287006959319115,-0.007012960966676474,-0.13837586343288422,-0.12463034689426422,-0.10107461363077164,-0.17345736920833588,0.14633171260356903,0.06012260168790817,-0.15185527503490448,0.14581631124019623,-0.16021522879600525,0.08102817833423615,-0.32117587327957153,-0.03687800467014313,0.09016776084899902,0.006320793181657791,-0.0761028304696083,-0.20457907021045685,-0.21550017595291138,-0.050602737814188004,-0.08581669628620148,-0.01579863391816616,-0.1363571137189865,-0.1042662039399147,0.047662291675806046,0.13389955461025238,0.05809172987937927,-0.08969615399837494,-0.10771427303552628,-0.08382779359817505,-0.004866840783506632,0.04190441966056824,-0.0575115941464901,-0.20806856453418732,-0.09461875259876251,0.11300455033779144,-0.024775486439466476,0.0741361454129219,0.12225186079740524,0.24240897595882416,-0.12288961559534073,0.23227259516716003,-0.018514297902584076,0.0951642245054245,-0.35382598638534546,0.2989318072795868,0.12135341763496399,-0.10669457912445068,-0.13686051964759827,-0.04950279742479324,-0.07796088606119156,-0.07227852195501328,0.09894341230392456,-0.09538747370243073,-0.04679292067885399,-0.05405905842781067,-0.07972969859838486,0.0873311311006546,-0.030110536143183708,0.2363968789577484,0.2105545550584793,0.05673331394791603,0.23480957746505737,0.20786751806735992,0.5006452798843384,-0.0776023417711258,0.0551418662071228,0.03221961483359337,0.04951399564743042,0.4237484037876129,-0.23152397572994232,-0.03898486867547035,-0.18823368847370148,-0.10742752999067307,-0.18725676834583282,-0.1130196750164032,0.11222092807292938,-0.10978364944458008,0.28081637620925903,0.22788487374782562,-0.022887973114848137,-0.15063931047916412,-0.021975992247462273,0.12410974502563477,-0.3751242160797119,-0.16786953806877136,0.14574885368347168,0.05261489376425743,-0.10844068974256516,0.20073439180850983,-0.14976799488067627,-0.298697292804718,0.0047326660715043545,0.2006479948759079,0.0429435670375824,-0.10347409546375275,-0.17406779527664185,-0.06705562025308609,0.10023923963308334,0.2543458938598633,-0.05556109920144081,0.14887423813343048,-0.060529328882694244,-0.37730836868286133,0.44184640049934387,-0.04042058438062668,-0.19619843363761902,0.060805581510066986,0.04004086181521416,-0.14665959775447845,-0.12489832937717438,-0.10528922826051712,0.39951786398887634,0.030683254823088646,-0.1883184313774109,-0.24064959585666656,-0.10382020473480225,0.19320723414421082,-0.08068986982107162,0.11863657087087631,-0.28331252932548523,-0.31326600909233093,-0.13657408952713013,0.017112260684370995,0.047155000269412994,0.19110089540481567,-0.22465594112873077,0.11852148175239563,-0.027471894398331642,-0.03487652167677879,-0.0697648748755455,0.06709343194961548,-0.1599494218826294,0.34811699390411377,-0.044488098472356796,0.03239604830741882,-0.00212673912756145,0.257833331823349,-0.22390109300613403,0.09161030501127243,0.22444915771484375,-0.542361319065094,-0.0793406069278717,-0.32255104184150696,-0.058475181460380554,0.19621489942073822,0.02133065275847912,-0.39423656463623047,-0.05998452380299568,-0.02329518459737301,0.12594126164913177,0.11086028069257736,0.11742830276489258,-0.14782966673374176,-0.018817240372300148,-0.10913486778736115,-0.19221194088459015,0.045582860708236694,0.413346529006958,0.128932923078537,0.10995880514383316,-0.1681007742881775,0.1141485646367073,0.03700816631317139,-0.07236005365848541,-0.2396099716424942,0.3832407295703888,0.06321204453706741,-0.09459719061851501,-0.22760093212127686,-0.09323974698781967,-0.04180767014622688,0.05404939129948616,-0.07810163497924805,0.1028359979391098,0.037967417389154434,0.47751009464263916,0.09637326747179031,0.2775910198688507,-0.03534719720482826,-0.11543738842010498,-0.11190307140350342,-0.03524048253893852,-0.06775274872779846,-0.13878750801086426,-0.2414734959602356,0.10412058979272842,0.28482356667518616,0.6681623458862305,0.11838120222091675,-0.3182600438594818,-0.14384114742279053,-0.245182603597641,0.19830867648124695,-0.171589195728302,-0.35332387685775757,-0.24045199155807495,0.14226080477237701,0.09076554328203201,-0.1756867617368698,0.05096849054098129,0.03019142523407936,-0.04442501440644264,0.08598753809928894,0.05103140324354172,-0.09947548061609268,0.2569478750228882,-0.02106928825378418,-0.15971720218658447,0.26110389828681946,0.05810052156448364,0.056546859443187714,0.18045714497566223,-0.155934140086174,-0.08390757441520691,0.29248493909835815,0.032613493502140045,-0.044456206262111664,-0.1322900503873825,-0.33470427989959717,0.0703250840306282,0.12271513789892197,0.2120833545923233,-0.10091384500265121,-0.035411302000284195,0.0429583415389061,-0.24333253502845764,0.0005873479531146586,0.17910540103912354,0.052392225712537766,-0.2675171196460724,-0.3228689432144165,0.4381718337535858,0.3237062990665436,0.2096109539270401,-0.1890590637922287,-0.2586427628993988,0.12928999960422516,0.21275627613067627,0.08287541568279266,0.21541787683963776,0.4494610130786896,-0.19824782013893127,-0.01585698500275612,-0.19130459427833557,0.21736131608486176,-0.0018456439720466733,-0.08921756595373154,0.1533173769712448,-0.0462024062871933,-0.006104772910475731,-0.09174695611000061,0.1890789270401001,0.1566610038280487,0.41546738147735596,0.02014610916376114,0.05746663734316826,-0.24119435250759125,0.0515480563044548,0.03771952912211418,0.14650042355060577,0.2643921673297882,-0.09934831410646439,-0.22673846781253815,0.08124522119760513,-0.14905327558517456,-0.21435073018074036,-0.32302889227867126,0.14471061527729034,-0.06535104662179947,-0.04138178005814552,-0.16302590072155,-0.1643235981464386,0.06645265966653824,-0.17952270805835724,0.008196955546736717,0.11974596977233887,0.18049657344818115,0.2230871021747589,-0.103160060942173,0.21468485891819,0.10878060758113861,0.05485646426677704,-0.009007560089230537,-0.39994266629219055,0.11266469210386276,0.021963991224765778,0.139915332198143,0.07817694544792175,0.13431473076343536,0.2310396134853363,-0.1477772295475006,0.06843937933444977,-0.12555420398712158,-0.07816720753908157,0.05442006140947342,-0.02573227509856224,-0.14032110571861267,0.2603705823421478,0.2638554275035858,-0.06681127101182938,-0.2282540202140808,-0.14763006567955017,0.2079455554485321,0.21591073274612427,-0.2114102840423584,-0.11485876888036728,0.2454371154308319,-0.25720834732055664,0.016978126019239426,0.3582901358604431,0.03528083115816116,0.2634725868701935,0.13609105348587036,-0.09911704063415527,-0.018741803243756294,-0.17277811467647552,-0.24235446751117706,-0.1840808242559433,0.06665688008069992,0.37429893016815186,-0.2042703926563263,0.06931482255458832,-0.07331058382987976,0.20317155122756958,-0.07539356499910355,0.24096038937568665,-0.04178668558597565,-0.04681789502501488,-0.18992261588573456,0.3866363763809204,-0.11584049463272095,-0.12120546400547028,0.05783193185925484,0.26966944336891174,-0.14807914197444916,0.04957877844572067,0.22264671325683594,0.03974570333957672,0.16155001521110535,-0.06743782013654709,-0.15016207098960876,0.22423146665096283,-0.05956798046827316,0.07997561246156693,-0.32992976903915405,-0.06572096049785614,0.1756754219532013,-0.05917701870203018,0.09285971522331238,0.1856445074081421,-0.16892847418785095,-0.41593417525291443,-0.42731204628944397,-0.14720962941646576,-0.26034408807754517,0.34897637367248535,0.18753395974636078,0.3553452789783478,-0.05029886215925217,0.27945464849472046,-0.34202831983566284,-0.053921282291412354,-0.26874518394470215,0.28019019961357117,-0.0507100373506546,0.09652149677276611,0.06627123802900314,-0.29524311423301697,-0.01725051924586296,-0.0020487357396632433,-0.29689422249794006,-0.17166881263256073,-0.3722510039806366,-0.23464913666248322,0.8177888989448547,0.05439256504178047,0.507806658744812,-0.07081551849842072,-0.06993338465690613,-0.3099757432937622,0.11917125433683395,-0.13307306170463562,-0.21400544047355652,-0.39548173546791077,0.049279503524303436,-0.32619646191596985,-0.3126707077026367,-0.3805444836616516,0.06044791638851166,-0.3560865819454193,0.11863170564174652,-0.07529928535223007,0.12087032198905945,0.26260852813720703,-0.14252083003520966,-0.08603420853614807,-0.16167840361595154,-0.24364326894283295,0.08086409419775009,0.07328483462333679,-0.04774513468146324,-0.057618822902441025,0.06971275806427002,-0.1338510662317276,0.11369691044092178,-0.29728567600250244,0.3571002781391144,0.1621505320072174,0.10722099244594574,-0.12155897915363312,-0.10854294896125793,-0.6004353165626526,0.19332806766033173,0.23037923872470856,-0.10008212178945541,0.18804340064525604,-0.10614261776208878,-0.09618423879146576,0.6010310649871826,-0.09028130769729614,0.5343827605247498,0.33893638849258423,0.17709621787071228,0.20741473138332367,0.28346410393714905,0.30416080355644226,0.1913641095161438,0.0635003075003624,0.3376558721065521,-0.06415113806724548,0.14079461991786957,0.2106839120388031,-0.0967133641242981,-0.2590333819389343,-0.27700310945510864,0.03585610166192055,-0.08695156127214432,0.2705971300601959,-0.015089661814272404,-0.6195043921470642,0.5118300318717957,0.1926911622285843,0.07832629978656769,0.24372340738773346,0.15908166766166687,-0.09147399663925171,0.4059566855430603,-0.28830912709236145,-0.15970641374588013,-0.1693580448627472,0.08172692358493805,0.12304189056158066,-0.06399063020944595,-0.1782793402671814,-0.5697858929634094,-0.23839452862739563,0.002369189402088523,0.37500813603401184,0.11001796275377274,0.06550908088684082,0.11065822839736938,0.06545314937829971,0.09935011714696884,0.058586686849594116,-0.020779114216566086,-0.27823594212532043,0.13212165236473083,0.04646496847271919,0.38455554842948914,0.012226535938680172,-0.11236835271120071,0.7029647827148438,0.40388810634613037,-0.20589660108089447,-0.20614288747310638,0.3016461730003357,0.15853357315063477,0.10095980018377304,0.30885007977485657,0.1254827231168747,-0.7235077023506165,0.009838043712079525,0.21141232550144196,0.13658598065376282,-0.3160443603992462,0.12012246251106262,-0.11798951774835587,0.04983329027891159,0.0663214772939682,0.004070512019097805,-0.018201662227511406,-0.13806158304214478,-0.12267770618200302,0.13689599931240082,-0.14503531157970428,0.22318041324615479,0.07195910066366196,0.2536787986755371,0.11802993714809418,0.06568518280982971,-0.09807131439447403,0.19718345999717712,-0.21384741365909576,-0.10043106228113174,-0.0981001928448677,-0.19702060520648956,0.033222027122974396,-0.27131593227386475,0.06876569241285324,0.10337160527706146,0.012692389078438282,0.08286874741315842,0.03962809219956398,0.2127983570098877,-0.0480504147708416,0.21172074973583221,0.18859733641147614,0.13394992053508759,-0.29617026448249817,-0.4822362959384918,0.2042454481124878,0.12799173593521118,-0.2584529519081116,0.10788155347108841,0.31983017921447754,-0.029972510412335396,-0.16198602318763733,0.028761563822627068,0.046607937663793564,0.17514759302139282,-0.14939291775226593,0.08080445230007172,-0.0013601200189441442,-0.03510890156030655,-0.19297738373279572,0.11659625917673111,-0.02125191129744053,0.10544285178184509,-0.19932667911052704,0.16452710330486298,-0.35833504796028137,-0.09828845411539078,0.2713148891925812,0.008237319998443127,-0.21248428523540497,-0.44697824120521545,-0.000830182689242065,-0.08903525769710541,-0.2168509066104889,0.07969318330287933,0.09559500217437744,0.012792353518307209,0.23377548158168793,-0.14254552125930786,0.3760848939418793,-0.3169117569923401,-0.15232548117637634,0.0723877102136612,-0.06329997628927231,-0.2005566507577896,-0.186226025223732,0.1763639748096466,-0.22466251254081726,0.03424183279275894,0.13058511912822723,0.025164492428302765,0.2314549833536148,0.09621463716030121,0.006253737956285477,0.13532306253910065,-0.29030919075012207,-0.2890956401824951,-0.44527944922447205,-0.40245047211647034,-0.04982415586709976,-0.3487261235713959,-0.2209320217370987,0.06120162084698677,0.058687373995780945,-0.013423788361251354,-0.24552124738693237,-0.030557906255126,-0.27939173579216003,0.3447374701499939,0.08283992856740952,0.15847235918045044,0.0874171331524849,0.31602561473846436,0.35719576478004456,0.2847836911678314,0.04142603650689125,0.07683395594358444,-0.1375536471605301,0.1412162184715271,0.14308689534664154,-0.10122943669557571,-0.024372568354010582,0.08041036128997803,-0.07479456812143326,-0.018274327740073204,-0.2208959311246872,-0.09511392563581467,0.08330129086971283,-0.19931001961231232,-0.07125077396631241,-0.22723032534122467,-0.4467262923717499,-0.05895593389868736,-0.33087271451950073,0.04665759578347206,-0.006996095646172762,0.09630780667066574,0.03570914268493652,0.11428843438625336,0.08979122340679169,-0.5158958435058594,-0.3177601099014282,-0.1614035815000534,0.42377838492393494,-0.051638163626194,-0.0833536833524704,0.16434350609779358,-0.03907298296689987,-0.027766482904553413,-0.1774626225233078,0.6758100390434265,-0.2444600760936737,0.13730277121067047,-0.22698627412319183,-0.3346821367740631,0.17537806928157806,0.03713665530085564,-0.13394789397716522,0.0416075773537159,-0.1178133636713028,0.22215571999549866,0.39719969034194946,0.04803915694355965,-0.16252125799655914,0.21283452212810516,0.028882605955004692,0.3096184730529785,-0.05974538251757622,0.1763913482427597,0.2280144989490509,0.39231032133102417,0.1006099283695221,-0.07229919731616974,0.20490297675132751,-0.02100321836769581,0.20058004558086395,-0.02398235723376274,-0.022374646738171577,-0.03395238146185875,0.11366790533065796,-0.10972780734300613,-0.03477470949292183,-0.04286709800362587,0.1083824560046196,-0.1729736179113388,-0.06531690061092377,-0.12633520364761353,0.035720884799957275,0.0244354996830225,0.020832227542996407,0.12087807804346085,0.06824776530265808,0.02071962133049965,0.1813415288925171,-0.014900533482432365,0.11185580492019653,-0.04534466937184334,-0.024222208186984062,0.03304961323738098,0.08004912734031677,-0.04875897616147995,0.002077779034152627,-0.04678991436958313,0.014925078488886356,-0.02448936365544796,-0.08470871299505234,-0.270214706659317,0.16233579814434052,0.0371711403131485,0.04303142800927162,-0.1427777260541916,-0.08761237561702728,0.035259172320365906,-0.01035681925714016,0.051042571663856506,0.008063954301178455,0.0005559102282859385,-0.07336772978305817,-0.1579168140888214,0.09391076862812042,-0.08049925416707993,-0.016586216166615486,-0.015809854492545128,0.022717921063303947,-0.13001485168933868,-0.13144159317016602,0.08551863580942154,-0.2206563800573349,0.0030550893861800432,-0.08946263045072556,-0.09356272220611572,0.0045661162585020065,-0.0028274916112422943,-0.1302662342786789,0.040394000709056854,0.04930829256772995,-0.1387225091457367,-0.10453695058822632,0.045732397586107254,-0.02277655340731144,-0.10431979596614838,-0.07434006780385971,0.06099279224872589,0.05592911317944527,0.03641732782125473,-0.039089176803827286,-0.0555717870593071,-0.08657336235046387,0.07998564839363098,0.0706419050693512,-0.06017906963825226,0.07648646831512451,0.09594948589801788,-0.025211427360773087,0.10377145558595657,0.06367601454257965,-0.005843193735927343,0.06476221978664398,0.003349418519064784,0.029689401388168335,-0.08051255345344543,-0.08272789418697357,-0.007007967215031385,-0.03714422881603241,0.12856025993824005,-0.02971089445054531,-0.054616570472717285,-0.08022962510585785,-0.11728445440530777,-0.04518328607082367,0.04340841621160507,0.08009658753871918,-0.07587334513664246,-0.0101480633020401,0.13900917768478394,0.12877565622329712,-0.009180167689919472,-0.057224009186029434,-0.01234464906156063,0.08325057476758957,0.2045251876115799,-0.049466777592897415,0.023849638178944588,0.030416162684559822,0.15287694334983826,0.1134340763092041,0.1895463764667511,0.14835941791534424,0.024558061733841896,-0.05097421258687973,-0.1089155301451683,-0.15027841925621033,0.1434825360774994,-0.03211776539683342,0.10184476524591446,0.16358263790607452,-0.04820958152413368,-0.14555542171001434,-0.12487383931875229,0.1066051498055458,0.06141146272420883,-0.03541789576411247,-0.05117717385292053,0.057957276701927185,0.04270763322710991,0.19279401004314423,-0.12456309795379639,0.03571018949151039,0.05457033962011337,-0.00039352127350866795,0.044734079390764236,-0.09359721094369888,0.02927619218826294,0.011989462189376354,-0.02730105258524418,0.05663019046187401,-0.08429782092571259,0.04012368246912956,0.019617175683379173,0.03339897096157074,-0.004494744352996349,0.024239594116806984,0.006209785584360361,0.05456613376736641,-0.17379142343997955,-0.016189949586987495,0.08547467738389969,0.07997502386569977,-0.27609142661094666,0.15216095745563507,0.05359333008527756,0.2693379521369934,0.15347452461719513,0.11350204795598984,-0.3007117807865143,0.31080374121665955,0.1579882800579071,0.10990402102470398,0.22352637350559235,0.026631813496351242,0.1879643201828003,0.24946223199367523,0.05817512422800064,-0.0987485870718956,0.23237314820289612,0.3423668146133423,0.3010934591293335,-0.23352640867233276,0.27717411518096924,-0.18181127309799194,0.21610823273658752,-0.18164865672588348,-0.10211551189422607,-0.19333812594413757,0.05201052129268646,-0.0436890572309494,-0.13235941529273987,-0.09987173229455948,0.004122014157474041,-0.28602176904678345,0.10557286441326141,0.027176203206181526,-0.048041533678770065,-0.6045618057250977,-0.3126079738140106,0.1266665756702423,0.12816864252090454,-0.34928178787231445,-0.007839673198759556,0.12440700829029083,0.1311313956975937,-0.022709647193551064,0.38160157203674316,-0.14369402825832367,0.276692658662796,-0.1898738294839859,0.281539648771286,-0.22824980318546295,-0.10544788092374802,0.02446717582643032,0.05337581783533096,0.09416959434747696,-0.1285281926393509,-0.014774126000702381,-0.08408743888139725,-0.06692835688591003,0.22577089071273804,0.15060631930828094,-0.3867337107658386,0.35186681151390076,-0.25078484416007996,-0.05243697389960289,-0.3365625739097595,-0.3457648456096649,0.41431504487991333,0.16864626109600067,0.17160353064537048,-0.1004643440246582,0.0505102276802063,-0.22903256118297577,0.01199647132307291,0.05943390354514122,-0.061920199543237686,0.16231603920459747,-0.12899459898471832,-0.2711155414581299,0.18572717905044556,0.40993812680244446,-0.011978091672062874,-0.09296119958162308,0.191949263215065,0.267733097076416,-0.08325967937707901,-0.15983998775482178,0.33452048897743225,0.20898552238941193,-0.18716226518154144,-0.08088074624538422,-0.045670200139284134,-0.03538769856095314,0.03914586082100868,0.24603362381458282,0.020768864080309868,0.1660185307264328,0.18430684506893158,0.08159530907869339,-0.04659991338849068,-0.2679976522922516,-0.16857703030109406,0.3208509087562561,0.23204746842384338,-0.11913055926561356,-0.2689002454280853,0.3942034840583801,0.46434128284454346,0.1567123979330063,0.01914527453482151,0.00043408386409282684,-0.303779274225235,-0.27122554183006287,-0.4852276146411896,-0.35135746002197266,0.2933434247970581,-0.3533369302749634,-0.13407403230667114,-0.3665213882923126,0.24205319583415985,-0.3655936121940613,0.037771888077259064,-0.06262852251529694,0.4831928610801697,-0.047015510499477386,-0.24615828692913055,-0.0006956462166272104,0.05906100943684578,-0.1396692842245102,-0.1957438737154007,-0.033290475606918335,-0.14584077894687653,-0.06798752397298813,-0.18295416235923767,0.22760842740535736,-0.06169432774186134,0.22293858230113983,-0.04420715570449829,-0.3398459255695343,0.36979493498802185,-0.0718383938074112,-0.20804832875728607,0.1823211908340454,0.12190224975347519
