-0.13344989717006683,-0.39709535241127014,-0.44531312584877014,0.28907907009124756,1.1309393644332886,0.04020388796925545,-0.12680964171886444,-1.0046136379241943,0.20426110923290253,0.7309906482696533,0.9239276051521301,-1.2295812368392944,0.7775260806083679,0.23617197573184967,-0.26080772280693054,1.0738195180892944,0.407744824886322,0.5513027310371399,0.055216316133737564,-0.9103589057922363,-0.5215985178947449,-0.8181283473968506,0.32100868225097656,-0.31038209795951843,-0.09848103672266006,0.0503440797328949,0.17236629128456116,0.09633976966142654,0.030678803101181984,0.07898741215467453,-0.09528399258852005,0.09439627826213837,-0.029408134520053864,0.05873261019587517,0.21084202826023102,0.015188396908342838,0.11609984934329987,-0.03502687066793442,0.08922681212425232,-0.004640091210603714,-0.00945255160331726,-0.013831346295773983,0.08610647916793823,-0.007112070452421904,-0.007732875179499388,-0.10652396082878113,-0.0469469279050827,0.2113996297121048,-0.0012214259477332234,0.14542879164218903,0.1753111183643341,-0.0235590860247612,-0.10808858275413513,0.09963846951723099,0.10174383223056793,0.0022025133948773146,0.1185651570558548,-0.16580504179000854,-0.030821524560451508,0.03160756453871727,0.1683911681175232,-0.0965355858206749,0.1853209137916565,-0.1090431660413742,-0.022941764444112778,0.11957525461912155,0.04553591459989548,0.19409877061843872,0.19020582735538483,0.22547383606433868,0.23870281875133514,-0.006010076031088829,-0.22739523649215698,0.1013656035065651,-0.09065744280815125,-0.06170480325818062,0.020492296665906906,-0.012096762657165527,0.17730700969696045,0.16251808404922485,0.1052028238773346,0.12215946614742279,-0.008931223303079605,0.15744875371456146,0.008763851597905159,0.05221769958734512,0.014606749638915062,0.13657674193382263,-0.05857940390706062,0.1182793378829956,-0.06245667487382889,0.03709346428513527,0.02457631193101406,0.05210673063993454,-0.07454695552587509,0.059158217161893845,0.1707177609205246,0.036650631576776505,-0.06065068766474724,-0.02052331157028675,-0.7445840239524841,0.02748633548617363,-0.1587650328874588,-0.23561584949493408,0.15844205021858215,-0.07697366178035736,-0.40565285086631775,-0.002779508475214243,-0.15658795833587646,-0.6648022532463074,-0.020443234592676163,0.44160085916519165,0.10040616244077682,1.0319253206253052,-0.08679009974002838,0.2972884774208069,0.5596479773521423,-0.14822718501091003,-0.3022153675556183,-0.42943766713142395,-0.12182679027318954,0.23564672470092773,0.11325649917125702,0.30103060603141785,-0.5515914559364319,0.05925654247403145,0.46905815601348877,-0.09621205180883408,0.39925476908683777,0.325061172246933,0.16534218192100525,-0.5701989531517029,-0.28511422872543335,0.031126050278544426,0.2730599045753479,0.49736374616622925,0.24626637995243073,-0.15923310816287994,-0.48596274852752686,-0.2297334372997284,0.781136155128479,-0.5125492215156555,-0.7431418895721436,-0.18786031007766724,-0.591681718826294,-0.31826409697532654,0.15020336210727692,-0.05120526999235153,0.6692704558372498,-0.48654454946517944
