0.036155447363853455,0.045390062034130096,-0.0184182096272707,-0.08643808215856552,-0.04303782805800438,0.06951641291379929,0.05801864340901375,-0.0029773800633847713,0.12491566687822342,0.0011841417290270329,-0.13884571194648743,-0.011773869395256042,-0.07247862219810486,-0.06339322030544281,-0.03434097021818161,-0.06801503151655197,-0.04005397483706474,0.08238542079925537,0.07429849356412888,-0.05105941742658615,0.05396967753767967,0.03240298479795456,-0.05702614784240723,0.0026493165642023087,-0.05790533497929573,-0.017337774857878685,-0.1277315467596054,0.12623049318790436,0.13636456429958344,0.0909312516450882,-0.1103658676147461,-0.09509352594614029,0.07033344358205795,0.03512796387076378,-0.04521637409925461,-0.018738403916358948,-0.09907381981611252,-0.12065637111663818,0.01988891512155533,0.014351891353726387,0.04269866645336151,0.15939074754714966,0.04639899730682373,-0.05628237500786781,-0.05914029851555824,0.00600089505314827,0.0652940571308136,-0.0789465606212616,0.0751904547214508,-0.049503207206726074,0.08020884543657303,-0.050943773239851,0.11894391477108002,0.14407838881015778,-0.11430308222770691,-0.12633578479290009,0.04734792560338974,0.11749393492937088,0.03286680206656456,-0.07449669390916824,0.12440364062786102,-0.18128570914268494,0.06293675303459167,-0.05581778287887573,0.04164978861808777,-0.021191664040088654,-0.04355418309569359,-0.03376288712024689,0.0829387679696083,-0.0033116305712610483,0.05296453461050987,0.1577288657426834,0.014582578092813492,-0.11816238611936569,-0.1055220291018486,0.1313701719045639,-0.06508281081914902,0.050994981080293655,-0.06765313446521759,-0.06415151804685593,0.014538603834807873,0.10348284989595413,-0.09034965932369232,0.12221701443195343,-0.16763849556446075,-0.07997950166463852,-0.06447122246026993,-0.04962730035185814,-0.1479882150888443,-0.1006748303771019,-0.17866162955760956,0.06785435974597931,-0.08498981595039368,-0.07799278944730759,-0.06921208649873734,0.04756560176610947,-0.03161643445491791,0.09961538016796112,0.0964471846818924,-0.052884653210639954,-0.017937995493412018,-0.05444858595728874,0.08004657179117203,-0.11649202555418015,0.04175512120127678,-0.0009135857108049095,0.17311960458755493,-0.028772547841072083,-0.11426547169685364,0.10196185857057571,-0.007324813865125179,-0.08723340928554535,0.014640780165791512,-0.0663093701004982,0.11099459230899811,-0.07741142064332962,0.0352003239095211,0.1465013176202774,0.08562809973955154,-0.07944706082344055,0.09804892539978027,0.15863120555877686,0.017813824117183685,-0.109763003885746,0.05317111685872078,-0.002978797536343336,-0.08125036954879761,-0.014644565060734749,-0.06962335854768753,-0.08969142287969589,0.029583241790533066,0.018690068274736404,-0.1596079170703888,0.18296457827091217,-0.09009498357772827,-0.005440805107355118,-0.03422859311103821,-0.08709979802370071,-0.05107274651527405,-0.017141571268439293,-0.10456599295139313,0.006651957053691149,0.013216065242886543,0.013451638631522655,0.14306871592998505,-0.06706564873456955,0.006917337886989117,-0.070538230240345,-0.159264475107193,0.0025021035689860582,0.0979369729757309,0.04095619171857834,-0.14122110605239868,0.10179398208856583,-0.12635470926761627,-0.07670515030622482,0.12142972648143768,-0.06143757700920105,-0.10172463953495026,-0.07864833623170853,-0.0701209008693695,0.023182837292551994,-0.017459038645029068,-0.17963746190071106,0.04074067622423172,-0.0604744553565979,0.006804805714637041,-0.05971812829375267,-0.047364018857479095,-0.0990549847483635,-0.06761426478624344,-0.12184379249811172,-0.10917554050683975,-0.03857020288705826,-0.03583279624581337,-0.03585761785507202,0.057017818093299866,0.056672368198633194,0.01811397448182106,0.03067178651690483,0.008754127658903599,0.0431223027408123,-0.22576096653938293,0.08907090127468109,0.0850936621427536,-0.035025954246520996,0.07609156519174576,-0.02782426029443741,0.028439823538064957,-0.07229486852884293,-0.07947662472724915,-0.07512672990560532,0.10139277577400208,0.006329919211566448,-0.23734614253044128,-0.02228342369198799,-0.12893471121788025,-0.06700851768255234,-0.06508449465036392,-0.12773866951465607,-0.10987973213195801,-0.005678778048604727,0.014170123264193535,0.033385246992111206,0.15824243426322937,-0.03522579371929169,0.16280846297740936,0.09697714447975159,-0.010918457992374897,-0.007211269345134497,0.18848124146461487,-0.0817582756280899,-0.08933955430984497,0.10617422312498093,0.05789598077535629,-0.02602614462375641,-0.01640927605330944,-0.047425489872694016,0.09692862629890442,-0.01616252399981022,0.012022031471133232,0.19418856501579285,0.15913118422031403,0.002616584999486804,-0.019812295213341713,-0.0738355740904808,0.08080719411373138,0.1640051305294037,-0.051437877118587494,-0.11824631690979004,0.15017512440681458,-0.07512453943490982,0.1285596787929535,0.013177909888327122,0.20032064616680145,0.05881931632757187,0.07018671184778214,-0.13097022473812103,-0.04162286967039108,0.16833306849002838,-0.06284170597791672,0.06190092861652374,-0.04112882539629936,-0.04776172339916229,-0.09343044459819794,-0.16159522533416748,-0.012824516743421555,-0.05316978320479393,0.03721233829855919,-0.02113215997815132,0.08860879391431808,0.0570337176322937,-0.09781553596258163,-0.10283807665109634,0.18870311975479126,-0.06277310848236084,-0.09348727017641068,-0.06679543852806091,-0.11072388291358948,-0.06928963959217072,0.0008660586318001151,0.12362077832221985,0.06605221331119537,0.05413654446601868,-0.019229575991630554,-0.09662111848592758,0.06192139536142349,0.07341219484806061,0.04041735455393791,0.12188151478767395,0.12496700882911682,-0.021879732608795166,-0.06863311678171158,0.13101908564567566,0.025993090122938156,-0.027496667578816414,-0.028426481410861015,0.06282471120357513,-0.07117060571908951,0.07876911014318466,-0.12693020701408386,0.009377079084515572,-0.14856041967868805,0.02891017682850361,-0.06971076130867004,-0.0024595714639872313,0.09292309731245041,-0.018381597474217415,-0.05328141152858734,-0.01636088825762272,-0.016610149294137955,0.09098999202251434,-0.05951143801212311,0.02565654367208481,0.06098230183124542,-0.016197016462683678,0.0022475102450698614,-0.041205815970897675,0.15729615092277527,-0.1336328536272049,-0.1789577603340149,0.002447769045829773,-0.0029392943251878023,-0.10887324064970016,-0.029703414067626,0.044909387826919556,0.14489172399044037,0.04408283904194832,0.12686562538146973,0.14325058460235596,0.029438214376568794,-0.024813422933220863,-0.030594194307923317,-0.0879245325922966,0.08368303626775742,-0.006688551511615515,-0.045099422335624695,-0.02474716119468212,-0.10085439682006836,0.026359399780631065,0.08380298316478729,0.12987656891345978,-0.07546236366033554,0.07555371522903442,-0.08528731763362885,-0.14459913969039917,0.10534419119358063,0.15895302593708038,0.09142077714204788,0.08044636994600296,-8.049635653151199e-05,0.03465573117136955,0.047582000494003296,-0.10958972573280334,0.19095651805400848,-0.040023863315582275,0.052285246551036835,-0.045839305967092514,0.07592753320932388,0.09133870899677277,0.03748098760843277,-0.10861959308385849,0.08925118297338486,-0.16242273151874542,0.0029113558121025562,-0.1645582765340805,-0.02672874927520752,0.10730928927659988,0.09339599311351776,-0.1162324920296669,-0.12232351303100586,0.06922589242458344,-0.027633432298898697,-0.08476686477661133,0.1264990270137787,-0.0375325083732605,-0.13006936013698578,-0.1397632360458374,0.018871136009693146,-0.15588387846946716,-0.17368470132350922,0.022407807409763336,-0.020505322143435478,0.08552245795726776,-0.009085173718631268,0.02997196651995182,-0.012701858766376972,0.0918469950556755,0.012423178181052208,-0.04554871469736099,0.006568580865859985,0.12838906049728394,0.01935780979692936,-0.13913702964782715,-0.03434491902589798,0.09307254105806351,-0.006338867824524641,0.13772821426391602,-0.13668447732925415,-0.051372602581977844,0.12408620864152908,-0.006449922453612089,0.1542208194732666,0.1717565506696701,-0.07393724471330643,-0.1483374685049057,-0.027393827214837074,-0.13246192038059235,0.05683145299553871,0.017328662797808647,0.09148622304201126,-0.12156978249549866,-0.017776085063815117,-0.03397103399038315,-0.14752592146396637,-0.10060201585292816,-0.03721892461180687,-0.02753458172082901,0.12883895635604858,0.008144747465848923,0.0749889612197876,0.06537384539842606,-0.09544892609119415,-0.11733958125114441,-0.07128481566905975,-0.017145151272416115,0.004702843260020018,-0.0715881884098053,-0.13330425322055817,-0.02993188053369522,-0.1551855355501175,-0.026115525513887405,-0.15175582468509674,0.0006950667593628168,-0.13503701984882355,-0.11353208124637604,0.10487943142652512,0.14106354117393494,-0.03986474871635437,-0.051209039986133575,-0.14948095381259918,-0.16047212481498718,-0.11431927233934402,-0.15017522871494293,0.03978472575545311,-0.015625523403286934,0.16636750102043152,-0.10363466292619705,0.04355820640921593,0.09400328248739243,0.15996098518371582,0.05235108733177185,-0.0266397874802351,0.0670236349105835,0.14819489419460297,0.039642855525016785,0.12536220252513885,0.032576341181993484,0.03890459984540939,0.0856313481926918,-0.030576692894101143,0.062331415712833405,-0.002193610882386565,-0.13227298855781555,0.005812822841107845,0.07693564146757126,0.008739224635064602,0.015058084391057491,-0.07944095879793167,0.06590352207422256,-0.1351936012506485,0.02722574956715107,-0.07554279267787933,0.009220235981047153,-0.05129711329936981,0.063649483025074,-0.12054063379764557,0.02984856441617012,0.003478413447737694,0.1119769737124443,0.14219129085540771,0.10774141550064087,-0.0032038800418376923,0.13957761228084564,-0.12368085980415344,0.026168378069996834,0.0041884626261889935,-0.1221405416727066,-0.15923179686069489,0.08900738507509232,0.0039735594764351845,-0.023841846734285355,0.18007919192314148,0.1977607011795044,-0.04833250865340233,-0.06829894334077835,0.10593309253454208,-0.01640825718641281,0.02189575508236885,-0.035829491913318634,0.03167037293314934,0.05726993829011917,-0.0016915970481932163,0.002656622091308236,-0.12161204218864441,-0.14782367646694183,0.05372556298971176,0.0029596490785479546,-0.04024945944547653,-0.11530974507331848,0.1800415962934494,-0.08679118752479553,0.0021392260678112507,0.18925467133522034,-0.0037422562018036842,-0.01808130368590355,0.09489607065916061,-0.0004855286097154021,0.2029958814382553,0.04987204447388649,0.10582125186920166,0.03332260996103287,0.0056053511798381805,0.0024355403147637844,-0.10656721144914627,-0.02282700128853321,0.10636310279369354,0.101485975086689,-0.1499767303466797,-0.23788785934448242,-0.1012577936053276,0.10040181130170822,0.025487976148724556,0.08360231667757034,0.026652395725250244,0.04693147912621498,-0.06492309272289276,0.022157151252031326,-0.061103660613298416,0.021361665800213814,0.07952797412872314,-0.06941322982311249,-0.04069579392671585,0.16374827921390533,-0.06530577689409256,-0.11221300810575485,-0.06035861372947693,0.020629318431019783,-0.0913328155875206,-0.09877406805753708,-0.07722914218902588,0.019234996289014816,0.020137447863817215,-0.1188100278377533,-0.07188943773508072,0.04187729209661484,-0.10057919472455978,-0.10042405128479004,-0.05563570186495781,-0.11175642162561417,-0.018800241872668266,-0.04391120374202728,0.004348808899521828,0.04579843953251839,0.01630673184990883,-0.10684096068143845,-0.12580706179141998,-0.03162480145692825,0.05404137447476387,-0.11986056715250015,0.012272926978766918,-0.010434958152472973,0.04064447805285454,-0.09540139138698578,-0.11092974990606308,0.08717795461416245,-0.09784815460443497,-0.05437356233596802,0.029412180185317993,-0.17082886397838593,0.09204859286546707,-0.035148464143276215,0.04417433217167854,-0.07501281052827835,0.08241608738899231,0.15058594942092896,0.13805396854877472,-0.0879954919219017,-0.030474668368697166,0.09998974204063416,0.0029876031912863255,0.03421473503112793,0.08881081640720367,-0.08263763040304184,-0.05511186271905899,0.15753602981567383,-0.04750058799982071,-0.10453348606824875,0.031291794031858444,-0.008795219473540783,-0.06126674264669418,-0.13713529706001282,0.06161123514175415,-0.008123904466629028,-0.11734673380851746,-0.07901163399219513,0.0096686240285635,-0.13497599959373474,0.11584754288196564,-0.11975099891424179,0.0004988104337826371,-0.001745730871334672,-0.00891900435090065,-0.07759883254766464,0.025679724290966988,0.06306435167789459,-0.026077918708324432,-0.03046170063316822,0.06723746657371521,0.07187405973672867,-0.1401708424091339,-0.08512972295284271,-0.03973853960633278,0.019764741882681847,-0.06271778047084808,0.12282180041074753,0.0725315511226654,0.10085117816925049,0.11351433396339417,0.07156827300786972,0.030233239755034447,-0.11924024671316147,0.04827509820461273,0.006067727692425251,0.06605015695095062,-0.02031904086470604,0.00907349307090044,0.1301572322845459,-0.1265166997909546,-0.1125115379691124,0.009537318721413612,0.07922614365816116,0.04713083431124687,-0.017708396539092064,0.02974214218556881,0.0386984758079052,0.14996927976608276,-0.008546688593924046,-0.03762263432145119,-0.011669172905385494,-0.08000243455171585,0.09327132254838943,-0.01114862784743309,0.07208121567964554,-0.16899944841861725,-0.08518427610397339,-0.04659068211913109,0.07107064127922058,-0.08815053850412369,-0.14777295291423798,0.03244229778647423,0.07307887822389603,0.006021859124302864,0.1286032497882843,-0.012778661213815212,0.0843876302242279,-0.14335352182388306,0.12592734396457672,0.13320516049861908,0.08149465918540955,0.06970226764678955,-0.02574651502072811,0.08456502109766006,0.1410396695137024,0.09915047883987427,0.17259900271892548,-0.08012086898088455,0.09926676005125046,0.022985568270087242,0.060588277876377106,0.04889637604355812,0.002770434133708477,0.12778060138225555,0.047303833067417145,0.02158377878367901,-0.052985165268182755,0.08798563480377197,-0.031415242701768875,0.03329455479979515,0.13751693069934845,0.08087953180074692,0.0917527824640274,0.11250380426645279,-0.06680618226528168,0.08747554570436478,-0.014351306483149529,0.04368842765688896,0.11643153429031372,-0.029515231028199196,-0.09826580435037613,0.09345399588346481,-0.19572514295578003,-0.0714535042643547,-0.09256595373153687,-0.147050678730011,-0.0876665860414505,-0.0942547395825386,-0.0547628253698349,0.16895034909248352,0.0318053662776947,0.06470853835344315,-0.01524373795837164,0.05387508496642113,0.11797677725553513,-0.007394862826913595,0.0020397433545440435,0.057632848620414734,0.034648001194000244,-0.18432532250881195,-0.07845550775527954,-0.013494462706148624,-0.08169027417898178,-0.13447672128677368,0.00903105828911066,-0.04932130500674248,-0.07063072174787521,0.0011332384310662746,0.12473081797361374,-0.0009411920327693224,-0.03243888169527054,-0.16051125526428223,0.07970526069402695,0.045302096754312515,-0.00978965312242508,0.09804423898458481,0.13799422979354858,0.05198492109775543,-0.03971712291240692,0.12102559953927994,-0.05886495113372803,0.0030276954639703035,0.06497600674629211,-0.12843260169029236,0.04878510534763336,0.049993373453617096,-0.20022892951965332,-0.08755192160606384,-0.12058627605438232,0.01832512393593788,-0.1376645565032959,0.11792535334825516,0.09810446202754974,0.12267263978719711,0.02800843119621277,0.10283037275075912,0.0027838407550007105,-0.032733820378780365,-0.08651469647884369,0.050670575350522995,0.08174774050712585,-0.06746327131986618,0.07329453527927399,0.02136269398033619,0.10835452377796173,-0.06742724776268005,-0.11805200576782227,0.12112252414226532,0.030408885329961777,-0.0852891206741333,-0.022998087108135223,-0.009654855355620384,-0.03510278835892677,-0.041928842663764954,-0.11115779727697372,-0.0878198966383934,-0.06870094686746597,-0.02735286019742489,0.019790690392255783,0.04140453040599823,-0.01701776497066021,-0.05171813443303108,0.065096914768219,0.12330681085586548,-0.1046421155333519,0.08517970889806747,0.12328706681728363,0.017006227746605873,0.07635968923568726,-0.004269780591130257,-0.03715742006897926,0.016652969643473625,-0.08776044845581055,-0.036978580057621,0.03423382341861725,-0.05128966271877289,-0.052216481417417526,0.13022060692310333,-0.047633033245801926,0.03831305354833603,0.08647184818983078,0.016152234748005867,-0.02012404426932335,0.05715020373463631,0.060689087957143784,0.006773776840418577,0.03456270694732666,0.08503829687833786,0.06010719761252403,-0.05077853426337242,0.023540351539850235,0.1300458014011383,0.06443372368812561,-0.08785361796617508,0.08425644040107727,-0.08145034313201904,-0.05111110582947731,0.03014231100678444,-0.044679876416921616,0.07515665143728256,0.03857987001538277,0.08503676950931549,0.005219703074544668,0.07976085692644119,-0.009175152517855167,-0.12177733331918716,-0.003602261422201991,0.04914529621601105,-0.08020074665546417,-0.03989354893565178,-0.02878350391983986,0.09917635470628738,-0.01712067238986492,-0.021831994876265526,0.08042018860578537,0.033986713737249374,-0.058101553469896317,0.07042457163333893,-0.06113841012120247,0.10152055323123932,-0.1389075070619583,-0.012375970371067524,-0.07129012793302536,-0.11623875796794891,-0.10364890843629837,-0.08066485077142715,0.015984714031219482,0.12124218791723251,-0.10468821227550507,0.08702599257230759,0.1401379108428955,0.008530035614967346,-0.007862037979066372,-0.07614920288324356,-0.048098091036081314,-0.11676494032144547,0.08422066271305084,-0.10917224735021591,0.10531013458967209,0.009776884689927101,0.14961795508861542,-0.0058205341920256615,0.10512197762727737,-0.1094873920083046,0.002245501149445772,-0.01744316704571247,-0.04456625133752823,-0.12871496379375458,0.09873802214860916,-0.036376435309648514,-0.0014137389371171594,-0.028189826756715775,0.029699254781007767,-0.10506235063076019,0.010683568194508553,0.06141861900687218,-0.052572838962078094,-0.050904206931591034,0.0012791308108717203,-0.06775335967540741,0.026517119258642197,0.007037454284727573,-0.09233153611421585,0.02107877843081951,-0.1326906532049179,0.06896396726369858,-0.03449480980634689,-0.1287963092327118,0.0059056575410068035,-0.039780959486961365,0.05533168464899063,-0.17279969155788422,0.050203096121549606,-0.011156097985804081,-0.09313856810331345,-0.033993493765592575,0.012769641354680061,0.06770537793636322,-0.013319618068635464,0.12257001549005508,-0.056454408913850784,-0.04044340178370476,-0.09400202333927155,-0.12283682823181152,-0.1097094714641571,-0.06866041570901871,0.0015990252140909433,-0.011875183321535587,-0.09519568830728531,0.08229123055934906,0.10802765190601349,0.018198341131210327,-0.06532678008079529,0.05810507386922836,-0.03863902762532234,0.034463439136743546,-0.06204482540488243,0.042467180639505386,-0.12266729027032852,-0.08513384312391281,0.09407312422990799,-0.1702374964952469,-0.023649580776691437,-0.05829785019159317,0.14986081421375275,-0.007374105043709278,-0.10771603137254715,-0.15520170331001282,0.12932167947292328,-0.03395335003733635,-0.04622303694486618,-0.003518656361848116,-0.027389660477638245,0.024713562801480293,-0.005756256636232138,-0.09081673622131348,-0.1694023460149765,0.07934015989303589,-0.12899988889694214,-0.0691407173871994,0.03417227417230606,0.0012083244509994984,-0.01205955445766449,-0.007545432075858116,-0.004262412898242474,0.03881801664829254,-0.043063342571258545,0.06955411285161972,-0.09877831488847733,-0.060280438512563705,0.07416412979364395,0.06697798520326614,0.10956243425607681,0.04060197249054909,0.11583425104618073,-0.012225582264363766,0.20602478086948395,0.05793072283267975,-0.09169978648424149,0.16947194933891296,0.09585688263177872,-0.02173503302037716,-0.040647491812705994,0.018598105758428574,0.06213095784187317,0.06728044152259827,0.046908408403396606,-0.13117846846580505,-0.1357918530702591,-0.0358634777367115,-0.12876257300376892,0.10323900729417801,0.01418033242225647,-0.06975626200437546,-0.01907660998404026,-0.020677119493484497,-0.05084935203194618,0.07489592581987381,-0.03001701459288597,0.03571902960538864,-0.005698677152395248,0.03477184846997261,-0.038632385432720184,0.009268052875995636,-0.074195496737957,0.055741798132658005,0.09132931381464005,0.091646209359169,0.02089856192469597,0.04885341227054596,0.15446598827838898,-0.10702356696128845,-0.042330410331487656,0.026054315268993378,-0.1020531877875328,0.1614164561033249,0.15548075735569,0.14687353372573853,0.10338278114795685,0.12129764258861542,-0.04199865460395813,0.08448794484138489,0.016172854229807854,0.02676592580974102,0.006662711035460234,0.058695510029792786,-0.09781060367822647,0.0152089549228549,0.12072128802537918,-0.052251044660806656,-0.023073092103004456,-0.06377457082271576,-0.09575076401233673,-0.14806142449378967,-0.11618880182504654,-0.04415125772356987,-0.024746380746364594,0.03382337465882301,0.10607411712408066,-0.012354476377367973,0.11994340270757675,0.06687967479228973,0.11716141551733017,0.005290244240313768,0.09283654391765594,0.086724191904068,-0.012126483023166656,0.04199787229299545,0.07122649997472763,-0.11911262571811676,-0.05087646469473839,0.09419373422861099,-0.044192925095558167,-0.06883259117603302,-0.044994618743658066,0.030318425968289375,-0.06941624730825424,-0.1256968379020691,-0.051323819905519485,-0.13027644157409668,0.14901436865329742,-0.01804613135755062,-0.13987360894680023,0.019107894971966743,0.07655414938926697,-0.09644220769405365,-0.0678076520562172,-0.0882217213511467,-0.01713116094470024,0.06402376294136047,-0.08657152205705643,0.016136741265654564,0.10267304629087448,-0.11801221966743469,-0.005447748117148876,0.005444961134344339,0.13183768093585968,-0.09130902588367462,-0.08970517665147781,0.015849731862545013,0.07500717788934708,0.06333624571561813,-0.02323235385119915,0.06559307128190994,0.12395694106817245,-0.08956903964281082,0.04472564160823822,0.03374723717570305,-0.0508904755115509,-0.03695160150527954,0.06014583259820938,0.04097876325249672,0.04454609006643295,-0.09186503291130066,-0.12260712683200836,-0.017581939697265625,-0.06912365555763245,-0.06735357642173767,0.026349622756242752,0.23021169006824493,0.1212041899561882,0.10866532474756241,0.08598470687866211,-0.12504997849464417,0.09021232277154922,0.03399236872792244,0.06070367246866226,-0.055309247225522995,-0.0665045976638794,-0.266934335231781,0.008552185259759426,0.0991058424115181,-0.040610771626234055,0.05458548292517662,0.11038973182439804,0.021647319197654724,0.06808269768953323,-0.11624369770288467,-0.0677281990647316,-0.12296167016029358,-0.13671328127384186,0.03563199192285538,-0.03129478543996811,-0.044844165444374084,0.016342267394065857,0.035642609000205994,0.059810128062963486,-0.0738402009010315,0.13893082737922668,-0.029573801904916763,0.07445036619901657,-0.05750995874404907,-0.08203135430812836,-0.005405885633081198,-0.04044177755713463,0.03869692236185074,-0.035141292959451675,-0.04943980649113655,-0.09923151135444641,0.17302314937114716,-0.12525327503681183,0.11293021589517593,-0.07977048307657242,0.14870260655879974,-0.09548021107912064,0.11171422898769379,0.11478026956319809,0.14055553078651428,0.14218442142009735,0.1365395039319992,-0.09533248841762543,0.014388833194971085,0.10170166939496994,-0.014669489115476608,-0.08611200004816055,-0.08694974333047867,0.135720357298851,0.08638831973075867,0.02120223268866539,0.06049054116010666,0.1077897846698761,-0.11485901474952698,-0.1493368148803711,0.09683723002672195,0.1955796182155609,-0.07242286205291748,-0.04141237959265709,0.1122320219874382,0.020220443606376648,-0.06331634521484375,-0.13231638073921204,-0.1576458215713501,0.07352152466773987,-0.10025310516357422,0.011748719960451126,-0.10178566724061966,-0.12809590995311737,0.015491906553506851,0.09909997135400772,0.11891573667526245,0.02623482421040535,0.01925140991806984,0.09970717877149582,0.11028771102428436,0.11909165233373642,-0.0874500647187233,0.11263323575258255,0.02202535606920719,0.0840243250131607,0.09415271133184433,0.05784203112125397,-0.1739283949136734,-0.1277332454919815,0.11901155114173889,-0.04771602898836136,-0.09308528155088425,-0.08448518067598343,0.0632714256644249,0.014386333525180817,0.032926127314567566,0.11363019794225693,-0.05223846435546875,0.08275531232357025,0.06421323120594025,-0.00056066969409585,-0.11647088080644608,0.009721142239868641,-0.1721419394016266,-0.1181245744228363,-0.15337765216827393,-0.03006528690457344,-0.029593490064144135,-0.10670867562294006,-0.036207955330610275,-0.0893295556306839,0.05898948386311531,0.05415148288011551,-0.12813714146614075,0.11726745218038559,0.06075267121195793,-0.06989463418722153,0.0724644884467125,-0.06802915781736374,-0.02566996030509472,0.02379290759563446,-0.03665974363684654,-0.1081947535276413,0.08941349387168884,-0.04278001934289932,0.1223529800772667,-0.03889556601643562,0.1953306645154953,0.0827430710196495,0.19438336789608002,0.08510898053646088,-0.04392872005701065,0.03267573192715645,0.07480277866125107,0.06261111795902252,-0.007069230079650879,-0.0006806440651416779,-0.12967108190059662,-0.16265566647052765,-0.06844139099121094,-0.03875434771180153,0.0013042389182373881,-0.14010602235794067,-0.005416431929916143,0.06899632513523102,-0.10904989391565323,0.042763739824295044,0.05395103618502617,0.0007517628837376833,-0.04182840511202812,-0.08430846780538559,-0.11732957512140274,0.08186841011047363,-0.0561414435505867,0.05211972817778587,0.056222520768642426,-0.13869063556194305,0.031048784032464027,0.058043066412210464,-0.12278236448764801,-0.14792832732200623,0.05093428120017052,-0.024497080594301224,0.1488366425037384,0.03827077895402908,-0.004377016797661781,-0.11553887277841568,-0.013605915009975433,-0.09204522520303726,-0.025746220722794533,0.02474146895110607,0.12192736566066742,-0.07719150185585022,-0.029668183997273445,0.04011412337422371,-0.03427360579371452,-0.03946393355727196,-0.07469184696674347,-0.033528413623571396,0.2156979739665985,0.059319138526916504,0.12683062255382538,0.16760745644569397,-0.054292306303977966,-0.036246564239263535,-0.03231498599052429,0.0931289792060852,0.090235635638237,-0.1509244292974472,-0.04525834321975708,0.04184111952781677,-0.03429371118545532,0.1187044307589531,0.14470157027244568,-0.05671263113617897,0.08293700963258743,0.085978664457798,0.10708364099264145,-0.01929556205868721,0.13531671464443207,0.03281373530626297,0.12189273536205292,-0.08779765665531158,0.007253272924572229,0.07551425695419312,-0.03776612877845764,-0.086815245449543,0.009903405793011189,-0.04633975774049759,0.06524945795536041,0.05093885213136673,0.05831875279545784,0.009618961252272129,-0.01758711226284504,0.03705775737762451,0.07130640000104904,0.1736847311258316,0.0848865881562233,-0.04293575882911682,0.030419766902923584,-0.12628181278705597,0.10956533253192902,-0.06287514418363571,-0.03916286677122116,0.07971573621034622,-0.16308584809303284,0.03525257855653763,-0.04595751687884331,0.04787786677479744,-0.02827705256640911,-0.023714154958724976,-0.021571243181824684,-0.051646582782268524,0.033045947551727295,0.11664789915084839,-0.05736064165830612,-0.11323696374893188,0.061567921191453934,-0.13827113807201385,-0.12273551523685455,0.009513232856988907,0.09739186614751816,-0.024393923580646515,0.02360442280769348,-0.021362844854593277,0.22527040541172028,-0.01942451484501362,-0.07339847087860107,-0.11962080001831055,-0.08300169557332993,-0.02497822605073452,0.05691710114479065,0.08710961043834686,-0.15829962491989136,-0.16758273541927338,0.1433839648962021,0.18608619272708893,0.0435604602098465,-0.029221849516034126,-0.03351440280675888,0.019562844187021255,-0.17880888283252716,-0.06974311918020248,0.16570289433002472,0.08953183144330978,0.10791196674108505,-0.07032617181539536,-0.11028178036212921,-0.12904322147369385,0.08503644168376923,-0.12775087356567383,-0.05273963138461113,-0.0036442468408495188,0.046811409294605255,0.1134028360247612,0.05977734923362732,0.05126264691352844,0.1446550190448761,0.07247661054134369,-0.06221964210271835,0.03179672360420227,0.10766585171222687,-0.06559685617685318,-0.009091977030038834,-0.023467792198061943,-0.1340034455060959,0.10966120660305023,0.08280954509973526,0.03906646743416786,-0.10465344041585922,0.13037607073783875,-0.06797530502080917,-0.10338601469993591,-0.13599014282226562,0.14989884197711945,0.13199009001255035,-0.048724446445703506,-0.16780969500541687,-0.032427117228507996,-0.13102786242961884,0.16218286752700806,-0.09485511481761932,0.09760474413633347,0.023892097175121307,0.15614823997020721,-0.030544495210051537,-0.0006865516188554466,-0.13047103583812714,-0.013296975754201412,0.11957850307226181,0.0731559619307518,0.04776156693696976,-0.08633381128311157,0.08544660359621048,-0.14857515692710876,-0.07308851927518845,-0.05185115337371826,-0.005737247411161661,-0.1653592735528946,-0.14268778264522552,-0.03774481639266014,0.011481278575956821,-0.13947124779224396,-0.0002866618160624057,0.030846968293190002,0.06185121461749077,-0.001156870974227786,-0.015309950336813927,-0.08214568346738815,-0.03667020425200462,-0.08614218235015869,-0.014738530851900578,0.06281618773937225,0.09813519567251205,0.05400744453072548,-0.025244710966944695,0.134451761841774,-0.06924097239971161,0.1674496978521347,-0.13577228784561157,0.0605485774576664,-0.1624780297279358,0.0007924289093352854,0.0369153693318367,0.06864166259765625,-0.06111479923129082,0.05475764349102974,0.14506763219833374,0.05595284700393677,-0.13823126256465912,0.12082120031118393,0.027831271290779114,-0.0888453796505928,-0.02855609729886055,0.05135871469974518,0.05551391467452049,-0.10748474299907684,-0.0793204978108406,-0.022762320935726166,0.010468129068613052,0.03169930726289749,0.013708438724279404,-0.004137575160712004,-0.08324375003576279,-0.009881238453090191,0.04693005979061127,0.035360660403966904,-0.11121514439582825,-0.006436117924749851,0.065926693379879,-0.10183493047952652,-0.008383452892303467,0.015266606584191322,0.19547483325004578,0.08865569531917572,-0.14563816785812378,0.13453471660614014,0.00677803298458457,0.12292639911174774,-0.0019381878664717078,-0.017073003575205803,0.011834065429866314,0.012913286685943604,-0.10887138545513153,-0.13332614302635193,-0.008570272475481033,-0.08096127957105637,-0.009727979078888893,-0.08333870023488998,0.09856896102428436,0.07081697136163712,-0.03109150193631649,0.04653822258114815,-0.06230105832219124,-0.028418835252523422,-0.18824879825115204,-0.034459371119737625,-0.15099608898162842,0.02213006652891636,0.0025864499621093273,-0.038379572331905365,0.008740830235183239,0.026255082339048386,0.12012174725532532,-0.08742255717515945,-0.05136865749955177,-0.012461349368095398,-0.13625800609588623,-0.01909024827182293,-0.08163256198167801,0.1117016077041626,0.010420392267405987,0.11447379738092422,-0.09855721890926361,-0.06636320054531097,0.08385903388261795,0.023169388994574547,-0.14776581525802612,0.056764084845781326,0.16748370230197906,-0.05575012415647507,-0.15980957448482513,0.010703972540795803,0.06452654302120209,0.0878743827342987,-0.055900804698467255,-0.15788619220256805,0.033720459789037704,-0.009877577424049377,-0.0074508171528577805,-0.14955087006092072,-0.032698605209589005,-0.007132983300834894,-0.05179731175303459,0.020194808021187782,-0.06019297242164612,0.010215183719992638,0.13766920566558838,0.11206687241792679,0.08291850984096527,-0.1393391489982605,-0.04553835466504097,-0.09219956398010254,0.05312095955014229,0.07948113232851028,0.0037623471580445766,-0.05384199693799019,-0.14441126585006714,0.03274929150938988,-0.028715308755636215,-0.03007327765226364,0.10027823597192764,-0.056373391300439835,-0.06324894726276398,0.005576827097684145,0.17377042770385742,0.09665241837501526,-0.18676021695137024,0.09558669477701187,-0.05047754943370819,0.03027494065463543,0.15544739365577698,0.10780205577611923,-0.0010501560755074024,-0.02444211207330227,0.060704514384269714,0.07676684111356735,0.0022798613645136356,-0.05752703547477722,0.07887068390846252,-0.1119927391409874,-0.10857099294662476,0.02236447110772133,-0.06172418221831322,0.10198738425970078,-0.007390282582491636,-0.07290033996105194,-0.009794477373361588,0.093729667365551,-0.09762253612279892,0.012487763538956642,0.09760106354951859,0.1015128418803215,0.031043898314237595,-0.03521973267197609,-0.051462817937135696,0.08263501524925232,-0.038470007479190826,-0.0016977899940684438,0.01014783326536417,0.014684421941637993,-0.06863641738891602,0.008064541034400463,-0.10120296478271484,0.11446207761764526,-0.047352708876132965,0.07998113334178925,0.1061307042837143,0.10142938047647476,0.07755978405475616,0.08553238213062286,-0.05737999454140663,-0.08869500458240509,-0.05161431059241295,0.09721755981445312,-0.12447596341371536,0.12988246977329254,0.016012204810976982,0.12594464421272278,-0.039433665573596954,0.08829867839813232,-0.08484240621328354,0.060083188116550446,0.08370617777109146,-0.055907491594552994,0.12533634901046753,-0.05242113023996353,0.11716271936893463,0.02111906185746193,-0.10241762548685074,0.030974453315138817,-0.0170648954808712,-0.06531225889921188,0.12491314113140106,0.10903508216142654,0.09286815673112869,0.09014058858156204,0.07053856551647186,0.10029377043247223,0.031953029334545135,-0.012902355752885342,-0.08011394739151001,0.11405337601900101,0.11506820470094681,-0.11412214487791061,-0.04422936588525772,-0.05429443344473839,0.06385280191898346,-0.00762327341362834,-0.032252825796604156,-0.06976046413183212,0.06635888665914536,-0.05841648951172829,0.17891599237918854,0.06661585718393326,-0.1305921971797943,-0.07494037598371506,0.13760632276535034,0.05639128386974335,0.11332934349775314,0.021939940750598907,-0.03974069654941559,0.12673762440681458,-0.0832788497209549,0.11394604295492172,0.027894608676433563,-0.0860152468085289,-0.0051239170134067535,0.07947061955928802,0.11001221835613251,-0.00047525024274364114,0.0009583133505657315,-0.02010721154510975,0.06220289319753647,-0.10501421988010406,-0.13132800161838531,-0.177432581782341,-0.07082155346870422,0.028057055547833443,0.0060203648172318935,-0.029374636709690094,-0.10386654734611511,0.040138278156518936,0.03021431341767311,0.07885029166936874,0.08818867057561874,-0.10085246711969376,0.1403777003288269,-0.04866500198841095,0.01676398329436779,0.030266661196947098,0.11504969745874405,0.030083300545811653,-0.011362312361598015,-0.017122074961662292,-0.02028788812458515,0.020724643021821976,0.017759131267666817,-0.10429838299751282,0.01499265618622303,-0.045641493052244186,-0.011846641078591347,0.1454908698797226,-0.03346126526594162,-0.1901800036430359,-0.1981523633003235,0.14941996335983276,0.04247215390205383,-0.14122715592384338,-0.04824512079358101,-0.12327833473682404,0.1114073321223259,0.16235294938087463,-0.03768652305006981,-0.03321867436170578,0.06660500168800354,0.17157696187496185,0.08777547627687454,0.06990603357553482,0.0500260591506958,-0.01092519611120224,-0.1163889616727829,-0.010631971061229706,0.11386161297559738,0.09134270995855331,0.08811576664447784,-0.055733248591423035,-0.010642528533935547,-0.14021433889865875,0.04472813382744789,0.014207841828465462,0.04461796581745148,-0.07463883608579636,-0.13416063785552979,-0.06468493491411209,0.02692309021949768,-0.10267850756645203,-0.026466893032193184,-0.0022522499784827232,0.022767338901758194,0.029334459453821182,-0.12140931934118271,0.0569746196269989,-0.06744446605443954,-0.04919532686471939,-0.03920507803559303,0.10016561299562454,-0.09142322093248367,-0.18627683818340302,-0.15098190307617188,-0.06831835210323334,-0.021550077944993973,-0.03745165467262268,-0.17686717212200165,-0.14271393418312073,0.03906913101673126,-0.07235074043273926,-0.10459887981414795,-0.18818897008895874,0.012004136107861996,-0.06872569024562836,-0.05399230867624283,0.17368178069591522,0.10341499000787735,0.017932387068867683,-0.0666598305106163,0.11525015532970428,-0.09095731377601624,-0.14169415831565857,0.012957589700818062,-0.008366799913346767,-0.09753338992595673,-0.10821656882762909,-0.0455743670463562,-0.06277750432491302,-0.08127235621213913,-0.027002252638339996,-0.08237337321043015,-0.07587144523859024,-0.02810468152165413,-0.09712786227464676,-0.15962573885917664,-0.046974066644907,0.08027879893779755,0.019509760662913322,-0.035218771547079086,-0.005641563795506954,-0.12708789110183716,-0.10476946085691452,0.06621801108121872,0.11742378026247025,0.10257788747549057,-0.10189197957515717,-0.08683639764785767,0.04726046323776245,0.019581662490963936,0.011289280839264393,-0.06638599187135696,-0.03440837189555168,0.054160475730895996,-0.09077654778957367,-0.17968443036079407,-0.023548835888504982,0.03148053586483002,-0.09383934736251831,-0.0792490690946579,-0.011605626903474331,-0.09984879940748215,0.06346185505390167,-0.06514490395784378,-0.043058138340711594,-0.1758391410112381,-0.07361500710248947,0.03182143345475197,0.0944509357213974,-0.03370209038257599,0.009074845351278782,0.06275026500225067,0.06187453120946884,-0.042413465678691864,-0.011653763242065907,-0.1540042906999588,-0.1142999604344368,0.020419413223862648,-0.12832506000995636,0.0037020030431449413,-0.05094367265701294,-0.1749701201915741,-0.10896085947751999,0.029368296265602112,-0.02226298674941063,0.027866143733263016,0.01275933999568224,0.020075250416994095,-0.05672617629170418,0.0025267426390200853,0.13058412075042725,0.03259366750717163,-0.06276077777147293,0.009967787191271782,-0.07291585952043533,-0.11608868837356567,-0.01585330441594124,0.032199207693338394,-0.14594916999340057,-0.13419000804424286,-0.07540904730558395,-0.04801224172115326,-0.06007111072540283,0.10288426280021667,0.0022074624430388212,-0.15803027153015137,0.09919479489326477,-0.061738938093185425,-0.13035976886749268,0.09826692193746567,-0.0874117836356163,-0.11115565150976181,-0.03779885917901993,0.003695491701364517,0.03040287457406521,-0.13941557705402374,-0.03175026923418045,-0.07353237271308899,0.03736216574907303,0.033745065331459045,0.0416797436773777,0.04066615179181099,0.00862750131636858,-0.09608733654022217,-0.08333737403154373,0.10423888266086578,0.08154571056365967,0.08899105340242386,0.13596805930137634,-0.059267494827508926,0.005533858202397823,0.06256728619337082,-0.013675804249942303,0.01679832860827446,0.051623888313770294,0.029795845970511436,-0.09279367327690125,-0.08754359930753708,0.002856105100363493,-0.019817644730210304,0.09115473926067352,-0.12784671783447266,-0.02022841013967991,-0.051913436502218246,-0.11065858602523804,-0.07445762306451797,0.06300660222768784,0.07772080600261688,-0.018487626686692238,-0.0189653467386961,0.010562539100646973,-0.14612455666065216,0.061639104038476944,0.04318404197692871,-0.05667262524366379,-0.06003179773688316,-0.05767068639397621,0.10466091334819794,-0.005045958328992128,-0.11013966798782349,0.018960222601890564,-0.03652065619826317,-0.06898241490125656,0.0812038704752922,-0.050637420266866684,0.01632530614733696,0.10204391181468964,0.0699799582362175,0.11417850852012634,-0.07782168686389923,0.05394718423485756,-0.039023250341415405,0.01853242702782154,-0.13792555034160614,0.0613451786339283,-0.018811289221048355,-0.0363871231675148,-0.027638131752610207,-0.06363078206777573,0.03415102884173393,-0.010707618668675423,0.09921354055404663,0.07212788611650467,-0.03199921175837517,0.029725564643740654,0.018868234008550644,-0.06466300785541534,0.08059446513652802,-0.054282814264297485,-0.07324481755495071,-0.038943637162446976,0.07531382888555527,0.023298373445868492,-0.09388649463653564,-0.11972831189632416,0.0881173312664032,0.12886978685855865,-0.02910255827009678,0.06504195928573608,0.17964142560958862,-0.037941768765449524,0.12663578987121582,0.015288782306015491,0.10473308712244034,0.07310071587562561,0.13365918397903442,-0.14871881902217865,0.019843358546495438,-0.059702109545469284,-0.015523144975304604,0.12131208181381226,-0.018948987126350403,-0.02192116156220436,0.08524208515882492,-0.018141401931643486,0.06617292016744614,-0.11629330366849899,-0.16242218017578125,0.040988825261592865,-0.05973165109753609,0.05690871551632881,-0.04339421167969704,0.05776207521557808,-0.07938934117555618,-0.009245049208402634,-0.10396474599838257,-0.10853084921836853,-0.10065029561519623,-0.07596570253372192,0.07287556678056717,-0.032388702034950256,-0.010523846372961998,0.05740562453866005,-0.11601292341947556,-0.03979862853884697,-0.1214856207370758,-0.010839586146175861,0.023363694548606873,-0.1438789665699005,-0.11387684941291809,0.10348819196224213,0.14509448409080505,0.08656878769397736,-0.0024210482370108366,0.005990809295326471,-0.031375572085380554,0.04673318192362785,-0.08108161389827728,0.10125439614057541,-0.05308406800031662,-0.12527431547641754,0.06463854014873505,0.05687831714749336,-0.07126892358064651,-0.04858482629060745,-0.18777701258659363,-0.012545878998935223,-0.15080982446670532,0.05920596793293953,0.024137355387210846,-0.11881975829601288,-0.12539146840572357,-0.10403410345315933,-0.0716550424695015,0.04001684859395027,0.11687455326318741,-0.10731229186058044,0.04614953696727753,-0.023632941767573357,-0.09389041364192963,0.021374743431806564,-0.17603406310081482,0.034301985055208206,0.08712036907672882,-0.11463009566068649,-0.11603698879480362,0.12414219975471497,0.009563783183693886,0.07240156829357147,0.02158426307141781,0.08869148045778275,-0.04536447301506996,0.049193255603313446,-0.0364297591149807,0.026382317766547203,-0.033908404409885406,-0.07612578570842743,0.03842230513691902,0.049031347036361694,0.0895366370677948,0.14931057393550873,0.0009229631978087127,-0.11327186226844788,0.035357147455215454,0.09970454126596451,-0.02482994645833969,0.07436569780111313,0.09839427471160889,-0.08595015853643417,0.07093580812215805,-0.10246738791465759,-0.013475224375724792,0.0276833176612854,-0.09661009162664413,0.04803209379315376,0.15243640542030334,0.03563295304775238,-0.048409126698970795,0.03153606876730919,0.02393481694161892,-0.040853556245565414,-0.02598670683801174,0.0682031661272049,0.12421488016843796,0.05756530538201332,-0.08746680617332458,-0.043116360902786255,-0.12054439634084702,-0.04666914790868759,0.08881717920303345,-0.061451274901628494,-0.040491268038749695,0.05147698149085045,-0.0009025816107168794,-0.013242763467133045,-0.05773121491074562,-0.05187136307358742,0.015492364764213562,0.09803494065999985,0.04148520901799202,0.08088850229978561,-0.06343550235033035,0.1403702348470688,-0.05550755187869072,0.06028420850634575,-0.020943062379956245,0.15812280774116516,-0.10191208869218826,-0.14075112342834473,0.010020692832767963,0.11050934344530106,-0.05572613701224327,-0.055706534534692764,0.013776130974292755,0.015886925160884857,-0.027967544272542,-0.15182550251483917,0.1224788948893547,-0.027782544493675232,-0.017307301983237267,0.08538153767585754,0.09268269687891006,-0.015257763676345348,0.1243673712015152,-0.1193852350115776,-0.024922171607613564,0.02647584304213524,0.055976226925849915,-0.09615522623062134,0.10262548923492432,-0.04490378871560097,0.036967720836400986,0.04594099894165993,-0.11344509571790695,0.12621165812015533,-0.015398945659399033,0.1903500109910965,-0.07787424325942993,0.10514558106660843,0.14184874296188354,-0.1259092092514038,-0.15926040709018707,0.11967107653617859,-0.03707513585686684,0.09557149559259415,0.060706984251737595,0.07703380286693573,0.061216745525598526,-0.11216389387845993,0.026152590289711952,0.046623535454273224,0.01763741485774517,-0.13408738374710083,0.0771900936961174,-0.05103791132569313,-0.05992269515991211,0.08926147222518921,0.029843805357813835,-0.01034452673047781,0.002580628264695406,-0.05090487375855446,0.0643232986330986,-0.06638335436582565,0.1989532709121704,0.024942541494965553,-0.019081924110651016,-0.14301730692386627,0.1475827693939209,0.15380951762199402,-0.13505885004997253,0.10141482204198837,-0.1195499524474144,-0.0035351847764104605,0.0882900208234787,-0.04868520796298981,0.1361151933670044,0.01576721854507923,-0.005638492293655872,-0.00876030046492815,0.03067287802696228,0.070381298661232,-0.06866970658302307,-0.1820354163646698,0.20671166479587555,0.154856875538826,0.04906083270907402,0.07178936898708344,0.16428306698799133,0.04995564743876457,0.12720322608947754,0.02986667864024639,0.007861446589231491,0.12450362741947174,0.11579007655382156,0.05037917196750641,0.1091468334197998,0.1822412759065628,-0.08074218779802322,-0.04396878555417061,0.03027203679084778,0.07661780714988708,-0.12490833550691605,0.07511638849973679,-0.03119071200489998,0.12470748275518417,0.11905152350664139,0.03538013994693756,0.030821170657873154,-0.13990022242069244,0.12450088560581207,-0.016953859478235245,-0.039201948791742325,0.07428409904241562,-0.05269397422671318,-0.041249822825193405,0.10160801559686661,0.12321828305721283,-0.06434613466262817,0.09169969707727432,-0.11347150802612305,-0.12424822896718979,0.07687798887491226,0.11516448110342026,-0.2353258579969406,0.07413352280855179,0.01771669089794159,-0.17169854044914246,-0.19620196521282196,0.012976719997823238,-0.11273933202028275,-0.12243852764368057,0.15533585846424103,0.13044005632400513,0.16543401777744293,-0.11208228766918182,0.0354992151260376,0.10091456770896912,-0.1600404530763626,0.050124600529670715,0.20145314931869507,-0.05373232066631317,0.15105725824832916,0.02919100970029831,0.1875714808702469,0.03990352526307106,-0.27576881647109985,0.052380211651325226,0.10846642404794693,0.11417131870985031,0.17920702695846558,0.0049676294438540936,-0.26276689767837524,-0.0018099183216691017,-0.09425989538431168,0.07531139999628067,-0.19982662796974182,0.06528916954994202,0.1814478486776352,0.037608299404382706,0.024901343509554863,-0.035481829196214676,-0.15065790712833405,0.05098239332437515,0.09258925169706345,0.18070313334465027,0.029528263956308365,-0.14422257244586945,0.09972202032804489,-0.060997746884822845,-0.11987800151109695,0.09664437174797058,-0.11762159317731857,0.12171439081430435,0.14910191297531128,0.11185182631015778,-0.04174308851361275,-0.06005144864320755,0.012336404994130135,0.11559591442346573,-0.09057402610778809,0.05067182332277298,0.06773259490728378,0.13626527786254883,0.05793630704283714,-0.10821377485990524,-0.09103242307901382,-0.16738483309745789,0.13775001466274261,-0.02868136577308178,-0.0364973284304142,0.12211589515209198,0.1253470778465271,-0.06345460563898087,0.004185826983302832,0.14662158489227295,0.05520496144890785,0.12282929569482803,-0.048855844885110855,0.028803203254938126,0.07107804715633392,0.04809414595365524,0.10168683528900146,-0.028780318796634674,0.009391878731548786,0.05140078440308571,0.008911536075174809,0.023356968536973,-0.15118545293807983,-0.05372729152441025,-0.023193776607513428,0.06391853839159012,0.03379172459244728,-0.16217461228370667,-0.007853073067963123,-0.039325129240751266,-0.13884571194648743,-0.10710646957159042,-0.19233344495296478,-0.022180866450071335,0.14149276912212372,0.0684148445725441,-0.12267909198999405,0.17948172986507416,0.13977855443954468,-0.18206904828548431,0.04589713737368584,0.08443717658519745,-0.13033436238765717,0.14484582841396332,0.09886839240789413,0.25854194164276123,0.11333602666854858,0.1669580042362213,-0.09019193798303604,0.15872089564800262,0.04457990452647209,-0.1143251359462738,-0.12959422171115875,-0.06704964488744736,-0.16171394288539886,0.042231954634189606,0.07027250528335571,-0.003750783856958151,0.019948989152908325,0.09807800501585007,-0.12000210583209991,-0.006195539142936468,0.1639084666967392,0.12893171608448029,0.09297899901866913,-0.10299575328826904,0.10857079923152924,0.042385805398225784,0.022562533617019653,-0.0400414913892746,0.11797792464494705,-0.025707559660077095,-0.07910618185997009,-0.035692181438207626,-0.08555566519498825,-0.0814066156744957,-0.02940613403916359,-0.05499828979372978,0.11190278828144073,0.0719122588634491,0.13740965723991394,-0.1741715371608734,-0.0767432302236557,-0.12579123675823212,0.10769114643335342,0.003237122902646661,-0.11279850453138351,-0.01379447802901268,-0.094215989112854,-0.02467712014913559,0.09565587341785431,0.18361058831214905,0.13924120366573334,0.10592447966337204,0.03486611321568489,0.0193178690969944,-0.06924982368946075,-0.0952252745628357,0.024272089824080467,-0.020615756511688232,-0.05762995779514313,0.049443356692790985,-0.0017517886590212584,0.13014385104179382,-0.10072539001703262,0.0463540218770504,0.06759211421012878,0.13575582206249237,-0.10621194541454315,0.14425843954086304,0.020684629678726196,-0.11198869347572327,-0.07253258675336838,-0.008911697193980217,0.08561388403177261,0.09532509744167328,0.0257770586758852,-0.0567801371216774,0.01648011803627014,-0.04546388238668442,-0.1042432188987732,-0.00571705074980855,-0.05148608610033989,-0.02958737313747406,1.660561974858865e-05,0.061638955026865005,0.001548859872855246,-0.09230753034353256,0.10303390771150589,0.05541732534766197,-0.0981922447681427,0.096961610019207,-0.03254934027791023,-0.13960620760917664,-0.049375008791685104,-0.06354565918445587,-0.07788962870836258,0.08817586302757263,0.008445792831480503,0.05494110286235809,-0.15715202689170837,0.11299275606870651,-0.0272115096449852,0.12734352052211761,0.0801130011677742,0.006965754088014364,0.13550707697868347,-0.1055494174361229,0.13003787398338318,-0.10173387080430984,0.14728184044361115,0.002232060767710209,0.11783947795629501,-0.06913526356220245,-0.2081664800643921,-0.19514800608158112,0.0020196817349642515,-0.19118423759937286,-0.04601666331291199,0.048994287848472595,-0.038175102323293686,-0.07136570662260056,-0.057273752987384796,-0.10431280732154846,-0.08018523454666138,-0.18391816318035126,0.004415151197463274,0.058484528213739395,-0.09096714109182358,-0.11228803545236588,-0.05599113926291466,-0.02225976251065731,0.10650258511304855,0.06824368238449097,0.09916456788778305,-0.03164174407720566,-0.09756533056497574,-0.056861914694309235,-0.14315488934516907,-0.007713013794273138,-0.02500593289732933,-0.09963646531105042,0.03892361745238304,-0.1520453840494156,-0.036538708955049515,-0.020613951608538628,-0.03083866462111473,0.017015760764479637,0.025751981884241104,-0.1357082724571228,-0.02956664189696312,-0.031794775277376175,-0.1419224739074707,0.09005212783813477,-0.12939563393592834,-0.032399363815784454,0.03419173136353493,-0.009607706218957901,-0.07345020025968552,-0.06429652869701385,0.10651536285877228,0.05641848221421242,-0.018815286457538605,-0.06411895155906677,0.04762428626418114,-0.12711885571479797,0.021253352984786034,-0.13263024389743805,0.05309736728668213,-0.051166463643312454,0.13113988935947418,-0.09338784217834473,-0.1282399445772171,-0.11019928753376007,0.07576961815357208,0.17145545780658722,0.05196790769696236,-0.06388719379901886,0.015016299672424793,0.13794660568237305,-0.03936178237199783,-0.03381800279021263,0.011958283372223377,0.08148099482059479,-0.008155671879649162,0.060768455266952515,0.09862968325614929,0.001584080746397376,0.04062039777636528,-0.06432850658893585,-0.12017545849084854,-0.04881703853607178,0.11115444451570511,0.07630248367786407,0.05794449523091316,-0.0038160420954227448,0.15941506624221802,0.20833849906921387,0.0017534681828692555,-0.07446756213903427,-0.0023290966637432575,0.08293266594409943,-0.06823483854532242,-0.029656682163476944,-0.09092595428228378,-0.110970638692379,0.10164161026477814,0.07863456010818481,-0.011788436211645603,0.03947826474905014,0.005545494146645069,-0.06422214210033417,-0.04455266147851944,-0.009853819385170937,-0.044697605073451996,0.05691792070865631,0.1262272745370865,0.005259591620415449,-0.03376134857535362,-0.17177866399288177,0.11283090710639954,0.007780285552144051,0.11730682104825974,-0.004478053189814091,0.006692181807011366,0.04543526843190193,-0.1148758977651596,-0.17584699392318726,-0.09897787123918533,-0.10441555082798004,-0.04558632895350456,-0.1292271465063095,0.1266738325357437,-0.1412137895822525,-0.12467879801988602,-0.03162473440170288,-0.12282352149486542,0.07932603359222412,0.0802677571773529,0.13417372107505798,-0.07705338299274445,-0.01728164404630661,0.05155929923057556,0.15436090528964996,-0.042835671454668045,-0.07341814041137695,-0.1707892268896103,-0.08031304180622101,0.009329058229923248,0.1350320428609848,0.07831913232803345,-0.09205567091703415,-0.04233454540371895,-0.037434518337249756,0.06192538142204285,-0.00753914937376976,0.18602845072746277,0.1311418116092682,0.0641094222664833,-0.04664654657244682,-0.04792661592364311,-0.018953097984194756,0.1252383291721344,-0.12237046658992767,0.11970414221286774,-0.01145867258310318,0.15098194777965546,-0.0030158800072968006,0.09451077878475189,-0.001210534479469061,-0.12150023877620697,-0.059086158871650696,-0.013562511652708054,-0.0645194798707962,-0.010968631133437157,-0.05727967247366905,0.04018712043762207,-0.12291140854358673,0.02746114879846573,-0.11333724856376648,-0.10694890469312668,0.0072265672497451305,-0.04664100706577301,-0.09100445359945297,0.12462658435106277,0.09641715884208679,0.000784792413469404,-0.02271891199052334,-0.050793055444955826,0.050678800791502,-0.1193070337176323,-0.08949712663888931,-0.005747543647885323,0.05914534628391266,0.05211472883820534,0.06116865947842598,0.1237911656498909,0.07173962146043777,-0.005744668189436197,0.08187108486890793,0.009654498659074306,-0.10147736221551895,0.10516254603862762,-0.04077636078000069,-0.08317239582538605,0.03475093096494675,0.01928873546421528,0.07098200172185898,-0.08888474106788635,-0.06922363489866257,0.0719151571393013,-0.04192855581641197,0.1833605319261551,-0.01841089315712452,-0.11080590635538101,-0.05841270461678505,0.14265453815460205,0.08091091364622116,0.06772314757108688,0.09584049135446548,-0.04298694431781769,0.0845133364200592,-0.08812832087278366,-0.10843439400196075,0.11558318138122559,0.003997967578470707,0.06817779690027237,-0.02077641896903515,0.07809227705001831,-0.11033963412046432,-0.022238880395889282,0.10984449088573456,-0.020694101229310036,-0.02688722126185894,0.08423493057489395,-0.10621623694896698,-0.04860180243849754,-0.015472841449081898,-0.05334045737981796,-0.1483146697282791,-0.09166839718818665,-0.1734844297170639,-0.10317834466695786,-0.11030561476945877,-0.14485442638397217,-0.0019328505732119083,-0.06390583515167236,-0.009777570143342018,-0.07771402597427368,0.1618337482213974,0.010503450408577919,-0.02467062696814537,-0.0019754196982830763,-0.024120323359966278,0.10559571534395218,-0.031869739294052124,-0.01448905747383833,-0.0955267921090126,0.1503279209136963,0.06876970082521439,-0.0944756418466568,-0.07515591382980347,0.03026222437620163,-0.05917106568813324,0.06373398005962372,-0.017239684239029884,-0.033901747316122055,0.07380436360836029,0.08890888839960098,0.1175883561372757,0.004095801152288914,0.15250642597675323,0.07244943827390671,-0.11394158005714417,0.004055507015436888,0.028208082541823387,0.11007685959339142,-0.09973511844873428,0.045198265463113785,0.07630695402622223,0.11074304580688477,0.016362043097615242,-0.1010635495185852,-0.039068762212991714,-0.09128663688898087,-0.009993313811719418,-0.10506454110145569,0.14019711315631866,-0.09231198579072952,-0.1700521558523178,-0.12030405551195145,-0.0639742910861969,-0.15607470273971558,-0.08580807596445084,-0.06264470517635345,-0.03675725683569908,-0.03989213705062866,0.09192907810211182,-0.05469846352934837,-0.170692577958107,0.027188755571842194,-0.03551211580634117,-0.0655856728553772,0.1596924513578415,0.03342108055949211,0.14270412921905518,0.056374479085206985,0.13455793261528015,-0.11241375654935837,-0.045880332589149475,-0.20557954907417297,-0.16462482511997223,-0.1896376758813858,-0.17452272772789001,-0.07330314815044403,-0.02801058627665043,0.08964788913726807,0.10035783052444458,-0.03512843698263168,0.09691714495420456,0.04175650328397751,0.10494525730609894,0.10742419213056564,-0.036610838025808334,-0.10069696605205536,0.14720408618450165,-0.006694812793284655,0.08108048141002655,-0.10603196918964386,0.07196617871522903,0.13688762485980988,0.053214460611343384,0.11046861857175827,0.21026799082756042,0.12138977646827698,0.09375063329935074,0.04969984292984009,-0.08528267592191696,0.02162236161530018,-0.1137811616063118,1.31052565848222e-05,0.007209782488644123,-0.09513349086046219,-0.15747296810150146,-0.26829007267951965,-0.14974036812782288,0.07310361415147781,0.07047872990369797,-0.11869868636131287,0.011869970709085464,0.02723030559718609,-0.017406517639756203,0.013260425068438053,0.05557461827993393,-0.03310156986117363,0.043277766555547714,0.08033838868141174,0.0658208504319191,0.10221775621175766,-0.14039567112922668,0.023921702057123184,-0.05946081131696701,-0.03517494723200798,-0.10836794972419739,-0.14258739352226257,-0.07679841667413712,0.0994626134634018,-0.07973694801330566,-0.14306147396564484,0.13180314004421234,0.22601668536663055,-0.13688845932483673,-0.14171938598155975,0.19065424799919128,0.09221325069665909,-0.06489633023738861,0.1169450432062149,0.20833846926689148,-0.0919284000992775,-0.03325451910495758,0.040045443922281265,-0.015706172212958336,-0.08237975835800171,0.11204955726861954,0.14128431677818298,-0.030467020347714424,0.06958065927028656,0.022889547049999237,-0.11010521650314331,-0.09163156896829605,-0.060873523354530334,0.15221504867076874,0.13054868578910828,-0.0030588405206799507,-0.08118792623281479,-0.11268097907304764,0.07768842577934265,-0.020671959966421127,0.09744086116552353,-0.08993612229824066,0.017089517787098885,0.11425825953483582,-0.17854446172714233,-0.12176384031772614,-0.08078066259622574,-0.13835987448692322,0.005389567464590073,0.07629243284463882,0.12131650000810623,-0.060789916664361954,-0.10017591714859009,-0.04009785130620003,0.12211278825998306,0.15562638640403748,0.17768336832523346,0.061392322182655334,0.1448514312505722,0.06394169479608536,0.19976340234279633,0.08217578381299973,0.06543374061584473,-0.1532517969608307,0.031616076827049255,0.13347770273685455,-0.1319199651479721,-0.16443608701229095,0.034515757113695145,-0.21340279281139374,0.06672687828540802,0.0019140859367325902,-0.008242864161729813,-0.01468359399586916,0.10470632463693619,-0.004290595650672913,-0.048645149916410446,-0.11143595725297928,0.16035279631614685,-0.1511870175600052,-0.16098782420158386,0.13942915201187134,0.09103517234325409,-0.146149143576622,0.03826441615819931,-0.035124704241752625,0.19175736606121063,-0.07801417261362076,0.11376632004976273,-0.058592863380908966,-0.1741754561662674,0.0467585027217865,-0.027531232684850693,-0.2391824722290039,0.07014180719852448,-0.040119435638189316,-0.05644502490758896,-0.0309844221919775,0.1085931733250618,0.13442465662956238,0.0647832527756691,0.08243284374475479,0.028082821518182755,0.07019062340259552,0.08317568898200989,0.059334781020879745,0.05373935028910637,0.02439420484006405,-0.042118385434150696,0.07794282585382462,-0.062259234488010406,0.11886929720640182,0.10890337079763412,-0.0987011045217514,0.05158058926463127,-0.04663560539484024,-0.032464779913425446,-0.19261233508586884,-0.037238795310258865,-0.08279933780431747,-0.1271822154521942,0.06336475163698196,0.08843117952346802,-0.11935140192508698,-0.0077875396236777306,0.11614346504211426,-0.03169642388820648,0.05916867405176163,0.01954076625406742,-0.01916847750544548,0.09059183299541473,-0.05111824721097946,-0.031960275024175644,0.006767858751118183,-0.16093507409095764,0.05507165938615799,0.07653038948774338,-0.09729357808828354,-0.07869238406419754,-0.0018343011615797877,-0.13368414342403412,-0.07209596782922745,-0.07443219423294067,0.08774513751268387,0.05476777255535126,-0.13139361143112183,-0.005659717135131359,0.017809124663472176,0.03379783406853676,0.0857231393456459,0.01802815869450569,-0.13313625752925873,-0.13421528041362762,-0.025558236986398697,-0.03206918388605118,-0.06281382590532303,-0.12412995100021362,0.10526924580335617,0.1446906179189682,0.06366965919733047,0.11351782083511353,0.005426483228802681,0.1546909660100937,0.005511920899152756,-0.05287424847483635,0.02900991030037403,0.0631050318479538,-0.041114043444395065,0.13774268329143524,-0.10701195895671844,-0.03286432847380638,-0.015651365742087364,-0.05521290749311447,-0.0811014473438263,0.07405294477939606,-0.1629696786403656,0.16334597766399384,-0.09846968203783035,-0.17555123567581177,-0.10235324501991272,0.16874879598617554,0.021048715338110924,0.012203691527247429,0.11900527030229568,-0.05269363150000572,0.12284255772829056,0.02965257316827774,0.05901912599802017,0.1348651945590973,0.00756930373609066,0.04217376932501793,-0.012838494032621384,-0.05592777580022812,-0.0081486152485013,-0.06972898542881012,-0.038172896951436996,-0.11170092225074768,-0.18203091621398926,-0.1212482675909996,0.0396321564912796,-0.1261889785528183,0.09096360206604004,-0.07295551151037216,-0.1274346262216568,-0.16051281988620758,-0.05718959867954254,0.024149874225258827,-0.11092126369476318,-0.06634005904197693,-0.12074332684278488,-0.1260395646095276,-0.11099999397993088,-0.06519181281328201,-0.15033771097660065,0.04176325723528862,-0.2171708196401596,0.029124025255441666,0.05534641444683075,-0.10201988369226456,-0.10707127302885056,0.10570310801267624,0.10196027904748917,0.06457243114709854,-0.14052188396453857,-0.013144097290933132,0.01195500884205103,0.008353178389370441,-0.04819360375404358,0.10056550800800323,0.0653848648071289,-0.003833270398899913,0.017241325229406357,-0.10653024911880493,0.06645485758781433,-0.11474745720624924,-0.03176058828830719,-0.07525912672281265,-0.010283408686518669,0.07434561848640442,-0.11277790367603302,-0.008964941836893559,-0.14142146706581116,0.13230733573436737,0.049067720770835876,-0.14299659430980682,0.013165309093892574,-0.054922495037317276,0.12887714803218842,0.007785644847899675,-0.04860570281744003,-0.05218004435300827,-0.08487603813409805,0.04160936176776886,0.15834183990955353,0.07411447912454605,-0.1254582405090332,-0.09408225119113922,-0.1033424511551857,-0.08729150146245956,0.09559167921543121,-0.05891431123018265,-0.025691384449601173,-0.057653672993183136,-0.07266828417778015,0.0399586446583271,-0.08886699378490448,-0.0612824372947216,0.005785532761365175,-0.035986948758363724,-0.02599206380546093,-0.02820894494652748,0.08278249949216843,0.2330106943845749,0.007582863327115774,0.10212764143943787,-0.1253242939710617,0.21826483309268951,-0.0013032605638727546,-0.08269155770540237,-0.08830362558364868,0.1128000020980835,0.11905653029680252,0.008477765135467052,-0.0544431135058403,0.07151226699352264,0.008185756392776966,-0.0261421799659729,0.07967302948236465,0.02154872566461563,0.1638314127922058,-0.03945330157876015,-0.043852414935827255,-0.13537375628948212,0.04692421108484268,0.01916932873427868,0.0736466571688652,0.06782316416501999,-0.02576391212642193,-0.09472735226154327,0.16352665424346924,-0.00441643176600337,-0.0654541403055191,0.025038961321115494,-0.09986434131860733,-0.020770065486431122,-0.012059267610311508,0.0284491628408432,0.036281246691942215,-0.0968775600194931,-0.048945099115371704,0.037860702723264694,0.06549249589443207,0.17981937527656555,0.07780802994966507,-0.13469652831554413,0.06691614538431168,0.05692792683839798,-0.08460434526205063,0.0699419379234314,-0.15312261879444122,-0.16418322920799255,-0.07676917314529419,-0.10562967509031296,-0.10779710859060287,0.0018211458809673786,-0.037523303180933,-0.0017181431176140904,-0.07866537570953369,0.06423069536685944,0.050921134650707245,-0.1273830682039261,-0.13290855288505554,0.13548746705055237,-0.0740671157836914,-0.11444909870624542,-0.048289235681295395,-0.009577282704412937,-0.10480581969022751,0.10115445405244827,0.07738633453845978,-0.06103576719760895,-0.007349305786192417,0.10731688141822815,0.15073606371879578,-0.02885294146835804,0.09826883673667908,-0.07599956542253494,-0.10772871971130371,0.11070431023836136,0.07444121688604355,-0.05957231670618057,0.0538388229906559,-0.1466469168663025,0.00029171232017688453,0.03479672968387604,-0.002491746563464403,0.01250550802797079,-0.04853792116045952,-0.06531620770692825,0.13786537945270538,-0.1414538472890854,0.11399155855178833,0.03411080315709114,-0.12759488821029663,0.012713862583041191,-0.03966009244322777,0.03082241490483284,-0.06587739288806915,0.0354454331099987,0.05714486911892891,0.06972473859786987,0.10395003110170364,-0.04053246229887009,0.04805733636021614,0.06720468401908875,-0.06342785060405731,0.12239940464496613,-0.016087930649518967,-0.02063835598528385,-0.118599534034729,0.005667384713888168,0.06279817968606949,0.0029860124923288822,-0.06144494563341141,0.11237940937280655,-0.0935775488615036,0.041383929550647736,-0.15227241814136505,-0.021695036441087723,0.03250310570001602,-0.059366676956415176,0.07140009850263596,-0.002064959378913045,-0.026929209008812904,-0.07168032974004745,-0.11754786968231201,-0.17350240051746368,0.16461583971977234,-0.002358123892918229,-0.07904525846242905,-0.03869405388832092,0.1130521222949028,0.04770990088582039,0.11043892800807953,-0.07755912840366364,0.0840899720788002,-0.07189848273992538,-0.0977955088019371,-0.09752689301967621,0.014866375364363194,0.06917348504066467,-0.004715766757726669,0.07144318521022797,-0.0762278139591217,-0.004295550286769867,-0.08336222171783447,0.1419205367565155,0.08357895165681839,-0.04051652178168297,0.05022113025188446,-0.041544072329998016,-0.1496693342924118,-0.18568554520606995,-0.15074358880519867,0.127206489443779,0.13381221890449524,0.1109614446759224,0.13026708364486694,-0.06699836254119873,0.05795080587267876,0.04924486204981804,-0.14170590043067932,-0.10191603749990463,0.0774044468998909,-0.08007070422172546,0.10969997942447662,-0.05343446135520935,-0.058662258088588715,-0.13276393711566925,-0.1209627315402031,-0.09017363935709,-0.036057185381650925,0.1262744814157486,0.04090653359889984,0.10252709686756134,0.09690912812948227,-0.019282568246126175,0.012156549841165543,0.06946869194507599,-0.011186821386218071,0.13998720049858093,0.08958805352449417,-0.05304993316531181,0.04972291365265846,0.07340832054615021,0.009374321438372135,-0.04357725381851196,-0.05894547700881958,0.0955694317817688,-0.08733737468719482,0.052765633910894394,0.06329873204231262,0.05359796807169914,0.05744475871324539,-0.021576952189207077,-0.11577533185482025,-0.11565191298723221,0.02358521707355976,0.02113552764058113,0.07920990884304047,-0.17091409862041473,0.043475400656461716,0.05371282622218132,-0.10942336171865463,0.17646926641464233,-0.13823054730892181,0.07675262540578842,0.008682236075401306,0.0676644966006279,0.06623335927724838,0.06953649967908859,0.0205376073718071,-0.14381609857082367,-0.04435250908136368,-0.00955870933830738,-0.11273662000894547,0.04665199667215347,-0.08116194605827332,0.03657831251621246,-0.09899221360683441,0.04952169582247734,-0.08614745736122131,0.14405286312103271,0.11814799159765244,0.1396026611328125,-0.03975936770439148,0.16859005391597748,-0.06518056988716125,0.1154305636882782,-0.02091003954410553,0.023372149094939232,-0.09376095980405807,0.06673716008663177,0.07798486948013306,0.01971530169248581,0.03963479399681091,-0.016864236444234848,0.15447111427783966,-0.032885026186704636,0.06671426445245743,-0.030390655621886253,0.05831064656376839,-0.07590807974338531,0.08428604155778885,0.03620753437280655,0.04451120272278786,0.18539685010910034,0.08771603554487228,-0.0067284805700182915,0.017337225377559662,0.016077063977718353,0.02995109185576439,-0.05208733305335045,-0.2143164426088333,0.06323973089456558,-0.035966917872428894,-0.04694834351539612,0.014115506783127785,0.02502649836242199,0.027528678998351097,0.0026121032424271107,0.07265352457761765,0.03837691992521286,-0.002531882608309388,-0.07726823538541794,0.05765360966324806,-0.02522723563015461,-0.12662933766841888,0.10508981347084045,-0.03457222878932953,0.09661602973937988,-0.03822721913456917,0.042681556195020676,0.07714920490980148,0.0562712736427784,-0.11089595407247543,-0.0034471433609724045,0.09308890998363495,0.13641466200351715,0.07551184296607971,0.1266421675682068,0.11069373786449432,0.12461023032665253,0.036369308829307556,0.01183861680328846,-0.1085950955748558,0.15883922576904297,-0.06659205257892609,0.02504843659698963,-0.009054634720087051,0.1731184422969818,-0.11453679203987122,-0.0869218111038208,-0.03472362831234932,0.10416579246520996,0.011485686525702477,0.10701318085193634,-0.029831625521183014,-0.12789376080036163,-0.21043699979782104,0.04734180122613907,-0.004286821465939283,-0.1306489109992981,0.02790435589849949,-0.12720799446105957,0.03498321771621704,0.003595657180994749,-0.06612861156463623,-0.008133185096085072,0.1166355311870575,-0.06662727892398834,0.12228500843048096,0.0075264303013682365,-0.02539192885160446,0.16798390448093414,0.11234487593173981,0.12412079423666,0.094312883913517,0.1435166299343109,0.14940565824508667,0.0567493811249733,0.0631338432431221,0.08826007694005966,-0.07798077166080475,0.04989228770136833,0.027977311983704567,0.04474351555109024,0.03719646856188774,-0.02315264195203781,0.04296885058283806,0.0515495166182518,-0.16505606472492218,0.07754770666360855,-0.0003051774110645056,-0.004827520344406366,-0.1503249555826187,0.003698540385812521,0.050947025418281555,-0.0005666741053573787,-0.0787212923169136,0.12969422340393066,0.018190477043390274,0.11227698624134064,0.16248777508735657,-0.030990511178970337,0.04395906627178192,0.07911164313554764,-0.08927082270383835,0.06913813948631287,0.1786448210477829,-0.025062553584575653,-0.10704569518566132,0.12046319246292114,0.18513216078281403,-0.13070110976696014,-0.03394971415400505,0.13199029862880707,0.14635679125785828,0.18711133301258087,0.0399845615029335,0.009581796824932098,0.0028892632108181715,0.19083310663700104,0.14920270442962646,-0.14723683893680573,-0.16370677947998047,0.06588295847177505,-0.09615560621023178,-0.11143679916858673,-0.1531839221715927,-0.09060265868902206,-0.016764314845204353,-0.13667158782482147,0.0576394759118557,0.1418122500181198,0.0493941456079483,0.1894332617521286,-0.19256679713726044,0.17701077461242676,0.05978187173604965,0.05949970334768295,-0.09460550546646118,0.07693186402320862,0.05822979286313057,-0.053827915340662,-0.16380779445171356,0.14031924307346344,-0.2219730019569397,0.045440368354320526,-0.02649473398923874,0.057599276304244995,0.12399730086326599,-0.1646810621023178,0.028907863423228264,-0.020848367363214493,0.05117889493703842,0.1449390947818756,0.03277967870235443,-0.13204729557037354,0.2030123770236969,-0.1617521345615387,-0.07445798814296722,0.13468462228775024,-0.1589791178703308,0.08680403232574463,0.05174111947417259,-0.05411223694682121,0.13984771072864532,-0.13966584205627441,0.14217603206634521,-0.051535800099372864,0.014308716170489788,0.12897038459777832,-0.05807315185666084,0.05667726695537567,-0.03470980376005173,-0.12693411111831665,0.028730973601341248,-0.19699515402317047,-0.09132104367017746,0.19291190803050995,0.013608363457024097,0.18114924430847168,-0.13717065751552582,0.09572309255599976,0.20526012778282166,-0.1458958089351654,-0.02491714060306549,0.019259629771113396,-0.08770624548196793,-0.01025618426501751,-0.1756957471370697,-0.08476917445659637,-0.08287358283996582,-0.07425454258918762,-0.03723106160759926,-0.048587024211883545,0.07787773013114929,-0.09697618335485458,0.13406622409820557,0.09427051246166229,0.0448288768529892,0.07415290921926498,0.030145080760121346,0.14560085535049438,0.06916318833827972,0.058314718306064606,-0.16961947083473206,-0.07848994433879852,-0.0505744107067585,0.14578387141227722,-0.009931654669344425,0.004988178610801697,0.15550360083580017,-0.06105853244662285,-0.21655669808387756,-0.18716707825660706,0.17142324149608612,0.20068241655826569,0.19291873276233673,-0.07137499749660492,-0.18080930411815643,0.09296508133411407,0.11380983144044876,-0.03293855860829353,0.14601004123687744,-0.1586616188287735,-0.0986505076289177,0.15965156257152557,0.22150327265262604,-0.14836876094341278,-0.29582691192626953,0.05530286952853203,0.015259884297847748,-0.014440871775150299,0.16706117987632751,0.12163416296243668,0.028720315545797348,0.1361263543367386,0.14826740324497223,0.06428930908441544,0.0013769080396741629,-0.1904481202363968,-0.14256691932678223,0.09955351054668427,0.2554844915866852,0.03122740052640438,-0.15127024054527283,-0.0023850046563893557,-0.0776682123541832,-0.11259914189577103,-0.14974497258663177,-0.023612897843122482,-0.008326682262122631,0.09435765445232391,-0.1419365555047989,-0.15105454623699188,-0.12436486035585403,0.042402930557727814,-0.16336926817893982,-0.1748742312192917,0.12088558822870255,0.005568811669945717,-0.02728370390832424,0.11692608892917633,-0.19740161299705505,-0.08371761441230774,0.04799184203147888,0.05374297499656677,-0.016991928219795227,-0.035229869186878204,-0.2706023156642914,0.14535944163799286,0.05161222070455551,0.024479033425450325,-0.08143553137779236,0.14830508828163147,0.13959011435508728,-0.14407725632190704,-0.21664147078990936,0.04994949325919151,0.1832888275384903,-0.07118847221136093,-0.2081209123134613,-0.032529067248106,-0.1364973932504654,0.02198365516960621,0.06480367481708527,0.13568732142448425,-0.2806699275970459,0.12745016813278198,-0.1859879493713379,0.0329461544752121,0.07989251613616943,0.07252883911132812,-0.21440471708774567,-0.016517627984285355,0.04614841192960739,-0.001867454731836915,0.26001277565956116,0.18831396102905273,-0.20520855486392975,-0.0042881746776402,0.11865234375,0.21788771450519562,0.05308285728096962,-0.2350979447364807,-0.18749824166297913,-0.04298276826739311,0.1830034703016281,0.09127780795097351,-0.16379563510417938,0.20093898475170135,0.037646301090717316,-0.16191862523555756,-0.20951519906520844,0.12638966739177704,-0.07247847318649292,-0.013265191577374935,-0.09794653952121735,0.015468783676624298,-0.05758879333734512,0.13678638637065887,0.07887093722820282,-0.06216508895158768,0.17288579046726227,0.047461461275815964,0.073024220764637,0.04657163470983505,-0.05875331535935402,-0.12037767469882965,-0.15869581699371338,-0.005777753423899412,-0.11126111447811127,-0.015443562529981136,-0.07971476018428802,0.052666813135147095,-0.10316682606935501,0.009681534953415394,0.22430478036403656,-0.11107294261455536,0.030497204512357712,0.1909407526254654,0.07258348166942596,-0.1717081069946289,-0.17779329419136047,-0.2610088884830475,-0.16448062658309937,0.10969750583171844,-0.012022122740745544,-0.0075395614840090275,-0.20085538923740387,0.11888045817613602,-0.1108635887503624,-0.002650256734341383,0.12623485922813416,-0.12642288208007812,-0.24250121414661407,0.0021806529257446527,0.057549577206373215,-0.0717782974243164,-0.13564257323741913,0.050620563328266144,0.039533402770757675,-0.10628550499677658,0.06610316783189774,0.04204607754945755,-0.0015450132777914405,0.0016768461791798472,-0.01977819763123989,0.002318581333383918,0.06996660679578781,0.04520046338438988,0.12344535440206528,-0.0066644879989326,-0.07037274539470673,0.06332084536552429,-0.0499979592859745,0.0534193329513073,0.02870652824640274,-0.017624571919441223,0.02690964564681053,-0.007009491324424744,0.06488458067178726,-0.03336595371365547,-0.014544939622282982,0.10919754207134247,0.0028817178681492805,0.007496108766645193,0.07341263443231583,0.007480711676180363,-0.051327623426914215,0.08577577024698257,0.07644133269786835,-0.13664990663528442,-0.046045951545238495,-0.034022506326436996,0.14089326560497284,0.07277264446020126,-0.08035571873188019,0.06345152854919434,0.09653551876544952,-0.03279014304280281,-0.040807802230119705,-0.041479043662548065,0.024021709337830544,0.1151830404996872,-0.09968960285186768,-0.018925609067082405,-0.03614598140120506,0.033879756927490234,0.04146445170044899,0.06154356896877289,0.04725825786590576,0.0004289518983568996,0.04618611931800842,-0.09845144301652908,-0.08606512099504471,0.12211041897535324,0.01607748307287693,-0.047513388097286224,-0.0457930788397789,0.013978639617562294,-0.043598197400569916,9.093843982554972e-05,0.04420778155326843,0.07030024379491806,-0.10462034493684769,-0.08570805191993713,-0.02030579373240471,-0.04795484617352486,-0.14615890383720398,-0.012116140685975552,0.032533418387174606,-0.03903079777956009,-0.06967120617628098,-0.09577751904726028,0.05571005493402481,0.045318517833948135,0.037974171340465546,0.07934051752090454,0.05039691925048828,0.0561213344335556,0.05672135576605797,-0.08826316148042679,-0.05410824716091156,-0.05775732174515724,0.10072527080774307,-0.06791537255048752,0.07620064169168472,-0.018379025161266327,0.11874721199274063,-0.07042695581912994,-0.0833820030093193,0.12891238927841187,0.007208168972283602,-0.08666092157363892,0.10767356306314468,-0.0490339919924736,0.104224793612957,-0.05553031712770462,-0.015484090894460678,-0.0631939247250557,-0.03024822473526001,0.008655771613121033,0.005406217183917761,0.0707063302397728,0.017051393166184425,-0.10018482804298401,-0.04103013500571251,-0.04713594913482666,-0.013801167719066143,-0.049773208796978,0.105134978890419,-0.08477956801652908,-0.010689042508602142,-0.004411493893712759,0.10624828934669495,0.07747145742177963,0.08401865512132645,0.01093980297446251,-0.021644819527864456,-0.013664505444467068,0.015237962827086449,-0.007786719128489494,-0.1110902801156044,-0.09181372821331024,0.04205700382590294,-0.16574934124946594,-0.07886390388011932,0.08808787912130356,-0.012112490832805634,0.12195666134357452,-0.026815488934516907,-0.13344307243824005,0.16685239970684052,-0.07525584101676941,0.047099556773900986,-0.06440584361553192,0.1017892137169838,-0.0178171806037426,0.09001562744379044,-0.13714708387851715,0.1377314031124115,-0.004674884490668774,-0.09563732147216797,-0.048809126019477844,0.05729037895798683,-0.04592755064368248,-0.02704114094376564,0.04561294987797737,0.029693569988012314,-0.0632157176733017,-0.027281006798148155,-0.00838073156774044,0.04137086495757103,-0.05868511646986008,-0.08591998368501663,-0.07422470301389694,-0.03760828077793121,0.13294117152690887,0.03951024264097214,0.10959632694721222,0.014677990227937698,-0.053157344460487366,-0.021244637668132782,0.09682511538267136,0.08789283782243729,-0.004038357175886631,-0.009585690684616566,0.11992600560188293,-0.003947473131120205,0.08095688372850418,0.019983066245913506,0.10114872455596924,0.012416074983775616,-0.037833649665117264,0.048227425664663315,-0.0016478925244882703,0.008958627469837666,-0.0664333924651146,-0.0012017262633889914,0.046171270310878754,-0.0571511872112751,-0.09544916450977325,-0.04243048280477524,0.07043173909187317,0.04443671554327011,0.07540029287338257,-0.04648810625076294,0.0010799026349559426,0.03947925195097923,-0.0661575198173523,0.01636814884841442,-0.10890086740255356,-0.07951193302869797,-0.0775795727968216,0.04235892370343208,-0.13681736588478088,-0.08505863696336746,-0.16569003462791443,0.018970046192407608,-0.10024039447307587,-0.06449389457702637,0.024160852655768394,-0.10136736184358597,0.05915554240345955,-0.14587439596652985,0.026159407570958138,-0.05746733769774437,-0.005294860806316137,-0.14525915682315826,-0.12811458110809326,-0.05097690969705582,-0.009239827282726765,-0.1289452463388443,-0.0720512643456459,0.07819098234176636,0.05625301972031593,0.04679162800312042,0.09736903011798859,-0.009169875644147396,-0.0035117347724735737,0.047790564596652985,0.08589083701372147,0.056271228939294815,0.024653157219290733,-0.13749881088733673,-0.014698522165417671,-0.04522290080785751,-0.0863770842552185,-0.11115767061710358,-0.0033433970529586077,-0.15615305304527283,0.03467893972992897,-0.030053168535232544,0.01890351064503193,0.10126573592424393,-0.10152896493673325,-0.06062019616365433,-0.14063796401023865,-0.13154907524585724,0.11142345517873764,0.003823408856987953,-0.1404426544904709,0.06451039761304855,-0.037898849695920944,0.04307480528950691,0.059025757014751434,0.038877129554748535,0.1540277600288391,-0.0031430774834007025,0.00048804303514771163,0.10368746519088745,0.09072408080101013,-0.09170453250408173,0.06552300602197647,0.05319882929325104,-0.019872620701789856,-0.16450069844722748,-0.007236889563500881,0.021891513839364052,0.11289487034082413,-0.19919678568840027,-0.11234450340270996,0.10205761343240738,0.05164947733283043,0.18159383535385132,0.027800561860203743,0.006153414957225323,0.008351952768862247,-0.07992883771657944,0.20606890320777893,-0.147206112742424,-0.057646241039037704,-0.14418871700763702,-0.10016195476055145,-0.01817055605351925,0.004773241467773914,-0.16133442521095276,-0.007208619732409716,0.12429358065128326,0.12241587787866592,-0.1903284788131714,0.09315448999404907,-0.03608982264995575,0.10920102149248123,0.1427726447582245,-0.04768069088459015,0.015510719269514084,0.14010830223560333,-0.1494355946779251,-0.02842339500784874,0.11474809795618057,0.11039670556783676,-0.03651575744152069,0.2370639145374298,0.13211092352867126,-0.08494073152542114,0.12332145869731903,0.19730202853679657,0.007487200666218996,-0.059069253504276276,-0.09101597964763641,0.09102363139390945,0.09747544676065445,0.05188155546784401,-0.12914389371871948,-0.10916265845298767,-0.14565633237361908,-0.03696553409099579,-0.020070267841219902,-0.053055621683597565,-0.09137410670518875,0.12495621293783188,0.11976796388626099,0.1617722064256668,-0.020460713654756546,0.2046143263578415,0.06383619457483292,0.0778033584356308,-0.053351085633039474,0.10939245671033859,-0.11563196778297424,0.20673257112503052,-0.12759757041931152,-0.03455733507871628,-0.11961160600185394,0.06600774824619293,-0.11448248475790024,-0.014803284779191017,-0.11913961172103882,-0.18626265227794647,-0.09355061501264572,-0.08128661662340164,-0.1517236828804016,-0.1910448521375656,0.07987327128648758,-0.16648165881633759,0.18111652135849,0.07709337770938873,-0.08166971057653427,-0.0911523699760437,-0.06417576968669891,0.12058233469724655,0.07129733264446259,-0.24984097480773926,-0.01292303204536438,-0.05225670337677002,0.1585700660943985,0.033709775656461716,0.06194596737623215,-0.11372438073158264,0.0764107033610344,-0.18484176695346832,-0.12538450956344604,0.12407828867435455,-0.04344651848077774,-0.10257748514413834,-0.05828051641583443,0.027090629562735558,0.010185424238443375,-0.009331571869552135,0.15432389080524445,-0.011149181984364986,-0.185753732919693,0.04377651587128639,0.007088640704751015,-0.10588473826646805,-0.21492613852024078,-0.04300742223858833,0.07205232977867126,0.1379917562007904,0.16594940423965454,-0.05401822179555893,0.19851358234882355,-0.16907641291618347,0.03744561970233917,0.2363639771938324,0.003510061651468277,0.1868465393781662,0.11095842719078064,0.20057761669158936,-0.11758775264024734,0.1049528568983078,0.21094803512096405,0.006547598633915186,-0.09343062341213226,0.07669412344694138,0.09606587886810303,0.04514903947710991,-0.14634495973587036,-0.24754321575164795,0.16273349523544312,0.23460964858531952,-0.151107057929039,-0.09826789051294327,-0.10808826982975006,0.24906586110591888,0.12990571558475494,0.10560907423496246,-0.06820046156644821,-0.13975778222084045,-0.15263673663139343,-0.1865987628698349,0.035820167511701584,-0.05153002589941025,-0.019952764734625816,0.003355639986693859,0.0944148525595665,0.07588624954223633,0.11384410411119461,0.12867189943790436,-0.19598405063152313,-0.031695179641246796,-0.19508953392505646,-0.2095664143562317,-0.028780920431017876,0.27732136845588684,0.00227383803576231,-0.04031920060515404,-0.04297111928462982,0.11861375719308853,-0.03450922667980194,0.1735471487045288,0.08004388213157654,0.11824744939804077,0.21785669028759003,-0.023043612018227577,0.07642589509487152,-0.027616053819656372,0.07646515220403671,-0.005869636312127113,0.05958111956715584,0.1049552857875824,-0.05663822218775749,-0.01957731321454048,0.1691129058599472,0.06425301730632782,-0.0706593319773674,-0.029003845527768135,0.15527655184268951,0.1216447725892067,0.0280388705432415,-0.0310349240899086,0.12919077277183533,-0.0977235957980156,0.09463505446910858,0.0645555853843689,0.03993169590830803,0.18518522381782532,-0.06844405084848404,-0.169477179646492,0.158753901720047,0.1136961579322815,-0.12792754173278809,-0.2888126075267792,0.09500876069068909,-0.0016732766525819898,-0.02409093640744686,0.04687827453017235,-0.14601288735866547,-0.019682498648762703,-0.1509595364332199,0.04043744131922722,-0.07817123830318451,0.14252959191799164,0.09266139566898346,-0.2175189107656479,0.18185244500637054,-0.21818991005420685,0.1494579166173935,-0.07989472895860672,0.21402648091316223,-0.2094409167766571,-0.1206783875823021,-0.07554306089878082,0.0034372126683592796,-0.1423514485359192,0.1015821322798729,-0.13219089806079865,-0.08032046258449554,-0.010265754535794258,-0.013518066145479679,-0.0923200398683548,0.18963034451007843,-0.08035877346992493,0.19636207818984985,-0.003183165332302451,0.006749380845576525,0.07775410264730453,0.05613086372613907,-0.08856718987226486,0.1860700398683548,-0.11839375644922256,0.16699586808681488,-0.037898920476436615,0.13872578740119934,-0.28729236125946045,0.13415126502513885,-0.030269652605056763,0.009047893807291985,0.0012262676609680057,-0.02153480052947998,0.010423830710351467,-0.06795080006122589,0.14727331697940826,-0.024349356070160866,0.04427661374211311,0.08143197000026703,0.24966266751289368,0.01165931299328804,0.09749053418636322,-0.011803909204900265,-0.05186008661985397,-0.038237955421209335,-0.066830113530159,0.13784357905387878,-0.10933328419923782,0.03979891538619995,0.0716162696480751,-0.07630980759859085,-0.0032715476118028164,-0.06132809445261955,0.06799822300672531,0.04786788299679756,-0.13547998666763306,-0.11951221525669098,-0.019588368013501167,-0.0701889842748642,0.0880865603685379,-0.07748442143201828,-0.10049668699502945,0.02136077918112278,0.07065492123365402,-0.08441393077373505,-0.022713687270879745,-0.021632056683301926,-0.1227886825799942,0.010011822916567326,0.06893131881952286,-0.0859280675649643,-0.00725293904542923,-0.0854642242193222,-0.058520376682281494,-0.05394081398844719,-0.07105088233947754,0.05188990756869316,-0.005252243485301733,0.033346351236104965,0.1063569188117981,0.0714416578412056,0.04739729315042496,-0.06552019715309143,-0.11344762146472931,-0.020727604627609253,0.03223707899451256,-0.09468815475702286,-0.10922946035861969,0.018164465203881264,-0.040584225207567215,0.06084587424993515,-0.02449893020093441,0.033251386135816574,-0.04018157348036766,0.01477249339222908,0.045908503234386444,-0.016313252970576286,0.0752335712313652,-0.03406142815947533,-0.09692986309528351,0.03828967735171318,0.030975215137004852,0.10246685892343521,-0.0700485035777092,0.03055700473487377,-0.04610331729054451,0.12180294841527939,-0.011621812358498573,0.004771703388541937,0.11722919344902039,0.0771496444940567,-0.09789460152387619,0.0037579466588795185,0.02017030492424965,-0.04890567436814308,0.0494956411421299,-0.05910370871424675,-0.10592204332351685,-0.02635950781404972,0.09995143860578537,0.06648179143667221,-0.02147453837096691,0.02694009616971016,-0.044281262904405594,-0.06471757590770721,0.07362119853496552,-0.026081237941980362,-0.038707103580236435,-0.08180245012044907,0.07093598693609238,0.10243654251098633,-0.09500830620527267,0.027140770107507706,0.12064789980649948,0.03267179802060127,0.012528558261692524,0.08906673640012741,-0.07031063735485077,0.03913147747516632,0.0037937425076961517,-0.030887173488736153,-0.06479246914386749,0.02831430733203888,0.11243359744548798,-0.016720274463295937,-0.06498194485902786,-0.11937050521373749,-0.00908750295639038,-0.0921400785446167,0.062163591384887695,-0.1326732635498047,-0.02673943154513836,0.06403590738773346,-0.09177263081073761,-0.02064402401447296,0.008536777459084988,0.08532290905714035,-0.07815580070018768,-0.024138396605849266,0.009784557856619358,-0.013486446812748909,-0.08416557312011719,-0.01982213743031025,0.007098411209881306,0.1015867292881012,0.010932566598057747,-0.018735278397798538,-0.10811355710029602,-0.08559732139110565,-0.06602732092142105,-0.10605820268392563,0.09311995655298233,-0.016012974083423615,-0.02393917366862297,-0.058293960988521576,0.09177365899085999,0.017201265320181847,0.09410376101732254,0.10017241537570953,0.08495254814624786,0.08898037672042847,0.13357846438884735,0.033368583768606186,0.04236329346895218,0.045174408704042435,-0.08225249499082565,0.006955547723919153,0.041293323040008545,-0.11498579382896423,-0.08218666166067123,0.08268430829048157,0.05659876763820648,-0.041095588356256485,-0.12446501851081848,0.0720079094171524,0.11226559430360794,0.017346728593111038,-0.0123465396463871,-0.09339044243097305,0.0747286006808281,-0.07105495035648346,-0.04454497620463371,-0.015715617686510086,0.09609697759151459,0.04808204248547554,-0.034790243953466415,0.006375685799866915,-0.09493765980005264,-0.06994292140007019,0.0937461405992508,0.019598331302404404,-0.14794765412807465,0.034191619604825974,0.008009286597371101,0.11486504226922989,-0.14264331758022308,0.009363070130348206,0.03736022859811783,-0.09957001358270645,-0.05546941980719566,-0.06489641964435577,-0.06776104867458344,-0.04842108488082886,-0.13070189952850342,0.02175476774573326,0.04663504287600517,0.0932292640209198,-0.10806384682655334,-0.12590573728084564,-0.048207301646471024,-0.0430503748357296,0.03733475133776665,-0.10226305574178696,0.08390133082866669,-0.020912569016218185,-0.025363881140947342,0.11075589805841446,0.06328682601451874,-0.0057272412814199924,0.04721333831548691,-0.14032381772994995,-0.04878423362970352,0.11357413232326508,0.004102052189409733,0.011362327262759209,-0.09191438555717468,0.011478140950202942,-0.029457038268446922,0.12668779492378235,0.02433914877474308,0.04178258404135704,0.04126882553100586,-0.04098867252469063,-0.01893860660493374,-0.02552775666117668,0.012650555931031704,0.11246821284294128,0.019735801964998245,-0.09199997782707214,-0.011642630212008953,0.00018099587759934366,-0.04135699197649956,-0.08298072963953018,0.05766533687710762,0.061626795679330826,-0.003858816111460328,0.01961737498641014,0.07023299485445023,0.1120895966887474,0.015099267475306988,0.08538024872541428,-0.01776033453643322,0.04844336956739426,-0.0701829269528389,0.03379668667912483,0.006871283520013094,0.0036246557720005512,-0.06414581835269928,0.0699884220957756,0.050017789006233215,0.0423710010945797,0.08070597052574158,0.05330498889088631,0.044045355170965195,0.03516729921102524,-0.032386597245931625,0.025880372151732445,-0.04280310124158859,0.00013900997873861343,-0.062147896736860275,0.13613688945770264,-0.04722690209746361,0.0053760637529194355,0.06450425088405609,0.11577136814594269,-0.0767345130443573,-0.03418886289000511,-0.03559102863073349,0.08895567059516907,-0.16430185735225677,-0.14712634682655334,-0.12540370225906372,-0.19727565348148346,-0.14275087416172028,-0.11666622757911682,-0.07526267319917679,0.09048013389110565,0.0850568562746048,0.14750954508781433,0.06542748212814331,-0.18568912148475647,0.13340388238430023,-0.0158104058355093,0.11682551354169846,-0.0682094544172287,-0.053605906665325165,-0.11033181101083755,0.04457944259047508,-0.04345325008034706,-0.03988368809223175,-0.010995154269039631,-0.03920331969857216,0.06812833994626999,0.20602992177009583,0.0580938458442688,0.061033945530653,0.15184098482131958,0.15347059071063995,0.17948253452777863,0.04285929352045059,-0.01053002942353487,0.09791278094053268,0.15310350060462952,-0.10982383787631989,0.14128951728343964,-0.03549520671367645,0.035180918872356415,-0.09454543143510818,0.1035669595003128,-0.193654865026474,0.18644767999649048,-0.14220283925533295,0.14483162760734558,-0.17850986123085022,-0.2640921175479889,0.15107379853725433,0.1674463450908661,-0.06981077790260315,-0.20148198306560516,-0.21431614458560944,-0.16345028579235077,0.037632256746292114,-0.19510725140571594,-0.05109982192516327,-0.024823902174830437,0.0780421644449234,-0.13150691986083984,-0.03060508705675602,-0.11027390509843826,-0.07994524389505386,0.17415861785411835,-0.13405221700668335,-0.052852921187877655,-0.04809582605957985,0.16266296803951263,0.07909943908452988,0.22557491064071655,0.17419648170471191,-0.055384669452905655,-0.1599087119102478,-0.05373718589544296,0.03409597650170326,-0.06075311824679375,0.1250520795583725,0.07776796072721481,-0.13535232841968536,-0.1389704793691635,0.14763392508029938,-0.1313389241695404,0.14175890386104584,0.15831175446510315,0.07240213453769684,-0.09330058842897415,0.12456054240465164,0.09160920232534409,0.02857128158211708,-0.0058354539796710014,-0.19615575671195984,-0.00121934968046844,0.11190962791442871,0.059234585613012314,0.12253062427043915,-0.052003413438797,0.06791195273399353,0.04223787784576416,-0.20185692608356476,-0.1866122931241989,-0.03200390934944153,0.0896257609128952,-0.2950853705406189,-0.013647320680320263,-0.05475259944796562,-0.04390629753470421,-0.13879157602787018,0.02458590641617775,0.12607190012931824,-0.22455500066280365,0.09773904085159302,0.20639000833034515,0.007303532678633928,-0.08112802356481552,0.17940156161785126,0.1116974726319313,-0.13242395222187042,0.07331374287605286,-0.07065191864967346,-0.0848974734544754,0.14985467493534088,0.07841610908508301,0.22683417797088623,-0.14984790980815887,0.16141924262046814,0.0123665239661932,0.06490706652402878,0.05726656690239906,0.028171053156256676,0.03877512738108635,-0.13695068657398224,-0.1259019821882248,-0.0993826761841774,0.12702660262584686,0.00459520798176527,0.18065409362316132,-0.13510748744010925,-0.20012688636779785,0.016658538952469826,0.051023948937654495,0.0038262654561549425,0.02199201099574566,0.06193124130368233,0.11693909019231796,0.03688957169651985,-0.20666609704494476,-0.1196846142411232,-0.028049379587173462,0.12143179774284363,-0.13166972994804382,-0.022888660430908203,-0.16817118227481842,-0.0931132584810257,0.07982641458511353,0.13671720027923584,-0.15823812782764435,0.026481574401259422,0.04719432070851326,0.19782482087612152,0.13378967344760895,-0.18605448305606842,0.035351790487766266,0.16182830929756165,-0.1890711933374405,0.04911785200238228,-0.03385819494724274,-0.12427664548158646,0.048478152602910995,0.10768011957406998,0.06698663532733917,0.10808803141117096,0.04848666861653328,0.08636962622404099,-0.20138995349407196,-0.1705179512500763,-0.10105053335428238,0.018882637843489647,0.1819945126771927,0.007975436747074127,-0.17496752738952637,-0.15512049198150635,0.05108614265918732,0.14065827429294586,0.16483893990516663,-0.012255031615495682,0.03426968306303024,0.1132173016667366,0.12357449531555176,0.17330220341682434,-0.10372426360845566,-0.01857769675552845,0.09947722405195236,0.21099737286567688,0.06770429015159607,0.23324821889400482,-0.0014989270130172372,-0.14676158130168915,-0.34115248918533325,0.10090237110853195,-0.08020638674497604,0.17867235839366913,-0.1792321503162384,-0.13901928067207336,-0.13575415313243866,-0.011964281089603901,-0.019931716844439507,0.27373868227005005,0.0034393600653856993,-0.05325520038604736,-0.02186107262969017,-0.1935441493988037,0.06768487393856049,0.06082557514309883,-0.18656162917613983,0.23965202271938324,0.06324750185012817,-0.2590654194355011,0.06769344955682755,0.05037948116660118,0.19484972953796387,0.17857138812541962,0.0902838185429573,0.08150654286146164,0.18361996114253998,-0.0005602794699370861,0.19341737031936646,0.07362449169158936,-0.03253580257296562,0.22214026749134064,-0.1383942812681198,0.14264005422592163,0.21079647541046143,-0.14059019088745117,0.12272685766220093,-0.06973826885223389,-0.02774708718061447,0.14494869112968445,0.005507873836904764,0.1791994720697403,-0.18473860621452332,0.15372595191001892,-0.1893416941165924,-0.01655612513422966,0.07566671818494797,0.14013952016830444,0.16802789270877838,-0.05464465543627739,-0.07311858981847763,-0.21962133049964905,-0.07268133014440536,-0.07432509958744049,-0.018683012574911118,-0.14110729098320007,-0.07047521322965622,0.07607842981815338,0.10071512311697006,0.08105013519525528,-0.03574283793568611,0.023034533485770226,-0.10804828256368637,-0.028773335739970207,-0.01661236211657524,-0.009858708828687668,-0.07124289125204086,0.1115802675485611,-0.0927695706486702,0.11594709753990173,0.012510557658970356,-0.10223056375980377,-0.060881808400154114,0.06571382284164429,0.03783654794096947,-0.1255185902118683,0.019908824935555458,0.08876237273216248,0.015870869159698486,-0.005510945338755846,-0.0324588343501091,0.16413606703281403,-0.05191991478204727,0.06580100208520889,-0.10908454656600952,0.028975440189242363,-0.04091208055615425,0.12492377310991287,-0.012947465293109417,0.12794862687587738,0.07203450798988342,-0.08100759238004684,-0.06912010908126831,-0.0702519416809082,-0.0541989766061306,0.02235940471291542,-0.0919298604130745,0.008072413504123688,-0.08300501853227615,-0.05841187760233879,-0.1558113545179367,-0.12689940631389618,0.05633224919438362,-0.06266191601753235,-0.03906766325235367,-0.022775281220674515,-0.09587663412094116,0.08385458588600159,-0.09193387627601624,0.019303645938634872,-0.05040573328733444,0.11057604849338531,-0.11781952530145645,0.1370110809803009,0.010412273928523064,-0.049830950796604156,0.04728994891047478,0.08424148708581924,-0.014902236871421337,0.029795601963996887,-0.1730620414018631,-0.013684628531336784,-0.09839482605457306,0.04901459813117981,-0.15425339341163635,0.10461198538541794,-0.08969087153673172,0.020528480410575867,0.05592206493020058,-0.002501539885997772,0.041292157024145126,-0.08999053388834,-0.0009657593909651041,0.07067181915044785,0.06543103605508804,-0.057717274874448776,0.06496373564004898,0.005746855866163969,-0.00354251847602427,0.08968586474657059,0.10002405941486359,0.01788967289030552,0.059930235147476196,-0.0672350525856018,-0.05345742776989937,-0.04068085178732872,0.11024228483438492,-0.016953615471720695,-0.0734948143362999,0.11842699348926544,-0.15139436721801758,0.06679905205965042,-0.12239501625299454,-0.12965139746665955,0.05556163564324379,-0.057413406670093536,-0.1017097607254982,-0.05326331406831741,-0.04674743860960007,0.1474975198507309,-0.02361595816910267,-0.04081689193844795,0.03882807493209839,-0.05597884580492973,0.03874995559453964,0.03061673231422901,0.06788841634988785,-0.069416344165802,-0.016407374292612076,-0.10088703036308289,0.06179982051253319,0.018568191677331924,-0.07602882385253906,-0.02281639166176319,0.0675511509180069,0.06874345988035202,-0.010036326013505459,-0.22092965245246887,0.04012130945920944,-0.07020411640405655,-0.09958989173173904,0.04227393493056297,0.011791727505624294,-0.015860149636864662,-0.01979091577231884,0.16489914059638977,-0.0567285530269146,0.029360340908169746,0.13708817958831787,0.10023871064186096,0.08199073374271393,0.12977011501789093,0.1198568120598793,-0.002695577684789896,0.09526264667510986,0.08175234496593475,0.06426478922367096,0.08008717000484467,-0.09904449433088303,-0.021428674459457397,-0.004299101419746876,0.20850643515586853,-0.10569824278354645,-0.04442344978451729,-0.0375230647623539,0.16945315897464752,-0.08620710670948029,-0.020426835864782333,0.031036769971251488,-0.03241214156150818,-0.024203980341553688,0.15722735226154327,0.08026567846536636,0.10998174548149109,-0.11541780084371567,-0.11102572083473206,0.13532260060310364,0.05950690060853958,0.07183258980512619,-0.016926543787121773,-0.1173885390162468,-0.05378872528672218,0.04108620807528496,0.12119618058204651,0.008107115514576435,0.02397295832633972,-0.07233795523643494,0.11305590718984604,-0.14024274051189423,0.01393903512507677,-0.007693144958466291,-0.08232337981462479,-0.0021505465265363455,-0.19686174392700195,-0.11348642408847809,-0.030194593593478203,0.1454489678144455,0.0946553647518158,0.1441866010427475,-0.0905064046382904,0.05508210137486458,0.11615648865699768,0.008324623107910156,-0.009363139048218727,-0.06486359238624573,0.12894941866397858,-0.06312793493270874,-0.07662276178598404,-0.12352140247821808,0.027832521125674248,-0.11016179621219635,0.030103009194135666,-0.06869114190340042,-0.16642670333385468,0.037396255880594254,-0.01743885688483715,-0.016738010570406914,-0.03506298363208771,0.037836987525224686,0.1021726056933403,-0.006539572030305862,0.0688406452536583,-0.0671195313334465,-0.055762287229299545,-0.14644433557987213,0.12089318037033081,-0.0055097066797316074,0.035761844366788864,-0.12870025634765625,0.08467667549848557,-0.08423211425542831,0.08448519557714462,-0.004138411488384008,0.08022162318229675,-0.0008308034739457071,0.06797966361045837,0.015369468368589878,0.08231793344020844,-0.042407214641571045,-0.024238167330622673,0.019261591136455536,0.11705606430768967,0.15124160051345825,0.03658612072467804,0.04791397601366043,0.1524023562669754,0.016118621453642845,-0.04456482082605362,-0.0013015993172302842,-0.09689277410507202,0.055355291813611984,-0.09893127530813217,0.0980456992983818,0.056417934596538544,-0.1219087541103363,0.08638697862625122,-0.017111873254179955,-0.014942367561161518,0.09483980387449265,