0.5685641169548035,0.12370570003986359,-0.12463323771953583,0.06203551962971687,-0.5731818675994873,0.4457320272922516,0.8143802285194397,0.5943190455436707,-1.4031230211257935,0.48682600259780884,0.046893052756786346,1.1081732511520386,-1.1986514329910278,0.34510350227355957,0.3305376470088959,-0.7822156548500061,0.1259882003068924,-0.5266371965408325,-0.19922751188278198,0.6857050657272339,-0.16185149550437927,1.2710918188095093,0.5149865746498108,0.5630324482917786,0.8690049052238464,-0.483678936958313,-1.0598514080047607,0.44195467233657837,0.8517019152641296,0.02447420358657837,0.24990294873714447,0.7852293252944946,0.3532947897911072,0.2590622901916504,0.5872283577919006,1.1840062141418457,-0.5402434468269348,1.2928061485290527,0.5398158431053162,-0.7811698317527771,-0.6473693251609802,-0.9950339198112488,0.6949998736381531,1.579313039779663,1.0860579013824463,0.8175954222679138,0.6659114360809326,0.6244201064109802,0.4673536717891693,-0.0240324679762125,1.0717041492462158,0.4205603301525116,-0.2819454073905945,-0.4546166658401489,0.6094309091567993,-0.950252115726471,0.10280199348926544,-0.732766330242157,-0.14840398728847504,0.9920358657836914,-0.92295902967453,-0.20011326670646667,1.1174571514129639,0.23744234442710876,-1.3347017765045166,-0.8587774038314819,-0.8968192934989929,0.3460679054260254,0.5148614048957825,0.43229517340660095,0.668575644493103,-1.8903086185455322,0.026262648403644562,-0.849420428276062,-1.3943384885787964,0.08789019286632538,0.7437285780906677,0.04967686906456947,0.9396101236343384,-0.22931601107120514,1.1878844499588013,-0.5348827242851257,-0.3692859709262848,0.6472628116607666,0.2570433020591736,0.6995923519134521,0.7377095222473145,-0.43007269501686096,-1.5019633769989014,0.611645519733429,-0.2050045281648636,0.49013039469718933,0.13322541117668152,1.290624976158142,1.0922058820724487,-0.06388646364212036,1.037332534790039,-0.7488629817962646,-0.47430500388145447,-0.939584493637085,-1.2415815591812134,0.6425530910491943,0.740084171295166,0.4788782596588135,1.5462321043014526,0.03809516876935959,-0.10423441976308823,-2.0334017276763916,0.39432570338249207,1.5878037214279175,-0.9119560718536377,-0.8779585361480713,-0.005167464725673199,1.6064956188201904,0.9914342164993286,-0.14103667438030243,-0.45130324363708496,0.30369967222213745,0.8505643606185913,-1.0855319499969482
