-0.13568070530891418,0.03245703503489494,-0.06898342072963715,-0.055821001529693604,-0.02452090010046959,-0.10015885531902313,0.17720387876033783,0.1325705349445343,-0.084568552672863,0.09873160719871521,-0.010374230332672596,-0.16369785368442535,-0.002565351314842701,0.13435222208499908,-0.13807927072048187,-0.1844622790813446,-0.06360932439565659,-0.07136324048042297,-0.008701391518115997,0.09443137794733047,-0.1869533807039261,0.1240939125418663,-0.1296042650938034,0.2222093790769577,0.10319101810455322,0.019526388496160507,-0.14259161055088043,-0.12864099442958832,-0.04086977243423462,-0.1382633000612259,0.10667435824871063,-0.05354280024766922,-0.14147210121154785,-0.052955929189920425,-0.07720791548490524,0.10007590055465698,-0.1237059012055397,0.041969746351242065,0.11507219821214676,-0.10049400478601456,-0.02396630495786667,-0.09266194701194763,-0.06764287501573563,-0.12882071733474731,-0.033042993396520615,0.16426606476306915,-0.1515166312456131,-0.09175684303045273,-0.12501007318496704,0.021313916891813278,0.023693151772022247,-0.044586099684238434,-0.05336756259202957,-0.1205843985080719,0.025144528597593307,-0.16759039461612701,0.1483728289604187,0.10680340975522995,-0.2438296228647232,-0.13825005292892456,-0.008616000413894653,0.1303592026233673,-0.17049163579940796,0.17958451807498932,0.06748597323894501,-0.13171160221099854,-0.0757867768406868,-0.07891583442687988,-0.10796256363391876,-0.21771274507045746,0.05409974604845047,-0.028638722375035286,-0.19274906814098358,-0.1398385912179947,0.007405719254165888,-0.01934635080397129,-0.04534778371453285,0.16147910058498383,-0.06887876242399216,-0.10281673073768616,0.0052646161057055,-0.1528722196817398,-0.06953447312116623,-0.011313463561236858,0.1015973836183548,-0.029171530157327652,-0.1596492975950241,-0.16631223261356354,-0.22121062874794006,-0.023127224296331406,0.02937815710902214,0.056657105684280396,0.07588370889425278,0.14349760115146637,0.04624156281352043,-0.08256330341100693,-0.00043836768600158393,-0.0015227897092700005,-0.08486863970756531,-0.004591075703501701,0.05961645022034645,-0.08412780612707138,-0.025972366333007812,0.006189204752445221,0.12147115170955658,-0.17854470014572144,0.11540380120277405,-0.016543593257665634,0.06724712252616882,-0.11235993355512619,0.07623241096735,-0.03999621421098709,-0.10334577411413193,0.17193569242954254,-0.037452276796102524,-0.00320966518484056,0.07890982925891876,0.01887916401028633,0.08817652612924576,0.08448218554258347,0.03224639967083931,-0.0910976231098175,0.0536629743874073,-0.15112563967704773,0.22451482713222504,-0.2656356692314148,-0.1745482087135315,-0.060819584876298904,-0.24870331585407257,-0.02937494032084942,-0.035497747361660004,0.20804522931575775,-0.18281356990337372,0.05754568800330162,0.0632469579577446,-0.1210155114531517,0.24239477515220642,0.0928732305765152,0.09598502516746521,-0.23194211721420288,-0.13218243420124054,0.190397709608078,0.004116545431315899,-0.32588401436805725,0.17679007351398468,0.16504687070846558,-0.14587104320526123,0.18395620584487915,-0.06820198893547058,-0.010083251632750034,-0.10310614109039307,-0.17875246703624725,-0.1494169533252716,-0.07946188002824783,-0.18034397065639496,-0.025129130110144615,-0.1345808058977127,-0.07841730862855911,-0.08642024546861649,-0.19827985763549805,-0.17207390069961548,0.07536680996417999,-0.04740789532661438,0.11753387749195099,0.03171585127711296,-0.003789771581068635,0.2487325519323349,0.17571447789669037,0.2018936574459076,0.18494553864002228,0.06169820949435234,-0.017076559364795685,0.02174803614616394,-0.1278635561466217,-0.024320360273122787,-0.06379889696836472,-0.17808933556079865,-0.13925381004810333,0.14749373495578766,0.0056696985848248005,0.09778568893671036,-0.0455925390124321,0.09406894445419312,-0.050868578255176544,-0.14423568546772003,-0.06500406563282013,0.029863255098462105,-0.0974317342042923,0.12890738248825073,-0.16554762423038483,-0.21145226061344147,-0.014565099962055683,0.015613465569913387,-0.11581867933273315,-0.1995808631181717,-0.10775746405124664,0.11794663965702057,-0.22794128954410553,-0.01664661429822445,0.09903640300035477,-0.13917304575443268,-0.1369016170501709,-0.06255941838026047,0.0029421690851449966,-0.1990366280078888,0.053676120936870575,0.1732637584209442,0.1330213099718094,-0.014678667299449444,0.11434660851955414,-0.08831176161766052,-0.041264574974775314,-0.01824222318828106,0.006809832062572241,0.048327185213565826,-0.1359928548336029,-0.07302922010421753,0.0875735729932785,-0.1402074247598648,0.10698484629392624,-0.2080988585948944,0.2235071063041687,-0.007479659281671047,-0.16157302260398865,0.1300249546766281,0.15747834742069244,-0.18456387519836426,0.1285177618265152,0.004830971360206604,0.017420247197151184,-0.1588633507490158,-0.06143889203667641,0.018880454823374748,0.05694345012307167,-0.0023003718815743923,-0.12542562186717987,0.028453582897782326,-0.16314423084259033,0.11058030277490616,0.1748185157775879,-0.23606789112091064,0.3017450273036957,0.0013863083440810442,0.07171028852462769,0.14950153231620789,0.06588107347488403,0.2773950695991516,-0.11595805734395981,0.08107288926839828,-0.08425559103488922,0.17802906036376953,-0.2516307532787323,0.19422100484371185,0.18086795508861542,-0.14078675210475922,0.22616435587406158,0.07125114649534225,-0.2192823439836502,0.2482815682888031,0.1028667464852333,-0.30386608839035034,0.2889429032802582,-0.013613879680633545,0.1703362762928009,-0.08791720867156982,0.037436313927173615,-0.06031780317425728,0.11359567940235138,-0.10756944119930267,0.12359200417995453,-0.2415142059326172,0.11301740258932114,-0.014150574803352356,0.1919957995414734,0.34805601835250854,0.23661750555038452,-0.30245476961135864,0.15684761106967926,0.29441508650779724,-0.23215574026107788,-0.04715508967638016,-0.1801387518644333,0.34252870082855225,0.26857104897499084,0.06657575070858002,0.1254374384880066,0.0671064630150795,0.05645354464650154,0.16249538958072662,0.10099340230226517,0.34982946515083313,0.21337904036045074,0.05254480242729187,0.09854000061750412,0.016120189800858498,0.2906447947025299,0.11243502050638199,-0.04726658761501312,0.23382925987243652,-0.3141043484210968,0.08199474215507507,0.09462987631559372,0.05980730429291725,0.13543573021888733,-0.049317892640829086,-0.006410904694348574,-0.20135723054409027,0.1885930448770523,0.16822808980941772,0.15576674044132233,0.10492361336946487,0.27768591046333313,0.26555904746055603,0.14139364659786224,0.23623408377170563,-0.0014521225821226835,-0.02474839612841606,-0.20070397853851318,-0.0351264663040638,-0.23060891032218933,-0.02033967711031437,-0.34798315167427063,-0.09824440628290176,0.25069937109947205,-0.08541836589574814,0.1644628494977951,0.06596007198095322,0.021827712655067444,-0.22541749477386475,-0.21642722189426422,0.29484742879867554,0.20059379935264587,-0.26941606402397156,0.15552370250225067,-0.27094316482543945,-0.3100765347480774,0.12722395360469818,0.0159858800470829,-0.004692485090345144,-0.10049261897802353,-0.17017701268196106,-0.3025939166545868,0.245805561542511,-0.0998382642865181,0.08896452188491821,0.04915403202176094,0.3359443247318268,-0.20847761631011963,-0.10645882040262222,-0.2848358154296875,0.03147992864251137,-0.07264452427625656,0.1232321485877037,0.3151615560054779,-0.07967416942119598,-0.06303756684064865,-0.15068082511425018,0.04364924877882004,-0.04865867644548416,-0.28649187088012695,-0.20991218090057373,-0.0410531722009182,0.2245652824640274,0.18017132580280304,0.028321636840701103,-0.08313743770122528,-0.04037686809897423,0.08905721455812454,0.15284688770771027,-0.030086256563663483,-0.1451423615217209,-0.10666512697935104,-0.18840791285037994,-0.11035111546516418,0.014714028686285019,-0.14172595739364624,-0.09719106554985046,0.12116731703281403,0.046181485056877136,0.190859854221344,0.21648648381233215,-0.1666249930858612,-0.23057372868061066,0.01304341945797205,-0.07718300074338913,0.15104368329048157,0.09795667231082916,0.2428155392408371,-0.11132334172725677,-0.004700297024101019,-0.10125453025102615,-0.08223586529493332,0.20411217212677002,0.06952113658189774,-0.029013177379965782,0.1235104650259018,-0.07682402431964874,0.07717431336641312,-0.060226209461688995,0.004971995949745178,-0.16437533497810364,0.012778593227267265,0.14173844456672668,-0.1827896386384964,0.1025119200348854,0.13701702654361725,-0.08808072656393051,-0.2513819932937622,-0.2815721929073334,0.05398156866431236,-0.0626639798283577,0.1870231181383133,-0.1329641342163086,0.16015154123306274,-0.11352962255477905,-0.10696988552808762,-0.15180149674415588,-0.15113095939159393,0.14817719161510468,0.01629977487027645,-0.1529216468334198,0.12351657450199127,0.1594628244638443,-0.022304940968751907,-0.014860416762530804,-0.12561701238155365,0.03401980921626091,-0.11084282398223877,0.09024932980537415,-0.0059638796374201775,-0.04488900676369667,0.1015666276216507,-0.15458154678344727,0.14492152631282806,0.07172416895627975,-0.185276061296463,-0.05864826962351799,0.1350574493408203,-0.02406403049826622,-0.08021146804094315,0.05059032514691353,0.21910537779331207,0.024686185643076897,-0.1615353673696518,0.020509343594312668,0.1257874220609665,0.187769815325737,0.19482018053531647,0.18759194016456604,0.11693612486124039,-0.25042724609375,-0.09932844340801239,0.055995143949985504,-0.09854982048273087,-0.002906750189140439,0.05552542954683304,-0.09421650320291519,0.17882558703422546,0.0007867075619287789,-0.009233778342604637,-0.2214578539133072,0.22199946641921997,0.17573463916778564,0.07539433240890503,0.10324075073003769,-0.05844647064805031,0.15006990730762482,-0.09592492133378983,0.04964643716812134,-0.25510233640670776,-0.1379525512456894,0.09554403275251389,-0.08489827811717987,0.12063352763652802,-0.14093618094921112,0.10013571381568909,0.1143217608332634,0.14765547215938568,-0.20036348700523376,0.17532293498516083,-0.18787463009357452,-0.04884405434131622,0.1663680076599121,-0.06813101470470428,0.15344402194023132,0.09552369266748428,0.062230609357357025,-0.04417648911476135,0.09036616235971451,-0.1721092313528061,-0.191946342587471,-0.28848299384117126,0.19671419262886047,0.1345779150724411,0.09287514537572861,-0.19666703045368195,0.26652878522872925,0.006225602701306343,0.06532470881938934,0.1015496551990509,-0.11848218739032745,-0.28702211380004883,0.19834862649440765,-0.07922681421041489,0.07395944744348526,-0.0028017316944897175,0.07636432349681854,-0.13440686464309692,-0.10345581918954849,-0.018528569489717484,0.11528105288743973,-0.016739340499043465,-0.22985126078128815,0.22231893241405487,-0.03728169947862625,0.032415956258773804,-0.17437922954559326,-0.07407833635807037,-0.06548880785703659,0.004267626907676458,-0.14011327922344208,-0.21518263220787048,-0.17255949974060059,0.03236861526966095,-0.048832967877388,-0.13269716501235962,-0.2444109469652176,-0.07710012793540955,-0.2606545388698578,-0.06239717826247215,0.15294425189495087,-0.06853626668453217,0.14957205951213837,-0.14063917100429535,-0.1443556249141693,-0.1067398339509964,-0.07496710121631622,0.13812901079654694,-0.31741756200790405,0.0899471640586853,0.06623102724552155,-0.02373260259628296,0.17673295736312866,0.1774245798587799,0.06106916815042496,-0.16835127770900726,0.03539120405912399,0.2013254016637802,0.15970253944396973,0.0262618325650692,-0.034913983196020126,-0.2187071144580841,-0.17654907703399658,0.09687380492687225,-0.13620468974113464,-0.010020521469414234,0.21364954113960266,-0.14822669327259064,0.04981870576739311,0.2108875960111618,0.10231868177652359,0.027406955137848854,-0.13381797075271606,0.07365456968545914,0.048203807324171066,-0.13140380382537842,-0.011250432580709457,-0.11873910576105118,-0.10783150792121887,0.21193456649780273,-0.1613132804632187,-0.1212923675775528,0.021757086738944054,-0.03379156440496445,-0.057628095149993896,-0.10931629687547684,0.21121764183044434,0.3304372727870941,0.22741785645484924,0.08028600364923477,0.08553959429264069,0.08980163186788559,0.10502273589372635,0.2515953779220581,0.19259704649448395,-0.07750916481018066,-0.03780030831694603,-0.2473694384098053,0.008959664963185787,-0.2584304213523865,-0.017927031964063644,0.0916987955570221,-0.20652827620506287,0.012398437596857548,0.17333491146564484,-0.039620541036129,0.014643966220319271,0.24799928069114685,0.1401837170124054,0.15931835770606995,0.0678144246339798,-0.08350949734449387,0.1657753884792328,-0.09361828118562698,0.19499719142913818,-0.07529373466968536,-0.07567961513996124,-0.21681515872478485,0.24741911888122559,-0.21709208190441132,-0.08083299547433853,-0.03545117378234863,-0.18519188463687897,0.09822978079319,-0.05419037491083145,0.05902019515633583,0.038858812302351,0.2357887327671051,0.22284214198589325,-0.20984844863414764,-0.033400800079107285,-0.1534298211336136,0.12950018048286438,-0.11229860037565231,-0.014777966775000095,-0.2615245580673218,-0.020899390801787376,-0.2233186811208725,0.10722488164901733,0.18826299905776978,-0.10269639641046524,0.014928122982382774,0.19795602560043335,-0.02665816992521286,-0.13939890265464783,-0.16797153651714325,0.13132426142692566,0.1654195785522461,-0.12914113700389862,-0.05661972612142563,-0.26856476068496704,-0.15151408314704895,-0.17694629728794098,0.16618576645851135,-0.12638990581035614,0.2755332291126251,0.03570469841361046,0.015191962011158466,-0.21355345845222473,-0.08418215066194534,0.052569884806871414,-0.040278419852256775,-0.2224218100309372,-0.3336828947067261,0.026046691462397575,-0.003639945760369301,0.011466451920568943,0.032960645854473114,0.23113517463207245,-0.007065798155963421,0.17436179518699646,-0.15757057070732117,-0.15190774202346802,0.15572811663150787,-0.0661754235625267,0.00391948688775301,-0.00492422841489315,-0.1708427220582962,0.10065827518701553,0.02864838019013405,-0.3445639908313751,-0.07013577967882156,0.17714408040046692,0.10746967047452927,0.12881498038768768,-0.07428491860628128,0.015380441211163998,-0.11049025505781174,0.13299641013145447,-0.10771885514259338,0.07252120226621628,0.050370022654533386,0.03904872015118599,-0.07473239302635193,0.08367696404457092,-0.00879107229411602,-0.116090789437294,-0.05015822872519493,0.07119107246398926,-0.31040671467781067,-0.31053683161735535,0.25263524055480957,-0.01052807830274105,-0.09301648288965225,-0.21581414341926575,0.29827380180358887,0.2232794165611267,-0.059217143803834915,0.08108808845281601,0.05827261880040169,0.1089056059718132,-0.2846955955028534,-0.14290978014469147,0.02175978384912014,-0.239899680018425,0.03126076981425285,-0.0294989962130785,0.008103260770440102,0.19038262963294983,-0.21418927609920502,0.17332687973976135,0.007425928954035044,0.2704591155052185,-0.19754013419151306,-0.15799622237682343,-0.3117462396621704,0.11235912889242172,0.24091698229312897,-0.2689484655857086,0.17468371987342834,0.031851626932621,-0.28006014227867126,-0.21080812811851501,0.03626125678420067,0.011738564819097519,-0.10467173904180527,-0.14859429001808167,0.19435903429985046,-0.15578453242778778,0.18974947929382324,-0.04179089516401291,-0.06857054680585861,-0.16579005122184753,-0.24742260575294495,-0.07805545628070831,-0.031631339341402054,0.08787968009710312,0.1978570520877838,-0.016168566420674324,-0.13406038284301758,0.09411600977182388,-0.1142018586397171,0.046461496502161026,0.15100455284118652,0.06820324063301086,0.08005080372095108,-0.08344975113868713,-0.0722934678196907,-0.016126153990626335,-0.2372344583272934,-0.05814354121685028,0.17478705942630768,-0.03317134454846382,0.20251503586769104,-0.09563478082418442,-0.03990598022937775,-0.03140460327267647,-0.060319192707538605,-0.056981269270181656,-0.10041270405054092,-0.09955379366874695,-0.16670700907707214,0.027050718665122986,-0.02178511768579483,0.13092651963233948,-0.05115712061524391,0.12674732506275177,0.02234772965312004,-0.13360629975795746,-0.06174923852086067,-0.10169629007577896,0.04343528673052788,0.1355402022600174,-0.2224888801574707,-0.15264996886253357,-0.05151444301009178,0.26544418931007385,0.0009407367324456573,0.0122056370601058,-0.1524450033903122,0.16367734968662262,-0.16818496584892273,-0.04818771407008171,0.01076976303011179,0.06208405643701553,-0.17016664147377014,0.10455822944641113,0.023121554404497147,0.11221515387296677,0.06560452282428741,0.11236979812383652,-0.18581624329090118,-0.058193426579236984,-0.0013284793822094798,0.21184928715229034,0.14695914089679718,-0.132272407412529,-0.10133303701877594,0.0045140511356294155,0.12768781185150146,0.08930164575576782,0.09733185917139053,0.18364472687244415,-0.04628707095980644,-0.02842813916504383,0.1386159509420395,0.05111489072442055,-0.03595568984746933,0.12440361082553864,0.10430478304624557,-0.07556700706481934,0.026459304615855217,0.1608612984418869,0.08018126338720322,0.11827703565359116,0.09959834069013596,-0.1324175000190735,0.19155634939670563,-0.08158154040575027,0.0006933981203474104,-0.153304785490036,-0.05982089787721634,-0.11463972181081772,0.1143050417304039,-0.01728416606783867,-0.02932734414935112,-0.04264303296804428,-0.1076018437743187,-0.2551584839820862,-0.040966808795928955,0.09205044060945511,0.11287610232830048,0.00811910629272461,0.13211782276630402,-0.2391943335533142,0.17886260151863098,0.1976289451122284,-0.20536084473133087,-0.13937993347644806,0.19177129864692688,-0.15908265113830566,-0.025793248787522316,-0.06052825599908829,0.07824479788541794,-0.11804722994565964,-0.3281680643558502,-0.2060811072587967,-0.14584599435329437,0.06856612116098404,-0.2683989405632019,-0.05658338591456413,-0.017116116359829903,-0.060969576239585876,-0.06593025475740433,0.2499227374792099,0.14822334051132202,-0.18333493173122406,0.06883057951927185,0.2618952989578247,-0.20780055224895477,-0.35604044795036316,-0.09287264943122864,-0.11480683833360672,0.12434061616659164,-0.16959336400032043,-0.2721329629421234,-0.06188327446579933,0.276221364736557,0.04958760365843773,-0.2108907550573349,0.11531991511583328,0.1657794564962387,0.21023203432559967,0.2741538882255554,-0.229104146361351,0.24722886085510254,-0.06526883691549301,-0.14273986220359802,0.34176644682884216,-0.20435744524002075,-0.106230728328228,-0.03302636370062828,0.21635474264621735,-0.050015050917863846,0.019125234335660934,-0.29332759976387024,0.3683335483074188,-0.2353033572435379,0.09428683668375015,0.21362578868865967,-0.0324631929397583,0.3125975430011749,-0.1221558228135109,0.12618128955364227,0.2525855600833893,-0.22182871401309967,0.01691807061433792,-0.17418056726455688,-0.16830205917358398,-0.09944286942481995,-0.2727387845516205,-0.15118707716464996,0.18186093866825104,0.26451313495635986,-0.3066045045852661,-0.04230799525976181,-0.1449517458677292,0.1895221322774887,0.2410700023174286,0.2359689474105835,0.32484912872314453,0.15296314656734467,-0.039078906178474426,0.1118326187133789,0.10299007594585419,-0.3431064784526825,0.26647520065307617,-0.25489360094070435,0.026378393173217773,0.04180796444416046,0.29923683404922485,-0.09229044616222382,-0.17890353500843048,0.0662417933344841,0.30023640394210815,0.1836639642715454,0.18191613256931305,0.024097532033920288,0.010213849134743214,0.13512592017650604,0.10322009027004242,0.24037207663059235,-0.20171372592449188,-0.03255080804228783,0.021513188257813454,0.28693461418151855,-0.2009216547012329,0.1488410085439682,-0.016858836635947227,-0.23530887067317963,0.3286248445510864,0.14933599531650543,-0.11129274219274521,0.2216736227273941,0.23493799567222595,-0.05289915204048157,0.14060550928115845,-0.2521551251411438,-0.24975644052028656,0.13189245760440826,0.06629465520381927,0.1194542944431305,-0.05188829451799393,0.07233569025993347,-0.2999565303325653,-0.2828279137611389,0.17764869332313538,-0.4243635833263397,0.08774307370185852,-0.015520386397838593,0.002091132802888751,-0.05062224715948105,-0.02158709429204464,0.1364419013261795,0.04501664638519287,0.12089039385318756,0.0690683051943779,-0.07065456360578537,0.0473756268620491,-0.07776118814945221,-0.12270022183656693,-0.015826551243662834,0.08501628786325455,0.07052283734083176,0.04473248869180679,-0.19071756303310394,-0.11468406766653061,0.153910830616951,0.1620306521654129,-0.009700283408164978,-0.057642918080091476,0.0036397031508386135,0.05565783753991127,-0.1470765769481659,0.04206650331616402,0.023785138502717018,-0.1894279420375824,0.13874831795692444,-0.024356935173273087,0.04568810015916824,0.021393418312072754,0.12454411387443542,-0.06341632455587387,0.08331352472305298,0.19846540689468384,-0.14151999354362488,0.03246702998876572,-0.11072808504104614,-0.13635310530662537,-0.027951674535870552,0.17098787426948547,-0.08361369371414185,0.15298360586166382,0.07411237061023712,0.06323747336864471,-0.14487582445144653,-0.006093267351388931,-0.08595756441354752,0.07616546750068665,0.0032170217018574476,-0.07271675020456314,-0.06193304806947708,-0.006333780009299517,0.12918679416179657,-0.13122594356536865,0.11501273512840271,-0.05606219172477722,0.003178985556587577,0.043367065489292145,-0.09699701517820358,0.032585300505161285,0.15943799912929535,-0.08819784969091415,0.18056142330169678,0.11205655336380005,0.06045706197619438,-0.1418277770280838,0.046591076999902725,0.08583856374025345,-0.1379772126674652,-0.0017653463874012232,-0.037753697484731674,0.12787507474422455,-0.07597638666629791,0.11513102054595947,-0.15836702287197113,-0.12303860485553741,0.01997818611562252,0.005426795221865177,-0.12351390719413757,-0.096966452896595,-0.07761568576097488,-0.13508349657058716,-0.047677475959062576,-0.010149057023227215,-0.06019527092576027,-0.11440832912921906,-0.06254777312278748,-0.014458805322647095,-0.006774328649044037,0.16763627529144287,-0.08225149661302567,0.14446689188480377,-0.1743171513080597,0.0977419763803482,-0.13127171993255615,0.01790059730410576,0.011907819658517838,0.0010454579023644328,0.09317215532064438,0.039448995143175125,-0.17182618379592896,-0.031534843146800995,-0.035878755152225494,-0.024310268461704254,0.09873515367507935,0.2314453423023224,0.16248323023319244,0.14812450110912323,-0.03604531288146973,-0.09548687189817429,-0.007444010581821203,0.024075843393802643,0.041258521378040314,-0.07465358823537827,-0.022535493597388268,0.19166742265224457,-0.0007509784772992134,0.05177159234881401,-0.04248474910855293,-0.1252129077911377,0.10130060464143753,0.14673753082752228,-0.12382517755031586,-0.09219439327716827,-0.29978248476982117,0.1766616255044937,-0.1812906116247177,0.06362345814704895,0.13934235274791718,0.05599677562713623,-0.10333000868558884,-0.08348475396633148,-0.19536222517490387,0.04788319766521454,-0.08764667063951492,0.037582993507385254,0.08650778979063034,0.09893928468227386,-0.22501857578754425,0.1873154193162918,-0.15182380378246307,-0.12076646834611893,-0.1603049337863922,-0.09511330723762512,0.17274610698223114,-0.21433410048484802,0.04893913120031357,0.19109724462032318,-0.19146332144737244,0.13368460536003113,-0.1519906371831894,0.0483616404235363,-0.06643308699131012,0.07611545920372009,-0.02133091539144516,-0.07713722437620163,-0.324196994304657,-0.19369366765022278,-0.046510469168424606,-0.014289717189967632,0.16111935675144196,-0.031709615141153336,0.16784106194972992,0.03261081129312515,-0.10067331045866013,0.17844021320343018,-0.009160712361335754,0.17990082502365112,-0.042510535567998886,0.14242003858089447,0.1060340628027916,0.28479328751564026,0.2083151787519455,0.11980919539928436,-0.22676990926265717,0.23107561469078064,-0.08616963773965836,-0.13139119744300842,-0.13039012253284454,-0.2642177939414978,0.11717697978019714,0.2313811033964157,-0.19439226388931274,-0.07190442085266113,-0.29026880860328674,0.15198439359664917,-0.23386016488075256,-0.12148211151361465,0.19248293340206146,0.13028398156166077,-0.11055809259414673,0.14559507369995117,-0.05902419984340668,0.2557356655597687,0.26491567492485046,-0.20805993676185608,-0.18382512032985687,0.05746757984161377,0.06369616836309433,-0.1011727899312973,0.12062814831733704,0.06103115528821945,-0.13719746470451355,-0.05888710543513298,-0.10140299052000046,0.15074457228183746,-0.14096499979496002,0.07418367266654968,0.20503738522529602,-0.1498768925666809,0.16301940381526947,-0.14542484283447266,0.12323600798845291,0.05255435034632683,0.24259237945079803,0.10679946839809418,0.13373062014579773,-0.11473450809717178,-0.15592902898788452,0.20802193880081177,0.03413200378417969,0.10904235392808914,0.03879891335964203,-0.08476382493972778,0.1897580623626709,-0.25834712386131287,0.16973663866519928,-0.07930680364370346,0.07851908355951309,-0.04348033294081688,-0.03424648940563202,0.15496626496315002,0.20612967014312744,0.27238351106643677,-0.06847920268774033,-0.21639640629291534,-0.06384924054145813,-0.14410510659217834,-0.03652002289891243,-0.07198899239301682,0.14829273521900177,-0.13615724444389343,-0.01912248507142067,0.15052783489227295,0.3095695376396179,0.16101445257663727,0.10686596482992172,-0.028064632788300514,-0.12938539683818817,-0.34398627281188965,-0.0620620995759964,0.03292563557624817,-0.09258835762739182,0.06643949449062347,-0.14115992188453674,-0.18981340527534485,0.04834841191768646,-0.2896787226200104,-0.22218447923660278,0.10651693493127823,-0.04267602413892746,-0.3005737364292145,-0.19592513144016266,-0.11437542736530304,0.1626327633857727,0.1386561244726181,0.2602151930332184,-0.12359345704317093,0.06847448647022247,-0.19949154555797577,-0.43163132667541504,0.16406163573265076,0.1177172139286995,-0.1267210692167282,-0.09563707560300827,-0.11919502168893814,0.2686661183834076,0.12624555826187134,-0.2019284963607788,0.09402543306350708,-0.07932597398757935,-0.14526644349098206,-0.0837099626660347,0.06715820729732513,0.2398860901594162,0.031019555404782295,-0.24889014661312103,0.027830537408590317,-0.2696835696697235,-0.012806236743927002,0.14854244887828827,0.1369078904390335,-0.020326821133494377,0.0476708710193634,-0.007889905944466591,0.2305423766374588,0.19142664968967438,-0.19307318329811096,-0.16908982396125793,0.2087586671113968,0.26380670070648193,-0.23163677752017975,0.2274296134710312,-0.3365669548511505,-0.07793113589286804,-7.394971180474386e-05,-0.01164942979812622,-0.12277206778526306,-0.01089585479348898,0.3392889201641083,-0.14843720197677612,0.152792289853096,0.28942811489105225,0.29442068934440613,-0.08730431646108627,0.163181871175766,-0.17992325127124786,0.06517276167869568,0.07537568360567093,-0.003443468129262328,0.05937039107084274,0.16064667701721191,0.10816415399312973,0.3839958906173706,0.10567779093980789,-0.29359573125839233,-0.10775696486234665,-0.11910605430603027,0.10310585051774979,-0.13225635886192322,0.2388359159231186,-0.13865473866462708,-0.11203286051750183,0.24126899242401123,0.18655744194984436,0.3164758086204529,-0.13695907592773438,0.21004270017147064,0.22936773300170898,-0.04149707406759262,0.2352607399225235,-0.08687710762023926,-0.001835788250900805,0.31054550409317017,-0.2633379399776459,0.08918620645999908,0.20286652445793152,-0.2304460108280182,0.032208412885665894,-0.15897369384765625,0.15259847044944763,0.2772862911224365,-0.39337748289108276,-0.09559415280818939,-0.10620366781949997,-0.15505027770996094,0.03730938583612442,-0.08689218014478683,0.22826403379440308,-0.13651320338249207,0.19752994179725647,0.07403502613306046,-0.26604539155960083,-0.16597984731197357,0.15630733966827393,0.07088235020637512,-0.022449815645813942,0.3173461854457855,0.10627484321594238,0.22900523245334625,-0.0779484286904335,0.026820151135325432,-0.25405052304267883,0.01052498072385788,0.0990205705165863,0.16643786430358887,0.2161249816417694,-0.20785054564476013,-0.14543156325817108,0.3445330262184143,0.04368773475289345,-0.03582454472780228,0.09154114872217178,0.06583409756422043,-0.1253790408372879,0.16737598180770874,-0.07704851031303406,-0.31945961713790894,0.15873223543167114,-0.060073841363191605,0.11233340203762054,-0.03782739117741585,-0.21078307926654816,0.14110621809959412,-0.22594493627548218,0.3010580837726593,-0.33645227551460266,-0.12632153928279877,-0.007901165634393692,0.0357205756008625,-0.18723350763320923,0.14595435559749603,0.1916290819644928,0.010503236204385757,0.037672508507966995,0.28906911611557007,-0.02710413560271263,-0.14531059563159943,0.23495197296142578,-0.13848386704921722,-0.22030401229858398,-0.013677484355866909,-0.17305415868759155,-0.3496389389038086,0.14662222564220428,0.2804873287677765,0.13557583093643188,-0.09187880903482437,0.17625218629837036,-0.025681382045149803,0.19342844188213348,-0.009669255465269089,0.07245836406946182,-0.031294774264097214,0.09534920006990433,-0.18236549198627472,0.12089646607637405,0.2007661908864975,0.1922139972448349,-0.12869501113891602,-0.135555237531662,0.03473442420363426,0.12252480536699295,-0.07566383481025696,-0.14404092729091644,0.03521902859210968,-0.20945344865322113,0.14567257463932037,0.31193992495536804,-0.07517034560441971,0.10081204771995544,0.208851620554924,0.08051376789808273,-0.017962729558348656,-0.017614372074604034,0.11706086248159409,0.22777709364891052,-0.03600095212459564,0.01914132758975029,0.051396820694208145,-0.09681407362222672,-0.20839691162109375,0.23774757981300354,-0.241686150431633,0.10979250073432922,-0.11629173904657364,0.15784382820129395,-0.16597136855125427,-0.10076911002397537,0.164615660905838,-0.09142795205116272,-0.038177020847797394,-0.15066970884799957,0.19016212224960327,0.06842471659183502,0.26917147636413574,-0.25961047410964966,0.13787433505058289,-0.09181621670722961,0.1707223504781723,-0.027185358107089996,-0.14492833614349365,-0.025013137608766556,0.005232592578977346,-0.2037748396396637,-0.023139819502830505,-0.23304617404937744,-0.051285091787576675,0.13379770517349243,-0.043542444705963135,0.01326227281242609,-0.19171196222305298,-0.13775256276130676,0.26265013217926025,0.061769191175699234,-0.007753550074994564,-0.06993428617715836,0.16723191738128662,0.10735522955656052,0.005699460860341787,0.11867701262235641,0.13822965323925018,-0.2688872516155243,-0.14790251851081848,0.216796875,0.11376755684614182,-0.06863013654947281,0.23934248089790344,0.24049104750156403,0.04361036419868469,0.14680008590221405,0.11275141686201096,-0.17215844988822937,0.11584017425775528,0.16413895785808563,-0.29165971279144287,-0.09980835020542145,-0.022137125954031944,-0.057818178087472916,0.07244490832090378,0.02983923628926277,0.25677910447120667,-0.14040732383728027,-0.20056474208831787,-0.08853732794523239,0.03111324831843376,-0.0801299661397934,0.13458822667598724,0.08359814435243607,0.19947104156017303,-0.09518510848283768,0.26841282844543457,-0.14248593151569366,0.21633949875831604,0.12435281276702881,-0.1569012850522995,0.00037325482117012143,0.03598741814494133,0.12527669966220856,0.23567263782024384,0.196244478225708,-0.12845654785633087,-0.10737768560647964,0.1586880087852478,-0.1162043884396553,0.07991699874401093,-0.03205201029777527,0.06734558939933777,0.06234470382332802,0.07245945185422897,-0.1792910248041153,0.21697896718978882,0.08662641793489456,-0.18838639557361603,0.22037780284881592,0.1537068486213684,0.03558329865336418,-0.12667584419250488,-0.038007281720638275,0.024555526673793793,-0.17480537295341492,0.022660434246063232,-0.17151319980621338,0.1036030724644661,0.08552887290716171,-0.25558942556381226,-0.14713414013385773,0.11170297861099243,-0.23226581513881683,0.30727455019950867,0.14398802816867828,0.06257260590791702,-0.13477948307991028,0.18327197432518005,0.08951398730278015,-0.15411673486232758,-0.1149728000164032,0.092582106590271,0.14932231605052948,0.11053705215454102,-0.14649298787117004,0.13316738605499268,0.13233889639377594,0.12040659040212631,-0.1581316739320755,0.13563260436058044,-0.007029126398265362,-0.14633269608020782,-0.14527885615825653,-0.19479303061962128,-0.02135428600013256,-0.14757058024406433,0.28353139758110046,0.018028590828180313,0.0732133686542511,-0.005416409578174353,-0.002204034710302949,0.09638009965419769,0.07358568906784058,-0.10594592243432999,0.0007314484682865441,0.07154357433319092,0.30189523100852966,0.04271653667092323,0.009909112937748432,0.033907536417245865,-0.15149915218353271,0.19372369349002838,0.16306594014167786,-0.02906632609665394,0.12407343834638596,-0.10590267926454544,0.1988052874803543,0.14719565212726593,0.1572028398513794,-0.08288607001304626,-0.004747456405311823,-0.15731219947338104,-0.1716802716255188,-0.0774095207452774,0.07152716815471649,-0.20902544260025024,0.15756751596927643,0.2508837878704071,0.14087247848510742,0.09626642614603043,0.1667938083410263,-0.12420687079429626,0.06615974754095078,-0.13266633450984955,-0.07037423551082611,0.20417745411396027,-0.11975459009408951,-0.1769590973854065,0.1800355464220047,-0.12258356064558029,0.030093742534518242,0.11400390416383743,-0.011598821729421616,-0.17097532749176025,-0.030832860618829727,0.27945828437805176,-0.17073126137256622,0.05661384016275406,0.24007928371429443,0.12960831820964813,-0.11744153499603271,-0.18364804983139038,-0.18641731142997742,0.028913265094161034,0.05379863828420639,0.006013348698616028,-0.16436892747879028,0.05200425907969475,0.18640251457691193,0.2858111262321472,0.07153361290693283,0.02269551157951355,0.10494129359722137,0.2599034011363983,-0.14235490560531616,0.07383966445922852,-0.1737160086631775,0.1352267861366272,0.0567614808678627,0.2131994217634201,-0.09429917484521866,0.08249112963676453,-0.08419850468635559,-0.06221403554081917,-0.20526769757270813,0.20670770108699799,0.23378819227218628,0.004048016853630543,0.09176719188690186,0.010562324896454811,0.02901948057115078,-0.06618193536996841,-0.1743486523628235,0.19547134637832642,0.02113998495042324,-0.06588409841060638,0.13751743733882904,0.265830934047699,0.006988140754401684,-0.07305639237165451,-0.005641566589474678,-0.15775887668132782,0.0637316033244133,-0.20848844945430756,0.1629013568162918,0.17221054434776306,-0.1813555657863617,-0.19935329258441925,-0.2082429677248001,0.12633666396141052,0.26082539558410645,0.023998012766242027,-0.14599497616291046,0.04945344105362892,0.10621846467256546,0.18080447614192963,-0.10495342314243317,-0.16519054770469666,0.0035480614751577377,-0.11798115819692612,0.11519698798656464,0.057783093303442,0.2264321893453598,-0.013881605118513107,-0.041281808167696,-0.15543684363365173,0.2230232208967209,0.016678282991051674,0.22028620541095734,0.11887189000844955,-0.05024508014321327,0.24905136227607727,-0.08892611414194107,-0.032448604702949524,-0.03494657576084137,-0.05633971467614174,-0.1687563806772232,-0.05879593640565872,-0.0035646797623485327,0.08331740647554398,-0.22668273746967316,0.20562095940113068,-0.0873531922698021,0.24439328908920288,0.26475900411605835,-0.02600949816405773,-0.2664179503917694,0.2616891860961914,-0.22461986541748047,-0.09135740250349045,0.15014515817165375,-0.20717474818229675,0.18307189643383026,-0.10483425855636597,-0.10415015369653702,0.08234746009111404,-0.16853928565979004,-0.15913955867290497,-0.19501399993896484,-0.06413538753986359,-0.10918895155191422,0.18562112748622894,0.08678660541772842,0.0740353986620903,-0.0749223530292511,-0.1260167807340622,-0.14757005870342255,-0.032524384558200836,0.09932441264390945,-0.1722906529903412,-0.09268518537282944,-0.19120565056800842,-0.15873514115810394,0.15088531374931335,0.20237842202186584,0.2756309509277344,0.27380460500717163,0.06624871492385864,-0.21182852983474731,0.26520806550979614,-0.1799844354391098,-0.1915980726480484,-0.18314532935619354,0.15339380502700806,-0.15083859860897064,-0.22089968621730804,0.01636500470340252,-0.07697248458862305,-0.05556461960077286,0.11186458170413971,0.15624094009399414,0.08218388259410858,-0.13293522596359253,-0.10183672606945038,-0.046350348740816116,-0.01542317122220993,0.1580752581357956,0.10478311032056808,-0.1623673290014267,0.005271356552839279,0.3366587162017822,-0.31989842653274536,-0.08610943704843521,-0.14436744153499603,0.15015964210033417,-0.22525617480278015,0.1883723884820938,-0.09628284722566605,-0.14691980183124542,0.2602825462818146,0.10786692053079605,0.27715176343917847,-0.1674221009016037,0.09455731511116028,0.09773044288158417,0.19351157546043396,-0.1744757741689682,0.011593591421842575,0.005703068803995848,-0.04797778278589249,-0.1500222533941269,-0.21245990693569183,-0.24206773936748505,-0.13666382431983948,-0.21688354015350342,0.22443263232707977,-0.09939511120319366,0.12044231593608856,-0.13476966321468353,-0.21138995885849,-0.00544015783816576,0.07199644297361374,0.058534447103738785,0.09052494168281555,-0.1469966322183609,-0.0793413519859314,-0.17941439151763916,-0.35081127285957336,0.24703063070774078,-0.010743161663413048,-0.14984329044818878,0.023196693509817123,-0.00617124792188406,-0.1253402829170227,-0.06838662177324295,-0.03519248589873314,0.04976756125688553,0.0575844831764698,0.2070830911397934,-0.07250955700874329,-0.2157660871744156,-0.0010003899224102497,0.22009874880313873,0.027536645531654358,0.10584205389022827,-0.30103930830955505,0.19910907745361328,0.21197998523712158,-0.06636261940002441,0.2434448003768921,0.24437037110328674,-0.20314902067184448,0.19528307020664215,-0.07666067779064178,0.1394205242395401,0.09669754654169083,0.10379835963249207,-0.02652941644191742,0.2861020267009735,-0.12413215637207031,-0.04388336464762688,-0.2127446085214615,0.10331401228904724,-0.21126757562160492,-0.10456923395395279,0.08690346777439117,-0.04323694109916687,-0.009892185218632221,0.15342867374420166,0.11060327291488647,-0.10795513540506363,0.15151643753051758,-0.10434094816446304,-0.014773860573768616,-0.15334397554397583,-0.013353337533771992,0.13511046767234802,-0.06849928945302963,-0.24429281055927277,0.08304227888584137,-0.0073025645688176155,0.12916769087314606,-0.23239290714263916,0.23881025612354279,0.16160321235656738,0.0706280767917633,0.19477954506874084,0.06628058850765228,-0.03240619972348213,-0.12328090518712997,0.040179088711738586,0.2870967388153076,0.012800264172255993,0.15062765777111053,-0.05245951563119888,0.07469452917575836,-0.17006424069404602,-0.15786290168762207,-0.1044517457485199,-0.05876639857888222,0.09326232969760895,-0.13884297013282776,-0.033643241971731186,-0.16176371276378632,0.1127486526966095,0.08970712125301361,-0.043243154883384705,0.028887469321489334,0.19265024363994598,0.009366077370941639,0.19010376930236816,0.27673953771591187,0.12832891941070557,-0.10804897546768188,0.1397651880979538,0.10981859266757965,0.08232472091913223,0.2745426595211029,0.046837445348501205,-0.12727366387844086,-0.19441702961921692,0.020101765170693398,-0.21087414026260376,0.1765727698802948,0.1793496161699295,-0.0674680694937706,-0.20441116392612457,-0.09408415853977203,-0.20235967636108398,-0.20150557160377502,0.26878419518470764,0.09840647131204605,0.13645485043525696,0.1312984675168991,-0.045191653072834015,-0.017535611987113953,-0.2851754128932953,-0.09608881920576096,-0.09146840125322342,0.010923380963504314,-0.21190422773361206,0.1590563803911209,-0.028447523713111877,0.19887489080429077,-0.03863566368818283,-0.08622920513153076,0.06162045896053314,0.1659700870513916,0.11518730968236923,-0.16698485612869263,0.2249671071767807,0.04010636731982231,0.18270762264728546,-0.1797865629196167,0.039412252604961395,0.2057274729013443,-0.10475601255893707,0.03360171616077423,-0.03884543851017952,-0.06896989047527313,-0.03350018337368965,0.2007211297750473,-0.12066962569952011,0.20269526541233063,0.08879636973142624,-0.19777467846870422,-0.1277311146259308,-0.1221495270729065,0.07050393521785736,0.12653252482414246,0.07569413632154465,0.1804913729429245,0.1046876534819603,0.1672627478837967,0.005864833947271109,-0.046864937990903854,0.07956839352846146,-0.21315795183181763,0.06296595185995102,-0.07505352050065994,0.16256573796272278,0.11266373842954636,0.1306172013282776,0.1802685558795929,0.003815643023699522,-0.10759173333644867,-0.052995603531599045,0.12090684473514557,-0.2876069247722626,-0.11182184517383575,-0.0009242069208994508,0.12514574825763702,-0.0563715435564518,-0.15019376575946808,-0.08880440145730972,-0.1356462836265564,-0.0330706462264061,0.20499777793884277,0.011226847767829895,0.2388046532869339,0.08346976339817047,0.05960818752646446,-0.2965945601463318,-0.12791681289672852,0.072105772793293,-0.1673557609319687,0.16381770372390747,-0.14500392973423004,0.11305320262908936,-0.0639544427394867,0.1918056756258011,-0.08233501017093658,-0.1574985682964325,0.13237978518009186,-0.1524924486875534,0.12177958339452744,-0.019810063764452934,-0.0195077583193779,-0.17719680070877075,0.08371574431657791,-0.1246362030506134,0.29562699794769287,0.021859383210539818,0.23503056168556213,0.012263975106179714,-0.05988728627562523,-0.15143495798110962,-0.20065417885780334,0.09032046794891357,-0.190967857837677,0.19207702577114105,-0.21636676788330078,-0.07850624620914459,0.07156344503164291,0.12529724836349487,-0.14272888004779816,-0.00653523625805974,-0.14758165180683136,-0.1444733887910843,-0.11520751565694809,-0.03152327612042427,0.228972926735878,0.023556141182780266,-0.07632741332054138,0.10529738664627075,0.08676981925964355,0.1672869771718979,-0.037356436252593994,0.11032672226428986,0.08388415724039078,-0.059821758419275284,-0.06609416007995605,0.23434269428253174,0.20427553355693817,0.11903145164251328,0.1679518073797226,-0.12672732770442963,0.19492900371551514,-0.052609413862228394,0.06315971910953522,0.021343357861042023,0.01152354571968317,-0.0034001406747847795,0.1230018362402916,0.11620929092168808,0.17489342391490936,0.17847096920013428,0.1424642652273178,-0.06457453221082687,-0.11398450285196304,0.11903802305459976,-0.07226884365081787,-0.042671628296375275,-0.14957568049430847,0.08247414231300354,-0.1134796217083931,-0.1413956582546234,-0.14906379580497742,-0.01412955578416586,-0.026967767626047134,0.08687609434127808,0.06749454140663147,-0.00015314824122469872,0.10854386538267136,-0.1586422324180603,-0.1395130306482315,-0.027374252676963806,-0.008850893937051296,0.1325697898864746,0.10108960419893265,0.0609796941280365,-0.13548506796360016,-0.20436368882656097,0.14882315695285797,0.09048940986394882,-0.1878557950258255,-0.13576316833496094,0.17834404110908508,0.10754797607660294,-0.17621399462223053,0.02951037511229515,0.09146149456501007,-0.09854309260845184,0.008189430460333824,0.01096890028566122,0.25444498658180237,-0.14135736227035522,-0.12136867642402649,0.22453010082244873,0.060413770377635956,0.29206210374832153,-0.08261466026306152,0.019121313467621803,-0.14158181846141815,-0.009408803656697273,-0.12059969455003738,-0.0037702713161706924,0.09809266030788422,-0.20501576364040375,-0.07069091498851776,-0.04851413518190384,0.20760725438594818,0.15326166152954102,0.25036776065826416,-0.21309712529182434,0.17775113880634308,0.21247953176498413,-0.14549045264720917,-0.26549410820007324,-0.1769361048936844,0.30511435866355896,-0.025772441178560257,-0.17694084346294403,0.07248114794492722,0.24790942668914795,0.22668462991714478,0.11223126947879791,0.26208797097206116,0.05603400617837906,-0.02576468698680401,0.10142486542463303,-0.1522412747144699,-0.12200150638818741,-0.010227598249912262,0.07764830440282822,0.17621757090091705,-0.00040667830035090446,-0.04750771075487137,-0.09854444116353989,-0.11655425280332565,-0.03940204158425331,-0.004962403327226639,-0.12593552470207214,0.03770500048995018,-0.06563785672187805,0.1893237680196762,0.07854810357093811,0.08133131265640259,-0.1764070838689804,-0.03055284358561039,0.18490706384181976,-0.041645754128694534,0.20610059797763824,-0.0032711022067815065,0.01611219346523285,-0.23662607371807098,0.20357874035835266,0.14212295413017273,-0.11479035019874573,-0.072125643491745,-0.009231435135006905,0.18884088099002838,0.015086060389876366,-0.15104174613952637,-0.0394679494202137,0.1468634158372879,-0.04072537645697594,-0.04180967062711716,-0.19610798358917236,0.26491692662239075,0.12041298300027847,0.13756433129310608,-0.13031895458698273,-0.01995025761425495,0.18143679201602936,0.1478808969259262,-0.08412009477615356,0.008686334826052189,0.20166058838367462,0.13607323169708252,0.16017888486385345,-0.24285542964935303,-0.21261395514011383,-0.07314727455377579,-0.10545617341995239,0.039895813912153244,-0.057300254702568054,-0.11770812422037125,-0.13318051397800446,0.2077612429857254,-0.06059785187244415,-0.0953991636633873,0.07999967783689499,0.21695667505264282,0.10634785145521164,0.10640469193458557,-0.10140039771795273,0.0728001594543457,-0.09082448482513428,0.032566364854574203,0.1565033495426178,0.07388114929199219,0.04562591761350632,0.22983123362064362,0.18771913647651672,-0.11838017404079437,-0.027323121204972267,0.13338477909564972,0.1274767369031906,0.0685102641582489,0.02689293585717678,0.040782179683446884,0.20941098034381866,-0.07443775981664658,-0.25425079464912415,-0.20485956966876984,0.11494729667901993,0.075084388256073,-0.09277946501970291,-0.15404155850410461,0.1999693214893341,-0.19997598230838776,0.03845779970288277,-0.09638451784849167,0.06645913422107697,0.07808177173137665,-0.038234930485486984,0.2200315296649933,0.13231699168682098,0.011830192059278488,-0.12649841606616974,0.2004004269838333,0.004872262943536043,-0.1409720480442047,-0.2808624505996704,-0.1157955676317215,-0.2812618911266327,0.13279415667057037,-0.10748140513896942,-0.06783512979745865,0.03987548500299454,0.2137911468744278,-0.06238752603530884,0.18716269731521606,0.10201393812894821,-0.024332057684659958,-0.14236944913864136,0.17125669121742249,-0.08584168553352356,0.1433502733707428,-0.27423590421676636,0.07056921720504761,-0.19776859879493713,0.18357110023498535,0.09735497087240219,-0.22624479234218597,0.17859074473381042,0.04653066024184227,0.1520712822675705,0.10964861512184143,0.005534860771149397,0.1154940202832222,-0.2418602854013443,-0.18258699774742126,0.039482444524765015,0.10459957271814346,-0.1990949660539627,0.11325479298830032,0.10900600254535675,-0.1949634701013565,0.06287665665149689,-0.1492716372013092,0.005466841161251068,0.2179930955171585,-0.1038866862654686,0.21567711234092712,-0.09508121758699417,0.1138913631439209,0.16339386999607086,0.2622958719730377,-0.1669696867465973,-0.07602982223033905,0.023404063656926155,-0.1695777028799057,0.20314912497997284,-0.00824879389256239,0.05762859061360359,0.30904361605644226,-0.0716116726398468,0.28797146677970886,0.22154869139194489,0.05593810975551605,0.07967714220285416,0.1352563351392746,-0.060865744948387146,0.013092323206365108,-0.12288258969783783,0.014042426832020283,-0.18370439112186432,0.09152472764253616,-0.20683802664279938,-0.07237333059310913,0.19059181213378906,-0.13304048776626587,0.1875399947166443,0.024493444710969925,-0.012092240154743195,-0.30670225620269775,-0.09295406192541122,0.15202826261520386,-0.011599943041801453,0.06372850388288498,0.20283810794353485,0.15711866319179535,0.24946659803390503,0.13196046650409698,-0.15271475911140442,0.17111539840698242,-0.19033998250961304,-0.20169472694396973,0.21328005194664001,0.08722642064094543,0.07499474287033081,0.17878280580043793,0.25926700234413147,0.23444271087646484,0.17840877175331116,0.22015707194805145,0.1112295389175415,0.14760687947273254,0.09403901547193527,0.2274138182401657,0.2819349765777588,-0.179575115442276,0.3322756886482239,0.1445292979478836,-0.03731060028076172,-0.09484679251909256,0.030815623700618744,-0.12370943278074265,-0.23870430886745453,-0.04207097366452217,0.21062830090522766,-0.23862650990486145,-0.10075914114713669,-0.05978677421808243,-0.24249163269996643,0.1593703180551529,-0.0062234969809651375,0.00415764469653368,-0.13743865489959717,-0.10961412638425827,-0.3405495882034302,-0.17106546461582184,-0.07699622958898544,-0.33476629853248596,-0.12597742676734924,-0.01970316655933857,-0.10374101251363754,0.276083767414093,-0.11549515277147293,0.17634859681129456,0.18193785846233368,0.02657017484307289,0.02592858485877514,-0.16395647823810577,-0.29824718832969666,-0.029185960069298744,0.04502135142683983,0.06401383876800537,0.2774934768676758,0.08480444550514221,-0.12081845104694366,-0.12961192429065704,0.10697335004806519,-0.06114509329199791,0.007196060381829739,-0.12166332453489304,0.09790361672639847,0.2449607402086258,0.08486971259117126,-0.14755134284496307,0.19603872299194336,-0.008303671143949032,-0.22382618486881256,-0.2742590606212616,-0.02179388888180256,0.28615647554397583,-0.16467325389385223,-0.19163720309734344,0.09048256278038025,0.010900536552071571,0.10929674655199051,0.1648533195257187,0.21418698132038116,0.015774432569742203,0.16518807411193848,-0.2060282677412033,-0.28250762820243835,0.019204430282115936,0.2718125581741333,0.19985264539718628,0.004613288212567568,0.3210016191005707,0.17101292312145233,-0.1447656899690628,-0.08862651884555817,0.12557148933410645,0.23564216494560242,-0.05365341529250145,0.07515497505664825,-0.14644409716129303,-0.1282343566417694,0.0457814484834671,0.0916399285197258,-0.10558123141527176,0.084026999771595,0.2635502219200134,0.19269883632659912,-0.05481206253170967,0.006867976859211922,-0.185165137052536,0.2120666801929474,0.18655842542648315,-0.22339732944965363,-0.05858380347490311,0.14863289892673492,0.1941528022289276,-0.07888489961624146,-0.13087736070156097,-0.2318960726261139,-0.27376696467399597,-0.09482236951589584,-0.3277711570262909,-0.14631442725658417,-0.28091785311698914,0.18767933547496796,-0.028368569910526276,0.23443640768527985,-0.2944856584072113,0.06462759524583817,0.14696691930294037,0.10142432153224945,0.09786930680274963,0.09682503342628479,0.1446809470653534,-0.16077500581741333,0.1582631766796112,0.23880058526992798,0.20876605808734894,-0.028764057904481888,-0.3051222264766693,-0.19391769170761108,-0.1817651093006134,-0.12627731263637543,0.2538781762123108,0.10769330710172653,-0.23853270709514618,-0.20173242688179016,0.06273891776800156,0.01879865862429142,0.14762307703495026,-0.04090051352977753,-0.166793555021286,0.17052313685417175,-0.0014218742726370692,0.2731703221797943,-0.354001522064209,0.254160612821579,0.05469318479299545,-0.011691267602145672,0.09695418179035187,0.03276095166802406,-0.08864863216876984,0.3286598026752472,-0.2589172422885895,-0.2167220562696457,-0.13953037559986115,-0.16556823253631592,-0.10356541723012924,-0.22981828451156616,0.011092301458120346,0.23144443333148956,-0.22894449532032013,0.08113030344247818,0.1352934092283249,-0.20875103771686554,0.0830589309334755,0.1826191395521164,-0.11027900129556656,-0.19757439196109772,-0.17365001142024994,-0.07704364508390427,-0.08847013115882874,-0.14258433878421783,0.0971144363284111,0.14547206461429596,-0.011374629102647305,-0.1023230254650116,-0.1990307718515396,-0.24043099582195282,-0.2079615443944931,-0.2453892081975937,-0.1340247541666031,0.09722204506397247,-0.27546894550323486,-0.18810631334781647,-0.15051504969596863,0.05131387710571289,-0.23169344663619995,-0.10286260396242142,0.07236508280038834,0.29675155878067017,-0.0311066135764122,-0.027712425217032433,-0.2032713145017624,0.028205465525388718,-0.10847589373588562,0.11417964100837708,0.1634710133075714,0.20451542735099792,-0.02473820559680462,0.2335902750492096,0.1900361031293869,0.07539616525173187,0.11613857746124268,-0.09193875640630722,0.19928863644599915,0.18088382482528687,0.053923435509204865,0.0029744296334683895,0.02857191674411297,0.10509271174669266,-0.12393791228532791,-0.002394752809777856,0.19400960206985474,0.20972466468811035,-0.09276440739631653,-0.04194723442196846,-0.11693356186151505,0.1398804783821106,-0.27047839760780334,-0.07456833869218826,0.10729459673166275,0.06905283033847809,-0.1742047220468521,0.13437752425670624,0.052902672439813614,0.23226630687713623,0.27130967378616333,0.236765056848526,-0.21198540925979614,-0.12223733961582184,-0.058583956211805344,0.055365707725286484,-0.020893458276987076,-0.29091009497642517,0.274686336517334,-0.35560688376426697,-0.05839843302965164,-0.2745856046676636,0.3300682306289673,-0.1582103818655014,0.07663065195083618,-0.06046372279524803,-0.23548676073551178,0.13271841406822205,0.12215610593557358,0.2354365438222885,-0.12198647856712341,0.23763145506381989,0.06751125305891037,0.06472694873809814,0.02247447334229946,0.17719967663288116,-0.025919973850250244,-0.17903347313404083,-0.03301521763205528,-0.05608304217457771,-0.08769541233778,-0.16472136974334717,-0.25345513224601746,0.06639036536216736,-0.002149545820429921,0.028437064960598946,-0.07648476213216782,0.05117037147283554,0.1377936154603958,0.1047407016158104,-0.09377327561378479,0.08172400295734406,-0.2505742013454437,0.09073859453201294,-0.09404998272657394,-0.25859901309013367,-0.1574174016714096,0.22362205386161804,-0.10776926577091217,-0.1393589824438095,-0.01873845048248768,0.11762556433677673,0.2529865801334381,0.2033979445695877,0.08772636204957962,-0.11351564526557922,-0.24896350502967834,0.048574529588222504,-0.22650407254695892,-0.18931250274181366,-0.14324961602687836,-0.06976575404405594,-0.029456160962581635,-0.19215473532676697,0.16698616743087769,-0.056145746260881424,-0.17718052864074707,0.06748982518911362,-0.1908896118402481,-0.12627877295017242,-0.11505788564682007,0.1438227891921997,-0.1027662381529808,0.02353610284626484,-0.006074181757867336,0.043365661054849625,0.12399353086948395,0.07045075297355652,-0.0038863394875079393,0.039996154606342316,0.09503477811813354,0.14752893149852753,-0.336346298456192,0.06869419664144516,0.3092266917228699,-0.11638347059488297,0.1838119924068451,-0.24341540038585663,-0.20992743968963623,-0.2513902485370636,-0.05352485924959183,-0.1309492439031601,0.06900881975889206,-0.1224958598613739,-0.15735803544521332,0.283081978559494,-0.260271281003952,0.055127132683992386,0.01033122930675745,0.1640247404575348,-0.1427343785762787,-0.19745123386383057,0.12459640949964523,-0.3179919719696045,-0.11654102057218552,0.1884300410747528,-0.06816283613443375,-0.19046665728092194,0.24553127586841583,0.056070324033498764,-0.12841086089611053,0.20247121155261993,-0.2483234852552414,0.13662922382354736,0.06284189969301224,0.25480416417121887,-0.027255110442638397,-0.1947108954191208,0.3718981146812439,-0.24405772984027863,-0.0223946925252676,0.34641918540000916,-0.026104653254151344,-0.028508024290204048,-0.13304054737091064,-0.12237923592329025,-0.0766933411359787,0.24600747227668762,-0.07449109107255936,0.19083547592163086,0.04107289016246796,-0.046727705746889114,-0.11007028818130493,0.03744082152843475,-0.10914619266986847,0.09152791649103165,0.1732678860425949,-0.16242676973342896,0.09177934378385544,0.018114624544978142,0.21294771134853363,0.20089943706989288,-0.07564069330692291,-0.07442694902420044,-0.2565609812736511,-0.03089837357401848,0.0365920327603817,-0.009636163711547852,0.11192061007022858,0.31238043308258057,-0.11887730658054352,-0.349402517080307,-0.25016430020332336,-0.39753368496894836,-0.21632233262062073,0.17880727350711823,0.030131148174405098,0.0961155965924263,0.014160176739096642,-0.03501960635185242,0.219580739736557,-0.1425299197435379,-0.08662150800228119,0.3458622395992279,-0.08951851725578308,0.2282085418701172,0.2529090940952301,0.11927395313978195,0.2641119360923767,-0.19997873902320862,0.20692060887813568,0.26356321573257446,-0.11788339912891388,0.21268297731876373,-0.09642673283815384,-0.18941256403923035,-0.15330283343791962,0.18846672773361206,-0.12047197669744492,-0.20062173902988434,0.06280931085348129,0.19523724913597107,0.21483653783798218,-0.17001253366470337,0.2042790651321411,0.2692354619503021,0.0379326194524765,0.20803214609622955,0.07623857259750366,-0.2990957200527191,-0.2101026177406311,-0.2064656913280487,0.23010724782943726,-0.2358090579509735,-0.09882091730833054,-0.021527796983718872,0.00483430502936244,0.024139171466231346,-0.182625874876976,0.028575358912348747,-0.0668019950389862,0.24219053983688354,-0.17237548530101776,-0.2990753650665283,-0.10847911983728409,0.08319950848817825,0.19830253720283508,0.23535466194152832,0.11564040184020996,-0.09183811396360397,-0.03955879062414169,0.08622665703296661,0.27999451756477356,-0.2785416841506958,0.1122235506772995,-0.08908282220363617,-0.05295088142156601,0.41381072998046875,-0.09509166330099106,0.12021360546350479,-0.27830445766448975,0.1838349550962448,-0.2426569014787674,0.05174797773361206,-0.2644335627555847,-0.3576553463935852,0.21556401252746582,0.1323302537202835,0.1523500382900238,0.15458214282989502,0.10979905724525452,0.25107699632644653,0.1700086146593094,0.019158968701958656,0.02856624312698841,-0.009218712337315083,0.04228897765278816,-0.16935129463672638,-0.1853330284357071,-0.026600399985909462,-0.1341419219970703,0.029848501086235046,0.158917635679245,-0.028970865532755852,0.04135078936815262,-0.15293997526168823,-0.21736003458499908,0.07147019356489182,-0.22530941665172577,0.15060476958751678,0.043983425945043564,-0.24449098110198975,-0.059476498514413834,0.011541834101080894,-0.15252988040447235,0.2528110146522522,0.2555360496044159,-0.10460124164819717,0.2714068591594696,-0.2074717879295349,0.17445969581604004,0.1837414801120758,0.18425266444683075,-0.3124006986618042,0.1226823627948761,0.036644503474235535,-0.1049279049038887,0.28740692138671875,0.07938030362129211,-0.030779216438531876,0.16225329041481018,-0.17342522740364075,-0.17706803977489471,0.1617681235074997,-0.033942531794309616,-0.03874611854553223,-0.04859303683042526,0.22630903124809265,-0.019861187785863876,-0.12506404519081116,0.16260221600532532,-0.03773488104343414,-0.1881980448961258,-0.18152596056461334,0.164517343044281,-0.04964720830321312,0.1825830489397049,-0.05951504781842232,-0.15546409785747528,-0.07107903808355331,0.1637563556432724,0.05891387537121773,0.02282797358930111,0.1260884404182434,0.010860486887395382,-0.01759149692952633,-0.07480516284704208,0.11657020449638367,0.06524986773729324,-0.07528768479824066,0.18394577503204346,0.11723701655864716,-0.08167766034603119,-0.10341916233301163,0.16793985664844513,0.06316006183624268,-0.013703793287277222,-0.07730269432067871,0.0984320193529129,-0.06539484858512878,-0.02039029635488987,0.1443905234336853,0.005655080080032349,0.24340763688087463,0.003068631747737527,-0.16270774602890015,-0.035459935665130615,0.23333021998405457,-0.16782094538211823,-0.1343020796775818,-0.05212738737463951,0.2554159164428711,0.05549224466085434,-0.05853550508618355,0.06840828061103821,0.23594309389591217,0.02502496913075447,-0.04883172735571861,0.20209234952926636,0.072196364402771,-0.1667127162218094,0.09027732163667679,0.2378222942352295,0.18919336795806885,0.12336871027946472,0.08631306141614914,-0.14381849765777588,0.15954548120498657,-0.08336224406957626,-0.2496650516986847,-0.11519457399845123,-0.18710573017597198,-0.04033364728093147,0.1041639894247055,-0.12755458056926727,-0.21265636384487152,0.08922754973173141,0.33090969920158386,0.04075358062982559,0.10365483909845352,-0.23140184581279755,-0.09921376407146454,0.22038424015045166,-0.1403031051158905,0.11568567156791687,0.2650890052318573,0.02674664929509163,0.13293224573135376,0.011620551347732544,-0.0007903054356575012,0.1883959174156189,0.11638560891151428,0.085238516330719,0.024438297376036644,-0.26604729890823364,-0.22510926425457,0.14078614115715027,0.19670753180980682,0.20549175143241882,0.21221546828746796,0.005423646420240402,-0.10311266779899597,0.040131643414497375,0.1097509115934372,0.004422028083354235,0.06587906181812286,0.15748639404773712,-0.1378394365310669,0.1375415027141571,0.07444392889738083,0.04745886102318764,-0.05377552658319473,-0.07245312631130219,-0.18131956458091736,0.05130154639482498,0.17247140407562256,0.05843381583690643,-0.0015323986299335957,0.027282455936074257,0.08899080008268356,-0.052432604134082794,0.04152238368988037,0.08973412960767746,0.1032879650592804,0.12039457261562347,-0.02212739735841751,-0.16027338802814484,-0.19785724580287933,0.02936309017241001,0.19249141216278076,0.11012610048055649,0.0841512382030487,0.05861939489841461,0.022152315825223923,-0.14907239377498627,0.19361978769302368,-0.1836872696876526,0.08273302763700485,-0.056367769837379456,0.022234799340367317,0.049588970839977264,-0.1327667236328125,0.16758506000041962,-0.03937506303191185,0.03126368299126625,-0.055630315095186234,0.1421264410018921,-0.06856890022754669,-0.08737535774707794,0.03753378614783287,0.10322797298431396,-0.1394118368625641,0.13812623918056488,0.1433446705341339,-0.02294875681400299,0.03310919925570488,-0.037318892776966095,-0.1659059375524521,0.23895661532878876,-0.11336472630500793,0.04184606671333313,0.05198851227760315,-0.1136012002825737,0.12074314802885056,-0.1146213486790657,-0.07344435900449753,-0.2155103236436844,0.11188972741365433,0.07081783562898636,0.027642501518130302,0.17594030499458313,0.0349295474588871,0.007518235594034195,-0.02357741817831993,0.04136926680803299,-0.051481299102306366,-0.14118348062038422,0.15135928988456726,-0.08468251675367355,0.1887514442205429,0.14782845973968506,0.16158613562583923,0.17688146233558655,-0.22390112280845642,-0.022747691720724106,-0.08387205004692078,-0.1925046145915985,-0.06075628474354744,0.19275332987308502,0.07400286197662354,-0.017065836116671562,0.04063389450311661,0.00947750173509121,-0.024155691266059875,-0.14081640541553497,0.05160341039299965,0.046655166894197464,-0.05451198294758797,-0.007082275114953518,-0.14825159311294556,0.19095319509506226,-0.028884505853056908,0.1274654120206833,0.15095604956150055,-0.13778981566429138,0.1047968715429306,-0.15623785555362701,0.1730860471725464,-0.16678689420223236,-0.03489700332283974,0.1071133017539978,0.11986254900693893,0.031656745821237564,-0.062485869973897934,-0.08147674053907394,-0.1276760697364807,0.13693095743656158,-0.07822869718074799,-0.03443164750933647,-0.15561902523040771,-0.15386714041233063,0.153204545378685,-0.24309013783931732,0.12072797864675522,-0.02258141152560711,0.191801980137825,0.11611232161521912,-0.0735398605465889,-0.17589397728443146,-0.010188324376940727,0.03110719472169876,0.16076700389385223,0.0322735458612442,-0.20129172503948212,0.1037866622209549,0.015302309766411781,-0.10094660520553589,-0.21514269709587097,-0.0017377544427290559,-0.09715447574853897,0.07584784924983978,0.02034028246998787,0.028256971389055252,0.04482661932706833,-0.10720138251781464,0.12828339636325836,0.19741389155387878,0.1692427396774292,0.009224389679729939,0.0937148928642273,-0.1696925014257431,0.11336004734039307,-0.07485392689704895,0.09892337024211884,0.0709255263209343,0.2526911497116089,0.1734817624092102,-0.21041618287563324,-0.3331533670425415,0.04923980310559273,-0.20669420063495636,0.1735277771949768,0.007494690362364054,0.021809451282024384,0.20545047521591187,0.06448420882225037,-0.3575502038002014,0.20989620685577393,-0.026986345648765564,-0.07235098630189896,-0.12939989566802979,0.020314939320087433,-0.08313549309968948,-0.17426960170269012,-0.006748632062226534,-0.20458464324474335,-0.2968219816684723,0.053515225648880005,-0.05269276723265648,0.06585939228534698,-0.23781128227710724,0.1968839019536972,-0.2068997621536255,-0.08955148607492447,-0.18362313508987427,0.12483904510736465,0.11047487705945969,-0.22730885446071625,-0.04817906394600868,0.10192248970270157,-0.19912509620189667,-0.07675346732139587,0.0949348583817482,-0.33200985193252563,-0.022783175110816956,0.05936004966497421,-0.01707042194902897,-0.23229601979255676,-0.20586372911930084,-0.2487650364637375,-0.14110755920410156,0.16798806190490723,-0.1573982983827591,-0.16858148574829102,0.18972280621528625,0.15309059619903564,-0.24338746070861816,0.1288139373064041,-0.0607614628970623,-0.18932656943798065,-0.18409332633018494,0.14530394971370697,-0.08600789308547974,0.07127264887094498,-0.061871398240327835,-0.2847319543361664,0.13663098216056824,0.13120052218437195,-0.0870719775557518,-0.06941184401512146,0.01689116843044758,-0.05126611515879631,-0.3091355264186859,0.20194894075393677,-0.08735451102256775,-0.0732332319021225,-0.16878528892993927,0.14869903028011322,-0.20056410133838654,0.145171120762825,0.0625339075922966,0.12291331589221954,-0.21206767857074738,0.13398729264736176,0.0032791271805763245,0.15906353294849396,0.03241309896111488,-0.04313129559159279,0.015005752444267273,0.10679569095373154,0.255253404378891,-0.2905856966972351,0.15441803634166718,0.14378565549850464,-0.005843047518283129,-0.15327627956867218,-0.24445322155952454,0.23161156475543976,-0.011140418238937855,0.2342081069946289,-0.19926348328590393,-0.1275290697813034,-0.17440782487392426,0.2568199038505554,-0.2155728042125702,-0.28939852118492126,0.07304517924785614,0.0703439936041832,-0.21020638942718506,0.07508371025323868,-0.11289025843143463,-0.1668645739555359,-0.026915663853287697,0.15726566314697266,0.1488928496837616,-0.0409620925784111,0.12094216048717499,-0.21237953007221222,-0.03972569480538368,-0.057505734264850616,-0.09736540913581848,0.15101006627082825,-0.09282581508159637,-0.113113634288311,-0.18154987692832947,0.15145984292030334,0.22352281212806702,0.150018572807312,0.1744697391986847,0.004755128175020218,-0.1305307000875473,-0.0052469028159976006,0.04080555588006973,0.1452081799507141,-0.02966475486755371,-0.25058773159980774,-0.18255577981472015,0.19448956847190857,0.15316088497638702,-0.12404247373342514,-0.12017562985420227,0.2917005717754364,0.08463924378156662,0.04136323928833008,-0.14270038902759552,-0.11274624615907669,0.18977735936641693,0.1342582106590271,0.0388578400015831,0.02325768582522869,-0.2203255295753479,-0.11508484184741974,-0.13777771592140198,0.1358238011598587,0.25727614760398865,-0.03428088128566742,-0.26944077014923096,-0.028265122324228287,0.10316736996173859,-0.03376283496618271,-0.09289606660604477,0.19130772352218628,0.13009315729141235,-0.10985059291124344,0.17560584843158722,0.09152599424123764,0.0075036161579191685,0.12413488328456879,0.28906187415122986,0.18045181035995483,-0.10007808357477188,-0.25382402539253235,0.2318357229232788,-0.21416497230529785,-0.0644516795873642,0.19371244311332703,-0.0576859749853611,-0.22582712769508362,-0.16192728281021118,0.19267411530017853,-0.013032808899879456,-0.11044351756572723,0.08969789743423462,-0.25156480073928833,0.036798153072595596,0.2028352916240692,0.021710766479372978,-0.1251910775899887,0.14261853694915771,-0.16939426958560944,-0.22628150880336761,-0.20182855427265167,-0.1849903017282486,-0.05991392210125923,0.03150345757603645,0.11290536820888519,0.24544735252857208,0.19204019010066986,0.059568680822849274,0.0647505596280098,-0.12492905557155609,0.12538249790668488,-0.1594785898923874,-0.34598490595817566,-0.1546674221754074,0.08190963417291641,0.08280661702156067,-0.035179413855075836,0.045222148299217224,-0.2396717369556427,-0.10092426836490631,-0.018901336938142776,-0.13464638590812683,0.14412346482276917,-0.14844289422035217,-0.04833837226033211,-0.16615915298461914,-0.19727051258087158,0.12273789197206497,-0.024419577792286873,-0.1330225020647049,-0.16715365648269653,0.22827936708927155,-0.09431666880846024,0.11756087094545364,0.03029305674135685,-0.13003657758235931,-0.2320897877216339,-0.2424582540988922,0.00530079985037446,-0.04734509438276291,-0.25874683260917664,-0.20261210203170776,-0.10725803673267365,-0.1321364939212799,0.31342262029647827,0.009712671861052513,-0.08509904146194458,-0.25268635153770447,0.16832184791564941,-0.2950061857700348,0.19334515929222107,-0.10300693660974503,-0.10169082134962082,0.19414210319519043,0.12755419313907623,-0.09044426679611206,0.06876447796821594,-0.02562800981104374,-0.03607133403420448,0.03833721578121185,-0.12512460350990295,0.14347508549690247,-0.17937418818473816,-0.08659787476062775,-0.2645437717437744,-0.17324955761432648,0.24010615050792694,0.17708154022693634,-0.01274647656828165,-0.05495331808924675,-0.10000261664390564,0.15230734646320343,-0.20026178658008575,0.22466661036014557,-0.17671097815036774,-0.24599771201610565,-0.1274825930595398,0.22632910311222076,-0.2111702412366867,-0.26549607515335083,0.014934792183339596,-0.07137666642665863,0.08503609150648117,-0.05415595322847366,0.10593146085739136,0.15076181292533875,0.0751863643527031,-0.05801704153418541,-0.1599811166524887,-0.13762705028057098,0.22641465067863464,0.03427247703075409,-0.2533262372016907,0.02399825118482113,-0.30829736590385437,0.201520174741745,0.16469444334506989,0.18286293745040894,0.34054723381996155,0.0589178204536438,0.25775280594825745,0.32062849402427673,-0.12638697028160095,0.16680435836315155,0.11395533382892609,0.09115542471408844,0.11654547601938248,0.2371850460767746,0.028731251135468483,0.00633816746994853,-0.11392410844564438,0.3811660706996918,-0.20901234447956085,0.18932682275772095,0.11132645606994629,-0.08247002959251404,-0.38916581869125366,-0.1968708038330078,-0.1390831023454666,0.03454846888780594,0.11078649014234543,-0.09255567193031311,0.09595248103141785,0.2816337049007416,-0.07767722755670547,-0.12249437719583511,0.2359355390071869,0.06551594287157059,-0.1462244689464569,-0.20072974264621735,-0.02911551669239998,-0.023104315623641014,0.06113996356725693,0.16886299848556519,0.057370875030756,-0.1701899617910385,-0.23807039856910706,-0.05601620674133301,0.14632879197597504,-0.1640058010816574,-0.027879437431693077,0.23221178352832794,-0.014728126116096973,-0.10124752670526505,-0.14660996198654175,-0.034692708402872086,0.05562887340784073,0.13094601035118103,0.19678407907485962,-0.07529853284358978,-0.057024359703063965,0.05117076262831688,-0.10477527230978012,0.1519891321659088,-0.09360355883836746,-0.1308160275220871,0.07809021323919296,-0.19623832404613495,0.04156149923801422,-0.0718507468700409,0.10880117863416672,0.18963474035263062,0.07197760045528412,0.2157323956489563,0.234340637922287,0.2998764216899872,0.2217545211315155,-0.0763188973069191,0.04743730649352074,-0.04311474412679672,-0.012030604295432568,0.005741578061133623,-0.24886161088943481,0.34334540367126465,-0.09470245987176895,-0.034128740429878235,-0.22835323214530945,0.03102230280637741,0.053496845066547394,0.10428895801305771,0.12270393967628479,-0.13705910742282867,-0.04937988892197609,-0.24788251519203186,-0.21011890470981598,0.14696148037910461,0.081809863448143,-0.19242790341377258,-0.003565864870324731,0.14725825190544128,0.12083834409713745,-0.18656031787395477,-0.21469272673130035,0.2745232582092285,-0.22845764458179474,-0.046322207897901535,0.2645289897918701,0.005934767425060272,-0.1300976425409317,-0.22603271901607513,-0.20213721692562103,-0.15713247656822205,0.1665298044681549,-0.021226665005087852,0.18296493589878082,-0.308851033449173,-0.08033756166696548,-0.1450035274028778,0.15557846426963806,-0.01912745274603367,0.10828215628862381,0.06592021137475967,0.00944219809025526,-0.11085115373134613,-0.1773657500743866,0.018562668934464455,0.2218087613582611,0.08223363012075424,0.21658529341220856,-0.2713799476623535,-0.24533797800540924,0.25100335478782654,-0.1284990906715393,-0.08721569180488586,0.11198769509792328,-0.12151041626930237,-0.021996263414621353,0.2918824851512909,-0.17547598481178284,-0.20553939044475555,-0.2897484004497528,-0.05750243365764618,0.07638765126466751,-0.06772329658269882,0.08014928549528122,-0.1757180243730545,-0.08744222670793533,-0.19850696623325348,0.061919715255498886,-0.1430378258228302,0.05467977747321129,-0.03072940558195114,-0.2542482018470764,0.1181405633687973,-0.05220481753349304,0.2376733422279358,0.14461848139762878,-0.11719575524330139,0.26334312558174133,0.046788495033979416,0.04645318165421486,-0.18320409953594208,-0.16758772730827332,-0.08698178827762604,-0.10876066982746124,-0.07808715850114822,-0.2504290044307709,0.02276822179555893,0.21335695683956146,-0.11402290314435959,0.06562178581953049,-0.24551460146903992,0.09963754564523697,0.22162044048309326,-0.3033805191516876,-0.3840230405330658,0.248154416680336,0.11478457599878311,-0.23434899747371674,-0.1625765562057495,-0.10997877269983292,-0.08169203996658325,0.21099884808063507,-0.25261321663856506,-0.1738930195569992,0.2043076902627945,-0.13495004177093506,-0.2095106989145279,0.20247504115104675,0.23550353944301605,-0.15352387726306915,0.1506197154521942,0.3167385458946228,-0.14929160475730896,0.18735842406749725,-0.006076579913496971,0.22375935316085815,0.046737488359212875,-0.05255023017525673,0.2207227498292923,-0.29790544509887695,-0.11891590058803558,0.0716063380241394,-0.08100339770317078,-0.3034306466579437,-0.01038807351142168,0.2310633659362793,-0.06002429872751236,-0.18461574614048004,-0.25297921895980835,0.04549042508006096,-0.13897296786308289,0.17756031453609467,0.008862323127686977,-0.09928419440984726,0.007738837506622076,-0.330128014087677,0.15501883625984192,0.05905909463763237,0.13500413298606873,-0.06878118962049484,0.22153671085834503,0.0031621342059224844,-0.25198403000831604,0.06522924453020096,0.19767966866493225,0.2512788772583008,0.2699202597141266,-0.1647888571023941,0.033379945904016495,-0.002209282945841551,-0.022007465362548828,-0.1730358898639679,0.08006289601325989,0.17416399717330933,0.23421989381313324,-0.33133313059806824,-0.14062297344207764,0.016295548528432846,-0.145705446600914,-0.28376081585884094,0.1331869512796402,-0.17966653406620026,0.19043906033039093,0.06357641518115997,-0.2856355607509613,-0.24654407799243927,-0.12839220464229584,0.06104619428515434,-0.04215962067246437,0.18309099972248077,-0.002037175465375185,-0.1575460582971573,-0.025349032133817673,0.015386360697448254,-0.2652466893196106,-0.07372727990150452,-0.012845353223383427,0.20006440579891205,0.016969747841358185,0.25261741876602173,0.05472563952207565,0.2406489998102188,0.03055708482861519,0.1960444450378418,0.056386154145002365,-0.13652150332927704,0.17443512380123138,-0.10522085428237915,-0.11650510132312775,-0.13798043131828308,-0.05680377781391144,0.12393032014369965,0.2058286964893341,0.1379380226135254,-0.17260751128196716,0.19060102105140686,0.2596493065357208,-0.19651247560977936,-0.06430277228355408,0.25462135672569275,0.1312398463487625,-0.11363014578819275,0.2779783606529236,0.21730242669582367,-0.23704278469085693,0.015329795889556408,0.09093554317951202,-0.15594220161437988,-0.007753732614219189,-0.25187447667121887,-0.3229743242263794,0.2013445943593979,0.03502237796783447,-0.028464708477258682,-0.23581890761852264,-0.18231774866580963,0.12071850895881653,0.2252562940120697,0.07325753569602966,0.025564713403582573,-0.018437741324305534,-0.09315594285726547,0.1842023879289627,0.09737329930067062,-0.21317853033542633,-0.21103820204734802,0.21693989634513855,0.1400914341211319,0.009070254862308502,0.0709272250533104,-0.0743933618068695,-0.02673001028597355,0.012381830252707005,-0.04153269901871681,-0.17364370822906494,-0.2856249213218689,-0.06949107348918915,0.09483342617750168,0.13265326619148254,0.27427181601524353,0.11905399709939957,0.08324773609638214,-0.051080912351608276,-0.2481127679347992,-0.3446580767631531,0.0689486712217331,-0.18370185792446136,-0.18319906294345856,0.0043710810132324696,-0.265953928232193,-0.1705540120601654,-0.10674534738063812,-0.24072252213954926,-0.2877511978149414,0.020588528364896774,0.14484404027462006,-0.030309531837701797,-0.02670428901910782,0.18229448795318604,-0.033568404614925385,-0.21077032387256622,-0.07760613411664963,-0.2784614562988281,-0.008588308468461037,-0.16793756186962128,-0.12724511325359344,0.2191222608089447,-0.0488971509039402,0.11833114922046661,-0.07957317680120468,-0.1383846551179886,-0.20754297077655792,0.2486765831708908,-0.21530383825302124,0.14702320098876953,0.08410762250423431,0.20361687242984772,-0.04219689592719078,0.02345428243279457,0.22921834886074066,-0.11763563007116318,-0.2221602201461792,-0.01247403770685196,-0.03308013826608658,-0.23079301416873932,-0.02205708622932434,0.17869676649570465,-0.21704544126987457,0.1964586228132248,-0.3100385367870331,-0.20557887852191925,-0.1823279708623886,0.053202807903289795,-0.12999020516872406,-0.19231797754764557,0.17908112704753876,-0.03821118175983429,-0.15332087874412537,0.10300155729055405,0.19781818985939026,-0.2055397927761078,0.24021849036216736,-0.2140292227268219,-0.2394135445356369,-0.06810140609741211,-0.04630960896611214,-0.07984070479869843,0.08291102200746536,-0.02652815543115139,-0.05165722593665123,-0.23787637054920197,0.24102406203746796,-0.17179884016513824,-0.2998725175857544,0.16970904171466827,0.11672631651163101,0.004349911585450172,-0.15075643360614777,0.15475143492221832,-0.010125909000635147,-0.28953176736831665,-0.27778416872024536,-0.163465216755867,0.3035775125026703,0.22007925808429718,-0.13619524240493774,0.13472625613212585,-0.03942527621984482,0.013109348714351654,-0.28017568588256836,0.040213752537965775,0.14158791303634644,-0.10238943994045258,0.01485398504883051,-0.15464746952056885,0.20699481666088104,-0.07935202121734619,0.1063915491104126,0.25831338763237,-0.057643864303827286,-0.12622350454330444,0.15882839262485504,0.02227063477039337,0.04048629105091095,0.21051980555057526,-0.19903992116451263,0.038651254028081894,-0.04177156835794449,0.16507935523986816,-0.0971398651599884,-0.030250856652855873,0.18134696781635284,0.037629012018442154,-0.1034889668226242,0.11374347656965256,0.10009597986936569,0.021302632987499237,0.022242454811930656,0.17416593432426453,0.23306874930858612,0.20795032382011414,0.24580396711826324,-0.08796920627355576,-0.14935614168643951,0.1850242018699646,0.26222217082977295,-0.06733852624893188,-0.09974943101406097,0.013833599165081978,-0.19190049171447754,-0.06809806078672409,0.03440171852707863,0.084637850522995,0.10214199870824814,-0.0231929961591959,-0.25379255414009094,-0.00654197670519352,0.024419985711574554,0.18851341307163239,0.0246919896453619,0.18369004130363464,-0.21772323548793793,0.21267224848270416,0.3381718099117279,0.24568119645118713,-0.19350895285606384,-0.21190857887268066,-0.0364496223628521,-0.05911839380860329,0.07166467607021332,0.004319134633988142,0.14970658719539642,-0.15039275586605072,-0.11278029531240463,-0.055728618055582047,-0.19821670651435852,-0.11188358813524246,0.08774024993181229,-0.052411336451768875,0.15062540769577026,-0.1351224184036255,-0.004290475510060787,-0.020861506462097168,0.2472963035106659,0.06834253668785095,0.09822088479995728,-0.020484667271375656,0.20763085782527924,0.06217015162110329,0.2040967494249344,0.1378706991672516,-0.013884924352169037,0.1651407778263092,0.10904072225093842,-0.07372517883777618,-0.15915906429290771,0.14276164770126343,0.08781459927558899,0.052534185349941254,0.2839604914188385,-0.037474919110536575,-0.2940065562725067,0.21223169565200806,-0.13767403364181519,0.12197287380695343,0.09627854824066162,-0.257587730884552,0.21813589334487915,-0.12055131793022156,0.1425156593322754,-0.12228257209062576,0.16941027343273163,0.12521733343601227,0.028195727616548538,-0.21574869751930237,0.1653897762298584,0.019323360174894333,-0.14972147345542908,0.05489596351981163,0.17189937829971313,0.25658172369003296,-0.1511586755514145,-0.03748569265007973,0.14571711421012878,-0.17898103594779968,0.1868971735239029,0.07106370478868484,-0.20876863598823547,0.2640363276004791,-0.24528191983699799,-0.1431017518043518,-0.0856700912117958,-0.04805324599146843,-0.15659990906715393,-0.1608256995677948,-0.29056650400161743,-0.13908717036247253,0.03957495465874672,0.19702251255512238,0.2130441516637802,0.11267605423927307,0.13862302899360657,0.23398548364639282,-0.005428291857242584,0.2845420241355896,-0.04219810664653778,0.10976910591125488,-0.14982061088085175,-0.2619379460811615,0.16697821021080017,0.261188805103302,-0.10734187811613083,0.03323286399245262,0.26181191205978394,-0.2522706091403961,0.13914911448955536,-0.2632873058319092,-0.23948010802268982,0.0874069482088089,0.17187394201755524,0.031630199402570724,0.1268465518951416,-0.044966332614421844,-0.040271297097206116,0.2582853138446808,0.23145490884780884,0.2859293222427368,0.31476929783821106,0.1252450793981552,0.03118002600967884,-0.17138978838920593,0.0036632325500249863,0.1781618446111679,-0.1867724061012268,0.3390312194824219,0.18479715287685394,-0.15402451157569885,0.0900566503405571,0.05851050093770027,-0.40957197546958923,-0.25641360878944397,0.02449321560561657,-0.08707437664270401,0.0197310671210289,0.2953454554080963,-0.16573049128055573,-0.2242068350315094,-0.14419053494930267,-0.2233709841966629,0.11501727253198624,-0.14132767915725708,-0.06459338963031769,-0.06289548426866531,-0.1913711279630661,0.21413905918598175,-0.20072658360004425,-0.1163398027420044,-0.17289230227470398,-0.17328892648220062,0.041224122047424316,-0.07899706065654755,-0.1617366224527359,0.2042839676141739,-0.021297425031661987,0.2701794505119324,0.08764181286096573,-0.04576980322599411,-0.2064274102449417,0.03538836911320686,-0.1586763560771942,0.2571137547492981,0.28951579332351685,-0.035311922430992126,0.3278579115867615,-0.1942865550518036,0.26560086011886597,0.004535142332315445,-0.0575273334980011,0.0737992376089096,0.17943841218948364,0.23272471129894257,-0.22974108159542084,0.13796406984329224,-0.029151635244488716,0.08487557619810104,0.21478259563446045,0.19631090760231018,-0.2554916441440582,-0.2209719866514206,-0.06251281499862671,0.09000001847743988,0.4074157476425171,-0.010958514176309109,-0.1547269970178604,-0.026967506855726242,0.06824611127376556,-0.010559468530118465,0.2048444300889969,0.05948841944336891,-0.23381398618221283,0.1294032633304596,0.03772188723087311,-0.2554093599319458,-0.3102002739906311,-0.13224412500858307,-0.21872812509536743,-0.305697500705719,-0.13065823912620544,0.1561618447303772,-0.043296296149492264,0.08285055309534073,0.21232110261917114,0.2303970456123352,0.23049671947956085,0.18286627531051636,0.051126547157764435,-0.1367187798023224,0.00613825349137187,0.11310210824012756,0.24841545522212982,0.1899605542421341,-0.15876758098602295,-0.12541989982128143,-0.07073842734098434,0.16181927919387817,0.23721617460250854,-0.12971436977386475,-0.09463516622781754,0.0010621565161272883,0.07602423429489136,0.07927913963794708,-0.29678332805633545,0.11357557773590088,-0.13703815639019012,-0.10002253949642181,0.07619854807853699,0.019054299220442772,0.13750243186950684,0.10788098722696304,0.014079408720135689,-0.1276608258485794,-0.06410129368305206,-0.027285005897283554,-0.20356863737106323,-0.2584679126739502,0.060277748852968216,-0.09353439509868622,0.0965113714337349,-0.0687372088432312,-0.1329140067100525,0.09585526585578918,0.11609990149736404,-0.10487247258424759,0.26819613575935364,0.11280325055122375,-0.062323231250047684,-0.0844268724322319,-0.25634804368019104,-0.23226343095302582,-0.05042881891131401,0.094955213367939,0.10576613247394562,-0.18628105521202087,0.11205942183732986,0.13140636682510376,0.23547707498073578,-0.11085141450166702,0.14311964809894562,-0.21538202464580536,-0.07744477689266205,-0.14096376299858093,0.14149631559848785,0.050680335611104965,0.12181869149208069,0.17989888787269592,0.19391261041164398,-0.09661278873682022,-0.10725289583206177,0.258273184299469,-0.09464126080274582,-0.02076411247253418,-0.22938163578510284,-0.0740363597869873,-0.14803546667099,0.2266990691423416,-0.20876027643680573,0.04929942265152931,-0.1136576384305954,0.1213991791009903,0.3138720989227295,0.05830482393503189,-0.051305580884218216,0.11303897947072983,-0.2032146006822586,0.10103427618741989,0.15625526010990143,-0.00027444478473626077,-0.3046093285083771,0.05758695676922798,-0.045360319316387177,0.11846359074115753,0.07423568516969681,0.24087746441364288,0.11882247030735016,-0.14013804495334625,0.012626136653125286,0.06529998034238815,-0.1835380643606186,-0.007618797942996025,0.002012057462707162,0.17521069943904877,-0.009236996993422508,-0.13512790203094482,-0.13169170916080475,0.12471524626016617,0.08443668484687805,-0.04791327193379402,0.11092635244131088,-0.21758711338043213,0.10700205713510513,0.2106880396604538,-0.08644378185272217,0.13876494765281677,0.16453294456005096,-0.07172907143831253,0.1961897313594818,0.11118851602077484,-0.1913534253835678,-0.006554306484758854,0.19181716442108154,0.11950729042291641,-0.11993461847305298,-0.11156149953603745,0.012493782676756382,0.130100816488266,0.14026233553886414,-0.04863603413105011,-0.0723472312092781,0.18721744418144226,0.042524613440036774,-0.060010869055986404,-0.1786755919456482,-0.09511825442314148,0.11348003149032593,0.1445070505142212,-0.15063995122909546,-0.13957558572292328,-0.06632472574710846,-0.11906568706035614,0.12002000957727432,0.019955728203058243,0.174763023853302,-0.1996728628873825,-0.22926118969917297,-0.1890372782945633,-0.11649677157402039,0.07719556987285614,-0.03966536000370979,0.0899166539311409,-0.05440148338675499,-0.2724759578704834,0.14637450873851776,0.21359434723854065,0.13690944015979767,0.05916532874107361,0.08610554039478302,-0.1620158702135086,-0.07711710780858994,-0.17598861455917358,-0.10040614753961563,-0.133379265666008,-0.1114981546998024,0.002694736933335662,-0.08026356995105743,0.035006940364837646,-0.09457797557115555,-0.1876204013824463,-0.06765595078468323,0.1047663688659668,0.14276400208473206,0.06642559170722961,-0.04594140499830246,-0.008360498584806919,-0.14178447425365448,0.13520683348178864,0.03132931515574455,0.0149473175406456,-0.1361997425556183,0.05248941481113434,-0.07918170094490051,0.06720484793186188,-0.1281665712594986,-0.0060127233155071735,0.1773565262556076,-0.03290192782878876,0.06963979452848434,-0.2274758368730545,-0.10634220391511917,-0.026957444846630096,-0.002519960980862379,0.030174748972058296,0.08053907752037048,-0.17201615869998932,-0.044556669890880585,0.17796187102794647,-0.15554691851139069,0.08091302961111069,0.05110027268528938,-0.04175998643040657,0.0484573058784008,0.006780831143260002,0.22422555088996887,0.04395976662635803,-0.2241002470254898,0.09612914174795151,-0.005977298598736525,-0.19911572337150574,0.15177612006664276,0.1456620842218399,0.13481883704662323,-0.14230886101722717,-0.23947137594223022,0.01724056527018547,0.18591800332069397,-0.03955927863717079,0.09130207449197769,-0.014225125312805176,0.17496688663959503,-0.24843096733093262,0.16670478880405426,-0.12208496779203415,-0.07149756699800491,0.06344439089298248,-0.05953146889805794,0.20726050436496735,0.14204522967338562,0.08834554255008698,0.14486122131347656,-0.02021394670009613,0.01026484090834856,-0.19495272636413574,-0.1274726688861847,-0.24124357104301453,-0.11882069706916809,-0.1141650378704071,-0.08674337714910507,-0.09602136164903641,0.13726432621479034,-0.04029617831110954,-0.029684845358133316,-0.25270766019821167,0.04161546751856804,-0.002863397356122732,-0.06969035416841507,-0.09749186784029007,-0.05940748378634453,-0.05992501974105835,-0.047963399440050125,-0.13333642482757568,0.17728722095489502,0.0875968337059021,0.1994006484746933,-0.16491448879241943,-0.10860838741064072,-0.048226676881313324,-0.19108033180236816,0.07544756680727005,0.13971522450447083,0.021219473332166672,0.030561042949557304,0.07874985784292221,0.1746688336133957,0.03699984773993492,0.11932048201560974,0.15933653712272644,0.028506575152277946,-0.01992134563624859,-0.027041366323828697,0.11869031935930252,0.019474409520626068,0.0846509113907814,-0.08067218959331512,-0.03721219673752785,0.1274302899837494,-0.10948505252599716,-0.1784619837999344,-0.16523388028144836,-0.04328647255897522,0.09893476217985153,-0.11145097762346268,-0.0396215058863163,-0.0517396479845047,-0.09325844049453735,-0.001417767722159624,0.023886647075414658,0.033143166452646255,-0.11530561000108719,0.01384596899151802,0.11495478451251984,0.05169187858700752,-0.05644354596734047,-0.05971371755003929,0.10518056899309158,-0.025934165343642235,0.09411310404539108,0.22250907123088837,0.07229148596525192,-0.16169403493404388,-0.020358281210064888,-0.10280677676200867,-0.07602258771657944,-0.1110503152012825,0.01442610565572977,-0.10742685943841934,-0.04864979907870293,0.059574224054813385,0.14132192730903625,-0.03184282407164574,0.08584894239902496,-0.14435839653015137,0.0894804373383522,-0.058469027280807495,0.06073174253106117,-0.036006420850753784,0.13635797798633575,0.17216861248016357,0.12044534832239151,0.04516274854540825,0.0673706904053688,0.16208365559577942,0.0005381289520300925,0.030053047463297844,-0.28282639384269714,0.012823005206882954,-0.005532118491828442,-0.08284791558980942,0.20788215100765228,0.08274669200181961,0.0693793073296547,-0.08558084070682526,-0.024999437853693962,-0.05054937303066254,0.000315531506203115,0.097103551030159,0.025796299800276756,0.10933388024568558,-0.1343938559293747,-0.05727382376790047,0.059410907328128815,-0.13928374648094177,0.013100660406053066,-0.0021425725426524878,0.0007115731132216752,-0.10459402203559875,-0.06794259697198868,0.05375051498413086,0.0037130811251699924,0.02284867689013481,-0.1102164089679718,0.08374521881341934,-0.11610245704650879,0.16543002426624298,0.0702180564403534,-0.05314910039305687,0.09066139161586761,0.013979624025523663,0.09256575256586075,-0.025921419262886047,0.1172124519944191,-0.08032217621803284,0.024160711094737053,0.04055503010749817,0.1718568652868271,0.07723040878772736,-0.03884493559598923,0.02886725775897503,0.13262954354286194,-0.07517736405134201,-0.07451973110437393,-0.07947660982608795,0.1729821264743805,-0.05238717794418335,-0.09383683651685715,-0.06384582072496414,-0.020997213199734688,0.15345199406147003,0.12901431322097778,0.06382457911968231,-0.16054479777812958,-0.09423366189002991,0.1963920146226883,-0.08996742218732834,-0.015082774683833122,0.13396240770816803,0.12859876453876495,-0.08850003033876419,-0.08826589584350586,0.057102467864751816,-0.07130037248134613,0.165354922413826,0.1716643124818802,0.0023126485757529736,-0.06684614717960358,0.032051123678684235,-0.07329193502664566,-0.1642264723777771,-0.028504300862550735,-0.029537642374634743,-0.01468783151358366,-0.024765176698565483,0.02588273398578167,0.02217033877968788,0.045225709676742554,0.1783093512058258,0.1297004520893097,0.16674748063087463,0.07106273621320724,0.072819784283638,0.12120658904314041,0.0848357081413269,-0.060125403106212616,0.031815726310014725,0.12062100321054459,-0.004267865791916847,0.17285504937171936,0.16254255175590515,-0.006712745875120163,0.09090138971805573,0.11754382401704788,0.16254903376102448,0.09671889990568161,-0.0018088462529703975,0.012007731944322586,-0.03931413218379021,-0.0008475678041577339,-0.10856543481349945,-0.10573282092809677,-0.06731202453374863,0.13282190263271332,-0.023116599768400192,-0.1846512407064438,0.02448847144842148,0.08701980859041214,0.1267070174217224,0.12445661425590515,-0.03289135545492172,-0.0772794559597969,-0.005873824469745159,0.17992427945137024,-0.09040835499763489,-0.05904616415500641,0.13244247436523438,-0.13986675441265106,0.17807818949222565,-0.14153724908828735,-0.08991581201553345,-0.017412101849913597,0.11415987461805344,-0.0904976949095726,-0.01475889328867197,0.020962852984666824,-0.025991756469011307,-0.08063248544931412,-0.07638638466596603,0.07850542664527893,-0.2047681361436844,0.09986318647861481,0.08465918153524399,-0.04423560947179794,0.0638405978679657,0.06773976236581802,0.12607963383197784,0.11082561314105988,-0.08889751136302948,-0.0238631721585989,-0.21976353228092194,-0.06291522085666656,-0.14081691205501556,-0.011576921679079533,-0.08200069516897202,0.0994681715965271,-0.04485483095049858,0.08437471836805344,0.12658968567848206,0.11524679511785507,-0.17746880650520325,-0.03153108060359955,-0.036275189369916916,-0.10998876392841339,0.12360166013240814,-0.05566570162773132,-0.05239810794591904,0.2506551146507263,0.12002943456172943,0.12471924722194672,-0.2201629877090454,0.1645732820034027,0.2100059688091278,0.030562592670321465,-0.16757407784461975,-0.08027459681034088,-0.23369936645030975,0.09664509445428848,0.18018749356269836,-0.006444333586841822,0.048576533794403076,0.11595389991998672,0.20239417254924774,-0.12378358840942383,0.015380480326712132,0.30646461248397827,-0.022565143182873726,-0.0026973546482622623,-0.051202915608882904,-0.00663651991635561,0.24301809072494507,-0.05432748422026634,0.1366584748029709,-0.21402645111083984,-0.07302368432283401,0.15969213843345642,0.1566997617483139,-0.11508500576019287,-0.09056331217288971,0.1503186970949173,0.10015746206045151,0.05334676802158356,-0.10374023765325546,0.15827254951000214,0.05943811312317848,-0.09024397283792496,0.1508416384458542,-0.18830934166908264,0.11668463051319122,-0.10432341694831848,0.07406052947044373,-0.11136273294687271,0.2076498568058014,-0.04412336274981499,0.03617088496685028,0.18976253271102905,-0.12444649636745453,0.03623664379119873,0.018195150420069695,0.09407342970371246,-0.06892970204353333,-0.24717865884304047,0.19204306602478027,-0.14655007421970367,-0.16427020728588104,0.04637845233082771,-0.1633622944355011,0.04736170917749405,-0.09521143138408661,-0.042075783014297485,0.017927393317222595,0.07132546603679657,-0.16415639221668243,-0.1720726490020752,-0.15193822979927063,-0.14597085118293762,-0.04575267434120178,0.15422728657722473,0.1946127861738205,-0.2261001616716385,-0.16336023807525635,0.1276097595691681,-0.14568842947483063,-0.13416601717472076,0.1696818768978119,-0.05746405944228172,0.023486068472266197,-0.13326363265514374,-0.10581445693969727,-0.05343368649482727,0.09610158205032349,0.16000455617904663,0.07050822675228119,0.0617310032248497,-0.1743575632572174,-0.23231713473796844,-0.12092006206512451,-0.011091237887740135,-0.11378415673971176,0.10003118216991425,0.23471488058567047,-0.1554236263036728,0.18370752036571503,0.13709276914596558,0.14952798187732697,0.14899080991744995,-0.2510349154472351,0.05837615579366684,0.19561126828193665,0.053899314254522324,0.09923970699310303,0.10351264476776123,0.0015856137033551931,0.15075315535068512,-0.1403641551733017,-0.010969573631882668,-0.11968687921762466,0.05484984070062637,0.0007846420048736036,-0.13112860918045044,0.24280251562595367,-0.10179027915000916,0.0004432352725416422,0.0724286362528801,0.005964248441159725,-0.021946178749203682,-0.17120395600795746,0.30560943484306335,-0.0628877505660057,-0.10217613726854324,-0.07260681688785553,0.00898796133697033,-0.057075709104537964,0.3908173441886902,0.020669536665081978,0.2076033651828766,-0.08096291869878769,-0.2204427868127823,-0.18903812766075134,0.11816347390413284,-0.17841991782188416,0.09949738532304764,-0.05728716775774956,0.16729262471199036,-0.15009838342666626,-0.22631137073040009,-0.08744364231824875,0.11828707903623581,-0.18491633236408234,-0.03275028243660927,-0.21337780356407166,0.08473968505859375,0.1294844001531601,0.25753071904182434,-0.04051298648118973,0.14298023283481598,-0.14163020253181458,-0.11905461549758911,0.058246076107025146,-0.11506146192550659,0.16414225101470947,-0.1925552785396576,0.10003025829792023,-0.3030364513397217,0.3248676061630249,0.03057374246418476,0.11065422743558884,0.04602428525686264,0.07646363228559494,0.12317737936973572,0.10787387192249298,-0.22170871496200562,-0.3625008463859558,0.0008420900558121502,0.02343987300992012,-0.07069911062717438,0.21409547328948975,-0.26372218132019043,0.15507537126541138,0.12980829179286957,-0.15709230303764343,-0.01698697917163372,0.17281267046928406,-0.1773357093334198,0.08104028552770615,0.07380640506744385,0.1391047239303589,-0.22224591672420502,-0.057937610894441605,-0.016454914584755898,-0.14065434038639069,0.22676751017570496,-0.28767120838165283,-0.08597446978092194,0.08850424736738205,-0.04254938289523125,0.26727670431137085,-0.13338036835193634,-0.12863728404045105,0.21824415028095245,0.27326229214668274,-0.09088796377182007,-0.14963562786579132,-0.1641770750284195,-0.3187718093395233,0.42201125621795654,0.18341606855392456,0.25554347038269043,-0.27282068133354187,-0.2600344121456146,0.0040654768235981464,0.27596235275268555,0.2681216597557068,-0.2030903697013855,-0.0319117046892643,-0.17343968152999878,-0.28270062804222107,0.012958832085132599,-0.08231125771999359,-0.17211966216564178,0.08986654132604599,-0.23301862180233002,0.22347447276115417,-0.2954845130443573,0.09297764301300049,0.07820021361112595,0.2210112065076828,-0.34822213649749756,-0.04219759255647659,-0.19113096594810486,0.10872473567724228,0.22427743673324585,0.08536124229431152,0.0008289788383990526,0.033659279346466064,-0.28358274698257446,-0.02656238153576851,0.011887404136359692,-0.09117313474416733,-0.053696222603321075,0.31745851039886475,0.3557772934436798,-0.12619133293628693,-0.01424233429133892,0.01526256650686264,0.09527550637722015,-0.07524577528238297,-0.17849861085414886,0.0449550524353981,0.21327172219753265,0.028264468535780907,0.04711972922086716,0.051200781017541885,0.25373461842536926,0.20139753818511963,-0.3141712248325348,-0.1772863119840622,0.07949065417051315,0.19377879798412323,-0.0977684035897255,-0.157489612698555,0.03079131431877613,0.3252568244934082,-0.08571133017539978,-0.23984839022159576,0.01805546134710312,-0.16862790286540985,0.29572853446006775,0.160037100315094,0.17572270333766937,-0.06391534209251404,-0.17335332930088043,0.17262423038482666,0.08140953630208969,0.1279859095811844,0.15229102969169617,-0.09177006781101227,-0.0027099892031401396,0.16440534591674805,-0.058980945497751236,-0.13466212153434753,-0.06267005205154419,0.34357795119285583,-0.18035994470119476,-0.13704049587249756,-0.01112583838403225,-0.17835870385169983,0.22979815304279327,0.19647885859012604,-0.138529434800148,0.07643129676580429,-0.20403338968753815,-0.21941924095153809,0.18749317526817322,-0.323192298412323,0.18983307480812073,-0.00559561513364315,0.23849524557590485,0.1279570311307907,-0.23644068837165833,-0.0633213222026825,0.12254752963781357,0.03901449590921402,0.06903202086687088,-0.026400603353977203,0.08268219977617264,0.006886258255690336,0.12211576104164124,0.14989401400089264,0.13557887077331543,0.2991958260536194,-0.10193710774183273,-0.22018179297447205,0.06431370973587036,-0.05355564132332802,-0.030052514746785164,-0.09247693419456482,-0.026816612109541893,-0.07389219850301743,0.060708917677402496,-0.056172337383031845,0.05043027922511101,0.19610261917114258,-0.04590191692113876,0.09933054447174072,-0.09016475081443787,-0.1786436289548874,-0.08584952354431152,0.07677026838064194,-0.08269569277763367,-0.1015351265668869,0.2534700334072113,-0.0769677609205246,0.07740925252437592,0.07050052285194397,-0.28176265954971313,-0.1591588258743286,-0.2526005506515503,-0.23509886860847473,0.16517062485218048,0.1920505315065384,0.034207895398139954,-0.20902015268802643,-0.15498776733875275,0.17643919587135315,0.25122082233428955,0.03798631951212883,-0.07236754149198532,-0.22742579877376556,-0.028117774054408073,-0.09074747562408447,0.20980936288833618,0.0595831461250782,0.25656184554100037,0.02309274487197399,0.05443483218550682,0.17146946489810944,0.19015976786613464,-0.05650971457362175,-0.1536056399345398,0.10686555504798889,0.133534237742424,0.20195014774799347,0.04348880425095558,0.20969335734844208,-0.14482136070728302,0.094609335064888,0.04163999855518341,0.13362400233745575,0.08804932236671448,0.1656619906425476,-0.18456847965717316,-0.18755029141902924,-0.1585921049118042,-0.1645636111497879,-0.13260267674922943,-0.15208593010902405,0.16204503178596497,-0.11655181646347046,-0.2100348174571991,-0.14761415123939514,0.05204716697335243,0.1430131494998932,0.034593336284160614,0.1450120061635971,-0.004078992176800966,0.16940699517726898,0.04429646581411362,0.11016669124364853,-0.11207202821969986,-0.006157303228974342,0.23051363229751587,-0.1370781809091568,-0.16097649931907654,-0.12545180320739746,0.03489457443356514,0.13047994673252106,0.16338738799095154,-0.011059957556426525,-0.13469621539115906,0.10776063054800034,0.27520859241485596,0.07408872991800308,-0.147436261177063,-0.005490042734891176,0.14033840596675873,-0.2052336484193802,-0.058718133717775345,-0.1588657796382904,-0.20330248773097992,-0.13819250464439392,0.06236272677779198,0.08071673661470413,-0.11685073375701904,-0.10062818229198456,0.1254320591688156,0.05637676641345024,0.16894438862800598,0.09381218999624252,0.11579782515764236,0.033185649663209915,0.21399404108524323,-0.06913278996944427,-0.19929473102092743,0.16051864624023438,0.05966731160879135,-0.08377445489168167,0.2494746297597885,0.08585543930530548,0.06685759872198105,-0.07893002033233643,0.10449280589818954,0.015018944628536701,0.16819287836551666,-0.19840002059936523,-0.04585401713848114,0.12422502785921097,0.04684368893504143,0.04097640886902809,0.03733254224061966,0.09937052428722382,-0.01534623559564352,0.18271814286708832,0.003934304229915142,0.09711603820323944,0.10720138251781464,-0.12704484164714813,0.019844477996230125,-0.13134704530239105,0.018454844132065773,-0.07071586698293686,0.10596824437379837,0.050513770431280136,0.1568966656923294,-0.17341502010822296,0.12727124989032745,-0.1821625679731369,-0.008279578760266304,-0.15425844490528107,-0.10768751800060272,-0.0016635475913062692,0.18953819572925568,-0.0998893678188324,-0.03803114593029022,