1.1199722290039062,1.010585904121399,-1.474076509475708,-0.165516659617424,0.21186932921409607,0.8389040231704712,0.25204139947891235,-0.23146791756153107,-0.09595487266778946,-0.08431001752614975,-0.3634539544582367,-0.47248712182044983,-1.1185516119003296,-0.8230841159820557,0.5177175998687744,-0.7307152152061462,-0.2355717122554779,-0.9143044948577881,-0.8155558705329895,-0.3654555380344391,0.4858100712299347,0.6376044154167175,-0.20427796244621277,-1.3321455717086792,-0.41870301961898804,0.9972753524780273,0.4294804036617279,0.5116515159606934,0.6272560954093933,0.12336280196905136,1.6345292329788208,-1.2281146049499512,-0.33032870292663574,-0.5923597812652588,0.6780424118041992,-0.26174962520599365,-0.6241855025291443,-0.3462461829185486,0.25655412673950195,-0.6966242790222168,-0.1537010371685028,-0.40410682559013367,-1.653050184249878,0.2603372037410736,1.2382715940475464,0.6445163488388062,-0.4166063070297241,-0.26251646876335144,0.5640661120414734,-1.196255087852478,-1.1698116064071655,1.4524072408676147,0.2728698253631592,0.30562812089920044,-0.028216363862156868,0.5722166299819946,0.6716458201408386,0.024037938565015793,0.07815250754356384,0.7171072959899902,-0.24092018604278564,0.8380114436149597,0.4995368421077728,-0.8676598072052002,0.06940936297178268,-0.6705973148345947,0.7337732315063477,1.0569738149642944,-0.947929322719574,0.4656696915626526,0.39125856757164,-0.8704968094825745,0.9385480284690857,0.3639392554759979,0.9055200815200806,0.5716820955276489,0.5303413271903992,0.45282724499702454,-0.11099167168140411,-0.12421124428510666,0.22311809659004211,0.3563896417617798,-0.9003063440322876,0.07485736161470413
