-0.05538560077548027,-0.0851355791091919,0.042332228273153305,-0.032320257276296616,0.017029907554388046,-0.08872878551483154,0.043092019855976105,-0.1131923720240593,0.004013869445770979,0.09541727602481842,0.0968882218003273,-0.004365276079624891,-0.004826054442673922,0.08053449541330338,-0.0451594814658165,-0.12213621288537979,-0.07659544795751572,0.06334169209003448,0.0024889158084988594,0.06572077423334122,0.032675545662641525,0.03147131949663162,0.07566229999065399,-0.06152506545186043,0.05041163042187691,-0.08590645343065262,0.08239951729774475,0.028711842373013496,-0.09502393007278442,0.08341305702924728,0.10357406735420227,0.025541698560118675,0.045401282608509064,-0.07018045336008072,-0.01200189720839262,0.06814040243625641,-0.11087311059236526,-0.029118962585926056,-0.02873663231730461,-0.06087521091103554,0.12074029445648193,0.05297611653804779,-0.036365557461977005,0.03511190786957741,0.009142762050032616,0.028003238141536713,0.05171501263976097,0.027691980823874474,0.01272833812981844,-0.0960242822766304,0.08933134377002716,0.05299032852053642,0.012676933780312538,-0.06360171735286713,-0.09585458785295486,-0.013649558648467064,-0.09819328039884567,0.02919756807386875,-0.008619667030870914,0.06600640714168549,-0.0005507309688255191,-0.02429359033703804,0.03063182346522808,0.06455407291650772,0.060881003737449646,-0.06578946113586426,-0.02781258337199688,0.010616600513458252,-0.0366642139852047,-0.062488652765750885,-0.1162538230419159,0.009770995005965233,0.00629678089171648,-0.08423373848199844,-0.051824141293764114,-0.01712864078581333,0.025209929794073105,0.07697832584381104,0.06650668382644653,0.09106742590665817,0.05981417000293732,0.07714514434337616,-0.10134219378232956,-0.02889297530055046,-0.07339031249284744,-0.10522595793008804,-0.0016755108954384923,-0.004704445134848356,-0.07136216759681702,0.05801298841834068,0.08899860084056854,0.0895986557006836,-0.08311242610216141,-0.006413297727704048,0.0781889408826828,0.01897619664669037,-0.05578089877963066,-0.07916568964719772,0.012418944388628006,0.042720139026641846,0.05002793297171593,-0.1295626312494278,0.026335885748267174,0.04516270384192467,-0.06765534728765488,0.004949877504259348,-0.0077268341556191444,-0.03848027437925339,-0.003650542814284563,0.07772880792617798,0.0987996831536293,-0.07692296802997589,-0.11718752980232239,0.06040134280920029,-0.008739208802580833,0.024947060272097588,-0.017690902575850487,0.06838442385196686,0.08107314258813858,-0.03241059556603432,-0.05907114967703819,-0.13066472113132477,0.04571250081062317,0.0362284816801548,0.09538751095533371,0.07058084011077881,-0.055689629167318344,0.0022880230098962784,0.020757503807544708,-0.07332362234592438,0.011629873886704445,0.07862131297588348,0.044925473630428314,0.059160973876714706,-0.07571209222078323,-0.06066551059484482,-0.012329637072980404,0.014347503893077374,-0.08088605850934982,-0.09226396679878235,0.015926921740174294,-0.08578740805387497,-0.10844013094902039,0.00225475593470037,0.05690617486834526,-0.02629447542130947,0.11069412529468536,-0.08093015849590302,-0.04582859203219414,-0.003828262211754918,-0.057241007685661316,-0.0652012899518013,0.11044612526893616,-0.06695092469453812,0.0008466073777526617,0.07809685915708542,-0.018712962046265602,0.09933411329984665,-0.06327923387289047,0.08352584391832352,-0.036319442093372345,0.032987263053655624,-0.11801236867904663,-0.08446263521909714,0.05334749072790146,0.09404897689819336,-0.0058954753912985325,-0.03682306781411171,-0.04054901748895645,0.12839271128177643,-0.09905208647251129,-0.0755622461438179,-0.04770795628428459,0.09178810566663742,-0.010843325406312943,0.03338176757097244,-0.05477609485387802,-0.03916439786553383,0.11428986489772797,-0.008732450194656849,0.0912126749753952,0.0837092250585556,-0.0621398501098156,-0.08865662664175034,0.06568579375743866,-0.05868113413453102,0.04603957384824753,-0.026454569771885872,0.07067307084798813,0.12198808789253235,-0.013527344912290573,0.1053856685757637,0.05709367245435715,0.00347734778188169,0.0863390639424324,-0.08518484234809875,-0.07059495151042938,-0.04919734597206116,0.09003917127847672,-0.06238843500614166,-0.05649002268910408,0.09209374338388443,0.08727782964706421,-0.0658930093050003,-0.07917520403862,0.018574198707938194,0.060111235827207565,-0.07885106652975082,0.032293904572725296,0.026053428649902344,0.11656472831964493,-0.07828544080257416,0.02399243228137493,0.05672421678900719,-0.025331836193799973,-0.04160057008266449,0.0575719028711319,0.12039686739444733,0.048215001821517944,-0.06067151203751564,-0.09094825387001038,-0.03154955059289932,-0.05815115571022034,-0.010501157492399216,-0.01861858367919922,-0.06815103441476822,-0.02053028531372547,0.0037738345563411713,-0.0491151437163353,0.05686761438846588,0.06957193464040756,-0.03708522021770477,-0.003217951627448201,0.04403454810380936,-0.09566067904233932,-0.06634004414081573,0.018963966518640518,-0.0032295393757522106,-0.09245621412992477,0.08735598623752594,0.024519741535186768,-0.016481900587677956,0.11699791252613068,0.019376305863261223,-0.09341160953044891,-0.02326093800365925,0.057520896196365356,-0.06944985687732697,-0.05848398432135582,-0.07426097989082336,0.006342579610645771,-0.014978447929024696,0.06258978694677353,0.043089430779218674,-0.08035516738891602,-0.07978834211826324,-0.03269796818494797,-0.10798715800046921,0.064787358045578,-0.01427780743688345,-0.02706374228000641,-0.10682560503482819,0.054024603217840195,-0.008810763247311115,-0.006319862324744463,-0.027863936498761177,-0.0454789437353611,0.062183279544115067,-0.006740385200828314,-0.004385628271847963,0.07733180373907089,-0.037759218364953995,-0.08079253137111664,0.007779494393616915,0.0488063246011734,0.004510289523750544,0.08207865059375763,-0.042391061782836914,0.12050101906061172,0.027918225154280663,0.04230116680264473,-0.07388103753328323,0.08732207119464874,-0.13673651218414307,0.08290193229913712,0.06524570286273956,0.05619222670793533,0.011554857715964317,0.08139479160308838,-0.08727547526359558,0.08266105502843857,-0.05126820132136345,-0.0513748899102211,-0.10540476441383362,0.05796012654900551,-0.08182071149349213,0.12382858991622925,-0.024083595722913742,0.023939350619912148,-0.07531175017356873,0.07952103018760681,0.04742979630827904,0.013708008453249931,0.0057844375260174274,0.037533555179834366,0.08328460156917572,0.03336571902036667,0.03786778450012207,-0.08759333938360214,0.016458597034215927,0.11127930134534836,-0.02380932681262493,-0.09671241044998169,-0.10883551836013794,-0.09454957395792007,-0.01495096180588007,-0.07880458980798721,0.021892910823225975,-0.05436902493238449,0.12003771215677261,0.04837045818567276,0.06258688122034073,-0.05634412169456482,-0.029938211664557457,-0.06490106880664825,-0.11323723196983337,-0.02768705040216446,-0.08896943181753159,-0.09675440937280655,-0.049015358090400696,-0.02121116779744625,-0.016984442248940468,0.09446745365858078,0.04326280951499939,0.08849973231554031,-0.028409766033291817,-0.0015721007948741317,-0.015195680782198906,0.11120135337114334,0.02643739804625511,0.08652736991643906,-0.005246913526207209,-0.05078919604420662,-0.09222417324781418,0.07495959103107452,-0.0461212582886219,-0.09012992680072784,-0.0050294590182602406,0.09064735472202301,0.084563247859478,0.08009114116430283,-0.08119282126426697,-0.10242587327957153,0.03049791045486927,-0.025877386331558228,0.08330214023590088,0.07985658943653107,-0.036220040172338486,-0.07254254072904587,-0.07773613929748535,-0.020690442994236946,0.07869339734315872,0.014878308400511742,-0.08823961764574051,0.10306881368160248,-0.07646990567445755,-0.025257844477891922,-0.13296961784362793,-0.07551107555627823,0.054041460156440735,-0.0011694257846102118,-0.02552160620689392,-0.044036123901605606,0.038559459149837494,-0.03322017937898636,-0.01845846138894558,0.0753883570432663,-0.02896181307733059,-0.05455774813890457,0.07388830929994583,0.027467722073197365,-0.09623193740844727,0.043685294687747955,0.021299881860613823,-0.027662968263030052,0.054744902998209,0.06233132258057594,0.016573818400502205,0.07512299716472626,-0.08574926108121872,-0.03059215098619461,0.01244581863284111,-0.08519540727138519,-0.03547954186797142,-0.08315350115299225,0.007300365250557661,0.009117621928453445,0.055285561829805374,0.09733851253986359,0.033352382481098175,-0.04047033190727234,0.01254387479275465,-0.03969148173928261,0.006205552723258734,-0.04745156317949295,0.036627139896154404,-0.02432909421622753,0.08579927682876587,0.009846187196671963,0.014584517106413841,0.02709282748401165,0.010932673700153828,-0.11752894520759583,0.06585939973592758,0.0353081151843071,-0.09112343937158585,0.07119409739971161,0.012997371144592762,-0.06466639041900635,0.12171852588653564,-0.03908073529601097,-0.11874260008335114,0.03860824927687645,-0.02136114425957203,-0.0543600395321846,-0.002404422266408801,0.021636921912431717,-0.048225611448287964,-0.06752903759479523,0.02324560657143593,-0.10517997294664383,0.026869140565395355,-0.08507247269153595,-0.052667032927274704,-0.07899048924446106,-0.0037294812500476837,-0.027154138311743736,-0.09503424167633057,0.04178883880376816,0.10458410531282425,-0.06939170509576797,0.001797656062990427,0.03598122298717499,-0.059686195105314255,-0.05102742090821266,0.04100676253437996,-0.10121307522058487,0.0320507250726223,0.09163857996463776,0.06623983383178711,0.055564362555742264,-0.0030210446566343307,-0.049504514783620834,0.08780806511640549,0.10276541113853455,-0.06360240280628204,-0.054237134754657745,0.0782201737165451,-0.05152752250432968,0.09124556928873062,0.04546526446938515,-0.025823943316936493,-0.00896864291280508,-0.004728912841528654,0.04876095429062843,-0.004117975011467934,0.030798861756920815,0.004897091072052717,-0.07265916466712952,0.057849496603012085,0.09353851526975632,-0.10625995695590973,-0.09945162385702133,-0.014385879971086979,0.022459279745817184,-0.004716630093753338,0.060932137072086334,-0.025158513337373734,-0.07754034548997879,0.02471231296658516,-0.0803685113787651,0.09699371457099915,0.0012391749769449234,0.055492669343948364,0.07175657153129578,0.07706256210803986,0.07108475267887115,-0.014399089850485325,-0.06459160894155502,-0.030126597732305527,0.07197847217321396,0.09663346409797668,0.04499325528740883,-0.11328336596488953,0.06831736117601395,0.01993519440293312,0.04719211161136627,-0.02321307361125946,-0.10636255890130997,0.08980482071638107,0.0910545289516449,-0.13704700767993927,-0.026476416736841202,0.009640427306294441,-0.10865269601345062,-0.10136856883764267,-0.06695230305194855,0.03979327157139778,-0.06856105476617813,-0.04842890799045563,-0.024652156978845596,0.03865225613117218,-0.002692472655326128,-0.008410644717514515,0.046578459441661835,0.08944910764694214,-0.03357233479619026,-0.014763759449124336,-0.10265539586544037,-0.0420430488884449,0.031352996826171875,0.014033984392881393,-0.09461475908756256,-0.06308043748140335,-0.015447109937667847,0.004446986597031355,0.06611049175262451,0.06191236898303032,-0.07680317759513855,0.06344296038150787,0.07392866164445877,-0.064728282392025,0.03487579524517059,-0.07310944050550461,-0.0667286291718483,-0.07008611410856247,0.08116797357797623,-0.022640379145741463,0.04886965826153755,0.08628160506486893,-0.03206079453229904,0.08384223282337189,0.011939985677599907,0.03297265246510506,0.07935270667076111,0.011430463753640652,-0.06105394661426544,0.03162624314427376,-0.01491561159491539,-0.12186680734157562,-0.000461798335891217,0.05085526034235954,-0.018862346187233925,-0.03388769179582596,-0.029898639768362045,-0.10874906927347183,0.12493766099214554,0.014689904637634754,0.10299202799797058,-0.002977421972900629,-0.029646296054124832,0.05590066686272621,-0.04178381711244583,-0.08174967765808105,-0.032264403998851776,0.04036702588200569,0.06943261623382568,-0.06218968704342842,0.026479506865143776,-0.09672302007675171,0.005858090240508318,0.08164263516664505,-0.03549680486321449,-0.04451468586921692,-0.009933769702911377,-0.09653420746326447,0.08903685957193375,0.07330938428640366,-0.01586512289941311,0.1100374311208725,-0.007233580108731985,-0.11025594174861908,0.05528203770518303,-0.0182376429438591,0.0603770948946476,0.07197070866823196,0.07379316538572311,0.0971880555152893,0.007366767153143883,0.07315364480018616,-0.007916362024843693,-0.05476412922143936,-0.04944498464465141,0.09007364511489868,0.017405889928340912,-0.0778859481215477,-0.037982869893312454,-0.09966228157281876,-0.07314461469650269,-0.006319943815469742,0.0734720453619957,0.030797118321061134,0.04258797690272331,-0.03819574788212776,-0.052922625094652176,-0.05961065739393234,0.11303644627332687,0.06363164633512497,0.04775332286953926,0.03870965912938118,-0.08310194313526154,-0.04835570231080055,0.0012960538733750582,0.05310694873332977,-0.04693516716361046,0.08822555840015411,0.06580916047096252,0.01320707704871893,0.0838850662112236,0.010536161251366138,-0.11422231048345566,-0.08305372297763824,-0.09458465874195099,0.10230647772550583,0.014951626770198345,-0.009325976483523846,0.0928298681974411,0.06183952838182449,-0.027280334383249283,0.08030758798122406,-0.008787800557911396,-0.058532875031232834,-0.042449500411748886,-0.012014917097985744,-0.0822199285030365,-0.08638226985931396,-0.09990296512842178,0.051620181649923325,-0.07434210181236267,-0.007411519531160593,0.05736256390810013,-0.09616866707801819,0.022043392062187195,-0.06184639036655426,0.07272215187549591,-0.11222443729639053,0.07400503009557724,0.0772826224565506,0.008153795264661312,-0.008708426728844643,0.056674011051654816,0.06025106459856033,0.045998312532901764,-0.1321369856595993,0.04361960291862488,-0.06747051328420639,0.03907373547554016,-0.035474181175231934,-0.01486190129071474,0.036848146468400955,0.021223729476332664,-0.025651806965470314,0.07755645364522934,0.0683809220790863,0.028413716703653336,-0.07620295137166977,-0.05343577265739441,0.04897600784897804,0.05255064740777016,0.05484359338879585,0.028712403029203415,0.06633799523115158,0.0661718100309372,0.04710782319307327,-0.025459149852395058,-0.046391040086746216,-0.028457488864660263,-0.12416201829910278,0.009455722756683826,0.05293631553649902,-0.0729409009218216,0.043569255620241165,-0.06812677532434464,-0.05451110005378723,0.028187617659568787,-0.1305994987487793,-0.10504426062107086,0.0833979919552803,-0.044939253479242325,0.029698031023144722,-0.037255819886922836,0.03567645326256752,0.05200276896357536,-0.07858536392450333,-0.06423156708478928,-0.019411880522966385,-0.010530197061598301,-0.1380710005760193,-0.047877632081508636,0.02440008334815502,0.09597969800233841,-0.04048703610897064,0.020678197965025902,-0.0030221978668123484,0.10277858376502991,0.05594451725482941,-0.03292946144938469,0.016537392511963844,-0.053600139915943146,-0.07070614397525787,-0.040744658559560776,0.12131870537996292,0.05447001755237579,0.10183390974998474,0.03407786786556244,0.045116279274225235,0.01689234748482704,-0.030781684443354607,0.12670756876468658,0.058275703340768814,0.01731136068701744,-0.05782206729054451,-0.0718490406870842,-0.08797019720077515,-0.09662029147148132,0.0009493405232205987,-0.033420633524656296,0.04948035255074501,-0.049528609961271286,-0.0470116101205349,0.014200120232999325,0.06425304710865021,0.0627862736582756,-0.039391614496707916,-0.02898450382053852,-0.025930097326636314,0.11881359666585922,0.10575117915868759,-0.09414218366146088,0.021978186443448067,0.01091489102691412,-0.005402863025665283,-0.08101554960012436,-0.01774410530924797,-0.10499133914709091,0.10307452827692032,0.10309316962957382,0.07020501792430878,0.07910573482513428,-0.0001917374465847388,0.049019113183021545,-0.08269459754228592,-0.016309209167957306,-0.06854793429374695,-0.030880264937877655,-0.06996188312768936,-0.0636085569858551,-0.1044873297214508,-0.04776468500494957,-0.13395346701145172,-0.007902576588094234,0.00022387804347090423,0.07557375729084015,0.016725661233067513,-0.06122642010450363,0.08734165132045746,0.0025729392655193806,-0.10520261526107788,-0.014030310325324535,0.08231446892023087,-0.049501627683639526,-0.08737045526504517,0.03458596393465996,0.07111921906471252,-0.10623957216739655,0.07658059895038605,-0.07591129094362259,0.08712858706712723,0.06355603784322739,0.07237311452627182,0.00024385684810113162,0.007219403982162476,-0.09063555300235748,-0.13083022832870483,0.11770112067461014,0.07145009189844131,0.012538040988147259,-0.017751464620232582,-0.04243188723921776,-0.009071063250303268,0.02066093496978283,0.07796194404363632,0.02894003875553608,-0.07446993142366409,-0.001749848248437047,-0.059585507959127426,-0.11662886291742325,-0.007297934032976627,-0.009819070808589458,0.12435375154018402,0.07405900210142136,0.08838415890932083,-0.09210839122533798,0.02433193475008011,0.02034985087811947,-0.02600732445716858,0.08604761958122253,-0.039344463497400284,0.010901657864451408,0.0534248985350132,0.03754623979330063,0.1373240053653717,-0.11072586476802826,0.06311489641666412,-0.02441105991601944,-0.10838791728019714,0.09752897173166275,0.08690086752176285,0.07702053338289261,-0.053826913237571716,-0.02149980328977108,0.06661029160022736,0.014345481991767883,0.09887304157018661,0.06212475150823593,-0.005656057503074408,0.004075096920132637,0.016431447118520737,0.07221829891204834,-0.08519427478313446,0.08931563794612885,-0.04560801759362221,0.1048787385225296,-0.039564330130815506,0.005711013451218605,0.07451639324426651,-0.07951562851667404,-0.09890343993902206,0.02339976094663143,-0.10456344485282898,0.05850779637694359,0.01928180269896984,0.06335552781820297,-0.04599345475435257,-0.02305702120065689,0.06440016627311707,0.12879516184329987,0.04826308786869049,-0.05844690650701523,-0.11119774729013443,-0.0552644357085228,0.03588670492172241,0.0795852541923523,-0.01496974378824234,0.07947300374507904,0.03560249134898186,0.09809288382530212,-0.011366091668605804,-0.001507031498476863,-0.06401775777339935,-0.02194983698427677,-0.12816889584064484,-0.06510113179683685,-0.026816435158252716,-0.1249513179063797,-0.0908060297369957,0.015815258026123047,0.008780698291957378,0.0317712128162384,0.10201522707939148,0.03555728867650032,0.03265957906842232,0.0243989210575819,-0.00014685124915558845,0.06866194307804108,0.02209535241127014,0.08208327740430832,0.11193776875734329,0.008739342913031578,-0.04859710857272148,-0.08389933407306671,-0.044180504977703094,0.046986307948827744,0.1043577641248703,0.057720284909009933,-0.06657744944095612,-0.048629794269800186,-0.10057320445775986,0.11679002642631531,0.07293690741062164,-0.0073607261292636395,-0.054620563983917236,-0.13056810200214386,-0.03256983309984207,0.04772534966468811,0.004944775253534317,-0.059905409812927246,-0.09385222941637039,-0.029748650267720222,0.06687787175178528,0.05948930233716965,0.09997042268514633,-0.05621590465307236,-0.029498672112822533,0.050606660544872284,-0.041482988744974136,-0.07017786055803299,-0.047807566821575165,-0.0019432941917330027,0.11888837814331055,-0.10344071686267853,0.0700710117816925,0.07410233467817307,-0.029687659814953804,-0.03683219105005264,0.023596733808517456,-0.02299034781754017,-0.01680215634405613,-0.10316605120897293,-0.03411624953150749,0.07167733460664749,0.0038262042216956615,0.046725109219551086,0.06730139255523682,-0.09508233517408371,0.07647555321455002,0.0715441182255745,0.026407791301608086,-0.06499248743057251,-0.08129194378852844,0.07892981916666031,0.03243526443839073,0.05266331508755684,-0.0667940080165863,-0.02450381964445114,-0.09376411139965057,-0.04207141324877739,0.014004566706717014,-0.05403747037053108,0.07477965205907822,0.087579146027565,0.021377934142947197,0.10292769968509674,0.03287344425916672,0.07887931913137436,0.01657855696976185,0.027287475764751434,-0.033142998814582825,0.03381511941552162,0.0352829284965992,0.11612918972969055,-0.07204901427030563,-0.03692710027098656,-0.003984440583735704,-0.11216200888156891,0.0613785944879055,0.005435247905552387,0.049275778234004974,-0.016888510435819626,-0.008757170289754868,-0.007534249685704708,0.03684259578585625,-0.11313996464014053,0.09171592444181442,-0.0020062283147126436,-0.08516845852136612,0.041983217000961304,-0.10391652584075928,0.031411364674568176,-0.05712310969829559,-0.04672896862030029,0.0351848378777504,-0.021454017609357834,0.0996321365237236,-0.08439892530441284,0.0016263631405308843,-0.00308956834487617,0.030893130227923393,-0.03536374866962433,0.036252714693546295,-0.12794198095798492,8.204596815630794e-05,0.01488317921757698,0.023611076176166534,-0.09343874454498291,0.0979282408952713,-0.05433763191103935,0.05206522345542908,-0.08406179398298264,0.09026037156581879,-0.05919099971652031,0.0006962565239518881,0.014379877597093582,-0.11828435957431793,0.0634414479136467,0.010437228716909885,0.0549386590719223,0.034146808087825775,0.11594291031360626,-0.04012702405452728,0.037715982645750046,0.03649570047855377,-0.03289416432380676,0.029203932732343674,0.008034828118979931,-0.030938271433115005,0.014368620701134205,0.05158282443881035,-0.02296503633260727,-0.02136850170791149,-0.04454062506556511,-0.0622878260910511,-0.03996892273426056,-0.059177860617637634,0.0638650506734848,0.073751300573349,0.03634549304842949,0.05843215808272362,-0.005056808702647686,0.07099953293800354,-0.04903993010520935,-0.0638330951333046,-0.03465951979160309,0.04546412453055382,-0.04878607392311096,-0.07638487964868546,-0.03221352398395538,0.04394646733999252,0.03658265992999077,0.10575787723064423,-0.0770362988114357,-0.009858334437012672,0.0469130203127861,0.01476762443780899,-0.0868322104215622,0.13091275095939636,0.03204664587974548,-0.03559700399637222,-0.10819176584482193,0.02583361230790615,0.08623045682907104,-0.012437913566827774,-0.06268981099128723,0.0925644114613533,-0.018299642950296402,0.10193244367837906,-0.07849040627479553,-0.06707427650690079,0.011874166317284107,0.057538725435733795,0.07344580441713333,-0.0625866949558258,0.08548496663570404,-0.09811181575059891,0.09277228266000748,0.07845324277877808,0.012137548997998238,-0.10732071846723557,0.10652631521224976,0.021135438233613968,-0.08537174761295319,0.09549563378095627,-0.11898457258939743,0.0822768434882164,-0.1030263751745224,0.11688952147960663,0.03510623052716255,0.041711509227752686,0.01132674515247345,0.08257095515727997,-0.06404293328523636,0.05026104673743248,-0.10438582301139832,-0.05324500799179077,0.058133311569690704,-0.016281837597489357,0.05806679278612137,-0.06485047191381454,-0.05005635321140289,-0.05759246274828911,-0.002281398279592395,-0.09095482528209686,-0.06920521706342697,0.03856714814901352,-0.05151529610157013,-0.06686224788427353,-0.005697040352970362,-0.03208169713616371,-0.03280363604426384,0.06367051601409912,0.10279799997806549,0.0009571496630087495,0.13685765862464905,-0.03820923715829849,0.058781784027814865,-0.043919455260038376,-0.004701905883848667,-0.06767727434635162,0.053869787603616714,-0.031083660200238228,-0.03945324569940567,0.004979553632438183,0.013025190681219101,-0.06349129974842072,0.11017594486474991,-0.038939427584409714,-0.08491415530443192,0.057790182530879974,0.06685630232095718,-0.09899497777223587,0.09157374501228333,0.09067288041114807,-0.05004021152853966,-0.06303738057613373,-0.11066867411136627,0.1025765985250473,-0.005630457773804665,-0.019781984388828278,-0.094084732234478,-0.10938709229230881,-0.05655049532651901,0.017054228112101555,0.05780109390616417,0.09106169641017914,0.08399952948093414,0.12322215735912323,-0.03162967041134834,0.06323885917663574,0.004600878339260817,0.0776076465845108,-0.04012085869908333,-0.08855707198381424,0.05852466821670532,0.00936969369649887,-0.06170337647199631,-0.11189252883195877,0.006902596447616816,0.0062274020165205,0.05174543708562851,0.08643383532762527,-0.05158920958638191,-0.014915949665009975,-0.095862977206707,0.04088031128048897,-0.09573095291852951,-0.06394568085670471,-0.05659880116581917,-0.056228991597890854,0.06133394315838814,-0.0676499679684639,0.052111588418483734,-0.04086767137050629,-0.07899969816207886,-0.04208528250455856,-0.03501320257782936,-0.04455341398715973,0.038654666393995285,0.008665238507091999,-0.005493805278092623,-0.05114538222551346,0.0013078926131129265,0.010945257730782032,0.13193418085575104,0.049139440059661865,0.09238976240158081,-0.09573640674352646,0.0003314456553198397,0.019389482215046883,0.03543366491794586,0.050926920026540756,-0.06430350244045258,-0.10619280487298965,0.05676816403865814,0.09311842173337936,0.0818316861987114,-0.047982312738895416,-0.020326770842075348,-0.03591115400195122,0.0036380640231072903,0.08492890745401382,0.07524584978818893,0.058330606669187546,-0.02580612525343895,-0.010633635334670544,-0.06603755801916122,-0.07220102101564407,-0.011321917176246643,0.07127583026885986,0.025844110175967216,0.06120004132390022,0.09909983724355698,0.023600062355399132,-0.06841681152582169,-0.06911379098892212,-0.047568127512931824,-0.09217832237482071,0.13222849369049072,-0.08910514414310455,0.04517311602830887,-0.07315926253795624,0.01269726175814867,0.012190190143883228,0.02339739166200161,-0.0330706425011158,0.004246670287102461,-0.02886851690709591,0.04491947591304779,0.10141938924789429,0.06538458913564682,-0.1146581768989563,0.059828486293554306,-0.05469346418976784,0.023821989074349403,0.006245986092835665,-0.0021858057007193565,0.023928433656692505,0.004670002032071352,-0.07319089025259018,0.06174017861485481,-0.07987145334482193,0.14961133897304535,0.08895356953144073,-0.009049875661730766,0.017932510003447533,-0.037506312131881714,-0.10151559859514236,-0.09440377354621887,0.0298136156052351,0.01226684171706438,-0.023178625851869583,-0.029596582055091858,0.10489054024219513,-0.0899166688323021,-0.08114299178123474,-0.03986109048128128,-0.10262756049633026,0.039231281727552414,-0.039293963462114334,0.02058035507798195,-0.04760298132896423,0.10243135690689087,0.06397833675146103,-0.08582824468612671,0.03240599110722542,-0.007991893216967583,0.10107622295618057,-0.11678200960159302,-0.03466537222266197,-0.014762447215616703,0.005765305832028389,-0.028623530641198158,0.08616480976343155,0.07609938830137253,0.07451135665178299,0.03641379624605179,0.02297857031226158,-0.09944856911897659,-0.031167292967438698,0.03964493051171303,-0.06853105872869492,0.030314970761537552,0.06368409097194672,-0.09155961871147156,-0.045053478330373764,-0.022600587457418442,0.029269859194755554,0.06131366267800331,0.06073063239455223,0.05151698365807533,-0.009526653215289116,0.010367726907134056,-0.07236137986183167,0.002289378549903631,-0.07572106271982193,0.06039416044950485,0.07062125951051712,0.12195901572704315,0.07569089531898499,0.06796655803918839,-0.033861562609672546,-0.049805428832769394,-0.08888226002454758,-0.07714124768972397,0.040103886276483536,0.05971568077802658,-0.039413560181856155,0.04390199854969978,-0.10829081386327744,-0.03158187121152878,-0.057591188699007034,0.03335341066122055,0.06250252574682236,-0.011163386516273022,0.01993819698691368,-0.030306829139590263,0.0393180288374424,0.06942910701036453,0.0681057795882225,0.03834797069430351,0.10846289992332458,0.09854680299758911,-0.018679480999708176,-0.08358381688594818,0.00355733186006546,0.028989771381020546,-0.027098311111330986,0.058011312037706375,0.01002070028334856,-0.05814193934202194,-0.12338390201330185,-0.08809173107147217,-0.08302093297243118,-0.018781226128339767,-0.10566860437393188,0.08834654837846756,0.05583476275205612,-0.04399855434894562,0.12809187173843384,0.10744044929742813,-0.049470454454422,-0.011327346786856651,-0.07894352078437805,0.06253623962402344,0.0026418629568070173,-0.08715056627988815,0.03924412280321121,-0.002685828600078821,-0.14136074483394623,-0.06164807453751564,0.07123218476772308,0.007849875837564468,-0.06049932539463043,0.04868808016180992,-0.057999387383461,0.06390070915222168,0.11276499927043915,-0.07335550338029861,0.030690018087625504,-0.08231814950704575,0.017498819157481194,0.01542655285447836,0.0019105286337435246,-0.023781368508934975,-0.05932258814573288,-0.0020144942682236433,-0.0690855085849762,0.03097662888467312,0.06417851895093918,-0.0682721808552742,0.019870460033416748,-0.09388253837823868,-0.0883936733007431,0.006876193452626467,0.09735879302024841,0.11500883847475052,0.05729975178837776,0.007812950760126114,-0.06134353205561638,0.055566590279340744,0.021256431937217712,-0.06013352796435356,0.004696842283010483,-0.07764158397912979,0.1003495380282402,-0.08748084306716919,0.05512779951095581,-0.04787379503250122,0.08616764098405838,0.10977404564619064,0.0872756764292717,-0.08118393272161484,0.1222844272851944,-0.04721381887793541,-0.01312626339495182,-0.06381804496049881,0.026652183383703232,0.009778651408851147,-0.012108403258025646,0.010770558379590511,-0.027520129457116127,-0.04513213410973549,0.0619409941136837,0.016607092693448067,-0.029993781819939613,-0.03865263611078262,-0.09369064122438431,-0.10514342784881592,-0.015921298414468765,-0.029839294031262398,0.09496933966875076,0.09788069874048233,-0.01793026551604271,-0.08581351488828659,0.08259738236665726,-0.03117990680038929,-0.11915484070777893,0.08679070323705673,0.04869620501995087,-0.09198044240474701,-0.018769199028611183,-0.06075476109981537,0.014637711457908154,0.10342857986688614,-0.07854367047548294,-0.06852421164512634,0.03340945020318031,0.00046783805009908974,0.045577820390462875,0.03671729564666748,-0.08722744137048721,0.0020419114734977484,-0.011311030946671963,0.05818580090999603,0.09686221182346344,-0.09481929242610931,0.11286135017871857,0.06851266324520111,0.022799601778388023,0.04853237420320511,-0.0361589752137661,-0.05182763934135437,0.037216801196336746,-0.09607093781232834,-0.05836154893040657,0.09901890158653259,0.05398068204522133,0.08001310378313065,-0.051924437284469604,0.024474862962961197,0.06307191401720047,0.03211797773838043,-0.04983527585864067,-0.08343879878520966,0.09954481571912766,0.0953250378370285,-0.03291839361190796,-0.04468616470694542,-0.036331597715616226,-0.07187043875455856,9.462548769079149e-05,0.0874238982796669,0.03471436724066734,-0.02109527215361595,0.014655625447630882,-0.08352264016866684,0.11336705088615417,-0.05891870707273483,-0.019968198612332344,-0.025666145607829094,0.011870571412146091,0.015515316277742386,0.032977741211652756,-0.05385991930961609,-0.022457130253314972,-0.08401983976364136,0.03079633228480816,0.0661022886633873,0.000536564679350704,0.05602063238620758,0.062290895730257034,0.0006828726036474109,0.07685533165931702,-0.11988982558250427,-0.0714183822274208,0.030633024871349335,-0.004767939448356628,-0.052227817475795746,0.007459928747266531,0.07252460718154907,0.10486697405576706,-0.066652812063694,0.009576467797160149,0.09787529706954956,-0.10628262162208557,-0.023848799988627434,0.09110920131206512,0.10104286670684814,0.034621886909008026,-0.0005366279510781169,0.014113683253526688,-0.03012850694358349,0.05238126218318939,-0.019059237092733383,-0.09671400487422943,-0.030173616483807564,-0.038207560777664185,0.017327548936009407,-0.09907270222902298,-0.001769942813552916,0.046282101422548294,-0.041937895119190216,0.06542965769767761,-0.048595674335956573,-0.008851618506014347,0.02353166788816452,-0.06076396256685257,0.04678785055875778,-0.08029087632894516,0.040275171399116516,0.04341764375567436,0.08548519015312195,-0.08150828629732132,0.06429114937782288,0.003091619350016117,-0.11081980913877487,0.056560978293418884,-0.06867824494838715,0.024355990812182426,-0.11419223994016647,-0.03361903503537178,0.04578370228409767,-0.09695261716842651,-0.1060367077589035,0.0586421862244606,0.07163721323013306,0.03398720175027847,-0.03606920316815376,-0.0929206907749176,-0.0691363662481308,-0.04105671867728233,0.05839787423610687,0.11306357383728027,0.009599276818335056,0.08866024762392044,0.09286618232727051,0.01258450374007225,0.10752812772989273,-0.0710146576166153,0.07920088618993759,-0.011412352323532104,-0.09225375205278397,-0.05929148569703102,0.06719447672367096,0.02753070555627346,0.007144083734601736,-0.04911309853196144,-0.04731878638267517,0.006422059144824743,-0.10458606481552124,0.08172227442264557,0.0005510688060894608,-0.028909021988511086,0.0952790379524231,-0.027700044214725494,0.046290960162878036,-0.11218345165252686,0.05409162864089012,-0.011871346272528172,0.06436745822429657,-0.11952614784240723,0.028909916058182716,0.09942153096199036,-0.08007164299488068,0.06485645473003387,0.011462870053946972,-0.09605182707309723,-0.035691745579242706,-0.07583487778902054,0.03531385958194733,-0.09217888861894608,0.012926742434501648,-0.022513996809720993,0.09718126058578491,-0.07620318233966827,-0.09790078550577164,0.015165801160037518,-0.11622676998376846,0.055927932262420654,-0.008024914190173149,0.08895441889762878,0.0074769845232367516,-0.0006863923044875264,0.08498167246580124,-0.019244758412241936,0.05916614085435867,-0.04312368854880333,0.06308579444885254,-0.08264413475990295,0.12155574560165405,-0.00240345043130219,0.009423104114830494,-0.011223939247429371,-0.018005495890975,-0.043245479464530945,0.045259490609169006,0.04704717546701431,-0.014318169094622135,0.022537047043442726,-0.007382264360785484,-0.13074050843715668,0.0058395741507411,0.08759485930204391,0.030900919809937477,-0.11004378646612167,0.04709361493587494,0.028140012174844742,0.02543502114713192,-0.061185408383607864,-0.0815032348036766,-0.0634259581565857,-0.014714923687279224,-0.03768063709139824,-0.07700338959693909,-0.1001163125038147,0.006716434843838215,0.09862536191940308,0.06233762204647064,0.0005027882289141417,0.04485924914479256,0.030963987112045288,-0.10186342895030975,0.013689211569726467,-0.05129360035061836,0.06328178197145462,0.04648089408874512,0.060424305498600006,-0.024989256635308266,0.05361783877015114,0.03672628849744797,0.11381599307060242,-0.03545770421624184,-0.06582493335008621,-0.0322251059114933,-0.08056486397981644,0.05920060724020004,0.07421905547380447,0.050597257912158966,0.04180781915783882,-0.12118503451347351,0.06689099967479706,0.057703983038663864,-0.10515745729207993,-0.03662558272480965,0.0013891622656956315,0.06948664039373398,0.01578996703028679,-0.021467410027980804,-0.05558831989765167,0.08206254988908768,-0.02270783670246601,-0.04261881113052368,0.04434395581483841,0.08252619951963425,0.06558455526828766,-0.07127725332975388,0.1060713604092598,-0.08404592424631119,-0.07159969210624695,0.052317824214696884,-0.03047487698495388,-0.08052759617567062,-0.0004762268508784473,-0.025640228763222694,-0.10060805827379227,0.093408964574337,0.10704725980758667,-0.026879940181970596,0.08622918277978897,0.051800478249788284,0.04334953427314758,-0.03575538471341133,-0.09371525794267654,0.03578715771436691,0.06759936362504959,-0.05795420706272125,-0.054387785494327545,-0.05932271108031273,-0.07022012770175934,0.08210041373968124,0.06719759851694107,-0.08722610771656036,0.09668026864528656,-0.05027469992637634,-0.04354379326105118,-0.08885975927114487,0.0055509149096906185,-0.051455527544021606,-0.1037634089589119,0.0368666872382164,0.026675378903746605,-0.04028552770614624,0.014506670646369457,-0.0598364993929863,-0.04887552559375763,0.03537565469741821,-0.012193162925541401,0.061425596475601196,-0.01429614145308733,0.057834938168525696,-0.06445048749446869,0.03340199589729309,0.011965608224272728,0.03281775861978531,0.10730752348899841,-0.03914245218038559,0.09045031666755676,-0.10813979059457779,-0.06311368942260742,0.07003046572208405,-0.07004684209823608,-0.1049252450466156,0.07855208963155746,0.10012020170688629,0.09135694801807404,-0.06174154579639435,0.1233225166797638,-0.009992416948080063,-0.01968953385949135,-0.010784348472952843,0.004384128842502832,-0.02025044895708561,0.06755616515874863,-0.07038848102092743,0.0438176654279232,0.0038401132915169,-0.06532739102840424,-0.03265252336859703,-0.08905943483114243,-0.10420109331607819,-0.05957797169685364,0.07672496140003204,-0.04935663193464279,-0.06835684180259705,0.1048804223537445,0.009807884693145752,-0.09552060067653656,0.07104701548814774,-0.028945783153176308,0.0547429583966732,-0.08989501744508743,-0.0957595482468605,0.014069082215428352,0.014320451766252518,-0.014565717428922653,0.08150817453861237,0.10396475344896317,0.1181064173579216,0.030036356300115585,-0.0984865128993988,-0.09917829930782318,-0.051009006798267365,-0.009854706935584545,-0.03649263456463814,-0.06166447699069977,0.09078067541122437,0.09056106954813004,0.004610562231391668,-0.11570222675800323,-0.03670305386185646,-0.05227849632501602,0.021616920828819275,-0.02501658722758293,-0.10032016783952713,0.05542180687189102,0.11908771097660065,0.1131100133061409,0.041639041155576706,-0.058283060789108276,0.003915576729923487,0.1120813861489296,0.07321392744779587,-0.042231250554323196,0.10135868936777115,0.07899007201194763,-0.031371064484119415,0.03773321211338043,0.011138537898659706,0.10254901647567749,-0.0780985951423645,-0.032358430325984955,0.03427455574274063,-0.1061522588133812,-0.036891303956508636,0.10962410271167755,-0.0711529552936554,-0.021767832338809967,0.07256105542182922,0.0027143540792167187,0.08974828571081161,-0.04453133046627045,0.08000186085700989,0.11689162999391556,0.02051352895796299,-0.058074332773685455,-0.04274449497461319,0.11411616206169128,-0.13450303673744202,0.0008664712659083307,-0.0880851000547409,-0.048414234071969986,-0.05053836852312088,0.036429956555366516,0.03798093646764755,-0.00097385369008407,-0.04266732186079025,-0.05404485762119293,0.03140381723642349,-0.08068007230758667,0.10311710834503174,-0.04505285248160362,-0.013166690245270729,0.06700406968593597,-0.01498562004417181,-0.08512062579393387,-0.005453786347061396,-0.0556037463247776,0.029769303277134895,-0.003121156943961978,0.06483429670333862,0.10072057694196701,0.0657304972410202,0.003659434849396348,0.037732843309640884,-0.07260365039110184,0.005995799787342548,-0.04133408144116402,-0.003666526870802045,-0.014129199087619781,0.061025988310575485,0.0323915109038353,0.006902862340211868,-0.04881295561790466,-0.05148865282535553,0.10019639879465103,0.025853067636489868,-0.10521706193685532,0.010042714886367321,-0.03564973920583725,-0.06360316276550293,-0.042915228754282,0.10424602031707764,-0.032599277794361115,-0.0114238690584898,0.11360737681388855,-0.0477428212761879,-0.043675508350133896,-0.01991300843656063,-0.07176459580659866,-0.004649778828024864,0.022335419431328773,-0.009552719071507454,0.025628529489040375,-0.07204146683216095,0.10942453145980835,-0.03971714898943901,0.0011705379001796246,0.04549593850970268,-0.021209564059972763,-0.060496021062135696,-0.07527103275060654,0.030406568199396133,-0.06345710158348083,-0.012300909496843815,-0.02625921368598938,0.11368534713983536,-0.05376771464943886,-0.07283726334571838,0.03965139016509056,-0.0287111047655344,0.019484683871269226,-0.0863354429602623,0.09031182527542114,-0.062614306807518,0.031181147322058678,-0.05133737623691559,0.030013715848326683,-0.08636300265789032,0.06198682263493538,-0.058843791484832764,0.14887763559818268,0.020686542615294456,-0.058184780180454254,-0.036491308361291885,-0.057057272642850876,0.016815807670354843,-0.06240091100335121,0.1077115535736084,-0.03913755714893341,-0.016698677092790604,-0.02369861677289009,-0.02824920229613781,0.08597690612077713,-0.016324033960700035,0.08743376284837723,0.058663129806518555,0.07199281454086304,-0.07676038891077042,0.04121989756822586,0.07616008818149567,-0.0769086480140686,0.04620037227869034,0.02875271625816822,-0.06351688504219055,0.09135846048593521,0.01792803779244423,-0.08504196256399155,0.07657259702682495,-0.07351349294185638,-0.05164822190999985,0.06848540902137756,0.10067634284496307,-0.07902456074953079,0.03718583285808563,0.004388176370412111,0.0164190586656332,0.0638996958732605,-0.04637395590543747,0.029541274532675743,0.10084240138530731,-0.07571863383054733,-0.0005674755084328353,0.03558749333024025,-0.08397937566041946,-0.05007385462522507,-0.01340334489941597,0.020839931443333626,-0.0428495816886425,0.05605917051434517,0.006103390362113714,0.10105659812688828,0.05103008449077606,-0.054960947483778,-0.023829922080039978,0.02222050167620182,0.03301883488893509,-0.043155014514923096,-0.014570516534149647,-0.050178855657577515,-0.011997762136161327,-0.05775798112154007,-0.015951745212078094,0.022768598049879074,-0.02447795681655407,0.09926247596740723,-0.03183756023645401,0.08011357486248016,-0.106117844581604,-0.0054666283540427685,-0.09382160007953644,-0.07537548243999481,-0.0731256753206253,-0.04899129271507263,0.016034724190831184,0.007840187288820744,-0.007879815064370632,0.12528426945209503,0.025211168453097343,0.011556731536984444,-0.031632937490940094,0.10224638134241104,0.08534925431013107,0.005371601786464453,-0.017640620470046997,0.016793500632047653,0.0375080443918705,-0.003531404072418809,-0.020874591544270515,-0.03815506771206856,-0.05838095769286156,-0.06944321095943451,-0.038412611931562424,-0.010820046067237854,0.07220268994569778,-0.10329879075288773,-0.031272802501916885,0.05464193969964981,-0.038410939276218414,0.033566541969776154,-0.10221666842699051,0.0666903704404831,0.024654556065797806,0.007283606566488743,-0.050252340734004974,-0.02787034772336483,0.0594496876001358,0.07403971999883652,0.08594456315040588,-0.005144408438354731,0.03969742730259895,0.03475283458828926,0.008849374949932098,0.05807337164878845,-0.06261079758405685,-0.07411463558673859,-0.08877558261156082,0.020566213876008987,-0.07220952957868576,0.04829547181725502,-0.03630290552973747,0.10541602224111557,-0.06642032414674759,-0.09472373872995377,0.012864973396062851,-0.05564834922552109,-0.0652601420879364,-0.08190120756626129,-0.048979632556438446,-0.037685465067625046,-0.008724994026124477,0.035412173718214035,0.018415190279483795,0.06188373267650604,0.04363730549812317,-0.0045133111998438835,6.281625246629119e-05,0.14857278764247894,-0.054910462349653244,-0.022584354504942894,0.08648495376110077,0.015230737626552582,0.04058733209967613,-0.053094834089279175,-0.021392986178398132,-0.001391007681377232,-0.0409126877784729,-0.00489648524671793,-0.07318595796823502,0.08265016973018646,-0.027522694319486618,-0.07986286282539368,0.00020845750987064093,0.03548424318432808,-0.012111710384488106,-0.08153738081455231,-0.07744362205266953,0.0004587920557241887,-0.015397749841213226,0.05373888090252876,-0.044162850826978683,-0.05329404026269913,-0.0726442039012909,-0.06068648770451546,-0.12822842597961426,-0.04454771801829338,0.0982298031449318,-0.10327324271202087,-0.11601582914590836,0.07497615367174149,-0.0785389393568039,-0.049372509121894836,-0.06456705182790756,-0.006041242741048336,0.038489487022161484,-0.014715267345309258,-0.015120619907975197,0.07571149617433548,0.07200251519680023,0.016286050900816917,0.0369485467672348,-0.015721317380666733,0.0018583987839519978,0.09746992588043213,0.056351736187934875,-0.007355636917054653,0.006867585238069296,0.052674971520900726,1.0127175755769713e-06,-0.03299405425786972,-0.011175473220646381,-0.0065469518303871155,-0.09638699889183044,-0.05776602029800415,-0.008917707949876785,0.12486641854047775,0.018839430063962936,0.06731001287698746,0.0374392606317997,-0.03072524443268776,-0.03152843937277794,-0.0023667386267334223,0.061016667634248734,0.010434309020638466,0.050423890352249146,-0.012834751978516579,0.06407498568296432,-0.08305075019598007,0.0023830640129745007,0.12223861366510391,-0.012245611287653446,-0.02732357755303383,0.024297410622239113,0.04919464513659477,0.07250846177339554,-0.034041691571474075,0.026466716080904007,0.05631953477859497,-0.0011145430617034435,0.002821769332513213,0.04793863371014595,-0.05939892306923866,-0.04331078752875328,0.04980112984776497,-0.03528125211596489,0.12192684412002563,-0.08135858178138733,-0.06570683419704437,0.06474563479423523,0.09329110383987427,-0.08442256599664688,0.08962613344192505,0.050278693437576294,0.04924129322171211,0.022084539756178856,-0.004851571749895811,0.06282299757003784,0.0751040056347847,-0.09714136272668839,-0.009491766802966595,-0.035289376974105835,-0.03926333039999008,-0.08968031406402588,-0.09557148814201355,0.06628136336803436,-0.05827087163925171,-0.08266696333885193,0.08821272850036621,0.007835295051336288,0.029456263408064842,-0.07137922197580338,-0.017827561125159264,-0.019807519391179085,0.029929833486676216,-0.050894059240818024,-0.0008528251782990992,0.05712791159749031,-0.06137743219733238,0.00124174146912992,0.10972902923822403,0.0021228804253041744,0.06398259848356247,0.06362339109182358,0.03037857636809349,-0.10813435912132263,0.04627365618944168,0.05376186594367027,-0.09790385514497757,0.07772965729236603,-0.06629146635532379,0.060905035585165024,-0.07145646959543228,-0.06239014491438866,0.06299164891242981,0.03393604978919029,0.056334514170885086,-0.0024290140718221664,-0.08067826926708221,0.0656445175409317,0.0832289308309555,-0.05978483334183693,0.038173358887434006,0.04139503464102745,-0.0015005310997366905,-0.07476656138896942,0.006597087252885103,-0.09201472997665405,0.0949101597070694,-0.007339611649513245,0.08401152491569519,-0.10422829538583755,-0.009861508384346962,-0.02785293571650982,-0.09200302511453629,0.09099263697862625,0.02993171662092209,-0.0664842426776886,-0.03871281445026398,-0.09303095191717148,0.09602957963943481,0.04628060385584831,0.0301191583275795,0.007844011299312115,0.03586432710289955,-0.006233393680304289,0.039075758308172226,0.054260581731796265,0.11291464418172836,-0.02400461584329605,-0.027276935055851936,-0.037914812564849854,-0.003878674702718854,-0.0503733828663826,0.016524625942111015,-0.005507705733180046,0.03278631716966629,0.07073410600423813,0.020391199737787247,-0.07180695235729218,-0.018525931984186172,0.017895378172397614,0.06967365741729736,-0.07409445196390152,0.013619551435112953,-0.029369425028562546,-0.10206111520528793,-0.07974966615438461,-0.06278391182422638,-0.09719361364841461,-0.098495714366436,0.08054850995540619,0.09280819445848465,0.01976248249411583,0.10732170194387436,0.016747355461120605,-0.041157495230436325,-0.0247876588255167,0.11341758072376251,-0.04854932054877281,0.06668873876333237,0.10099486261606216,0.02101937122642994,-0.10609931498765945,-0.0795561894774437,0.10867281258106232,0.050688568502664566,-0.0526946522295475,-0.08549623191356659,0.05200204625725746,0.07640396803617477,-0.050658103078603745,0.06923691183328629,-0.05939727649092674,0.058852192014455795,0.04924681782722473,0.02656417340040207,0.032358139753341675,-0.03447427600622177,-0.12457768619060516,-0.07169433683156967,-0.055235326290130615,-0.10740353167057037,-0.010875539854168892,-0.006287287920713425,-0.10777665674686432,0.09638743102550507,0.09932982921600342,0.028508035466074944,-0.08278904110193253,0.06620191782712936,0.10115759074687958,0.07656677812337875,0.023901380598545074,-0.0907134935259819,-0.0709848552942276,0.004545621573925018,0.1121714860200882,-0.10511772334575653,-0.11314769834280014,-0.05651901662349701,0.03130330890417099,0.08647482097148895,-0.008538258261978626,0.018647851422429085,0.12409575283527374,-0.03955700621008873,-0.06944189965724945,-0.0688764676451683,-0.04226108267903328,-0.023266427218914032,0.09352777153253555,-0.05368100479245186,0.03298676013946533,0.002971091540530324,-0.01354199182242155,0.10751360654830933,0.04587655887007713,0.03966614976525307,-0.09365452826023102,0.029116617515683174,-0.07723309099674225,-0.020061399787664413,0.1038721352815628,-0.053927917033433914,0.08523160964250565,0.0887938141822815,0.1233571469783783,-0.019559675827622414,0.050409138202667236,0.01910202018916607,0.11115849018096924,-0.09691686183214188,-0.05831431597471237,0.0003128421085420996,0.06703545153141022,0.027753455564379692,-0.040265556424856186,-0.0138984564691782,-0.009653397835791111,-0.012791804037988186,0.02458144724369049,-0.017579566687345505,0.019223399460315704,-0.03317878022789955,0.0878981277346611,-0.11759071052074432,0.0817904993891716,-0.05614938586950302,-0.055325593799352646,0.01255500502884388,0.07102438807487488,-0.10833641141653061,0.0366341769695282,0.0661291629076004,0.014034289866685867,-0.08452709019184113,0.0034027479123324156,0.10380486398935318,0.02441689558327198,0.02645297348499298,-0.07613376528024673,-0.015385225415229797,0.010275868698954582,-0.12527425587177277,-0.02092859148979187,-0.06428621709346771,-0.0445324182510376,0.03643585741519928,0.04729616269469261,0.02412404865026474,-0.039384469389915466,0.009083894081413746,0.014271925203502178,0.0036945450119674206,-0.01225131656974554,-0.021026654168963432,0.13092578947544098,-0.027529826387763023,-0.10162422060966492,-0.12006361037492752,-0.08581054210662842,-0.00945972464978695,-0.04044798016548157,0.09518412500619888,0.11158017069101334,0.06566861271858215,0.0857379287481308,-0.013120954856276512,0.08833325654268265,0.051115330308675766,-0.06280536949634552,-0.10907179862260818,0.08528722077608109,0.007784019224345684,-0.054241061210632324,0.10169225186109543,-0.07921438664197922,-0.021709980443120003,0.09200681000947952,-0.09026151150465012,-0.02545955777168274,0.050581641495227814,-0.02148381434381008,0.028558004647493362,-0.07204178720712662,0.0876382514834404,0.09324534237384796,0.12136201560497284,0.07444889098405838,0.04021931812167168,0.10562916100025177,0.005804609041661024,-0.024035999551415443,0.0005565484170801938,-0.03539656475186348,-0.06319581717252731,-0.09442853182554245,-0.029812946915626526,0.08833108097314835,0.025448143482208252,-0.03707529604434967,0.057258058339357376,0.07021088153123856,-0.02014114148914814,0.028917677700519562,0.026503117755055428,-0.023682646453380585,-0.007580154109746218,-0.07035477459430695,-0.0698825791478157,-0.0924491435289383,0.09933967888355255,-0.03986356407403946,0.030763790011405945,0.020004164427518845,0.04657355323433876,0.12798278033733368,0.09207524359226227,-0.1012740507721901,-0.09262220561504364,0.05771822854876518,-0.11541172862052917,0.08736354112625122,-0.03293139114975929,-0.052713822573423386,0.08410107344388962,-0.10400921106338501,-0.08716656267642975,-0.04963899031281471,-0.07547036558389664,0.09018822014331818,-0.020216988399624825,-0.06827867776155472,-0.060871515423059464,-0.007569956127554178,0.06375779956579208,0.004615283105522394,-0.0777849555015564,-0.08507174998521805,-0.027973029762506485,-0.08259089291095734,-0.045146241784095764,0.006114377174526453,-0.09104490280151367,-0.016665635630488396,0.0031356324907392263,-0.0401122160255909,-0.07913485169410706,-0.07299588620662689,0.08673232793807983,-0.09471680968999863,-0.08299817144870758,-0.08712897449731827,0.01806466467678547,0.09076257050037384,0.06571067124605179,0.05781162530183792,0.11284520477056503,0.033546991646289825,0.08662369847297668,-0.052657488733530045,0.026050958782434464,0.11249729990959167,0.0016916238237172365,0.018427541479468346,-0.06310443580150604,-0.034533239901065826,-0.05366513133049011,0.04792796075344086,-0.003761105937883258,0.037043072283267975,-0.02453899383544922,-0.05264301225543022,0.08256515860557556,0.08080170303583145,0.04862893372774124,0.1038874015212059,0.054401203989982605,0.046636439859867096,0.06720238924026489,-0.09242192655801773,0.02519400417804718,0.053567465394735336,-0.013440956361591816,0.052297405898571014,0.0653546005487442,0.07307634502649307,-0.061740532517433167,0.07264069467782974,0.10573762655258179,-0.062337372452020645,0.08557490259408951,-0.07481619715690613,-0.0708492249250412,0.07472299039363861,0.09370869398117065,-0.024078309535980225,0.05788598582148552,0.004583120346069336,-0.055818092077970505,0.0494728721678257,0.007241557817906141,-0.0008075626683421433,-0.09359072893857956,-0.09924468398094177,0.06322924792766571,0.06296759098768234,-0.02735980413854122,0.07081441581249237,0.04371964931488037,-0.11495817452669144,0.04722045734524727,-0.10228679329156876,0.0791257992386818,-0.011713786981999874,0.06001376360654831,-0.12199337780475616,0.03676704317331314,-0.08211255818605423,-0.11312147974967957,-0.1222115159034729,-0.03379980847239494,-0.07242783904075623,-0.04247284308075905,0.03552113473415375,-0.010589341633021832,-0.09428671002388,0.04152565822005272,-0.09497945010662079,0.06366453319787979,-0.06046189367771149,0.0033271044958382845,-0.0966898500919342,-0.02407008223235607,0.01498731691390276,0.0510559156537056,0.0719650611281395,-0.06750193238258362,0.00839611329138279,0.03360540419816971,-0.025422491133213043,-0.005163379944860935,-0.09938852488994598,0.10996489971876144,-0.058027252554893494,0.09600070863962173,0.07685151696205139,-0.026581931859254837,0.042939286679029465,-0.05799943581223488,0.04750644415616989,-0.00730335246771574,-0.04071923345327377,0.03092830628156662,-0.010641045868396759,-0.0027781911194324493,0.05518563836812973,0.010935675352811813,-0.051374565809965134,0.12511397898197174,-0.04866595193743706,0.0040068067610263824,0.03954904153943062,0.0868038684129715,-0.09380744397640228,-0.00596015015617013,0.13044224679470062,-0.003192886244505644,-0.05127384141087532,0.011223830282688141,-0.11046623438596725,-0.04678646847605705,-0.05872030928730965,-0.06900545954704285,-0.11120671778917313,0.04085823893547058,-0.04425559937953949,0.008587165735661983,-0.06255526095628738,-0.029127268120646477,-0.135285422205925,0.0751640573143959,0.11162596940994263,0.047323308885097504,-0.025411589071154594,0.035057660192251205,-0.07660336047410965,-0.019682418555021286,-0.08005918562412262,-0.0715312734246254,-0.011437532491981983,0.04336177185177803,-0.06897446513175964,0.06153983995318413,0.11477654427289963,-0.08132041990756989,0.10903510451316833,-0.023264039307832718,-0.0466800220310688,0.0587390698492527,-0.03597429767251015,0.005336385685950518,-0.014258409850299358,0.08154547959566116,0.0012859898852184415,0.03447035700082779,0.006381261628121138,-0.09882443398237228,0.006831913720816374,-0.022057773545384407,-0.047867968678474426,0.11043299734592438,-0.09042434394359589,-0.05431608110666275,-0.07887766510248184,0.09170795977115631,-0.07648972421884537,0.050348810851573944,0.05383167788386345,0.09469857811927795,0.07621704787015915,-0.04798949882388115,0.10973548144102097,0.07277990877628326,-0.009416596032679081,0.07855438441038132,0.045334342867136,-0.07811026275157928,0.07625100016593933,0.043904270976781845,0.08361583948135376,-0.016176074743270874,0.08159433305263519,-0.026154272258281708,-0.06671953946352005,0.13175834715366364,0.021136807277798653,-0.018928244709968567,-0.061994753777980804,-0.08608155697584152,0.07213766872882843,-0.029436400160193443,-0.0664486363530159,-0.06939191371202469,0.08855585008859634,0.09765715152025223,-0.06823421269655228,0.014080820605158806,-0.07710586488246918,0.01970718987286091,0.09236904978752136,0.05950706824660301,-0.0813589096069336,-0.06526488810777664,0.033624179661273956,0.03796708583831787,0.07208485156297684,-0.03387857973575592,-0.10015769302845001,0.0759083703160286,0.009088576771318913,-0.07517311722040176,0.0558396615087986,0.011639048345386982,-0.08908488601446152,-0.09751333296298981,-0.001386305782943964,-0.06091156601905823,-0.07049236446619034,-0.09365270286798477,-0.022714560851454735,0.07114116847515106,-0.052688661962747574,-0.05099336430430412,-0.08801605552434921,-0.02984093688428402,-0.054810717701911926,0.05658114328980446,-0.05835716798901558,0.064997099339962,-0.03034646064043045,-0.03773567080497742,-0.019469615072011948,0.08818294107913971,0.09804482012987137,-0.024039890617132187,0.003251646412536502,0.05481034889817238,0.05652999505400658,0.045084938406944275,0.040914472192525864,-0.02337179146707058,-0.007255266886204481,0.024007165804505348,0.04754128307104111,-0.014498436823487282,0.040855102241039276,0.06704717129468918,0.04316740855574608,0.02037239633500576,-0.026285672560334206,-0.11932267993688583,0.12530142068862915,0.026766950264573097,-0.11834236234426498,-0.02917923592031002,-0.0053445338271558285,0.09585285931825638,0.03494677320122719,0.007151328958570957,-0.02271227538585663,0.10554216802120209,-0.09274404495954514,-0.03624344989657402,-0.09356126189231873,0.06601303070783615,-0.05324539914727211,0.06719020754098892,0.012789602391421795,0.07881885021924973
